6.906698889794523
4.785434140604794
-5.866153657650016
-5.268273390362699
5.134244588427815
-8.667230188998085
-5.838317133581438
5.427182436977502
-5.597102868102261
3.3153471808774317
10.004928059515107
-4.749876015434611
-4.87026247441998
-6.072995497976916
9.356424234925072
-5.001186627416855
-4.7812064758599275
3.443393355719664
5.083242310777396
-5.558429920389186
-2.707562632821859
2.2639491011822455
-3.2410900150394464
-9.947855194697247
-1.5328673329823737
-9.043028389632566
-5.400154764990432
7.828522176895347
-8.639210565697207
-3.769430705451965
1.2838980572949055
7.374175186599173
3.4842571845778085
-4.133624778580115
0.5190640579896518
-11.645962191737807
-10.329284178590466
4.266554275245448
7.9620178628967535
8.189004426477295
-5.008970689860978
0.9766161581096587
-8.831616060689273
-8.841045238505867
-9.266111716176994
1.9871553896628835
3.2947016283193395
7.176163223144712
-1.934595671750478
7.384364837234083
8.229231227956658
9.035763684906996
3.639584864606158
-1.1525570230712268
-3.01522478519593
-4.068740550381287
-2.3422583190907167
-10.17580003926753
-13.953374477066292
-3.7057995657711027
17.36290941856678
-1.77471088802011
3.6574205452857798
-3.3685618053976474
-8.429726424785649
-5.081729115067105
-8.522370078756037
8.3320390957631
-4.592584064036902
-2.815330859082501
9.052689940086575
3.690299176669039
-12.466445174531634
-4.651777539289399
3.8806883827289695
-0.1438149413034096
-0.4845481188712674
-8.216884172052241
-16.896571020173276
-4.112386642566518
8.004407812612605
5.180344961060997
-12.772972786094593
-9.490871273244291
3.444236001800201
-2.5670134133572575
8.843892653619633
-7.759945287978546
10.571376243283098
-14.553483302042212
-3.7579339475638776
1.5026418448344483
-7.84898046446822
-6.745579064640038
-13.101259778034295
-7.588305884084803
-6.051953785781536
-18.563874794315396
-3.239590463373974
-18.25723536554089
6.407543735780623
7.4021924882544345
-10.252456874922558
-8.302934010075735
-5.786573854127735
-6.637628753987238
2.188028757948067
-6.0909032551084366
-5.105637924261009
-4.448621835184876
-4.52676355916211
-5.378255502704088
11.200499077746244
6.074506683946554
2.6253044920938473
4.829884705494607
-5.330744271001378
-11.012778878151032
1.063017692658542
-6.025625088412587
-4.584187406865685
6.933098979506047
3.8560105448668627
-6.797335536631886
-2.0417774205876382
6.792177129376295
-7.582927413100194
0.09676966244162821
-2.27879730996645
-8.940484522030141
0.9155040095956878
2.8329130027428366
3.6513493881195953
-12.786866821521954
-3.021521145513719
13.594634758447373
7.542114909924418
7.024926809084752
-15.381473333969177
11.032534458810934
-4.465100760214203
-2.566824869942144
1.2775938779338292
-0.2537437952713386
-16.90329360910282
-1.3997636649473875
-3.1395292535825443
4.434305541032443
-0.5714876745110763
-6.101764650317429
-9.94681657199713
-11.22415202742135
-0.31528240245954964
4.681228633812673
9.246958183660025
4.76325573238186
-5.86765186258301
4.979662081686855
-0.07500863293322146
-0.7357609950196429
-20.238273875884857
-13.318266051918396
-10.189995700014853
-13.991450806313804
-3.5194720687095895
-5.554509789449032
0.5944627195592005
-8.543614625755966
-10.698150604555803
-8.369971919445886
