-5.95324111508166
0.6616420698243071
-3.4718344822274645
-6.669777141342571
-4.12008986362657
5.539213886361717
-2.691368153479925
0.6504415466093134
-1.2605435670018932
-3.5577385599715243
0.0013244244602214985
-2.6086461409567097
0.799675017162939
2.8812246955704683
5.052348301492795
-3.3099014151394397
2.1016525590103523
6.40300337587135
-4.035183009151808
0.5726741047814141
-1.326655905436706
-5.963932686446001
-1.2752859787680348
-1.1564628032232616
-0.03205116221951927
2.860158376944132
1.5400448041846333
-3.472874728566593
-5.334436609654551
-3.2704724796065094
0.02422298127289415
5.22471595664221
5.972665404581624
-2.7022388850991423
-2.972440696012319
-6.289215670449668
-3.0212568156793194
1.816632160360123
-1.636590884053473
-1.220638043575639
-0.9829416695458257
7.818738382315176
-2.000696272610573
2.753186716241394
-3.288636177823143
-1.394213652777193
-0.7843012561978003
-5.331166252346493
1.4391063718478605
-3.46058533046199
-5.066380233084275
1.0248067906204121
0.9172127221306986
4.06710161911934
6.594931968642204
4.66132715683794
-2.0833408792613755
-4.569939279510986
-0.5966451143458548
-0.25882560807497734
-4.73647522154829
-6.663335980724914
-0.21860999030032952
5.896066499525899
-3.2788275026998823
5.04628803053937
-2.596824037904394
0.09299218435027228
8.676819992772241
-3.0376860228879377
-1.9348272933054627
-2.897146911235747
-2.0583896061465348
-4.729494066929832
1.071490285946594
2.7439407944271452
3.1038473585900936
-3.379465503336266
-6.7721724375398
-3.4371403107941827
0.47351398539599954
1.1433927162364939
-4.65350600886598
5.463178423689452
-5.276612534878649
-8.914693920829292
-2.1769650400901908
2.852223786170225
4.4260839027811905
-4.16044769099645
3.664585927973942
-3.71161446240369
-3.0226945326267525
5.470123429115623
-1.496337772626807
-4.423104002272383
2.123785670007212
-1.4263700874067282
-3.7798923020647437
-5.418441932968448
4.42937493318025
-4.317619110789685
-0.8063965073955425
-3.12432357916068
1.0559556385871782
-4.476292535327755
0.35617294984704695
-5.890513642582471
2.372497625112962
-0.27395760789449003
4.845938602441759
-3.722521681086349
0.8454688566071693
-1.4362770347651634
-3.4474819338873126
1.1856581013151148
2.0595480720202457
5.121632557756007
-2.5788418750042035
-1.0404059801944174
-3.4554874592702194
3.3732683565602746
1.1004792955060552
-5.346882961622389
3.096406786313459
4.969352748330957
-9.018377474070713
4.296767513246128
-6.383605760130416
-1.7368499476028942
-0.45843785976129336
3.679713930104511
-2.384480157175744
-2.4605228420280008
-1.764457909622926
-6.763136172711302
-5.604321523665406
-3.0878001204295122
-0.7451943563206406
1.7121574759930847
-6.3195961523024575
-5.202920029165908
2.503613654529375
-3.159448227453826
-3.314899091108676
-2.9452063148218595
-1.1070869974348203
-2.151844071470924
-9.862462935655445
-3.604348975419298
-1.822414569998152
-1.8389615766548044
3.9686508179120956
-3.5588747096346385
-2.410920869017899
2.3780815176138357
4.193991945233502
-6.329649354280221
-5.672009209633256
2.154763577844391
-3.103503773384376
-3.7251427851449685
-1.4823275228238701
-3.1746870590746683
-5.471321217224295
-3.4293166322856243
-3.0887723471211768
-5.192153917363248
1.4495886066952826
-1.554299816245858
-3.6247045349403257
1.878176445991928
-1.9061490546486852
-6.288213284084251
-1.0758662998363422
-1.5695765108263848
-2.823627139587271
-3.359735541432399
1.9611946007759604
0.6004701563572598
3.9816563858538783
-3.332418934857552
-3.8651375308032323
0.303811816877064
2.844296519399022
2.8572240750369566
2.1208837552527187
-2.230885138914612
4.157551227056559
2.6716029053651615
1.6874061266389453
-0.58211626241253
2.102453442244205
-2.3777380351180466
-3.1315495155264292
-1.6262874837080137
0.790492614736622
-2.1204483854376983
1.6268486154003055
-0.45673969984584484
-2.951709380197267
-4.6232080578522625
-2.471434284079104
2.1240398407895933
1.747455396876847
-1.302317004307006
-0.3780574425944317
-1.6123967398650472
7.521770574503104
-3.3752865600910336
-1.2698768240917788
-2.137100310120563
-4.952552932185116
2.969497903373595
-4.610108278336689
0.40427167290107846
0.7758740388179948
3.194897310626242
-1.6862984759505066
-5.440923652467739
-0.9141642703494065
6.0817392552006355
-2.4665307124124003
-3.9165696434948667
-1.5406876830471237
-1.049158627805948
-1.0187171112531077
-1.0893150772432934
1.007615304736914
-0.12810849648994047
-2.96101101086784
-2.898939553678359
4.127995481590878
1.0605654967838067
-5.80957697395678
-2.3622060731694283
-0.5866075141593454
1.1088245741580796
-0.9966433351325492
0.5021408567869082
-2.4018860103475994
-1.8668658967722926
-0.5143813297672852
4.034372546756517
-5.251932070326502
-2.317960132894682
3.9570129321404046
2.6371476365127258
-3.31490129012689
-2.6055011521611213
-7.35103166911975
3.7885646631165173
0.3869195898319336
-0.7155498212616309
4.047668660019133
2.2322853986334366
-1.445266779379198
-1.8936577291537113
-4.40052493711105
0.4552219163355397
-1.5860019048140088
-0.5198607091064202
1.1311595637670564
-3.9776376220428937
4.905189446111028
-4.123386636471568
4.454241363810661
-0.7966387781143072
-2.915982389591682
-1.1449525589326766
0.5359686857924038
-0.899219822367593
-4.257474215829076
-0.5982086983800757
-3.9577291389545186
-1.655648358426123
-2.7851549035075953
-2.2919500216830424
0.47970508957867447
1.4840641806383073
-3.4605773304681855
5.527499848733066
-4.4098590889863525
3.041868677326118
-1.6732187758984627
4.504433066876328
0.40555456685889785
2.0714329860984337
-0.03537939155391893
-3.2904771100706935
2.4900363034472472
-1.2063050806834565
1.6955493152369459
-0.5796933295623007
-4.737549435038557
-1.1344219573694552
-7.290015494864
-2.113956745285461
7.897561460076958
-2.090959239649568
-3.148019343381859
-3.2028740969236016
-2.2429819246425495
1.4459657241109287
-1.951520320561046
-1.6870488993716568
-2.7177198536947857
0.05040599028299616
-0.5527632177873766
-0.3972041971683846
-2.6878295569610966
-4.537920305509793
3.291686284704995
-4.013103775227846
-0.4904110931770604
-3.163614054844555
-1.6559187201764154
-4.759920964834213
-1.6256563626090668
-3.212287201402264
-1.740872048300256
0.698072781097514
3.1539358971493248
-5.315538013493228
0.5882681291200685
2.237780619102097
4.667575321649842
-3.838986683609082
-3.057945468219527
-1.6879635737140761
-2.644307768184827
-1.5025934001157308
-1.9667397069363373
-2.2089930139648293
-0.7845571425038478
-2.6428768270999043
-2.1546175511338665
-0.9176641036678087
-1.8606556454205323
-2.6308871708669943
-5.5822216551957835
3.183232474441299
-0.06815098116966192
-1.5823681811544132
-1.6299315845228999
0.3652613274370694
0.028381993124302275
-1.9381976831561858
-3.848148541827785
4.496850764284492
0.7849243872612777
-0.49419449075551297
-3.6387423587516357
0.5965647853972502
-3.895193389561512
0.19487361500654374
-1.3680296201752868
-1.2904984367284198
0.035042541562321526
6.1198073242741335
-0.6667804386984441
-0.026142662180338967
-3.143082544776731
2.4185534627998284
-4.348126106600958
-1.3169984216931463
-0.5163748535736035
-1.1470203206755636
-0.9520893113269514
-3.18048201560697
4.316470512723475
1.1383860943251698
0.4822273692949617
-2.179682984017045
-0.9717152288685004
-2.6550020826849883
0.2779006442780229
-5.291451177504946
3.9235946436560534
0.8064089321054217
-5.256241409186151
-3.031283396561311
2.7984553233744878
-0.8827074597555449
-0.8542303243952123
-4.964377001356095
-4.55479454563556
2.374567802042499
-0.57959835820054
1.7358013292563161
0.7479775109181905
-2.9927320378996267
-0.5490214804516269
-1.5421181476945756
-3.4354145518747585
4.618571766777089
-4.492026215710285
-0.656992340176038
-5.956608330581982
0.09460402291015212
2.618359554118137
3.470678178718981
-2.4671957113306
-2.7195329242113453
-1.478333920849804
-1.9143887946725142
0.23120141115908033
-0.42963721368642055
-0.460412671500825
2.308613495891412
1.873493704081659
-4.2752235808020504
0.0020110779925228577
2.1180167077703826
-2.533669875638422
-4.649510694395164
3.7262925052894715
-5.2927816648859976
0.15997039404384716
-2.189050077558504
2.617141570920226
-3.9932466812436958
0.09410738939768247
-0.9814433891615717
-0.2424424991990678
5.7221871853906245
-0.8348858217140671
-2.735815071297927
-2.4295712336881157
-6.677988776000796
3.4100180341936404
-3.0570754936247564
-3.9356342579358996
3.3837719899310508
-3.947305268622356
-2.3695886096423733
-2.483033679855065
4.348054330746224
0.1043379049900591
-2.6162816131492654
-0.2945235979933067
2.415406647870484
1.3113749501616452
4.099217739855652
2.186177272062801
-3.088634825666481
0.22846050380644034
-3.528707501964847
-4.993966472933506
-4.382548062019163
0.4844342983748118
1.3011008380948503
1.4794803762346829
-1.305093676780917
2.2447332055818996
-3.234948488444828
-0.18282376257239255
-3.514254172736686
-8.480754563676175
-2.737047055504708
3.004217078442224
2.5958072937569554
0.3924809533013815
-2.74471841599616
-1.8784746955261438
0.0036162815212266042
0.7115288633835413
3.4128135415554577
-4.086483099390574
1.4313252687181726
-0.7950943471201918
0.9985011124676636
1.75695773582631
-4.382190095412079
3.259210449521465
-4.354275328083689
3.673997137577176
-6.421544384676095
0.39227538957628455
-0.4971250408868078
3.9305587329065124
3.6992433756022183
1.2440218511009673
-3.103773490854125
-3.5149651918545484
-3.6876256977110895
-1.4033049579966608
2.467848053212572
-0.26683389619954534
-0.804666352357604
3.5570560083250498
-3.136122619128883
2.515420724230316
1.9640440052905503
-6.5568075386610865
2.162088880080095
-6.804418394208664
2.089578674405793
2.45530929781996
0.35019994851109637
-2.346272052661928
-2.3593702285465334
-0.23575542224693713
-2.4804795004603992
-0.5801041899955268
-2.945645669695426
-4.1123035813135065
-1.0334126876605767
-4.301902018480878
-4.306688654038797
-1.4909770973416836
5.42889267902132
-1.2970764309868272
-1.9474084494535053
-0.413124091402288
-3.950211621081196
3.140702334237768
-3.4940717405860227
-5.954652809744673
-3.103006990305315
-1.8347208851788939
1.6582277028730656
-3.140448609226554
-3.8437108812434917
-2.4729518474303407
4.9798533826645635
-3.258706021224939
-0.9539129491854397
-6.453323959425285
4.935799816238249
-1.6653221675601937
-4.290451262783404
-5.628406619262241
-0.7798688482425489
3.2855965569682017
4.4793061941891095
-3.910276770223596
-3.4712695487679404
-3.915668813687923
-3.2595992877485997
5.407702544638673
-3.0117249532544803
3.724601009305485
-3.062122419998656
-0.34192052533159306
6.600847396691347
0.801275740443922
-4.785101496564431
-5.72901204034412
-6.179296390827369
-4.292054641529507
0.9870790876916624
3.5588864436578773
0.9095175085223479
-0.7045608393200844
-5.063527177872008
0.590323839601467
3.3033580974641543
-4.914680047725226
-3.1473593256060037
-0.2852936642046499
-6.763112948594705
0.8402487189927116
-6.008635943657154
-10.857757180893735
0.02768005195625571
-1.6920058370308968
-3.8830902275500283
3.703252818639566
-6.0421996566626595
5.079454635411281
0.16677350547683895
0.927760272102408
3.2837934963594244
5.742403137380656
0.5130442384098971
0.7785860408073351
1.679156091216238
5.037254327239481
8.309245787071621
3.6145965887749054
-4.046250901790135
2.6997047231498033
2.311218713933027
-1.3852744840267697
-2.3280417812485026
-1.2123376609401535
-9.457522971595633
4.330454698648109
-2.464881864267285
-5.709472853425147
-7.127796173057502
-1.9945636699563747
-2.5399667227420215
2.1621008789687868
-4.529510437415748
7.548059653247633
-1.0852045765801073
5.850723150997648
2.8787342945615486
-2.965933477422794
-1.7944564779609178
1.427296790037411
-5.314321354488575
-3.347828564610121
2.293651546006418
7.934856370108311
-1.3840645713095874
-3.3950730740422705
0.45536345636025694
-0.77183192742419
-7.037575449093775
2.948091088763512
5.871866415266052
-0.42030896310118965
-4.178691773078117
-5.836602649191951
1.0367416347260006
-2.3321625833462365
-3.925368157365113
-1.8479730570645994
-1.0131698247984473
-4.1796598992837275
-6.940143523899946
6.219395754056064
-4.297255897270211
-4.192626219436888
-2.4380770747888887
2.4230400556725487
-0.18454307820492832
-6.658018776619316
5.30840239991583
1.679751762731601
-0.8043505790878224
-3.9828712014976064
-0.6750661996085097
-2.6832355474050233
-6.37434670847681
-5.066475829879795
-4.042145767873818
-1.859813075301282
1.8848892129827532
-0.5024271158387278
-6.094274647999978
-8.342357166564579
-4.271679435689287
1.2830178728865969
-4.703348893127575
-2.097954416508559
4.733898660316425
-0.7166837156895455
0.29607628169597167
-6.213795307589853
-4.096473034192556
-3.8791522032148262
1.784634294794645
-6.4791543229288795
-2.7621251588202806
-6.686125251508012
7.107707122339178
-3.858111725593237
-0.36253480130644117
-0.3193136437896668
-5.68893914726139
-3.844720247548113
-4.804562975192844
-3.0586025520120645
0.7023045679349132
0.28723676673315585
-2.632101658792113
-4.5206050320463405
-4.613243577688641
-7.144752387227592
-0.28086533408667347
-8.633245926853684
-4.538469095394162
-2.999182733043623
-2.2464694476109495
-0.6229970402137661
-0.6463265691322573
0.8080355091487754
2.551797021184533
-3.5004869716798734
3.2438037088029716
-2.4120951122856296
-0.7852049862493321
0.9735905069336328
-3.68385897948679
2.1643558765234325
-1.081766444194737
-3.4441779182184207
-3.8435346437687827
7.004632359837186
1.2737340210725083
-3.9045883986798446
-0.48008828366186346
-2.0548073366327726
2.0238802803125915
-1.1269521005243102
-4.092909137704239
-1.412842459852815
-0.19816056088839262
-1.8761471245017183
-2.409708394300082
0.4011784280871569
-1.4869451921883121
0.919717317677576
-0.6610057960433964
-2.166769416896405
-0.6501601676915871
-1.0020866286474017
8.410998965463524
-3.9673937009691653
3.0218926371537185
1.7686367558970544
4.790555953498419
-3.2538361463811225
1.0108402571282882
-3.2468739170404155
-1.9999273904964352
-0.9805036371518554
1.2414409345629303
2.4345983929364756
-0.4128048174465076
-3.336671218295914
-0.6663095032617455
-5.614794660991632
-3.0712861003824874
0.5457286135885371
7.152946824623536
-3.7347889896578184
3.2029283454879396
-4.042792011098366
-0.7202494968398605
-5.369921572070726
3.537798957803394
0.5848084888189666
-2.603799086785441
-6.8961952847625065
2.9234370023696465
-3.5695315103991483
-0.6598847744497319
-0.4582151735529856
-0.9546139237277638
-2.720572803564619
-5.719208305821014
3.709167484052714
-2.944255314675688
-1.2188999407537555
0.9263851370160743
-4.673191511050834
-3.0595132444118964
0.7256075321163385
0.51480763943936
-4.266647933826653
5.027318512762678
-0.3805792033858546
3.3946815684776426
-1.4877611595509588
-1.3456870013044266
1.5888532111053695
-6.768607187565249
-4.743772075606039
1.841090360267383
-0.8344858281047751
0.39828273261330865
5.776746341974722
-2.119207734231278
2.567723596980337
-4.163354534193892
-3.15271209052678
-0.2434273516385552
-7.270724426527916
0.20027954787279717
1.1132553724815508
-1.3594642935649934
-4.050244451365538
-1.4665033725918095
2.1433509566119597
0.28015650775164397
-2.848015502396572
-2.556388274453128
3.8054760558693026
-2.5945368167206486
0.2717025099324734
-6.543321166006101
4.245179542835747
2.171634122511803
2.3957509252977345
-1.3758896060145975
-0.17084172373034823
-0.6340645324172776
2.879935154975948
-5.1962793491114
-1.669764382203228
-3.4022107141031968
-1.2750904973446913
-0.5261611894877837
-3.9797891121838846
-4.758036702323931
0.4919392960184432
4.492568247823744
2.6225258845912762
-6.530065708164302
0.3457953038793076
-0.4138013687244608
-0.7493497704794733
-2.9133723265362295
-4.148659823954331
0.8034635188978874
-3.504701001389919
-6.07858876055325
-4.867784799147748
-0.8573225147181529
3.029597375585698
7.075135936300424
-0.5507191537303272
4.018353213059107
0.9421849288925395
2.419840324970251
-1.7778565057467994
-1.599917635586092
-0.8879861015824565
-3.7584856951259846
-0.8647373487176009
-3.5847314141854576
5.770867114460957
-4.725928701093546
0.6343250507996074
0.26735084121401903
-3.689301103900556
2.959338221569755
-3.5381052276588774
-2.617194394749804
-4.99679372255427
-5.551579329015781
-0.3646777907652999
-5.886280609948987
0.6663892991287614
-1.185701500447807
-2.1197424593885876
-0.8793057599918672
-2.3771564666002516
-2.6891049470877975
-2.4840189260336065
-2.1432867829238695
-3.549402863952558
-1.2248935531729268
-2.366642323916227
1.4551135465590246
-9.41341064671288
1.5328605412195966
-2.292468082658382
-2.6059531700777767
-2.6032643114506273
0.5604081499509036
-0.6755077532652501
1.213991213403617
3.5651018299668378
-0.8778918838176943
-2.911034494049005
0.14213366862933083
-1.8026729439669327
0.9150502975849997
-1.6058922129713105
3.262250006290606
2.5961858142196856
2.7713332018687256
-1.3467626720338157
-3.1050383660580994
3.2115613067519146
-6.993336315492477
-0.05089205586357806
-7.091132533615074
-9.487081680638244
-3.026889266737805
-0.9882903982155518
0.5280775669803642
0.12461118261828416
1.2203500747587381
-2.1233162509393853
0.3774305309294503
-0.9145669535291244
0.7829958067146084
-3.180987353564645
-6.414949511350769
10.679143178560528
-0.47982087999082523
-0.5043456721334245
8.903914161779579
1.7435498101632965
-2.1646805391087716
-1.3131963884471793
-0.7483687806260402
-3.317607579452478
-4.64527139198209
-4.1390768588177425
-0.5847882076780345
-1.8156892593505358
-2.301979207785447
9.553527648301577
-3.301773472775696
5.04281500543176
5.4547079873855475
0.6010762280387286
-6.040812090307889
2.9776471678244643
-2.2959313867927844
-1.561869151325089
0.27503441540839896
-1.6429041990912827
0.7985892806298245
-3.544131276401207
-2.059866308101598
1.4641850911975534
8.715657454616668
-2.160358414506373
10.752660326643507
-0.3407846832673905
1.4889162931626552
0.8896220981762714
-2.0763635309102715
-2.2199482723366986
-2.63542353493835
-6.0887659953823885
-0.31010479368751037
-3.8276245987061994
-2.212022608276552
-4.988000766344116
-4.502376778317837
4.548717986928895
-2.7046626261937314
-4.673771790381492
-4.080876969301288
-7.697533940327779
6.451324358413629
-0.72421427583528
-3.269826316761046
-3.989160467306762
-3.54684798240622
-1.207906446825787
1.470450606373214
-1.3650676630628185
-7.034900912154984
-1.2144890364658711
6.368943126712969
2.1525160470344216
4.771236901513276
0.22976238757167808
-9.384781127717805
-9.20324702890382
-1.8752318471238294
0.29038942782725163
8.622891736431594
-4.074989628965665
-1.689479222916513
0.5198355555714697
0.7589009936176423
-3.5161360768994148
-0.26029181106641
0.3227941731960473
-6.681650881510476
-1.9740213311353452
-7.535224455711572
-4.72118908390397
1.3730888402485582
5.004590674615078
1.6053989618582738
-0.014127300360498403
-0.5581320666829334
-4.1755051262527045
7.984327643336555
3.9050507001774997
0.29149008843820745
-1.4387713716532922
-0.4097284485324727
0.4444219715874925
4.097503533276005
0.9502430394602207
1.146943391094914
-4.153077962291252
-6.310828533636655
-4.565786913066882
-4.8211219663576745
-1.3045798038209502
-11.945809623268813
7.790096657616423
-1.6809666107343133
-2.6800347758874024
-0.6198092686318453
-1.000830033837366
3.810072864293646
-2.018906925354273
-5.438712498648311
4.343236287337946
-10.791757029288481
1.4471259151814369
8.62252267983826
-1.4028214808970065
-2.0800074752525255
0.46291804841069983
2.3164461960991285
-1.0146415727397806
-5.862225421972585
-2.440222427944936
1.8047407517513525
-2.5767864551232664
0.2876085473784375
-1.3171893639385048
-2.1130292737157026
-0.6269043380289517
-1.7327865934514988
-3.5009645419746134
-4.0044113524039995
-2.566437005650193
0.21732809764233949
-2.3472376422043815
-3.1450679871259926
-2.0458312948742274
-3.348902041341741
