-2.962894133870185
5.313513260482479
-2.1622755909549007
-3.568597593556916
-7.073706223641589
-1.8201435611085361
-7.209470850937392
-4.752787770497801
-1.698634384190029
-5.258539926550526
-1.1946414316101248
-1.7823263766304742
-7.09540430018843
-1.8307017308888314
5.212276567244734
-2.7173782769573385
2.2849013179509283
-1.9655996686843762
-2.881123712889834
-5.872740645368828
0.5625542739305678
5.148199743282091
4.1882637542857655
-7.103951417444571
2.1746022771011235
6.13928299243488
-0.41255405993001015
3.3796585056337003
0.01497394028062389
-6.931811675950001
-6.2864720578584015
-7.94243431612181
-0.1634351763899512
-3.9818898304397066
-4.882287231610559
-0.7454057841093041
-4.675422420614089
8.739569074005592
-3.736180727865181
-1.4824507418145407
1.1076341017546723
1.1903039423697868
-3.6025236928264874
0.8152571436711039
4.894259641584438
-3.999869413418838
7.918133123657884
8.178331189951244
-2.411271466239914
5.383792014601558
-3.338423681652637
-4.470789252399384
5.685636384357984
-6.703347722620076
-0.43525297165389243
-6.832360141467986
-0.1305264642307788
4.194780444901032
-5.160857633014311
1.918974532113571
6.456010930102052
-4.6756491056639495
4.589477143061119
-5.878169938033221
6.9056703076967185
0.6258281168994281
-0.3313787459815145
-9.97427390305014
-0.19237050341247847
-7.488107645015107
0.5047373353996433
-2.692818113377948
0.15701117449914245
0.3560930190440328
-1.2642705025709715
-1.662185047048996
-2.333823182594327
-1.360217714350533
-7.476887980229041
4.641722449430505
-0.7451694458699667
-6.215544687476888
-2.4909767714268405
-2.175443741473084
2.6085884183416574
-1.8875787053250037
3.13566763317844
-4.516581235391742
1.6097982593624158
-5.125161631334065
-0.9747010181968015
-7.88067190427393
-7.7557327763731365
-1.4899129516966865
7.24029358445313
-0.9106851191433094
-1.001780209043292
-1.0450559781799698
-3.207895492679676
11.159902779532878
-1.7514811588430528
-3.9963131525525615
-0.7245536189850752
-3.4096961900577214
1.9334724774572436
-2.5427336975755535
4.820334765129761
-0.3073387066028531
-1.6394627170363854
-3.071982348785363
-5.726569853909045
0.5887897604684136
-1.8548081046158513
3.4949121171729374
-2.7083249340208333
-2.232118241427907
-9.421832086474252
1.5868353519893277
1.8025219785206639
6.665400025124972
1.6667127368102308
0.269785457723049
-3.9895390086078657
1.2258718195099054
0.20405982922291482
-1.6797487526917176
-9.347628941292381
-7.089712598067108
-2.709796187391503
-4.1682408866585225
-2.7649969443112385
-4.382196960320708
-1.6629688792998651
-5.19655555118983
-0.07423053785807103
-4.260785219980276
-0.6344961437650906
-6.006668784377053
3.6125429278008854
8.867832849873025
-3.233606202521599
-3.2913315752583086
4.766949466088253
-2.6777051569959216
-10.701017758120397
-2.440113081524438
-0.7817486721518977
-5.542726255848933
7.044402795875499
-7.016402234364146
-0.8071236448624624
7.207574971379179
1.4544796126240225
-0.5019841854121905
2.61944315678839
-2.179835840421484
-2.4329613805242336
-4.546578917922181
-6.473743132178951
5.382571392706251
-1.436148959066509
-4.258766741494831
-5.032298104313543
-6.19363681419654
-4.5755565461452345
-3.0466452417139127
-2.0695638960937877
-1.136958018208163
-4.22465949650002
-3.0822809271628198
-2.0490059626755883
-1.2194248920491801
-1.576299897556782
-1.306801353355226
-3.015314971017636
-0.758867076522139
1.3868017962366155
-3.9014088832522638
-4.961653837311678
-4.367402788834154
1.7933489337698707
2.964392840305115
-0.6664495952714664
4.147147991540855
1.480223816847327
1.3920971938911644
1.117249075494299
-0.9296916610533417
-2.908212298738731
1.7304650290742456
0.7345147659903565
-1.2338337535537935
-0.010191780681733755
-0.8928192613241559
-3.1239328378242748
4.900218908583004
-2.4695177606704224
-1.4436337012107339
0.028752481009272263
-2.067282262583367
-5.667196648669638
-4.514249756260383
0.26600538660059536
-0.8820600976957458
-0.2851326922647748
6.3845890130891805
-2.078273019040594
0.23145588293925873
-1.2322443197812951
-0.718108188038394
-2.2565921598407206
-5.7698208653313
-0.13544937112227878
0.25255562653017105
-1.3356676483158438
-2.446485964490733
-3.139081539101247
3.3519357108716115
-0.03159572378624179
1.1129210982905968
-1.7850192993941565
-1.7433696952496143
-2.886066714428118
-1.2665305886354463
0.8310824922043304
3.4544402421686002
-2.47511811930069
-2.272918326026316
-0.7118039519963575
-2.948533529721627
-1.0454017024141913
1.0092764975993902
-3.904446462564538
1.2425676607733391
-1.4686300924689801
-2.8770334961157027
2.085280780643813
-6.184118093188245
-0.18157274766638956
-1.4338635496987113
-2.1608706867943344
-4.092778125674097
1.514547952720538
-1.189014545366267
-2.3437287186095785
-0.08495964857284159
-1.7269227427160785
-3.2490593815062017
2.609042191821936
0.22762573275678893
-0.6546287506174647
-1.0348715533956088
-3.749562269105286
-3.811407009800224
-0.09819444571764825
-0.4201684554864408
-0.43287654519031193
1.9075895371171927
-0.23513144966222185
1.474044522987095
-3.8039039472891782
-3.602099981582695
-1.1401411736417184
0.9102651498733735
4.254225502349388
-1.573092168946892
-1.0465895651891026
-0.18100985165283356
1.1800109861095005
4.229155394602101
2.092943367010096
-2.1261391773679392
-0.5994276556543437
-0.7439948996695087
-2.827773689230264
2.378613896364978
-1.1005187073733367
0.012955402360128192
-1.4414408873907956
-1.374209083339756
6.063892362597717
-3.470257509146313
2.0427262327540654
-1.6506037883899565
-1.071031215767386
-3.6451840720467485
-1.218666399063672
1.9850108992067008
1.0271608448163385
-4.411943011788294
3.6376410867955786
-0.8117536091149271
4.255098300687977
-3.4092329011982425
0.5208765608414995
3.0793520788480997
-1.5348328623845675
-1.3908830701651154
-4.085448999762081
-3.3562712216314967
-0.6792257767325307
-2.665779243355526
-0.7884781939911334
-1.5639707943332894
-0.9375481858046298
0.6618904880891539
-4.868537036961542
-2.1666248756450592
-2.9850973136222554
-3.774563224868148
0.5789176362494082
-1.5108262020341827
-4.132353242679619
-4.503736981183088
-0.6951673645435018
-2.3404625842148317
-1.8668205978711638
-5.08083920696755
-1.9629175940700947
-0.9612840191941882
-1.5831135762633042
-5.174763396795963
2.3375863337784626
-1.1373789859442238
-4.694403945785402
-1.672924295488977
0.7747715098799016
-1.4119593459511868
-2.956939819179329
0.7167798542218395
-4.6651746435979256
-4.364413586130877
-3.4705020176806154
-3.466496978764059
-3.2980470841985983
-4.36131718208822
-9.500838376330146
-7.664097734587361
-1.1726907205196975
-0.41221976495547136
0.3410762268052202
-1.3304450055004853
-3.1383079166418875
-2.7157783762552885
-0.9793386723340893
1.5686395843266636
-1.1669622718954618
-2.687395196723345
0.29160972496914445
2.1655310060198536
2.2026122104455284
-1.5219586278927097
-2.661583609861045
-4.227532598663715
8.305707080623295
-2.938763358076528
-3.433071565665923
-1.4592618583015007
-2.4079396836731894
-2.962691387082415
3.3864261484440727
-0.002904661599782824
0.789060313303943
1.2360203042297255
-5.228161855271571
-4.097729942223614
-4.486799785230588
-0.716190217101403
-2.5929570368591786
4.478331063508245
-0.40426412161307584
1.791701213065391
-2.745282492953669
3.1831384195154335
-4.1544176587271195
4.881325962995442
-2.8247677942308207
-1.3685731510586103
-0.7273297922532631
5.171773000565733
2.1151254236274495
5.440773564985622
-2.91791807057566
-5.491739004653136
-5.789900333403951
1.189700317441611
-1.351291820140657
-2.6681373664452486
-0.35770550219659597
6.5640108609515995
-3.9472195479871828
-4.75235287572872
-0.37909575527774725
0.23715411432868308
-1.748180537720675
-6.0307107050796676
2.578549334925632
-2.6589943557522515
-4.434782346119455
0.06453055844639105
2.679525848780035
3.8739560744195143
0.939599212946508
-2.0308088497196928
-8.387555262358044
-1.808859508690366
-1.8301706743296704
5.496829280178531
-0.531271964635907
-0.5688166625797367
0.6857982080965748
-3.9773994462246076
0.17595319360926612
-5.0501030698108655
2.639709503278185
-5.977322636311084
3.973035840317354
-1.9222182796496172
-0.3130502289977196
2.285655022570464
1.4084206391261682
-6.1265356176388535
-1.5308659390886565
-2.4627711016962004
-1.0766256352821348
-1.8068365756363478
-3.1019112015952386
-2.831943942639394
-6.0506465610201206
4.235485595295405
1.081971124291083
0.39336249932214973
5.913536282524839
0.08226746977437156
-5.8171543173018385
-3.7006282098195973
-5.78440066442345
-1.8403145439106954
-3.574566804483477
-0.6904990702008984
-1.0743902253620319
-1.21083785008004
1.0068053692696268
-1.6126929266382366
-1.9894895714849272
6.857634217831634
1.0410554913180585
5.109208524251746
-6.866864491405915
-4.073868357739167
-3.216880040832624
2.384095527609778
0.7316502444467082
-2.5889500657945974
-1.0445018012494058
-5.732263321141823
-1.2089899232473929
-0.3839613253832215
4.397506555461029
-1.4345220118940516
2.90712297165275
-5.200849976764383
-5.657121001200521
-3.609158717147285
-2.1303797090355974
-5.757931247898145
-2.7488256907878212
-4.862141504989815
-0.38707275274256875
-4.268168421449979
-4.272960047452243
-4.12915201833263
-3.338396644120914
1.9281084825399017
-6.034482392146132
3.6871534052910095
2.7208439613425153
-5.100560059682741
4.276919142399218
-0.248288609604735
-4.129228641811635
4.345591157706514
-3.021631889128649
-2.240565168236975
7.040214790958001
-1.8350354170451266
-3.705659683117415
4.466252372048319
-0.1537425021826203
-0.7325546006084857
-5.72503072155982
-1.059149810746574
1.0825372642068771
-0.9605584456599762
-5.783650887048566
5.153273382021272
-3.945155959554319
-5.238935841572804
-1.554093533557678
2.4072290001310934
-2.5841698021900306
0.23582865314055598
-5.22190402089667
-2.801050647076712
-2.4231392325651497
-0.7382975027893628
-4.008550403277327
-0.20977078615512695
-1.7433576155406774
-4.6644848470636395
-3.088526353525948
3.1030018476603676
-1.9234255942274865
-4.501777403400563
3.210332339517309
0.8301721449130123
7.59739514242472
-1.374752491001746
-6.883988740464657
-0.8110071721241043
2.874285616782249
-0.33369491017624375
-6.508068835250444
-0.08034191044399963
-2.9765417302724195
-4.573057237811417
-4.986686699912278
-5.8471336392132205
-2.5306314268049737
-2.1578097778712007
-4.92993346448695
1.3149670768954977
-0.7884899697448992
-6.166796705431825
-5.611726769814985
2.09148927901883
-3.0490074221096224
6.457281404323972
4.015273761357115
-6.675219084627104
1.1785155089506225
0.14959031910642104
-1.468081260644268
-4.772130666110451
-3.7864065516479135
2.003089506810626
2.7875169789152676
2.477516272076842
-3.4538213642449147
-1.1093204432451218
-6.041511489016138
-3.288103890010426
4.606790800495777
-1.6340136410095825
6.760342742316739
7.678737176124093
4.616862942001931
-7.26087429152636
-1.724115588259481
7.357911641092996
-0.49503990191445685
0.5193990315288195
-4.986460357179153
-4.5595803030772615
-7.293374394340493
-4.186558487429952
-3.4323448798769856
-3.438297962836869
4.538212606637302
2.206296557561525
4.41899049284608
-4.332624860490633
1.719336028385419
-2.465267277293408
6.122865189858994
-2.2240663919887758
5.972406952014648
-5.745656305569175
-1.1467332029570438
0.2765957042311852
-1.4739358657383033
4.769891621095737
-0.7402445155049252
-1.989280635503993
-1.065491193617214
1.938971536032951
-0.2637217482176311
2.0845763743790235
6.542006831524211
-6.485238080069935
-5.839382315561141
2.049123627040649
-4.286464173701442
-5.374430627522629
-3.647920686518661
-5.0324776106878915
-7.438877235825573
6.066433656466223
-8.516213303096333
5.19886255240663
-2.653275623259029
-7.0955928438735185
0.35766631457220194
-1.9081775482535466
4.137734801734698
1.2682490082452746
-4.39707245096287
-5.274272362960883
-3.0782363806088324
-5.051850518763042
2.158791407489295
-3.239768316324922
-5.167207092406575
2.80024774684323
-1.9445295562281744
-4.1202320496270195
-4.036907808881302
5.363181602612706
-5.693845942747917
1.6749053068489375
-6.9102865615075455
0.1071122992443429
-6.2578752119906715
-2.1894456320712403
-4.068682342515377
-3.7420008731187275
3.0389411850491768
-0.5451369687726547
-0.011147878687181709
-2.1899989309592383
9.409385864029085
6.3944156388929185
2.373802925863051
-3.284277312415979
-1.1171448138853466
-2.249438990892067
-3.3600764176572473
-4.768599616972134
-2.7727937146514945
3.8892549522896336
0.6039700042358231
6.0299121946562195
-1.814802230434951
6.504041537563124
-6.100542786191448
-3.4061267199752834
-2.080209322368659
-0.7294660992937395
-4.479818572149434
-3.8872246203489387
-6.145745417636262
-6.374917563214765
-0.31334315007214264
-2.822483023333085
8.051897798682244
-0.5581679151464692
-5.260214220291311
-4.043652488811883
-0.9971016112961905
-0.07705914091042036
-2.352889277856046
-4.620576456017265
3.365710615258689
-5.741849871034829
-3.652632734283973
-3.6414869515659998
-0.9273533789805208
0.6985025251459299
-4.284894134102782
-0.7977629208265996
-4.692061093332234
-2.036438419956257
-11.715816872117175
-3.4474186077182956
-7.001326613655289
-1.4400131596638266
-3.100186554509558
-6.010994809229684
-2.1666432182706155
-0.5769476967266953
4.763492177278056
-2.2332543703846257
0.9084392413508194
-1.0434315077905094
-2.4892749015729243
-9.895502814353128
-0.25149435170263545
-3.824991212812402
-6.059126683300764
-3.2549552986788757
-2.667721297115901
0.9730200364502805
-2.8421656522891348
2.1702465458595657
-0.1577453851716517
-2.2641452182875437
-1.1434140423961967
-2.790190529841343
1.2186431445494224
-1.9106391892747663
-1.0060223692105368
1.1190599961130203
-1.9589094126799202
6.834053842902459
0.22938208954694977
0.09036040773190561
-1.287327531098605
-0.31412424016866086
-1.000217128352245
-2.0329200355277806
-9.216701887017713
-1.6984276349049574
-6.8413578199164355
-2.6879699362599654
2.5734592223218145
-2.8676917353898257
-6.981102389101943
-6.877893772243264
-5.30306392292999
2.254260360950348
-5.477229729915982
8.21126054871421
10.135304399602774
-0.2468777135542486
1.6220305517742657
-3.5295206694497825
7.426063596259585
-4.326036822038775
-12.837337372500093
3.6531634944918276
3.013807546884299
-4.582954418783519
9.811585065389078
-3.747234273057647
-3.0843992175772157
3.547864303974622
7.282052946016896
-5.17170322909692
-8.376190613121507
-6.966176577347134
4.155914131548415
-0.029534834001451404
1.9188391603897057
-6.641493832259382
0.024037878786635707
-5.946022070846998
-6.786513803645761
-3.6577828635150715
2.0279992427924807
1.6293086129909595
-5.903467115794685
-4.760036325655125
6.612708614375471
0.298351325711171
4.218509209021442
-0.44103216480532864
-4.745436774832771
-6.773510308359484
-0.4712036079486962
6.93361465992983
8.276766765056912
5.805259377802414
-3.72627326734401
-4.628466706958187
5.215205122610594
5.780940754084939
-7.058457980296537
-7.986975818466077
1.7720159863184144
10.56930726235261
-2.1435049210044523
-5.378846402461393
-1.0758480662937382
1.151599369147043
-0.6736936090444596
-9.70678197297202
4.666504878755793
-6.529859965388593
2.0009910023357684
-7.299173594484917
-2.9380367626391903
5.140386975246243
8.584609001240352
1.6745958968661825
1.729488793071571
-3.3124930938087505
4.51045499448779
1.7531355928655916
-1.965628896010268
-0.10868869574996542
-1.3685510794415159
-5.879397138809417
3.524231105353845
-4.761918874442446
3.065535191641049
-6.309629514930941
-0.011500422558449581
2.8440217528736853
-6.106129601421576
5.015140401654973
-4.899770892416362
-3.3142997648598342
-3.6526006352321394
-6.363906079341768
8.236030172245718
4.209096342198827
-3.8489860170611587
14.161598537553822
-4.887610990003845
3.613227478755743
4.946475822992026
-4.845881366373781
-10.961469793778818
4.871299315941577
-6.403152797243226
-5.9671696171344495
2.109733470120889
-5.856314852918886
-3.7192702031182225
-0.14000974815876774
-7.529255790650427
-6.894358452009156
6.468610883172616
-4.5103330643138895
-4.163552687166761
4.510236404139916
-10.685096481463932
-3.2416346309707116
-3.2212562114311085
3.323247257068055
4.551445661053139
2.5457186582737568
-2.8026172014832946
-2.874840004640138
-5.065896078398336
-2.6034521739126655
-14.693068677372247
6.190972073289155
-0.8474044121321018
3.153283337078077
-1.0726263746537725
-0.7147802541288534
-3.430534811989192
-5.153018619410752
-3.245270345716878
-4.203915176750771
-7.961449863938109
-5.5473351650510345
-5.15246759591025
-1.374984529382746
