7.785125601101546
-8.470638312778474
5.033250341985991
0.25352702539599264
-2.8841605258770504
-0.8001972028352542
-3.263943089713258
-3.5565363949298514
-3.0139511593759605
-6.708334486982687
5.960941629648492
-3.367272904769684
0.02587169550350623
-3.6200330603676614
1.0049644197008174
-2.4219105929851925
-2.6898550958553136
2.9337681936299638
-2.0145026190166595
-0.9697513705361331
5.27427733856223
7.456168880259513
1.8777166625534574
0.1211700432396161
-7.079629288554567
-3.42403768544539
-3.7958291775003046
-2.0031304420897875
-3.4973081370741266
-3.1499210061371303
-1.7286328791536112
-2.451134935918103
-6.988341285240575
-4.712459435332268
-2.955269381395953
0.7381978350157341
-1.1402762918487501
-5.670112260091862
2.354478971973324
-0.6892594660943374
-5.932142201692524
-0.5222956289324062
-4.572094993106539
-0.23094359147705606
-6.455482059691986
-2.599457304007989
-2.8362585079925315
5.392131197252644
5.451274422127313
-0.21445803526769117
-2.4494343165439934
-1.6630381921393533
-0.5970968645568406
-6.349392953300175
7.83574429003029
1.9626118402151307
0.32312701268318905
-4.664585742903683
-6.90760655064381
-8.125481087433785
-4.61538721695123
-3.350364511148978
3.6452383043541032
4.734751031082981
-2.4138075293058305
1.4884971816349213
2.2159445239931
3.3258558085300995
-0.9118753219234734
-3.7095740424848334
-4.878050799991308
-0.671899590646866
5.706963296037831
8.371281513133951
1.3368877796516578
-8.18708569571829
-7.443570621250619
-7.379504699261164
-5.49385684121684
1.7000746053792388
1.3991343470480857
8.989687480959335
-0.1441109944645074
-9.042139572792486
3.821470940201629
-2.5721672565773375
-5.6085211949384615
0.08039552036582487
-5.980978743481339
0.6009144460549714
0.5880615821953825
-2.7590216968638623
-5.7847135514525645
-3.404904719800581
4.9578131470150435
0.12302365577936662
-6.774889658782175
-3.36940628979966
-2.341944754321573
-0.0741773849995851
4.279508504718172
-2.3874466087098183
-0.39855149195604983
-2.979630556580229
5.999733039502089
-10.582951404511958
6.332696918538032
-3.438810655378753
-3.674824028435556
-3.4544488953667756
-1.2798821735941914
-2.227468550094019
0.3813372455943837
3.7626714326280206
-0.6171406518265864
1.8341755287676953
-0.2206225503435358
-3.815802481954912
1.9723840078336665
-8.998583036813553
-2.3373490064973623
3.1115270898767777
-1.6518974064167165
-7.087918701695411
8.608579038848902
8.453171434013559
-3.3373302949542754
4.594904699818467
0.5729580981479844
3.562225557863615
0.22894380497705313
1.3635737706438824
-4.201987696726997
-6.7086046860078286
3.4709898664711707
2.7923495038140045
-5.916839997442539
-2.4981910088257724
5.036489648236117
-4.180473760031702
-5.510990484540943
-0.7330005377847623
-5.026768573288124
-5.952493485831031
5.099956185958674
1.9810646510450796
-1.4546525299832005
-4.486392797106162
-4.4463860139812805
-3.7798075534388698
-3.8563036877500423
8.22559415567487
4.857582140921876
-0.7592998259731434
0.06260726519543369
-7.369799765486663
6.072080211309994
-6.143229513382581
-2.182434350727868
-2.948194226423656
-3.334261223859825
-4.25351542298501
-0.5576067306151844
-7.601480616531346
-6.109454714450744
-3.1121665085900485
-3.1411604936055713
-6.211438020370348
-4.8712528496342165
-6.793377996481852
-5.855831539832485
-1.3440455767035429
-4.613718337721722
-1.2021604339949272
-2.4031570943455907
5.232300317301419
2.7357502218401204
-2.3826843090220824
-5.5921329665018185
3.34318597589164
-5.955335851668098
-2.943127020644647
-2.9258104805340306
5.701961706261814
-2.379941992143569
-1.4191627283174602
4.893190738237678
-0.2825904963306554
-1.4382901515622781
-1.3123752572344243
3.6867325607444936
3.124058931791677
-2.200523094379594
-2.5577199862050892
2.986030048938406
-2.8137631006902013
2.3229337415305364
-4.0554733132690775
-2.7945304602172767
-3.2698093414233678
-3.4133973240499276
-7.213253189482158
-3.7077821615053015
1.103807920029552
6.1135538375722325
-1.0457652361375924
-2.369933975962462
-1.347375187922963
3.6389060038835828
-1.6156939890260913
4.379046680731658
-2.152261392639381
6.1784734960910885
-7.3097388262757335
-1.6619418758474214
3.3929212673580036
-4.255463357963798
3.4870194707477364
5.738280091621913
1.630319561347812
-5.4091301295017535
-5.9031621062555235
1.2533562774046907
1.4211135041040666
4.473528296925179
0.10586678163996176
-3.563807016210368
-4.056465434761273
3.4655296881247133
-5.415042067115864
4.250756216371685
4.118671601260334
-1.3644846177925989
0.6801158983140019
-5.732513135421122
-1.238427945168487
-5.116454769193221
1.4883865600556203
-0.6986202946217714
4.1566332962823624
-1.6449391494551937
4.755908769115917
2.567900358745182
-7.423876745767725
-1.9997486219291645
-5.794046743697748
0.5157258164231587
-0.9601742553980057
5.594892402079488
2.138765738935013
8.00117573156554
1.6328206071542177
-3.596611854273769
-2.10590452794773
2.858519933675224
1.611727233621285
1.650534777217979
-0.8112861372854074
-3.4742767250816766
1.5224345768949763
-6.660910118730943
-4.415692416460496
-3.758497509186808
-7.037640889662205
-0.021114128123939178
0.6391606160787059
-2.0782483555424647
-1.2190630578676815
6.619797298914915
-5.4116028926195705
1.4385396513405935
2.3785995035849754
-4.030933801752683
-4.25804750988441
2.685987512625795
2.705506763528067
-5.935386653311226
-3.432844522081139
-0.821733596514284
-2.889246400282076
2.733435183253092
0.05673779158809784
-4.041816999027461
-1.260966100260891
-2.968503216893163
3.106976265445896
-0.3001726499541778
-8.403162345319439
-6.62139849447678
2.0306050617407956
-0.9401914338440259
4.423031456390123
0.5715847835714966
-0.5169057198915843
1.913162551685935
-1.8855430128055317
-0.529443997294508
-2.5898668609081117
5.790206331830085
0.6115278175569137
-3.3921143309899864
-2.9951772458150656
-4.861993472642176
0.9052089128896635
-6.050205834422259
0.7651517906941796
-1.7988783720784756
-5.134935256948373
3.962167867063987
-3.310940452405474
-4.813710398557851
-1.6476745216265485
-1.8360025673470575
6.064233157545797
-7.6873936878155
0.8001816554819153
-3.562703432253988
-1.3229626247209225
4.989481383666962
4.625930073678878
-4.262483068212769
-4.386139739447852
-4.393908695977694
-3.3450336421748483
1.6852764577225634
-4.289738602991042
-3.8707543746289987
-4.6072560799927516
-5.748759967658919
3.2685422307063354
-4.364585830023124
-2.573963681587079
-5.320979818583261
-6.373024074181757
-4.947162520920069
-3.234477926822459
-3.572404758963125
0.6333175500064118
-3.907684168280874
-4.048070688343148
0.33002188328367416
-0.4310902303891417
-1.1904222230033543
-0.9744609135245621
3.3003743768742244
-4.423266971728744
0.42791496616334934
-1.9696584534722297
-1.5173776699107782
-0.9219222740016726
3.7097856730704724
5.89376242471781
-4.525056227923218
-2.406671324143063
1.0239837085161936
-0.5667345072456915
0.272103900320467
-4.719675705173695
-2.971450650875482
-0.38017643260272327
-4.114014507130055
3.6396404030465814
0.3657799111031491
-2.3623723467834825
4.5792439180618585
3.048811532404957
-2.4012173772604952
-5.078399995428214
2.9077065183901323
0.46187592499746405
-5.464068498076946
0.9648916617997579
-1.4213072158998157
4.828779463167899
0.7248522479700172
0.42342823866541845
0.5264741861868976
-0.7422873708376112
2.2890546245180334
-1.4422557570911638
-1.5202067665640568
2.279248924277572
1.4071480985365328
-3.979926387549755
0.023222440219507007
-1.7754847886312624
-2.587947910841674
0.5283691705185855
-0.5726838767311769
-3.713909643080592
1.0413811150977474
0.4072788296668732
-0.6206111589139826
0.0636639012417155
3.597807140332206
-1.1576334174381324
-3.2680186582278603
-1.8964579730006585
-1.9655883107188932
-3.2281240555405497
-4.1470502942325025
-1.408803736113473
3.7372205194802177
1.1772295187120063
-0.1907290359562568
-2.4333449661446576
1.3661238844438404
0.40554368246243877
-0.9332816220718517
-1.075814597121031
-2.1420417213360943
1.5284826739401054
-3.2431596995057577
-4.2167197182491645
-1.7871256885613525
-3.327287466335397
-0.6336049971497763
-0.7640964809992921
3.317439207955653
0.701874090207595
-0.2703886219368871
-1.3098488805429536
0.3902771759752031
0.2010953246278569
-1.058437064656309
-1.3765152132462175
2.188133123455411
-0.804947645226791
-1.2949900699254115
-1.6645126996168986
-1.2542477839366295
-2.0382741976232763
-1.6119818880230168
-1.4069608543796848
1.7070158042947725
0.23455195192372608
-1.3434572836421923
5.145622048612418
0.8796948961392278
1.8165237033249755
0.47418717612036426
-3.803281008854315
-4.2802229058584045
-0.8480540029080749
1.0014549215334034
-3.2591902101636645
2.444784601530295
-5.177994473163127
0.5543993229787857
0.22958900999590867
-2.9528444455610825
1.419072296003462
-1.740396957891649
-3.4222174352273957
0.7537316008505817
0.47819343010284693
-4.056308170760634
2.5280462453663883
-3.8607839498028578
1.0452493671040564
-1.3209452206917922
4.1695027211457525
-3.7071207573893625
3.9542452291532095
-2.1291548180228976
-0.8414390626812797
0.5038738664283477
-0.21574078035752603
1.1203804730525901
-3.3889151893101626
0.8223122520637052
-1.2230755600361058
-0.9031002229639418
-0.3717686049480108
2.0648667868676855
-2.5599928567854895
-1.7268357188823393
-3.4824832713882765
-1.6727677264054601
-3.331690605192092
-1.1721556357570517
-0.9480539299758967
0.5403054794598748
0.9144236746815989
0.2260247239339484
-1.7921542309680367
1.0532943057564392
1.2530887999725615
-2.0925342609442334
-0.45550764576776037
-2.051727303605799
-0.023037982653000277
-1.0445751200914246
-1.2095609051243785
-1.5484571708059303
-2.9710425018860027
-0.800729572836981
-0.8953972750216564
0.6287272896204711
-0.1109317598026323
-6.986712933993624
3.268523310008594
-4.163029887559299
-1.4680748453254935
-1.294830516807416
-1.582878265369679
-5.306887277218132
-2.1416159785052145
-1.6346421655025747
-1.6970875209838299
1.2228036769800663
-4.468986456493848
-4.214598332478007
2.0291386255962536
-0.5161980830752738
-1.2859215885052269
-1.0789264011158002
-2.142086274565344
-4.6525361682362
-2.369431423291015
-2.5851857652493027
4.1205139537312006
-1.6258311171717752
3.62723648637279
0.027011787208200747
-1.7574411824899505
-1.847328144846316
1.1995896698404638
-0.5070558307488848
-1.2632045063560944
-0.09970824941456893
-2.8894574948101575
-0.653408079639912
-0.34055540442583027
2.8356926587847524
0.1522717280247272
-1.6354587650517831
-0.8244353973019316
-8.378693539427097
1.886314645345786
-0.5801622108853419
1.4387333520807086
0.48331179745786995
-1.257456760392957
0.6117813859776217
-2.5083056979608793
-2.1967620381118493
0.9824294702976997
-5.182011946074254
-1.0186386375395335
-5.284875416871065
6.080124874884206
-0.9985115744566914
-1.8778239877390344
1.0734089982586357
-0.6014587108780759
-0.2088898076974335
3.773635682322573
5.816088572387102
2.8740585463698145
2.2250461814860967
-3.4138025473600293
-1.2327560645362032
-3.132230885847841
3.9055231985349548
-5.120646021370651
-2.1871632742913745
-4.143296668937088
0.6835914739080113
-2.6811792227298534
-0.6960933379999177
2.6710974318157676
-1.1165528665535998
1.2580078423494159
2.1958687135063784
-2.9537871332632344
4.09891117158618
-4.774732086831303
4.625200821645679
-1.6910180033460973
-2.9960247874782215
-1.3684781393386096
1.3748425575302143
-1.6552382987479282
-2.169238638921632
-0.14374250666636607
0.09677234823553474
-4.3688545817117515
0.18115907556833427
-2.0743812249359777
-4.678178770917122
2.457203777262834
2.5813615803801233
8.129806067701775
-1.8166578247731875
-2.521254545055295
1.9267491950725706
-1.4573026163005722
-1.8159922695542365
0.719293745908147
-2.0120290531732334
-5.87578173634982
0.14383875612927674
-2.4815776883547906
0.8876356991095293
-4.971953044453674
0.05404045186535818
-2.399803352685207
-2.603832670834979
2.142819591053073
-0.4915764970973372
-1.7648007345463328
-2.01724914404518
-2.752844672827489
0.9591811807726282
-1.1917926862608097
6.968956359384793
-3.265597135603007
0.46291059974665183
-1.7037168970229286
1.2234117060201657
1.5757772625068143
0.08812771565610011
1.3676064334445601
-2.7077730142415115
-1.006878912605521
0.04695371414207422
5.146211252882366
5.2979336419708725
-4.308287303243788
1.3701791612882488
-1.2407253438386494
-1.1810862206299448
-1.0114109423500977
-1.4271250769297197
-5.077559153878517
0.5104715328132949
0.34674446622322624
-2.2434620945845283
-4.42905554843425
1.0220097374589248
1.8399047138109494
3.8139469898115186
2.9899857283034046
-1.785430171194395
-3.232234729564058
0.3330466214189232
-3.6774131364830858
-3.1826694983295156
-3.854766392981482
-0.3865892896177411
3.9314886034638485
-0.6151892234615504
1.404747769684256
-3.242609068227361
2.393465868875914
-3.417390352873863
-3.064429828934766
-4.601002127166962
-2.585128685846484
-4.732633664865354
-0.9865919239422994
-1.873100544400524
-2.997747863517919
0.02234860366013876
3.915041635458779
1.7413337435197664
-5.754026332730534
-0.16400654255030991
-1.9961985346016176
-0.04084711804466907
0.49913590048806555
-2.1090403722249675
-3.896315375326989
-2.293585999879138
-3.283485926121593
-1.998355345390321
-1.2669760316760248
-3.6944751555233126
1.0355840667381715
-4.4361581736659605
-1.5244695472802345
-4.007518862852924
6.041872085102601
1.248869063864741
1.060665071102185
-1.1178397362098695
4.682824301634354
3.4209392589308845
2.256843995453372
0.4479636666570629
-3.279632163025944
1.6524163809197656
-0.2588674797433511
-1.1203814752711938
-0.48555880131201185
-3.0873880401836478
-1.8060173555276677
3.2123774200236066
7.882890056392093
-4.418549736815181
-0.3307484767580426
-4.142819190814252
-2.731797178941169
-3.575061999638891
-1.4009406271806164
0.5879118097270501
-1.0157176700315234
-0.9249673699578284
0.20098799174261156
-2.8654267500993305
-1.2414247514612744
-4.212851325329435
-0.6906740494124187
5.444866205976631
-5.175066387892674
2.2891218551600576
3.7697448636233526
0.4973617829029281
-3.6476298209773113
5.32332025745593
-0.3945432514336605
-0.8026936669402412
-1.555695997147762
-3.224229095556803
0.025176710189820345
-1.456148951827243
-4.172923788470306
-4.817327946626234
-2.3306627139158342
5.539208232317177
-2.7201207091694846
1.2966548619663796
1.838530515403135
-0.6692162635437425
-1.035329182055695
-3.582821825402972
0.19217203881170672
0.14641925536006284
-4.146970254184846
5.02037113108208
1.120390332400535
1.4512157994905837
2.769728446215275
-1.784392293242381
-2.9803033994162473
-3.0783335412878734
-3.639977821074109
-2.890867847948135
-4.51009651404325
5.348989186208701
-5.353421636665426
-2.85933276303407
0.5568397289003586
-0.0051643988314972016
3.032790661359597
-0.7731022847523035
-1.6680875789797138
-9.400034707897555
-1.8511945814277713
-1.3082488191356716
2.4546355176209502
-4.6227402166371885
-3.5877914122242873
-1.7342404420991475
-1.0455281171491368
0.34371618411213556
5.686390898938751
-4.9368776578917135
-1.5763632239559295
-1.3848411841608446
-5.13696116619621
-4.570320560400115
1.7171758217927866
-0.49814977004164335
2.298958028495296
-1.8962983995862757
1.0039115057547525
-4.971801424681845
-0.3409112345835244
-1.8598235110610803
-4.056395769903505
-4.901274917941803
-3.07409638781077
6.837277219822181
-1.0100548970730263
-0.49362189713292703
1.6978708792633974
-0.8785643016973508
0.7628073756109401
-3.621512373001198
2.7285738755048006
-3.90516154542127
2.26274950588838
0.6832126856886597
3.469585730372844
7.249213663940496
-2.7966001536749623
0.7265498285889329
-5.649320100393182
-5.271486739375495
-1.1401297541605535
1.040231158909905
-0.33341194060439616
-1.980052677775621
-0.5440096775818133
1.629672570167397
-3.6317650905276504
-1.9544316537686055
-1.8042671855451946
-4.669801914745754
-6.269182248294467
-3.27715009753252
5.382308764514083
-5.794110395609038
0.0011160451671748694
-4.6266122788113195
-0.5247421027279823
-0.7459709758912352
3.184489593626577
-0.5441673260643609
0.6240654263908068
-1.828221431286521
-2.9941165872190787
-2.7446339557683963
-3.1950187919229056
-3.1136026847162594
-2.3049737058380857
-4.9913474701186145
-4.718156382861837
-0.8346264997649143
-1.2543332781350176
-1.8622973131494052
-0.4250919588106277
-1.419483889094872
2.7605081330987264
2.076105511375181
-0.9287847654858836
9.60337667496153
-1.8725718233240938
-5.051499240759852
-0.5728076702269175
-3.9460728601708634
-3.0575130149570056
-1.502525261008404
-0.5712794537455048
-2.7136581418236685
-3.491678248288973
-1.0199215347728745
-3.857179502298898
-4.0872762278864885
-0.9709937435282924
-0.20808410397369556
6.940138631686368
-2.1054515461504746
3.3357014845724833
0.7940072672556215
-2.639857643451067
4.285065259096192
-2.6543301147623155
-2.3342602913126727
-0.8111640556100882
1.5051211272391662
-4.32854459877417
-4.939903727818059
-0.4628984502150352
2.1873375379810764
-1.275743147098332
4.78921680930848
-3.8188271939830445
-6.159973526314854
-1.7977969664707991
-4.353690054540222
-2.988421578141195
-2.7081264692789944
-2.920763655271959
-0.9095974065662102
-1.2781312364738584
-0.5540252461916734
0.7604632125968223
5.820792210435358
-3.7423513251383773
2.51294386051553
-2.8952596826341654
-0.28630848271137843
2.8347626043530565
4.264059850115264
0.6629795062554207
4.163994605537117
3.840725337180903
-2.1339614853351754
-4.0951142038688095
-5.282069202364148
-1.5225880012757615
1.174315575601958
-7.715536332555694
7.3185296028965405
0.03483909545246544
-0.9093346724097684
-0.2731764708522161
5.632241461768275
-5.741374902351389
-2.71937821897906
6.063177680065732
-2.2695954702798704
4.540974725126524
-9.273298628791164
3.8826647301447283
-2.853127310762315
-0.6071497500665943
-1.701216984075049
-3.5450768881814274
-7.57017374138835
1.6845894485521293
4.3854576908915535
-2.098894044368113
-6.148121320720823
1.8136953009571375
-7.993480800795497
-2.8731586156885025
-3.1760864871940844
-0.7425837992121687
-1.092193363365299
6.622424821521684
-1.9783404460940066
-0.7867594345691783
-0.4447018153158211
4.323279458570732
1.3558522351595155
-5.228042289995326
-1.5849885919922435
-2.4502516719679903
6.37401448984823
-3.3305328975551447
-5.893922112926216
-8.115025805459494
-3.174686749631442
2.8569076912014917
6.304669461362339
0.46905828672938693
-1.9792518719621905
-5.884362972697932
0.6853897157110743
1.2883732758501591
-3.00696691001123
0.8143032809741564
-7.645894192764526
-1.1173191721487483
-3.620914022097201
2.4311468532586082
-3.8954901850231405
-4.155123279218164
-0.018375970117540802
-1.6327689868185555
-2.942851743017227
-3.2566556744621247
-0.5186049024347313
-1.0708712518361152
-0.021717150870388946
4.4796806678999745
3.8513323538265043
2.353553598151119
1.287761538647259
1.0895748936770497
-7.950877846719506
-5.767001086231055
4.96715247647059
-3.180688007132652
-1.923134778831096
-5.905920054549661
-1.4119220704505535
-9.842020935893272
1.5706834395382399
4.024087592326591
-0.7342326374776734
-3.343884964233922
-3.0369123679416337
-3.46918638774921
5.805774397657716
-4.774708641949433
4.799190806331644
5.0843968457975075
1.0167575209997055
-3.4894053063022703
3.2074692330056784
-2.6827762859305904
-0.3519207002287925
-4.4612435388348946
-5.327613023814938
-0.19466268515097987
-0.48069976153390226
6.031011295940967
-4.344044609628532
-1.1746975324936832
-2.2001666745386665
-3.771754827929935
-5.333745218498184
-0.9650052334665338
8.690172631754516
-0.639315757596858
1.087341730759874
-0.10109547906634546
1.0526448943072173
3.3991869425406036
-4.137878815385144
-3.1562251217094737
-1.3788976921660074
7.149301222272588
-1.0509853135989469
1.5500882617957492
-3.216987192089861
0.10573365775176469
-5.013664158872125
-1.9033884560329606
-1.8170135337512485
-0.7612736643942553
-1.7383138586117912
1.8866014418130095
-4.545824680197063
-2.8674920779970288
