-4.839076536961703
-0.18311376582856478
-3.0581797701900704
0.9986542059904923
-0.31773933151110995
-5.9760909719643465
-1.8728728110329411
-1.6870592613672049
5.010619434826425
-3.2383463448074656
-5.379972256615442
0.07432699849875529
-3.810100025482988
-1.0770871201482715
6.851989200952699
-1.1755912783640046
-1.7709815178963875
-1.2730627840639432
3.703887691699084
0.6146855380279617
-3.348842594805031
-1.4933333994691953
1.9380094755595405
4.316788985091929
-2.6970789494061664
5.524073342658496
-5.45955494923645
-4.346479490131819
-3.4255723105121527
6.359313628163378
-3.3178687349143265
-3.4719610259286107
-5.783876327865028
-4.412098231482916
3.575549183558935
-4.142682462010028
-0.20552851007738168
1.4056841501841202
3.0328387717850487
-7.0899879338454275
-4.385734518920413
-5.795801810896786
3.4823856887133204
-3.0935779398151784
7.1461773925307
-6.223638183205467
-0.4409363623495618
3.1931831050727597
4.664559582601026
3.257729939998098
2.106731275254601
-5.676566546092659
-1.7849061941247812
-4.072683650899397
0.25961873190612406
1.7666015448169365
-2.366716726757766
2.1265058579227265
-4.849755886540929
6.407556708868596
-7.218063216814596
-8.310844466592073
-3.9983284841575477
-3.1475115249595675
-4.250101915535382
-0.028834343823156864
0.3517750392188669
-3.3381219762547034
-2.0116736558123995
4.395690893433122
-3.622765090315344
-2.966416202847935
0.7514070802809929
-1.4485553769938473
-2.3075023570121007
0.19651031352631984
-2.6137229290335116
1.713831463642891
-3.4916376827749875
7.027467582436391
-3.0403050962344853
-2.708149100051196
-3.6186109326952063
9.545078490033644
-4.716492266581616
4.863233866064191
0.3842890136235595
4.392520798750917
-1.0034012340068832
0.5805023274732778
-2.4541627684865976
0.8783506870939457
-1.3930656756079944
-7.965617996148346
-7.255003852132223
-1.63170147019705
5.143632428986505
-2.186685791130574
-3.9966488536887947
0.46507820672201755
-0.7301282755223465
-6.510346056886101
-2.113647914806887
-5.025613107708554
3.400861033274756
1.2781908249672258
-3.465508661367589
-2.0228874846563363
1.210368042511831
0.5371199936853772
-8.086099504588645
2.8762428566029854
0.17651744304021505
-4.949238695788582
2.5364432097361838
0.5538528880669854
0.5097545096133939
-2.3173780931984616
1.436031612039922
-2.845475049512673
-0.014721936678969427
-9.789636391089864
3.999073503240001
5.048125584819141
-4.861859452567658
4.948245525353311
-6.192108224031261
-2.0550215949997863
-4.0915928737634815
-3.2670178319092398
-2.662175685443587
-4.44324185449605
2.4837972573403873
-0.6189483327821897
-4.043934082536288
-2.5178389851949743
-2.2417918165783486
1.9995689546978002
-2.4775145349025824
-2.8749914918020263
-2.423081720322922
-5.8998738320043795
-2.2527186469256852
-1.136763766101703
-0.030994984876717
3.1707674556321206
-2.3350831912814667
-1.189602381232856
1.404926679223992
2.692779987097711
-3.0959913987624863
2.5983406056998395
1.6335581550904597
-4.684029526803347
-3.0311108890195144
-1.024417675573352
1.5988165754794674
3.116841235822245
-4.943649001854458
-8.276210086477931
-3.8608588110376254
-10.135293163145557
-5.277239576038158
-5.576322839348088
-6.926057609657508
-8.124207878699874
-4.894018891968044
-9.876879075908768
0.5685937661214328
-4.356285806720181
-2.715072866109465
-2.695377737291727
6.617413903098999
-1.702079500519561
-7.393100583571368
-4.545645014449444
-4.57890092881347
1.9660847017797587
4.445198422821861
-1.7669166438357553
-1.9780490158143786
0.0701863246420082
-4.308115022030132
-2.0710812800880634
-1.996293554349034
-1.002822335537179
-2.061985509273498
-4.631052163444496
-3.663504227649152
2.0374440401514575
-2.7189220686005036
3.814159580992713
-2.931749090626294
-0.6398970480232773
-2.665804906838018
3.7970949572207893
-0.4512789660449631
-1.753883817323014
-3.9141069169996676
-5.130799063164822
2.517239416630568
-1.1460420175974824
0.41063378577375775
-5.141903737491445
2.3967257193581952
-2.523577561980598
-0.44464581457131097
5.490998294510407
3.356506267863688
-0.04667689693117606
-1.2897164182336502
-0.7981978474686597
1.0750374254640196
-0.6465263429734187
-5.026932268757549
-4.370838840846524
-3.3936039996737493
-5.1910891569761635
-4.118936978390881
-3.582456551855195
-2.988716945095985
0.3638512106076205
-1.9121632521960212
-2.7399313374207295
4.19772188626039
0.9210957172254317
0.21417258656705457
-1.4137113875670302
-3.0860088744731966
0.6164460912951557
3.9739821720047788
0.5446162301441703
1.2483942713820981
-3.6193316789502537
-1.1099265569723427
-3.989616754695854
2.0594295635266153
3.5917785266970212
1.9686516743266984
-3.707378478780784
-1.5771817102574472
-5.019209186874368
-2.7873570782118726
-3.7489376009822
7.557502352997129
2.879294462825281
-1.6918613302401362
3.1740354495252947
1.3173474225109205
-2.569993831560647
-0.8408758434742528
3.72473680047009
-3.4583868016827566
-2.4295275746524028
-5.193139875097084
-0.8034805667914826
-6.668785279860073
-2.6907684305039288
-0.9149895808636976
3.6470498723321993
3.638026486524211
2.4203192920621768
2.5704776580747266
-3.2473462266946527
-4.502881972055199
4.177763365166318
1.6293293526775374
-1.4203549142263847
2.7766610939704024
-1.3924161063754594
-1.3967608697751717
3.2058981021979953
-6.328580010001119
-1.0988805289384613
-5.115369199579645
-2.9919327149481965
-3.1932040052125745
-1.1321727823312406
-3.6548294445889566
5.377664637950918
1.583151910244524
4.46765023212676
-1.4013260566421046
-1.6403806401694152
-2.7768268720646696
-1.4895320682813653
7.804402675676074
-3.9769981023894374
1.1733350032654724
-0.620625973636054
6.170035280351259
2.0652027444766636
-0.6410895486650813
-3.8679709972330643
-5.262119271301823
-0.6035845461393925
-0.3449159391122193
-0.9381050895400547
3.3179811766108993
-2.60376271107412
-3.2517926745551664
2.777613771051256
-3.1930428921188536
-3.2567592036609527
-1.6755377147421808
1.6031325590735273
-2.524280142802741
-1.9576153875998428
-0.9910733080221601
1.208657590948321
-4.925787313454563
-2.8396766937096425
-3.121576218765296
-1.7665704805151847
-1.6085746982458091
-3.738896122065538
-0.7456342853651757
-2.285329374119614
4.007854671443431
-2.8167806734741903
-2.966779258963645
-2.243629230856263
-5.584061371294808
-2.372639757756153
-5.37232561276161
3.568498546691028
-2.036830467167064
-4.732031100089457
2.1885726693028253
-1.3640692324951917
-6.582324946566477
-5.96193369347317
-5.8586000395775555
-4.5555600352246595
-11.16848739014553
-4.616990013613392
-8.075716338129986
-7.305321467089629
-3.7977184741234873
-4.781658110665941
-4.848968938241378
6.4467154174968195
-5.606856798402842
-2.9815345056455236
-2.6601458859994813
-2.5120979210263834
4.1008212847696255
-2.124677498861686
3.0286695814241242
0.6262545467536003
-2.859069068736409
-1.0020252769630449
-5.887636461969291
-6.784149741516207
-4.302772341437929
2.2158524288679162
-9.283554711435697
-3.0778419962510806
1.7652984517526242
4.086148595845978
-2.582735008148719
4.227169181305999
-3.7410984151150717
-1.978400024262813
-2.631834341102666
-1.5356579421157193
-2.761355377668931
-4.776896306651353
1.331579836508596
0.5823695059797592
-2.8070776194790508
-4.122951796769287
-1.4560751371154952
-2.8427560089348476
-2.476907216432381
2.9905443360625266
-2.570121778574133
-5.7182399474505585
0.6798395016922608
0.6389923106507849
4.295706424218535
3.744371304630951
1.153411390333133
-4.483626765269126
3.0937717046374518
-3.9362136194525332
-6.770100773647824
-2.4740504395598313
-1.4926925022115156
-0.8693123539297982
1.6649179129537
-2.7790954230954186
-0.039604480436404216
-3.8378937912454214
-0.7983081620303549
3.442775769899166
1.333345102052908
3.6870195531952716
-1.258680288794823
-1.1546388243420806
0.5349853413229688
-5.586756834623336
4.387499211174645
-0.4291981710305608
3.674296491952102
0.908500442023954
-0.36988554990935635
-1.9275191709928043
3.2827188709402084
-4.664663997713049
-3.5837506564624997
-2.442046290805135
-3.2978239659241178
0.2634383186682127
3.7698077155952765
0.15018043856317345
-3.0417082234728947
-3.1341738399954795
2.5788782709114435
-5.924289830892849
-2.7760818786397237
2.0848108916117454
-3.389408039833489
-3.900240624582591
-0.20604765693315655
-4.239552892180038
-3.1282397476414165
4.353443640870599
-4.958215186588208
-7.191730634456918
-1.5598775060777526
-1.1936489162896438
3.2832073475147205
4.667530842274178
-3.6849009226265643
3.0362498618804334
-5.436884616418855
0.25079416156319984
-3.7144289340918295
3.019322548416384
3.0485319388351626
-4.249849583833609
2.808581370903953
-5.7450244967135315
-5.2413087368496845
3.3540387614875597
2.845810655175249
-1.2052807789978386
-0.30894821638067793
4.332247464460583
-0.5556320525515683
-0.33842531591597314
5.515876481355072
-3.0451227914689754
0.6815885407961302
3.050602822270123
-3.4144259395885803
3.3262282175384046
0.25880849132804584
3.549497991244264
-2.370662331428048
-2.598538658011786
2.376255820971208
-5.57373752710995
-5.68042743369039
-1.2695793129857837
-1.0304155343848065
3.919245841256207
0.3722331871375351
-1.6436426169426597
-1.5825533316320881
-1.036941649513815
-2.430510635136776
-3.6658412624297765
0.5156340410921495
0.7219196190548154
-6.3527938322037905
3.22439026283433
-2.729532960029995
4.413531024421214
-0.08922059193541257
-3.2122466251907134
-4.620061393031441
-4.740580173578974
8.385771030191354
3.542860152547318
0.005460965808774009
-1.6752216815565637
-3.1348917173816795
3.9331582738009647
-1.4928040596013599
1.6288900767106154
2.2673410748941163
3.938026396128526
-4.1644569536407765
-5.571978095711403
-1.810786620654738
3.070019061594632
-1.3825273644781468
-1.5790575381615812
-7.9480974505817015
-1.8019412174208036
-9.194628537954655
-9.276334439424138
-6.726960284030635
-1.3142139214327264
-11.751457935664336
-9.33169913007258
-2.319779338730227
-14.2603874234816
3.9993821667432585
-9.533791902762713
-3.7508898968106044
-4.303442034113871
-0.227319424415815
-2.5927321133279255
6.8155021972823
-1.1980637607661404
-1.270980210502912
-1.6083294479804449
-0.5871635532532656
6.933513441098693
-5.077654987411221
-3.3226844073143647
-0.48172240913674835
-2.5808864220082115
-0.45000793575373693
-3.617660496580554
-5.2312480684356615
-0.9600803797864761
4.583965017587359
-3.5832839026317305
-2.352113790497874
2.4275633468276694
-5.068179478064914
3.756082647256103
-2.891204921542309
-6.605291172112442
-2.2551472285379375
-3.4674091874030974
2.284488561565584
-5.179039846152202
-1.4887429888861599
-4.078191896813001
-1.7364986493593917
0.6567121043399998
2.850092124332306
-7.385587731627988
4.072362903892151
-2.8967940934762972
1.1772283668490784
-3.5736889397226497
1.4425493461392385
-4.984708279525723
4.340088389963455
3.5608045071161705
3.4337606454800658
-1.0698872625323308
3.947943491934788
-8.117040252673764
3.017271943466657
2.626015170030537
0.9247302923566142
-1.537985418059502
-5.300755555530594
-0.6040137207771142
3.080802144470407
-2.5444705557970186
2.9859558121504595
-3.7776173727506057
-6.305302284977901
0.9435929041947013
-3.4307013355931404
-1.7467058675025622
-1.3702852538040562
1.3670561115012103
-2.00276989297681
-7.215892054309585
-1.2696830683294205
-3.0581628022355547
1.2204811674532463
4.312881143922107
2.781486351847924
-4.832076514097408
-5.701010191112366
0.37326993558761956
-4.98771538471823
-0.7019027802956567
2.572535461709094
1.0491510290043848
-4.41052260982171
-5.6685154711814905
0.6562240888747478
-2.1258251231190988
-4.847170081012962
0.05133632334189344
-5.1092573197548505
-2.0686878608782755
-1.6898231645461417
2.4453484320864494
-0.5430722741966025
3.6307569658904986
-1.0426933130831963
0.9475379539742154
-0.687674129687115
0.3152225281274214
-1.3263699832905878
1.0474463033393158
-2.058649359527312
-1.9259249921704265
2.432214090802528
3.7960269144444414
1.0168664065688142
-2.7639830493202115
-2.2194091853873763
-4.470798331496402
-1.1682221305084244
-2.4857505101299875
-5.265911644097574
-1.7637245227519247
-0.3641604179667614
1.7462929888856575
3.138860101809377
5.149918057087286
-4.015360794306693
-1.726065338841989
-5.524771463909873
-2.6058613243769484
-1.0713642002591681
6.748945483339237
-0.09838010943285655
3.780607918774522
-4.567872476714466
2.1890806194035966
2.4598488602991764
6.551249090962721
-4.238079869522779
-4.182582896585255
-2.8655406166846604
-1.114551830414166
-2.76437655019887
-1.9858007874680055
-2.950042388400767
-0.6045742710457556
-3.411863802570399
1.5466405180888911
-4.440188202227267
-1.8280710299180711
1.5134153756836541
-3.268984426961735
-1.7483693278695696
-2.891026285550025
-3.1155619108235757
-2.7260793324172776
-3.8519915035305523
4.596336494873312
0.5041121612198547
4.795683328717025
-2.918777902867297
-3.046123084912755
0.7635612190480758
2.2572473350377398
0.016303273567537406
-4.163067487546203
-0.46162622637474143
-0.7982973938993967
-4.431905056571554
-6.0105825282051795
-7.361865590243482
3.006419121172115
-9.661374713144037
-5.010849235523574
-4.360242496217558
-5.552953442204013
-6.046525315906768
-0.5564906862743307
-4.6056325632566635
-16.31010645052287
-0.9902814704922566
-6.840812054358117
-0.05038635091224029
-0.781295213438077
0.7264482341571153
-1.2288554609797524
-1.3478942942564374
0.13118139745847895
-0.524064520341109
0.5269729259345516
-1.561152283921096
1.4664452049354741
0.7240209140083366
-0.16819185454467597
0.9996515686597346
-1.7860425558562163
-0.9895813292862617
-1.4195017746609186
-0.9105468036442965
-0.3636541744842704
-1.8184442048707028
-0.26543128838152424
-1.5437680474310795
0.21092779320804175
-0.49063416934433013
-0.030593977770327282
-1.0370483219125717
0.9488534343363639
0.2923624341016908
0.6377709227835386
0.37170268578606214
-0.9933382229602166
0.25782590403091843
-0.44228914594926155
-0.6682388983428242
-0.09252085346233022
0.6193515850945517
-0.6901608147683649
-0.1781632745528695
0.8335861466008267
-0.6384755597943014
-0.9351600458239391
-0.6211113174491617
0.862157347701259
-1.1373616877054964
0.054777909379131524
0.2924319025926822
-0.024627434815494724
1.423221257393795
-1.4845161549005494
-0.22050129014444012
-2.0975946363819546
1.0573759414205746
1.0462342572427916
0.1366227529512799
-2.355041266745388
-0.5456475095797672
2.1341163044552025
1.2802139787644313
1.826495377328318
-1.4848181235571036
-1.076087070922395
0.7481435280582178
0.6034363078145873
1.8603823825986303
1.246375815845871
-1.155939918903815
-0.6895863967005058
1.0790905953638998
0.24561069369005792
0.46012625941214647
-1.4331111150736184
-2.460157023884726
0.6515874596665208
-0.33716652106033373
0.23372745108376183
0.7594120008076488
-0.9734726808860608
-0.025275463333394525
0.076964129169515
0.3873760975334846
-0.08578843883452461
-0.30978978452479455
-0.6157523632343966
0.08639883464524621
0.25227195711176564
-0.9823789430037383
-0.5150052592829744
0.9090772336561649
0.3833146326705461
-0.898256973140883
-1.6389382724884343
-0.2300128263050776
-1.0045719555704853
-1.7468053104267256
-2.904173460364525
-1.012070574719524
0.8048293329988898
-1.4029450265189505
-1.6047274582663307
1.03069205823726
0.4031424067289447
-1.3175906097042873
1.278237142561323
0.03552939796928174
-0.7192312765806255
0.38764362394263036
1.0411893769506677
-1.0473719522877045
1.5483297054236342
-1.7896286267009605
-0.7870751127210617
-0.8285722656621666
-2.1295254560924604
-0.7614282112259909
1.5231705598264622
-0.32187694456199756
-1.7403645950131765
-0.25191050562893963
-0.16493478953684582
0.8959344472249182
1.8366300161132973
1.1483070771515766
-2.3402529400104646
1.2402281299055449
1.1597929599417782
0.12118669612814952
-1.5386050790055676
-0.44236634771621314
-0.4803174604067271
-1.0314694806873508
-0.24674450157433303
0.7260958791773758
0.13535020341754855
-2.513032541830816
-0.9078490967038015
-0.0786440241238788
0.34579525972063535
1.0220912688339976
0.0811846957567503
-0.35155705145275856
-1.9936710918369562
0.819051397268762
-0.32044239435823474
-1.301473947557829
-0.21175248875113972
0.14273388473780915
0.04672762827606179
-0.1623406764284839
-0.31180450789842684
-0.8308117740314517
2.287419021482352
-2.056618752886827
0.44511915632219246
-0.24968866243890045
0.1488037279013833
-0.4330248734838241
1.262927665264197
0.9260191259932176
-1.3399464718420973
0.08595675072252812
1.4324320467903109
0.6490270023189003
-0.30911995782595886
-1.606303908219959
-1.0781106353845251
-1.5996652314471738
0.48590028546569053
-1.3641906537902009
0.7276380725528168
-1.2670436443063084
-1.6105579455098784
-1.196909686301397
-2.254641593212275
-2.260389035311703
0.48012654368718677
0.14601010443357404
-0.37294361988411195
-0.7488254708601485
-0.9138815686817436
1.4789513439650555
1.2250722632619055
-3.5171432330417756
-1.0885800108621424
-0.41108066699057816
-0.31324840223165823
1.177335247983923
0.5215930129300883
-2.0693278502981958
-1.768558644376883
0.5978089731123577
-1.8016420998749128
-0.3646638677109717
0.499652333650871
1.6454359580037532
-0.5120842100654499
0.4077654451593675
-0.614210841043523
0.627025769293115
-0.25533467678777055
-1.2015298463598223
-1.1869530435851003
3.3083597596524035
0.3449456598633281
1.9329118301326094
-1.8155312455006607
-0.9952786967469033
-0.1814192331257232
-1.3059712199927387
1.3523723640549903
-0.7804620309217136
-1.6324931292309774
-0.6826144573054346
-0.04332531178987138
-0.014801377045465025
0.7792910921272227
-1.1597315871648404
0.45824405693141446
-0.8837324049008674
0.6000416148444689
-1.533606611786294
-0.006703945452597484
-0.9169016610925367
0.41075630698106647
0.3332481153137166
-0.3472908811446908
-0.9374892276828494
-1.1242686947442848
-1.401645947361758
0.38748002406679655
0.5260069475778055
-0.007076841046580339
0.022764533627394713
0.6919357560642408
-1.8989815724522627
1.5117334722773632
-0.050093265892104055
0.4908553323706725
-0.5586749638267452
-0.18709548639207607
0.11156584653195281
-0.0024512863831355858
-0.6538389636885984
0.6409603445188713
-0.9847549974802146
-0.795610092291204
1.5192223920663763
0.43811981874427164
-1.1815758586291247
-1.373805154145644
-2.0876494937855257
-0.7301772056867283
-1.040040497832181
-0.9342369486546288
1.0511387400143932
-0.07941919708158007
-1.020720864012789
-0.16830126844575535
-3.408796064629234
-2.2548278275439624
-0.5089780989143863
1.4216814309981223
0.8124482946266126
0.9597137283377791
0.3712608065185281
1.2278035303794241
-0.1019960659701215
1.252762578455632
0.08036815970735672
-1.3712216814298064
-1.7119839334273164
0.32206209514542755
-0.14414950182325428
0.09800447504656927
1.3633648724971765
-1.4373100420793201
-0.014326610678825222
0.33824389392071336
0.43945755339676945
0.371299854008514
-0.7155407325131609
-0.8025113817022672
-0.41026836124157157
-0.4735417632804893
-0.15026475881381138
-0.2989242425070494
-0.5085982689312881
0.5325661235958867
1.1317119954810237
-0.1793865373134807
-1.370753246573961
-1.5221556430021852
0.06597371741194186
-0.4763664026725056
0.7260163784566503
-0.771032438685746
-1.8485484352355757
-0.13896635829234155
0.9482017305316353
-1.5974489064730162
0.3827424607474904
1.1050317638858174
-0.7953022720051444
-0.36283302073152324
-0.9061561818039595
-2.0268032955421638
0.2519266418010973
0.13583371522093485
-0.07820117098751435
1.6825785056076648
-1.9028050756572694
1.0802366689344758
0.12104133216647948
2.5030587845134074
-0.5143494673170604
1.7840543404843583
0.16471342419251025
-0.17021172698501705
-1.6840794132184378
-0.5217298519380493
0.11865027637868586
0.7109015339335805
-2.0116054956817155
-1.6686352676202936
-0.8574970651121205
-0.3235705681248652
1.6914255273085803
-0.5863999682475691
-0.8778506772601221
-0.2410922368368275
-0.3771375131674726
0.006408663196030406
1.310145371073453
0.8250496020746564
0.5106322659909815
0.03817509477728428
-1.7060755836161463
-0.17617471035703886
-0.9092350962302337
-0.7488823850693047
-0.43260911936468915
0.7611043252266373
-1.9466861579511499
-0.8052864993461069
-0.42862078276706317
0.3956945159524964
0.4251679434926457
-0.3318101510850855
-1.1026344476068333
-0.7882050373310485
-0.018337123692537045
0.00105808544547333
-1.0015335573761892
0.5735329697187292
-1.3205130348867955
-0.15660706171585698
0.6640988782720559
-1.601849714481808
-0.6717806173237063
-0.9260872692078552
0.29959367212093807
0.26676845743955974
2.0066436817242677
-0.07707800950875922
0.13547654850101973
-1.342739778751706
-0.8669078914156804
-0.48607990144781965
-1.0745890777118692
-0.8114616653942024
0.9049864269740333
-0.23477209682848002
0.7434070012768866
-0.9327048872161077
-1.640634539683399
-1.4543560375415687
-1.1349204154748236
1.1775981341349016
0.4499356587346251
0.9064112386638802
1.2132604995782341
0.18660405288007303
-2.5964543733504932
-0.7671662231959507
-0.3741779426687073
0.28316729982044075
-0.36415632029800704
-1.383396298967512
0.06889916310147705
1.0586253981475293
-0.32733769924842687
0.2238505241040017
-2.6942190202175333
1.040598779010844
1.104505975019757
1.669234763517072
0.9290947522672603
-1.2311720815582536
-0.04071155192359297
-0.31032991163356954
1.2009010578425718
2.0190508886442915
-2.7615165878587127
-0.31671071019803626
1.86805165331143
-0.46847978543719504
-1.8849324632872295
-0.9081589946776614
1.108300291032977
-0.637183388745793
0.11376346984504872
-0.755336491371604
0.05331954754676015
-0.7937867166697069
0.18881733242252355
0.4015785212891227
1.3887440686033699
-0.33124977105015213
0.026844653572572492
0.4516359176611582
0.5637821676677828
0.7246095005352508
-0.8257747100540349
-0.4593419494502047
-0.9667934317473548
0.28876141481392265
-0.6877503247050787
-1.7942203342824112
0.1157765127025364
0.3501491793088909
-0.6112357438388586
0.680423666015276
-0.9098452207433013
-0.07978363391042093
0.2503217493475585
0.21408813092971668
-0.8841616834808551
-0.9186882608801661
-0.09968746546306533
-0.04129839065153056
0.4543437021557973
-1.5654319757140172
2.7092940327493853
0.2504801478921619
-0.6689617445974589
-1.178352147110957
-0.6289253601423455
-1.4406245386489074
0.13709569654958687
-1.5072370300344768
-1.153707993753839
0.033659814676718296
-0.7264181797955568
1.7611470210998126
-1.9728349543037051
-0.47144014155397224
1.1628044897444398
1.21365455394746
0.8883353829887565
0.21007231063722656
0.49291251009401466
-2.824310998153867
-0.4687428978306687
-0.22343242602488317
0.6350033568842216
-0.5112301034237426
-0.19107506451821554
1.6714028640216672
-0.8145742450927212
0.37565414450977286
0.08804197957303496
-1.2654210496413127
0.7650883208019067
1.6435107552165518
-0.08038599425845523
-0.5792532613975715
-1.0649749322249675
-1.0950347829128142
-1.1838778400350358
-0.5293127070435854
0.9694306418152765
-0.1982421464260431
-0.2405452328258357
0.29354133233718505
-0.5794953420978923
0.23914956425477146
0.22278785823121358
0.29399223510248157
0.7568870756067019
-0.5517017393808356
0.25160152271027597
1.436023157977552
-1.3967769843214284
3.09350051769141
-0.1891059598854549
-0.8270456896104167
0.37011652317210647
-2.639783061489187
0.8215695773168811
0.43059703729702514
-1.035252655257696
-0.035915289196220786
-1.267894618429739
-1.8578240630186411
-0.9177737405747161
-1.8619643624966487
-1.3958945081190999
-1.1939979711160715
-1.6556832787281752
-0.6425888085403977
-0.3740190271311558
-1.4458191062845545
-0.5216187896433299
-1.0642654954317667
1.541079216784131
-0.6933499532014981
0.49574292814539
-0.3264058534425742
-1.1329019529560718
-0.7378595884148762
-0.8144472479883961
0.15258891209835415
-2.461326379413558
-0.24991323879081023
-1.9541088702221423
-0.3001591033575105
-0.5682135338418381
-0.3795927498945673
-0.8868720074735598
-0.46626471002490893
-0.6380624785051414
-0.9199189479388106
-0.19944094413570831
-0.17889788333801313
-0.6754374859038257
-0.980300548226883
0.564659987642948
-0.24140368889979422
1.6663293221546545
-0.01924494911197656
-2.1426878446037083
0.10090361195650265
-1.8455140128833531
0.4068708343339568
-1.6731050588868215
-1.0048833829787345
-0.47709844450698913
-0.35291314717710953
-1.3017798503878268
0.03147783345826769
-0.6697212222993082
0.13781130119309948
-0.9293416449204549
0.42318533095592203
0.5522410642408732
-1.4321436827185066
0.9573809015023207
-0.7529262291294051
0.230717635911727
-1.5573595829568376
-1.533949312744627
0.7648990382679084
-1.408265643876859
-0.38084509699717434
0.45540600367219874
1.4612751807379933
2.3438607162611
0.9153804534465751
-1.582033236794135
1.279728001827922
-1.127447654820333
1.3444392128055385
-1.8188667728582462
0.4034550449374036
0.016833602710324108
-0.744544923835102
-1.969207460193616
1.1559486898953804
-0.5519115540726557
-1.7027936784155122
-0.019348202647888346
1.3468923973731515
-1.1656490492028697
-1.288302956038929
0.23846942061062978
-0.2746020756865078
-0.2107996237877023
0.9017418227259629
-1.751122634645165
-0.9649687548944067
-1.1772817376407423
-0.5183756180261717
-0.05023335000484861
-1.273851221577329
1.6830121668610367
-0.3176795268628643
0.8585712354145187
0.7107773903444166
-1.9131185765913685
-0.9450675851127425
1.8033158664792348
1.8895782474130838
1.104804522181073
0.02882184287774669
1.7968862996902655
0.40512419968347274
-1.7383689569863456
-0.5780835844190957
-1.4432352097641377
-2.3137645540328715
0.11830753458854455
0.5146815381864143
-0.0753760602067269
0.7413765571313715
-1.320620194926018
0.34905979760457956
-0.8977953822252722
-1.039529458528279
-1.4753159310430632
0.8511116742207946
-0.27711616331505884
0.0614777029386793
-1.2001915167417692
0.5482675314335921
-2.5957569778435956
-1.2651255978035254
-0.5171224563650295
0.9911585890241669
0.8760670469342993
-0.28506568292638795
-1.7809369371814094
0.5048175007323702
-0.36651690872341924
-0.47846692852130884
-0.7529999922858526
0.21599819530884937
0.49370380253385693
1.3029081953320862
-0.6991862560606351
0.1811731727748381
-0.9369012073224937
-1.866613605113434
0.6410408372779768
1.7703420157889087
0.3046102987841028
-1.627433901068023
-0.14547428962992665
0.7192466915548796
0.41274283103098075
1.9127442710553344
0.10235416471544319
1.69841070605735
-0.8337781824556953
2.02680327205991
-1.2840735472904041
0.724370361313684
0.10979452408747223
-1.043665925728865
-2.2325781176626824
0.08388618719691235
0.2623496291585814
-0.9321746631408006
0.03564109292804902
-1.102344459622589
-0.486488546760861
0.05225329337771679
-1.430659910059103
0.19626134447938978
-0.33443890265144505
1.6809690453048922
-0.9410350256547385
-1.20139548359813
-1.0351698916876786
0.129921949173284
-1.8738897401327075
1.2673855271820804
-0.7356873376732551
1.4798127820824964
-0.9939251907136806
0.19684396302773072
-1.320949173506422
-1.1543752450540408
-0.9758830971520477
-1.6062754944066984
-1.5113304749686598
0.8707076061868626
-0.99460542256512
0.2914004154243874
-1.0286571939386713
1.435360154334238
-0.1706562249277466
-0.06910602133594097
-0.8048453566517179
0.6007823622839237
-0.39314622601800964
-0.8804784397231402
-0.07278982315290498
0.18033163798654703
0.05584449670459954
-2.1684528829787353
0.0528168137823984
-0.2492793399394106
-0.35621685644144346
-0.08903872539808658
-1.0892045741552818
0.922628009889527
-1.0679573446332802
-1.7096714263146282
-0.45392755453928996
0.27391379201051846
0.3695983771398744
0.36108348399737533
0.8147214104099121
-0.08708243585750787
-0.08052619145406388
-2.2654784750948544
-3.4744353379491186
1.1814572031140853
-0.8768682717119919
1.2998541336819434
0.2491300616126128
0.4781010243690789
-2.0972367934787015
1.279792751995354
-1.600383500079445
0.6084144724260064
-1.7599330863200082
-0.12282583797228673
-0.9291699359522091
-0.24039864928999563
-0.4231594147566488
-0.013675713177961
0.24371380122061959
-1.8234557204517008
-0.12048537708773971
0.12358384691959544
-1.3283954507337472
-1.2792763093069932
-0.7539966381739859
-0.8735999223748667
-0.29263148842407605
2.047562901021723
-0.9735418613871792
-0.6849790802372894
-0.5676593714914923
0.12353690992723823
-1.1072602904367084
-0.34331445368342584
-2.0063950881336727
-0.019821955187170316
-0.03717133918555642
-2.0034030681770383
1.37359016170167
-0.5045776169762438
0.9870954338515677
-1.087784091502965
-2.4751620021174583
-1.7561038570125094
0.009910112150059597
1.202503017059342
0.11066682695753344
-1.1697400401116844
0.5148494658168511
2.401633022280577
0.3766242777940436
-1.102870914119946
0.2348593904608308
0.7126850426447362
0.34165538265162343
-2.5293235002370045
-0.14223656627304385
-1.7558648959796792
-1.0759836931425284
-1.3786464543518302
-0.5402475568647614
-1.8005923548188498
-0.138352153832473
0.8862399942871647
1.780703380275997
-1.9623533764264178
-0.3988184017585537
-1.717303792939023
-1.6355009377172738
0.9806624838920304
0.46459759762555214
-0.04905374174994601
-0.01818556788080171
0.09798704200843948
0.15743862805517966
-0.147396171514853
0.6705662711291369
-3.006677669582291
0.025078661836701457
-0.370406814562479
0.7520727713059092
-1.6755174282300733
-1.3917350729225375
2.811310167539538
-0.5650453612443902
1.3237334800007763
0.16608555167772468
0.24541549534448034
0.7804551093811011
-1.2128409280946617
-1.7748013285242514
-0.3925585227836185
0.8587850149069386
-0.29618405641233253
-0.07696779672708898
-2.162190839941218
-0.4008173479039171
-2.1359974957289145
0.06377176571103017
2.7046785328576806
-0.35466808591088644
-1.4571843987962645
-0.01271216205444138
1.0359463838177534
0.7229596659753332
0.7467157305761268
1.4097991185057057
0.6847495346357197
0.32466307005778683
0.602768887823216
-1.0621149588925745
-2.0947738117167876
0.04857689310985552
0.13177821840327258
-0.6140610454507273
-0.3987598737624941
-3.0819653879193405
-0.7509498039929098
-0.14909440642451388
-0.5480049213632266
-0.7990469373807902
0.9173860616228818
1.0407799780450508
-1.2013816985482795
-0.1820106563134176
-1.1256798386937454
1.5934259357642244
0.1570825136968807
-0.6629986367969648
-1.02838786274826
1.1223926081862652
-1.6725455649217942
-1.1113849574782446
2.885815693588949
0.24957477131010744
0.13563055689184442
-0.05783813918619401
0.1992341463966314
-0.8600040131799794
1.5925006969050424
2.272531538617607
-0.6432351913049383
0.38088169488291906
-4.0812262153809895
2.426606985434624
1.5196140690992723
-0.4209270376162571
-4.106976456268395
-0.43514662013542293
0.3516628531294281
0.07381288197851382
-2.6166122634314597
2.971108861179202
-0.9396986550010423
1.9242968515362837
-3.1743922785559286
0.3488137240227406
0.3900440600914676
-2.2119527619174475
-1.1388861663745247
3.0185994016092144
-0.536039126958942
1.6379904171667523
0.3208483631041148
2.5062791577985606
0.2869146406540018
-2.818476189056951
-2.025772147040656
2.757909511327045
-0.801480781034369
-2.269309186339121
0.20790234817039388
-0.040357006918213624
-0.7570864536534768
-3.743180073223822
-4.1751379317641915
0.8064146075817692
-1.6588455109952513
-1.1849187835184412
-1.3577542891390644
-2.7663433255051704
-0.17100113363270475
-0.13060536164806835
-2.822890008649151
-0.7360999806172757
1.7296377625501365
-1.7822366627247908
1.2135383480786888
2.8128122176173718
-2.57333249559494
0.634135089737406
1.5168602638820148
-2.6299539694368743
-1.46325146871489
2.0087961717627243
-3.0617234317782516
-2.7060473685665043
3.9099949442357715
-3.459417419406707
-3.060741846414071
0.3184089782196796
0.4036659853417011
-2.545681311979861
-1.5473424480389406
0.3971527613264471
-0.929695497785068
0.7066679988307076
0.6100340303368819
-0.49826283042823644
1.1598463218497366
-2.7928126133317472
-4.304367028938537
0.9203744442290622
-2.210571607401747
-1.8604387406820346
-1.7456028131866017
-0.5195368863965184
1.180265581580809
-0.3963720625739042
0.7324654470545872
-0.11311814808772565
2.2285839984096887
-1.807932130357497
-0.36203126920425593
-0.0350224459830148
0.04435699610238554
-0.36127631206009436
0.4579043015814541
-0.5183716506127952
0.48806082427480185
-1.6557595939775125
0.5083466805094415
1.0947832961726753
-0.22939726422581552
-0.5587400131242894
-0.49448491333444994
-1.558134356501954
-0.7630378977190789
4.2638212255385435
2.61445470587182
-4.602115239199605
-0.18472403276530053
2.619382152877563
-0.5846316146423615
-2.003684911699909
-2.0408637466110986
1.997968392314946
1.8725729042695547
-0.646620769997929
2.423774717624997
-1.687923885835251
-2.6345286970375406
0.8875181465507532
0.7037917305786251
-1.3107893735073515
-2.006358965124879
-1.2008272478360826
-0.6391548967146218
0.11386713793155512
-1.8332542830876952
-0.2766644688414514
-1.6594513740270556
-3.8654517055966178
-0.9228739824404326
1.795227769633714
0.25238810396001593
-1.6443993893788855
0.5339364084968936
-0.087594247752438
-4.280078953313198
-0.3345447004649143
0.1847971283970789
-0.6187966948992886
-0.7660336475738431
-3.826246852625855
1.138821560235569
-2.3391754844169945
3.6960284629481603
-0.5130815762990649
0.3634725719033037
-4.4830925427272765
0.470241537328507
1.2547805925048339
-0.1315587964450643
-0.6819661898698193
0.8564713000326888
3.2408034311147462
-1.0013446691072236
-2.4449681900482223
-0.49606666061501753
-2.463057009329771
-0.5757891025291142
-2.6461493540892422
-0.7970132123538977
-1.8740157571589633
-3.194260799759398
-2.264477539262219
1.497534865240619
-0.8545871081778711
0.3774611243403736
0.9756796299635407
-1.3137804856820756
-0.030459374258191868
-0.3738432596912042
-0.05992105198844368
3.4985085097546476
-1.3176334482349314
-2.203332980196901
2.9007396164352244
0.22268772349416682
-1.4831440727293903
-1.1982280788326398
-1.3484970146535835
-1.7031860703493202
-0.8001102806577514
4.0998302355924725
-1.5091730493861804
-1.598675204593926
-1.778180256571502
-1.446412872207006
-3.1009897749010102
2.3485491382607586
-1.0380371907923867
-3.9153822224148667
-2.12087232884598
0.9265309749811909
0.020870539666059385
-0.09192743294708215
0.7724518292999132
2.09570044306158
0.5085953441766802
-2.850332416293318
-1.6685291405710012
-3.0483455566481577
2.730867809894107
1.498650873995073
-1.8496212329291806
1.4173977670276057
1.6268934672028783
-2.058425884121758
-2.4320109095896254
2.071242060447273
0.1209966946240049
0.42218093593023887
2.1823916671745995
-1.0096434697311183
0.2531300006816892
3.2266245056705376
0.011423818432832737
-0.6332111994151589
-1.007672169607457
-0.6094187350560537
-1.0871530920028833
-1.911017869246275
1.4356126469426922
2.1903428270566745
2.249124921573626
0.4673411142451019
-1.7650510127277128
-0.9576346019962118
1.1779038994486277
-1.241217407923221
-0.030931280786335166
-2.093698242013258
0.7039857090222121
2.173273578927673
-3.8541279755805467
0.5858713804572686
-0.9312250461420614
4.032152165754868
-7.056612099347818
0.6358684720243039
1.4140285636079355
-2.8458523520587584
1.1849723741338887
2.0161699584445536
-1.4736268879271748
-2.5143456540427933
-0.648971263099837
1.0641558513185965
-1.0645726750166957
-1.7786996367566805
-0.8991867174884549
0.23194726390066758
-1.4307168441811258
-0.7330217378493268
-0.01903500102781607
-2.60984341819824
-0.8317689007066249
-1.2314787233046216
-1.876331158757834
-0.7762574455714528
-1.0492207078401998
0.9725956114775792
1.1460423769840586
-0.35976186962791434
-0.8005721559843443
1.7794246034860846
1.7160562113543272
-0.31555625923890446
-2.81003561110421
-0.7918895303832423
-1.7869730799059103
-1.7836313088652809
-3.3172821202916576
-0.05640299146825562
-3.938685492319962
-1.0779025380332667
0.8170250852639949
2.268262143655214
0.5840016179235803
3.50552806931509
2.5616662562226846
-0.7683850340753033
0.10454055863546147
-2.344764071100268
-1.6180822630964
-4.058562951966603
-1.2318664460510524
-2.8052703320455223
0.44596545668699905
-1.3489300143035066
-3.1813513220992697
-5.322436017265597
-0.2038805235589738
0.2781225145777057
-1.2572818164348567
4.649573179173221
2.1189516124858776
-0.3486794336756844
-0.3461234765658783
-0.8159204781125717
0.9047390857970986
1.2694664673653633
2.17701883022216
-3.2919909712141897
-0.7879217747093429
-3.6307328981942084
-2.0304463131179897
-0.5554735756445472
-1.6557661777001977
0.8695096790072998
1.0871994035532935
0.7381589413218916
-1.3736517262287267
2.896656284480657
-4.16526014397281
-0.8865562062875489
0.32137880259650226
-0.15986034153023526
3.529322497252722
-1.3574844072656187
-0.5770639439275957
1.2244503789510173
3.501660083068661
0.9559441127139015
1.033954738196132
-1.4850025202976687
-1.8656325934329725
0.8074515554445709
-1.472705407105995
4.150190580349863
-2.5713795357864506
-5.670037840501021
2.9961489551060434
-1.7612287788370333
1.3700361398784928
-1.623118468533837
3.0264036617545145
-1.111631590805642
2.4783314894511284
-0.8362580384492104
-1.0066837389549668
-3.0056629767623817
-3.2931513762413007
-0.15263271050961102
-2.1782671317678837
2.6439298686103987
-0.31859661130293826
9.845784939880914E-4
-0.7609991487394289
1.4880515845295819
1.2862997467674977
-3.1104113882762143
-3.395849922192502
1.5216818726279544
-0.2517594311841788
3.6541072560139725
1.6868978798519383
3.1591340869027085
3.180159567433716
-0.5367220016261735
3.424290663024984
1.2239980090036109
-3.060870089863389
-1.0415490964531093
2.2597520376516
1.8328143214907604
0.3612788056293988
2.1888563471388243
1.252278467851973
3.96064253399555
1.526555606008981
-5.2029630138819964
-2.58200412628063
-2.804077372885255
-0.929830548258973
2.3214669425606456
0.544602959070578
-1.4823686384929566
-1.4388842595438756
1.0178102550527173
-1.380083931015842
-3.821726039315568
-0.6227007889077006
1.2461601438067296
1.1447030516384666
-1.7111571733668718
-0.9415297289471299
5.748572694439456
0.6683513781464006
-0.8110542964733207
0.13913354125171776
2.032149514681401
-2.600674342772852
1.2994482945095127
-0.3381049802656427
-2.2168049258804596
1.7787662133462332
1.417616183049198
1.6637011515011018
-4.462022106972035
-2.2514993280281725
3.2736117324985323
2.274458120254872
-1.600618956871131
-0.48392443406812347
-0.6171935500619619
0.375410940915205
-2.5230349669707866
-1.0746771080121515
1.7148604730224493
-1.3024324318476812
-1.0471884003521887
1.084803433227815
-0.47955994560991305
-3.100078131876653
2.042960514765104
-2.74268634182592
7.410262123658394
1.0360150199567881
-0.13609577018514302
-0.8323437485764822
1.4780353889015634
-0.2715699219932955
-0.5720692861804092
-2.075503598855084
-2.181227964042912
-0.5932978404905398
-0.0397313142263716
0.1193656651620457
-0.34170525503478427
1.3287779291764725
-1.0514111839017877
0.351033755856861
-0.003764875967370004
-1.464189885070757
-6.528881049893308
0.8895811951782224
-4.066194648338445
-0.4153021968556464
-0.1939010860882718
0.9937393063579997
0.48038605496949177
-1.7168905396262255
1.1153537598389192
-0.7544525845136041
-2.4691348183139143
3.0199747656406575
-2.739121031883465
-1.3560048464609014
-2.7101917655015146
-0.551822539480284
1.3759184236998576
-2.8651257857324945
-1.1941591987191784
0.9497575627450803
0.7098364532016096
-1.4661091878605437
-1.1038233456105777
2.688156295249783
-0.0658743521603242
-2.614966015796047
-0.09726824626819819
-0.05148484088906205
-0.07373994261488473
-1.601316203001759
1.981418928625795
-0.012524386353101102
-2.1692507207902922
-1.5272543389405953
1.377311419753097
3.0407574144492053
1.3310579285387267
-0.7335057204034396
-1.266894123831618
-3.2568614425849387
-1.120379988626048
-1.6001407689331393
0.019252837701862167
-0.22518397803586368
2.0736655622520064
-0.3785817267913001
1.624058313746071
2.3821379262168034
-0.5031848788883292
2.4312621245754062
-2.6518724790518577
-0.970990905955273
-1.8809069685061524
-0.848609839020258
0.3099601079482203
0.7726690026441054
2.3814673471394143
-3.3845562405890166
-1.177423198437415
-0.5384700856329407
1.9419774539764096
-3.4064385730880624
-2.895245181261053
-0.2848234003095025
0.9514419795359315
-2.086962194341778
-3.5359965771508715
-1.3246753223957923
1.4095727714402924
1.3300409249619738
1.7965703570184772
-1.951900563230864
2.6445382419574557
-2.446440899061621
0.5281380094277958
-0.8686047406397724
-1.4643397979021056
-4.603815312916359
-3.5104188040757442
-2.618106558359054
-3.297869692766971
0.8250719459048654
-3.975454335860046
-1.1315124707721758
0.2147942682159555
-1.7419113137200346
0.4900906474017708
1.2188633591960254
-1.5760218503869456
3.879195423649064
0.713554354265339
-1.4884862253494846
-1.4547005028211855
-2.0093879233563685
2.2828933669171247
-2.252676521465601
-1.5381848370145714
1.7650404143750276
-0.14633799364707376
2.009029406598831
1.8421698746567874
-0.9503088181873841
0.9461362567920548
-2.9324386798595006
-1.4393582881268316
-2.1734050063456434
0.4724782013316784
0.26061227172181456
2.2565118694059825
0.796839264813258
1.0522690357195839
-1.1007701875700118
-2.9980638512819593
-2.692917507660621
0.18350205192321423
-3.6518569346257688
-0.9980174339305138
-4.833530454116019
3.052190254611037
0.8998685762051932
-0.4999344509215982
2.428644298176796
0.39639587693683304
1.9030402267993647
-1.5341799997413812
-2.179843457111909
0.47003805364439594
-1.7996366187019248
-1.6988164816590199
-0.27310009231096727
-2.658208281177166
2.476671710745338
-2.239729558616035
-1.1277325800096911
-1.1341803146515392
-0.0867644846218476
0.8245773883635222
-3.2250346626890667
-0.12918388780146997
-0.1746878231033487
0.13272292364251323
0.16206644805525938
2.403836698712707
-2.0609956348126963
-0.6951116851891859
-1.398776861855177
4.685971008744904
-0.4433810361609286
1.153786847691543
0.21413473851407883
-1.0285124742982055
-0.3820741384191105
0.30965768332573185
-5.303990355149007
0.02729724415854034
0.6936968373696991
-0.041966827563009367
-2.3226418222396914
-0.2234181680366436
-0.3510898699465392
2.391902697072034
-0.26707862248758346
3.749971454988319
3.606294552980922
3.1630603023534443
-1.5404600488962
-0.08607728511086604
0.20991762747054654
-2.4024863318636327
-0.13645221308538302
-1.2779799054894871
-1.8315210266726192
5.87046909354202
-4.090737172972555
1.3614423438478598
-5.722179707159746
1.1233836526977257
1.290267780111469
1.1010304978545296
2.6742162646982197
-4.1140269524620106
1.636638912403113
-1.7196663446169742
-5.378047154965284
2.350957051231576
2.4518689214934923
1.0781130282773543
-0.14708530801727812
-0.7483187006416168
3.9719128546617686
-1.3524544324140215
0.22286261824098008
-4.3471150643952505
-0.6989886154834809
0.09961581806110556
-1.4579282265544042
-0.42077910049436235
-2.9007249937316564
-1.6777898009966103
2.8821560338302255
-0.19153985205915083
-2.0510683876556923
-1.4561015128029362
-2.2313304361618522
-1.3834236482382112
2.0095441192907337
-3.664483513790322
-4.798411065252874
-3.7169919734386605
-0.9502068163156027
-2.8459213171772237
3.4722073902394337
-2.8478341701056835
-0.2372622379743027
-1.3131271424826467
3.8450945377665002
-0.03600555115620714
1.1148572157532877
0.25910155937756435
-2.47038377891819
0.6860385181675371
0.7406040031224047
-0.3694268492824397
-0.3994154669320698
-0.2814078425809598
-3.660279101214173
0.13327982459209978
-2.6554490481879567
-1.1071895216577994
-1.3443527920484224
-3.4115051638854466
-3.9360587727239857
-1.424121891152559
1.6107399280303467
-2.9802087380770064
3.920558343112879
0.767848880840887
1.513524128415904
-3.822741248276658
-1.8825450467754883
4.24620631633946
-2.5126344746484293
0.7281294474081699
-1.1025783119212402
-1.0240852823729956
-1.6718575843611736
-0.3555394067105992
-0.1874671634370093
1.473195186715277
0.6868157998471528
-0.9494506272362203
-2.8432277104096872
0.07790794641316558
2.4073811949245587
-0.946145193431375
-4.341684909992466
2.194725291415322
0.4465881233143568
-0.2101882924582905
0.5144064978099216
-0.38867490197373217
0.5187483449181348
-3.474726734615027
0.05968061246705537
-2.9647271759395992
2.2021849286027266
-0.043270028811308654
1.269442701643832
-3.3382146538013733
0.986131699220872
-1.7254304939868303
0.43395170535350863
2.752410687321291
3.6067624575849977
2.0493397368441295
-1.109997407490681
-0.48087198718759455
2.8057900125454474
-1.012495641043594
-0.9296651077509575
2.5527691891419613
-1.0057365868138135
-1.2425572051150529
-2.8892856871981736
-1.632776568912918
-0.03152135871105402
-4.564794180388929
-1.5117715724460656
2.6891993276724504
-0.8992065497816585
3.3119651309421854
-0.7245929274869277
-0.3602925172348915
0.26997907796222853
1.0326298021684677
3.192174522385191
0.14544553035982824
0.8318462559521035
-0.539437844458536
-0.5572818955172911
1.6727971654699934
-0.08350665611071172
-3.77789900809796
-1.7602143364742016
-1.1146187856318817
-0.898226577862575
1.0501661472496728
1.3858547616212626
0.41766928805916836
-0.6552529854212482
-0.646254864891977
3.2404502371651067
-0.4992301500072695
0.9674710971328936
-0.004254579641597851
1.2663615549216403
-2.3575212774524488
-1.261628395643268
-0.7433390238924571
0.5342410835999288
-1.4301140331168523
-0.8341768006917079
-1.226725251736879
-3.304365334448344
-2.1754769915398
2.9647485459793232
4.5316741663712055
-1.0623967399674212
-3.0209983749211364
-2.192416040517339
4.565691416196166
-1.9840258086892835
1.1291862973998419
5.174357728283735
-4.368020362837244
-1.025943039012362
-4.339692680116794
-0.6108792950888049
-1.9962421410442537
-1.5576716355905555
-4.0987611572641365
-1.672721153288574
1.6784264269839293
1.3679406086453885
-0.2895987975076227
-0.1693464905173738
1.3582216280289325
-1.224374687111493
3.1697671447801685
-0.45041127975402867
-0.33096355641144276
3.011327979508711
1.5890062586023874
-1.2292786369684612
-5.973299647879257
-1.6879523731522301
1.304307421612995
1.9758458171953586
2.1752522803951426
3.6733599627673446
-1.0584289710513908
2.036845249697995
0.7174688222973317
-2.0891644763765145
-0.8841659191414803
2.7472518049387475
0.7661949170303934
-2.085967495103756
-3.3448192032045623
-1.29706281252931
4.236586253579686
0.7079403989186964
0.6846084389032078
2.1025356558448154
-0.9235265068828487
0.8306848168467414
-1.3416504508916882
-2.4357094932473538
-0.721025437454488
-2.190039675311563
-4.4885360273172346
4.806283372927803
0.40147199720827836
0.6761175263583302
-0.1601831259640161
2.1838531282273337
-0.5530359786913879
1.586715869275328
-1.1868669453288652
-1.0040398143913065
0.9513662369960668
2.140298267882513
-0.6526178412374158
-2.0023577936130454
-2.4112016659910154
2.203850225387317
2.1366664440537932
-3.078709456490571
-1.0119900527215393
-5.8619156012847675
-2.09384129150335
-3.2969651922460472
-0.3608865689009464
-2.961575141981084
3.2128301028492214
-0.7416665522129546
1.5509555252635598
-0.7160334879967626
-2.456646781398651
0.8774232655372779
1.5640955066541449
0.4969412521368402
-4.83483710684855
3.110359606332107
0.37807812546639924
-3.1689578065147
1.223200452932371
-0.553585548682997
-0.47987897806031976
-2.864121144943917
0.8847443696917872
0.5579389701656631
-3.1426064757889627
2.021679913500582
-0.3314825888221563
-0.8270279370699352
-2.171846746956581
4.773880248037782
0.31033360087128503
-1.569722099284055
-5.496107144864577
1.2397317866196103
1.2193479776967457
-3.4152016856676
-3.284864644264728
0.9788424078349065
0.9611833534350295
0.2618391882788146
3.9562351835913705
1.124514579258284
-4.471676630157582
-2.049757657478514
-1.2025966127465644
1.5618625988499388
-1.3214974758066969
1.979013576043004
-1.507386754163829
-4.312650424866123
0.33882528943803664
2.30572158554819
-0.7663105808986626
1.8551459927611427
-3.151031070446936
0.7381930059467664
-0.7848425493113296
-4.709908064801891
0.3533690276795874
0.5747773806422901
-2.730293900981235
-0.5164689718139053
-2.4193314896271088
1.3613806447758927
0.871808639752147
-1.725956763380215
1.5751242513792099
-3.359804981513133
0.3187600084013904
0.2632739021004943
-1.624721220198591
-1.9666387043680404
-1.9156285663729964
2.3764741482025413
-2.3546464165984307
-2.863864159844082
-2.287862781369566
-2.8055335031123674
-0.8766661888413266
1.1698827611752685
-0.7597114081995596
-1.7629915020078186
3.7601331988640454
-1.1934473681844024
0.09099916416195843
-4.695226883514375
-0.7761513378871708
-2.6105046683017417
-0.6929886896109718
-1.86975867262931
2.527515057839599
-3.0640387666774265
-1.4873585144319112
-0.3632067287484843
-2.900710186970764
1.2546141351452902
-5.890744823139477
-1.7746808408713912
-2.7764186561763857
1.2388064704494937
-4.05163992083769
-2.1320501393035074
-1.5556578568877268
5.041430428727099
-4.093919053492461
0.8597086685710748
-2.6186949658885874
2.684477089334115
-1.5228566902934553
-1.4873917923060997
0.2663816492999692
-2.815980350005156
-0.08318156410975244
1.428336616490227
1.0312806200195284
-0.3065428538529675
4.410532329193592
1.955313434711058
-1.2292339597405748
0.5943371317887995
0.5598662228269967
2.5581584083100437
-3.2417369480183473
1.8807111793824105
-0.7446748594114505
-0.137133747984535
-0.6735138829672234
-2.566035958067622
1.4334729413602416
1.3769589012769654
2.3542426635865805
0.27417756379685443
-1.4496924077260278
-0.599947903703762
6.186133765041486
-1.9178223802274628
-3.0216812026160857
5.783564510804115
-1.795287647789283
-0.6217913850785572
2.426343154171459
2.6507708664067446
-3.6665418716844838
3.009029599529558
-1.7203141429543556
-1.0566009913367542
-1.0220652353577973
-1.039455059578216
-3.8603087750945164
2.6895074570878323
-5.392221704033256
0.6355603462929341
-2.6351324238517084
0.29964159199751667
3.5370895358332963
-2.8523467470491437
-1.3443438038410145
-2.718993881574782
4.896159809567352
0.6369399911643598
-0.0641171943482298
1.7209490698238683
-2.221560605965355
-1.9350174566324823
-2.566083910593195
0.10370187806186888
1.6471725186603707
-0.5505672438782304
0.6815244500198931
1.9880135379907737
-4.146692179851669
-0.6315493172186654
4.449229405113129
-0.14879900978340782
0.6614359441490606
2.1578492070535917
0.6998265138979509
-1.2948205090099965
-3.756492127929079
-0.6159598796287127
2.384742260014571
1.102077488150702
0.9617763232290653
-1.8599102983865268
2.3610280001465203
-1.9321956771148943
-0.6552059531080954
0.8982333829415894
-2.637081360485053
0.6635190055968986
3.202213468592891
0.22426610058216734
5.153771201242742
0.40608643902762354
1.7773637590855118
-0.5974895811197317
-1.9766823315289401
-2.402670894626948
-0.7637007834148787
-2.634636201120502
0.8633889701776655
-5.748844081920565
1.3594183720407012
0.4568438091626591
-2.2284914397997877
-0.25647494650678965
1.3707593499282642
1.016375709901545
-2.290275826433924
1.2269099930023837
1.1310208707396323
2.8433425716162333
1.712684522892857
0.9381880037231239
0.8323681491809223
-0.7728711867551712
0.5905304629171839
1.7100336866563466
-1.8786703747761735
0.6897691350274305
0.36167941063955483
3.7323520191775814
0.536264409143145
-1.6996110719509334
-4.19723099418024
-4.588703970901281
-0.9210987067811077
3.209282655189987
0.5118322796110557
-0.13049251627845276
-2.088424930676209
1.7622896491803715
-1.2660518633622222
-1.537855068231116
1.3820801941406806
1.9747280875770363
0.30959595082636066
-2.7760579628682223
-2.2730926993812464
3.703328351956893
-0.9845008401670655
-3.9244497223635344
-2.612606529811925
-2.5090204219292547
-1.7549596058478298
-1.9175071337052694
1.0502945567912638
-2.6399661084073944
-0.48539852639126957
3.960895700154416
-0.8011215269632149
0.02555775268174257
1.194482228260436
-2.5525998642200354
-2.2209261010650376
0.31930846565418025
0.754098438476484
-5.209682218744878
0.6970067467821305
-1.2554538674197895
0.7501294142440944
0.3340002700013364
-0.30082703724990173
1.4063781893264862
2.549756227800357
0.9248792066986891
0.898461645368079
1.925077890455318
-1.6937141865424616
-3.041826544159677
1.0758103069804248
1.1198764362651732
2.843613710951384
0.5279793632967016
-2.9504552045068624
0.6947148224566116
-0.3072428545157025
-0.11441133058484704
-0.11375106534632752
0.20681832170244943
-1.5873740374638574
-0.03563008337321255
1.3491812605511122
-3.59713116759567
-3.696609762232107
1.455871337190251
1.200763221901461
-0.7590533981692775
-0.8217328543695239
1.0316933737599823
-2.0860484274485884
-0.7010023599932198
-3.018066399207136
0.750822548236616
2.912825768558875
1.6180645381306429
-1.5647107443883537
1.152898923525544
1.2732590480904644
-0.13232128604655452
-2.349924348839623
-4.3674727086416665
2.6311524828541217
1.8072947612946142
3.4091986407433423
2.3693584387184004
-0.27421877121934646
2.8143074219588886
-2.382076602518014
3.9591682323947914
-2.122536880358756
-1.8919367954970054
1.3281882595345995
-0.5645203577718613
-5.262844426401057
-0.4425796857465178
0.6313062879101475
-2.4223548187732997
0.009214574176585144
0.6999503536529271
2.7056778050476966
-0.15421992147578947
-2.194373857853591
-2.5456604585703193
-5.847009333744786
-1.9859401854010736
-2.469751262369317
1.5770943343685175
-2.0016814333841704
-2.0428655191393927
-1.147746800913097
-0.4115780186912781
-0.44586112491725416
0.964687412577848
1.1164520327541991
1.0787102492993155
-1.52426113164653
-1.4717846700886072
4.264184119763528
0.354557176102004
-4.612316906125033
0.6367665317708912
-1.5561180032324406
-8.346255722368412
-1.6589277624503662
1.6252323511209827
-3.5397633067530325
4.292238227355331
-1.0495412856240305
-0.4813331999366952
2.654494212196253
0.6789682849273027
1.8694378707016217
0.474039555756803
-0.0761068350565575
-4.97967574197511
-0.7790653021405417
-4.4855755748430095
-0.3854600387875464
0.47146266208459686
0.07202196411389063
-2.378782585970775
2.8307372684731584
3.2859993376126786
-4.632121119627679
-5.2817408007280475
1.267820267865257
1.067682872072134
4.638949475665206
-3.103864714235616
-0.10963565870659983
-1.6978513483569333
-1.5889396855868347
-0.6087626578175078
-1.62036397899231
0.1477593429616859
-3.692573425797546
0.07916323547368288
-1.0814257119582704
-0.5577561112045353
-3.4169795566340864
1.0292790095593003
-3.0107154388471336
3.834556517699447
-2.2114367846504557
2.34318573667869
-3.538388498235649
0.45265763799292696
-2.774992288871621
-0.280844045117949
-3.1621750378329256
-3.3221865870617715
-4.703146123953533
-0.17545246120488062
0.4248575498930098
-4.33215374540486
-1.0699428812935612
-1.4363506688095418
-2.921890637177835
-3.0734535134616245
-1.772710337378693
-0.686228261716294
1.4511872578223455
0.9627611985000535
-1.6206876012879126
3.4558200222158164
0.015249172567416973
-2.417271041400369
-0.9636420138854896
-3.3452748037426643
-0.6664544509366372
-0.9794798234274753
1.1232327324407352
5.72239382076911
-1.4987470452944096
-1.9187525583958838
-0.8727740671342163
-0.6298881251968733
-2.920033060028321
0.3703511743294814
1.2375131626895102
1.30272659330563
-2.2816245677846902
3.776716780644017
-1.5442168434843055
0.3442902807974096
4.043909392089891
1.144756420840818
2.6143966703360526
0.547553417046897
-2.7729706473389926
2.99585050825429
1.2140836166726947
-3.1609233123173763
-3.4265188191032045
-3.5506109170969102
2.020601457691833
2.6695384347450504
-0.6799072693122777
0.21277818529540557
-3.453017553991476
3.4760157387590147
1.097156635921358
0.003107975378784918
-1.9911811503589814
-2.4879685977652954
-1.202836650719085
-3.582614706193076
-3.9354312503178215
-1.2403971660917725
1.4198636708363142
1.467166516122836
1.9683705544524657
-1.482470884370423
2.1096590164281572
3.2621309250568364
4.016127873408826
1.847305644902437
0.7908843154983565
-2.5310203400013735
-1.8640731171973735
4.024856019199291
0.25773776121385106
3.0870710562153074
-0.5621486571642339
0.9270727747085554
-1.5645606905974583
2.9124226628449406
-1.322062279301643
-3.2555263962579546
0.031557092452385596
-0.5312989669030811
-4.297634912258022
-3.4524895475544826
-3.7215409635158045
0.5456284297451369
-1.5472552162382374
-3.6436166206169305
0.5039768427435987
2.0969661362311354
4.826320231443051
3.6879057042154924
1.7583875259329398
-2.0319984645169202
1.199600926577266
0.15795113065666933
-1.0100453944530008
-4.746481720939097
-0.5118692290647325
-0.6627095765205963
-2.5278491322381753
-0.8023953267448506
-0.4912688095277606
0.6307023074978956
1.3941926157074103
0.39926879769514634
-0.3895571271946213
1.860622405705076
-5.3994194702954985
-1.4199656561074545
0.8531469299249518
-0.42559449913334435
-3.9369963264226127
2.7797925124539367
0.254254506457322
0.121512206465663
-1.9888310154629936
0.49280185254536735
-2.46399462468811
2.5087829640788724
-0.6353677717174718
0.012731234854104118
-3.9599822062722376
3.6020504863185963
1.3237770167733092
-5.227956877226619
-3.358742427318946
1.635001977196096
0.23535843456802838
1.2369714839224735
-0.05030031763817807
1.5732575631820023
0.016910243352784647
-5.490609312426718
-2.385727799517359
0.24989424419614023
0.8020686526419909
0.45602963403810554
1.7064956481554117
-2.1711035980706432
1.054997737460004
-1.2186396491780394
1.8895763802171555
-4.413528461867047
-1.3720796979656302
0.9829743198981176
-3.7864838624485078
-2.5162361173462537
-1.1652895059285213
-5.9852811711020815
-1.6128974525742643
0.9422003863487205
-4.3540903128603885
2.6527744059195584
1.1587313943821866
-1.7932213984507854
0.08678839399100484
2.0088479794662915
-2.634866173539428
-2.187206355257361
-1.5120574623392418
2.3616778571136052
-2.12147864126398
-0.058760729649991676
-0.7881096831336298
-0.8137407890262097
-1.2848833988761563
-2.5460460098311373
-2.0251372632155324
0.8137201682182728
-2.2636231422110056
4.5400921042365505
-0.3003514141182857
-1.7482618702921837
-1.5869556747404259
-1.0845533387084407
-1.013334523620847
1.3104425520509861
-0.7305077108156969
-3.0453440273177934
-1.6789103884039926
-2.8413154114326886
-0.5279135977026411
-4.200954220925355
-2.07278484563598
1.3009659544902077
2.348570720607002
1.3096670973527356
0.7514284966188987
2.904125531614321
-0.6457771107624237
1.2144648953703816
3.2220275012714596
0.6362162606611569
-1.1797290739953061
-1.5777593250739028
0.9089260175275666
-2.4152788039168884
3.490679358518031
2.85188841943174
0.29250466921778506
-0.4640903839745412
-0.956271691427116
0.9265909115647288
1.3696947809361624
-0.36103532839616603
5.120843598160424
-0.8801374167533003
-1.8115693587409782
-3.1850975745352685
-4.31468660230672
2.3177904792960367
4.886052234978322
-4.937575324565679
-2.6132274567165563
2.367751186230698
-4.121975526300581
-4.231406382622776
-2.1954223893985803
3.528594465799481
1.7281193967606965
-0.08399345189778212
-4.998511944496871
-0.5164594124303381
-0.1982274080341152
0.17925830709590526
3.7098804292660192
-0.7784554208355192
0.36120910393112576
-0.24422261436418957
-3.1600787740232272
-0.5268090645741047
5.524438345659543
0.7566805057514349
0.20610881190139163
2.712443977384332
0.5425157106433196
1.3985925239164378
-0.5577528254195887
-5.0479447721292
-0.020532191604844922
1.6232499289360147
-1.0690531004615615
-0.5191172753887239
0.4767089692382131
-4.033997672744177
2.640390347795651
-0.4228560858670453
1.369452468838199
-1.3347510551074098
0.6891971349432237
-2.2158195229733018
-3.665248214610009
0.8624683180210352
-1.1944575279922307
-3.231866699851008
3.6956229986022504
1.1111717985043288
4.698097125141577
-0.190933062794585
-0.6322832916652834
1.0349220993136863
1.442807354179169
1.3061895630997984
-0.6790987806813267
-1.6529510895904214
1.2738925002807704
-0.742246614102687
-2.436367774481929
-2.906080229720266
0.4215831810691495
-3.303230757870853
-1.5855523202023385
-2.5391448050429943
0.9283310303454421
0.4947406485755352
-0.8676142915732158
1.4314526583290188
-1.84392512459623
4.83119347043478
1.5529793587130978
-1.406417497939776
-4.159019945131963
-2.110089049905405
1.1899624397672561
-0.45233341148884015
0.894508310208835
-1.1602377723791713
-0.2775370246600816
-0.5056823821661576
0.6427811709641059
0.26458664495862505
-2.509469988776921
-2.984716112782038
-0.353771175847651
0.5861702727833435
-0.6374372891255756
0.5457330909175195
-0.03434172089155101
-0.6428151175538516
0.7564774850270843
-0.17916083445844724
1.7079848972118719
-1.0580637972948381
0.16434868406240408
-4.170498706754094
-0.40196014590656265
2.896289673275896
0.11095195315617708
1.1474670199338517
-0.6780188247454004
-2.574061020130821
-2.365644873316671
-0.3280002447531952
0.7705406566638585
-0.8515686335223243
-2.75208367285154
-0.8361876965452417
-0.16066927850768942
-1.0431854867053414
-2.3693145273255403
-4.098849564784102
-1.8496281666109289
1.5215279386174072
1.5658602985425913
-0.7362021948885624
-0.3028048813690072
0.13605405999146444
2.0476904549192882
3.7733762695317625
-0.9900434965691173
-0.21854047550785738
-1.838047030828774
0.7201247417104667
-2.061024843973712
-1.9745510658152279
-0.2798222830388157
0.33680511064547525
-0.6938858849822835
-0.6881776878319025
-0.9246934839666449
-2.9853604282174993
-3.6935325770420047
-1.445399563278757
-0.3759882123935621
-0.5408681654697214
0.9335268721197656
0.1439741500523149
-1.9583311733313644
3.008067584560883
-0.727474695085526
1.8696081654535122
-0.05428023048235268
-0.2312765335423739
-1.9201477157488323
0.12026241345547878
1.6540663123398287
-0.4446496715116685
-1.0030913171223654
-0.48114742649128384
-1.6612759266571002
0.4234644685802971
4.2162904184754915
-1.7743842606671931
0.7817530781944398
1.4734636335719293
0.36712470581669276
0.7149506850190561
-0.4324931440383995
-0.20598472950273955
-0.1731051063059986
-1.271875277305685
0.1269810720168495
-4.503757332703708
0.7968430814054094
-1.8138313751256592
-1.8987113666443711
-1.3642334712126927
-0.11976355656457931
-1.5984061759933204
0.5898929993088698
-0.47504162179126813
0.13317135103648917
-2.6856588898543454
-1.6641317635796828
1.6896660749261647
-0.27714280889614346
3.6752221238591005
-3.826174617008533
0.7924053747343496
1.316821044439244
-4.308839197226799
2.977473734379248
0.509848231380029
-0.9210069220154646
3.341048808724943
-0.2541580774029001
1.2958581923748118
1.9801358366061734
2.2526239426825008
-1.4861722361458436
-4.131826823375126
1.9014366400349763
0.8944440868452558
0.6298408492863264
-0.30599671327630973
0.7095784084693904
0.006345005519128715
-2.0773058508306685
0.20130869358869244
1.9385213424380987
4.187305046845209
1.8010361286020617
2.4372660605637573
2.9129717316250856
0.6646401241923101
-1.6310920095199632
1.723756580101607
1.5603174578190289
2.6308670932553286
-1.7795805402307878
-1.3655391152949248
-3.8333638610179195
-3.2391969666763796
2.3185560345800913
-1.8348819974961161
0.8525184447183223
2.532763625359914
-1.5602972683221534
-1.9365467043655822
0.7925582322921881
-1.0505556698708591
0.9152561918399456
-0.6060700253926172
1.0724528024032136
1.026946952717915
-2.196371573885937
-0.82030012637221
0.6772416638509658
0.37571931133930553
0.3518213307205785
2.210750214754616
0.4275124478689355
2.0315992679736805
0.8781703242140881
-0.26693105168080494
0.08152551862423588
2.0601419239872016
0.29935249617944754
-0.9388018673442502
1.1524675747925013
-1.5027965284927232
0.7028249760619988
-3.653742022576377
0.6837360716966542
0.4473403488619246
-1.2315253804398054
-3.6624459409916503
2.5819243076974203
0.2540274012591886
-2.680253693762467
-0.062294324314567086
1.1118864210352646
-0.9437005428513187
-0.6640534071330455
0.9107419854152405
-2.413683308165041
-0.13560624234451119
-4.056657847429936
-0.8005937098994849
0.7129641931313927
-0.24664966240189864
2.450082474155084
-0.057657461687610635
-1.4687145253335978
-0.09580689396614377
-1.867517031455373
-2.8649380404926044
-3.6153586354917455
-0.2922288438117209
2.0293453693501893
-0.7357382689057665
0.13605859800910183
-1.3610876704671662
1.9378195841502663
-0.2875787064169539
-2.890216163188288
0.6941484905419406
3.1868164965605428
-0.7862598914055314
-0.5116680136646578
-1.0279968552435066
0.8043599576633083
1.869200439168566
-2.5929827876370197
-2.36296681085461
1.4133805359820661
-0.48286226613966593
2.956018252208261
0.5555176748409804
0.42544534891347496
3.2711517849176945
0.5761937877522638
-1.978508545461893
-1.2402592957509644
-0.8408271870666416
-3.335605126710309
-0.1519949274641876
-1.0048282554135142
0.5854757992207656
2.6506638675320158
0.8599400571825134
-1.4380953991517686
-0.6990119537115189
0.10422238382055411
-0.6520260735852699
0.970491985243181
0.011134698401278566
-1.9807647097262686
3.390411490847729
-0.39069055458727864
-1.7759108222295228
0.2993438282729508
3.651164570056804
1.1318991714527573
-0.5182783872828302
-1.2113774354045443
-3.4543349382588326
0.9978232643032754
-1.2358708693408145
-2.8462864400015455
-1.6588717926224699
1.198049295514151
-0.14968817885446814
-0.8470046408305086
-1.439303284141413
-3.6895796005581367
-1.9634807762439705
-2.8741517776219596
1.9641903866358588
-0.4154882082204623
0.24476906170910695
1.292645765986259
-0.5863110060049609
0.25083063257033006
0.31470281969665526
-0.1209336398810994
0.8541136342827269
0.6226318177149764
-1.8353460168618307
2.3112463800479053
-1.7673229854161454
-0.7458952169254817
-0.7666536470598401
0.37041503642293866
-0.6136831450280746
-2.7200670566759935
0.7400750555531128
1.7927926107283485
-1.3164835772222245
-0.22200302356959906
-0.38230595006299295
-1.3008927582113223
0.6005393230159485
1.2615397301217997
1.7004336432432121
1.6069970807163914
1.4812539035632564
-2.1119766273767393
-1.509417908656038
-1.5122034900102954
0.5258196200627565
1.0779114135556371
-3.2129816810032685
0.3927971364134512
0.3350237653081556
1.431477955997021
-1.346960863646276
1.2209026696417604
0.40896702970546905
1.1791498073499935
1.241040636527766
0.19339317754633994
-0.68207469313014
-3.1587188922111706
3.40432806250359
3.00507388973504
-2.1993790255719508
-1.4668039277780405
1.4858080875419775
2.748984636788495
-0.030321508081242364
0.641559175004534
-0.0445081565339164
1.4045690438213683
1.1493408324224514
0.6387647638641973
-2.313451708885719
-2.2701112916737274
1.3914794510073492
-2.5682661485943226
1.470796704935768
-0.22064985027736522
1.5948776933670303
0.1837472824784733
-0.7577621506301387
-1.186462184857469
-1.8761754641443582
-1.8576726864433544
-2.0678770557127892
-0.6685510140217161
-0.686416995622588
2.1663746613664268
1.2739298947140139
-0.2441542044960608
-0.17084718420952894
0.12250653317085101
-0.8396289819933779
-2.3261521404970407
0.6547918671827294
1.3868784678273258
-0.467283790372038
2.6267369934385627
-1.5453148050925103
-2.4849854648416407
1.8442926306103944
1.364612022714104
2.395177293108665
0.6441498187637219
-1.4367977999122157
1.1947866929647772
-0.6261826938478632
0.6344479086569506
-0.6180825468463388
0.3786578897955951
-3.0137780633882403
0.08448097157469424
1.737789804936345
-1.150185008356117
2.1058672964123946
2.025606120894038
-0.8617470063065765
-2.1535521461455756
1.4205843856757978
2.700082404422836
0.8031718237160506
1.1971339725863608
-1.3985132575888717
2.646773207366207
0.9121637666829567
2.18220536657976
-0.6188026042578085
3.6437992889161404
1.378032392920406
-1.4213392270369394
0.4910071743363595
-0.8749580375145799
3.168384985265712
3.4122389249321317
0.9916021509695493
1.188001981822631
-3.9394751283641503
-2.183500958043707
-1.936391023814376
-0.4899392376504979
-2.882129065831914
-1.5534826518416942
3.614394732356111
-2.3274078105527667
-3.264920868387421
-1.2368243370215013
0.03637420068766054
1.5076905189371161
2.749056743322818
-1.631037631251364
-0.2153625165250429
-3.3942420026232782
0.29098004807262984
0.5667433801265129
2.2293361665018745
1.9016902560510351
-1.1851826436373427
2.218235241950437
-1.0019677210454672
-1.3676350776383905
0.5034090797423364
-0.8434121458578304
0.6615498481178382
-0.5160711434855308
0.9733029045370316
0.5805718787663473
-0.1618157719003887
-3.2003312768409633
0.8103897702297677
-1.2272834090188025
-1.9019764676006565
0.2608669057797821
-2.046209282817347
-2.0362857715380973
-0.022560984563372816
0.12260261721440582
-1.0620934131698594
-2.279707232009062
1.1633917330008339
-0.9226964250676472
-0.23177929009298126
-0.1708738266558577
0.6803955121945028
2.135196466588278
-0.4401754568201553
0.6053472014902741
2.423565834579755
0.3346445823888543
-1.0682357614156084
-1.7429817141808306
1.288239498732898
-0.3020409578747276
2.9844358861020854
1.6457500169039276
-1.1609785784536537
1.4951341739713455
1.2191225561207903
0.5404122074150204
1.4214777007733865
1.0411234143415933
0.37409726568740614
-0.299780318257746
0.970724442334714
1.3534029724446337
-0.7567433289559586
2.21762684281701
-1.7392364991072935
1.7315402619595632
-0.2500447923850184
1.981941500005228
-0.9617431739693281
1.1108033676174405
-3.1559797372654343
-1.3313087303116613
1.2856251878665825
0.9128850304096987
-1.6098118016201144
1.6878127731618027
-1.2796520445248638
0.924068747530652
3.5742486351551626
1.1656578326705593
-1.950862685289945
-1.2997346405863393
-2.6694018043706933
-2.869343552184229
-2.3900221569435183
-2.914286235364873
4.664605892912089
-0.8507595555147671
-3.150516978737358
-0.5825725750860513
0.6180544424179811
2.823208165783617
-1.7918594623816235
-0.9367052670782255
-0.41556912976705135
0.5879394422495002
-0.316330736604034
1.7794207353240206
0.874254172636609
-0.9481695523723072
-1.509383764794146
-0.5156939389843811
1.0048464718021395
-0.7009052400478877
0.22243090046301492
-1.1641366162843285
-2.212250893381704
-0.7067838288619616
1.0771076752016921
1.7502111729162744
2.387690271390738
-1.014601950331353
-1.2928183046048916
-5.617934857488192
0.14614537989763285
2.423224398719685
-0.9283630921331841
-1.4436833428933067
1.524208805113985
-0.3609309016989302
-1.725964691461518
-4.010245717850896
-5.572206774408903
2.9453221704724393
0.2536454957609027
-3.0279177309119865
1.3313302564237248
-2.088603686336597
-2.0673162661422833
-2.217991809103067
-3.3253328475474926
1.3779915557849012
0.26766838970417195
3.15294455032709
-4.2810687341326465
2.1885053864872064
-2.4148987931788493
-2.223480819888934
-1.715127249002926
-3.704424297001531
-1.0924187408411155
0.029310484191354895
0.24824744170113983
-3.18708356880221
-1.7611426254196225
3.8124311766085377
-1.673115974956383
0.007436081750023108
4.1510206453414416
-2.3856220093967697
-0.9152193314098831
1.430675143402792
1.6004960096607823
2.6688887526966525
1.5952667661746462
-2.750447748352786
-3.5970535078045818
-1.31892236927358
-0.9737977636900348
-0.07128689731380276
-0.3490740652700423
0.32034700025629564
-1.4219719955031365
2.0215765366367324
-0.3728765638394422
0.8527081133922721
-1.7880172251652098
-1.573705163975316
-3.817992005189316
-2.053985306480673
1.6595472924323125
-1.3035165210853352
-6.314201845045573
-4.367955972902486
-3.4244116370830735
-0.42228259467334733
0.07040356204072687
-0.7183736625150124
-2.6837506219349514
4.6944174911163445
1.159035713948457
-1.846527914883795
-0.4734122115263771
-0.864800264477429
-0.7028118740065669
-2.742100809885725
-4.740522980960348
-3.580346516714453
-0.825338629219425
0.034069335879183586
-5.299711420877096
3.66581802694121
-2.505827655745933
-1.1099927093787803
0.9296677124224014
-1.4473191213560086
-4.329974456066141
-2.1611035672367813
1.0264885306688185
-1.1377250236700076
-0.8947285685908876
0.9659570771806786
-3.223541684571212
1.2457487193275307
0.046552446228305074
-1.2089162913403984
-2.345500719793077
4.197099934781809
1.8658789457687364
2.101282741340848
1.6146027556855949
-2.1323001635393877
-0.20711048709711197
2.284388901009665
2.6399418196080164
-2.5341128938910624
1.0141665463212697
-5.887490783729364
1.820036451240896
0.1507580827664854
-3.5901490160046876
1.9349378742852166
-6.022742197656152
-0.10217877160957098
1.626761496304
0.574592960168307
-2.380897879500602
-2.064948268164865
-0.875634373536032
-4.203829028940978
-1.3470942735918814
1.7649576614531388
-4.558198240572276
-3.5700909203935454
-0.41906577912492565
-0.672886904106892
-1.3085365869755192
1.4108238270690272
0.45653141753441406
1.8197958879812395
-0.6000214359737146
-5.326444872181027
1.0984744392918069
-2.197757366230596
-3.910981507988344
-3.1912533455375773
1.2267103072610857
-5.4523674821470856
-0.5357859028070936
-0.6749162516542961
-4.821829984445718
1.3453358631795733
1.990627658409286
2.9236673129344752
-1.8680392874303504
1.6940577033688273
-2.536147820841945
-1.170943433732706
0.783456210835966
-5.789313741246909
-2.252917359636599
-3.4450564213383523
-1.4404728571229573
1.1406586011280606
-0.33686711919117623
-2.020325152998998
4.537655824415498
2.193014513489315
1.4069058496753015
-1.2795803741226102
2.117666800409845
-4.3346734551010435
-0.4834102236791875
5.000534084683811
-0.8118077964056145
-0.6240887008444592
-0.21644810864670713
-2.319434873987738
-2.5732498066948275
-1.5298961756096783
-1.485596307217887
-0.6220461890451896
-4.300052750335415
-0.8047960007700194
0.43739805765273493
-4.195399015332519
0.3620970343541774
1.0996648093469423
-0.9120508381870983
-3.186564290580444
-2.5334298277997345
-2.8898635663311323
1.9775543899506847
-0.09093272245780991
-0.8010313763044363
-1.3182621415331848
-4.900572863033368
0.21015111299614134
-2.075703717700219
-2.5510229088555154
1.69330791462398
2.8665601038369397
-0.8561805160820655
-0.08275633838544581
-1.285517283001949
2.4256912385666873
-2.5561133911648453
-0.3977157810615881
0.7714450599044149
-4.490097097319082
-1.0329936244100886
0.9978267986020183
1.1758580058634662
-5.123202398100843
-1.4998170934638722
-1.2668658732154032
-0.5863957879562054
-0.9922382046963184
-1.2433026244549317
-2.4656453034578925
-3.8553698396812366
-1.5869326402002055
-5.814433175277192
-1.9069253849563563
0.2336392405165265
5.216642996165091
-2.669495510051301
-2.335230009996909
-3.6109482807565634
-2.4888526284507146
-5.49312199520256
0.17032913510989345
2.76352183219458
0.48584584562720573
1.573143008939536
-5.8890557759357955
-1.336241892842928
-1.031820397235458
-2.5841855528347755
-1.8125957853997037
-4.795297810065214
-2.7821055963987313
-2.7146776991541177
1.3334397924268673
-3.275424377793503
-1.0315452333546573
-0.18745394853738262
-4.050421139448627
-3.127819082613901
-2.238197790498596
2.3599423603579943
-3.5118455577945347
2.3490526134187175
-1.2301073157494138
-2.6249281875031603
1.9717506082661418
-6.115296674899107
2.317069387090413
-1.8047907433157155
0.7358909696035866
0.6740771067428062
2.86164599212876
-1.5769824495714804
-0.9515531621746265
-1.3065843478382992
-0.07703577943562571
-1.0728862443495437
-0.05873259654422958
2.297731678271535
-1.1756266407001237
-0.031089951244810874
2.4446709587738766
1.799633309571698
-2.060613014970987
-0.6011497799211875
-0.6705315785757616
-0.5271709513633301
-2.2860385993398222
-1.3854836131967023
-1.1219017985648614
-6.3681126596197375
0.8696725234457614
-2.7659458796225995
-1.3813952822359785
-0.9017141543284892
-5.795533375822035
-0.10659844599315911
-1.9497054086659134
2.1253268612160316
1.3269782736876505
0.050989146745311874
-1.029214913705647
0.35559859612345546
0.7065522301430924
1.036682218567218
-4.759775092928668
-2.6179461988151167
-2.6197883195092992
0.7659823024263371
-1.393068373455464
3.5438144295130622
-0.3735928158859233
-3.8018915399471114
0.46055079773636887
-2.7629189840205775
3.2940620331634785
0.18638029569086245
1.2489599534850009
-0.5596003251303773
-0.9915673132456266
2.514598928647143
2.286302201639725
0.4086838760736146
-0.9660587694848384
-3.0707447769006477
2.796949452579663
-1.6181236625070405
4.817832249347698
0.25002674861454194
0.540391015024795
-1.1364495733739755
-2.3371032742184794
-2.1994372483199385
-1.8466378627552773
1.2899953929563568
0.46610037213167743
-0.8923370693619196
-1.940232892067644
0.18189304420326025
-0.431217116661687
-2.546696812815134
-0.11988019876344896
-2.0319095432863596
1.0520655509576022
-0.48145200750677203
-2.713036563804069
0.012011606744388148
-1.3933469403822265
-1.9128849786526743
-0.26229620542723814
-0.6615530118721229
1.2548353735751048
1.2662103586845281
-1.6652755218466313
0.9960863046718899
-0.8895383206684565
-1.797162229789048
0.314614363143406
1.7508740282659085
2.6448174120436505
1.5524865889504866
-0.5267436893591397
0.41472195173632953
-0.6707384944015524
-0.4542609343863433
0.03276103716370755
-1.3888597320537528
0.12160474282208264
-2.9938306717272702
-0.29514820085096993
-1.401574195654848
-1.8704309189360544
1.492698349422712
0.4978946828876686
-0.7146825803502945
-2.451271318289022
-0.3329501033073654
-0.2290446424754229
3.2868181235375062
-0.11942534295070031
-3.592664153170869
-0.27983101533885874
-1.0123368358024563
0.6478196586964825
-0.18394387249398136
3.6830877922067655
0.32342037160012
-4.638012956774527
0.4442344651765222
-2.9199126212364996
-0.05316384277125222
-3.2440871334399555
7.39236191945595
0.666212887113544
-1.4416137036267436
-3.461442148487864
-2.4550675525347856
-0.7034038846893413
0.3962015109316042
-0.6056879921761057
-1.4336781175257038
-2.6155222411566723
-2.3421099953740123
2.786632835298307
-2.74640443703033
6.274510692073895
-1.3384496774352064
-3.9396560249240493
2.1429402635852326
-1.2913493327866328
6.708300201971348
1.2910578674892401
-2.2428278739988636
3.347485333022365
-0.23297105249378808
2.325555465490115
-1.913256487116607
-1.0159269565819835
-0.46665878622151136
4.1492499369718
3.010011559864973
-1.4407581005977312
-1.0333077325331474
-1.234949487035062
-0.1592212018302145
1.8660999905974218
0.1263079848279613
4.460195081388446
1.5475639792560063
-0.9941670604728721
-2.6932508953934113
-1.539544157317083
-0.6872800712734631
-2.663548810140442
-0.6464065280822033
0.18050563211447812
1.3781253435219225
-0.0562594754307557
4.278026359601912
-1.2190528897347435
-2.1808508438951297
-0.5033879570366975
-1.1637336928640645
-1.4799577494437128
-0.09201588732030302
-2.7192853198235305
4.520640408695455
1.1541472258455183
1.187988191016322
0.704013197157349
-1.7653027255511482
0.48563796343534654
-1.3678863206271936
-2.6241385695783412
-4.984867367036476
-2.144262717886071
2.7467471893490463
2.5133314340680672
1.0746242443859586
1.7617730760848187
0.11440557850612042
1.0962864688016127
2.2217248661685463
-0.689836461423157
-0.42142169710083255
-1.5622830863896942
-4.397222332758228
-2.1450058535872993
-0.41507992098004826
-0.5291328217721704
-2.802722141967862
-2.2963560474120737
4.414963156707831
-2.6531095575920225
-0.13465432713374087
-2.418541700929018
-0.3309651033508985
1.2264409960644298
-2.659591072437256
-0.1764090105260027
2.451828530796299
2.3470688151584516
-1.404581835491632
-0.147242075852121
0.8831039344094338
-3.2583305791254085
-1.4215659096012037
0.4257856946727899
-1.4510519008320129
-1.4172293516961074
-2.2318407178818216
-2.00755431548544
-1.7907198053849513
-0.6390292346455685
1.0096285677445647
-1.4285996546520283
-0.14905369057122456
-2.1745337255077737
2.32490707757151
1.061364150881016
0.17680942916718265
-0.9541524412956306
-1.8447985080659932
1.3111788772860253
3.387980276997559
-0.14727194511800826
1.613995848101064
-4.256675062607589
0.4561070425759996
1.1074940672656357
-1.9799103879417614
-1.3604924432323366
-0.5944686662861003
-0.32961451785290447
-1.6434836174312906
0.28286541858590497
-5.478092809980831
-0.8746688291110447
0.31635579594052815
0.6395513751473298
-0.6970684708242079
3.4752888660549637
-0.5119250780226966
2.9386638475849702
1.3784562784756436
0.3104906420254597
-1.221701394381493
0.5953102265462474
-1.3879990011795935
-2.2999666964457064
-1.2138733689060166
1.3888357042567754
-1.7504413701929111
-0.24185624352889626
-0.6904059424323473
-2.6482429983046734
-5.219794972068185
1.847107923752357
-2.349076724917816
2.9880504761120505
-0.46661967566108564
-6.970601675318586
-1.5339309783107882
-1.0922875198663415
4.337949978896169
-6.134496190708547
-4.380768603521576
-0.18474684690986617
-3.656306854694957
-1.562717060934159
7.098836228789425
-1.4533926608564298
-0.8653276585080064
-2.373993327846734
3.1014281506165795
0.15279510837666802
-3.247914809124946
-1.7299105265119485
4.676604711849902
3.310099422622425
-1.5677498103869119
5.457975293482181
-3.8716534597504704
-4.349727274103342
-4.64462261551641
3.8478104317240804
-3.994544706756422
-4.045033104852778
-6.480112593540848
-3.6266721313516097
3.712447321077523
-3.7844825646175844
-0.9865530519611669
0.7203974076523555
3.4682612854343873
-8.206109562574072
-5.628896829065795
-5.657857732310094
3.477665318824727
-3.1136049403391435
7.102477226602996
-6.634795945841294
-0.8813216017767589
3.3602458431733395
4.549243806356762
3.1874843942913733
3.5846384019860316
-5.725578790854191
-1.8620300636144058
-4.0007901797929675
-0.2367409791548509
1.4546667040722578
-0.7606891270137743
0.9611018382363438
-6.4915387518591094
8.295582740406006
-7.765117797860159
-7.469590504027347
-3.998305285366117
-3.1472435462272994
-4.250151942373292
-0.03562208879312515
0.4980111351821708
-3.37979625064559
-1.6956151235712196
4.548949239106362
-2.7552530276578087
-1.5482905304489882
0.2849336210535685
-2.1200445176437155
-0.8206203885019835
-0.975842949398603
-3.256187725143607
0.8523917986541331
-3.8018931247954044
6.615483884148169
-2.6851001182987786
-2.5350410344227177
-3.3673895667012217
8.538101092368839
-4.349517681057809
5.1380175182248005
0.3621226274635511
4.3183809839368275
-1.0089834838263254
1.1585200388904422
-2.9411359023104184
0.9991960896913659
-2.801761408116054
-7.640305413420348
-7.043226651822591
-0.2799064965265346
4.8994946715100225
-2.412541227598104
-4.2702364469200935
0.038994005973564234
3.0876883438616147
-6.3564064676899115
-2.8167927396962535
-5.05140778456193
5.452747885053739
1.642426263075579
-4.040549270692451
-2.815337975770164
1.5696858558878652
0.6798429556008556
-7.316706112967963
4.682345342958928
2.44579681126504
-4.951183314110843
2.04140987678653
1.9500269542077922
0.051405697137823975
-2.6606694209930293
1.0725482077080981
-3.175978540446241
-0.0045926801962675925
-9.138913663480016
4.00493934229936
5.051955377746378
-5.37589226388421
4.738158629834946
-6.197441128637105
-0.024729249412387414
-3.457568883437704
-3.83265099149278
-2.2450062623130127
-5.03507809336659
3.2184232469974736
0.3039621564172681
-4.813562836433184
-2.5194294803748414
-2.454013789643859
2.37035520132537
-3.2615189712782158
-2.727796702783296
-3.1965773448697687
-5.618408807996911
-2.2426103566349083
-1.0338155587049167
0.5523749292739621
4.105039740731319
-2.5933389681633345
-1.3207430656906443
4.982226752228986
2.6667116535191293
-2.4000104611490474
3.0350206317698905
0.3799777758287332
-4.30338386663928
-3.039999557211446
-0.9013207267177141
-0.7143721364371052
2.532987100396028
-5.05861523370826
-8.119424211094827
-3.776490433612716
-9.969943633440517
-4.516336650098135
-5.322710814010959
-5.701738573076849
-8.124630760924472
-4.923702835900635
-8.89767334536768
0.7772742391060721
-5.188400526029342
-0.6317037107667752
-2.5246476339642436
6.611350454082332
-2.672121815405545
-7.654768140823599
-5.531085223886993
-4.496210435049188
4.62432144284402
5.328789758551067
-1.8008357118664449
-2.0255863538717076
0.7850708689264029
-5.6494477985086995
2.56592686473227
-2.4336439170048956
-3.9048130744440015
-4.753819804595427
-4.549317021211169
-3.7691643776195765
2.0050551648623167
-2.7121967164972154
4.456320972786714
-3.157311582512488
-2.7067908995645844
-2.918060347791218
2.8562694629904333
0.1921872686524759
-0.8734564718498462
-4.602393378480603
-5.353317126272786
2.60062392302573
-1.5838797090213685
-0.3794302412701371
-3.844511745129877
2.1225420972059443
-2.4699211610508223
2.1244798742046433
5.814924275565839
2.6468594892131767
0.9553857919139022
-1.2945529019507334
-0.8914539062332824
-0.0017000845190300198
-0.00823180409871671
-5.02223777171313
-3.407719764840091
-3.430642349888594
-3.881234611878849
-3.122429413807047
-2.537951153131196
-3.0373704605263256
0.31719438412048584
-1.5529254754197126
-2.6955603962454138
4.1446524371073785
-0.2793816219912628
0.6277229271349098
-1.2937817982923387
-3.5724019078640534
0.4565713806036707
3.8675602194173586
2.634011088964576
-0.5451779131581472
-3.6464462461611604
-1.1886989407500244
-4.22944063066561
3.1082388924495388
3.8570418731336646
0.7891070656614738
-4.128210749162374
-2.396137411201592
-4.34205306826222
-1.807881872547797
-3.790108759099649
6.867125569063744
3.101694459747814
-1.7154462029591544
4.264580596273504
1.310468453844863
-3.504665761376585
-1.6323574775143677
3.597519973478493
-3.457464991948515
-2.4434060982519705
-5.386089038324664
-0.762823219538668
-6.294338801630156
-2.6312170323897006
-1.2845041148106522
4.89105508838188
4.435778160783248
1.3264590405637482
1.6842498080178314
-4.630238326526257
-4.370696251547338
3.2843109737114724
1.609967699900099
-1.7644330434668163
1.5959402999583063
-2.460548066953901
-1.033307563781459
3.727781705978368
-6.31770987822695
0.6332919381239397
-5.099944066460106
-3.079456037194074
-3.2428000491769686
-1.1335479795361116
-4.118485917002781
4.8390457717284665
1.7125728772678113
4.001945039239294
-1.8187727669391158
-1.519162823942418
-3.496239015683548
-2.5505108193541415
7.345296376917144
-4.201053656082098
-0.4883784237902244
1.5578213731574067
6.609557393464245
2.3068494694356065
-0.2011987447084219
-3.866235320779693
-5.352214108788544
-0.1649055927394476
1.5922479098458604
-1.0244813397732755
3.064831014538164
-4.8861349329467645
-3.9934215791047984
1.0507605598476386
-3.1530634454842454
-2.9812959915284036
-1.990304928602015
1.3938737309738263
-2.536582229466462
-1.598574604930455
-1.275869512744601
1.1702658094022353
-4.469801313776134
-1.9687301704751012
-2.6515680588013995
-3.536649728112839
-1.5753360600288004
-3.301315279619298
0.7668711239976277
-2.3506250466807463
3.349161661098769
-3.0740913079021306
-3.2448202783959044
-1.4743135932184757
-5.646638050748405
-1.395690839762594
-6.234224065677346
1.9705674960365023
-0.19451948568999072
-5.475070088355071
3.2867952329181374
-2.566962995325198
-6.148577163049162
-5.963457998841936
-5.874334457007882
-4.726286551775706
-10.559425363958292
-5.173253863785484
-8.078474744432997
-7.213323881075653
-3.384663962349124
-2.1040624863526447
-3.822706844374241
6.607179452281493
-6.804807394144774
-2.3197405828907014
-2.2306392571318323
-3.3372916706788285
3.3459023957098935
-1.9631738051906804
3.0999633738252066
3.5679611557950737
-2.514455534956455
0.07325524754660304
-5.77043115545297
-6.782377506082783
-3.5309967834032605
2.5820783447566216
-9.208176927185885
-1.9980410442475705
2.604122720932747
4.358226532527937
-1.3573342429233874
5.4658943008171255
-3.5438555281563033
-1.5270617909924329
-2.5353929576903
-4.694745337434722
-1.9986988368862766
-5.617252815323244
1.0565678180075382
1.5271109707878134
-2.480562461928911
-4.199700251525335
-1.4494725398400512
-2.8410654709330743
-2.2334106700812426
2.8770382478589105
-2.130223866844976
-4.68478036878511
1.1766539400024936
0.9911622461702442
3.284203044749191
6.890624850411328
1.023498368471532
-4.524667096580953
3.1992595266123613
-3.9466805337893534
-6.439099180555616
-1.9213085982907823
-1.6381991937834786
-0.8669697058932566
2.980334065947115
-3.511996791332947
0.4017858018451644
-4.0416684523446715
-0.8338241620596588
3.9773071258251433
1.8269878938892237
3.5416055407898743
-1.11791528935858
-1.151692866672896
1.5201766769599014
-6.096851686556038
4.054718678616733
1.504772470409998
3.558208777781626
1.5710944669488447
1.0471238474356586
-0.7223848618905903
3.249365214664773
-4.417148470181272
-2.780265943610125
-2.0645647022586617
-3.0981136720560265
0.6321065784049578
2.446379308264905
0.14496620826367454
-3.463884444784553
-3.1984808432910437
2.5871758886034777
-5.402889064944286
-0.9844289692100114
1.5489102445789995
-3.254405648476976
-3.8741985740100904
0.6486295484893674
-4.89782629434561
-3.125831535330184
4.241043201033094
-4.853991456487003
-9.524470054820277
-1.1069602608737905
-1.3251025811728918
2.2361820100955287
4.698016940527118
-3.1926404597317863
3.2317585161031417
-6.947549215314913
0.48014672859802493
-3.771582288231288
3.8308178232169783
4.83845581631122
-4.80329005691817
2.582454206118948
-5.917399410619202
-4.089425227275956
4.424180626453443
2.5213154059244003
-1.9806690933175966
-0.3739348158778806
4.177831372509081
-0.5590184846188373
-0.6524933847825584
5.285050211273637
-3.0461733801400306
0.6770099633892832
3.0541664946005738
-3.4009221255776225
3.3092409833551577
-1.5038345096311567
4.97904156122897
-2.359530273093725
-3.0057909380667533
1.8053434073312542
-4.786519049859669
-5.506256038390935
-2.4694111782267107
-1.0605563086909315
3.809171349083507
-1.8468560166064496
-2.4054566508891755
-1.4106905925318602
-0.6613669618361265
-2.435876206175026
-3.5824040878191212
0.5079418463183473
3.0374922580396824
-6.151116511147144
3.258430699795479
-2.500119144418266
3.9049145543143027
-0.03384281410874118
-3.3956004662703463
-4.62940723819047
-4.715295346869696
7.85906809929305
5.906249418654268
-1.6612577393112917
-1.6862744146716504
-4.4802283184775336
4.043344693822279
-4.5697922211426025
1.6252553542517227
2.2995522780928805
4.514051399834822
-3.9345472114083866
-7.176581977460384
-2.668820258366106
3.536906605203386
-1.3452685374568492
-0.19807710000293197
-7.9480974505817015
-1.8019412174208036
-9.194628537954655
-9.276334439424138
-6.726960284030635
-1.3142139214327264
-11.751457935664336
-9.33169913007258
-2.319779338730227
-14.2603874234816
3.9993821667432585
-9.533791902762713
-3.7508898968106044
-4.303442034113871
-0.227319424415815
-2.5927321133279255
6.8155021972823
-1.1980637607661404
-1.270980210502912
-1.6083294479804449
-0.5871635532532656
6.933513441098693
-5.077654987411221
-3.3226844073143647
-0.48172240913674835
-2.5808864220082115
-0.45000793575373693
-3.617660496580554
-5.2312480684356615
-0.9600803797864761
4.583965017587359
-3.5832839026317305
-2.352113790497874
2.4275633468276694
-5.068179478064914
3.756082647256103
-2.891204921542309
-6.605291172112442
-2.2551472285379375
-3.4674091874030974
2.284488561565584
-5.179039846152202
-1.4887429888861599
-4.078191896813001
-1.7364986493593917
0.6567121043399998
2.850092124332306
-7.385587731627988
4.072362903892151
-2.8967940934762972
1.1772283668490784
-3.5736889397226497
1.4425493461392385
-4.984708279525723
4.340088389963455
3.5608045071161705
3.4337606454800658
-1.0698872625323308
3.947943491934788
-8.117040252673764
3.017271943466657
2.626015170030537
0.9247302923566142
-1.537985418059502
-5.300755555530594
-0.6040137207771142
3.080802144470407
-2.5444705557970186
2.9859558121504595
-3.7776173727506057
-6.305302284977901
0.9435929041947013
-3.4307013355931404
-1.7467058675025622
-1.3702852538040562
1.3670561115012103
-2.00276989297681
-7.215892054309585
-1.2696830683294205
-3.0581628022355547
1.2204811674532463
4.312881143922107
2.781486351847924
-4.832076514097408
-5.701010191112366
0.37326993558761956
-4.98771538471823
-0.7019027802956567
2.572535461709094
1.0491510290043848
-4.41052260982171
-5.6685154711814905
0.6562240888747478
-2.1258251231190988
-4.847170081012962
0.05133632334189344
-5.1092573197548505
-2.0686878608782755
-1.6898231645461417
2.4453484320864494
-0.5430722741966025
3.6307569658904986
-1.0426933130831963
0.9475379539742154
-0.687674129687115
0.3152225281274214
-1.3263699832905878
1.0474463033393158
-2.058649359527312
-1.9259249921704265
2.432214090802528
3.7960269144444414
1.0168664065688142
-2.7639830493202115
-2.2194091853873763
-4.470798331496402
-1.1682221305084244
-2.4857505101299875
-5.265911644097574
-1.7637245227519247
-0.3641604179667614
1.7462929888856575
3.138860101809377
5.149918057087286
-4.015360794306693
-1.726065338841989
-5.524771463909873
-2.6058613243769484
-1.0713642002591681
6.748945483339237
-0.09838010943285655
3.780607918774522
-4.567872476714466
2.1890806194035966
2.4598488602991764
6.551249090962721
-4.238079869522779
-4.182582896585255
-2.8655406166846604
-1.114551830414166
-2.76437655019887
-1.9858007874680055
-2.950042388400767
-0.6045742710457556
-3.411863802570399
1.5466405180888911
-4.440188202227267
-1.8280710299180711
1.5134153756836541
-3.268984426961735
-1.7483693278695696
-2.891026285550025
-3.1155619108235757
-2.7260793324172776
-3.8519915035305523
4.596336494873312
0.5041121612198547
4.795683328717025
-2.918777902867297
-3.046123084912755
0.7635612190480758
2.2572473350377398
0.01630327356753741
-4.163067487546203
-0.46162622637474143
-0.7982973938993967
-4.431905056571554
-6.0105825282051795
-7.361865590243482
3.006419121172115
-9.661374713144037
-5.010849235523574
-4.360242496217558
-5.552953442204013
-6.046525315906768
-0.5564906862743307
-4.6056325632566635
-16.31010645052287
-0.9902814704922566
-6.840812054358117
-0.05038635091224029
-0.781295213438077
0.7264482341571153
-1.2288554609797524
-1.3478942942564374
0.13118139745847895
-0.524064520341109
0.5269729259345516
-1.561152283921096
1.4664452049354741
0.7240209140083366
-0.16819185454467597
0.9996515686597346
-1.7860425558562163
-0.9895813292862617
-1.4195017746609186
-0.9105468036442965
-0.3636541744842704
-1.8184442048707028
-0.26543128838152424
-1.5437680474310795
0.21092779320804175
-0.49063416934433013
-0.030593977770327282
-1.0370483219125717
0.9488534343363639
0.2923624341016908
0.6377709227835386
0.37170268578606214
-0.9933382229602166
0.25782590403091843
-0.44228914594926155
-0.6682388983428242
-0.09252085346233022
0.6193515850945517
-0.6901608147683649
-0.1781632745528695
0.8335861466008267
-0.6384755597943014
-0.9351600458239391
-0.6211113174491617
0.862157347701259
-1.1373616877054964
0.054777909379131524
0.2924319025926822
-0.02462743481549472
1.423221257393795
-1.4845161549005494
-0.22050129014444012
-2.0975946363819546
1.0573759414205746
1.0462342572427916
0.1366227529512799
-2.355041266745388
-0.5456475095797672
2.1341163044552025
1.2802139787644313
1.826495377328318
-1.4848181235571036
-1.076087070922395
0.7481435280582178
0.6034363078145873
1.8603823825986303
1.246375815845871
-1.155939918903815
-0.6895863967005058
1.0790905953638998
0.24561069369005792
0.46012625941214647
-1.4331111150736184
-2.464725909384349
0.643673795508641
-0.3373379833731414
0.1988607455284603
0.6490016401689248
-0.9431231606778545
-0.04362671249394623
0.07341252409233456
0.38761681796982955
-0.13059738548280217
-0.31885065737392526
-0.627925575264226
0.1095509338454148
0.1896118588706433
-0.9862538652813648
-0.5574451673575139
0.911898909591702
0.3017468952600172
-0.8908480292152886
-1.6360363104091342
-0.3431104113910533
-1.0045049719481776
-1.7468276456915206
-2.9028933244895248
-1.012208912353232
0.7247818730797307
-1.4116726432795896
-1.6045985389595658
0.9350499764570702
0.2910118040858049
-1.2888526604288708
1.2426264443916644
0.0319901185906149
-0.7185001149221727
0.3053734777170865
0.9652959177072916
-1.0418049309824908
1.5566891538226226
-1.7507733627700275
-0.7675834781705556
-0.9365294779044281
-2.1294612033613998
-0.8739595929536306
1.5231589598887765
-0.36291140964550234
-1.8371102262732713
-0.29927451045468806
-0.19241125243988086
0.8972063920264522
1.724726108147521
1.112220822536582
-2.3375434845856278
1.2404670637333404
1.1596861796477
0.014918185572197373
-1.5382144967706899
-0.41802369432522773
-0.48008542376102686
-1.1361827720676438
-0.24676348522583824
0.6230892408663039
0.026648800281066067
-2.513187787543616
-1.0731762306325203
-0.07854471596771016
0.23326672894936196
0.9991803516933423
0.09552559469663786
-0.3556995438706366
-2.1105691015598467
0.8154451167880566
-0.3503597949292172
-1.385644921058354
-0.2315433258490902
0.16246808156664588
-0.060738099913219726
-0.23343259937843552
-0.30111316191901105
-0.8754261195650515
2.235085834527977
-2.0577767720305453
0.4461695758873854
-0.24970723601789124
0.16378175286978933
-0.4336023589837066
1.151370631199394
0.9260224369088692
-1.3425874737328405
-0.026623243401349982
1.3262134844898648
0.5852311089959285
-0.39860923269789084
-1.605291848796128
-1.1902582583343555
-1.657706423658658
0.506913477804598
-1.4769900861633682
0.7289759040330329
-1.2944741075454704
-1.6620034611032264
-1.1962398945346298
-2.254657705637697
-2.2880509787572576
0.4795113218653031
0.14627184827398312
-0.48673521800422415
-0.7479756916121635
-0.9197963868297266
1.402064718657243
1.0804329300228677
-3.5170008140617983
-1.0953445340613523
-0.4110966849289753
-0.3202718240470161
1.1774189393010035
0.43768491636775086
-2.0691712564613227
-1.7681885755064681
0.5990613924494059
-1.8011410391764286
-0.3617237015496954
0.48852541520854936
1.645381844663503
-0.5120845336155881
0.43119252767261784
-0.6142026978382726
0.5143892385851103
-0.2549117767355302
-1.2614571351162895
-1.2972068666241117
3.1907131157357105
0.2738555033620494
1.8925959474006477
-1.8142235796232713
-0.9961457065383873
-0.18455768323179197
-1.4659249374183987
1.319053913469626
-0.7796304548557618
-1.6206596593865628
-0.6643623288743172
-0.051270826835371035
-0.12735524134550658
0.7741789514668924
-1.1596836135704354
0.4199746756545071
-0.92997936094626
0.5665468611149785
-1.5324863829137243
-0.006688298801536286
-1.0044102334388145
0.2947343520972304
0.33281461577451743
-0.3849274672537105
-0.9424660842175405
-1.2570439449583504
-1.490040795672878
0.3471969469061667
0.5112840087427203
-0.06473681553180202
-0.03279916285721035
0.6934640524254001
-1.899145611824532
1.4013120135313273
-0.048772383464112064
0.49085522321309505
-0.6098306645040961
-0.22174219898705297
0.11156127475541663
-0.0890999834924874
-0.634314296805568
0.5039274120139903
-0.9851619290022702
-0.7951352444101266
1.5192817883686387
0.37460725474070955
-1.181567460601381
-1.373342403853136
-2.0874624724064774
-0.8439193713276923
-0.9869188541647375
-0.9282686362555272
0.9711900833047937
-0.07932060308054567
-0.9951911064327743
-0.28573294410807176
-3.4924528902405836
-2.2538138222461415
-0.5090137592052195
1.3008146765395734
0.8174765786194411
0.9844239968686562
0.3448832277726923
1.253186142059006
-0.1536488769330019
1.1852034910675864
0.12165124928118277
-1.439473741719186
-1.7173917378459431
0.32207171801540846
-0.14427606530608253
0.09447226689508183
1.2841424333695626
-1.4618044859020602
-0.014338425654390124
0.3364306874028962
0.4468614599486023
0.3264059817502791
-0.7715327383481848
-0.8504570699853355
-0.4299658814708231
-0.47243125261098207
-0.14989987017549883
-0.41066191146969927
-0.5002746072470442
0.5074702103521485
1.1285959270954835
-0.2919651964148415
-1.3469937625032877
-1.5311269106529477
0.06509796445364163
-0.5882069503983484
0.7264634397856499
-0.7811089996596269
-1.847843521066338
-0.14177129633131796
0.9313498650242114
-1.5823474451223638
0.33717651079903016
1.0967629742694964
-0.7954455214978714
-0.36715410591412706
-0.9060726089435927
-2.0276036191721616
0.11663289050790332
0.10539320863577747
-0.19062107911143222
1.6838028296446585
-1.8574031946466407
0.9867265985549398
0.07952767358743082
2.502879531125229
-0.502169250118374
1.7861027952133806
0.09214997561098685
-0.21714759244939744
-1.6851257507197637
-0.6367051806008277
0.11852742630463879
0.615973184299255
-1.7388182900758529
-1.6009363896747275
0.22745670690029757
0.2178366690978152
1.4558167414136607
-1.8980574255714335
-1.0601942666020112
-0.3754811949269425
-0.30711677174278296
0.44504480604832136
-0.009046066720813714
3.5026086716907026
-0.6989243412701089
0.5068145973349122
0.5026436201888445
-1.74741513531002
-0.9926237779200818
1.3130234454704077
-0.32321362525535285
3.5286686598423436
-2.046900682672077
1.2469374361468526
1.663188700819926
0.5614343225973842
0.49402049757754635
0.34001248920858845
-2.6763099134655524
-0.7900560243022036
-3.6755019731955447
2.022476919107741
-0.24990394030717553
0.20640597112759643
-1.504702468223001
1.904559583391715
0.8976268424829552
-2.348839268903293
-0.3267672902123954
-0.20155636405394933
2.1020447616463116
0.5107543276095179
1.2554522210710621
0.24722227359550636
-0.11380677334661962
-1.40593403932247
-0.6149775092147534
-0.43467239372833827
-1.4105567065532272
-0.6175505097207247
3.2578646261528577
0.6816304846203113
-0.7604524459485994
-2.4756908819316332
-1.9260116375392287
-1.2541534174627664
2.7332190369842255
0.7399135259358323
-0.2012041031279901
0.2064641259345097
1.655434196730474
1.4772391600653003
-2.558174707994459
0.35413694707683635
-0.11756560066100956
1.017136060580711
-0.3750885109778005
-1.623356630253616
1.5495098607180209
-0.37799810350490065
-2.119895194179691
-0.5085890501098106
-3.5001281504464115
-0.08443026252262821
0.5132032418901435
1.1709518519665458
-0.07382072070479044
-0.4850730463176061
2.8699352806261724
-0.8381235616813559
0.06289641308563283
2.2802126898273793
-1.6992279854231758
-0.6259463010952281
1.8245410126661656
-0.9215492833803923
-1.7435852195437425
-0.3614441132974677
1.0353986875662584
-0.4343088862075536
-0.10275496111909106
-0.6520898650435284
0.9454544893159902
-0.8157840582325864
-0.12845204240773742
-0.1599622960898424
1.3869045081630031
-1.0643796721141094
-3.5715239773037277
0.8036164796279257
0.3919827986308349
2.6046750185199032
-0.28940877141556676
-0.8836592920492251
-0.12413720471374824
0.16531956801262837
-1.3563443959120394
-0.2669074138828243
-0.0867754238589032
-1.5256600541056795
0.26999936491642185
