-0.8633060203611749
-0.7180143533866514
-0.7165272973023719
-1.2880880423909977
0.7610931815992963
1.1098303168070143
0.5190185151992428
-0.08230086263355689
0.05249027838860664
-0.3146582355178636
-1.9203894164985695
0.663246873099336
0.35204699810366125
-0.6771379367646589
-1.8378934879468776
-0.8844199638041716
1.2251235595168217
-0.19533556088890833
-0.20059809230529377
0.7146898321771882
-1.4560062931328945
-0.3695917114436361
-2.500025052163403
0.25203760770400657
0.11297226732871128
-1.0745383980921794
0.8406117481405524
0.4304197217004193
1.4656428501690217
-0.570601994850292
0.6972452738933332
-0.6194143124372543
0.8385940773927822
-0.5702571563370227
1.0966636218738326
-0.5653538898162868
-0.4721329403975293
-1.1403609777255177
1.2702506413264698
0.17158866650575486
-0.9838257467313319
-0.10435520548737966
-0.27156450228078394
-0.5148345387244051
-1.1231750078152185
0.9352448979166845
-0.7431696059754066
0.16959503885861893
-0.2934515265078378
-1.007490367362608
-2.4259478879519207
0.45913941310803535
-0.46030092879107076
-2.6050101304627606
-0.2160925651273083
-0.0556393374089698
0.9115743268197449
-1.2696848089612167
-1.9821877769282934
0.7441450230325561
-0.5256020095026769
1.6709224573102823
0.8576252779429204
0.6458915932932318
0.580863442758052
0.8375232575044019
-0.823487646184992
-0.826961342411229
-0.41608807937470815
1.3946557328287135
-1.8337470319295166
-0.48083938213180716
-1.7765842416461377
0.3509164719089843
2.2967654860847047
-0.2822485053656334
1.3873511531268246
2.054562331524221
-1.4072781656503925
0.618801408038879
0.1427326470996829
0.5132221740464863
-0.3581472661084601
1.0791794906014742
0.13423946590443855
-0.33655399626545723
0.44159919074437465
-0.27259190992932225
0.6100058631962124
1.0398440596472363
-1.480824809460578
-2.2606588694734757
-1.8501122629157334
-0.4275979777463401
-1.478430048742045
-0.5071420627032229
-0.043408615146875225
0.4267908908311714
0.0259048716192456
-0.855826368191824
-0.6734950564885609
0.04227891415718578
1.1793245325013315
-1.0412680109660863
0.25244195410023423
-1.0223746116250436
-0.3542065256704344
1.4272954661846478
2.004505713219077
-0.6504870584078867
-0.4455078516150433
-1.5271275464336933
-0.2613558856355333
-0.1586684562686158
0.14695622479599316
-1.0114278095465812
-0.2648028969110816
-0.17137818953898049
1.1424905133835028
-2.509002518841121
-0.2768832776806093
0.5169015635189461
-0.6339569283860528
0.6731670227762029
-0.2937971993618738
0.20060760218537355
0.03463629809398185
-0.4502979111872056
-1.113132942515058
-1.2567996217308348
0.9018584538047509
-0.7755321912967557
1.2974327764003357
1.7086825482729222
-2.1274641836821795
-1.4362476501390324
-0.040743299055597516
0.6985131671805023
-1.3912986062451127
-1.0615540525098999
0.7304585892104781
-1.8501378290618047
-0.24850829207511424
-0.3525216111386419
-0.8262196792106972
-0.9263869093664912
0.1955980618936733
0.09723672781554707
0.22492176046768841
0.7641186094925758
-0.667085523243713
0.12396154386537596
0.271575159793267
-0.8946516883799581
0.9779221546844463
0.4540382754994852
0.8430288060439033
0.8824289156599426
-0.9678416046094316
2.16827721582053
-0.4113682908821797
-0.5272239110365042
-1.7517206281440842
-0.13437033469219056
-0.9486739935034024
0.6404978624009187
0.6229710473519543
-0.4292813279019493
-0.3726600389489938
1.7161851527020637
-0.6848165217735399
0.8042249971961182
-0.9930336272896378
0.45321817795953323
-1.2806226887261556
-0.34102681874027196
0.3661491330813727
0.32496479250577104
0.6720303107739417
0.7007163333536459
0.7401961261978777
-1.8436515586917455
-0.6090322691659847
-0.8188674665143871
0.8024699077299262
0.7819967047671954
2.498172115017112
0.8722992150089213
1.6033622300942438
-0.9835639810975324
-2.4278648145930193
-1.7452603551849024
0.3244324726743697
-0.7285858468393234
-1.160186264853678
1.1094646071121075
-0.6364456416504628
0.5675700467359795
-1.0715142193229996
-0.554801117694966
1.8650485468290052
-1.5881899092990632
0.31869870828084595
0.31061523942147157
-0.8233142791884789
-0.0685713083327628
-0.1271337387916962
-0.5748348689217488
0.3239304388570926
1.3762272946653682
0.8459207980183716
-0.3408363468627219
-0.7326807394868365
0.3405148351491972
0.9472044985942368
-3.437180269028638
1.8329839246964528
-0.5549415779873224
1.0251797267504243
-1.1793026614810416
-0.5760027381809608
0.13721540108327607
1.298656280766058
1.1213786940974755
-0.05147062535239339
-0.627578149800565
1.121600866602095
-0.7138249650763763
1.1501009759455763
-0.8980367865855227
1.2138319943866467
-1.2925259004093377
-0.23790475188946394
0.6972807474454343
-0.6847617605348574
2.170964841637512
-0.020196931983981405
-0.4744483900908261
-0.6826508604750834
1.0902131183392396
-0.817426557285784
-0.30603396246392933
-0.6677415789560183
1.03879096594493
0.7601739124424292
-0.7103999641728175
-0.25270958267880395
0.16973843805477395
-0.5885642623677854
-0.2342173427857121
0.049518768481113855
0.5544036790566379
0.136204249469887
-0.652715667013388
-0.494199606604761
1.2751979642142797
-1.2165883278232206
1.1553219211953505
-0.9197339175005197
0.5628942983364281
-1.3915549426439329
-0.3273974845917019
-0.2911818987759374
-1.9081015854161905
0.33632028840060013
-0.8087588868754687
0.38069544461689636
-0.22002064801540963
-0.5747840932882318
-0.8777838354991674
2.2392526368028456
-1.8510354787749306
0.7608376839231967
-1.4529723940422945
0.202751205424876
1.5997292342653378
-1.8933381255176909
2.094196898408663
-0.2382759608801123
-0.46066390957951725
-0.1768775068004049
-1.4907565194936105
0.25213869562477975
0.005608659466757229
1.6837695059810995
-0.7201258786704293
0.18983808182731454
2.2595862707976937
0.7205825147451255
-0.30451368572965715
-0.5491556116238102
0.8379591156049588
-0.736890802238139
0.5584153111930448
-0.6488830752214908
-0.4311307770877096
-0.10377601247983635
-0.1256257411567291
-0.6158874450573539
1.1677273088103535
0.5489618311146823
-0.9757413282206738
1.9305579092188723
0.7949230609147035
0.36688431685969813
-1.0772678995292637
0.9504827761485549
-0.6726755473107708
-1.1335433826182904
-0.7843296877239401
1.0307926763437303
0.9414159351850644
-0.8684499407549037
-0.7829282171693888
-0.6098816348701113
0.4994673356437546
0.6627339337309743
-0.74374310043056
-1.2315622535644286
-2.8870456663032664
-0.5434485662390077
0.10080559617581406
-0.4048603354769186
-2.434588421830221
-2.283251882251033
0.5234464054745168
0.6688529313580196
-0.9151223456417089
0.058267042049570464
1.5271925342974357
0.8055437685536937
-0.9927089690969394
0.3983338032904016
0.456292802394826
-0.8710896097126722
-0.7567882329316986
0.07440949108667354
1.340045588760511
-0.2858071000422454
-2.253090755464961
-0.7424019317247823
-3.4616751120694094
0.699357735262258
-0.259257649274942
-0.28922642838593726
1.0640631903454254
-0.20949050625140317
0.3880785008672634
0.31344367456203387
-0.2227378044929054
-0.41124829298521487
1.0223818855951736
-0.11920736175939325
-0.24332342473065544
1.8728903311003566
0.6325249448261137
-2.0913921072973585
-1.416926665017871
1.097376312492278
0.09786671276602246
-0.6653890690965027
1.0594547613910672
-0.30694145313490423
0.17320311104526148
1.5948175537651017
1.439770752939008
0.2856009866713041
0.6910189339843789
-1.8009534182535103
1.5840217631990579
-1.230266918788132
0.2756518191686618
-0.38731487785902946
-0.9191573736208174
0.7449088376310002
0.32046717354288323
0.1631628901885424
0.46781284383102223
-0.023003487271692272
0.43482673367266034
0.7394668332381821
0.30678737949866225
0.9373684037921015
0.2097342103444008
0.05527711072382179
-0.6167892540100908
2.550775093729104
1.746851328772288
-0.7119774616395278
-0.49304481962949437
-0.4404321238038299
-0.4329330530367582
-0.5738963342810343
0.9614691770830482
-1.799108786239845
1.3047234844814795
0.37922730817921624
0.294496578496998
-0.02479444219698096
0.7001498267350268
1.3170357269504798
1.4830165778944349
0.7589971145913483
1.0544655509364578
-0.3999466228758857
-0.9201740653709114
0.5304894594922963
-0.7234877402150135
0.10760872167403947
0.4465094104357696
0.041222777748636225
0.07038630721219825
0.057573786027730174
0.24749428019707953
-0.6680134085579328
1.1572174340571926
-0.7173803951286326
0.8485366644838839
0.6812254447555162
0.3516106985462973
0.714634739126196
-0.3254265332604608
-0.1708215440219794
2.0405936814434424
-2.4317704051196647
-1.4825080861444977
0.32917552032160063
-0.7499738505232194
-0.1982015955957688
1.829720499087414
-0.9468937752166345
-1.024548825927313
-1.4466464933124006
1.2468541532085495
-0.34053473212880075
-2.7129965467546056
-0.12397780136119652
0.8906881659376751
-1.6895353389624799
0.7978466621094248
0.055134732303947324
-0.7720779577948162
-1.987147411971509
-1.8150464489759754
-1.3678635276800757
-0.43311582546361777
0.13427019921379976
-1.4167931625509969
0.5069321855094875
-0.17096635601311616
-0.7539182233682952
-0.4377194164572784
0.639021612900896
-0.34039038604951694
0.4178594740105516
-0.33137626623452265
-0.6911442300330722
-0.02882914522846565
-0.09056122701675856
-1.080865795496967
0.6052782287795646
0.9229702383434171
1.0692038474324466
1.964594772349832
0.68961005471921
-1.8105086379344435
-2.0612532052335153
-0.8807357044920562
1.3467907391153922
-1.02697711381997
-0.09237893981963417
-0.11845741327484348
0.6378479079746652
0.09725726780839163
-1.4023704389483722
-0.11117846156461679
0.6603206092616805
-0.5866961295979878
0.45706548863756596
1.0927128514818922
1.2698225597777815
-1.4738161138005983
-1.2246847352001797
-0.22658951669438437
-1.1713790694632362
-0.15237483900113333
-0.06992365489866359
-0.28317704593108534
-0.28850044871572417
0.6082776950154887
-1.1620108127702657
-0.7011627463792645
-2.1720832749685317
-0.32569254553338667
-0.8436458380241045
-0.6230066769647787
-0.9123007353710479
1.8676645062872854
0.6054905443354016
1.1264471978436366
-0.12285725452944428
-0.060173402262952744
-0.2631823516639238
0.8938405464539134
0.5270148791667915
-0.8450172413017903
-0.534951240832892
-0.1932054310088134
1.6578561347282512
0.021573988314669508
0.26056079074695343
2.2513151117537373
0.004141551816096883
-0.1210980921237639
-0.5125768586083957
0.7938376889936727
0.7622265008879628
0.9737011126574432
0.21670860098872158
-1.4666407283477025
-1.8746841434312718
1.4738557007938926
-1.0856358105659671
-0.6703557225896638
-1.2599165972709132
-0.8431006466272548
-0.1644618600692316
0.44705611566240466
1.5841513791714146
0.00808531642777471
1.838730176806575
0.11371280680209156
-1.4804803334185526
-0.024502887988672
-1.3137007280892168
-0.02824393407648701
-1.113185982131541
-0.9439663639022496
0.8017606412575043
-0.06585658189747677
-0.765110584723321
0.23649424268750044
-0.8552102358975991
-0.10241113408012459
1.7650488227752048
0.9431037540915413
-1.403019447324353
-0.02282556568464244
-0.2602387750791111
-0.9678806179552324
-1.0865281881238762
0.5618943180651562
0.08737001796347149
0.7278715200324403
0.9188287623670895
-1.1869267683171643
-0.09085391022781064
-2.0249746008831413
0.9804953454334043
0.925179080159935
-1.220223114647681
-0.005049294708958689
-1.7714308203172489
-0.3355897670997996
0.2583620234781274
1.8583040565029094
-2.5290609796845276
-0.012794633907871335
-1.014753417135129
0.7110562017065936
-1.0460409288653751
-0.1714290877956748
-1.2281824516116198
-1.1840443580155577
-1.1578870048543977
2.2705604181718613
-1.124298602413793
0.569034907861883
-0.6551795836053992
-0.5248195450361195
-0.020324379489251893
2.1259569922678114
-1.2824034738195722
-0.18958711043373835
-0.4862224464111327
-0.8792800957677184
1.2479351493438973
1.2278717972046334
-2.6637487415172605
-0.8028389543287853
1.0249488699650924
-1.0218256051198098
-0.15861286713506426
-0.7651480280104389
-0.01995355099694974
-1.2974807820002827
0.351746526409856
-1.3359745010401998
0.42236276571174775
-0.46098880110484264
0.834389145286934
-0.4286412204528232
-2.9781570725451187
-1.2008653772675022
0.867616220830249
-0.9040288968620387
0.09798953904613783
0.49018007180303935
0.30783312273987146
-0.10418307426794499
0.30880258445570574
-1.0303089672628414
1.2950789782782735
0.3658516677846926
-0.35815486518896544
0.889704172349653
0.6477500831813413
0.21463953130457586
0.6452267093697812
-0.0578639826194172
0.2723546496714047
0.07170506030092395
0.9935937090857567
-0.21979443212503977
-0.1068928568747216
1.5261619340419614
-0.47738186166735946
-0.4763429306037403
0.4754616955023119
0.009637351832890956
-1.2316301846828976
-0.4323553793426656
-0.44075952700080867
1.1435496946536614
-0.41592137451052613
-1.3883491292119432
-0.2459617898015099
-0.4225993202232021
0.3581098612453904
-0.2717223911747003
-1.9248924603273905
0.02086249864431738
-0.9336521066739432
-1.0770094775548205
0.10958940076891001
0.7488773641343717
-1.331427708636071
-0.3424665608938327
1.5099001122848914
0.3328818399168971
-0.7820440690820554
-0.6506462458916741
-0.6177679720780305
-1.3018921538667265
0.7948801777618391
1.1098133954400442
0.6062803834319036
-0.004059742614746244
0.04700974940593968
-0.3366769178240673
-1.8696096323930984
0.7507214100661523
0.3211176711047095
-0.6421949007489188
-1.7960815046071945
-0.8536982643014881
1.2346280006782324
-0.11044063368657596
-0.1234053313830716
0.7119173800024889
-1.3711822662561324
-0.2965745973042193
-2.4979537676714685
0.3325963423197924
0.103399249641801
-1.0421596606605361
0.9376264574780426
0.5480537475880543
1.5467916289321768
-0.47604228125959114
0.7836036848045212
-0.6197531736194862
0.8868055835497037
-0.49895918905301206
1.1726737471218336
-0.5025088627484082
-0.3934353264833277
-1.0582596416539087
1.3501325965348925
0.24500903551700431
-0.9849440131214189
-0.007886230135906539
-0.1997453278776525
-0.5463673186819925
-1.1328201133569102
0.9142711747238454
-0.6512149226388093
0.2795879905628261
-0.21435264178928637
-0.9883244719863338
-2.299017905047736
0.5305414974421004
-0.3786428611463146
-2.6049102528280477
-0.09781465145193717
0.03886999461017869
0.9926739422443479
-1.1818051144724486
-1.9411899184713635
0.7927988549527553
-0.5464482298696792
1.6710650022427014
0.8557957016686516
0.7538669016723926
0.5420339180194369
0.8501749593266779
-0.7303106236023729
-0.735501030009478
-0.5301935931232327
1.3877722760714817
-1.9725971536000666
-0.4836104362128832
-1.799979040177512
0.334701719073834
2.320502300263246
-0.2379145759706578
1.2911272125741775
2.1988016975907785
-1.6516451646963035
0.6819900556582481
0.1373226242664768
0.5137008660991583
-0.29690062041510007
1.2790601784394064
0.08749804610945833
-0.3720334544044912
0.4507795121367443
-0.3194277850143108
0.5914733837389929
1.0763135190373379
-1.6062325102265231
-2.4027417979329813
-2.0510563059983484
-0.43666953906414097
-1.4925923967757515
-0.5502432512144566
-0.04268467507829194
0.5494090482962174
0.06105450855776706
-0.8600711528868586
-0.5627101080290616
0.03829619651453851
1.1551633470752902
-1.1246973723605582
0.21252823802123025
-1.193838491770754
-0.3835746409932835
1.5147037735638973
2.0708763452786125
-0.5722278370163579
-0.36162638652033113
-1.6362245369089234
-0.2569431418675699
-0.23431171410781085
0.14768945263072425
-1.1901639500212307
-0.31730499393733314
-0.16837666414213062
1.1803875757851485
-2.4684267916097395
-0.3520965510402777
0.6372003395522928
-0.782512669545632
0.8983301348011393
-0.412179144357723
0.24267722217098361
0.2032331701606219
-0.6090133602396677
-1.1654961191416269
-1.3900416625533063
1.1366967327486464
-1.0848603789512121
1.3964176423755357
1.6837871169225775
-2.145664322557541
-1.5472303477490756
-0.19226592616322802
0.828185068216975
-1.299893068265036
-1.3226785050237602
0.7318248707611634
-1.8256377010939187
-0.473483325032071
-0.44647919273200676
-1.0268259791767251
-1.0196838899198057
0.11640121907211805
0.21204644407799317
0.01158729083937222
0.8148532300131793
-0.8110730782019973
0.044420887173689104
-0.10799105847618094
-0.9684298899887497
0.9948334517505748
0.5789136569872786
1.1050857079640375
1.0373280845122104
-1.2729051736213728
2.181253296176938
-0.26743403405418786
-0.7716994923336131
-1.8988298475468313
0.19233749399395614
-0.8652831395279046
0.5650886265646383
0.5473996230316215
-0.34427560560878373
-0.23575451543986028
1.7573238275098917
-0.8171114504479248
0.5202227671793024
-0.7886374497516084
0.5040607529164128
-1.2357578323715477
-0.3311226490400627
0.36949426623900244
0.23089706807128146
0.7969902328067767
0.8598613031134238
0.6197500828102948
-1.845015244109353
-0.6943478155072497
-0.9993530293884787
0.9330361739395944
0.7708450976547084
2.5821159713944932
0.8902817928822537
1.6644473227457262
-1.0785392545456456
-2.539666751495244
-1.7820355187608028
0.8224059177922514
-0.938888611442232
-1.3090663271444676
1.3168720061269945
-0.4417746447333409
0.5676232589035206
-0.9029418599893797
-0.6103727317684129
1.742454318562386
-1.7071465886280037
0.17088867224547472
0.3642873610761119
-1.1221362960786756
0.17774184947199423
-0.13857392339435107
-0.346594772159235
0.5693286022639416
1.6728443098648023
0.7414474609569732
-0.3496968930074605
-0.6355304533865587
0.4028018387733344
0.83818859637572
-3.440640091993614
2.187763373094259
-0.4499073853868708
0.6248573733165464
-1.438579230093653
-1.0404813166139018
0.4169044953480069
1.4479978646956069
1.0722253977469258
-0.284984087806728
-1.0973029023194851
0.7871552188011862
-0.8269218729868907
1.102435686839755
-0.9663932118662465
1.083326077550836
-1.5918364446986129
0.2696574518884438
0.5920157176077088
-0.6050888756518503
1.9152665677551837
-0.1523911847965538
-0.2724411685996096
-1.0620425605631194
1.1142776231039506
-0.83455708628623
-0.9174009454758772
-0.7874503711724329
1.2016582447225328
0.7400341281215753
-0.6900921718857754
-0.44403955531039846
0.22519747806818738
-0.5304172962071306
-0.052951973675908114
0.1432872950717093
0.639681153283922
0.42665338668675334
-0.6822410561663109
-0.4742279341323669
1.8818951807427824
-1.1591827711053984
1.0367719203125796
-0.9453151737102614
0.49448244146905984
-1.6176899741896666
-0.31538386184303924
-0.26211477618176204
-1.9291275531055168
0.354856533907791
-0.9120150751994529
0.4631883842008157
-0.33946136772506574
-0.7324326111786411
-0.9440601337939022
2.2069142002085105
-2.0491288596098003
0.8855329410673148
-1.7088328072828163
0.21155874978632558
1.4233503851979996
-2.0531238356051595
2.543978852530393
-0.18758558239664302
-0.41249866818444897
-0.23375516921660433
-1.5669415388718326
0.36789894580085386
-0.024555336510114323
2.03486259269746
-0.5551383939512279
0.18783289048334614
2.2270272362952968
0.9907041291561959
-0.46671963733840943
-0.7330100957812646
1.0521307358004144
-0.5133672894803023
0.5178574080329201
-0.6773404402150068
-0.2719740178488092
-0.17594731170091832
-0.37750743434271167
-0.6780960986936737
1.1157611163566175
0.5086313486411537
-1.2350607331095573
2.085513347454021
0.9178901254361753
0.3702517556343941
-1.0549404655256125
0.9877332204969556
-0.6583313835755384
-1.3796243899051577
-0.7843870481995647
0.8974173892152307
1.1562628493287197
-0.9986438179604746
-1.0782249490066467
-0.6223674660936741
0.532415386062248
0.738199253023901
-0.7208604730238173
-1.2002526550940213
-3.3006903964247094
-0.7199021577762676
0.1278902306665163
-0.5317096580098988
-2.619250317253795
-2.634835526698325
0.5085994808172009
0.793831312179031
-0.8805729706634837
0.33321766025176214
1.7067529403569628
0.8268074360113262
-1.010393003520774
0.7256473725643159
0.5334607346486611
-0.9448732175082744
-0.9673367980805411
0.09872735025276524
1.5074693315823129
-0.22634632178197187
-2.21165591096135
-0.9853413170218157
-3.5356747940708666
1.0037293437259003
-0.34665764210118827
-0.522418629889376
1.011817090152305
-0.0901080812631696
0.4805274582396872
0.13788920586575737
-0.4327186258494968
-0.42694820886175255
0.9900397749488034
-0.4909394297738575
-0.11162278207745593
1.9007885799731643
0.7474957389934326
-2.3416262915561066
-1.3586824259671733
1.1347657852194102
0.05491857993283504
-0.8706865647952106
0.8453177757064129
-0.15566539252010936
0.06870868557844131
1.5863441162708158
1.7867605332943945
0.4085650051399645
0.6655075102385063
-1.7508954822169398
1.8798619937798746
-1.362385067236235
0.5476417932559307
-0.48273521003850683
-0.9366899022870594
0.9466001913468729
0.2534439006302382
0.2311287296109288
0.03310827883203241
-0.021840658039916555
0.346891243727386
0.9189709242044672
0.3284141294010315
0.95249320119583
0.3331581441443073
0.3107283654359809
-0.3758273900967175
2.6053038382526923
2.0223766519641386
-0.780152427783367
-0.5166103827651185
-0.36360773271105773
-0.4618543944413653
-0.7427898372380045
1.1467417106517312
-1.890383239688108
1.4127218973532853
0.5063790106089744
0.42965114501884877
-0.013509298817742117
0.7596396618654113
1.2911271603438783
1.3872930492573574
0.7239351010550878
0.9512806673294467
-0.4881844541381073
-1.0296776424067233
0.5095437263261384
-0.7553381535353019
0.04741613013814618
0.6381912504531297
-0.027124072906313974
0.1676167059592579
0.019767658550824043
0.21365277902662538
-0.8223051303404365
1.1696088832154032
-0.8161926738565277
1.0305696071862938
0.6507743675199118
0.4555372743611591
0.6831992118117538
-0.3669867607730368
-0.1775545415907248
2.066179774180253
-2.466122562017664
-1.6158928567733999
0.44297142831274633
-0.8593114279013314
-0.49384371602659755
1.8021788482226682
-1.05736156680549
-1.3816826716612736
-1.443468672101562
1.2612459908886315
-0.36845811781243787
-2.8961338044271447
-0.09996870321449113
0.8906305650784153
-1.6286136407179141
0.8052077611167654
0.08870840885885363
-0.8947987612313275
-2.1876763047697185
-1.5894254413587248
-1.5762904499105506
-0.430385045990044
0.17367757146681523
-1.4716065904130615
0.4588236391472065
-0.18288118282216564
-0.5839107294425313
-0.3589101051097247
0.32461233329581285
-0.33977953025115865
0.5375814530985977
-0.3411926562013401
-0.8373970837291974
0.1101263001387541
-0.10029419094847182
-1.01356704774691
0.8789101119456604
1.2268298727957452
1.2583021469409998
2.116842321495201
0.6554159260484415
-1.973598343964681
-2.2356010420492205
-0.8497389846265946
1.7007100538023356
-0.908837656870014
-0.16506175931976655
-0.28828775899324094
0.6713461187491565
0.21654484894228054
-1.281151234483803
0.0056353438206641175
0.5349965390919689
-0.7307135165056254
0.5998003814152456
1.0890205143390375
1.3471881323208108
-1.8213591460923564
-1.0841773081869435
-0.1098224427001952
-1.0733727553664443
-0.17982220443316613
-0.20642667146350027
-0.32693184688680416
-0.1956167922266139
0.3824809165945382
-1.2412934435841
-0.6674079681679039
-2.1920091028358195
-0.6910462171278251
-1.1646259490166668
-0.9170663720119002
-0.9608442606119675
1.922667830283264
0.4928864984486174
1.2939983477846217
-0.08450008558766035
-0.06307903459732268
-0.08195112145190767
0.8284272172931616
0.3757222065932193
-1.2297213298035752
-0.7499290765035501
-0.1409775350242019
1.4628728867129164
0.06645223824287766
0.3677229716500319
2.440940955427831
0.13608061843331667
-0.5338923636392494
-0.526580696702842
0.9504951829987607
0.9473733756493997
1.013481575699052
0.4339812870395398
-1.508705272369342
-2.016051516857587
1.2515375630205579
-0.931012147968289
-0.6841251807511946
-1.3113566616084686
-0.890921424368772
-0.44642318651752805
0.501458902570775
1.3955976733895277
0.23439282691777896
1.882366812083146
-0.0283600130531233
-1.6098295291506701
0.07073736749306049
-1.4700267286239501
0.18115520835377344
-1.375143057487743
-0.916937688172372
0.7215902682208892
-0.14668861392670982
-0.620609509342345
-0.11962404221036034
-1.0470648084257417
-0.17330425240576328
1.7522179365203523
0.9569008217044606
-1.4059168390469603
-0.06820240454389918
-0.08948966081671275
-1.0062516222791489
-1.2101082542894703
0.600971353430418
-0.015696006210878282
0.7657901030077198
0.8079223436994746
-1.877175550944052
0.27674430656307564
-2.1382842861907045
1.1889551106692546
1.0581067242045343
-1.3117879243250683
-0.10794665255147468
-1.755463109537799
-0.6066520102264449
0.4260084039676398
1.8378835136222198
-2.6760566554868057
-0.32205024824820755
-1.238936140386739
0.5194246491492533
-1.0994411064758456
-0.19685257906424633
-1.264324738080699
-1.0697261085240866
-1.2930179322464461
2.6261627960194884
-0.6406601224749887
0.3696396343485184
-0.5564863509794973
-0.621805660305659
0.23810828562103528
2.0997014512748806
-1.3346354618493226
-0.3668504062721028
-0.5592282016008985
-0.8131536315067154
1.0615924579873366
1.6454705198237445
-3.315836226346004
-0.33641814654929847
0.7011424598748456
-1.0301172367602427
-0.3192903987593519
-1.310700798960143
0.44621850070359353
-1.6061881895422763
1.0567335024737956
-1.1560060686435791
0.4591111151049106
-0.5789744503337253
1.4666815463403222
-0.6461643260437532
-3.3670286874908775
-1.5009627882250203
0.8505235929344762
-0.9476004228616876
-0.14510460977496614
0.4516688491419149
0.21310012469180717
-0.11083144887438275
0.19558847520238598
-1.4511360336852377
1.20115853932108
0.17589268648371234
-0.47869217323363983
0.682111032625663
1.0443519269070838
0.1869329607643268
0.2366601917312069
-0.1654154888069794
0.5764035750373238
-0.5028672507153332
1.0592034541064725
-0.7058949451013351
-0.19498486189508715
1.5110461621018394
-0.2897746430556983
-1.117653205819509
0.30386219745365023
2.0852157716115855E-4
-1.1899532363445193
-0.5716916531391619
-0.13081216017565714
1.3124260497835645
-0.09221976900328872
-1.4946566177272096
-0.8388992712477992
-0.4816737883478681
0.17052372679771707
0.5382880995140312
-1.8460843070808495
0.01311327663920116
-1.0077559331524935
-1.145355043590631
0.0712116355467837
0.7978064070424524
-1.3763802516235344
-0.37914111151021895
1.4410093175018135
0.11579047902076332
-0.6967637297810347
-0.3677855948356003
-0.0868270974895957
-1.2748730057426847
0.7415007235667883
1.0934356098815192
0.5436097438483927
-0.15678301722343693
0.24787567303764652
-1.580968375652236
-1.7345330575441373
1.0141319827398045
-0.09718027355816032
-0.5482192127617398
-1.6914787560701507
-0.0805198244346516
1.402479669382879
0.5162868307133762
-0.44276361128675584
0.13844099557677036
-0.274847503710693
-0.19782854643242698
-2.6639771080720442
0.21655307184504494
-0.4841910920133003
-0.9897794215800854
1.424564172742927
1.2818275392922969
1.6241465476652452
0.1662557002576978
0.17043642423607383
-0.582702703084535
0.08413284692661442
-0.40200011720173146
0.808021041613221
-0.44767700925455745
-0.445628086077217
-1.184059263667948
1.211316402362209
0.9905364917222065
-1.008868143456372
0.09327001931000756
-0.35467275352531447
-1.3299136771683926
-1.7643650774756137
0.3595194957764409
-0.3286300523924935
0.7919365490260162
-0.3284365167052939
-1.0695516467063584
-2.0572638645437844
0.6278274409782835
-0.10030729916524025
-2.5896779946541244
1.1194962725713562
0.09034383184658885
1.1084274516974908
-1.0607308213646223
-1.147470573150712
0.4087370335344787
-1.3224286155312381
1.599079621919013
0.6336435771943533
1.378454981087491
0.5114426487404518
0.8787927976762686
-0.7036154109997461
-0.8007796526693787
-0.5560032980310561
1.3894363266126089
-1.9345822330059212
-0.504695164957071
-1.7807902058414757
0.33512336171828394
2.329230527307607
-0.3281767709969054
1.303963205318026
2.194406583243094
-1.583703847782791
0.6571373874790344
0.13981813513286503
0.545698193337182
-0.3431079759075755
1.2398792432687022
0.0745374641084504
-0.4213301472879637
0.3819994345252652
-0.3245815195510452
0.633166551922963
1.1302350946831123
-1.62738513499244
-2.342895603300741
-2.0061572611324645
-0.41551534952682534
-1.5248794265915975
-0.5543074192006388
-0.07597542502400935
0.5269909701440276
0.011912968872205604
-0.8536181318605093
-0.6238209311119378
0.02060546646125552
1.1350018641945219
-1.076343290401554
0.18905899277597646
-1.2269451859675926
-0.3605964238905666
1.4924148923409735
2.0528300893977685
-0.6554141584700807
-0.3153439789069721
-1.658197872106572
-0.2739974876157921
-0.2139423418276621
0.1694363999326842
-1.2305356273256631
-0.36023156621332375
-0.16943826870961626
1.2550647208988872
-2.4935768139132826
-0.3119225401704915
0.6216648621990559
-0.7850845305650593
0.8548940229686619
-0.39778444356415293
0.2449584916801013
0.2318871225313341
-0.5741300126927935
-1.1974001818980924
-1.3247032159405459
1.2456383639646444
-1.0535625042577508
1.4402451034000816
1.699068502521506
-2.1682984613579293
-1.5416523116885674
-0.20610550011998963
0.8263216585374302
-1.3188757979709131
-1.402151822457793
0.6501557223898374
-1.8280821267315144
-0.5036966703859991
-0.44636555586572296
-1.009920655483994
-1.0016863551437951
0.09618500972291864
0.24322048281527298
-0.04210838121130614
0.8085268504936262
-0.769697170626354
0.008391304865841866
-0.16839251286161563
-1.048331708416433
0.9254873176507664
0.6316903967964949
1.1357935467798104
1.109841046552687
-1.268593464920517
2.199845828335745
-0.32183506932283606
-0.8097001304603301
-1.911983435199236
0.19183669699443565
-0.8921018059121312
0.5866325367110108
0.5426882916551121
-0.33728916866640263
-0.27688118478325147
1.8424120310602972
-0.8548688213934973
0.5155765647429413
-0.8456586599613815
0.5842500597552519
-1.2478255169435626
-0.3601183715804842
0.3791377983421585
0.2540861582255442
0.7833613408324032
0.8236366530533357
0.6264874290135694
-1.8446418501749893
-0.7352749807880135
-1.0738262602460409
0.8526242104272138
0.7503585386161657
2.489095620571379
1.0236784524272915
1.6790902432657995
-1.0588241828561287
-2.587741716051387
-1.7505094364138158
0.7897034969018468
-0.9433469634731667
-1.4030353630779016
1.4550709124047365
-0.3711867493759216
0.5685332896340978
-0.9836527582502904
-0.6165182160699474
1.7886674520671968
-1.7292146739531338
0.1459566389183219
0.4163815607439177
-1.132941123303423
0.2653042652004229
-0.1268214061179009
-0.39191183386487644
0.48652374567429907
1.6911844992941845
0.7846015468758695
-0.3328324256578911
-0.5197166630377137
0.3451581236533098
0.8815039221469428
-3.4744594861710607
2.259245536543639
-0.5972495216613047
0.588056536567435
-1.4144503762527576
-1.0533518833782203
0.2861695693080047
1.400676199210207
1.0488629948567672
-0.2215940802401024
-0.9610456822771518
0.7984853902737964
-0.7734746802533345
1.1229996946689387
-0.9685126727270827
1.1031494361178507
-1.719145109224149
0.17861239429530645
0.6161779416568263
-0.6441803137874788
2.008953586284091
-0.12754650445403007
-0.3508610578972093
-1.1669098176275885
1.186339516579359
-0.8561931704077331
-0.8827039680586238
-0.9056117595482461
1.1313338870497907
0.6392284894524338
-0.701438078169909
-0.4673701741430489
0.2706069256290631
-0.6108475006892935
-0.09224568756192009
0.0653150391924606
0.5922106503183957
0.3807783382635888
-0.6858277535044075
-0.5734925850463871
1.68630507001768
-1.1612064754423461
1.134301516668639
-0.9102234584624027
0.4286965581527208
-1.4960192745173928
-0.3174604349675663
-0.25333414145377214
-1.93392901328171
0.35761804064117797
-0.8597542132679162
0.4918267333264284
-0.3698108497538257
-0.7200049782860185
-0.9791563224830383
2.1744827812891776
-2.070577863409678
0.8613755327041464
-1.7331510545225208
0.24450816077177778
1.4357524849552614
-2.02746708625973
2.4599720249948027
-0.198772954588279
-0.4441212601289883
-0.2053249779178755
-1.5652188502358977
0.36974074044320343
-0.08028001330998884
1.9957149779571017
-0.6845382420042272
0.13102897411077707
2.234173935981016
0.9883904285280585
-0.4375009772474169
-0.7663939576817155
1.1163054308940397
-0.5418606958759037
0.51945235157327
-0.6633053760702282
-0.33443564997451
-0.23899080345062157
-0.3598070830231242
-0.6755760602655076
1.1110808109062809
0.4570342653800643
-1.2905455421820942
2.0058605153339717
0.8388820078957593
0.3709419769912244
-1.097913499476113
1.041373340629953
-0.7246353940425321
-1.4515665992123916
-0.784364833470088
0.938836362017413
1.2036963840095725
-0.9004817932883741
-1.0289606833854137
-0.5828158314974885
0.6262720506029682
0.6889166781364148
-0.7289294575116421
-1.2410063810917966
-3.322900041125685
-0.7659702225359364
0.06122398552215651
-0.5465427279415999
-2.681557812992712
-2.6045306036938274
0.5091571984599315
0.6855519439249567
-0.8954534117413174
0.29699936725125675
1.7889422045515455
0.796598665899885
-0.9609000900752172
0.8088422855063134
0.5521102093290967
-0.9482831484232234
-0.9147395627484642
0.11003062320095254
1.5437003174032402
-0.23161693610700063
-2.209041603071086
-1.0075111775417178
-3.6371150238266843
1.0627518457532414
-0.3580092883561246
-0.5596494333996832
1.2093780825439049
-0.0012612683920486482
0.5903893834085854
0.03694333369835065
-0.4248539377600295
-0.41121283015560417
0.9980742866909669
-0.4281711647949582
-0.24600071898553197
1.825486177142368
0.8075059433429895
-2.393248695473856
-1.388572850635012
1.1315045500400605
0.18105538837744672
-0.8488557703029085
0.8381316335999501
-0.17359122073576738
0.0650760943761775
1.6415509248460325
1.7539655760654944
0.2813769727132251
0.615284365451444
-1.768807683538182
1.9540779686211955
-1.3083162248642277
0.4891418282385393
-0.44794079866416814
-0.9294316007293928
0.9928857962739496
0.21184049560169785
0.23546401369586248
0.1307911799289304
-0.03469999215137863
0.3426520129625501
1.0428724962929068
0.3370150790576785
0.9503387706148927
0.24939021880637963
0.2812834623868105
-0.46493349539595386
2.5942300520103436
1.942316211057885
-0.7475413145635807
-0.5049350512196835
-0.38907041997245556
-0.4745724383875277
-0.7228895211393233
1.1728408972201625
-1.967101060932753
1.3864584021271704
0.42462886334092403
0.47754891195244903
-0.04311902337078464
0.7771400757382868
1.2723947654175825
1.4522694249976098
0.7333783646024816
0.9713671224854556
-0.49582409091961466
-1.0049902963194228
0.47261256990411604
-0.7403358250126696
0.07005880577356854
0.6510693058497017
-0.04875972903904854
0.18345730448088382
0.0014465159456637426
0.21101034511752456
-0.7680250992039184
1.1646265638220592
-0.7766902007784101
0.9551376822215486
0.5942235738180974
0.4821899038628044
0.6988899478796516
-0.3676153880526193
-0.18005580922610737
2.0020258963346143
-2.4817481487504627
-1.6276865220430174
0.428411031874788
-0.8145066720807006
-0.4460490378947632
1.8199774622935856
-1.0968426722391882
-1.2827183510961435
-1.4348234933253168
1.3720874940527947
-0.36788774884413034
-2.8695247379402313
-0.14289134531627196
0.8906602049986254
-1.6082338509268845
0.7910905762187794
0.09526502870524783
-0.9362774033311473
-2.2320690906753087
-1.6478064315874648
-1.4652103524689635
-0.4183241884893701
0.2816801449452168
-1.4950142498165762
0.471083090784676
-0.1556794123978768
-0.5839075646388969
-0.44472367561711196
0.3042161630549608
-0.3416033004674494
0.5591851262303651
-0.351207573787271
-0.8837137549275713
0.10482475295916828
-0.09876773214511829
-1.0750032902972064
0.9439649703017642
1.154021435048908
1.2682165596335095
2.0871736685132554
0.6068146082828082
-1.9822328397287738
-2.2661407977764205
-0.8759465712143509
1.6217548001852828
-0.930421656152219
-0.09529496549517137
-0.2521874098434105
0.7154261859391641
0.23601225973181825
-1.1548353849951536
0.005754604150470107
0.5545469433662723
-0.6501734185212522
0.5705134906632157
1.085640260881032
1.3826324582622815
-1.8217361163860757
-0.9968428766992524
-0.1575343054461332
-1.1485153449273355
-0.17886185551352307
-0.15638644464908688
-0.37943874121346793
-0.16589568212119182
0.37688392854617747
-1.2862930505487886
-0.6724687028485387
-2.236646239401156
-0.5949238640009774
-1.0847887283060744
-0.845207748488469
-0.9584338134473656
1.888579652498228
0.5030151625660848
1.2955446266341135
-0.13734036335626457
-0.06137412601669388
-0.0335249841247404
0.8487569690185722
0.31373339912435994
-1.2140466282144642
-0.7014383805058039
-0.08598609690501964
1.53939700975674
0.06238237072357662
0.3338145109613903
2.486628000819496
0.13303789199961522
-0.6356132102348462
-0.721101590724903
0.8755598237513389
0.8504206180077059
0.9949408580831399
0.4454012154461022
-1.4836483648555692
-2.039014882414175
1.3609066552457838
-0.8859130869027421
-0.7187574160475088
-1.335155944193728
-0.9390393022859166
-0.5479503521177893
0.525349555482748
1.4531527393746226
0.24778240231307888
1.8982402906803173
0.06445585426582655
-1.6088048578694023
0.058361331528958206
-1.498270980765925
0.16666070310307016
-1.3687235875738537
-0.8277005051553085
0.8219998888598318
-0.055526858828653235
-0.5922731124931732
-0.17621056557947837
-1.1193373460726124
-0.19088012133403934
1.8065907908086354
0.9822175355877885
-1.4434865213300248
-0.059768553681989016
-0.12290072292135237
-0.9837003489556763
-1.1657732835013597
0.5433432522983709
0.008227527293479106
0.7875943993877993
0.8711288938827344
-1.9931590322296413
0.2277232167143841
-2.103045246690147
1.204962853626685
1.0505518363562578
-1.334246717167436
-0.04618542231995016
-1.8007273724408788
-0.7556930737541862
0.5217210271155575
1.8487599096775176
-2.757727363057515
-0.16079348284295633
-1.157783042928986
0.4910570779625871
-1.084392390412942
-0.23382952538311075
-1.1763563284175143
-1.1021018724418528
-1.3622555418271927
2.5575194824845733
-0.7308773932882285
0.44158279629194597
-0.6653158959330419
-0.7034858183465621
0.3286518734981969
2.100806825942451
-1.352802875994619
-0.3160007551744713
-0.45657116801225595
-0.935334630498811
1.1138490745590828
1.6677848321600306
-3.4244629775116593
-0.5000776077810886
0.6995144705558766
-1.0727988670173867
-0.2816296598145805
-1.236407017795117
0.41304774099475644
-1.6787056622244916
1.057552800220882
-1.2660820604242506
0.4586805384071386
-0.5597594598295941
1.4267090654691212
-0.6112045492809811
-3.453997755580694
-1.4278486312260328
0.8375625248372195
-1.0446709791603668
-0.1414329422187723
0.4565964722956145
0.25846619922717606
-0.15464422491024563
0.2619433735164737
-1.464983489835452
1.2122626365136275
0.23226378751858148
-0.46380518900476386
0.7777388141515328
0.9708562695204245
0.1410299908047012
0.20685128276450207
-0.08684501152645165
0.5335556777392337
-0.3698879396509087
1.1474993827435178
-0.4790136949566193
-0.1769035764747813
1.4872790449349405
-0.43052599097334215
-0.9824459878470568
0.37075937442186135
0.005117457595294668
-1.3543982190035704
-0.6046041690215249
-0.1479144798280527
1.3763780654563686
-0.36210699953072295
-1.4882111591307812
-0.7734727206461066
-0.4628095836868426
0.22663033522168183
0.6467249760640593
-1.9881304540013842
-0.003893319296162413
-1.0126903083686907
-1.1440276141331447
0.07187084783973154
0.7715403600024096
-1.376140461841883
-0.3783248896231257
1.4765160478519543
0.18154275820808335
-0.8075831441273655
-0.7240924678490347
-0.11917475633709043
-1.2784689962745843
1.049671323253609
1.100878678815028
0.5438149141217894
-0.14616402789488453
0.19154479538997005
-1.5903978003194779
-1.8745399622283943
1.0714873850903925
-0.17557362229155335
-0.5802747064063197
-1.8104368004980689
-0.22577747311032415
1.5273048099324937
0.46389915331423526
-0.5073103608346834
0.137674004880514
-0.40772396256708315
-0.1819480689140709
-2.6371048345861117
0.22746131920235654
-0.511823402746897
-1.0529787524571812
1.3688353775523072
1.0251986129561022
1.5973982511867015
0.19450021996638808
0.13668285831544577
-0.5501966882094894
0.3067133628663203
-0.4131575998456966
1.0759972836812963
-0.6809238741855052
-0.35483239591247623
-1.1781122412092522
1.213959944113392
1.0258696213791072
-0.9981362163927828
-0.009998626375013298
-0.38145047245776786
-1.4264069460159583
-1.820816199140848
0.29731349873492924
-0.42494489698895777
0.9414844229017457
-0.3206366126378327
-1.0565537996505676
-2.1073607027540078
0.6980265064964687
-0.06661442276522123
-2.590452805907587
1.0940835027180564
0.0675351538981053
1.1876986578615212
-1.3324427010321778
-1.6077687938639438
0.5537746831988818
-1.3739490687435048
1.631390319744036
0.7235742394684123
1.3584843112750058
0.5311736902974392
0.9044774626680688
-0.6678891011875941
-0.8525432236506016
-0.5129653416698327
1.3906361455342966
-1.8811074588133938
-0.5036110775745516
-1.7841638148189674
0.34696780898722496
2.3810158511181574
-0.3941842809048442
1.312486199444782
2.183437927708988
-1.5474091611344758
0.6754152037300483
0.14060380564083375
0.5456439909430848
-0.34297206966689203
1.1547554566270168
0.1186883900218756
-0.42475613698082715
0.34616011990443857
-0.32250052825969777
0.639761197555279
1.152148486794255
-1.6290628554063862
-2.3324632952937465
-1.9958220815248995
-0.43738521954173376
-1.5377720600721887
-0.5608431745731383
-0.06923518801740357
0.497236905358866
-0.03937195962663833
-0.8754369191803552
-0.6792478302036865
0.02181084243056466
1.1327883427818992
-1.0509125157905748
0.19905450472740996
-1.231395527057451
-0.36112937373423837
1.493767167214896
2.0424499247123684
-0.7351498221899511
-0.28560987112081876
-1.6638182504566854
-0.26569464527265046
-0.22001989092011603
0.19235891261445762
-1.2590707062647695
-0.3625621735664435
-0.17014964140991112
1.2611755144796328
-2.5252598140935456
-0.2527231257606389
0.6059662074229331
-0.7245574987403598
0.81942849762609
-0.43121281672627804
0.24280038078510624
0.2266045781622304
-0.49666588362410163
-1.202581731342729
-1.2867041639980403
1.274302471817427
-1.0621331746879865
1.5077409746536743
1.7003506761931366
-2.17327020087863
-1.5358147397961823
-0.16808072693203008
0.7963755049909652
-1.3187175764237882
-1.4293725578790963
0.6148479665663693
-1.7659222466940117
-0.522422268585837
-0.49049396230653103
-1.0227405710665252
-0.9768788185571354
0.07514275617726483
0.2610753582602038
-0.015229149813583797
0.7738355497406211
-0.82394740208617
-0.005936700762278375
-0.15784134457212576
-1.1038475069663574
0.9116158017678321
0.5825140905085485
1.1356531353069428
1.1213545877207145
-1.3211519086057053
2.2097735495860475
-0.3675815373582646
-0.7853059214246826
-1.9240808741457665
0.18526185066443132
-0.8905592778721128
0.5931268814692985
0.5465602117376559
-0.3354491069627819
-0.28824922960437893
1.8773466533481777
-0.854698944004577
0.5304018532348456
-0.8186782267285742
0.6050775737999948
-1.3049297318470066
-0.36353463339004594
0.39485645644395134
0.26981578908665727
0.8044348491256301
0.7791017681052628
0.6414428426069448
-1.8465528567869174
-0.7078136908794108
-1.087529276028665
0.7552213364706478
0.8235590050213345
2.405506431891391
1.119964850290097
1.6376847420893514
-1.0412583769966697
-2.5534163713826943
-1.7426229589743563
0.7357401094206906
-0.9257207161455844
-1.4416987066710052
1.5241476922245303
-0.3780230906859448
0.5694070018814775
-1.0558544555454725
-0.6102661401799367
1.7609451307819606
-1.7339899568676664
0.1796435116481852
0.46262426908250054
-1.114018926913042
0.24917658372591175
-0.13188736154360975
-0.396154630095494
0.3730589252390692
1.6875592491804874
0.8372827645627959
-0.2639244301336946
-0.5431110868673857
0.32491277906116567
0.9470110572287499
-3.468166848280287
2.331835742903625
-0.7064442100359007
0.5709528348055674
-1.4361464875281043
-0.9663994880395899
0.28853867030604213
1.51784250675935
1.0499164700386636
-0.20314623391371267
-0.8740324486634321
0.834157453440941
-0.7536408933203259
1.1410591873879998
-0.9622200081328881
1.1309948194632247
-1.7977455513021672
0.10523379671364347
0.6322401321956322
-0.6564067651406029
2.120085285215185
-0.0040720599107949285
-0.3865330944133253
-1.1863755266858071
1.142711348009518
-0.8610527792689636
-0.8645183662429863
-0.8929465558957455
1.103919209964567
0.668198695519646
-0.7072799216403183
-0.5008691576407371
0.28885839238325334
-0.6558084294478059
-0.04648499234829584
0.1252467461847943
0.5784089979661118
0.3626672796036453
-0.6757641775261917
-0.6055203265817622
1.6375006453035224
-1.2363129438942067
1.2103962179105392
-0.9308975417548532
0.36174394584194336
-1.5131111296052306
-0.32367151470601857
-0.25977050263620655
-1.9496902484247651
0.39232445140358546
-0.8101512942358327
0.4296461951203757
-0.330515633784023
-0.6173525779776147
-1.0006679442733983
2.140286596832348
-2.071262555468276
0.8922565278169616
-1.7443775555246661
0.2578777269945903
1.4761918368404507
-1.9579634703466726
2.437213388403284
-0.2297099262964169
-0.48338743350691554
-0.17360448529384426
-1.5930863508789979
0.3899745525256797
-0.06971475520001814
1.9201563810099975
-0.721842110743038
0.19650705776969954
2.2426357644862374
0.9705113552519989
-0.4343521900818003
-0.7654910562676928
1.176902175589324
-0.5650327309528903
0.5104776600017025
-0.6703620930872303
-0.423959866030734
-0.30942727631045014
-0.4082645831841012
-0.6914405669503576
1.072742280604801
0.3960489156470625
-1.245230508242714
1.9719753545433902
0.7879104461371115
0.3534952995971007
-1.078524857707219
1.0485786914115123
-0.7860790420966471
-1.4293088787439947
-0.7843095191051537
1.0006180347388849
1.1906550911092961
-0.8141024194646973
-0.9574308108651793
-0.5932272075268633
0.6974409508416536
0.68304241456164
-0.7470412188244102
-1.2693189123237194
-3.310615698629272
-0.7433639442704558
0.09543775455234448
-0.5319847663328311
-2.70657145602783
-2.599313214675261
0.5112932839145731
0.6255336037126833
-0.914271853544688
0.24143460665377728
1.78799128851307
0.7539915305976704
-0.9574534894300847
0.8396838201286044
0.5577792621671537
-1.017328346805959
-0.8842353111502327
-0.03312648887660944
1.523953525717892
-0.16528756901607347
-2.246160551330576
-0.9932945151468872
-3.6560377031592286
1.0883627195367434
-0.35192745297109324
-0.6540167057587577
1.2764947763836425
-0.050834124802057776
0.7045393035061049
0.07408971732754233
-0.40199111184869873
-0.3878538961612072
1.0072343312406797
-0.39018134646507235
-0.3423226880625437
1.7220245972261554
0.8332694074233618
-2.381882196786029
-1.397711059181903
1.1116051322824734
0.24136548601399435
-0.8148018342298603
0.8699943038706319
-0.22259030558042298
0.10565972881211748
1.714109315065886
1.6949221359689999
0.1596897311210779
0.5833471668075568
-1.7774570443587483
2.045026694169841
-1.3070019982721364
0.48194185036799264
-0.48424147675953694
-0.9240350336982004
1.0101913056902196
0.2130774114553497
0.26334218630450995
0.23855637678721275
0.0302471267202029
0.5132924412323456
1.089883867794979
0.3149051361032267
0.8713483874912721
0.13018699282119434
0.26125128234530404
-0.5267061295396227
2.598787695134626
1.87024099636122
-0.7202418925245188
-0.5015125301942729
-0.4139850102811756
-0.4721766407001346
-0.6919996256579048
1.2197274372351052
-2.0089075181636473
1.3204249843029863
0.36431889192767947
0.5062389562157061
-0.17285618014724602
0.756318387918924
1.2454222106173736
1.4838285968478628
0.761610985703237
0.9662647203934356
-0.4140860577462821
-0.9952948087579014
0.3968820987809607
-0.7278759726706359
0.0860568643444675
0.651798757278682
-0.018904297686549755
0.14518426641374074
-0.03122944586422179
0.23341808491142044
-0.7381042676601154
1.1566583982299676
-0.7470955958515129
0.9572894701952909
0.6076065053735025
0.5374554654201165
0.7051933980311638
-0.3669690267120784
-0.17954060316757373
1.9913313335856162
-2.484598827301191
-1.6484468308062725
0.4248183285062798
-0.763095936409806
-0.4076984389339719
1.8543521654886204
-1.0609979967115208
-1.248552052032422
-1.4054148757643201
1.4052822321219194
-0.38262926910363904
-2.885898815219692
-0.1303202786389414
0.8906789208879453
-1.584371466887312
0.800331965719152
0.11207422002380694
-0.9277651316917324
-2.2128230118843293
-1.6854171650801815
-1.4235130417907291
-0.43086037895927226
0.3270103278411508
-1.5155351706865023
0.48199656506199023
-0.13566587429164179
-0.5656691918802486
-0.4120906632407288
0.3125587116373601
-0.34138822132924523
0.6024201086579778
-0.35550420813695427
-0.8955682542013153
0.15594857310320154
-0.11155812194207022
-1.0665775242289148
0.9779800302211263
1.1106580968381858
1.3367935210059985
2.089460709051771
0.5545790413902557
-1.9946474179583145
-2.2459648802482914
-0.9005514856502979
1.569587139528249
-0.9544314523198275
-0.046461569588108736
-0.2614720535645841
0.7362208131216997
0.23156498405680392
-1.1424326161943226
0.025973582886480218
0.5733069474096653
-0.6485003327446733
0.5423659885234539
1.0834686223001533
1.3747435964690058
-1.8609433698885474
-1.03325923677464
-0.16578309171339048
-1.1741557847575244
-0.17928224274981422
-0.1668140906221185
-0.47589816101692944
-0.17292318287644923
0.35430671734306785
-1.2952385820656542
-0.6855044368343309
-2.2310040876868897
-0.5326115668365783
-1.0431797264285263
-0.8432334197281689
-0.9599685533775507
1.9073968296873913
0.4932719701437889
1.3471341966746915
-0.15125277351284286
-0.060742431070686935
0.022638299962633116
0.8572223493167074
0.24428887700541294
-1.286940266501819
-0.5604111245848227
-0.13225983914093276
1.5799178856075702
0.06287593100645339
0.28311886405219633
2.473142647216707
0.11118727164153663
-0.6536350158245636
-0.7720611996319762
0.7865810942430463
0.720619571633979
0.9984539789506983
0.45382466535992366
-1.5016908371899322
-2.0284005310035487
1.3798180994252085
-0.8831071201191543
-0.7183379821875057
-1.3506873484944117
-0.9662983067374254
-0.5401196152404094
0.5699431450563491
1.5235647359065134
0.28331878061455973
1.872883555066467
0.059405846072516914
-1.5828235241615165
-0.016239524789416673
-1.6201654169377517
0.13490228030997048
-1.4451197754474927
-0.8226006137719009
0.8476685595873968
0.06286289222724914
-0.550488451497517
-0.1731761297994736
-1.2208890988966579
-0.18562288667814544
1.8326929779063235
0.9907583720074431
-1.452511076971365
0.009669593696140141
-0.13488687755214152
-0.9964147343368115
-1.172030660745962
0.5513905401503372
-0.04162010194249901
0.8199298526590709
0.8542054211321662
-1.9517210867895511
0.22507847920009041
-2.160295786441012
1.1960595946346704
1.0617796393887275
-1.3883499508451944
-0.04056680562229669
-1.8470582069491035
-0.7748686693616424
0.6547714079232365
1.8553237091749735
-2.7527388165457913
-0.012878394535986843
-1.1108629542463606
0.40860333923901876
-1.0869828745055796
-0.3181243622841768
-1.1834160055103156
-1.1348195909049357
-1.4095956670714276
2.558186481892684
-0.807275363025644
0.5460819294789958
-0.7202906523595947
-0.7097188472247972
0.3824970739275
2.1089365406321794
-1.3717160604657717
-0.30870544567983776
-0.42429691085958066
-1.0528129263288788
1.1219988914495034
1.587236183080726
-3.3715384125955543
-0.6258506003260849
0.7033257058842797
-1.1276950055936008
-0.2618729370917538
-1.1751623673334497
0.3809676744792921
-1.6883774640726286
1.008747167777442
-1.3641096326290871
0.4844882080067188
-0.5623721948520803
1.3506769407078507
-0.5742423126568631
-3.4595053216315934
-1.4507179083307828
0.8572266338471884
-1.076281463776088
-0.08573061251100142
0.4667860168942672
0.278933828065147
-0.17588074803792497
0.29255745284292356
-1.4707015100203122
1.20984907572537
0.24257979999787538
-0.4539748532811931
0.8174491247213995
0.9571151632217195
0.10707005624094729
0.24398773105561491
-0.08894184166573853
0.5323693774552885
-0.27699759318538913
1.2188613193613302
-0.3774495199196487
-0.18393373721100137
1.4846905434912123
-0.5040578989829287
-0.9414555414237297
0.4085827025652813
0.007041449043907102
-1.4855873132140884
-0.6220546279221039
-0.123883364553971
1.4496197979834082
-0.5562871999746142
-1.5124863967334166
-0.7083249355419013
-0.4632117151281189
0.3105089196560118
0.5678257184043989
-1.983778077648726
-0.002709690494411156
-1.0096445282743376
-1.1362189128850189
0.061408364013982676
0.7516829807094224
-1.3729138367274698
-0.3817045244613019
1.4632637484477595
0.19443572609087145
-0.8302586197495686
-0.8955335307990974
-0.15739518356521717
-1.357309503327339
1.1973274448049565
1.1297395344443184
0.6031913586330107
-0.0951778348627399
0.18095770633068212
-1.3108595834076688
-1.9119288689159908
1.1206935522991643
-0.15236342649829618
-0.7494777337174935
-1.8684791252445174
-0.3336006522369753
1.667233964968849
0.29932669151517005
-0.5256261141334446
0.26926995237548
-0.6918959925510701
-0.20766826120783483
-2.580382261524666
0.27593687069169537
-0.3594710105330401
-1.11710016255155
1.2133541204120197
0.8450142939252835
1.7051635164984305
0.04938123006036016
0.3178977727659541
-0.5677396686480908
0.47148792925637545
-0.4133249806566285
1.2472431761735663
-0.8023446711750927
-0.2681028116550731
-1.1481552918690383
1.2577803761162965
0.9759767051245807
-1.0143911499967626
0.0013063953858950803
-0.35940898155922096
-1.2711677108215744
-1.7832649368314626
0.37418879239183156
-0.43624386931590425
0.8645664848572462
-0.2941703564817426
-1.015246667825492
-2.0864156694223612
0.8362001813329235
-0.13314483593528037
-2.597521536281525
0.8950218369177485
0.07289392705790564
1.1709248394028162
-1.4755301647054087
-1.8186364163601798
0.7868119845753744
-1.246061246982015
1.6487316130126097
0.7276368523274549
1.2109258899343258
0.5477418517539419
0.8933793447548402
-0.6635837594742228
-0.8428622405449824
-0.4759548800031176
1.3904928795051699
-1.8622349819102453
-0.5029639589387597
-1.7893312079847405
0.35319501809751774
2.3877156281744067
-0.3981493775483749
1.3548470060126923
2.1680141950028236
-1.5223432869005806
0.6505202643262684
0.14310606081552438
0.5272628893315727
-0.3428484586096381
1.1339179720281791
0.14312568333026707
-0.4034163896288154
0.3117468929541693
-0.321254058685836
0.6396427778288624
1.1506572419663024
-1.6558715680438278
-2.3450186570268343
-1.9837420878838328
-0.4461749468904773
-1.561027464802036
-0.5673525442104848
-0.05147785169022911
0.48753820653259106
-0.029203726191614876
-0.9022040382985912
-0.6839209766197255
0.020919439831305335
1.1283931714462954
-1.025310135925615
0.23128849271649604
-1.2392289801358776
-0.38110733952086784
1.494391978561666
2.0554720852945416
-0.7521043031312532
-0.310467116496552
-1.6444641881296256
-0.26738296701075664
-0.2047623458339456
0.17127434512756806
-1.2605278749929323
-0.3525216120256434
-0.17041218207568698
1.2496349644728708
-2.5388312829054502
-0.22415548985309072
0.5427680321861875
-0.6823303937007772
0.8246718221113939
-0.42884877185190573
0.24138234243338794
0.16274640303909754
-0.4637099201479413
-1.259519480133272
-1.270474083257502
1.240327349810062
-1.0406474017534482
1.6060692101562395
1.696231512460804
-2.1736487230976214
-1.5171123261547594
-0.1399922152941414
0.7935063067654535
-1.3382453683198965
-1.3802699777112037
0.6448003468976028
-1.7252746285967469
-0.4825497744873113
-0.5178067673241409
-1.0511048646086056
-1.0049182876679454
0.10127201477250848
0.27388472966290806
-0.0414976768497292
0.7729552217711113
-0.7859729318306835
-0.007031500054641984
-0.14672164074570965
-1.0801066331351015
0.8797878073369779
0.5606811037939288
1.0918085451392527
1.126469421047692
-1.3391004579966432
2.230233831674513
-0.3738600548501584
-0.7591873092246303
-1.9285671990154851
0.13879656594491843
-0.879447716419907
0.5918710681812839
0.5574551392532157
-0.30205901789565087
-0.3292840397440288
1.873548190634543
-0.8360495309991721
0.5812251806716631
-0.8526897507226621
0.5911787942492096
-1.3637896754117482
-0.3719978725940754
0.40038577622397775
0.30591603825980906
0.8353381154669153
0.8028897684351365
0.6582482862704683
-1.8454299224832127
-0.6972101827199233
-1.098356149383131
0.719302615265824
0.8953063762881323
2.408369539247968
1.1539896805521883
1.6476426699610796
-1.0269870444149245
-2.537321922239968
-1.725147762927092
0.7046049443235938
-0.8756474683786625
-1.515114010896295
1.535716715099941
-0.3712257491581686
0.5707965283936631
-1.143371539831489
-0.6005565818090919
1.7731233774580786
-1.8018825424738112
0.1978366325660696
0.4722945442179662
-1.0885789219315085
0.20571916997428755
-0.10947233075090548
-0.3857885266213678
0.317073068580032
1.7089977152095297
0.8876463224994164
-0.21758417730951293
-0.5745500613856122
0.2993152388455348
1.0406989905593766
-3.464074680929327
2.379443347022019
-0.735234640824635
0.5863370107523046
-1.425360591791828
-0.8709569252106126
0.29557160615075284
1.5464299659684635
1.0356167297880094
-0.23053893883542564
-0.8401080594618565
0.8777225008189435
-0.7645761448051014
1.1554965752150166
-0.9541549382734691
1.1542171844193843
-1.8144005860406043
0.06401483030681172
0.6335647167715718
-0.6650939255328678
2.1711620698312517
0.038055236789690826
-0.39586359086460227
-1.1885464701213317
1.1238568703646459
-0.858656882347744
-0.8156337674825396
-0.8776308514219942
1.0975689814415996
0.7147045922983175
-0.7084846536940566
-0.5098087386170034
0.29804215668011796
-0.7146767578756815
-0.14685336999139872
0.17113142555476996
0.530191554369005
0.3619960166795495
-0.662654997175222
-0.6215029894742491
1.5811194947269087
-1.2678571734253277
1.2490032675636356
-0.9491849873671638
0.40864905507516214
-1.5041474475081695
-0.32782431493381015
-0.2653333885439289
-1.9345579919251348
0.4096328513341037
-0.7288537633145075
0.4040344575912955
-0.29824848630182915
-0.5698012998084971
-0.9959390744458828
2.128599356849768
-2.064759424310885
0.892319602411281
-1.7352709778300197
0.27666787606319543
1.50845823625582
-1.9411434032467616
2.4444090816177
-0.28686009016890457
-0.49674932401029875
-0.17147977455045246
-1.6023863144988726
0.4480140615618789
-0.05902509802423564
1.8884899420490497
-0.7534616063236474
0.21620904651700934
2.2456199066940083
0.9728875837921229
-0.424800732076807
-0.7608867166476329
1.1947083261810565
-0.5618576389961333
0.5277835478963774
-0.6618245749557543
-0.4492453681643152
-0.30410484816672756
-0.39819842852453335
-0.6915590612696596
1.1006778277495228
0.4012780480890108
-1.18838860115259
1.963151194125209
0.7702572843149222
0.36980614437580905
-1.0801549293280865
1.0401435364538256
-0.7897033143052273
-1.411215293997002
-0.7843330022977681
1.0104369533557696
1.1682882680565327
-0.8224196126487892
-0.9316886383192354
-0.6286787336631666
0.7365494666473188
0.676542230415304
-0.7424966336723297
-1.3144687480965993
-3.2868411498249066
-0.7314153258689634
0.14348748104123557
-0.5431979068273758
-2.701805750586266
-2.6238959668504336
0.5043889843197081
0.6377794577626947
-0.9286916752701305
0.2498444963546367
1.7422577311924092
0.7224551396652139
-0.9737493808625395
0.8133881388211217
0.5367633345907404
-1.0588505262136294
-0.8313055067201961
-0.06474653174819674
1.5078902188175893
-0.1869886874141456
-2.2889607178112983
-0.9483605923037199
-3.636402293001277
1.0878098492076804
-0.36091605071458005
-0.6784603830133452
1.2475583595302195
-0.05018730652989796
0.7338633388542338
0.10341058344468429
-0.3579066008241894
-0.37869329224638354
1.0105365331868912
-0.3756202878342933
-0.3475098990776568
1.7297109280130467
0.8428335543397735
-2.379118854689951
-1.4054558292108446
1.0995491700377171
0.22701021888893813
-0.8675766888069945
0.8531263673633928
-0.2506933124958575
0.09819026141524204
1.7609302294804867
1.6728111741983562
0.15179302171783665
0.6286732350725708
-1.7703453101118203
2.065637258618562
-1.2867451638696248
0.4697219242122177
-0.5340676026006943
-0.9220978271740987
1.014768734457651
0.19373178794199586
0.2756113067354758
0.3342833683659307
0.0391473148837355
0.662667583874822
1.0787061634783768
0.31895222882623625
0.8725176581735112
0.1364161690299972
0.23162960178749475
-0.5884562047944499
2.6022211977706937
1.8505373306882886
-0.7118819930659648
-0.5006439180165588
-0.4127181002280899
-0.47872165740822525
-0.6601467448924675
1.2187837275568028
-2.0124472573827017
1.301620136155479
0.3600767149251475
0.48980477717699383
-0.2507619371061604
0.7996586412972372
1.2139941134930592
1.5167984001051191
0.7493826332385642
0.9638771532594504
-0.3451605053505988
-0.9877053620504006
0.3833728017051822
-0.7309770561435369
0.09980753999594019
0.6577781863744026
0.012565225353863086
0.1526241633081555
-0.017480573082882346
0.2515016701204029
-0.7511971999026693
1.1530839185737989
-0.7178849743704601
0.9578400060670559
0.6052588631285059
0.5263559564536956
0.7094083572991927
-0.3742445218906364
-0.1850182646903331
1.987620157343704
-2.4825941584642774
-1.6862424546224486
0.4095381736141123
-0.7420380306034456
-0.3590014066444477
1.8856756132097663
-1.0261764223111822
-1.2175009000444947
-1.408485849832112
1.3973876231361981
-0.40656508215566883
-2.9103975655243604
-0.11526568984820795
0.8907088849345778
-1.5519202481667336
0.8225880101429254
0.1126696681602022
-0.9307383121882453
-2.197577602649901
-1.7682182018099124
-1.4138916896393803
-0.44085462355145766
0.3432369145113403
-1.4827766394542803
0.4945105401249707
-0.09926781028401567
-0.5762233283627498
-0.3847285025534421
0.369283411909796
-0.34015823604672807
0.6424223044289311
-0.35638100526160527
-0.8998732067084501
0.14641309888672976
-0.11142111172683776
-1.0612972116362585
0.9933737985807713
1.1266071809350193
1.3683079802286324
2.107831688441078
0.601102388203684
-2.0297303780438822
-2.23670397035751
-0.8936790758972919
1.5563493088235525
-0.9397111332904837
-0.012301644221892498
-0.2524877331626412
0.7606435786359926
0.22301946827981606
-1.178167296419014
0.018815260906702137
0.5989384465179177
-0.658329545056551
0.5292050008556483
1.0865819578694222
1.393097216908131
-1.8397794835352428
-1.0791713831817227
-0.17437128979087255
-1.1807664571570156
-0.17622989072201256
-0.17625689721137672
-0.5124911563111317
-0.2114006345518258
0.3456596025538267
-1.3427296489538516
-0.6838932814523349
-2.2489156887714348
-0.5065168994760934
-1.0056624530130036
-0.8005818285528454
-0.9587914286820544
1.9125642579839288
0.48498035860837285
1.3578660005704652
-0.16492731305741606
-0.06046121489967753
0.04435212557734468
0.8740026271808021
0.22771417120860396
-1.2931867203224852
-0.5161154494710457
-0.15863173386485502
1.613505050803657
0.06719967827009306
0.2997071348548924
2.438356631845542
0.10018509512137624
-0.6253343007660718
-0.7662621477791217
0.7299875040386525
0.7065456600840876
0.9979793358597014
0.42704698824689624
-1.5035691191489764
-2.0245648306079556
1.3729676747428514
-0.9070252947280657
-0.7360791034180804
-1.3128627149035113
-1.0067621228460035
-0.5281940764782238
0.6052170175227775
1.5641099568032988
0.28839479755653913
1.8770257096691143
0.05408464046866184
-1.6014061285272705
-0.09413857101291813
-1.661260277441981
0.1087518059149954
-1.5218192064288396
-0.8451424619766921
0.8808126703036459
0.12192654542301906
-0.5444210706734464
-0.12550842022997152
-1.211803643443119
-0.1891085820216503
1.8469432780540003
1.0441845428071985
-1.4943303612369603
0.015343104036829206
-0.15081048501902894
-0.9962501244406919
-1.1650422438391097
0.5333564715972128
-0.05394701370019404
0.8151381650473045
0.8531771395341959
-1.8744255438463322
0.21868103442367165
-2.1977503847120317
1.1540686943585983
1.0618839217487033
-1.3967625954035972
-0.06039087473648771
-1.8842783204795537
-0.768187411165973
0.6987932681646092
1.8566314445256509
-2.7912170093119815
0.06397552271538054
-1.1001901366540858
0.45178201159086545
-1.1146874842806365
-0.32786213604069975
-1.2467257887526304
-1.1470073692389868
-1.4290168896161473
2.552698138072258
-0.8830163157605976
0.5865017074002069
-0.7756273070113731
-0.6899589280035043
0.41623427647016165
2.1082538355098506
-1.3986582688411722
-0.30760224798494307
-0.4178001692276258
-1.101645552099756
1.135735493270925
1.5294776370310603
-3.328493770695569
-0.7236756788565889
0.7850138649602805
-1.1659868690726887
-0.2663912925468765
-1.1001623849197528
0.36114063539574975
-1.6968338174779962
0.919895962445375
-1.4248691645320422
0.4456920419090348
-0.5767225682118426
1.2509508214418594
-0.556616681652952
-3.4712907922273732
-1.442910816759369
0.8386435935863941
-1.0651142427938307
-0.05277381115054315
0.4683989729165935
0.28675128511895853
-0.17788342225766723
0.3590999568342846
-1.513724450770452
1.203523714374094
0.24791475262343396
-0.44856117198041173
0.8566072867015045
0.9315382824106287
0.06582464832830247
0.3184845309864126
-0.06614937656422439
0.5987462773844826
-0.2156638699507379
1.2382768335875824
-0.33354673395344236
-0.2001829742994689
1.5045474893551993
-0.5232348722125266
-0.9203310985117591
0.43252573177366627
0.007937876357866702
-1.6003573661589219
-0.61170700685658
-0.15469901668567604
1.463045214190574
-0.5658863460036689
-1.5543730769237476
-0.6265390602476566
-0.46892992410736856
0.3603941430379487
0.47707403247824653
-1.941141109329643
-0.0036636660989034986
-1.0034817163240999
-1.1261397106493143
0.07984894348071202
0.7387462350036721
-1.3782349088154027
-0.3790724573124943
1.4632421352549287
0.20173523048002664
-0.8389070308603563
-0.9162366661997469
-0.20231202253064012
-1.4162599879129605
1.2916739986842802
1.1370280553648062
0.6097697884772374
-0.07318311325739718
0.20893915397695864
-1.1515302558917102
-1.9155000787850305
1.1580969852983496
-0.11856413619888771
-0.8374147846144427
-1.909424748430976
-0.4617404757733978
1.6824369115181579
0.2123606751357578
-0.5157862279932511
0.3733812971398658
-0.8486967599345965
-0.19541547294239459
-2.5563286958589013
0.3008403287327752
-0.26790010178219564
-1.1401474613039904
1.1505834531112469
0.7719431962068437
1.8043227008580374
-0.02872917844698938
0.4360345959433671
-0.5791780343633821
0.524716885667801
-0.3995210877372931
1.3018088665845298
-0.8274702771252538
-0.24948892269174328
-1.1269765128380742
1.2749827462152907
0.937414375278383
-1.0285337188479637
-5.460115742995633E-4
-0.3293529857591427
-1.1493755297835755
-1.7404403420829826
0.42301068711768597
-0.4445660198015618
0.767353486826935
-0.3037726601428513
-1.0023411887831255
-2.1146684565325713
0.8612857024449393
-0.18392946960781575
-2.6004819895796274
0.7420140444769815
0.06638115823961752
1.1311011553483248
-1.5641129044752637
-1.913093697032468
0.9843402185686502
-1.1626439692664117
1.659061042395531
0.7674844563684112
1.1433530868892041
0.5625899770646721
0.8837838483642829
-0.6941886495860101
-0.8361187783675088
-0.4553698861499601
1.3898258757715123
-1.8670672406475783
-0.504117463469948
-1.7935886402516983
0.3452066838147207
2.389047932866942
-0.3933449303905188
1.3857199990712117
2.1538888701580707
-1.506005383645597
0.6339574295996215
0.14363792793356006
0.5237710569205969
-0.34107419166190495
1.1377943215635036
0.14220631298065842
-0.3844743712648709
0.29379411411593065
-0.31496128259081446
0.6547733993819451
1.1454950351463917
-1.673381595806394
-2.356869737309281
-1.9857810145178818
-0.45825772866812553
-1.5752402660754286
-0.5672097109711862
-0.044644343424416644
0.4677598536571487
-0.02037627117691076
-0.9054979936715689
-0.6848193617172632
0.019279576778808906
1.1262793795993045
-1.0113513293548906
0.2512966529041919
-1.2456617888148889
-0.39005096380698145
1.4959760599888183
2.0767177698589103
-0.7413585826463195
-0.3280433614111894
-1.627799964618773
-0.269193099396664
-0.2105804439021852
0.1639547674228666
-1.2454797618591054
-0.36434727356900765
-0.1705331772007427
1.244142819777754
-2.554087532943764
-0.21475957570679496
0.5133126039022864
-0.6503036391644141
0.829697732627912
-0.4311537703104569
0.2397906842493736
0.10313187294893172
-0.4579834323080012
-1.2760856958096551
-1.2623785957583988
1.1947782078287503
-1.0596184398751898
1.6444284826717608
1.6928258463822496
-2.173890109467271
-1.5177634607132162
-0.13829013047185607
0.7971639714772982
-1.3731650237900923
-1.3534157271260747
0.6435651643494693
-1.7512738232465836
-0.4744457605198723
-0.5098424505699071
-1.0830938637231728
-1.0103348357446438
0.10659786216766853
0.2751191945938215
0.0029899260774126635
0.7914166586057237
-0.8025600191279215
-0.013927386722049651
-0.1470762350099619
-1.0555790566597871
0.8704395884537147
0.5707080566974371
1.0250411623428863
1.1589737572725618
-1.3292144879391306
2.2489717634791973
-0.38467333487132654
-0.7053852123588138
-1.9314728947348851
0.0528770745410865
-0.8768946004179232
0.5810441109969726
0.5554733419727788
-0.2782390709009258
-0.33289661721295916
1.8980933693803235
-0.8261129103180659
0.6210525263883798
-0.8694209518306383
0.5908223845711659
-1.4048306148908383
-0.3490753920964251
0.39446140422474946
0.34247470133417834
0.8423736468073876
0.7971906441138595
0.6925542369776928
-1.8447541602940172
-0.6898812902583075
-1.0857552456439583
0.7365758017491442
0.9598014482476183
2.454766585501908
1.142120740969965
1.6463574362664692
-1.0330279436661396
-2.5413826251227642
-1.7234498778403395
0.6739395946878847
-0.8427042939728036
-1.548397269845779
1.5282833131324005
-0.4168211859796366
0.5710789782976231
-1.213721717077167
-0.5973197623227307
1.7845875263783406
-1.8393665246600588
0.20285750623619073
0.46682506007668845
-1.057201623969584
0.20283642972265425
-0.10518400977837997
-0.37916128535499505
0.29497653913234023
1.6995172002990526
0.9017191637340464
-0.20398916222896044
-0.6239853756488838
0.31506946495968796
1.1108102071168353
-3.4644939281638134
2.385305258637477
-0.758991506087563
0.6180630055686352
-1.4379779902969458
-0.8164130330847273
0.2978772980533883
1.5994733124421012
1.0348427054627032
-0.23311918499366135
-0.8095184581182483
0.9281737977806993
-0.7807600700759845
1.1561634077734864
-0.9514359975367143
1.1644569336529562
-1.824886247072466
0.03177823237798094
0.6320838203149616
-0.6733670023626606
2.1957277608836696
0.06743406669303104
-0.4286814816290498
-1.2162758892222367
1.1066128738243626
-0.8580377085539964
-0.784196045520979
-0.8439811620551743
1.099553391318194
0.7808760407790434
-0.7093303358333625
-0.5049236318979571
0.2906179182457331
-0.753527958373942
-0.20858114714796516
0.16838172311825753
0.4956227917612196
0.33087582546516564
-0.6597360629774937
-0.6176057121848562
1.5413159742670153
-1.2718036071481977
1.2570690187604054
-0.9510970992954327
0.41722882216780566
-1.507153737573843
-0.33415567076807384
-0.2895658217452853
-1.9364792429009452
0.395274453354374
-0.693609846794586
0.39010223054446025
-0.28122279733232275
-0.5540943157236773
-0.9972165089203008
2.115180548560308
-2.050674966522248
0.8862400855944799
-1.7438744629804772
0.27444897378765265
1.5431671106677154
-1.938211288123818
2.427111692894705
-0.3545869622624678
-0.504945739138372
-0.17654273675821686
-1.6280467996574481
0.47392444138453454
-0.06061752609691242
1.8838575598473104
-0.794342859417731
0.189826906149737
2.246267943040222
0.9688797112677553
-0.4147100278602265
-0.7670076644279905
1.2106234748806681
-0.578862617673493
0.527402747675337
-0.6684342260333416
-0.45700645175410565
-0.29017720289777776
-0.37650674643447746
-0.6817959660029956
1.1114057293891928
0.3956163896107726
-1.1199331893557873
1.9599440737636609
0.7555531878002821
0.3683965750493847
-1.1274654212970578
1.0251984252758992
-0.7839387687859266
-1.4264345290514302
-0.784333959406502
1.0186498791505012
1.1513910177829245
-0.8335184635687061
-0.9312491131603581
-0.652798940879814
0.7636259303341628
0.6531791118878597
-0.7398819353450885
-1.3485579824431995
-3.2710018541927397
-0.7589570351042807
0.12929803913079205
-0.5722206112981143
-2.683931606650252
-2.637902197562264
0.4959344307085411
0.6562596769182397
-0.9415028677350255
0.26007546866137904
1.7085348653623156
0.7205027450799565
-0.9810144527309778
0.8026018197211823
0.4792997931153962
-1.082438245942949
-0.7803828097974975
-0.07492183454641144
1.5135922563697366
-0.20646639733086633
-2.2988348432143964
-0.9270514622571372
-3.628148030166536
1.0853870055360222
-0.3729804843438885
-0.688605531476917
1.2393850690178179
-0.04689368607427067
0.7261111525851579
0.08977494953489774
-0.3507878455249827
-0.3824186981943872
1.0092998525124341
-0.3684018055913196
-0.37906234597343275
1.760762653317331
0.8658220639151325
-2.3725560644824633
-1.414536575438402
1.0865217231442152
0.21606086553808826
-0.8882219253903031
0.8747377513348554
-0.2707526794558583
0.0539383585388846
1.7672750798793284
1.6511449407852459
0.12710102935360168
0.6540337046671524
-1.7770315204784508
2.0568997877471094
-1.298186977895532
0.450598193457361
-0.564567249576661
-0.921795412803286
0.9815790112032095
0.16960620473050372
0.29314540130107186
0.3794380279807913
0.04081131899554604
0.7253950523438402
1.0372674555904284
0.3286407042031278
0.8866967956527927
0.1489869106537402
0.2137406516069453
-0.6313088990436905
2.589428518897122
1.8625096830335583
-0.7135565606299168
-0.5021125914501385
-0.4280437164545186
-0.47844262960592404
-0.6443152254055904
1.2077346644822087
-2.0186197422532293
1.293045980115386
0.36732372007380193
0.4829033190521002
-0.2770172422646358
0.8124546060668891
1.1926509319229108
1.5184329020581546
0.7404268735996062
0.9836657872375769
-0.3102753334147966
-0.9935048939220864
0.38861648999312065
-0.7406038854477236
0.1100725006763429
0.6446302113464877
0.01599131379708873
0.12717098852164105
-0.014170579912416537
0.2762597571617015
-0.7377859128835277
1.1505748286431865
-0.6990827342440545
0.9472434716966767
0.6252770599240661
0.509540974850055
0.7158363445972886
-0.37498084998459963
-0.1833834396110762
1.9945507799020503
-2.480977887532138
-1.713826331278078
0.39951196724047106
-0.7299376986089434
-0.3132395892561491
1.9304854781730088
-1.0262252882141933
-1.1851522348198997
-1.4125445449028307
1.3787437955045057
-0.4265406157250675
-2.9127410511271266
-0.09615349780619023
0.890715925428919
-1.540765817223548
0.8245138029262978
0.10218543156868684
-0.9237660722381451
-2.1658082462941652
-1.825128309456016
-1.4093304156441888
-0.45036211902839357
0.3312681927171197
-1.4666007950305189
0.49580097045000293
-0.10442309247418777
-0.5872428674872352
-0.3472819326609544
0.38553943450366607
-0.33935392580921636
0.639949677271199
-0.34839524883778605
-0.9025571496089975
0.11607423857354722
-0.1094141821071769
-1.0793857222068777
0.9957437061950615
1.1308449862116516
1.417901823208489
2.143017037552349
0.6386363085700737
-2.0465314300171285
-2.2255772214489156
-0.8858203650700374
1.5375226997356415
-0.9253815707580869
0.009652577972539765
-0.23578532921491777
0.7560098028587472
0.21364275688947834
-1.1928390605423993
0.0023856999383314284
0.5973982489140587
-0.6598612534874304
0.5181010429585416
1.0908870041294336
1.3902787143641033
-1.83212136491536
-1.1193873149586475
-0.19256153679932275
-1.1927012402358983
-0.17491964630531256
-0.18620571984762116
-0.5273402851089972
-0.24335362813034433
0.33029082894079254
-1.379805471425155
-0.6905273332138947
-2.2557248043448794
-0.47306222924907354
-0.9779890504043576
-0.777304714249698
-0.9554272471698759
1.9015027933557007
0.49603808039208686
1.3483633679624625
-0.16531485509999175
-0.06036895195211683
0.05411815825960769
0.885803808088937
0.22295917696404877
-1.2862079926851337
-0.5197418920434069
-0.16926318429683432
1.632705421915863
0.07272802721507797
0.30603516583740664
2.4186950389501263
0.11433454872498076
-0.5854511355878281
-0.7262267634591306
0.7169321555980783
0.7063012507499582
1.0043342606749877
0.4121111678178721
-1.495329661741968
-2.02569998027966
1.3884540399732686
-0.9208593332863494
-0.7510171876608142
-1.2900542766390468
-1.0479413374534232
-0.5096069098783244
0.59211958229043
1.575825773996623
0.29713797070436987
1.8921673066501394
0.04183639244782896
-1.5655368341002303
-0.12738564676671102
-1.6888097601432142
0.08830370321049498
-1.521668229268489
-0.869527647836384
0.9140404304141561
0.12833836590895495
-0.5763837113344478
-0.08040689930439887
-1.1952371000450732
-0.19246688773777693
1.8688591718172398
1.0994911319337213
-1.529330285181649
0.030763549441803692
-0.15603807760106558
-0.9897625530577954
-1.154639946982308
0.5376859592609037
-0.08812764805870596
0.8318331482527451
0.8719493125034958
-1.8166605080547948
0.20470736989053984
-2.228136984326144
1.1632561823779408
1.068073914460445
-1.3825364987613744
-0.06723807622618509
-1.901379476068995
-0.7472505893002177
0.6585769790509741
1.8571771232271574
-2.816329544211943
0.12296515772220419
-1.113361800994599
0.5030940189782823
-1.1532432191773085
-0.3290833988265222
-1.2945355458180376
-1.1375451817675872
-1.4406383595145011
2.552885268304079
-0.9156961283216619
0.6162238249516536
-0.79528644783697
-0.6483599014312268
0.4119282759125343
2.1069922694394894
-1.4140832355449595
-0.3074541911026352
-0.42198252073369436
-1.1279844921236346
1.1431722953451717
1.4809985523877578
-3.2969036154095406
-0.7737010064790962
0.8456746579659687
-1.1708848177794668
-0.26050829908731665
-1.0570970467860084
0.3259359407697429
-1.7148935418918676
0.8177732508463768
-1.4511210666648022
0.4078819081399449
-0.5948789829178666
1.144591487396607
-0.5418636472280168
-3.4840352125226977
-1.4382870487169295
0.8347722548774332
-1.0622161451320047
-0.036847571153758356
0.4724466732256809
0.2941419928725336
-0.15868221657020906
0.42422135530394967
-1.5314101854462028
1.1999516665197212
0.2500404699971921
-0.45007305728675107
0.8541724856872965
0.9248580953137396
0.033100978832622266
0.42220174771892577
-0.05924148017552265
0.6553014476256253
-0.15658851392494239
1.2346652009332983
-0.30661337796737104
-0.19598498962006383
1.4989598543970664
-0.5300530178693369
-0.9138712957406951
0.4430144877197399
0.008229137740073581
-1.7035137098236937
-0.612782098465042
-0.21244034477433948
1.4759086004667232
-0.558476628512485
-1.5858916292845264
-0.5789722612161248
-0.4651590389673669
0.36733231084721124
0.4225966481724138
-1.9250730116038284
-0.005012069838972613
-1.008038141858899
-1.1227370237961907
0.07964537822310816
0.7273017524642205
-1.3791288570395643
-0.37612545827739047
1.4726460502865022
0.2061341993650523
-0.83324017039748
-0.879976816234913
-0.24590176390176097
-1.4530208015720036
1.3300408906770065
1.1382335931568524
0.6216030514410279
-0.06440197134786445
0.235856986416208
-1.0569471029158475
-1.920856908333486
1.1881387813365303
-0.11318864885182278
-0.8717857770785635
-1.9404341786545405
-0.532012374007262
1.6738494621839013
0.17215774467290906
-0.5167892936934692
0.44131850108755033
-0.9395986652199814
-0.18971629292495068
-2.5520926522528136
0.3100563869665413
-0.21281860551401802
-1.1463247246012398
1.1220624404783361
0.7213970207449396
1.8306715231539752
-0.06745086618412825
0.49687932195805684
-0.5902576858246948
0.5669134941584467
-0.3870492439206865
1.3217787387045337
-0.8490648549036482
-0.2540712770915159
-1.1218305999931006
1.2812397771008304
0.9021455517353856
-1.0241398965484063
0.005796822149341775
-0.3071208277996921
-1.0555216863117929
-1.7064011776460979
0.48047818565622114
-0.460141144610409
0.6812955145894152
-0.3119846120675098
-0.9976627378881967
-2.1512177882605727
0.8561813807644337
-0.19419106618601042
-2.6018866036926607
0.6250981965362484
0.06880479709922309
1.099100367438578
-1.6119778611137394
-1.948623714216203
1.0889983686011147
-1.086153796052206
1.6592232822532222
0.836870576158396
1.0909569249035305
0.5701018368742814
0.8700541240260615
-0.7278017859469
-0.8404572785514621
-0.43400238090848453
1.389170970164706
-1.8566190087352994
-0.5022228793626023
-1.800865870379883
0.3373438101580172
2.3861492270536693
-0.3722314487306077
1.40127335407384
2.144271179494645
-1.4945699316956016
0.6299433787028139
0.14393583640802007
0.526834840837679
-0.3362699801917311
1.135633530055377
0.1382243372760517
-0.3721734623432781
0.30971185345443303
-0.3092531192638796
0.6602219693614384
1.150454458862129
-1.6704088079825925
-2.358606555545808
-1.9926608380442947
-0.45868884773163127
-1.5778972712326198
-0.5579886781135025
-0.04203017049184151
0.4511028203975197
-0.005762275825648775
-0.905097230641267
-0.6793518337538621
0.020611665725649223
1.1262317773625157
-1.0032839257428958
0.24648769697513068
-1.2610338308529858
-0.3919198267406129
1.5063748297463206
2.0899757298207673
-0.7491010824268627
-0.33389318954569414
-1.6256958482205315
-0.2684592838577459
-0.19895787636433465
0.18019561666704703
-1.2233861874309213
-0.36728417504149746
-0.17054748845950518
1.2412161440437128
-2.5725886447911415
-0.22176946646565568
0.5055192097668195
-0.633866316922077
0.8241068088295991
-0.4321072862584379
0.23695280248337255
0.06501926030676537
-0.4753856881974115
-1.2353966390859505
-1.2792817502185405
1.1960323557671773
-1.0397463012756096
1.648857975599893
1.6892187918117083
-2.2003381185202455
-1.5150994523371974
-0.10353340684453066
0.8067505163441229
-1.3745758090678966
-1.3529064421258883
0.6598596118266838
-1.7755797578797405
-0.4523052641774424
-0.49073956852184675
-1.1246444105686382
-0.9895331269504135
0.09584273246103246
0.27876878940252003
0.02180321938379307
0.7818012304868255
-0.7985948554280828
-0.02218964292807891
-0.07817999713063406
-1.0795637236707871
0.8526724362618555
0.5835287414093661
0.9986141143238664
1.1489427129751049
-1.334280383263299
2.251504058562614
-0.3907740128501545
-0.6939334922091719
-1.9414643390645812
0.01751875298326372
-0.8800161544125057
0.5776875517216851
0.5499173906055544
-0.26984512579090836
-0.3267659493829808
1.8853253821682632
-0.815010866807686
0.6558825659743058
-0.8707354101854523
0.5747364481186571
-1.4491704259577298
-0.3788608455386703
0.3832963123454022
0.33402561823391685
0.854941327597682
0.8022169122657882
0.7102248118392516
-1.8447768324386724
-0.7151945193412816
-1.0847066553386133
0.7171125886513602
0.9612394426744305
2.5297329813004663
1.1371722441668612
1.6399864068807923
-1.0190993560969002
-2.565101602839706
-1.7080640690724973
0.642800516793497
-0.8255666019662747
-1.5540562297079514
1.5256342755253822
-0.43301579078213737
0.5713757664838487
-1.236351011900515
-0.5924552622222908
1.8013628187021362
-1.8766059995362563
0.20844599123085708
0.46880843231776553
-1.023730485273556
0.20871933784056718
-0.10356823995901285
-0.3945803740747407
0.27574792505981544
1.6764822866169973
0.918993429586889
-0.17355887934508832
-0.6600204230966126
0.3217913699377657
1.1571439271895891
-3.4636921402601297
2.392812552504407
-0.745466553503672
0.6625924017515764
-1.430500201275048
-0.8047731190461185
0.3047241008321213
1.6170317031738357
1.033032639258122
-0.24134100916420378
-0.7838029478002526
0.9452842920820108
-0.8116524703148146
1.1609627890279417
-0.9459505684101944
1.1673937288600758
-1.8070072425026635
0.009908461701112448
0.6131181449241176
-0.6953606329330202
2.2179161874416056
0.08272676273038189
-0.4415307852442708
-1.1926985089446207
1.117351666075398
-0.856634162409913
-0.7371642074359546
-0.8248252251548638
1.1009893978655068
0.8153591323106301
-0.7094699044443675
-0.49587470687399693
0.2976528580622754
-0.7854179413482786
-0.23687421904379838
0.15672368967374176
0.4685057041346159
0.28891209536298185
-0.6578028852855342
-0.6266625194810125
1.5143205605439578
-1.280166730354454
1.2609266628187723
-0.9623596419300697
0.44353377572019825
-1.4919091364054544
-0.3364639087820638
-0.3023199443680095
-1.9343236598804998
0.3830151415706807
-0.6599319294368637
0.4017578234355068
-0.2669589521257703
-0.5421395354556792
-0.9990892523588961
2.111054776476376
-2.023592090201483
0.871796891827374
-1.7472001739654202
0.2866668189093743
1.5962464617545942
-1.9289549846358234
2.4268527006458047
-0.39010218261640256
-0.4966637583065018
-0.18051760287242002
-1.6271413554258063
0.49140145623361414
-0.05927247091685509
1.8796124328815251
-0.8231067176090356
0.16691911702958326
2.24835289348562
0.9777761791641619
-0.403358081955046
-0.7781201029020482
1.2053986280810807
-0.5825217943171005
0.5306270214092655
-0.6780056198098425
-0.4419506866311057
-0.2788448761291805
-0.3551836189933998
-0.6759079237921792
1.147212839333968
0.4201725997276062
-1.0831338338982883
1.95673050399225
0.7301796608461802
0.3651019655299104
-1.1550156081660812
1.014359562238538
-0.7778336455549641
-1.4277094793501028
-0.7843477483063982
1.0216168880763978
1.13679960701296
-0.8376349248412539
-0.9196895550330186
-0.6848834310936315
0.7536354958996405
0.6430638480368329
-0.7436305259646022
-1.3688951329968964
-3.2624998540322006
-0.7600850168215708
0.08820161763619244
-0.5899122530059073
-2.665313784410854
-2.6528113515955325
0.49187368865345044
0.7017634822555786
-0.9418683977658211
0.2464713694150038
1.7167729293115583
0.7280889219481304
-1.0003596088552793
0.7466118574083711
0.469009046795093
-1.1069463571403668
-0.7271511767032289
-0.049892788668598656
1.5362405885801185
-0.23870027835267357
-2.313981996657382
-0.8675516025180783
-3.6232141787206444
1.0705869211582903
-0.36871351794211166
-0.6764109126714688
1.2308527528182895
-0.02567641547869784
0.7245468171691909
0.10164936044580454
-0.3015773062015994
-0.38322930272649236
1.006355103369693
-0.3284243038817791
-0.3684912026985824
1.7984460402758318
0.8918985488058548
-2.3634899307636292
-1.4227704560632177
1.086230013908684
0.20247118106443154
-0.9096051741509441
0.9038146500726982
-0.29064392749420986
0.03498217423080704
1.7747335619573548
1.635525226599266
0.12915165980834187
0.6869752650810482
-1.7795216799461602
2.0279507125688876
-1.2987995255318832
0.4309306243669538
-0.5759007148193483
-0.9208601964154061
1.0005056227740974
0.16491242010848903
0.2679683557615026
0.41122737497383155
0.030245303506510442
0.7379298064467531
1.0326576467365152
0.33081872636593834
0.8744908578139607
0.16255958582435193
0.20797440588365265
-0.63794741087425
2.566573781116331
1.8727291972839035
-0.7025638166229999
-0.503060779869969
-0.4254736085798681
-0.47596768830776787
-0.6272971093410769
1.2036990755442336
-2.01818664461138
1.2922856912525231
0.387939353972152
0.4837443024326302
-0.27656070190362403
0.8157475221316118
1.2011362276100983
1.511805256636359
0.7387305838790389
1.0044277806799449
-0.28307433072420213
-0.9873868621041187
0.4086053582477137
-0.7435164866235551
0.12178677207104557
0.6480427407465491
-0.008404150108325377
0.11239458943288845
-0.016277708672564225
0.28011234575163
-0.7296265008265166
1.1510622050443293
-0.7014324693311927
0.953570863074995
0.6500486894664306
0.48298647452442195
0.7275388330477487
-0.37314108442681243
-0.17949001379674961
2.0030815013738277
-2.476352313214566
-1.7274656456498225
0.3909858310437296
-0.7275851894797399
-0.29784381913714303
1.9560507043054647
-1.0216621604656204
-1.185844926758566
-1.4197881501319924
1.3695731245681586
-0.43621068866260787
-2.9055542318287624
-0.08437586354667435
0.8907201185420931
-1.5436613206464864
0.8215708012619246
0.1009938017830715
-0.9072853646013858
-2.1499651776115716
-1.8610651082899627
-1.4064162448690531
-0.45325030756843615
0.3175170185477783
-1.4687216036990662
0.49029044260099114
-0.11468130845465373
-0.6087895802233538
-0.3443479432166916
0.41224697773139024
-0.3372682585086513
0.6185514908981077
-0.34655568374971635
-0.9140751028546893
0.07980194525588442
-0.10991167333759728
-1.090025532712592
0.9940869867642999
1.1278596141478512
1.4161966419515053
2.177625101599283
0.670412472598495
-2.0485723761041514
-2.2094278388491055
-0.8875536768318906
1.5332160148727219
-0.9138771710306758
0.032702395096744316
-0.22440840254025968
0.758628795996084
0.2390946769392
-1.2181173607726095
-0.004429393584825954
0.5901959140949503
-0.6772910154575786
0.4938795898745184
1.0888608138857983
1.389700490944222
-1.8183979317549661
-1.158420846301675
-0.2242928823087009
-1.2027874249015909
-0.17795378249811464
-0.19286261490621232
-0.5294955902539568
-0.25244617177740475
0.3332081620181082
-1.3954390736448947
-0.694844280539771
-2.2862392058687218
-0.4575405045419844
-0.9632802229183143
-0.7485802987771955
-0.9552353620663073
1.9031614585012573
0.5117974692450215
1.3456284859457335
-0.17366550305424366
-0.0603248450317317
0.06222294830132679
0.8898552504043095
0.25346848792345567
-1.25050022838724
-0.532227056475165
-0.1714152837674065
1.6350069043551514
0.06937813223327252
0.30848949632878786
2.4025512541852247
0.09771414004807545
-0.5465692302894368
-0.7128830818360982
0.7206192344498492
0.6928313410358117
1.0113284354209844
0.3885347510706022
-1.4909375015552497
-2.031432147233295
1.4050591836799668
-0.9527358282879157
-0.7600892484634741
-1.2722662615450924
-1.0437672359449273
-0.523906797402338
0.6018174069001092
1.571358147640505
0.2922279124953386
1.9006866014478854
0.030108526955173423
-1.5630440274868924
-0.14237620178923507
-1.6910227255789532
0.07767704780022427
-1.5319751445261163
-0.8965517914270366
0.9383313670042059
0.12276043052726976
-0.6069834083723271
-0.030076114920872355
-1.1762554364593452
-0.1926942691127636
1.9046061582132876
1.1306263624823896
-1.5651562239317178
0.0373196323467225
-0.1602043941589925
-0.9870453019968569
-1.1541627450372585
0.5327225327271037
-0.08611741292648784
0.8287487791204659
0.8970011458538895
-1.7865442436425933
0.16999295305694048
-2.248383556962138
1.15340118529773
1.0644630452062482
-1.3609254975489846
-0.056956926003304716
-1.9214491467200148
-0.7550997762361084
0.6338908580649564
1.8574502318674053
-2.817668295392107
0.13494315453144096
-1.1265791165349168
0.5452789399446021
-1.1700553523495536
-0.3297082834359288
-1.315570443201373
-1.1404420970630824
-1.4363839580363043
2.527058793205646
-0.9260168160597544
0.631170777760334
-0.793612408698734
-0.6306863323307661
0.3732350852146289
2.111771963244647
-1.4239036987600553
-0.2948802015216877
-0.4225447250743716
-1.1282864346249626
1.1591800389969151
1.4555617922349575
-3.2744525502685513
-0.8197412686252777
0.8869475044669797
-1.1708848371488192
-0.24381523962939247
-1.0150473799481239
0.28865989433224903
-1.7333080986484626
0.7641375996821628
-1.4728438457721054
0.3943599055631922
-0.5786715428391264
1.068149221104633
-0.5233796023378879
-3.477397180376819
-1.4404236010536386
0.8288247402005349
-1.0526087330323517
-0.0046270122084375006
0.4778381532696317
0.3082185112190973
-0.16107167887582682
0.46390782843181017
-1.517780821636316
1.2157585120124272
0.2595739338346743
-0.43663448199907834
0.8665921070793701
0.8941173357915552
0.02438460052111983
0.4901122811609173
-0.05911751057711307
0.6970306728413644
-0.11125826883933457
1.2352492833760829
-0.2922918956544761
-0.18642290769816003
1.5126968084568022
-0.5349663034730305
-0.9308623297284204
0.4390501480515828
0.008346941509812262
-1.7431208927617732
-0.5934117649729626
-0.2659134351173864
1.4677856716031954
-0.5418484762990563
-1.5887523014117144
-0.5515157813320648
-0.46808150424523653
0.38806591061117474
0.3734986280708435
-1.9188678192321968
-0.003259765034709425
-1.0086945770887317
-1.1176916162966277
0.08275926839270986
0.7261189730659828
-1.3770091610167685
-0.3765611622093059
1.4781995011984927
0.21801019281592968
-0.9052553470323739
-0.9581496729389141
-0.17709526937063105
-1.5228811878411963
1.4771472641769063
1.1518454750171638
0.6324821582984235
-0.11484577293164779
0.28374144396622253
-1.117312907086378
-1.9947726327642756
1.3493462254645125
-0.2382143323791419
-1.0055228695651972
-2.0633658261709593
-0.611660595363809
1.7255359657762908
0.19296453820704554
-0.5933357442539917
0.443616116620502
-0.8724707514920639
-0.16460901675868542
-2.5923129257535305
0.2697503876152412
-0.2943283081839281
-1.2306323392887168
1.1518604620545665
0.6182123315161431
1.9241547167712112
0.007915745786516949
0.502412060199473
-0.5731129535411131
0.6238154933428984
-0.38279811493697063
1.3802957270082408
-1.0137817206871071
-0.2905076540785
-1.176008812467442
1.22914525543961
0.9905885778560963
-1.070102353186243
-0.05864122244051058
-0.34343649619175587
-1.1907619237965812
-1.8051550010135864
0.4926809076019869
-0.3476516336992279
0.7515748701917121
-0.35951158537475003
-1.046886244532336
-2.184146587612788
0.8605104763846839
-0.18528283674062954
-2.6011579006325163
0.6792797158671541
0.07613802751366844
1.1280728750230078
-1.7660109891766902
-2.0750256085321435
1.2726323638352894
-1.192266735098233
1.67339527415716
0.9367075519709053
1.0806894580544777
0.5613155241569637
0.8599592524695103
-0.721436362375821
-0.8324654492440717
-0.45930464011630784
1.3825381746624679
-1.8805041446836988
-0.49499509853581053
-1.8210761889215972
0.3198067044107071
2.4921136310950707
-0.40365840871558095
1.471166706401309
2.2153926617316455
-1.5622070890726134
0.6388495405268177
0.14416468704700258
0.5703164986320316
-0.2957158467777576
1.181327890999673
0.15361802485584986
-0.35685341897789224
0.2436589686216059
-0.31619686102027383
0.7030528371560217
1.226678664196058
-1.809510879638591
-2.4483265341580425
-2.1317521618061734
-0.47967506048409225
-1.654212201476628
-0.5875800522293306
-0.04662279508588009
0.5119926064130783
-0.0019105738457178827
-0.905184375814327
-0.6738215702601414
0.02630937717049837
1.1096324754345677
-0.9853508961756859
0.25888608509297906
-1.408454923509166
-0.4091548971427623
1.5207357741275467
2.1641166081614003
-0.8453022369223302
-0.27573899556357895
-1.7099076087696745
-0.2526191665077346
-0.22149308949881574
0.24473247984525145
-1.3381167318267813
-0.4165786368581391
-0.16995826778933099
1.3301776411598838
-2.661869877038426
-0.19733716359818815
0.5155894229180792
-0.5900060237792627
0.9518009931170865
-0.5311428973049882
0.2626570615180115
0.04182487361723983
-0.5283579721712652
-1.307887198355013
-1.2942500201021343
1.335254310379502
-1.1478114529818353
1.897703544874476
1.6762555668770225
-2.2900574817302775
-1.5562643258150215
-0.12966434528320173
0.8588566015605444
-1.3855843524266964
-1.4755699275534557
0.6391972293678091
-1.825020875584495
-0.5530349579935239
-0.4809991482395577
-1.3341172164922237
-1.0614311774254177
-0.00958804960888716
0.36492551321247935
0.00800892060091401
0.7981384139045595
-0.9526547057182418
-0.10030525844607989
-0.20952121407690794
-1.241353574744535
0.7858323420169837
0.6305994741529245
1.0751678796665929
1.3050829707408385
-1.5081422699797817
2.3136098972789556
-0.42631568888389226
-0.795944382086891
-2.0970799601347094
-0.0721753617157995
-0.8466916300585198
0.5535095555493318
0.5217025433922098
-0.1482302219324762
-0.28029109390556345
2.010634098552778
-0.8676634542527973
0.6465197370903498
-0.9265254158969164
0.7384442956129242
-1.5432622269838334
-0.428019355913074
0.39576204544323995
0.35164822937772117
0.9633420970201726
0.9255501154492386
0.7607839830856362
-1.8451068683227774
-0.7755856941253624
-1.1937372942949138
0.6780095650636075
1.086505347969645
2.7236717384351135
1.2587762989642264
1.6928805844675003
-1.0423590193798657
-2.710137345042433
-1.7142349890128405
0.7873115814933275
-0.8072229327936739
-1.7218553383057171
1.7594025817318428
-0.4044006790529933
0.5750568629605809
-1.303726805198458
-0.6299737315320879
1.9855364508488786
-2.1063316775727396
0.12799989897029243
0.5794551385414547
-1.1739538092722268
0.4321311232883628
-0.14233082105549313
-0.33827388824393195
0.3157488892647974
1.8836762969402079
1.0026142098489528
-0.04542995382639058
-0.6380783445760398
0.335787665687483
1.2824302638615503
-3.4944458845803403
2.682863566667289
-0.8556699021755924
0.5688856279966227
-1.548664891237826
-0.8732094788690571
0.37864873001369337
1.8069128612033993
0.9586808567853831
-0.3763170173301809
-0.707160065932786
0.8970733105928292
-0.8612716082211325
1.1647173041729773
-0.9941241667783749
1.1311982488877437
-2.0802662695031997
-0.00423156849341764
0.5830989773404777
-0.703268955748781
2.3729304612514777
0.08038168778573539
-0.4188328121098655
-1.4709289821741118
1.2019273821260261
-0.8883434865646761
-0.9525047962071514
-0.92348302122019
1.0506442159260607
0.9207589623867883
-0.7094031277043551
-0.5885501956434381
0.3907754331709266
-0.8357630343196608
-0.30363474303256227
0.16596770237876105
0.41908924926996777
0.2506440319913099
-0.6687646892673056
-0.7063477163160202
1.6417961973035318
-1.3282433312160893
1.3700984857715874
-0.9972345775830296
0.3521335470692576
-1.5852697343202975
-0.3514159236749714
-0.3384261985817307
-1.9466186987628764
0.37229230899513166
-0.556029587671747
0.48137022552481723
-0.2761749125576994
-0.46786528978535025
-1.1191733546880633
2.11836673504474
-2.12783097199434
0.9424532872315009
-2.0028434223061184
0.35608521423618955
1.6692289184175846
-2.0055141092903526
2.592696519842528
-0.5354690305119403
-0.5009435646206957
-0.2098212046103985
-1.7550672465203954
0.5860790337949597
-0.12210670723500222
2.044063212934036
-0.9689673996947131
0.2003816551000693
2.244301444433883
1.1247028391401344
-0.4520752519546564
-0.9415455461965149
1.3785086423669115
-0.49358149544330243
0.5194990631603791
-0.6952374434089674
-0.4280687816661045
-0.3060456507577834
-0.43203391713469746
-0.7348494719925754
1.1802130385144736
0.3159940594773207
-1.1291860980833195
2.0161915236009373
0.7291543071613621
0.3727687200998578
-1.3165341277120521
1.0641423588586743
-0.8182904369589976
-1.6318940110628266
-0.7843749734617917
1.0442582780365248
1.2564963780883334
-0.8629816026209662
-1.0052469051730446
-0.8030234895119389
0.9006646102336503
0.5752517784341218
-0.7569539585872298
-1.4481482121845484
-3.440288426696645
-0.8492417613383715
0.04597578201541324
-0.6663053361187552
-2.819770881483015
-2.884343168588816
0.45332427865480507
0.785259215764016
-0.9599984350442107
0.3432064984325925
1.862432661349689
0.7622771612765286
-1.0533995374595935
0.8692904636963653
0.45251588731644454
-1.2719986794348639
-0.6729876440479575
-0.1282282724385252
1.6279608800870302
-0.23307425276666496
-2.451808137214858
-0.8634218779478964
-3.8049655456148264
1.2830964453022218
-0.4398091908337557
-0.8866539893181852
1.4050816290866337
0.035714297416492416
0.7659307845091391
-0.018384377204212335
-0.34305833710858186
-0.3948846593478876
1.0014479909458884
-0.38986646523091084
-0.47450453738182524
1.8576298025603497
1.0041523398640073
-2.5415140279635766
-1.4311189945412075
1.0901210454580643
0.29545111442531974
-1.0196642302594034
0.9228070420486177
-0.23181454901871495
-0.04156815416626877
1.917034021979084
1.7218522103661527
0.0929359121045896
0.7288273871737558
-1.7611326050097649
2.2289504138536023
-1.3537312792315335
0.5196433001728819
-0.7338571286733573
-0.9212483883431687
1.1186446814825732
0.05105348488201193
0.277697057018854
0.4236823045304842
0.04571389956152982
0.906003085904304
1.0979616511972536
0.398970481773251
0.8554916828132783
0.2365970662783818
0.2861522346503226
-0.6990144698790002
2.562276704757862
1.979092768557694
-0.7085748051979598
-0.510789973995154
-0.391836180926288
-0.5006545128966541
-0.6809214469696876
1.3322284621163576
-2.143709405266941
1.313155403010194
0.3715688216402336
0.6451235300252708
-0.3772205329205671
0.972700644921038
1.172251336419515
1.4785551094280203
0.7201442700083975
1.0889811164476273
-0.21170812318043108
-1.061916216822427
0.38958784508623656
-0.7537788790990633
0.12179267538672003
0.7529858958595973
-0.04813980627706564
0.16248239525800162
-0.047614299842098584
0.2624812018709655
-0.7549170827582481
1.142543022808466
-0.7186903297075861
1.0062661684593606
0.6399954576887139
0.5171988288017149
0.7270775156472679
-0.40115275627029856
-0.16491214284336475
1.9861187789537926
-2.4918768747653193
-1.8574433464441513
0.43340614383271864
-0.7439430712017326
-0.38339121087512895
2.1219298065711203
-1.0571320072329145
-1.226824373467202
-1.4276270934303368
1.4306625512967317
-0.5231980128349828
-3.0286807451237188
-0.060596120838328445
0.8907355985440774
-1.4793903594186244
0.7925005621341626
0.09612171933235085
-0.9952935669444887
-2.219217120246152
-1.9901300796975245
-1.5022657787137255
-0.43564664924548796
0.3933644060114486
-1.50796961982755
0.49503564556461327
-0.10661434083517013
-0.5255378920788101
-0.3579086701612341
0.37113702069333393
-0.33449735840291267
0.7475145101306859
-0.3440261038352641
-1.0791013022677327
0.11868786464816487
-0.11267308264639794
-1.0908145136120135
1.2188368830843817
1.2772055466200956
1.6079209387483755
2.3580320476695413
0.6786551181447784
-2.179861378697019
-2.2576954405678857
-0.9150732848937204
1.6661339077364927
-0.8710546531159141
0.11852118905630186
-0.2657734602718069
0.8091840428542676
0.2657222008439533
-1.1105336471621226
0.04513469719312648
0.5988826000121454
-0.781280433133102
0.4386791772820057
1.074078168347758
1.449931538435726
-1.9906186168732398
-1.2164134524964514
-0.23253008527550292
-1.1980710696282915
-0.19167027964193037
-0.2672664403223638
-0.6013488501823925
-0.22954564508421094
0.2557089489480509
-1.544521432982385
-0.7321428845722985
-2.396709297253462
-0.542290694530598
-1.0300499957473874
-0.8382351508983718
-0.9765351606361385
1.9126097375845539
0.48432347040612583
1.491247074906973
-0.1776863918640192
-0.060452926032118874
0.23436048840397997
0.9359809860351064
0.12527921580285423
-1.4287551582291773
-0.5576661412811751
-0.17972303242450743
1.6170517283096038
0.09151360167179681
0.42550762787969654
2.5049692594675417
0.14554576127752625
-0.7200349435928124
-0.7902025606697755
0.7232018347343614
0.7064494781419327
1.046194990841423
0.4643427088776289
-1.505123242999012
-2.204269836439267
1.3292806888691833
-0.9144873537876143
-0.8429138416111397
-1.2417233698914336
-1.1341456990253176
-0.7252219115211622
0.6821673898481639
1.5491774481072844
0.3800540003917071
1.972272179654803
-0.021062871278229974
-1.6697264911614493
-0.21698153747072016
-1.9204263321694366
0.11200756739855412
-1.8004913737998034
-0.935031483979478
1.0332712544506537
0.1963674475150143
-0.5398714081863966
-0.0859184455915243
-1.2624797884832029
-0.21029906110524813
