-1.7681168008174188
0.13860164515203025
-0.22445488562454777
-0.8659180429007672
-0.03647715004945525
2.5533463499942055
0.33463467796609553
-1.8126188481211725
-1.4722928662024055
-1.939348700161827
1.2815286835690658
0.6762952500414434
0.4655449973365769
-0.19527557919465754
0.6985177115353065
0.3431801592913697
-1.4954763154097463
-2.2782317821050158
-1.2316165938892278
0.8851099469430002
1.076976741147048
-0.5279417622371766
-1.189676317013027
-2.209734970836421
0.6787959475542419
-0.14405674813122835
1.0534946998723536
0.33688753765755586
0.4097220352499145
-1.24238028071373
2.8746009231005187
-1.602763109534041
-0.9195792357084418
0.41205824444995837
-0.08998440940832483
-1.2832024154970927
1.3436408027244258
-2.5524131188235826
0.6924680576540816
-3.2919097806656747
-0.009115157338208538
2.030970266716391
-1.325168337580967
-3.4278836842959155
0.20813216453427472
0.563759182652541
-1.1458977586596637
-0.4882269957917421
-1.0302743741485063
0.9892971926605906
0.13714121170115703
-0.24263543045565011
0.05052992420963458
0.5140023321242625
-0.8538695642203961
1.362907217336224
-0.6414296364751624
0.10866501530643174
-0.21288976007914334
-1.5392190076870786
1.8016109530446098
-0.13239877838609915
-1.1240199134273405
0.5698644588109963
-0.22551436554583934
-0.3657329860875832
-1.3888371117732112
-0.6004446621231779
0.4943393170206863
2.372553274243586
1.7222137846827215
0.7255847091760763
0.910419081065631
1.2731271383296
-2.055198594722282
2.722746600487783
0.6853770398321753
-1.5877262457775259
-0.8581626890908655
-0.9687844509106007
-1.9214686732163617
1.0858410628172006
2.188086090971797
-0.6295983573123514
0.8355344283473484
0.09105639075739874
-2.9761327481697197
0.7413681411650329
0.7880108737400315
1.0611909140595506
0.8630350970543904
-1.007571491414923
-3.0797479099891816
0.10329064760118413
0.6001268983011435
0.4656760387768787
0.004718173416546044
-0.9117348935721133
-0.7627861068043486
0.49054340300108107
1.279899714811866
0.26423382899105613
-0.7822349778031309
0.28070959938757345
0.5867439935574544
-1.7480200734009101
2.6994379551139627
-1.80596821433948
-0.9816638348936529
-1.1895873314701217
-0.8895667562139888
0.3305719902893248
0.7132626439423243
-0.5718306892953122
2.5001349913415525
1.1266390886925313
-1.2920292541158807
-0.8141375034128617
-1.1510444462005265
0.9640963525804322
-1.5129209772437957
-1.7488315253149607
-0.07471783613943077
-0.3845955966244797
-0.38484598082905885
-0.02650829821437703
-2.5241608424368804
0.3154183777999704
-0.35409877611941554
-1.5686345975863552
0.09070286726332115
0.0445451549874459
1.128237344986111
-1.1430150738502476
-0.28420751717595416
-0.2943302242683771
-1.3806796375144912
1.703222860874298
0.1344976121024584
-1.05812971699798
-0.5497618373166088
-1.1055287887033471
-1.8559369425284342
-2.0453873198096884
2.4434169350527104
1.7637484232891931
-1.5913562406378714
0.854136029165495
2.18868778618766
1.0077648450838648
-0.045774326523070015
-0.052173926867847144
0.5827356722688914
-1.8963138707377756
-2.9209598130474936
-0.3459003938693868
-0.25057210713241873
0.2581938833671718
1.9247997036979325
0.317255832390697
-0.17173763527631794
1.8649792486871348
-0.5158008517253077
1.0020561965170334
1.2399329341165746
2.9541557972266044
-1.3011762288829547
0.9071143175792667
0.9939705197645397
0.6169460673010931
-3.110876003876
-0.36783358495872803
-1.6870235129083226
-0.29378638106665855
-0.03682909245139865
-0.9880446140525309
0.6335780403492008
-1.3741717957506028
-1.7082993123847539
1.5793074319909135
0.0913844446204184
-0.03916894456982157
0.0713367304826086
0.19969770769920053
-1.8086188126739506
-1.4587619473079447
-0.019002302402861965
-0.5706398456017332
-1.8281537540586321
0.11614681533842247
-2.45773222567086
-0.6581639456931093
-1.1196442904583428
-1.8251167131112846
-0.8336270134994735
-0.07173051335041487
0.2636813184869661
1.4588052143719075
-0.02410115062158562
-0.19929353619601836
0.5687445315451037
0.14299484003824084
-0.9974304690369789
-1.5132092121114313
-0.7896749722241665
-1.650614695175
-0.12169311274570747
-0.5162140052487185
-0.2770257091777748
0.6217053161938555
-1.4381800248518486
-0.01853731291611118
-0.3990477013131062
-0.943265193355481
4.282267360583787
1.130923310724917
0.14553351770345396
2.5715951566583874
0.5759808659089283
-1.0012027850631697
-0.356366528975253
-1.3181639732184474
1.8154167492920945
0.7622229742583261
1.5670913782575464
0.19475453253734643
-0.02008702392938888
-0.578841045441493
-0.46628694713441216
-2.531736605292022
1.0699362793564033
-0.20283032151490818
1.1576539476067842
1.9067611323864997
2.4430450812074223
0.5720955211453388
0.4759409414939037
-0.41561828769764686
1.383375362417728
-1.83457986927058
0.4206891094735291
-1.8431025834494403
-0.30680920330568456
-2.0233638557830416
-0.3589740732483083
-1.370106257582305
-0.7444487338508667
-1.0221067079049295
0.012313856888308482
0.7117048057238711
0.32435530556718584
1.4916953349758528
-0.6821288028206952
-1.8361355577567762
-2.6809941914360493
0.9420393005791585
1.6170781667379421
-1.5383101298511876
1.6745065313172942
-0.7688137512680107
-0.12078380345310198
-1.6259530563269595
-0.3580969904389939
0.6446141742458085
1.2364658725723976
-2.8089240106035214
-1.1695417990580634
-0.08651367237724726
1.4408996709642286
-0.32309152213731135
0.3348603680074398
0.6377084756094985
-1.789074328807977
0.49986349304741573
-2.395191095348152
1.3625057812174275
-0.8279088028020755
0.880931117710936
-1.0977056763880257
-0.8758328244544786
0.5716854264649538
2.640794077060102
-3.1021836871853568
-0.7703124649683817
-1.086746543881852
0.013490508006067502
-2.3158244525838825
-0.5679770488637834
0.5664642581540419
1.3869698166721383
-1.4808330468696322
-0.9252314685922992
-2.621179842473207
-1.483070989503394
-1.101417827233201
0.30944408488534697
1.0697226933893578
-0.11700711609883735
-0.8079640505499996
-0.14752627180446684
0.7805064961534379
0.5079929857623382
2.0192101744588378
0.8752977410058266
1.3120381751353514
1.6816282495892343
0.637658684589318
-1.534931805816692
-3.370257010799727
-0.14029960873520553
0.46633589094680145
-0.19133695433411443
0.13948817623449666
-2.163576799862637
-3.194630976969901
-0.6970698030478066
-0.6548275971291085
1.8962617917092202
1.3433232735114031
-0.6966542503311007
-2.0129903412770345
-0.12785716681156706
-2.0042002309438507
-1.5235260664957815
-1.0481086497980134
-1.3897913426152295
-2.4439156087676723
-0.4511376775471478
-1.045653131419137
-2.6059009423952704
-2.0923782184582977
-0.20382182815802904
-0.23975746076154372
-0.8775624071619933
-0.07171816973281135
2.3264780795175417
0.40776479129842524
-1.841553295412728
-1.6354725890009874
-2.043779192391559
1.8740905854400753
0.7537372768553454
0.417454667080698
-0.026048968455504768
1.1598695013945501
0.40268363787091394
-1.9598882357466092
-2.3734200050656047
-1.4595836719811761
0.9025959105009583
0.9158134500746321
-0.8064251505525218
-1.5335189207518833
-2.6668118804409255
0.6780113245800935
-0.33581692929333823
0.9160116984880737
0.39812782518059026
0.38103290038308996
-0.9301610627626913
3.527052611258473
-1.5690699757007935
-1.0935666720458492
0.8195151383343611
-0.14161517417424946
-1.267786119595652
1.6020365243627386
-2.6283666968123955
0.7521322155252034
-3.6730904628596353
-0.013592049135253538
2.1572426940157596
-1.5371863786327984
-4.0128543414159985
0.24243822456527497
0.5752238885272082
-1.5157770007504836
-0.5054353888427223
-1.053479155208007
0.973211059583295
0.4545669296958188
-0.2466002605940351
-0.12866492775181598
0.4489645760897522
-1.3861884300752683
1.4687644578108157
-0.6437037326046375
0.21202039857786226
-0.24602749293274326
-1.646804826992773
1.8101262156409963
0.26267768487683707
-1.4063357704302175
0.7999292394359312
0.08026652763981262
-0.5728548734691796
-1.8684214351429875
-0.9746095763280017
0.5203619290779761
2.6559990988093514
1.5679222841047877
1.001045723254492
1.040694631101519
1.306352077726717
-2.4817799785699135
3.4308255365061076
0.6892287191103056
-1.7322737232036411
-0.9607958518966253
-0.9677145036275623
-2.6784969549738515
1.546179945003143
2.774794297324659
-0.48635128403270983
1.1070006932713654
0.11279341113234723
-3.8643708673950803
0.85062735403621
0.7741433331094647
0.9146391917482836
0.9396635631868921
-1.1936680504681183
-3.5692180436753196
-0.028609841340323062
0.7660115978211517
0.587894156977002
-0.11802194121134127
-1.59802232803863
-0.8392926203162471
0.3122328494246067
0.913011485090404
0.19599872632743498
-0.7076769171807088
0.3273074258198448
0.4461948443064569
-1.9642704697108302
3.2892034783538633
-2.3379771263071505
-1.216701348160748
-1.3531709859466075
-1.0509671802617404
0.5335739763195909
0.886680374928603
-0.5981423218128186
3.1679247370967842
1.4876569985206722
-1.8385817570099465
-1.0621979052350656
-1.1659336119245165
1.1696649248939366
-1.5495249368066706
-1.540954296619251
0.055803700565022187
-0.5025430405202626
-0.42567672926596034
-0.22885855666777577
-2.7852289022759473
0.3383765719644892
-0.3974067108827447
-1.8942301511846324
-0.09249850455142355
-0.21400777402651527
1.3981548151277958
-1.7884241374382208
-0.365086166164251
-0.5314893212382217
-1.7928645083038282
1.8856569468741315
0.15918482835784784
-0.8287093177160094
-0.5525250839496038
-1.3732918617247032
-2.145836750272231
-1.9822874035705749
2.95017480814867
2.3942739722280564
-1.4773370141867226
1.2730156548762452
2.66336371008925
1.2327722454774181
-0.0626501058930605
-0.21765352237694333
0.5793484350497905
-2.7397529501816336
-3.2407160622851174
-0.4691165633731537
-0.48019817026207945
0.14626014572659055
1.788454103822529
0.12267039168009428
0.0415476920124388
2.9222386156855853
-0.8292499608099839
0.718888767069386
0.970341162295015
4.040528224711352
-1.1691046383671528
0.49728289767507683
0.9621191615945115
1.021435379245583
-3.307681793113538
-0.27335817658596434
-1.691614689379919
-0.7663657933982764
-0.11101211531521665
-1.1004141842329775
0.8931335841484003
-1.6538667833676757
-2.438720060142485
2.144438589096375
-0.06721559618858224
-0.06238222000233783
-0.03219770309543784
0.8201110223403241
-1.7767966282657022
-1.547475688201236
-0.013646797718754407
-0.6201669801466979
-2.2353088951081412
0.9225414453300558
-3.1229304574455736
-0.45670724557732295
-1.160643135818444
-2.044678924713526
-0.8825992965481076
-0.20981860010096878
0.42220236128138344
1.654535269378959
-0.2544639518327039
-0.2894102827498875
0.5287396702579915
0.16929621705615874
-0.971153480920779
-2.1547867240275997
-0.7506633536398903
-1.8885876317651538
-0.19930904601009233
-0.3996320539021686
-0.30029662368187277
0.8944880748732866
-1.8677703680844349
-0.5683839501895963
-0.6635231434930349
-0.7366016938994222
5.204998098720703
1.520479125688588
0.14601380702555997
2.7908755659311946
0.48120098342715983
-0.904401083913372
-0.4810591004217093
-1.340346311885621
2.3796717427325027
0.7509323213652493
1.787931230783337
-0.08738404519464085
-0.06140624416877538
-0.7323951595159012
-0.6100062753171225
-3.11043437648363
1.0619010721708508
-0.08261201973766391
1.1799777515319467
2.290139590875079
2.4763503847103965
0.8249589356014309
0.5905593068428876
-0.5121852950437361
1.5926339848615025
-2.1899402500379606
0.37690167454308815
-2.281413800652583
-0.23106869555676962
-2.296740042429235
0.03310841799788611
-1.923291041644293
-0.9197882884358801
-1.4438854889309767
0.021701579402400056
0.9346912080980843
0.9312826002852086
1.2698122638425795
-0.5874915014396425
-2.469149350975724
-3.4291353176843025
1.0209499304510548
1.5509201605552867
-2.2611340518588694
1.5479664824779475
-0.931107400846472
-0.40412005976347315
-1.983650115756456
-0.6312227383682257
0.9147183008905657
1.113586404747258
-3.560760694857919
-1.3465156080916556
-0.04271157951769192
1.3486321161638606
-0.5083666200005007
0.66210568081718
0.8193461902388126
-1.6404106993952077
1.1922690781150762
-2.704951966468359
1.5692895826610453
-0.7599061792712493
1.0786752361798049
-1.719624624988309
-1.5738975751978674
0.5275514187975845
3.2630172092575163
-2.9993910421983125
-0.6494347550457891
-0.8767094677079883
-0.09866307702054626
-2.440225753352481
-1.1082624030789816
0.24487221765819167
1.37275298667639
-1.5253388575881153
-1.0423162694405703
-2.9733513611337132
-1.593184962501762
-0.9821129915755117
0.1620129568591849
0.8470852000581847
-0.09435881261783366
-1.2746788323147464
-0.27613303863418537
0.7471581300090766
0.3438346313426084
2.301244016291634
1.398658866989311
1.5054878867316872
2.3243768669094336
0.6866997544269063
-1.842670458110437
-4.273378282218552
-0.17213355146923712
0.48354397688524114
-0.4670291048032975
0.13649669604656772
-2.532154315351365
-3.5720206042984293
-1.0956996590533157
-0.6931382676920151
2.3703853024800567
1.7779623854730888
-0.8271670890152768
-2.030360313674595
-0.11110057658486869
-2.379328113940056
-1.7018113726425546
-1.2970650205980558
-1.6775846437087638
-2.5824374317730454
-0.588102550222539
-1.2234992767309436
-2.7351948333962746
-2.0993575741800967
-0.22337009468274235
-0.2344241322573155
-0.8770901624051239
-0.025495478481841437
2.3635565614927465
0.4499599814495173
-1.8421563401032512
-1.6413822494603936
-2.041999344902953
1.782510017711155
0.7165681339541518
0.4241842781870286
0.06470266113993536
1.1181294730847504
0.43266330006630477
-1.9721622956228149
-2.418019478666892
-1.371846700393576
0.9158128647252977
0.9670291724190211
-0.8153300338466357
-1.5493743214658335
-2.615625488326323
0.6759331556777273
-0.36987619666058313
0.9615510238044639
0.35721114204074306
0.3881665970778474
-1.0510788030723663
3.5587503514141665
-1.5814196083639358
-1.0767619182206862
0.886998172001531
-0.14477487660834978
-1.2712074408555507
1.6609072073115652
-2.5612773885301467
0.8128258706269981
-3.716057181701721
-0.030925536344894748
2.045687183544144
-1.5001415148749402
-4.001884777714713
0.2766331758318755
0.5850366635865294
-1.5619158461469533
-0.5565533853552697
-1.024471578925589
0.9050356356106007
0.35641547207805335
-0.21693845846400653
-0.0797065767674704
0.3870011445901233
-1.2863564549052604
1.447793977763892
-0.6495373287354432
0.2962853648219226
-0.2231884253170324
-1.634881946101828
1.813488418202081
0.32934623488739784
-1.3616082300672885
0.8834670876749332
0.08859504936626614
-0.5125749943566181
-1.923396802931991
-1.008459715604996
0.5302190040552354
2.6962356896408397
1.5227655975001868
0.9913244601739509
1.2164038057206081
1.1563102971250336
-2.4267796113138305
3.4753651814495923
0.7261671984000955
-1.8096051609419108
-0.8947222981865762
-1.1010069224862225
-2.7566421935788075
1.6501945513391572
2.67978491940476
-0.4289412649597536
1.180293407625887
0.06642837690681794
-3.906520300844269
0.9615360977631576
0.7772820900816367
1.0099014996527802
0.8909092926310557
-1.1839763989645515
-3.6192916344559913
-0.15096734776053003
0.7433211752490754
0.5085366085610898
-0.12902016996092222
-1.9168841573406716
-0.8423573883699972
0.29229752533225734
0.9061279657902731
0.21038804206530787
-0.9065489660989929
0.34899489676321555
0.38635789030955203
-1.9995537011038862
3.4745428922405055
-2.566700863157281
-1.19363399538188
-1.4199289019950017
-1.0748412577308333
0.4032040236068554
0.8691439988697883
-0.46531630951272956
3.327140772366407
1.610588643656451
-1.6559240932605377
-1.0598681264877636
-1.0918642977960733
1.2115853392198166
-1.5548430048345545
-1.5116624611142748
0.12731345388418658
-0.514140547689731
-0.4276524530530934
-0.3973239442263736
-2.7922603707357134
0.26404267034885254
-0.5492060926578377
-1.8669744974013567
-0.08373080693048142
-0.2113516925862125
1.3317221241450141
-1.8280293616528456
-0.32564705888085105
-0.5109497811152502
-1.8222005511585504
1.828882305704919
0.11242777108124304
-0.7821588205127245
-0.5500385376745162
-1.3618145472659828
-2.2419578696677505
-2.0359445799692675
2.9792005034900297
2.4037319517659017
-1.4126853928520837
1.3271912743908227
2.719553997494327
1.3686372354877867
-0.021909669994399285
-0.5286045846849483
0.5791831976412646
-2.847464547720109
-3.256614555839181
-0.4268745095573914
-0.4819629025190995
0.2696559306090329
1.7096401983425717
0.11914472293367899
0.07285654403706299
3.063392067648766
-0.8782997196392671
0.6422797031991572
0.9278554693860624
4.087467039908711
-1.1681712604878265
0.44081533617194674
1.110650477217777
1.1396292394948186
-3.273063504770352
-0.23110725183702754
-1.7096892417965137
-0.7872788560983088
-0.008060606165656764
-1.1899317439176524
1.0770975174315938
-1.8193677851146248
-2.3607833123051067
2.2277118540946215
-0.10828641556619822
-0.21533633167648122
-0.09324323919928333
1.0233985912409944
-1.805881092289022
-1.6474211765461886
0.1516099286854091
-0.7824454552663466
-2.3144140052957787
0.9333257931367086
-3.2704872589289193
-0.5426603593405643
-1.1831025355601221
-1.967577456507003
-0.9127542082492762
-0.21789312493726268
0.452629819276402
1.5772048359348287
-0.32903661916630333
-0.28307225794074387
0.43463618510233626
0.12215577485446862
-1.08197083280583
-2.0545566300380487
-0.7700840012312725
-1.8573548082471585
-0.23146177178442867
-0.40639503254451953
-0.2593640926032334
0.9283473744319987
-1.9360647577518528
-0.8005231008954508
-0.6155752996286056
-0.7744092538346482
5.208603796017727
1.6866264956058603
0.14401426039758095
2.6592494884979136
0.4252132928970999
-0.933534752573841
-0.4834406364360039
-1.4088690857165804
2.4434922128689194
0.7452561141828202
1.8107141346788431
0.03898298271604354
-0.10723119037569971
-0.694443488837687
-0.61067163999815
-2.9776094517778353
1.1965370894599736
-0.17388766281495321
1.1027646947444858
2.2322491144996994
2.467820843735857
0.8673846528027395
0.5941224090928193
-0.45591564071519725
1.4688174781389585
-2.2392706458838267
0.2259224911520495
-2.3466686698404415
-0.15626134692081986
-2.3053301653299396
3.0605577872589167E-4
-1.9333143408026827
-1.021370723268981
-1.5224649951643623
0.021854071298399357
0.9953210822321653
0.9057918146446098
1.337451846607343
-0.5838695612414807
-2.558194367742095
-3.4608732237090893
1.118101140181034
1.5641309682026123
-2.3109902762680425
1.6163679372811164
-0.9386670603416647
-0.2925743057663794
-1.919753622013502
-0.74937531537637
0.8950964164047467
1.1182154374980864
-3.6541194430211106
-1.3788972530601808
0.04047711290926333
1.3139793630405894
-0.44742254683382865
0.7174133960011724
0.7144484013433193
-1.580540102937164
1.2804853446371502
-2.8190853066447854
1.4459937352896528
-0.6620956869230918
1.080065433228458
-1.8154941749825422
-1.527101080861825
0.5332573491743993
3.321142446337884
-3.202920353564161
-0.7442499977048357
-0.9096036729940495
-0.24632246162157337
-2.468650110988747
-1.2135448897387802
0.222887812136455
1.1759987133858292
-1.47301436836143
-0.9937546729067149
-3.05607921757635
-1.5645472176498294
-0.9652648623266259
0.3392836579387145
0.8950446463947962
-0.19073802832530093
-1.383947069796059
-0.27243134377612743
0.7213745062705108
0.36357360952882645
2.249284496011522
1.4533084781642436
1.4968739552711305
2.3275501287584293
0.6557205102369521
-1.8688634596791653
-4.335619664986586
-0.06107660228776381
0.3608318198945592
-0.5194630450044685
0.13637029759568758
-2.6087093283936027
-3.5553461128393993
-1.2242459188858703
-0.6682580266601531
2.3336823975591106
1.830301206908059
-0.8127365639671271
-2.0265120881177334
-0.11314281258835801
-2.4128786737887196
-1.7205464546436673
-1.3009705655535964
-1.755705710456246
-2.59046613686462
-0.5555279279592734
-1.229333874148839
-2.6803262744285727
-2.1067204296263493
-0.20582941480163203
-0.23593522770069952
-0.882000764826909
-0.028700925109458025
2.3980973031286967
0.4341060810852088
-1.8596826047965425
-1.6240395428111325
-2.0451642023533663
1.6676813972467182
0.697066871986302
0.43552717035525274
0.08567499290181577
1.1284981022102676
0.42817045919131186
-1.9208563900009143
-2.420466240939167
-1.3168930822481506
0.934137153463206
1.006610130760302
-0.7784771220063166
-1.551892763084306
-2.549397187033496
0.6743765818555795
-0.3905815614278071
0.9868641057572585
0.3258968901827714
0.3931424299615514
-1.1816434119424024
3.5734973698607204
-1.592058811143485
-1.0578895587918415
0.8911003249077789
-0.14577506875813637
-1.2726511316056166
1.6634474480893413
-2.535875275180923
0.803470164743806
-3.7751770675207803
-0.05163399660556873
1.9664838277881858
-1.4970539790286093
-3.9605735719069903
0.27495321407384016
0.5897996389155747
-1.5352236812947135
-0.5939373074178032
-1.017976245043978
0.8802837907439176
0.36461940206948323
-0.2044371049387775
-0.02884555222969921
0.33519318062397646
-1.2419572422979965
1.4201695897556923
-0.6507196569050693
0.3080587353068513
-0.15960068532195273
-1.6206421389684662
1.8170097056413326
0.2916016502787878
-1.358180620193347
0.9119719307819308
0.10810786490717085
-0.46387729244213777
-1.913105444451005
-0.9985077212631273
0.4740601963534745
2.7097936867905026
1.5518417087940874
0.9329259095957172
1.2680301230258921
1.1479287502706794
-2.449184905923632
3.4910123185686928
0.7485408658987165
-1.8181451731695095
-0.8514229188695004
-1.1408696409740833
-2.7258864134489817
1.6434741905019163
2.632674644333888
-0.4069957524717642
1.1431797784353175
0.04387976556942925
-3.8677597834051993
1.0482633719718855
0.7945525489455243
1.0831341548274358
0.859322296902249
-1.1274413094036502
-3.6061878519346884
-0.21809667272221162
0.7505211956772424
0.35830591776011933
-0.12443998540603105
-2.0556150091831284
-0.8358901345639207
0.28268522464744583
0.9564962886577076
0.263637630241375
-0.9827173612660991
0.41351485616781425
0.35192054921887855
-2.009981859496288
3.562376725563774
-2.618045400629
-1.1695104034527597
-1.4612292226389023
-1.126435071413117
0.3459721005741439
0.8212200622507486
-0.37895587896309735
3.424588447521913
1.5791884713089495
-1.516692743998194
-1.0289158614045066
-1.118997172212755
1.2028565347269429
-1.5558162915498337
-1.5734291597385115
0.14695353042695142
-0.506271369091561
-0.478174332084863
-0.40168508390159574
-2.8060754746400596
0.25228067973660057
-0.5964739008284852
-1.80242492925155
-0.034791223731133795
-0.1780021078367026
1.3079128690865365
-1.769426715973132
-0.21826918761766256
-0.45333935539806397
-1.8203720354018351
1.8191331762300864
0.009413868664653886
-0.7674432205352559
-0.5449573908008173
-1.3635687470157063
-2.321917633604905
-2.13569580235234
2.902499518243382
2.3264436517099156
-1.3999442314502792
1.3651556383156038
2.75959959590514
1.4277811379777017
-0.014569332569751911
-0.7364999158598162
0.5767039185210602
-2.837074418841378
-3.2645488249426355
-0.401818486887857
-0.4422695692082665
0.3058360650641325
1.7411990294772115
0.13633299180504596
0.12926707198089885
3.0546344021456235
-0.9097522882666197
0.6019063553977839
0.8986907901353912
4.040062906774172
-1.2634119927524572
0.41901103726892336
1.376615094016346
1.09448333896071
-3.215405791556866
-0.24960789686869808
-1.731448431618703
-0.7734117308240447
0.08284749023032682
-1.219780884587774
1.2269553081337874
-1.8973342685154007
-2.3992753457232237
2.2228504466606935
-0.16027021437879563
-0.3110747362160584
-0.11741127277207251
1.120509839088347
-1.8085332830374101
-1.683769496170435
0.24516657885562573
-0.8756619504730822
-2.347886635136617
0.8707429034036106
-3.36975385303708
-0.6105826645368794
-1.1767125702338694
-1.978222700089829
-0.9056946520456443
-0.20462122641913902
0.4024616711347817
1.4764043517986556
-0.33775963124109903
-0.22395806505064625
0.3567125098757184
0.14662683171250293
-1.109470312437519
-2.0305399963147943
-0.781123345611952
-1.8626155143073246
-0.21636167420465532
-0.40160062929193086
-0.2025554437365506
0.9106468301914319
-1.9853908125424424
-0.8295602057366857
-0.587026280991156
-0.8490855151951174
5.201020680323687
1.7106483629072216
0.1429683818766112
2.6075954235175742
0.4600882906511097
-0.960414382401896
-0.469341104694106
-1.5617456873141868
2.4476755170512465
0.737921183353684
1.7830767938901964
0.07836022451960048
-0.13693682172516566
-0.6837345538452025
-0.6416946103468034
-2.913490658316105
1.2278286288028113
-0.1662878621122755
1.093275660684794
2.198502113223885
2.506705747944862
0.8837203075606976
0.5909781543504528
-0.415661335064617
1.3957856535027635
-2.2652948540198197
0.18909087066961167
-2.400886266131005
-0.12113458533033009
-2.339500632088233
-0.037127755042343225
-1.9177933566737042
-1.0418107973881119
-1.5081849852608271
0.02190298362619268
0.9724131139630344
0.9116431774132854
1.383205106824068
-0.6448192924335941
-2.5638933830687844
-3.408223133479447
1.1306903563068367
1.590697750597141
-2.275767028996091
1.6951721444768573
-0.9350701475653843
-0.20533642808895394
-1.9400464702769764
-0.8626617645763471
0.8715445240542726
1.168702895575515
-3.685376940606514
-1.4351160880215994
0.06325747455362071
1.326737812445484
-0.3653110929515114
0.7192917141549858
0.6765932172569689
-1.6565376597642036
1.321108673654378
-2.9304788341929435
1.425244520967587
-0.5759654965326533
1.1304164576554177
-1.8308576125150604
-1.50216278581195
0.5390661500841051
3.308118193909686
-3.317030804268894
-0.7927684771809125
-0.9815679372101443
-0.3474495552677742
-2.4698888049433734
-1.2205350948606923
0.21621885431292348
1.1020930809592875
-1.430513283356663
-0.9797763739669969
-3.097513124035607
-1.5757964327195215
-1.0230338985365393
0.40010299889183754
0.874921809265164
-0.20116367325728057
-1.372820058341995
-0.2906197184593839
0.7046134546251391
0.36310807100938297
2.2776666930194565
1.5045329574794555
1.4771168609724645
2.3682053933829557
0.5825529082172234
-1.8809870968090359
-4.316047921078169
-0.059211181019610315
0.2636220513286228
-0.4523149322883637
0.13561192310463357
-2.667536290810458
-3.4915626937656996
-1.2163653471869507
-0.6556031767699695
2.3355472181034473
1.8283045837575336
-0.8325438500676796
-2.031496012417621
-0.11448558257836466
-2.402671098381731
-1.7304208974531567
-1.267545453778011
-1.7956766053105264
-2.5767965263004995
-0.5483809736125032
-1.2233003951044819
-2.6649898560862653
-2.097731642222647
-0.14135806305272142
-0.22473273445823927
-0.8812477890240619
-0.05288509416109317
2.3970890405171126
0.4445388325179246
-1.8795849742830752
-1.6023634960453161
-2.022836607120697
1.6318316465816372
0.6744105108112736
0.4462675728215219
0.08399263480055429
1.1696478370706644
0.4207688859140136
-1.8947573513071143
-2.430429774237001
-1.3109161308395374
0.9253677961780074
1.034014602289386
-0.7554502539687632
-1.5595312391200677
-2.51122354241892
0.6740457807094472
-0.3730276084088476
1.0057999919493756
0.3067354160119988
0.4064757392920292
-1.2588337753029764
3.568607819271198
-1.5961362736060423
-1.0662333293022124
0.8876415811494489
-0.1413466861213879
-1.263391818520474
1.6635445804147286
-2.522650424213393
0.8003532072124797
-3.8607532525435793
-0.05727592187742299
1.9309668523594319
-1.4769545263669588
-3.9275603649929542
0.27078798526179854
0.5961865865441967
-1.4966306685534878
-0.5881980942547187
-1.0351801783426917
0.8904650303157431
0.3670662124232839
-0.199396968779275
0.012923825105853083
0.3243251060212866
-1.2217009195274224
1.3725511843593168
-0.6582901307097262
0.2777557800835696
-0.08609537753447281
-1.6009150407819568
1.8276044186845049
0.2622680224699346
-1.3514526371919338
0.9219974158555224
0.13081394291908613
-0.39008464562601536
-1.9189832187240499
-0.993203579619977
0.44545834041945415
2.643264694680385
1.5787630202708007
0.9112865327618533
1.300092153122426
1.1214097111331371
-2.4773728351764404
3.495001022412891
0.7296482805949989
-1.8450054188959555
-0.8337503579100416
-1.1342524825792109
-2.7052803471104894
1.634806132487702
2.5982021049929647
-0.38058558660482394
1.1161111074092513
-0.007219057219119338
-3.816773121320636
1.1401045857044023
0.8059662254186271
1.1142615824107327
0.8349730217635083
-1.0872118040773755
-3.596377102347247
-0.24635674434910199
0.7547920456487336
0.2254725463288133
-0.1301536231546069
-2.092073969996211
-0.8493881428698304
0.2792281979239384
0.9829855604892463
0.3337164655132969
-1.0266701427734461
0.4493448425977429
0.34700756461049015
-2.056972410696474
3.6369410796241093
-2.594292090679903
-1.153987915810572
-1.4668504840898176
-1.106948093392585
0.35698298825288227
0.7274019964462313
-0.3414859859762812
3.5007802189008648
1.5160352067466978
-1.4772712308678926
-1.052480261859266
-1.165231171731607
1.178467600972131
-1.5450569019959657
-1.5992925526605368
0.17199038831424762
-0.47392451687656006
-0.5214131523715462
-0.3846328914734015
-2.7997830049338175
0.24290455345542702
-0.5948054160362477
-1.7854463535115632
-0.017092101214003237
-0.1648229396086917
1.3302551466358068
-1.692308106220677
-0.17029585585098447
-0.43090148236539233
-1.8281007334894384
1.8702642281012354
-0.06265119394894779
-0.7891434629458981
-0.5403487714151632
-1.3405428299647093
-2.392268844817945
-2.1772354591743306
2.8076533172102747
2.2669648954094486
-1.368627150460318
1.3947600579120087
2.7605158083972543
1.4580318862639738
0.012626604823118155
-0.8206111127664877
0.5746783358282113
-2.816339093218857
-3.3140140399470703
-0.3867678861765001
-0.42322764070900604
0.270617027889383
1.7888299743448148
0.11909203800820053
0.1849558220522731
3.041597121404204
-0.9313917599231737
0.6002454799867162
0.8859441286732824
4.019578499493596
-1.3285063324503907
0.4160262137460981
1.52625931134448
1.0473801655016641
-3.193379228552923
-0.2859157154310955
-1.7363945942935997
-0.7531694160606112
0.15162475262225036
-1.221035556972182
1.3136862145728951
-1.9172123586574772
-2.4375397012128883
2.1949452524113338
-0.1650702530441025
-0.31637170952611054
-0.17818097843142527
1.172916192256727
-1.8080848577425832
-1.7472608328877919
0.34350174927334
-0.9114603814876904
-2.366588137988302
0.8113902740744565
-3.4715547426920907
-0.6289553483873067
-1.1579024249730152
-2.0480109236543087
-0.9068076072078513
-0.20010088202923906
0.34691631472811996
1.4317194638769692
-0.3372142786161512
-0.21096465701246236
0.3113585617482313
0.1518665414584004
-1.1220513049599723
-2.028906278454802
-0.79172176885119
-1.8439576280317482
-0.18488838461295232
-0.4112713507161072
-0.15048935580705172
0.8599749377242007
-1.971605380846498
-0.8387400150655493
-0.5823972958739725
-0.8846524266014614
5.196912140491751
1.7426998700810354
0.14089466461774902
2.598673476028193
0.48764401616470604
-0.9777574239110647
-0.4662332868238842
-1.6563542713658177
2.4178173514317156
0.7250731918996698
1.758784454860179
0.06183481048345696
-0.13445828446135177
-0.6881538638429522
-0.6594597181404536
-2.8709317036424276
1.2518716917489277
-0.14212099339142728
1.0974755183958071
2.160138045042645
2.5524580926873415
0.8909946208455424
0.5796804825151877
-0.4278356056214758
1.3697364251331263
-2.2979302181905634
0.1813010875871561
-2.4355505390902916
-0.15569932927601737
-2.3511202476207953
-0.06380887824131808
-1.8995276278841053
-1.0443581502978123
-1.4922167660274264
0.021029676309716888
0.9730241866869253
0.9201189893498395
1.4275004674562164
-0.6949412549853965
-2.523024151137399
-3.3235230541920537
1.1347989048905867
1.6062147540864786
-2.2424277808978754
1.7451783619293015
-0.9317777202110313
-0.12822913577452258
-1.9785399890847903
-0.9306087221714994
0.8414702657009733
1.1559287140403565
-3.6805143355670262
-1.475489502953661
0.10352206481420265
1.3356674520711422
-0.3230810638333777
0.7095044429478702
0.6539350267007397
-1.7385197228100675
1.3791874632563874
-2.9724803387075815
1.4165975467572562
-0.6411438595779954
1.1462591956792394
-1.7416117557962891
-1.503164820169108
0.5413326963159325
3.289221259586445
-3.3464544819310125
-0.7734286672172533
-1.004132328013147
-0.4013712696840928
-2.4806885940907946
-1.2201878313908638
0.22570195609917795
1.1108779909346045
-1.4311367201634841
-0.9701380788657742
-3.140444621884624
-1.5974840608529906
-1.0352662039742782
0.4097788867531104
0.8893703960771617
-0.21509574066631015
-1.372216550117886
-0.33749246181254766
0.6896492164358804
0.3935876068016525
2.314149237796879
1.5302338883878714
1.4601879039495658
2.38208562883468
0.5571505033557672
-1.8955216345940942
-4.27042176639632
-0.07780175464353277
0.2028220470344848
-0.391814128233299
0.13632922326342473
-2.6998601078372033
-3.440842334185365
-1.197530349157671
-0.6340911790391826
2.3317912166421566
1.7980914462717936
-0.8450034560292125
-2.0304663925298643
-0.10524968515720826
-2.3973727827561686
-1.7346656125488513
-1.2546053854568642
-1.7964605355221612
-2.5722423633786136
-0.5547551979631749
-1.2167375763242594
-2.65556164074029
