-0.6772704566836731
-1.4642776690458734
0.01940530687186194
0.07588134467932593
0.9163644912945367
-0.9127022724823622
0.6877051229398145
1.1075976061786073
1.4712719708283482
0.40211334875688276
-0.9218139719638906
0.8965316506100751
-0.19375162179939953
-0.9871992147381095
-0.45593931595608717
-1.108706000537779
0.8542239696450388
-0.1705416176025706
-0.4629643274098819
1.3832192400016439
-0.3383978593353745
0.09364137080863123
1.88959819787426
-0.5317778204797846
0.47766074458983576
0.22889833517911842
-1.080955579329734
0.6957166962350566
-0.5932790924414204
-0.3994246272217374
0.3558030661774468
0.3209257336783804
0.8027333321181703
-0.9049220047217437
0.8522068083024088
1.8336102031290507
-0.4274222485736753
-0.11670142248293783
0.6344636337189543
1.717120193056335
-1.5711415767963355
-1.1266244999501023
0.6577726223193953
0.16844464947114515
-1.2578662721727496
0.20464873518947263
-2.0284514673046163
1.4447392606045288
0.6540236625188303
0.03122664135306287
0.32606364763371165
-1.1437627149308525
-1.876781171454759
-1.108472396241369
-0.632995281378498
-0.5107681355983819
-1.3600183060266475
-0.07526998728441957
-0.13190764877924094
2.7746718423935537
1.0084363509371612
-0.19278008663722537
-0.5166184560681595
1.485018758594708
0.14179310927203137
0.8072213173589831
-0.455895874618193
1.1800910343005522
0.017906042657574534
1.0671367067381554
0.434164037954042
-0.004981138979137153
0.5549415617655516
-0.36149751676562325
0.061247623744690005
-2.4119683027511654
-0.3885366864093032
0.365504731747655
-0.9915549461530847
-0.5022371976169517
-0.5553128942632922
0.14163120969368376
0.002936298495326471
-1.1491357585681519
0.22021313384753863
0.5009959209143403
1.9651039377106148
0.7767943394981951
-0.760094323503367
1.0528302460351575
-0.14056946684771396
0.6002930614320343
-0.8879385176705923
-2.328400954832164
-0.5793613994385878
1.399371728925291
0.4748685788563927
0.20013740856056975
-1.2846402916586352
-0.5572150820736063
0.6441890867593507
-0.36060695234675993
0.2686656044511073
-0.6011860743779162
0.5295384779628367
-0.5212190111558874
0.003703725592426612
1.5487868746346563
0.9602178999256392
-2.237905897653226
-0.6261867287865505
-0.441007333216612
0.5271271875348961
0.30903229157115064
0.6858157581759575
-0.03054847633890198
0.9675374300069126
0.28673258047494193
-1.9875982594112935
1.6709043213782193
1.048878449767714
-0.7514319774614869
2.553316290119919
0.01085991766007464
-0.43902142465190025
1.084610977589662
-0.39276811730438954
0.7275157053923481
-1.4145426464416833
-1.3139598742082794
-0.17040726496926203
-0.46746981100688056
2.082793316554962
-0.39686114146450846
-0.6369740941445682
-1.0482959658086084
-0.6036068814032605
1.019063346184507
0.16063262151302132
0.8024446028952149
0.8389250737249323
-0.9901113268268269
1.4461326924326028
-0.263122124802283
-0.2871185820812829
-2.9376750700823737
0.6779105732433499
-0.9443283823391637
1.5382722859419298
-0.9941789745973753
1.5321971467541524
0.3200698001493803
1.2145737529250853
0.5015194009782399
0.21938787918252067
-0.08787834167762759
-0.7233432175756289
0.9190606999242683
1.0305395567432267
-0.9539969392356865
-1.1654650116672516
0.736263854141326
-1.1524392340570344
0.5912538722608109
-1.20440297660458
1.6707964273754485
-1.1211531158091785
1.9217386336845337
2.071051152777367
1.0953422816250868
-0.7037747271715049
-0.3299416295070453
0.5043539009039152
-0.19241773488163297
0.3704529112343144
0.12527952793710445
-1.259317681205699
0.1475023893922625
-0.7222936329966541
1.03528391556096
-0.5505547633178366
-0.8524614223080607
-0.2077109014379973
-0.4922720949397899
1.0935635231717202
1.0844122351417542
0.7507345540777197
0.6201708111045694
1.8590909580673325
0.6553164382509005
0.46319347103259745
-1.9155041111140163
0.9920131477052743
1.1658218805644256
0.24262996258138078
0.9583885058780567
-1.1211036866177504
0.7728423754334871
-0.8460086992660274
0.8904434699035124
-1.2716505984374287
0.3631967385587192
-0.398678372181547
0.12002707649941845
0.30912964852419617
-9.86004821209631E-4
0.565105927687958
-0.3785164680436439
0.29296565861608875
2.1140115226623273
-0.9674995082839057
0.9229099127609454
-0.40345715216406786
-0.590136262125052
0.029248618408352214
-0.5022100213457366
-0.6780073847004855
-0.37436903018825207
-0.9687167959500256
-0.3617498407271794
-0.5975552339023257
-0.24673397408369252
0.8502388965125667
-0.36596331994671305
1.62173930049246
0.24636800351136912
0.06532521315086566
0.41382831997449415
-0.03963540392254296
2.3884469605373613
0.08350485680342797
-0.8111836650332342
-0.05577979822035998
0.8820990084895249
0.5193358578411008
-0.697115074817539
-1.5969080153443471
0.16151872707046935
-0.005072918608064068
-0.07659961425047876
0.9188095234764212
-0.688320673557848
-1.1185680958709627
0.3623307463681656
1.6523379751173803
0.24595522298464556
0.6407813686097726
-0.8397022861408051
0.985158624697066
-0.364561986467095
-0.565468947567077
-0.9666046161463967
-2.0686946035635594
-2.485308719807786
-1.1083528151634225
-0.7592063627808507
-0.343838547143644
0.7467720504751834
0.6003016104511711
-1.0114777015983911
0.4508576973388974
1.2294622175734755
1.0949362516381864
-1.562445083934037
2.7483512342458063
1.1450522060215176
1.6132618189433425
-0.005612371964200947
0.121701873517068
0.09286088087635459
0.22992971815530913
3.096936992903252
0.2186824491898114
0.38380625457549966
0.17540749407341766
1.1860803239999944
1.761424401004927
-1.3063484254923907
1.259208325221555
-0.36956337590910415
-0.6410950077767115
1.3103266580763935
0.8713754864393627
-0.22124363957341392
0.8055722699774968
-0.21881539590153226
-0.5919986741471425
0.8544971801359277
-0.20107010278333093
0.2118633638797696
0.8842297920949023
-1.4562548709574656
-1.2689713173397255
1.0029226709135652
0.8662180628905924
0.1810809574663349
0.844819282996469
-0.9249258724545567
0.7756029735855924
0.2792742890956088
-0.002383705786220032
0.3424274765563196
-0.07265914253449003
-2.0404879776565084
0.8561527185151546
0.8983268985765074
0.5508232536651729
1.5010787215527193
-1.097870127566483
-1.5928832350521827
1.6246411195177142
1.8721085852833923
0.8304242805573885
-1.0019748716170802
-0.26591854576939544
0.026621495356018907
-1.1799158605682478
1.7765409289884915
-0.08561944189891249
1.0071506489879147
0.6124507235679211
2.1996769563557486
-0.7478638468099444
1.9020711311950562
0.2790399183305524
-1.2013511779323724
-0.8453789924340072
0.024935801918612947
0.18732370914065194
-0.31250800559138403
