-0.8296327269961152
0.4508092276516206
0.7058074870362185
-0.7859764201730145
0.24774725986814983
-0.16065535321879748
0.5248973187293667
-0.25129715823360677
0.5308835877880752
-0.18258480354420836
-0.27290998682441303
-0.5343660903682104
-0.498572633294985
0.7428632011522139
1.6032064749304564
0.5031504943760581
1.9121220710007385
-1.4113626069142833
0.4218824725250978
1.2293115226198432
0.7215203925794531
-1.602108312120637
0.17096527502863143
1.6526050147071174
-0.5629651820391371
0.2990839116477205
-0.5475691594421388
1.4586605612398884
1.4357851912548882
-0.06652802962764799
-0.2608562653169731
-0.01970623197220803
-0.30732269571053605
-1.839741968973857
-0.5947433817297707
0.8418423229378489
2.1602253613867854
-1.2088951704272282
-1.408868696094854
-0.2964353310621032
-0.169733903370743
1.685379058934547
-0.7676113844583989
1.7819844619569443
-0.5447360042161966
-0.3650176842569971
0.8665075880007793
-0.540378405652099
-0.8081743641910258
-0.2743431034061698
-0.15291796518929054
0.5910604958150761
0.6589652882020489
2.114609220744981
1.0179795884860907
-0.36103383012502355
0.8971070377671376
-0.4653348729609892
0.7964041480396191
0.4882018394637579
0.884529390810148
0.06535529122793034
0.1691155841919776
1.7123048285590603
-0.13868935446570438
-1.3719717617439402
-0.5905477850738328
0.25125606784013366
0.9629117981557568
-0.07173216359564684
1.3432565118495272
0.40218862245910847
0.2945074913576003
-1.077611947339306
0.7320896754310772
2.1694832719788972
0.19713443407918343
-1.5206272113665515
-0.20502427414505964
-0.7131100199777012
-0.9136224393387826
0.07860118298086337
1.5814741460580313
-2.1892243739650064
-0.603697782726541
-0.6420638015187884
-0.29354130535585504
0.08181937588431766
-1.2525136722987278
-0.8737408075970106
-0.7537906165880743
1.7958039863705446
0.49688289036608546
-1.2169370054123538
1.2141374559628075
-0.5078425696151498
0.1862217952158796
0.48043908211211217
0.8925369304170224
-0.541109384850316
0.11578849600993847
0.39456503469848886
0.47364823926140526
1.0511765294384514
-0.5156900604737883
0.1252991552194976
1.5520167540798768
1.290579819441694
-0.34719008671723517
-1.428293537748013
-1.0851532980687553
-1.2329140713895201
0.2481887972887967
-0.6950678197766879
-0.4198643159809911
0.9349047444631257
0.24909862517728062
-0.5867128478440052
-0.07428600179856364
0.467029769974446
2.2594079992890834
-1.0696857102814508
-0.3079101832466546
0.13929418206920885
0.15859951246096146
-0.5328587968144818
-0.7044999843768478
1.4795885714292463
-0.7234664532107699
0.9964746492324897
-0.30694918951389477
-1.5640452210446452
2.2664937380542356
-1.1207601271585517
0.6988765437123576
0.7262167173144028
0.009609113106966735
-1.429511142559629
-0.39991537631709617
0.6746944231682963
-0.5739192208743593
0.019523293921754285
1.6061565966106233
-1.758104583776506
1.8823515753600766
3.242909438642759
0.6876299337668478
1.496025416604219
-0.1688521782218424
-0.26869915164907704
0.5792712761937306
-0.20004039911286084
-1.9454412763257274
1.4945281092521834
1.5026575698301263
0.8567507820842778
0.23352697644142603
0.25055168421301127
2.0561053621832235
0.3895588526621736
-0.4017789849330697
0.1810920811200087
-0.41207897425943285
1.3589155404508002
-0.26456216362096296
2.1012095395592874
-0.10874389697962401
-0.8035955476252734
-0.965115330482938
-0.9123827135615704
-0.1308226969230148
0.6350316690057707
-2.0408598610009157
-0.20327828922717198
-1.4291023478934364
-0.7799391116624502
0.17080917260604722
1.0699990401043988
1.1372889996084206
-0.03808395070230001
-0.98922771076989
1.6088780654151387
0.6478353719853275
-0.36716575070314983
0.6033053727959716
0.48257048277048825
-0.39870792873451355
0.3771035003086654
-0.6671835522118394
-1.4233063960371881
0.6548503270908872
-1.3618541073006971
-0.24996088472157893
-0.725842753698466
0.5765395069983696
-0.16221741119819633
-0.062295991745055554
0.522479634276155
0.12993190117705
-0.5950777828204478
0.44574964465377226
-0.10369900570684017
-0.20032711199011435
0.034812284204737025
-0.8155596796405061
-1.5126317053315008
0.9253751649625168
-1.4430195425736203
0.6903280566528603
-1.5410973824088292
1.2339271223957209
0.867839712483151
-0.5584857378349771
-0.9089076501478273
0.7316740888319607
-2.8684011673141803
-0.35671652355311095
-0.7265052940366098
0.7319183410699631
0.6370512746109116
2.5214530548415963
0.4015713519656141
0.662585472511966
-0.524977622600387
0.21173068776082454
0.6131249607846929
-1.1072459922587556
0.7057823212617607
0.5370748351289435
0.23700133425431302
-0.27592131457141733
-0.17812073896263453
-0.9125292144939229
-0.36098827114333165
-0.8371635335961467
0.4887433415955887
1.1850193687988093
-0.32414912411164515
-1.133448507861254
-0.8864875799392212
1.6546684995617928
1.0732503020469335
1.5633382614196787
-2.4122108540201865
0.29429412175605907
0.21478216933492647
0.25061999914583183
0.7094841417278955
0.052767665486704945
-0.7119226333507781
0.9913890863618868
1.8148175804526328
-2.1201800712347385
0.7060888287640987
0.8831083032721017
1.044364318586212
0.0891655261621979
1.3304372717763917
0.3162574790164442
-0.5610168342633395
0.09863137354197626
-0.24279759326080091
1.920989609174156
0.6842292306868599
-0.022918242314182224
-0.3440424977347603
1.3858537638703388
-0.8879507896413077
-0.14417641844680348
-0.06873513297760842
-1.145515893707667
0.06299168322924943
-0.7990638311227091
0.5019315837169618
0.16930467348933825
-0.5497567038799258
0.7991858176955183
-0.45927049533161596
-0.47965354926021414
-0.1108506751618532
0.3900411119530441
0.0903774873826716
-0.4775783321821177
-0.45107495392682184
-2.6005997821247107
-0.49990365516160307
0.3649908908051852
0.25390750906232173
1.9881351985400655
-1.6174836413247653
0.16272243010045082
-0.3813508609355713
-1.6848303364677797
-0.7425456275506337
-0.5167176696869351
-0.2284651814661829
0.5425361051609037
0.9554888012417472
-0.8821710043534554
-0.9151512329449928
-0.10609294844957712
-0.3573358109390836
0.571349738392447
-1.1724110834885855
-0.09840275443496542
-0.41752412979589615
0.2203574540875199
0.7881378683394786
-0.35813582765642876
0.05958094453832453
0.2702079195119418
-0.5527533132310866
1.356131611529434
-0.39438417985932706
-0.08348842474914751
-0.6732388332090975
0.31933962455116205
0.5777796708837066
0.6396405729428276
1.6661465472536843
1.2869820677543369
2.060734471736325
-0.31193228197017164
-0.5803920487705218
-0.6301856742698672
0.3507030111853069
-2.3967849891283755
-0.19411631952159633
-0.8926180428047169
0.470570495804415
