2.4699885311616896
1.3385991282657106
1.6709296739489559
-1.139041579087033
1.3009219918617818
-1.3725147411223126
-0.44126087156596017
0.10446755547203028
1.2981071314838502
-0.8766453543794924
0.518353438668363
-0.28791253188800503
1.2308706019287374
0.6945876559200299
-0.8025594739547338
0.9398458445298636
2.359950538580916
-0.4692872327155801
1.8035920713502223
-0.33811794883189283
0.22251676542240767
0.7021842103945383
0.019772471466205997
-1.3440913215811925
-0.5920278161432083
1.3235117959240004
0.13197209070829352
0.23406506751081124
0.3077382126225971
0.2466645574415537
0.17836273058618926
-1.3202177425565658
-0.5858929423306481
1.275415464783513
0.9475223872331119
0.6554317144962203
-0.9372106603513307
-0.9089575741169476
2.9077370566730334
-1.3965925052146901
-0.0655040169504598
-0.034692497125636206
-0.9439125906782089
0.28064240186051975
0.23862980552617663
-0.2201476151557874
-0.7676330360820219
-0.7854244031737552
0.2531994377860622
-1.0854871870362754
1.3475271886093212
-0.09985285071415877
-1.3238001225600187
0.16600430680038353
-0.5767022781820687
2.3812595011733126
2.1638313630130597
0.06776101149017077
0.6168323110912735
0.2673930180898697
0.7056319106580865
1.2709463620089338
0.9937429727675985
-0.7833135955743536
-0.9177531984086595
0.9943581465830916
0.024627091476603736
0.20899113910585293
0.4451746880823877
-1.4246336370866277
0.3719736256937505
0.2300836075263425
0.35070403610068923
-0.9286457605719601
-0.7274850528259416
-0.4022785959470409
-0.5501201696117151
0.126833967654602
2.072685755353188
-0.15303192848295954
1.751571989971961
0.6852832504591883
-0.8508069950821687
1.2316657395256776
-0.43604407230671627
-1.4903163028221342
0.8028591443561501
-0.7785837300821371
0.704536361212002
0.7631090163364429
-0.6115859003848377
1.2877430083029553
1.370458561427068
1.0588749355093208
-1.3923212154251343
0.5342142878707
-0.8997516242128079
1.521109855552366
-0.5448215759638002
-0.10060958440409146
-1.1543942956988769
-0.016558817857348664
-0.5843916788785124
-1.1875527905936132
1.0994009592346992
-0.8230049160276276
1.978504358575742
-1.8396084030791837
-0.4485166735697529
-0.9449900433507153
-1.6299388321697519
-0.5515965784052587
-1.8106825424862716
0.17623214193835354
-1.1362148174511495
-0.47797113309710343
-0.6702681093666342
0.1156247133965243
0.684061228026511
-0.18460485093369897
-0.3276222082506048
0.3863608993331487
-0.2153197574593671
-0.8346062963615704
-0.45455077091178947
-0.45921405615243455
0.18315315076160077
-0.73990154612368
0.46064048392107937
0.235080963853466
-1.522921812330161
-0.06651703641234138
-0.7383146985486523
0.3242166664920061
0.6382996976126262
-0.7617528729361451
0.4055507061644268
-0.8181707276496288
0.390575631193565
0.23142129373776515
0.11139159644481617
-1.2732023281576916
-1.3959839852765756
1.912806789606795
-0.1455015268027184
0.18141274234556726
0.29750142308287525
-1.1118262059998392
-0.28061653959501587
0.18498610198066068
0.05704720087849203
0.8436470759397413
-0.7650732583141995
-0.9598458471197111
-0.26630495132342147
-0.20611774839278066
0.24812104220814077
-0.8715255161385618
0.5122990646964805
1.4149119994404598
0.5150996490838795
1.017932389946251
-2.0012960092105097
0.19276995195891045
3.087539635910427
0.731835766845535
-0.9450876119313126
-2.026408014560004
0.668971556810833
0.6097318454643592
0.5194581222971426
1.0175898611102356
1.031201218949436
1.3092342966177188
1.7006610761175183
-0.061440303822182595
0.5825564745265424
0.24533559047887613
0.2880701557754581
0.8562164709405969
0.44301279936693116
-0.5547842679313438
-0.044642521874765036
-0.31063184314756304
-1.4117492098877964
-1.04023601362221
1.5221264477411707
-1.2886175558458457
-0.6546471841749284
0.04409537901754353
-0.9581771556522968
0.8249861431368133
-0.21022644288957415
0.5294966505436325
-0.43340612324533195
-0.0808508302074872
-1.1431367150962533
0.11135145945974077
-0.6751566579258101
1.586412174188994
0.49769520607027745
1.9169157374891208
-1.3498578763053528
-0.7235960137267381
-0.39739057487015633
0.3867890647501408
2.786615161566339
1.4434723394311904
-0.48486906473693947
-0.7667362792381978
-1.0512537364186105
0.3145768891746725
-0.39469284447612746
1.1698351487939675
0.19432388842021484
0.36677792939600734
-0.6571391505919009
0.009247806219839385
0.931437724027867
0.8157685837992276
0.09228841933972042
0.3218296206040806
-0.17860102153932952
-0.7891568885500538
-0.37152392372522497
-1.56333301938543
-0.8434737750654183
0.03137186599863758
0.7459065357337432
1.3052747461702825
0.17819744089253536
-0.44083806236207834
-1.3780460544037434
1.4756212538222444
1.1673995186701271
1.3026842477384089
-0.3580371976315095
0.4468373777218109
1.2534134709123406
0.4865861496595921
1.1508905350977379
0.3652095261234498
-0.4737901263121837
1.3217367087304535
-0.10731830191403449
-2.0636967539782645
0.4475192696919942
-1.3562803825530119
-1.5905074209592711
1.331000617121667
-0.7958945178607592
-1.4562863411519125
-0.27873611484231553
0.3658939621034824
-1.0079959425534804
-0.07582098645108967
0.8061436168279575
0.13678032659036415
1.5126039390937909
-2.6717452779147313
1.1109873383124627
0.14669074406146704
-0.09108824934019426
0.3673894601752889
0.27021462802769747
-0.3309811646534182
0.8393773232386764
0.9074707677561363
1.0039460398819346
-0.6995834272787278
0.3173604138744971
0.47928979715627495
1.4238798695365498
-0.4999647345128521
-0.03323371186414243
-0.01976418728636214
0.1828082792973222
0.6875824214500668
0.3624900295353921
-1.1612667997381667
-0.2783627178020547
0.33060497422674284
1.4329858393235497
-0.050639799568589675
0.9812323616350864
0.7733476341480772
0.03383210002322793
0.5985386140336322
-0.3177559965961358
-0.0031893594046948754
-1.373232971457375
-2.1217604568781048
-0.24784149115589976
-1.9170631548857482
-1.2512088709901323
-0.2663467974431766
0.08153395144423067
1.3967685651636763
-0.6828158889891839
0.03175159700245825
0.8463489462586319
-0.9187998428295582
-1.7131445066233761
1.180947856773222
2.165302297697168
-1.208128000528248
-1.1776625697103624
-0.6016504541215293
-0.3386177523697897
-0.47831831033605354
-1.8735004905223036
-0.7328214027965559
0.8386056680938672
0.2869000951032913
0.6003090336335231
0.28169815386484653
-0.3354768942229847
-0.3390486930234365
1.6491424346459567
1.3279497118622547
0.5759310247550984
-1.80102488132892
-0.9774754044269515
-1.0015492679283262
1.9486969526787565
-0.7660106046143255
-2.1053160945802865
0.3400363028919419
0.6285508757885164
-0.5255853707906586
