-0.5233460745758359
-5.007786972027223
-1.8139943626134987
-2.171794283652185
2.0420910139229704
-1.4587000755974187
-3.6721307724260517
-5.587997287996022
-0.0824932425728492
-0.030838642484781614
-3.0255761149860763
-0.7825738501301955
3.4231558534097974
1.030297704738985
-0.11345699859397326
0.13273650974479045
-3.344516690124987
-5.206571657035721
5.954677830427929
0.4518546028657772
2.884813627061311
-4.335649828266357
0.6324012495495869
-0.029412838834296687
-0.6013682401272112
-2.6837697791631316
-3.695884834281904
-3.7468855591247694
-0.5952591879223168
-0.5727967318672426
2.413558768192024
-4.040928591514465
-1.152566985980676
3.4088544462363757
1.7621267120426292
0.10091110278278684
-1.305759421874598
0.7870689259880131
-0.17621740550121767
-5.245133572636517
3.1810419596606385
0.7904627048692519
-0.9056681111849144
1.0740427184562484
-1.1236557184402847
-2.8604217743808467
1.852246415419279
-2.9313055591997546
-3.7743859069139627
0.18074317454576255
0.8167655630603696
0.7644883490221075
-1.0425038386408179
0.7155816179349697
0.4258451585960692
2.33642286004187
0.1513979274161803
3.035105389522883
3.2899583932889014
0.7460831212970515
1.2748691439763058
-0.4795194520622334
-2.918081328917113
1.2473404444452147
-1.3506152425034135
-1.995567146747268
-1.73472055549561
1.8312109858360963
-0.6980965491820506
5.323456144620669
-0.11256575294572602
-3.576474585582349
-2.3383722860715035
0.42449636251660705
-0.2817707824470255
0.7581156860754846
-0.8489729613738031
0.13693043198593902
0.5130871588696317
3.5453414338877622
-2.5069214106805617
1.701517592476133
0.5884181834201453
-3.32104518907725
0.041214991027893
-0.30881143098055946
-0.6944848723632249
3.572272427363356
0.6885822924954643
0.42644063998358134
0.5489113226929012
-0.33079687930343094
1.4800263535115539
-0.010611255996793306
3.5653490944348825
0.18929586748666602
1.8639181508328424
1.361509432764903
-1.5401736890401796
0.3482910383660207
0.36661029994458866
0.007494907609191961
0.8429420259415561
-2.844647974590279
-3.382011490686942
-0.7746877572569751
2.8317432217920104
1.1002999741102504
1.7322795914329798
0.7650368879153779
-0.008464415520067492
2.363241925406718
-1.7330035372346837
-0.5554722550590757
1.0540720899801477
1.1110798954014685
-0.6935826587756799
-0.7841493244763529
-0.84549620250903
0.5576648737039489
-1.2844452200244403
0.9020744817435389
-0.3277926700974485
-1.740279922439512
0.1719023833297847
-0.7983824273388282
-1.1880035597714638
0.492989153678817
2.2642609874778516
-1.0037219670904274
-1.495117411855485
2.7044639448879773
-1.0161247140745928
-0.29980065372856646
1.1828616326866368
0.9159231996020006
1.2614048584438151
1.3376014693676586
-1.2543772910546853
-0.18012384748545832
-5.381495332561339
-1.5963182494039352
-1.757303208138029
-3.3364988022821187
-0.8094046340174502
0.04938703367754264
-3.869250558741276
-1.9642933819179191
0.1894927131105132
-2.7967848385360803
-0.7573224725227854
0.4528088824859617
1.3001042597587882
-0.30830171476749174
-4.755401348644556
-1.0701578990498721
0.6742322677678504
1.9151494285340798
-1.2728514781685298
1.3522607669107503
-0.6531400962632842
0.7957343280666049
0.7906872464874456
-2.1787722879642635
-1.2305491120585301
-0.9415305225090809
-1.1615339833476184
-0.09101500299081626
0.5786047213206843
0.22972879396114823
-0.5957067956429251
1.6967139399998679
2.217544074977361
0.7034526389660919
-2.338253405169084
0.37072867233497236
0.9462155946820985
-0.8031066834272752
-2.310857026645985
-0.3099862059628634
-0.24119583152330204
1.4383704693242125
1.4139884471648771
-1.084364173573712
0.3053436273913381
-1.142374512594538
1.107168110912963
0.4347267428498965
-0.3147509453894769
0.9179770438703894
-0.4350277155430416
-0.6488591120713114
-0.36805295840489916
3.1090041405010256
-4.615948075761981
1.5661780308761937
2.126890343204181
0.31569843809397924
-2.3838427347178577
-3.570918975016799
-0.21036825409015691
0.24979485283041808
-5.938645720151134
1.086021524229103
-2.9899846614624512
-8.15436204849095
-0.4350367518040662
-3.886620001775056
-1.899224232402303
-0.53594786595171
2.489715825399636
-7.8913260809680335
0.5392059141942203
-3.5779530254895584
0.41552908707577796
-2.8751622126902037
0.09804043808163596
0.7094927013307614
-4.603073723886316
2.345577126231293
-0.507023017281766
0.2358409782400793
0.9768225274581425
-1.0082229434670635
2.498801962150528
-2.3923065021018677
1.5191946492803847
1.8151260484745262
4.214778583378637
-1.4062224370295515
0.5469668688391534
-7.19859526079769
2.6918139836927857
2.5192988781944123
3.7996541685773653
0.21046825633375854
-2.0061479072909414
0.18768944446953104
0.6117703337475223
-1.1758016195068635
-5.890945595815834
3.2855995856517555
2.3283482023345163
2.5636359989548794
1.146545354123886
3.3040041692225905
-0.7025665376511756
1.414638672292459
0.2832431968504316
-0.20212790714459364
1.4482229179288026
-1.6392021024798735
-0.014704581695627328
1.3385312522787056
2.6317153810828566
-1.676244329374005
-1.7864201665538184
-2.626922676342451
-1.8019426071091564
-1.6095426655506286
-1.922088077591028
0.7697363136638279
1.0274837126137428
-0.4698697531567107
-1.7921980060415095
-0.2357346881709685
-0.9626055012659148
-0.13896265718850165
-0.6771484647888822
-1.3529856925209238
1.7798101592659301
-0.2435465888400703
-0.0014583113274343252
-0.5939540273761932
2.2926198777554196
0.6447988373989404
-3.311574487074624
-4.032319102827403
-0.5131653892279904
-2.871976735509402
-1.0988327086539145
-0.07270063020625336
-0.29162353921096995
-1.5887097598325852
0.12815443900951376
-0.14523946539888333
-0.4718606845376232
-1.2353967876584686
-1.3296950761653437
-2.3030662398772024
2.377848594655641
1.1737911192539263
2.2260379852419088
0.3612499035513403
-0.6661800969321474
-3.4310083696176084
-2.874498803690081
0.43246523824232264
-0.22765489065789635
1.5200419816276938
-1.9794188700902395
-0.3421461935159803
3.410639511841943
-2.422431302468859
-3.3076506827063574
-0.8071599265637082
-0.22035048075112645
2.927129279550745
1.9218382004606958
-1.7906175516782623
1.3113475529952596
-0.9878754872878508
-0.1562409750868188
-1.9597136083202233
-2.052474027638664
1.9631475738869144
-0.2911810279660456
-0.25178502977480105
-2.6033377930675234
1.3389908613963502
-4.372919791893138
-3.4990826626907814
-2.3663079229149693
-4.555277073780972
-1.3613465482616136
2.2488538911893565
-1.8632271751555685
-7.627187844208088
-0.004468130370757861
-3.1041317417898626
