-3.4490678634625476
-0.42643065887518633
-0.14244774179105305
1.3484145487809907
-4.390640009874614
0.10432836549313776
7.354906592723471
-2.189359687377178
-5.000770711810147
-3.0953190225419034
-1.3292979125585247
-3.2248811003138123
-4.12771242086364
-2.0240222301967594
2.5943665703051004
-3.4085605510921324
-5.594346487842475
-2.7967325051415663
1.6176735015916701
3.165579126219667
-4.133188063490812
-4.018845845608305
-4.781323516341833
-5.097037182784226
1.8865408582695509
2.029858450186491
-2.7392551452289764
-4.247612481264028
2.317960273933153
2.490640958287342
-5.711168887966991
-3.386633104577268
1.8270240539361764
2.262205234235543
-0.6803591747401857
0.45869073994150744
-2.6543635370496617
2.555014960063766
-3.4734978878826173
0.08658370557086383
0.2294088243954861
6.7019691727579875
-3.434002007334495
-0.8132279722323051
-2.411852140653515
-3.6403739974771576
7.09847714926853
-5.2608725364614655
1.4559523261321656
-0.3034494706659206
0.9933978977812644
4.17293209209297
-3.693549014134465
-1.3645010012204666
1.2852224848111342
1.8194453802520054
-3.8971124648087185
-9.038333722561443
-3.5238971758663062
3.7110710456525746
6.837460836633617
-3.108728050534721
-6.524903177688114
2.0497775822729545
0.7766376797515584
-2.855791255040594
-1.7583734361534262
2.302321249963187
3.824999597467729
2.9755895297347714
5.809127248346474
1.4582562367168657
-1.863558685004532
2.313025421993424
-1.043876851198841
-2.1669859326882506
-5.545598143049042
2.9664743404991345
-3.6570165307270406
-3.0061048757845676
9.11694292163404
-0.328007178476112
-0.8828844815128825
-8.183419778245852
-7.930876447741776
-3.283487426716989
4.267436317222442
-2.2835358963499037
-2.813723717294753
2.5723860558185407
-4.0742963524400535
-5.567114983990307
-2.948469168171965
-3.6591092498555633
-0.9126982300383576
0.5522458498259977
-3.221578376841779
-3.7527041018662155
3.268386618715486
2.4492666118691417
-3.9626166885934864
7.194380306663776
-8.713234829362264
-2.7667121486886272
-6.352251350221432
-1.535925943690221
1.1456441928470074
-2.5014629196247697
7.099338408236479
-2.329228648024114
-2.987264212763602
1.7065186939035257
-0.721374081649651
3.236082676852063
2.593946803180882
-7.388025555386991
1.0070431507690953
-1.8529486335455096
-2.973054117599494
-2.557184095808716
0.09576983334756144
-5.346925293679928
4.026512061332802
-5.296660913747085
-3.4318407838300296
-6.137379680360019
-5.377051561795231
-2.073551140128491
7.456467460168891
2.25956918523668
-0.09650135011883453
-1.8095988244813006
5.2076007363842916
-1.2437173316732093
-1.1651335763070572
9.77016732898183
-0.9506782793972433
-5.9984127728606556
-5.377777050354468
3.8607250553089107
-0.7989516845689398
-2.179517619756789
-3.4407511372306128
-2.101446043124864
-7.020386656701544
-2.5596580039856693
-3.1441088920242573
0.8675540960927725
-0.0013637901677914462
-3.2698624646306325
-3.4475874500964685
1.7159729017307745
-4.98759021828709
-1.162760099803387
-0.19287709444201323
3.1144756946836356
-0.6360431158625901
-3.457248823218125
-2.615158650806023
4.2230570072618105
3.3273208440138
-1.6350816891052775
0.2136373924134889
5.0148486696043815
-5.572586248508791
-4.1949351960118815
-7.692316472174716
2.4539025320706274
11.998499921539254
-4.39173230246202
-4.116829646488504
-4.264047566193252
-6.201639394692686
0.49538545392818295
-4.418993169578491
-2.31688331049711
0.7144431062553407
5.051767724139547
-3.3351111233175357
2.143888972132122
-1.512270325011206
-2.4002135491048304
0.8444403070590344
2.2909340841768766
3.189518911895623
-1.1884704495087741
2.2552304318393395
-2.65949300147598
1.8826589243352752
5.870951351546167
-0.5743328941881557
-1.7760332929027607
-4.954406210580721
-0.6908502096393533
-0.5222903945112626
-6.300184434224376
6.32149274267095
-2.889964856121127
2.934988202093884
1.3771134079492906
-1.457106226262145
5.906260482187063
-0.8650992930830311
-8.05095468973355
-2.261750375622796
-0.17346854629084468
-1.4649563780024157
-2.9649002942020246
-7.820733979408136
0.10959059859969858
0.30751281635736205
3.5118705546403066
5.4500640514313305
-3.195154240223986
0.9669648463057958
-3.601482738107201
-0.864908200651673
-0.21403823428531427
7.734310161896687
-0.7072646292980922
-2.149859797975892
2.301106337165153
-2.997320940902295
-5.142412567394809
-2.174677651248241
6.560072716068335
-0.5498341580599743
-0.795653146946765
-4.112135775665245
7.828888577789426
-0.4175963038779621
-4.3629750878424645
-0.6677390128407515
-4.631879599450428
-0.8792935174050946
2.619507366208474
-3.854616840927044
4.603552569342878
2.6865033859373035
-1.08156399428353
1.3905093297339246
-0.7837613973823603
-6.843674165857443
-2.856865674139876
2.5145289009874485
-4.751778084496954
1.68617391652282
-6.40305030374472
2.203679355924116
-6.252680465119004
0.049224543190131274
3.813591159446713
1.0263219805564179
1.473215971795421
4.515091239378103
4.428988016734357
-3.5968963585377485
-5.109098662288138
0.4689068119078287
-4.559003780946143
-4.882241926175342
-4.3665821845182
-3.7746201645118944
-6.521382358634679
-7.661262586544312
-3.591208000706832
0.03885862316947761
-8.736919992785547
-10.744684203730632
-2.0666421284541165
-0.03441346151265803
0.08506342428435336
-2.493021462491832
-5.862226693103309
0.4649827093736899
2.177122120249831
1.737645021369683
-1.3029064353201647
-2.042571100146137
6.3948929405449215
-5.192036595816688
3.0698073654159015
-4.193538523035191
-1.4733181626173741
-5.963622885987324
-7.2766356456906305
4.777930707205838
-4.59362852593925
-6.799654461503538
1.2865130801237852
-0.3932877203352843
3.1473137943890097
0.1853046821718859
-0.8286512524792248
-1.453397377055961
-8.06610503495875
-1.1507372084183367
-3.093631711446045
-6.385663495013297
8.4702159090599
4.675828878572709
-10.561252300782995
-1.4782605533611812
-3.5136788139132618
-2.6533768858176203
1.8225368327460194
3.1466731388117464
5.634279033323058
-4.725361372222737
-4.255594948470181
-1.2490536936960224
-1.0691334443605207
-5.344271254993111
2.0638957416231394
-4.498789097085704
5.211461734167946
-4.043587884593877
-2.6601237484844837
2.166640721665477
0.9705882848537931
-0.875712213263596
-3.912280636182308
-2.5691401008310613
0.7769387237675026
-2.1129588658892957
-1.4968101819924766
-2.761773103592289
-0.25041753802985317
2.13392435224819
-3.1858363088597863
