0.409113276277098
-2.7899497420902954
-3.242546665463863
0.7107176123511058
-0.6683611495697649
-1.549797721872669
3.8687899727745916
3.4085298121870804
0.05045447273149115
0.044521504868007496
-0.10112934850599249
-2.0850506042789396
13.230799034698107
-0.26690938202724296
0.43543484108527614
-0.794710909579141
-3.9897195432700534
-2.5704669748107367
-2.5496562991292953
-0.8425916099869556
6.536332426015923
-2.1362295269230596
-2.287459813919112
-0.9255382507123343
-4.878036774212194
0.39494950827837455
-5.402370666357125
-0.9195086930251094
-5.564882525528014
-3.8067684367471095
2.07834745548069
0.10068305401178623
-0.28528947052631193
-0.8622421882160904
-3.07732822014949
-0.8544582632414894
3.9187005661191066
1.0081387431379365
-2.031697733497067
7.805269454092402
-1.257181275505701
1.7232113022440123
1.580995406449661
-9.109317920699123
-6.727711429319441
-10.421408913148518
-0.2840693994950515
-1.7318106237176734
12.895778890499889
-3.863024418755712
-0.31631834186076263
-0.5005287034996747
-1.337507494316249
-0.8293675939823821
0.273713040219343
-7.055702336188621
-2.5326946384378926
-8.518156543063553
7.2301393120487525
0.9410523301129871
2.2519897700275946
-6.290736071259969
3.006549990278278
3.0798807662983494
0.15517509312978445
-0.7750708384635648
-2.8782148903176
-4.632091588419197
-0.3582653638498611
-2.2171656917924105
-5.375592208788068
-3.0387994800447355
-0.08873990591241843
1.6638533921594096
2.6441886579651643
0.9400767608200084
-7.204682843715946
-5.80456964781152
-0.4520581705707396
-0.057263326316930076
-8.263457320864646
-2.6248029128691934
-1.7471032326677876
-5.472282771983586
-1.6307965270992137
-0.7896916089296498
7.98881160046762
0.42996345365259875
-2.957498752019802
-0.1836046890043535
2.169840687161269
-4.400942315295159
-2.364428844818646
11.956739584125645
5.380662911546672
2.253382862879607
-0.19658870513811139
-3.6501695471924096
-1.7640737077917736
-4.714847962210445
2.0987811234005194
0.12712813937968614
-3.8088130276106478
8.23192822169994
0.46339832210914045
2.254201898740321
1.6799057116487794
3.0292988150169227
-6.808493755589019
-7.879125481671551
0.19447726619176936
1.0502940664236438
-5.463969443282557
-5.377173151860339
-1.9076609761134642
1.9043353115879424
-2.876251556864549
-2.559024749443865
4.216809869442494
4.682018691040023
-4.865023970456385
6.870716560848147
-3.2619280244564
-1.3829536191803595
-4.470127986886562
-5.04917376124553
2.2078030142791083
1.6316983089368224
0.37195638613374105
0.4064961741571687
4.825879552646445
-2.479086818595521
-0.11211542634505661
-2.349451061418896
0.6782121165864816
-9.565743247179253
0.8571545712989043
1.1331296447171795
-4.954160758806609
1.6514571660501427
-6.587422053142711
9.989179758515498
-0.5892727154417757
0.9388182107906069
-5.052292984094593
2.8955111432678806
-0.8400516355132717
-3.5651358298050706
-4.320669452086456
-0.48535953148280364
-5.477212828836215
0.5662042753934359
5.932514075824999
0.8451220722720855
-0.09813171506203518
0.002227584701384972
-4.352933095194227
-4.796982202892416
5.312542661242974
-2.6646550789150782
-1.369222865071526
-0.8524560465741476
-1.0023947121609746
6.441749589153951
0.8256429993934573
-1.120260852708731
-1.622509288688478
2.4353119288281446
0.9202169291273096
0.35202393765140993
-0.6442519117800911
5.342476744710107
-7.5138342560986855
-7.3571046403506974
-1.1848578776648777
0.926009088220281
-5.042539032015949
1.8358353101440388
-0.3200122039647351
0.9889046783569971
-2.7137704558070026
-0.567884202479295
-3.985538289540644
4.415918530822109
-4.337468168209294
4.805376686058555
-4.991281190553445
-2.2749065533220234
-4.345605711135024
-5.5719006325493785
1.4678681921372654
-1.0360528546506416
0.7624363829007208
1.0453848418481209
-3.3978025119925355
-1.8406837900662878
0.2503939303358078
0.7944317999572476
-2.464153661154
-16.91585769059081
0.8535278760761189
1.1368969230235455
3.639178240483052
3.833898758781627
-4.496268874701711
-13.495547229823947
0.959223691771572
-1.9609702773356141
-5.53296224674566
0.12367943753303545
2.3504293647857475
7.946478112551895
0.08865668150351567
-0.007866882759659011
-2.5095021539761033
1.7374491948191844
-0.056527928328948276
1.3535222392227817
-1.4534856768015911
2.321120399624246
-5.140528807285052
-8.97220575312744
-8.818319036008088
-0.6166963797428757
-1.2630794294035004
-3.8273913445295835
4.199431037951461
-6.080381646468725
1.9054880284510791
-0.8102241901765102
3.489150951263643
11.90691277444465
-0.7275768888753095
-0.8802539627639391
-4.265202771462389
-7.0871691460653246
-6.885314456216721
13.326513594926043
-0.8922840641181856
-5.4974032870924505
-6.630497299621838
0.4897938859494633
-3.5654460436237065
-4.247041476383368
2.6664460646865376
-1.8100222894270137
-4.425299262615582
4.627384525489286
-3.158015619565809
7.312014903593758
-3.137616675554091
-3.3811687485930286
11.460970274806693
2.915188784286127
2.1626515159487023
-4.062933598408543
2.114868988745037
0.2131502022934744
-0.8646955131500523
-1.8835804792521789
-5.013079845116386
1.377350595600722
-0.6817244286384222
4.674025433589056
0.3343274357572292
-0.6218176699409873
-0.1341779733417933
5.053053211363042
-7.769535510698637
-7.612232673714342
0.20105806756190273
0.6171109871100112
-6.014832418390424
3.952940807524228
2.303230388922662
-3.5490465002692972
-3.0607056794650274
0.4503788052153654
-1.3656521147479803
3.758051143299396
-3.3327406401595248
3.5317407629961903
-4.195317214131641
-0.6809727035751859
-4.4861561657564
-7.818845429650462
3.510031570174356
-0.028540722517797996
0.7637413565189721
-0.5261078970338114
3.1759362247883938
-3.208329283019473
-1.485696126402652
-0.8477234261957232
-0.9857811077097661
7.564820925806127
0.25399615448931756
0.7851784455817017
-5.011524783547936
6.667699517855406
-5.178413132796614
9.460056187725954
0.8857016125962688
3.6137326526636873
-4.636869680927671
1.1536483971173161
-1.2335960051386303
-2.6251768563646865
-3.612086765648767
0.38199161274082477
-3.4739994743788363
-4.573587511277441
5.206911802178076
-6.415305828099867
1.0592945383365242
0.13039649218996166
-8.391453337800455
-5.368309486800273
3.439159441784858
-3.3718102611362477
-3.749766026385882
-2.4047996484575216
-0.9335987050837756
-1.923564303014089
0.1265704356407038
-1.2013654192830827
3.3085844977942123
-2.1220150292937174
-0.9375502198096043
-1.5141714983035477
