0.4777085793783146
-6.412826610956243
-2.0330962050202093
1.7951403937787838
4.843548619246479
-1.0414084212082324
2.25518433246965
-5.949523789265626
0.5100380569335844
-5.498905726991964
-0.14683759180471023
4.1778396031669836
-1.7361366860225915
-0.7318642085061201
-1.7019919976239104
-4.89177236360832
-4.089688290542473
-3.182554053307709
1.7728319332871085
1.6883745186158905
-2.266356736533985
-6.148777127126245
-0.5743536077955024
-2.3277513076718157
-0.7909132199599808
-1.6976556801716474
0.28567426997000783
-4.057787113069482
-4.083984143498204
-4.5960683271415945
-0.34554059179988567
1.551484553970525
-0.5281457805016637
-1.7718966834599494
7.031028269984524
-3.2284870788978535
0.5684143144103059
0.5397511200855293
0.7986457538276933
0.86638600816211
0.8316952468231592
1.5084813336134384
1.3628186737000212
-0.5781023319440525
-0.9063003804248461
0.6061537177540147
5.0364683687284675
-2.3346067460047375
3.818738110320474
0.85066361896041
-1.2500445495085537
-1.9098737888528405
-0.3298072958936266
0.5169513681333355
0.8937622663702327
5.469733961966154
0.4037458013407246
0.17229166232537624
2.0084312265982285
1.885823200127089
-0.3705935777764818
-2.0803078094785317
-0.5892675712895731
0.5851943455155206
-2.784996303815267
2.0458268229900134
-5.206405226667502
0.6692990269840573
-1.1291662496977688
0.7296664684792095
-0.22332563036736122
-1.2120511464077686
-0.6511891788425503
-0.7094311912148121
1.9749526324444497
-2.2425847451422722
2.616784040170366
-0.2723197744824371
-2.5707448218670264
4.95405718573534
2.90054023193182
1.9347145898911413
1.718269619043589
0.5893935464672092
-0.7814253928337234
1.071159684926227
2.4415206817406316
-3.566006882085737
0.7133953430256113
0.9061339919824585
2.4581415545145324
-0.15127758012940182
0.11800075845456613
0.5980468140541157
1.8836353068845404
1.8093431121406776
-0.6858900006722779
-2.389894065307433
2.196209681718031
1.8703152851992781
-1.848275501815728
3.4791213608600224
-0.924957487731131
-0.7352159808500431
-0.4635017719996096
-1.841067593171221
-2.2685759952121165
-1.4663511991763991
2.4124221857138144
-1.4394186192570877
1.179097382602766
-1.5610126015637342
-5.271559108773078
0.5618173487520557
1.4350948790044458
-0.1492569325707273
0.23328953899543162
-1.3224510556230071
0.04835649290951184
-2.2994048911531726
0.515877038109614
-1.753037593753866
1.814681349089691
-1.0293611455185674
-0.13876071430648987
1.5137409763649183
3.0651605840082525
-0.6360690068067096
3.209345635802924
2.026345769247225
-0.581244914119494
3.8826604299205374
3.797649640614903
-7.036458179169968
-7.459356398129468
2.277160320078977
1.1887737846454982
-0.2944092534304483
-1.7528369418453211
0.6767697949178109
1.8594062833405212
2.2416668089260217
-0.6094304148161581
-0.9177524473596258
-2.5743616718322424
0.4960038389606949
-12.004385403988604
1.7972655339901868
-5.1545356299621155
-1.7316664272231228
-1.5464285567772946
3.5003677091889607
-0.975540348529893
-4.056636798268338
-3.825614018908504
-1.9317477674249814
-0.45951238300184655
1.677482426603019
-0.3661286289080171
-1.4986969349777468
0.3526679582425781
-0.10455447152903079
0.8903035836728203
-2.866430778069911
0.05814722665432971
-0.8091215047791686
1.4541671780127134
-0.07038502318660955
0.6565696511054603
-0.09240783326060212
-1.3852453475552924
-0.43667277418105643
-1.6176412958818172
0.4982086630576022
-1.9212989505991973
1.4395331301038594
1.5686893207328103
0.9873473400944994
0.5189273708511538
1.3933908317734707
0.21146360439892822
-0.23504871812821726
-0.2035443360066056
0.47591342097289674
1.7490236908351833
0.0022050411068131057
-2.747833039711189
-0.7990342286695278
-1.0650345865527944
-0.11617761056359421
2.1222558272061156
-2.323617761393179
-0.8232794831616318
-1.7880197050161357
-5.306784091858644
1.9190491724457275
1.2892192554735764
-2.1652016746720215
-1.9232330726167504
-0.7307075321999267
0.6432943620796551
0.7298474432871234
-0.04565483118111641
3.4757767242640334
0.11062118212521227
0.7283607457772582
-0.08574979821845577
-0.14599622011156382
1.5390018563834098
-2.9727640053318027
1.6518386743154518
-0.0672367851059156
4.561276964445585
-6.001362287336268
-0.16587718829630715
4.917971058288376
-1.618632377927216
1.3975435758152868
-0.5683935400528922
3.5904712919009785
2.881379530458211
-0.05464201100976674
-4.17307691099812
4.794567802311555
3.538654464043062
2.2640541906019034
2.915584023583205
1.8444711410817731
-2.0573277468897038
-0.6936980702188843
-1.2096265852233026
0.06317640949825838
0.11137150231473734
-0.27328337947616094
3.4249337060833525
-0.3756799568356577
-1.2805796831876621
1.058834351613209
2.032391944523869
0.10490559652337446
-7.46299928598185
-1.0586983052362795
-5.335972822713634
-0.09743659574146588
1.7726902368709316
2.17582259537982
1.3054002666740503
-1.2098887993990108
-0.3277325048056323
1.520171272276392
2.257450687842552
-1.188293823307595
1.262944390130293
-5.336543361074058
-3.7827285617338906
1.197305885565452
-0.5681135671689588
-0.9586658316336589
-2.40219850904204
3.797123472608863
0.28764089594766684
-2.6836094238067414
4.11074937729836
2.6137644475731903
0.1346118592087472
4.765192542998769
-2.9050063986135464
-3.5454916130667122
-0.41946995477930155
-0.20574556635953642
1.502269616146707
0.0289789418869983
-1.4661922934629097
-1.5545520048465702
-0.6474178643530449
0.5621805848098865
-1.9188526654848406
-1.3153510508799882
0.04844033732287881
0.11502920374984063
-0.34072648306115033
1.9632894609297136
0.3005427991111762
-2.3203234175889866
-0.08112121253649858
-0.919329542702792
5.670511182670525
1.177901022876464
-2.1932906607427025
-0.7228375628083106
-0.6689028455845215
6.041911144710922
-0.8726571482178381
-0.4294797411301069
-2.4743716745650874
-1.8277046968301573
0.7662156854539822
0.5083905666115822
1.1211958070048853
0.530384291176502
-1.6358581462533823
1.3098675843785574
2.015291188571328
-1.121439384302787
-6.564807742517516
-0.24243964672266716
-1.9382509511141237
0.8979469301638071
-4.950441841464462
-0.07149550940588476
-0.3215226028819828
-1.768663532874066
2.7435345550862476
0.7730489089151662
-0.8746141382004091
-3.3046575909853653
2.6231960916220554
-3.2782143429560744
-2.2408773635994064
-0.23354905855320077
-9.260271380504538
-20.24386558328812
-6.860379487094924
-5.482494008593848
-8.126797032757356
2.6836508479522228
-17.725258369043654
-16.52080028556667
-12.904765103890243
-6.282914247621676
