-6.120752756285835
0.2848024556230661
0.46413808291317343
-1.892792311098341
-0.733912768468847
7.789298548797898
0.45237682745433394
-1.5979827835467946
-0.4453791676200585
1.8501271166329627
4.695753355332664
-1.265924734784187
-7.288681025678592
-0.6396865342588883
2.787874006403434
-7.338985737375628
4.099571104048786
-3.4899918368299723
3.9163384435095883
-2.9836571537843795
0.5370460152243752
-6.146976888532801
-1.5369613394928547
4.647433724683027
-3.2192538365557652
-4.241169955416871
-5.433005762183468
-0.15255163911598824
-4.31855082598761
-4.001119540954805
-2.025218023702292
-1.474493229081649
-3.3893847673516637
-6.691799176463912
-2.8908762007105673
1.719133187456343
4.646883914957201
-1.6879482628890454
-0.1835042211268401
-1.808226370690238
5.050808895044068
-1.4193615594357136
-1.7391049480426155
3.81016474481387
4.4690770411000225
-7.060662468171248
-1.4659210975488235
4.98389737154048
-2.2170865529477757
-2.1745739850569787
-1.1808991776604554
1.3269512336419254
1.3950478391528747
-2.9347955541732276
-0.5440642047725297
-3.5097635714433792
-5.555191298643064
-6.356114728618225
-4.3808902633271485
-4.750445461425253
1.662793950608833
-7.292525007062546
-1.5546429201432244
1.3325943983542825
-1.7881316469662092
2.3130991878122513
-3.4201412033629888
4.470639753693843
8.057953425709819
-3.4510480259584364
0.9705790181360753
-4.253691684668827
2.109262341386636
6.65538578543935
0.18409440206014388
-4.486668311360288
-8.226830066350066
-0.22906693931694452
0.5595647352278215
1.0046721766190463
-1.61188865449254
-4.386858342204586
-3.3429320424099656
-0.049770077615997985
-2.1848374415704854
7.052404719739105
-4.125271235023428
-2.8758003818307336
4.979064001576566
-1.4178271770322968
3.9619577835383377
6.5302908830981234
-2.5446434093732946
-4.260884834099933
-5.015202609981689
-6.118944319791938
6.559353651819543
5.625179081509279
-0.6540669917176487
5.974104717207509
-5.083875405881042
-4.964879799232484
1.4787124472164155
-1.2484250263688368
5.2103950623408775
-1.1635645696051204
-6.30220534019459
2.8016888022818582
-6.72136237242946
-1.4803151137376882
-2.3570637258133362
-4.174371626475383
-3.5540293493012993
-2.3693203484308754
0.8370231403763527
-1.3003641130693129
-5.358420174879974
1.4279651675240124
7.044100317228656
7.513889590530776
5.013154400898782
-2.1000699840824195
-1.2810813973967419
-6.067979967302562
-0.3173705741478922
-1.1658207318315499
-5.024733220193335
-2.6544994755828433
2.2759122482340204
1.9159189485548032
-1.2224908512422632
-5.969884817716884
2.2861516315436927
2.8008376829551294
1.02944286659499
-2.914872196267543
-1.4447099696429062
-4.516558622439414
-3.1657716336055843
-3.1723371292797147
4.540189608048962
-8.228124201686828
9.403907746291546
-1.5378285796169606
-8.067849096772392
1.6339578016048644
-1.7884631723248299
4.488733331593565
-4.261466158323704
-5.284868785927312
-2.7840513395683817
2.736046404706079
0.9363968144552556
-3.7335072674900553
7.940870257516787
-2.1377380040533245
5.455430278014739
5.814453528044846
-1.1950035566979416
-2.8949126214629226
3.3473555142928504
-7.24754434775886
-1.3329956590315968
-4.714858664214919
1.356129691831557
-9.354403161243862
-3.6603473392860484
-4.181633768609723
-4.246075387580103
3.5819395900398647
8.158192716992101
3.1396297818032406
3.2740579786691493
0.7185429236062746
-0.35957945931057345
-8.499851552595178
2.1951749599659296
6.753784000647366
-4.463109860827104
2.7448905030802297
-2.2773276793892627
0.08487651440838681
8.554526647587862
-0.48374084996341926
-5.011003491150899
4.397172851881457
-0.22052355360946796
4.360724910041673
7.233403095479045
1.712669362966771
-4.730854006997766
-4.5836120198572186
-6.8959590168478115
4.095801838698913
3.553898413937406
-6.0828514549284876
-4.031763536658434
4.300287994462778
-3.9016223154371876
6.401227389500863
1.859043202461689
-3.210439236938507
1.7406724978314587
1.747274821003489
6.134539855498703
2.3852644749198384
2.5364636441151585
-0.7936776621224712
-7.4115981227488685
-2.793442476852305
0.9326128563184
-1.0936839286602738
-6.3821301610004
2.08835287502988
-3.826571886371643
-4.304218488992645
-0.3866215001469778
3.661022712882576
-3.9913464276289594
-0.8764071344908848
-1.6454370530978117
-5.321654819112244
2.0932060657750227
-3.2724927116020197
1.7638463838003064
-8.242666749969779
-1.5774429895563356
-3.5963505181717164
-4.5236392279581
5.441669702961105
-7.032449047496299
-2.038481206737984
-0.2082330243032812
-3.426317678851196
-1.681390948486662
4.735974485302158
-3.120291437651717
-1.522412732865498
-5.511550388717782
6.0356246966748905
-3.2824495694527998
4.070276464377233
5.00913047214886
4.600664117730706
-0.8092626038356502
-2.5157829488764087
-7.884971111697986
-0.3029402485824056
5.016114943303344
-1.9279560964064792
-6.429752746369853
3.0032798790279185
0.13435502838046676
8.3245064874194
2.1503676487072862
-1.1435737212460149
0.21144251838133418
6.889268651367031
2.389082263515097
5.969322828731634
-4.476601854821111
-5.378961294409554
0.6580688393995268
-4.502212453832917
-6.676435424695515
-2.709573930402467
-9.333452197353092
-3.3222494285942967
5.834683379189906
5.019498371941942
-1.1876353242392206
-7.474021640245879
2.8241719067598603
1.9629913177363174
-0.5866466228222248
-2.213219579490482
-5.3399030241528935
-8.195246159344752
-4.642313938425971
-7.772242473297248
-5.337182322836908
-3.3404059281322684
-6.772773378461236
2.712838882428372
-5.294406737256685
0.2258934829244357
2.953366625815587
-4.776361899984668
-1.6293853220062176
3.6400806011379427
3.154821276562477
-8.61675341952565
-0.8219240800275577
-5.173460227300377
-0.4505012818009899
5.842672947842975
-3.102923270306569
3.258334018493798
-5.230823373672386
-2.1556750061132326
3.0176150606257095
4.270807578190306
-9.306650295075528
7.3153183209343
6.273124103092909
-3.46875154753875
-1.979941604019755
-4.124720721115402
-2.0702494607330166
-1.0143181851320018
2.383639044076114
-0.9944107362869133
-5.551067281534659
-2.62333766760309
7.181155022641242
-4.941051471812571
2.7756002715679493
0.8480039320872023
-6.790157900809298
-4.717775709359084
-3.321102853124149
1.0130525086751687
-2.7080879987471835
-4.368836736850232
-4.734030925493883
-4.329186556516558
-2.2547502614198933
-1.666485825373952
-5.2370512873587085
-5.888533573821892
