-0.283201155832085
6.28643413070472
-0.42650066536658354
2.8199925787924256
1.847324909468402
-4.277675672294713
0.005626424934632427
-3.1313669049215713
-0.9179798592038586
-1.1767715803551648
-0.3119693702567048
-0.32499755882654313
-0.9576542174113987
0.6233200970924728
-0.9307908615867051
-1.3682585515141985
-0.8982345882327404
-1.9498822087682317
-0.9376220018224716
0.2691101527191366
0.0297304883324978
-1.5018794675785878
-0.8096602058278538
-0.5637970520107893
-0.46430003232007344
0.7377726331892848
1.3885245587375128
-0.9839572748512454
-1.1766460233518297
1.2717600091267154
-0.904094394161542
4.2852111531262205
2.533371286392156
-5.052050663638572
0.44037729880586973
1.3642910348234207
0.4695834849013027
-3.896903244275434
0.23668112875760744
-3.9358967951302852
-1.9008277976650412
1.3628951093881234
-1.7036401415269196
2.692385248136897
1.3394565487902097
-3.923750278219357
1.731396335267453
-0.2883658020972031
-0.9186435577080907
0.007241117274185386
-0.11335582513772405
-3.499985582085932
0.639786491154649
-4.013870425054985
0.18548629149451085
0.6713642797601732
1.752646354484892
-0.12810854051140858
0.4827273084342033
1.1815917980093729
-1.850921704857825
-2.6647504209699013
0.16233299847538485
-3.8279182304298054
0.0036247740451429452
3.633074247240606
-0.244730035438269
-5.034447402582042
0.42527086166237543
-3.854519315934947
0.5325268262773103
1.350649957973098
-0.7505021779747697
0.005627723639164922
-1.5715004503315155
0.40506228565976704
-0.9148074197857019
-1.7525799160149624
1.2158961979953333
3.9693723007846695
2.7830332437509737
-1.5143087403507915
-0.3623037449012615
-3.8281489546062795
-0.43574166186272933
-1.8433223814333095
-0.888548676771304
-1.5541357316045736
0.03819312522134913
-1.0410833565292255
2.6223728135816167
-0.3447997063780397
-1.9897445641396536
1.5808975646667236
1.4662807412591523
-0.7986089887088799
-0.8934506981397132
0.8527117967395635
-0.18573908506033682
-0.03865196073689433
0.3592580619981836
3.3405632492923854
-0.34800755495892904
2.86789021914557
-1.2079361715041192
-1.3211165476307245
-0.4313686009775274
3.6136927059085013
-1.7600421798630932
-3.332522767870672
-0.4577413296705034
0.13641641769330504
3.179457164674231
3.8144102014819063
0.7130701708443478
-1.5378275089721747
1.4006663034716136
1.7982462457775454
-0.8312660276544378
0.6922565917251106
0.9066070853517713
-0.12528468650923813
-0.2621286009482163
-2.512941893028072
-0.6189820350224239
-1.9826811021105533
-1.2355977115393197
2.3296805871806257
0.36630624026728925
-2.839850880795713
-2.0009733516054498
-6.329148861466288
1.8576763125522446
5.743605545325076
0.22762371252769076
-0.12749183122300992
1.1469393459435693
0.9985773002360961
-0.39865908361853775
-4.246049286897993
-1.6076193305423392
-1.5716600164792234
-0.1022978765858989
-0.44749662748170127
0.9743199769514216
-0.9120043621888416
-0.6549659267334168
-1.4497533819664294
-1.2651226521664956
-3.5207437481295307
-2.1878011631583343
0.11617394118005717
-0.30719868603340605
1.4299195129903222
-0.15257626756209788
-1.707302245997488
0.14389789273429568
2.6370952603568965
1.017870383862404
2.695485176018939
0.22038097204956558
-4.778974824693493
3.031235747676038
0.13793411711608497
-0.2407165767736536
-3.4725879097108012
-0.9368351449480316
4.687545432208947
-1.4444956862925806
-1.9919122777253744
-0.4572264011064124
3.916530712971656
-0.7817102945620722
0.36508055289143354
-1.0589167408701112
0.39906622172006445
-1.6562470135183616
-2.0173858695345714
0.33149587686065896
0.4613984966891351
0.042856237759848016
-2.13131229875811
0.25972682450936063
0.9713844179543799
-0.21259251536789864
1.5536308798137397
-0.09444643945121224
-2.398481212802387
-0.16412585644156064
-1.613313143737426
-0.5964648321122339
4.704007904286582
0.6111479054341922
-1.3774927860057413
-0.522821411764183
-3.3927412656697475
0.45724697469423503
-3.6284951841076114
0.3067135396154328
-0.005787390967461997
-1.3462100625899729
0.08213341866486251
0.2047583104049369
-2.4711541785276854
-1.6703054019607018
1.2324315583666896
-0.459864218380346
0.6332783572394708
-2.356758375315638
-1.4031761281945434
-0.546536635332433
5.813541934331768
0.6070464034846416
-0.5929325803556528
-1.0746631282571362
-1.097587894201693
-0.6350679182397938
-0.7649170716721311
-0.7161807476448874
-0.5484500290740445
0.2588208228789885
1.9659057805969415
0.49176203443830485
-4.576923368504617
1.204041711971087
-0.6675190603240189
2.2463548489848026
2.4842290364445443
0.3442412750183225
2.1900906069099024
1.0264525289152364
-2.402281911559604
-0.8470805208425903
-0.5137909379923109
0.1936531587316971
-3.4687620307381555
-1.330182858301851
-2.6685356245255987
-1.1870479082570615
-2.4459974171860686
-1.287073726389009
-0.7099099159728023
0.781325958621402
-1.0059446828988161
0.47228270576060855
6.311219160318385
-0.3522472586668794
0.6326710222783364
-0.2030743307509401
1.639551605658627
-0.8238692565647878
-0.5568356533189834
-0.6360666960206357
-2.7077064777249737
0.4487263693317774
0.9465272852392125
-1.3266800278431687
-0.9725483909241329
-0.3301110481629937
-0.7656806131186568
-1.1854413456646906
3.263197223895372
-0.6750546212171451
-2.990599678466622
-7.684041644037379E-4
-2.525438854825764
0.00216321708339045
2.138083207455931
-0.7308344752563313
7.209034982163649
-4.035599305740543
-0.4881317815475529
0.5316844798001816
0.37846044572856813
-0.6247475049037338
-1.0501996606977972
-0.09488355895494725
-2.340055256938595
-1.699886720505798
-1.66293794921007
0.4193733390222987
0.22964858003135902
0.29740947319522315
-0.7956677516127124
2.8425546136274127
-2.1080849833267115
0.5898071009478685
-3.2429467518180166
-0.00878142364479128
-1.135307904779684
-0.3974980885343319
5.579665759756509
0.76386115823193
-0.0698300382369596
0.2406737075486152
2.898957649884969
-3.616026010026202
-0.7873854051119168
0.13550121415842015
-4.07308969695567
2.0693780420308374
0.3130831182768897
-0.6163412857433684
-0.19793300713468442
-0.9052263717340899
-1.421969615580422
0.8476967194006612
-2.8892471113245244
-0.46792513939268865
-4.6548874422153155
-1.122234383347392
0.5491810487539299
-0.7499412936923032
1.1693525363807946
0.32235726047709196
0.37324532146942474
0.07307936865239584
1.2797179928460445
1.5245906051984517
-4.076392081679829
-1.7225806400638706
0.9714420131963856
-0.07557332551487336
-2.125106839223176
-0.6660870665994844
-1.3908410005374747
1.0762889854248379
1.6477808967066052
0.42528737368955505
-1.685379761309153
