-1.7006464031496824
-3.6001199237894554
0.18904390678106747
1.7565617290105824
-1.9115577817672964
0.5579417272677999
-2.2889307332447673
-3.526648256750438
0.2782472583191486
-1.1557372073877972
-0.9915770311023635
-2.511327621912491
3.000620710947743
0.9754232478022536
11.049121578605641
0.036861697292880684
6.935567658800782
-5.412264985482176
1.2717177805584488
-3.7013700149532003
0.9629274500819834
0.33321761599362676
3.348116826707034
-3.3315577151603226
-12.277051874817937
-13.219547314697488
-2.482427286891564
-0.3153080743492706
-1.5857595402986444
3.6309959200122934
5.306585473575048
-1.5227380495787688
-2.545233315768841
-3.297509238736435
0.31840032207047614
-0.8367687448754215
-1.9682706614785699
1.1318814977882483
-1.3818507439773073
3.9511090062535836
0.09228985407706997
-0.5446444744330127
-6.53541407306453
10.771696868718406
-8.447556368946175
-1.670323137916603
10.40702952029934
-1.7500742696036633
-4.828523835236012
3.2251274065260147
-1.1497481287743627
10.462972316797677
-4.643481275991666
-0.990800389359398
-3.1772298529314287
-4.226255117905231
6.623612733858497
8.87461666110124
-2.510567740906519
-1.1365804635161427
6.5978137038079145
-9.640640138899814
0.8828051495672253
-4.683949273651042
-2.5163937672662713
-3.302663148005866
1.328669091868592
-1.7134010128318908
-2.011878642759137
-0.2193531266813322
-4.559955966148096
-10.74762430163017
0.4862011951037267
-4.274420101453516
2.0404526039301945
-5.546617541830554
3.516361183353205
-1.424560211466555
8.569549782514153
-2.6888914326650073
-4.777900446344352
-6.959964402978785
-0.5238376598956532
-7.41831944850029
-4.94615962196586
-0.9708048065848877
0.2753061351707947
-3.4829487492959212
10.060238141987613
5.8802336728465185
-3.0316916331775836
-0.07059167902128144
-0.7881442961958498
9.20004279162908
-8.35835130251575
-1.921804826230779
-1.5263781501974905
-3.41912573160431
1.3259406319515366
-0.7143328785916012
-2.609546618204442
1.1187213808482994
4.7930462181709
-1.606038446314483
-0.2796960602559837
-3.907070681715546
6.543578690914257
-6.325708142280321
-2.4842970723852114
-0.8293070536648136
10.276410159721143
-0.735765110054403
-5.326727743783268
3.733530124449942
-1.055205267063405
-6.4913039949377875
1.5967565529129752
-0.31105158215417245
0.5643960473735504
-4.040516083284061
12.211457768231716
-10.567687878762
-4.434824051145351
0.805503974599226
5.374462890502502
-4.996869329448522
0.4477643875875028
-2.2149104853018016
0.22430767328994533
-3.3849251445823008
-0.8757835140925893
0.3261285801493898
-1.4577821650778564
-0.6043058143895021
-1.224047467272447
0.6595002375594268
0.3925606837970191
0.13512799745068838
-3.105712881711976
-0.8240456629657078
-0.3602983277598164
1.2375487696899896
-8.64140961061712
0.7327220858665197
-2.8022155848505994
-2.5355882153508382
0.07724640782404896
-0.9159742893157965
4.518428902570983
0.8444661039739382
-4.080001579736924
7.003564543746951
-6.639517118669242
10.808490946708602
-0.6418153211205584
0.11703149759000497
0.945266451608691
-0.31171284231574925
-3.4339485891823593
-1.2241610779267307
-0.3343888162772428
-2.8884883024702686
0.5633530991421426
0.53798457242504
-0.9580874566596902
2.303900111785632
-3.7956571807845676
4.09040739278514
0.7567902298056667
4.73447339555021
-2.0910449610745085
-3.7026098486688217
1.7291834585589416
-0.1534140442967367
5.904936969123809
-1.3130411784634568
-2.5727114036829013
3.035108496233704
0.5243705366113608
-4.637645169578721
4.527431155241472
-0.02899813688378099
-0.5958653479781847
4.897630110109986
7.029649594306829
-7.358345273906817
-4.369628213023938
1.037364492427925
-7.623919472857003
5.3457082556193996
0.9323676986066246
-2.1870511650610234
-1.968046186374193
10.166907260661587
-1.6739259098831745
-0.13231236771308724
-1.1704107084726414
-0.25581566065043493
-3.7357184396877616
-6.0518175224199595
1.0388961826510954
3.243393403426942
-4.594388853956274
-1.2670310322724254
0.4419500291425018
0.38622813001431944
11.414037960040002
0.4333869757785782
-3.501997412127725
-6.024648426841851
-0.38818612451830803
-3.663706962130271
1.2686105376504553
0.40246688832969163
-3.6093217663926533
5.359378744958
-11.555093527343933
11.789320713165662
-1.9427118975769995
0.8757747909956357
0.2229983029740554
6.494293781682041
1.3096182164299917
-2.5286502190558413
1.8910642442052792
-2.7779065862367625
0.7928497847508192
-0.9206002226760075
0.2220095756135748
1.1432269444836751
0.20298590178480977
0.15116200902215574
-0.40657369064568527
-1.1021813440835249
-1.8128648788492663
1.6936428713062843
-3.5586288398199284
0.7042946981596666
-13.295295786201605
-0.28148041797544543
4.416668369002777
1.257512361339657
-0.3029136571746432
3.3995251431475633
-5.423463208762244
-0.9870001143041289
0.3968956887137239
-3.563500443875235
-1.2222571246928016
-11.717625715764225
-0.5386483966333151
1.026268695712288
2.8836327831096087
-2.460789730014969
0.6457591329308288
0.18790396543668592
-2.6535002655729953
-5.0211865963970155
0.2582879985307374
0.26692866296926937
-0.652012228152864
-0.1874614704293872
-2.4654210510546584
6.62945583870026
-1.0936931941859869
-0.2886010380934633
-2.0356281814595016
-6.9589615534751275
3.26293225635592
-0.7695654921646309
7.565291147176137
-1.2455273502589617
-2.683979392076646
6.414671329877368
-0.9787097380435033
-5.263012689494498
1.354914798594729
0.37186848700330344
-0.2732141800476685
-2.6752569370359334
2.965177451197002
6.933230046692934
-1.0796364987473959
-0.210067981833546
-6.2726867259422825
-3.350464547191603
4.437282174799979
-1.9506906547859337
1.576159696385595
-3.002660031493408
-0.37260664828351653
-0.01363780066887248
-0.5105947336624146
0.3973244379091539
-0.2284924015660397
2.592667755955782
0.1990939056740644
0.43575837411894336
-1.7370012115510916
-4.540560905839017
2.1086172770378293
-0.012819888208754114
-15.242055086423928
-0.7560046890554477
-3.008973346151488
1.6102270543395194
0.6508106627222143
-3.1683189072887927
4.00118739231883
-0.9276609720511341
-1.0002096799738622
-4.5322532748433035
7.841824901574659
6.900203128118307
0.13654097987793584
0.6056245338599862
-3.6650730801114615
0.7726498997939968
3.990501871562387
1.2123530563121994
-2.391690859643507
-2.316670712095374
-2.0312250177895113
-4.17952666489474
-0.621730240391674
-0.9085847849184611
-1.2963382205427625
2.2693015814551334
-0.7224080934570042
-0.5138193749589753
