0.48178466540921155
-0.5462777773159151
-0.6488593249555243
0.3292608688783601
-0.47180101640581196
-1.862428111132949
-3.4666242928131443
-3.0686564034211723
-1.5783021065786813
2.7477187176894367
0.22620494915632153
1.2127299819448691
0.05174824651711513
0.8828235167075331
-3.3177062830024178
-1.261072099465269
2.4455474912583863
-0.5176527698496406
2.129405480436987
-2.9135731976995274
-2.0028202224929084
-2.563153127206436
2.7135527262490977
2.5767855866590472
-0.780756571440171
-1.0345550529529675
-0.9332991761915036
-2.959167245192691
1.5182565666353807
0.5166015356219666
2.8141964469687077
-2.5623396030432812
0.17106984600019903
1.6853122125728472
1.4278749560373445
3.320245234231139
1.299885144702063
-1.2874644882588695
-4.2187941797216
3.538795097587121
2.9597029562715353
-0.6411493060789213
-0.23868738654521818
-0.8810680309036728
1.9349692272842856
1.3634779868875826
-3.0243959048114704
0.5828641265458216
-3.8640962135560075
-1.6981799415122676
-1.2929464135957198
-0.0708494883918731
-3.894794608672057
1.3479965329442545
-1.291040891558097
-1.0070820357325379
1.6276448761152604
-4.0722437571100105
2.23974702568909
1.6742421807424284
1.2384578433735651
-0.3098457955690658
2.407588717138923
0.5228275233227745
2.188069244362003
-1.0727110147165808
1.6553298557409273
0.12894890084533972
-0.19003114806004096
1.8714446540844099
-2.150525435465063
3.1517405685682114
-0.6388736449445227
1.7694963282493286
-1.3674291692443192
-2.0354948868709464
-2.193454825570722
0.21995246221581696
-1.5976155096543343
-1.8574518832652256
-0.7958939686511993
1.4553076819511634
2.507920011982364
2.5072254918987746
-4.042568388741301
-2.314843951630925
2.7403636492834442
-3.476205361660737
-0.420153350236512
1.88093627500681
-0.1947677387065515
-1.8843272358449406
-0.24670150311498343
2.1127076703601366
-2.9683752281487847
0.009015518016902752
-0.6994367312437457
0.48473917617818946
0.29373285367266183
2.1748261423092576
-0.26250188045554174
1.2820847557243156
-3.1460216153951484
-1.6945418375347001
0.25845686905076243
-0.8117110553579697
-0.4695732167937431
1.7304963078980506
-3.147592271449443
-0.4869363805792228
0.437760401303803
-2.123288540599748
2.519972614494862
-2.421188972449586
0.4809544114690239
-0.726586012780094
-1.3011759954342788
0.21255932166558683
1.2938056646241958
-2.5937574202152445
-0.6953058731474263
0.5223659363949821
-1.1033330126264707
2.1096374680018313
-1.1705177071700632
1.7207454944683342
-5.232279044049166
0.020590574743225024
0.12952711107151846
2.2437909457491663
0.17388736727982249
-3.6703503762916423
-1.7970221940170767
0.6150611973289994
-1.7431145702581645
-0.7845730129222365
-1.385907709077941
0.739494977964523
0.41301995374717754
-0.002423192413364404
-3.75600337617892
-1.8497891806790563
-1.4729189916598138
2.3415804127560746
-0.7268141499428241
1.2672502432471409
-2.2840483157204754
-0.8877334055649662
-1.270866407282985
0.3427830735463549
-0.8895319791523613
-0.13427859149669394
3.423428607049398
-1.4438402663019871
-0.1568162453680805
-0.8507002463218208
0.7897608361344123
0.2710389306583224
0.007420848607531466
1.3820392445134757
0.01527630889551811
-1.2454915094551835
-0.467990086439439
-0.2251398664687518
-0.34525981400217515
1.437833595814557
-0.22201713208398696
-2.651735290908926
0.5744393014835174
-0.06134393244448694
1.0967952096861373
0.2666933443308389
2.793697123812946
-0.2223411377669117
-0.8777734772919893
3.5908936463834396
0.8309506134373043
-0.7995577974065797
0.4016763439482593
-0.41004529501243187
-0.5192138659471818
1.696698325758587
-2.292169174778871
1.7466715310869514
-2.161907534003569
0.032302617220034364
2.866347828264252
-1.3596203715812483
0.9616289067426673
-1.4287193047251379
4.022091364447727
-1.8193048471507687
0.11849254954990679
3.9102427476210226
1.0622573783613851
2.3089944156239657
0.7245993508836955
2.8182979367472623
-5.7661642677070875
2.6055009444402875
-3.3544728666660637
0.5031211322528558
0.4462946411160475
-6.865779103385574
-3.8029434762747774
0.8280507598178577
-6.526777865975485
-1.0549596827800625
-0.029825487619422088
2.020834942215448
7.315640462137756
-3.7498173746540613
-6.3934969256119105
-0.5764626699168374
-2.746461876962951
2.320287797625592
7.024858063625762
-7.689984509875718
-1.1016284767942592
-6.752508361637476
-0.26583572872003514
-1.9497509799152806
-2.7769020973190113
1.1608589681207324
1.2312056695335245
0.29746529891206036
0.37724990107148104
-0.29586844864873746
1.933451969691573
-3.1997602746160525
-0.4422579626841574
1.139580601133809
-2.7961510280145707
-2.376436359982867
0.29034437663648915
-0.20358948246488975
1.3291429377465245
0.9766944327916067
-1.7529431192006986
-0.7100870927736558
-1.068241986749762
-0.26333923694817085
-2.044805905231312
-0.2985134558822023
-0.4459717771800754
-1.8889608482001754
3.154210717043269
0.49662273788981337
-1.462805583350969
1.6933012082195875
-2.8194910966810345
1.0078189430296398
-1.4603677143559595
0.4444785911281118
0.10994258457080056
0.19810607251870616
-0.7465150923822607
-1.3870845020862077
-0.061831009936224875
1.3743549387851208
-0.6569016224205089
-2.2833490688506997
0.2299283320132941
-0.697395973670485
-2.130918074825462
-0.8443098036017797
1.6915815613689331
0.8310068438710795
-4.08999926848144
-2.381724920942153
-0.8443620998857088
-1.5682665358066479
-1.8581385712128482
-2.2073067355092086
2.099985432245397
0.2075369218373136
-0.3895641879711907
0.40096181092849903
-1.5786835125290646
-2.5865894585251787
-0.31635433459148965
-1.8182553038895402
-1.2319013067171758
-0.5398945737253039
-1.0204867854153066
-1.3441633962747934
-4.827108521198566
-3.516697585984281
0.9914621303935147
-2.064118444914437
-0.9576840456267348
-3.3794340386712016
-1.3371895756013454
-3.561209591655067
0.23520355613381633
-0.2558754665229046
0.4347600924523116
-0.4334795626207342
0.520709407350083
-0.938725460036141
-0.8236065950886309
1.6738482863765598
-0.1746853523083854
-2.911330247533766
-0.9607569917892701
0.36854197703588343
-1.1910281108033387
-0.7356206310505725
0.7748650485700244
0.31925259236639325
-1.1670689413912128
0.12432812990083017
1.098768956626819
-1.8919874912456633
-6.5833597401655375
0.682435633115179
2.4766762251968637
-2.639987958788453
1.0740923795676367
1.3113148259603105
-2.188412598746936
-3.1139304654365736
-2.5282582732188046
-2.955936332251804
0.9249584574079462
-0.12510479559970442
-5.724426669292552
-2.297694293808274
2.07047810251571
0.13285403475980823
