-11.684552399426181
-5.211449225089552
-0.9946431065407554
-8.469546118110824
-1.1810233496053408
0.023458693332174388
-2.865119859874864
2.8453095565405193
-10.558670085548096
0.47247731635841744
-4.092456832881227
-6.052830412752691
0.6722577645030161
10.239866441142622
-3.6251203514981856
-5.196710581652741
-15.925516162849595
-3.095035772144071
-3.875986858188526
-13.55094282663405
-9.789718937523848
5.345690758966912
9.238722813695178
-21.118730629561895
-4.805603621555938
7.183858324113641
3.5865742369250015
1.694746232816378
-5.302100578768867
-10.913129031509524
-0.29132477345435026
25.74937005312573
4.825703074722145
-4.435356367384246
-2.4706653538345593
-3.699256539194912
-6.733878305116306
12.22766107919178
-2.2090833172902116
-22.196015597838777
4.5450147756734784
1.363258510859059
-5.882822987677455
-8.190176426589362
-13.548826791373571
-4.532153796950927
6.094706064809411
-7.269463359559542
-10.336048290388199
3.4027531792207313
-4.158189192096133
6.104665110674292
-9.101828805312644
-9.756010701793778
-1.1177329264726152
-1.337877730688236
2.514011422058142
-8.82164617536127
-13.79344609820451
-3.859947329516263
-0.16027478474134846
8.610280123150977
-5.637634850457366
11.989614559527158
-1.3462170033535998
-29.378869487721357
-14.485462447245887
5.413914571490827
-1.3051013493688477
13.06991115065252
-26.040589368009144
-9.760319444780755
-15.790933661789671
-1.6041060363218915
7.380316517712326
20.081375421773302
2.5885669711785106
1.8747883440839246
-0.23506821780714524
5.370686544697419
-3.8103641461753153
4.985985774912787
1.2642257088174136
-8.632308728431816
8.337634623537312
7.457784418759312
-0.9859562305062645
-10.979326394855658
-6.344862090258801
0.14588756804635838
-8.907884934874666
-0.040906329730465416
1.0103680820258156
-8.708493928653404
-15.73585817539554
-14.238034708351725
-6.019800587726723
-0.506299701890262
8.519185431745367
-8.861099461393422
8.231552951200772
5.0859381375701265
1.8325808794557625
12.514488947345736
13.938067518122997
12.653743211313673
3.085628105646368
-10.89998704125398
3.100565400063798
1.1200231177159745
4.681231383546387
11.001078982466762
-3.452621742816811
-3.2697106022670632
11.854112733661811
13.504578801573093
-12.290905581375139
-3.421210251447198
-9.512506367947662
-3.6566536793445623
-13.578425852335862
-6.471861114316762
-1.4919758431770027
-11.84227777160495
-19.882289521148827
4.443581926125379
-11.891910420586179
-10.321001092732393
12.308591164152086
6.6497279107235885
-6.748205053458023
0.1783498893917988
-19.926439595287068
-8.118733484448246
1.0384222694731169
-0.8360911995969464
-22.544650607567505
-15.067454011853398
7.22146728771046
-11.517590758264232
-13.824791638609213
-15.329658781616235
7.864258639527454
-20.254496494006823
-4.5166191796447555
-9.54349236994991
3.3505646738436283
4.963045762306532
7.421520202140733
-4.791817515842105
6.309138627322185
8.953211028010868
-3.384879169427828
9.446930153911888
-11.806139897164414
-6.91809136302225
-3.808658603328868
-3.8309474412403537
5.138414341755997
-2.0726432842264044
-19.317391321000795
9.330283581286746
9.574721565208453
27.59190599556936
-11.881438864922991
4.570532426225751
10.180740458980432
1.1922625067215924
-4.716285047060307
-5.354888673110066
11.927171493079818
-10.008687338392765
2.7204617583811124
-20.383853167454262
-9.698309590298548
-9.986769406421885
11.329419439449525
-2.62102557664488
7.859463004991581
-6.922611504263401
-6.672694586443212
-0.0897053122351662
-6.784108571804581
-6.911160371167543
1.7068916308762485
-11.13371843344023
6.893839391904487
-8.7816107634169
-5.612608915028141
-5.180541710947837
9.219809512199475
-12.466704406954827
7.871316002712635
-7.999111655546391
3.503825420233327
-0.5540189591946619
11.052182785965174
-11.834447061046976
15.636284117849074
5.669401031509735
18.898473884145123
0.0834085553675834
-17.656923710591663
-3.940086962251687
-10.066860548911727
2.599268543183612
-5.132736205824889
-1.1691556084524148
-3.032565031209261
4.836318071623971
-5.4804397612383
-2.994850206063476
6.27097023620718
2.9189337003340072
7.5159704943727315
-15.897643163442261
-8.720888751814686
-5.434793860524473
-21.065936716683094
-4.754501496681267
-1.8266072890753664
7.632195667255244
5.344683213724237
-8.596761115140199
-6.893526045148259
-0.4246160741673485
-7.597035551556773
-13.232861678323363
-13.07225084863291
-8.82792020796151
8.197390706944208
2.531357976989266
-15.730931240024594
-7.889751436746516
-11.467139363493844
-7.593916622726107
-1.1089970476207176
4.670678368261222
5.239700739488299
15.558350850228413
5.030596559002637
-11.416328551727842
-16.721091107650974
0.5334796732585365
-9.20618413916892
3.2672891104790756
-8.133087969893737
14.196298576943644
10.107537455385648
-2.594925074752229
9.758199402412249
1.0967887657900113
3.923383834188112
-6.259385084870692
-6.925286666900133
-6.26024499397377
-14.577345423478512
6.7465358112904825
-8.010525164091574
-13.803529673285523
-3.439234058835892
-14.190384412985749
-12.04131001076546
-2.3498396330533753
-8.860787546543126
3.5091042399243997
-8.814346150739963
-17.178977555383756
10.407641254013152
-16.72511627263089
6.287134212450801
-13.277234672910764
-8.688373555119755
-3.5507873309858664
-5.587247142404667
2.8408890377492155
-1.0826301377296763
-5.646941814944293
10.42698103296332
-5.889408357609685
2.3382707783677783
-8.344435072597733
-8.22096684662304
7.62802514418215
13.794641868259907
9.125186797917038
0.7447321310633488
-19.75974090551518
-9.001113815523313
-4.495769774616348
2.497165666638528
-10.910586225003348
13.467448167079613
-10.494216646777595
-7.179374258674293
-14.364118009230909
-8.931458429481497
-5.9138423845247905
-16.403862318589283
-12.671434147383586
-12.237787176437758
-0.9499067529758083
-8.078302449998027
-7.616040635674321
-9.603718330638841
15.328493966314289
3.185122256636335
-6.397829725018893
-9.714943553427492
-4.242106853875301
0.7249265748013173
7.24369146156572
13.644443501608958
5.772763998867713
-2.957156220377863
-5.16503474078023
-20.62355706223363
-12.280725743615145
-4.591507417454078
-10.879090645431617
-15.563895086586134
-8.545247496877645
-12.060889325002403
-23.104983864932937
-24.548716989299916
-12.571418782897716
-19.872948471221854
-20.90709799129738
-13.204008140823223
-4.727084747237444
