3.0274692315605107
0.8845131190451693
11.976866248100139
8.791299786555957
-7.344879453463577
-10.465181519688228
-9.116261972320727
5.250795714917355
2.5582339030198904
20.72540661048612
20.03565996035994
-8.801583323622907
4.041426612835013
-6.391849150246535
-7.069201732520298
-6.435969530796619
4.903794241101747
4.184496004150478
-1.607548754613493
-10.103529462098773
3.0688233625510883
-10.805711828154145
3.9653940667656165
2.1536390253494306
-3.8521609042067237
-13.608593265992852
3.963322345544886
-1.7941542537546955
-1.2111853376434556
-6.118140680643412
-18.952103977890264
-15.728681375786493
-22.16643619682994
-19.72369152144715
7.900945334955038
6.581849506998817
-6.162669633903076
2.4389688197608907
1.5914945324495888
-4.237714426858892
-7.139387368058095
-7.438421950878019
-13.931083035109657
-13.694700770891577
-8.12020263610665
2.309519317793846
0.8958532386915087
-17.512097138148995
5.639436374597021
11.0049376604451
3.259380918834862
-5.304895318682658
-11.655432777438884
-9.600459537992581
10.667116473254803
-1.0063988002735305
1.9281609639096393
-4.038698674429124
-20.284502560496314
0.053963476020752736
-15.822501564375708
5.346470044446742
-19.00353866969765
3.2258284854991466
-12.814756042291071
0.0834856372708046
-14.440122192497231
-15.856891088832171
-12.965880429987696
11.626779247262425
-6.429221176209131
8.458466430373223
1.8684689906615164
-2.5100963265922176
3.372612992927106
-15.582418550746318
14.426966021604745
9.99620785338223
6.770153640433856
25.01621438499881
-3.12797863504138
-20.275814940315108
11.40557012071027
10.421480539811386
2.638258359081629
12.528898738236286
3.827740773499572
8.174375012908392
1.6820215250312585
-8.716822351807984
-13.050501715134413
-5.570186144641991
-6.7466593466183795
-5.409500848797136
-6.201601024647461
2.8747526436907855
2.884155392023922
12.96766291260465
-3.479670961541177
-19.24270799820189
9.846662893118232
3.3802770878487185
0.11973354478440479
-4.287370694983586
-16.889659668848427
-7.455317163665605
18.065124717304315
-0.072071568254263
-14.978152148904988
-10.03570859909003
11.117552532614944
-4.082730427407947
3.7052329770797527
7.982473928185606
10.842435529058136
12.815177352699017
6.377414140031804
-5.501436638401308
-1.1707859879067173
-8.798741714196723
-5.479955885404574
6.467891533846019
2.5144296712270697
-14.697871967990787
-13.759374102145632
6.20156579651177
2.604996994333948
-26.97000043797916
-16.166434915967862
-5.385445322589299
-3.3289817440867617
0.09695122292201885
-3.5306590696656674
-12.235039385341057
11.76583862813651
-3.173845296049787
-5.474677952780495
5.197902947847293
-4.141524567750447
7.244967212214012
6.471093199371261
-32.955865080062104
13.340516416558799
8.394509260658342
8.326413587607522
-6.952167970071109
3.3421622148082966
-5.396306111858097
8.697753802507037
0.545999629606903
-19.69120060954032
-24.536645902195836
2.3656573254237685
-10.21629417421322
-0.6920289347335032
2.2449564754125557
12.13681673165665
-6.967671838764162
-2.7802205868574226
10.520170786410409
-8.336708672035462
-6.344584945870858
-11.803996535194084
0.40209289840898305
9.392793798794731
-7.792602463813207
0.6941016117766218
-5.000913326683789
8.345957637585
-31.894734776751065
11.640359872149286
22.217105915376663
-5.651232309855102
4.149529246652031
-11.891112218858543
5.098830915604375
-3.907058642498841
-4.318968975481149
-14.787284020080143
10.440862034264077
5.398395654674462
-4.191792523262547
-8.541156237998315
16.364474676340553
-19.27544893340645
0.955676326871519
5.288390166203427
-17.30499842339796
-11.787186107817064
-2.6885369661896212
16.160826461051478
14.181244357233432
-5.711782314136642
6.692355852615447
4.591734673018849
-8.291361763719124
11.722435354203569
-5.046361605172809
14.658246033900934
4.460911119702823
-0.8160147498660046
0.8930749102461931
-3.9946287356305157
-8.51006422579342
-3.627645376849452
14.835572406184548
-4.719975745860128
6.0962858740282195
-1.3908746452107572
-7.111075319807449
-0.8454272037657478
1.5017265518833474
6.44416171451376
-20.907330992055616
0.5012060709902454
-5.460600410172652
12.984965343658095
13.993545101650978
10.098272952810715
6.712936719560696
-12.82589778502024
-7.162219643394886
3.5172618322881695
6.326371849480377
13.18947987610693
-10.346233260756266
11.008248263154863
3.7337491724737815
3.3392695961388776
-2.215079134485072
-3.7486375803114047
1.0283083334766392
-5.982729538012502
-0.8572283107735643
-19.16962299373124
-16.952158098418824
14.19498127364305
-21.56584737356168
-0.9794518860536654
-17.389096861431646
0.09912872197312209
-10.540457612403342
-22.350386373466257
3.5356324644564427
6.15891288892629
12.053667226197712
-8.887646118488407
18.491880363377557
-4.935216505085716
-6.658649413326559
-5.478262541039677
8.028122752198586
-4.270695566088045
7.794233404227331
7.431571156625287
-1.9899947121316621
-2.736701643398754
-0.6600267373252506
-22.189377824843497
11.393511689784681
-13.562680984862377
-1.180933099852479
13.448614594610975
10.31393771818935
-6.553225810287329
-12.633635297630564
4.186786812382992
-4.658512718160554
-2.490978903354631
-2.4253927374745587
-5.41247799646559
-26.118507129113258
-7.76509403206892
-0.3908461417451427
-0.7685416841238257
-24.57976991266147
-9.221080598705917
1.491372044983984
11.23699924661202
-14.77501662333711
-8.323962114622809
-4.92548630567246
-13.962308772792532
4.383007765024017
6.250003663189704
-16.74634922649078
16.847365621526748
-14.835402622072728
-7.821531456863248
6.5950290473650846
-7.858992428269454
-11.92145963099018
3.2986940990568034
9.956164200928818
2.0057322390663996
-8.31730208549409
4.08861354552388
17.585704648953627
-21.118878308806877
6.645795670684041
-8.34333338592835
-24.3978398545096
-11.320043393141676
-5.132416704302903
-9.342530400865831
3.55547333542751
-22.786922750248614
-6.712186373955425
-12.828583004094634
-7.257925603599851
-11.862844117030962
-4.5406451896110225
11.95222981862408
4.386395212467566
-6.139181656390918
-7.564958133025298
4.478164195615395
10.039256159460663
5.985955863735106
-8.265349918846924
-14.935380814189507
-2.1355424910543284
-37.15178110161765
-38.78742083473912
-23.105675926242863
-29.561428022887952
-48.696487191265234
-16.546589449412334
-27.680666066970637
-18.821887757472705
