-5.096205740097099
3.8615856765387173
-2.766326615997944
-0.8799310332860348
-0.09671720949489274
-1.9658779537762125
-3.0802886182357962
0.5807032919584382
1.6925327216594357
1.8607149776496756
-2.7129486203498683
1.225787085151398
0.008317361653229896
-2.7910047570660197
1.1454811955288808
-0.619862186524684
-3.1838514823087554
-1.9763653715720533
-2.5400285029949847
-1.052219889644335
0.05104632878030151
-4.082644260313642
4.670010034264908
-0.5988122127653069
2.403453664656976
3.4080267290308726
-3.7066387611274654
-5.126068987800427
-1.9775656855025157
-1.0401929953019782
-1.7343938858412273
-3.017267267558955
-0.02349972818578196
-2.175801527211322
-2.8154860617517192
-0.4029526828451531
-0.3429254997722903
1.2641323719109747
-1.5574395640409655
0.09090644442917757
1.2250844206843026
-2.230479168278011
0.33653135540948076
-1.012115114149449
-0.39985778883179496
0.37764685577285817
-1.0702959801710634
2.725386609318342
2.0637066605973593
2.05015736806169
-2.203046788242139
-4.595177201344161
0.9523228817493075
1.25145543745405
1.626033587818176
-0.638838546555447
-2.8469571510540375
-0.6003314288263742
0.4646409198273433
0.955895602055179
4.139521332473434
0.4894438292222787
4.147740857363989
1.4817309722221588
1.359860843064589
1.0618227063917927
0.3432354005285837
0.704856091267677
-0.4186686078570687
-0.17768563871816356
-1.0191173934200264
0.34039839713843606
-0.7097075114809865
-0.6229829744935229
2.2523733528931627
-0.15006322573328446
0.6795247628691093
3.589659466344327
0.3604451161139431
-0.7975476555950424
1.6006220223536938
-0.6954921097805077
-0.8943630997722053
2.546253775705002
0.3810504627512333
-3.084979641895062
-0.9344808661113688
0.16346599143596824
1.0719295600255332
2.076729409249733
-0.9407668825715374
-0.2995279260295318
1.9544630580881595
-0.09251600894267657
-0.7299512687981163
-2.2427521947194453
1.5450072641460464
2.0223145162268383
0.7481103129147695
-1.3512748578339708
0.9069099318000786
-1.8828068138165914
2.7532013959891906
0.7061008221083259
-0.5435781906599668
-0.7038571586905563
-3.2369706415986093
0.33233210669966423
0.1616073864940178
2.7324983448420044
0.8075452162517123
0.09866296159370425
-1.4835498520850363
-3.7442754425864755
1.2538527403066093
-1.5440171611682147
0.8104326109084208
1.6968757047529055
2.6246561925505
-0.9424358621548751
1.236693650010123
0.41794830557065726
2.294088315664218
0.17780563011531778
0.48577714761793384
0.8652213130282014
-0.9510946567221372
2.361104798236902
-1.3868823346188963
-4.169066755035676
1.1332166242396966
1.5053014501369608
0.37060171274517656
-1.505156988751845
2.8152960812265615
0.39532748010541024
-3.6940173170297133
0.8158852008217847
-0.759517399581141
0.3158294254140541
-1.1695572794154505
-1.9076587145277177
0.8484768370110304
-1.5756799478407695
-1.245914138400821
0.15826602243103255
2.0442739773739373
0.09999316554608431
0.8291124159775186
0.38284161188531773
-1.7516792841660138
1.0933167999953066
-1.0720212048743147
-0.12914657716272596
-0.15548206642321175
-1.6654127686537077
-1.775185310470149
0.1259634038155175
-1.181580880137254
-0.7724854605273578
-2.787450056362208
2.535486875773208
-1.0791897324517004
0.8727190705656764
0.6126690801506781
-0.23824316777708301
0.03392774335056656
-0.01310296377569741
-0.3875990574587847
-1.0565150857406047
-1.060141645707808
1.7732550350381693
1.0551578928545662
-1.9865520453913301
0.7465643191984633
-0.3751974388267095
0.6808078681836336
-0.8936204202783632
0.7099415983147734
-3.976539402297348
-0.4281356463466417
-1.3737268180160465
1.4290987355169125
2.520241334124309
-0.12556162999966808
-2.006969512946953
-2.416644309546712
1.1373127369304623
-1.3426929747965084
-0.021833212859005857
1.4646227512896455
0.9237675204073978
-2.05581425118216
3.2396510118989825
3.2067410238297116
-0.1740114629899276
0.17193103983125788
3.0967077854865397
0.1613003839682779
0.642415310157101
-0.6721626225861754
2.0175754385250166
-0.3396701643432901
0.3140642331768454
0.4829673746880593
-5.282306229518183
0.22790305647006667
0.9270637633107863
-0.14382497276416653
2.8644030993042886
2.1626020276128517
-5.341999384615319
-0.3693769260564618
1.8901627213413275
-2.0836130155254966
0.5682163035871652
1.7092095420041498
-0.22667400933166415
-2.5970429192016837
-7.541054108899272
0.6662717175767247
0.32283499262539905
0.9216388048970162
-0.4185961363297267
2.1244048897502745
-6.806539631432296
-0.24516494597569696
-1.6919271161473586
0.16174378711467396
3.1050822496328876
1.2263402974579625
1.2842203522975404
1.4112981851237476
1.864458479818274
0.47838598301158886
-0.7688615604365469
0.11806474111291256
0.047633203217171925
0.3433491538316275
0.37797709852750533
0.5792566347969048
-2.4574461452179936
0.16144553643985182
0.1755975386988853
-0.24609585718587385
0.6069593457071452
3.088161833214606
-0.4665105131232146
-2.0013443380177938
0.42031289924700155
0.2254926206301546
0.8998824707941058
-1.461256738197906
1.9304789528345356
-3.8504271517514366
-2.676571823469235
-0.10355495219704246
2.992806455894334
-1.6026252138074877
0.31180486861184625
0.7958790998581414
-2.2650075614609557
-1.4156193236694115
-0.2802337556246736
1.6268566326602572
-1.304324811295178
-1.2923832590680084
0.6840219678678856
1.673899192801813
0.809769987713288
-0.6407778581368688
0.8198484782372176
-3.9521859011396585
-1.714327961031064
-2.4912353325474164
0.43602808692105566
0.5676874988503271
0.38609200607258204
-4.060063454177651
0.43534388286766107
-1.1617427456711713
-0.6722544064525555
1.5366746373170102
-2.2329555419750236
-1.6874060623348666
1.2525353303796116
-2.541779500189118
-1.3950765029746293
1.192216622158909
-3.4124450974716023
-2.113263144397377
0.33188259290816247
1.0698102214934397
-2.7523892004224098
-0.18437752857906425
-0.11713213844831219
3.1800358428319027
-0.5849260225266247
-4.7478989958727595
1.504904102761612
0.9484027335960304
-4.934824583852974
1.0131863914402781
-0.6330510691057052
-2.1784489357407684
1.0754071950598523
-2.447301254005704
2.014527023502044
0.6712579762179379
-1.1416981555164025
-2.6832303985814656
-0.47668693919977606
0.7587408026992718
0.4198164449813827
0.3246324093460481
0.25091512381821246
-1.9669518261123966
-1.40008272079517
-6.6110803757481875
2.572423137141068
-13.329722019566033
-5.581068407794876
-10.014022156852779
-6.791702862152691
1.350618364932572
1.2858514944943469
-4.260670477185043
-3.5113854527340593
-3.4469019093258657
-5.329689755263434
