4.315279625423526
-4.002979147745382
-2.989399623975004
-1.3736317972571215
1.5036945750828137
-1.790954201299878
0.3194467874974265
0.9515461694508779
2.9727470708445014
-1.4840477616649583
-1.3007820558536236
5.922392981079105
2.7610431461091185
0.46927448033876307
0.7091059126656334
-3.3436414257132014
-3.0537970741863107
-1.8201003266215634
-2.602513249456716
4.747804560940449
-0.0646003667003515
1.0547110612706827
-3.459077975177018
-0.9596294254479942
1.058611416199411
-0.9510169157485489
-1.4226567441677496
0.9574009909886105
-0.7571488647046951
-1.857053981537091
0.7527558316788324
-0.12007020921328573
-1.9332545164829984
-5.679328500680105
2.7141536607054353
-5.420110001602021
0.32529031614928716
-1.8006191267405351
0.6393619686502248
-3.302997415390896
-2.042125712880003
-0.3448854052634869
2.295994853763316
-0.42216204252958495
-2.49168516473472
-2.5325844267875643
1.6672587896848603
-0.4123624754517523
-1.8475286468149357
2.2245945770511746
-0.5191855490457987
-1.65470790040408
-0.612006441207529
-0.16773369840415933
3.346855317325082
0.03188920676228304
-0.34503815366291274
1.0695852703182325
-3.151496802204368
-1.5326867339072274
-3.780688265521207
0.5644772677931862
0.373922990056331
3.0730715367682393
-1.4459423891268404
-0.6931198713939362
1.2672724575632912
0.028074010513378597
-0.9498550859567017
0.8932881909774336
-1.6506888221586709
-1.4233037554123162
-3.2268988270676853
-1.7760840600305572
1.2927341811636268
-1.173565889181689
4.957757433040234
-2.1656583868763044
-0.5449376296240895
-1.7002305998142961
-1.8335570766102747
3.153874868839457
-3.8709071255048593
-3.837473882480738
6.6473479680361915
3.545272771314253
-5.411090795239361
1.0914469132218414
3.0210167255699605
-2.591368591474709
4.410843992227836
0.4907290532673629
-1.4209374545011315
-3.3678724033406993
0.15473262266280577
-0.5931510965603631
-3.159807127238759
-5.20799999781529
-3.7827616356312634
-2.9596947806085754
-0.5105421914210437
-1.4210046553858204
1.0695955330313969
2.476095791602462
-3.820080876940067
0.4391393734875815
0.18760483222099805
-3.3650564429843612
4.437266798317605
-0.32460011755764534
-1.342926137108049
-0.6329312462949324
-1.0588110980092824
-1.0662550842222944
1.715857778561012
4.684854144525552
-0.6997499070171146
-4.685990785939894
2.2340240675672516
-3.5537513707295165
0.8701130434389247
5.688059681490639
1.6506818552218254
2.263242975903275
-0.9637489363275511
-1.9413450627282869
1.31905743406571
-6.358298778111048
1.278962469291192
6.893096578437432
4.0237879912855865
-1.7176092561718905
0.9745201591106071
-4.83050595248244
0.31381770851710783
5.6781273259432785
2.2552587812841796
-1.269777196257127
-1.27144411600346
-4.4315117505816195
-1.9914429833920206
-3.2678072770603155
1.8043705190787753
-2.5059646642493383
-2.785196870001851
-0.5705611886269885
3.133232175224443
1.9953515731335514
-0.3544489517929436
0.9714322098123782
-1.72132797891185
-3.5451678023174242
0.6026165862285109
2.281241096581831
-0.14031307892317157
-4.431284798252921
2.883969866852545
-2.4728447701534373
-1.301968975274736
-2.5585859894875136
-5.589423330536812
-1.0145555463418394
-0.012046017083594766
1.5977417756916394
4.263401298293546
4.5364138915292775
1.03865174644255
-2.78762109078639
3.788389688292897
0.8120712540936472
0.8121770313048002
0.5303218226664703
-4.137474776705399
7.954604624655957
-0.434575817588025
-4.2280100156087626
-5.106975947983637
2.8221376340298905
3.5235031830914183
-4.867363426109607
-2.330182551685784
-0.8068154155434489
-1.0220410834141627
0.6393377952267609
-1.297571728284673
3.8109733406848854
-0.8789634468106616
-0.0556850677419865
2.4765154813369374
-1.4726488044707515
-1.6373564026090985
1.9803817820471832
5.495638735439016
-6.395588012384818
-1.4267134722649064
0.576746417690164
-0.6037964198628412
2.3705322115200604
-0.47404546993173674
2.280859749640789
0.38596171069718077
-0.025629658054817595
-0.4415346388579281
-3.538339625863126
-4.023106055899832
-1.9647262061523971
-1.20899293427092
-1.8480003093357371
-1.627628539087124
-3.1114875524087418
-0.42652477947844997
-2.935700335485041
-2.744624370451425
-0.6305407509870421
0.8412174844039843
3.011084984446935
-0.3509413632685471
-0.7560152721145537
-2.7928400767523236
-3.223904950302265
-1.8628769086289438
1.2161825418125896
0.1574846345927373
0.8346666071287276
-2.943105759419283
5.959013266103954
-2.6739721440518562
-1.9548810500628429
0.7146626606708306
-3.594940464256141
-0.04778221053883367
-1.4876283631087077
-0.3345694286007254
-1.4789717888185459
2.189706105663049
3.193240749646891
2.6296202598492986
-2.1969809231495643
1.3913744668661097
-0.8999555634400996
0.29869945946476534
-0.48916307485168337
-4.041414041253057
-1.1729862123780739
-1.1599672298890782
-3.9946728008934818
3.090516204142484
-1.1368146130420442
0.5209070583835951
-4.58469988255733
-4.043838380742274
-4.296254958718015
3.118306775769408
-2.3049696626764034
-0.15962234439817413
1.3313196117860913
-5.004388055274178
-7.161836223298933
-0.9995893821984898
3.623822716059864
1.3442653580667552
-0.1324264570025312
-1.1110211359070281
0.8961691461792944
-0.7742085239885166
0.14855307534683915
-1.3596176983190655
-0.06384839276253013
-5.156773104282944
-7.865508147627806
-1.0407435247325216
-3.2464505800662518
-1.8030879059436815
-5.1297173531527624
-4.340211305777315
-2.4661113361161187
-4.591943738089962
2.858106720649448
-2.133613065612924
-4.243541440818473
0.9587602796271898
-0.9740534466146186
3.519705572507439
2.08460596247928
2.121953149506021
2.3110335233557295
-0.05106932630814683
1.5109761645288766
0.041285758743609395
6.612251794957419
-4.064503696455578
-2.5480912695327516
0.10361833157447384
0.07304975294659724
0.7580917226232349
-5.709365036532727
-4.758088656468014
1.1156502416052252
0.12089859297991536
-1.924573474980748
-3.7544776969732347
-3.406897643115593
-0.4932823361702756
-1.5322373002029788
-3.705138524161012
-1.6793510419494515
3.050830915447332
1.348843551468916
-2.2799090052065174
0.32853842170488406
-1.8741988174854085
4.469992955027543
-0.4190868382431703
-3.075433503032643
1.4502614931754134
4.431451030889076
-3.035589152804414
4.015338942846598
-0.461638362701815
-1.373770949449248
-3.075643792209315
0.7618041193920793
-3.6136907369284352
-2.0532059465613086
-2.063049916536
-3.808314438814577
-2.3116659110117714
-1.7252447000456708
-2.581749773669472
-2.9274093243615296
