-0.7563248540948556
-0.47591179157264735
-0.8207980011529318
0.18166240398994252
-2.237226285591415
-1.5974305421381705
-0.2814620161715413
2.522163974402824
-1.0517276968139628
0.048880044361251804
-0.8660094210767544
0.16833390627162412
-4.108991858349324
-0.5816279540188437
2.626179030770176
0.3223362867891083
-3.2578191406019177
0.29915638052126603
-0.17728979753689636
-0.6772432842197253
0.3367873492050284
1.2529315145575575
-1.9422337941108603
0.09449777584937631
1.1607541891201143
1.871540849730313
0.025354517002016134
0.3383330671081373
-0.8363427941421107
-0.0038812795721205303
-0.6065722412759743
0.627085337644567
1.3822250554905193
-2.993292717892204
2.01623508739077
-0.7986881643126558
2.851060121015862
3.4013447396236476
-1.1474164566277192
-0.7865180962698723
-2.494837579150799
1.2180932719711641
-2.649048896545209
2.3731156609646726
1.8184089544070805
-0.4679857006342566
-1.4150822315444076
-0.2610239231402158
0.0066621284117192444
-1.5674601504672168
-0.6709868801252941
-1.1960125230536354
-0.769162900699032
1.6986689219598183
-3.522072752485982
-2.819240315843838
-1.5223749408532485
-0.2946325105932913
1.1820045171126805
0.6156967958763894
-0.630595193382838
-0.2657974731534781
-0.9933945620555164
-3.880959954406342
-0.7603867425150709
3.060967038639861
2.0117574564031395
-0.3216763917678744
-2.6537147601770754
3.5428192816304134
-1.475666273641601
-0.056615770408352833
-2.096958173096618
-0.599530785775442
2.0830323761053506
2.0437211722463378
-1.0370527492144663
-0.48066946254126247
-2.2289711242304793
0.9827324932631325
-1.2114705800988637
-2.6783634616665712
0.5760755876142685
-1.9238533144143404
-0.9095811733222061
-2.64419504482691
-1.2765590962678102
-1.9650861783922304
1.7794263419020389
-0.565009899438321
0.199064421108438
-0.8087903325771137
1.5460411717943847
-0.003661561972369098
-0.8295144750050477
1.6207864178872726
-1.9469863928310447
3.216401698885306
-1.46107597346488
-0.4147767326506458
-1.8017283061074896
1.8353717305131139
-0.6611653695055288
-0.5577557119048233
-0.3476387947518259
2.8774092490967917
0.13879327971896088
-3.7536149657117086
-1.0550575139934586
0.9509010680412842
-0.79483898499141
-0.9932352694155155
0.04057671043892488
1.516384732646922
2.3843610127528327
-0.3093940613904272
0.9045926110175889
2.9001209557241117
2.309913757269572
-0.20375691157622827
-2.2771288946067325
-0.4385457466256362
3.986353924515714
0.5679456912227292
1.2901511034451858
-1.936246257124912
0.8219754668882724
-3.353558870140542
-1.0137207309026275
0.34824130867084574
-0.631834225278915
0.8327273166331858
-3.412109248508707
-3.0747384394402015
0.5507524984344254
-0.9943285445228689
-0.6568595341153001
-1.2017461926715542
1.8822150721321957
-0.9419009388008937
0.521522867098002
-0.3505838841356871
0.38758120151426134
-1.8742294793948266
-0.2731499723504044
-0.4302141556514723
-1.5187941322869818
3.1708693374045467
-0.4969277478586237
-0.998997298491508
2.0643827816025344
-1.246404501515833
-3.939058264975612
-0.2412856750750899
0.11527410372484898
1.3681587327574305
-1.0142875757254806
0.9469110124908808
-0.720727966577751
-1.627379988428268
-0.09648157757715521
-3.1991900708114116
0.9680151952637305
-1.3536303835503425
0.6706289339087177
1.4522120654602504
-3.4368698430809363
1.4624395063461961
-0.4616002968435326
-0.9310832261901113
2.579996223989119
-1.3114905916577904
2.4037052927190676
1.3222487727764256
6.313082965888336
0.0170308966793392
-0.018149356012251393
-1.6254682913314553
-1.3357947955152492
-0.41729437441944334
0.20147865759677513
-3.4302888246518934
-0.8455594388888169
-0.5391172398031375
-1.3037746171975462
0.2506907093749373
-0.8007980517412573
0.7108117293289374
0.6019273026543935
-0.9810351641870642
1.6830683923638554
0.841874728344728
-1.9935703044801736
-4.1033998326435865
-0.2654714098417605
-1.5736006814164838
-2.2158607605878213
3.6381310086634646
-0.5690680572294977
-1.6131275544864874
-1.2064517824441432
-1.2894333129852817
-0.5560455084710857
0.7236733307171253
0.011427658582010771
0.6656302259706808
-1.8079639904143525
0.5106708154755586
-1.256716343555873
-0.9570252326093869
-0.9069969993762774
3.7811633395151576
1.653039019634389
1.392152286866177
3.637562514912262
-0.7585633712705191
1.5906760590304014
-0.1621139151697944
-0.7365792925663207
0.7293102696387173
-1.0253340758919065
-0.9110658458083145
-0.86927526844533
-1.6587583785600504
-0.31811374523898867
-1.604543033620146
-0.27056393475400137
1.6517974906318618
0.5680071195843469
-1.8223264062721203
-1.042793674358903
-0.6434307492226501
0.3533035169679739
1.170507300124528
0.2566571157667125
-3.4566596938039624
-4.861420054376878
-0.8682740604277814
-1.8759521794855945
-0.31722093335214946
-0.9610499689900257
-2.3732292211220756
-0.5084476566101582
0.1752251801105594
3.709719629819236
-2.377259602491524
-2.7127766158017725
0.22239561454358128
-0.49508198480110627
0.1306401039365497
-2.529654269574859
-1.1150039952609205
-0.26068691428720697
0.3416467075832638
0.47682596515922754
0.7577362500341662
3.10141207988227
-0.10759346101278576
-1.3039645125756505
-1.9995622652454288
-0.553456016111088
2.1799577299074113
-1.91584479901008
1.1096146163908098
0.4102677275577495
-0.2523307831716232
-1.0232785259337949
-4.386178502296473
2.1795990043756803
-0.38883087548908796
-4.054893156918948
-0.09188600225270975
-1.5078469494078983
0.3873802665934593
1.2163025384387256
-1.633143811727949
-3.0990011547126985
1.6348739196474562
0.8075358515012735
5.863863384474079
0.6647286939080201
-1.5557607615540614
-1.1800516407410868
0.05525145646719138
-0.12222917527246516
0.19393749374491995
-0.20850854204683666
0.7317271359014718
-1.2485320068337573
-2.280397651801668
0.7951019202164321
0.45699676822709234
-2.440672638529341
-3.9925255787541394
-0.46146819471000017
-1.8738830789572634
-0.38251850667922016
0.6415578994879877
-1.671478725245501
0.5652777150654862
1.4167040346117263
0.08716391135025231
-1.9101295986256328
0.9328366486213897
0.3607151199741374
0.4939444066098852
0.8191898553097022
0.5472557216511861
-1.9435110633174963
-1.4474893257602366
-1.5242111517907666
-0.5007046375935695
4.03682554133863
-0.5812453929192472
0.5405377270407471
0.1842863761575051
-1.9007867394090705
-3.729009405427466
0.009063026488140788
2.2456852082965084
0.013704806345103243
-0.5992936798287523
-2.498837100597443
-0.9189289498091491
-0.6518067731947824
-1.1977008060900747
-1.6577990340117092
-0.8544502475239547
-1.2664653357252182
-0.5162105320224891
