1.6050600717931303
0.08642331336351618
3.475832273922137
-3.0562731959803227
-2.3866448830912703
0.8792867090983822
3.9897918724571437
1.4003727298909092
-5.9243418190976325
0.12106585973950205
-5.028371305180787
-2.025983716950201
-4.862858374357777
2.4589918971218823
2.974246256018596
-4.226753757008477
-4.732884109258375
-2.011474581123751
-0.8033258377526632
-3.109871980305379
-2.5452035728080107
-1.5445455726406958
-0.4313940021340525
-3.391752175669877
1.7731974276119242
0.2894685376667945
-3.0836979291508033
1.3341060305837071
-1.103553501430101
2.804782533208985
-0.8333564210363079
-4.990306614101288
-5.508866082758847
3.0844411668540244
-7.133942154155027
3.1333905069928325
2.525973487554475
0.5513440815487856
-1.0488080046802024
-3.461895704514652
-1.3604751993827937
-3.4154400250221877
-0.10313575958657246
-1.7523997270968124
7.296429615083422
3.247042112236394
-0.9953176973735884
1.40841007607678
-0.07612543261388947
-2.903920839461822
-0.676909871023876
1.4954809446902326
-2.221438027877202
-2.340742834688656
0.1428224807489639
1.6809642698865197
0.07468106703938703
2.4287850776065256
2.003626084047897
-1.751991661564826
-3.715351235735217
-1.1929647651141475
-5.835888941801632
1.5974148100800483
-0.8034689453139333
-3.5039072197981596
-5.111621065272529
3.632145232669584
5.6817649585183085
0.4106884896402472
2.3428393558850065
-2.5296787575027673
3.3390234732797834
-2.740138721476501
-4.919729454799356
-1.6779414954077014
-8.798835258165171
-4.727180860352155
3.720088880430179
-3.792423086395118
0.7884872344319711
0.483019855196739
-1.6613985891713499
-4.155679505457128
-6.472566844856997
-3.348654985935389
0.7890843167800521
0.05255771537847632
0.34561358483902044
0.35457836814857563
-0.909852265736067
-0.2384262200893896
-0.576940143787683
-1.043214244175303
1.4610314440744459
2.553780044289547
0.034840698567481045
-0.18104035098174412
2.2358080470480406
-5.340522274235663
2.3113630930174396
-4.710434160103088
1.8950536437165197
-5.658007573799849
5.153222689970174
0.10059443238622137
5.483391647257282
4.913081297324811
-2.5144805160373687
4.266147070924694
-1.4121040115276497
-3.233605679449949
0.28392982010113704
-4.360770252295386
-2.696839458342245
-2.6623516712149358
-1.6021797235302437
-0.0018110799026508258
-1.9408277901115485
2.356503093030626
-0.697823364341589
-0.20851400703092027
7.246961920272439
-1.3244307988423016
-0.219136054935087
-0.4406800727052419
-8.010041199065268
3.5735275902948076
-4.9112908285655275
-4.126364387212655
-5.528019599661373
0.1498861049056344
-4.9549845806821065
-0.7230554812371413
-4.864231602662561
-0.04849780590845672
0.6874519493614367
-0.14418411658833874
2.670980614893385
1.5044118384152998
-1.5608886894662188
-2.1928835986363366
-3.664975181104198
4.839455829527024
-0.047855134747683416
-0.246749762899554
0.6588008994777822
0.0803203843949798
4.034427760832559
1.2979062179553214
1.951811541270036
0.5984695509657797
1.0743917646869487
-0.9637171751786683
-1.650213696075169
-1.370088308159221
-1.9084031093327618
-0.20284160988703026
2.0008221562593054
-7.083541656634101
-2.632254508804357
-0.5706566155397735
-0.3464055734778153
-3.7989817075510883
0.27629019227738094
-5.336469594617685
8.303315927595305
2.9410240706422432
-8.05900364838487
-4.794750985874085
2.2590512193378736
-2.772309253997596
3.5127068596403066
-4.053534093941005
-2.230521176581277
2.9148318499592714
7.472948113226438
-1.2610920788021538
-0.7881528037598001
0.876032135532186
-3.4581030829549917
0.5234199369585077
1.6535255063648724
1.0176997971851287
1.126817147599093
0.5009711497640149
-2.2967664069565665
1.3256746761368108
8.083731738500619
-0.7659314617342692
4.595928881905518
2.59064784146468
1.925264561634679
2.8930240346275378
-3.04897359609954
2.6055302647449925
-4.176521651940277
-1.7962256591568107
-3.364035290236526
2.013639975289611
-2.5325341234605228
-2.546109703753121
-0.9773662516795258
-0.020235480076522445
-3.8864477805424555
0.11181328959193068
4.005697124856557
0.5013451150312663
-1.2255241926842761
-0.7732912457309502
-3.747483067791158
0.7126939192173231
7.108932819850838
-0.8738222062692477
-2.375535573803909
0.25120554043383914
2.232883473181774
0.8256862167533717
-0.6019359495246258
0.7191340348514854
0.3779750396114201
1.820890238627361
-1.4236268012071664
3.8812268493540985
0.8982578786707945
4.715669398354165
1.7528218695905955
0.3286560853391828
9.738261037833599
-0.6598881737693083
-2.905128592646512
-2.1589495547769997
0.19707492376906088
-0.2947329434951251
1.2205685507475805
2.8347568691173346
2.8026531091253606
-1.7522399891433267
-4.384219365632016
-3.19298015116775
-1.9505028753022986
-1.8914458847552764
-1.6638026037065936
-3.4577694778707375
-1.175702545024793
-6.427089566347795
0.43240575340032633
-2.442323032956093
1.6500887433951494
0.6146227792103247
-1.6580676579475095
-3.8458952259586523
-0.8277405487813119
-0.6735579299842668
5.124985819778245
-1.8083504447026957
2.2252404144102966
-3.4471460242478624
4.598824122745375
9.187293314142162
-5.860060478110971
-1.7414002282922616
3.207226809281485
2.846182699221476
4.390194610201602
-1.4173188415431304
-3.4662864452131745
-4.420041132956446
-0.7180059451732026
4.8041734649513135
-4.743817475066854
3.823221090041852
-0.39864804084921757
-4.1411164707235555
-2.766690923948255
7.981114383135684
-4.425925098980504
-2.438901709254783
-2.0258018579894124
-6.977997662649238
-0.9475130947427328
0.9808654812514531
-2.46727417454667
-7.197199991230591
-0.07530906310990403
1.9186075840822567
-3.711528846595871
3.505865664094815
4.104540154953386
-2.4964574040180887
2.0463756704795344
-3.731463285085663
-10.115580621083723
-4.11827341372485
-8.65311276371495
0.23302201708660397
3.8340727972212565
-2.258132713350937
-3.5415677851985894
-3.088629792822495
2.2111271862709776
2.325106117558314
-5.587344298191428
-5.1989041512334815
-4.980659035804973
-2.282907809688729
-2.5635617073163735
0.7937724732366883
-2.6540754101898902
2.256668205034991
-1.7171085630262852
-0.4623569243290083
1.1058144960285994
1.4577331249912409
2.52606653243472
5.93555377171601
0.24536374816968773
0.38133604428110235
1.7856132041467627
1.504990576968069
-1.6996103870849784
-2.058441233261189
-1.4884904727462402
-3.0392914187624434
0.4520098984262621
-0.7612742837158185
-1.9866148946724418
-0.41828044930026453
-1.7696819704944682
-2.7996735706605795
