-4.892900359390413
5.349253761260675
-7.169817944092855
-0.20535119106513247
-0.3461223892990729
-3.339416728971683
-0.20602576938107323
-7.851995874233601
9.627266852939593
-0.7013167626019464
0.3195098746381639
-1.6936743967035366
5.00176648276205
-4.921786164785058
-1.8510794847904208
-9.045879467572538
0.7194576532627014
0.17191757337253705
0.7754123221541723
-5.220061780417525
1.113991350748566
1.3763461705675422
-2.9940793936353676
-2.4096195018642956
3.0230577354118173
-4.541998476135966
-12.31662020381498
-0.5200415493969709
-7.5154038751069665
0.5401869125062763
-7.359981429922562
-9.151400159437834
6.412779298849662
-10.312921976061327
-7.140911644411698
-3.2050778869327403
0.6623254462433981
-6.287834510143863
-7.523973929481256
-5.667061873217957
-3.116442750814088
-4.760810214602787
-2.968917516952183
-0.6524159667574407
-1.5179348620608395
4.910236253105649
6.482809166197007
9.79467411515973
2.485800955609979
-2.134504980391247
-6.517664384955152
-3.321971330001406
-3.108960923883078
0.26498623110438285
0.031240954870786868
7.5004507452699
-5.328215603852825
1.9848250419168303
0.8854564169947483
-0.9443134028220173
6.850943315030403
0.09412859832447344
-10.867870273728254
-0.4039645104745493
2.66362704764677
9.131430025911923
6.687565822606535
-13.655153124417337
-7.135951648765257
7.250991076575565
-3.34802986673559
5.3490624454969975
11.539483755549114
3.612109694505148
-7.770611204039515
-0.6726371252865775
4.731475825151752
-0.9421133870980599
8.15280754557767
6.624024181534214
-5.608055681255707
-5.146438454428572
-16.784009919175308
-2.8547760014137666
0.6290021557805002
-7.725579913377221
0.632750006905275
-5.33742496063665
9.934444568984807
3.81211508633449
9.437386158254691
-3.90387106278184
7.905892786187918
-0.8714355136275437
-2.8295966858882378
-5.8515919536681995
0.34591722852312773
-1.0017007581358004
-9.071018898295145
0.07051011262058159
-0.8634541538356877
12.068320055570771
-2.7929557767888005
0.6703125219972451
-8.021774358925471
3.020845823079807
3.544177436621069
-1.8867754715096654
-5.7375888979222935
1.6764743079942486
-11.905415860294303
-8.576942294592325
4.291604280670442
0.8720590321548956
-9.678500868000874
-2.3137639233873926
10.102017351199198
-2.1852856848661872
-4.333621568750684
-6.787562821316714
-9.089185277647758
1.955147916799847
7.0812834925903045
-3.547739075916451
-5.424038329849791
0.9895350989830565
-6.516687449241823
-8.549277013215583
7.571941284987057
4.329448064349298
9.075909597753077
-5.684667370395168
-4.736159577991078
-2.0349243897174816
-7.954836018358237
6.926366740105082
4.074183795517269
-7.189960744281658
-5.395130725975906
3.9786735674452625
-1.768627243538136
6.19253044324509
-2.5524766843880187
7.233365218190145
-0.7164022563969642
-6.99324453561271
4.3871643181259925
4.797508370470668
0.9934594530890348
-3.2289131493433616
0.335887198214141
4.383698837500348
-4.377094790743652
-2.675282317060162
-1.4035445225728165
-6.019756284667929
-15.453065144255177
1.3023684782153255
19.06402679978861
1.0390751965136222
-6.699675924513496
-7.955683162010816
-0.05939833587959802
-2.869693367716694
-6.610904312179983
-8.261765309351004
-2.3449398840035145
8.961484714279923
-18.4897577267168
0.8796227408013235
3.2668786198416835
2.7313377941601487
3.5417183263009817
-2.611198611544938
7.5574333706945085
-6.114208568509675
0.8194925825538286
-2.8603534635433685
2.232427087989117
2.530867135674709
5.522016163757523
-2.346341601609131
-0.8125461368340811
8.518717260232394
6.284543592821304
-1.6979101892770743
-11.05546444729387
4.645956236840436
-1.825614257122599
0.9472712671751939
-8.377083060219206
9.916390281592092
-8.758250306176947
-2.9210871103261318
9.60020528448002
-0.9534027755899881
-2.0662513913637164
-7.023017112534497
-4.091119456276099
-6.6383983222329634
-4.249707936246943
-2.6205381908659464
-4.149127785430273
1.2240799581669517
-9.636941220806289
-1.4634808847024534
-4.039590133754391
1.8377822555582148
2.3333587792237838
-0.5061270331780025
8.388996880662521
0.017570885289215774
5.037444056012489
0.31253872622644674
3.036864811840555
-3.7679520284621684
1.406969911344824
-5.615464235147686
-5.811944360567928
-6.745578994841784
12.693401332621569
1.0940768942977985
3.128215744753834
-6.3390377435681415
-1.9731885600868584
3.3070949772259954
-13.73144507284411
-1.4624683235572313
1.1384533590737103
8.304992056388608
-8.89965669670624
-14.00769728680697
-9.726934834220964
-10.683695153340715
-4.6244534256658065
-0.8332029374328986
-1.7437942034633118
-8.7252945443143
-1.3161114731823005
-7.130177060596183
-5.019163417098374
-1.486941197061777
3.263004929485342
-8.4488170723972
-3.9682316178524033
-1.9181397522028756
-6.437777232297841
8.992109581446845
6.911582381359089
2.5366200306038933
6.00593216596409
2.667904438360056
-9.025330321477554
-0.6595194231011168
5.99179001560858
1.2454946644327767
-5.520956782587622
13.843056603812764
-6.513533179069062
-3.381780686075687
-1.5811215905837288
-9.605891466542513
-4.849324266492596
7.222456265702847
-8.308252890745274
2.1608197212608835
-5.021089517350931
-4.161241656812917
3.304265437170891
-11.82468117831164
-9.522652096125853
12.380189064087395
1.7298953954709337
-1.8231564159363398
-6.465126070191848
1.8692215798187195
-7.440373367799839
-1.695008125680923
0.3950339429779764
-5.548863823512288
0.7490743449875403
2.90558856695248
-2.2860082997846023
-2.833509958571708
-3.7767587457133156
1.831233171109616
-7.658164823436722
-3.7067385264066335
-11.351178637206337
-6.650844439835676
-7.07720481336214
-0.7368868642539271
-4.331766259583753
-4.0453120195750785
10.821104599294802
-8.599917997289879
8.841353020490065
10.438672559366763
-3.0790041757744606
-6.744333525985353
-2.0217464255531232
12.043295331600875
-4.0947607170318205
6.299951875610827
4.239341030358216
1.2688038329283218
-6.306304166206259
6.813281750005683
-8.809919969098848
-2.502418456074767
3.0398331747976797
-2.4959297908662
-0.58228853579133
-2.5830471457482393
-4.2271212463456775
-3.9151870317970965
-7.159515265851269
-0.6469517356600335
9.109251673729633
-4.4824548856601565
0.6495949598198767
-4.151180877761314
-7.262068289674119
-1.5586260717995046
-7.144299476806716
-3.1935570215594016
-3.7815105180235533
-3.637666623178713
-3.9220504866076835
-1.2833897189298455
