-1.1151326634056447
-3.71938223708105
7.525903410984885
-0.4878051022863745
-0.0806091027191769
-3.0977119368410326
7.252576082580526
3.521593935660779
-0.8602965447058701
-2.9685648084794174
-2.1887998719531616
-2.070367454871659
-3.385894224893366
-3.700899114876498
2.779939475849213
-1.2466920485759032
-6.323795080552269
2.54094355052901
1.7987431370906333
-0.34142135135960133
0.39030986033168386
-0.03999141627342902
5.084374876849901
0.977303145792224
-0.9417493678685457
-5.323277014459665
-3.670279707153665
4.080454873138574
-2.973146782764722
14.548511796306654
-6.871199019859567
-2.9485231238541565
1.8457280355962673
0.2590739500852984
-2.735026269404959
2.4971409407022667
4.494957579138343
-2.4846135021663307
3.716067219228143
-5.942572143787266
-0.8938799799739399
1.3898278389741812
6.761176057405838
-1.7475553098327163
-6.509841849679377
-1.3764270207319564
-5.713123227833899
4.491569690549207
1.0988384078236995
-9.855933557285946
3.0319858894456626
0.9442223129427314
-10.038116994882015
-3.316590248263674
-1.3008583461424115
0.27017554783505315
2.859040215155991
-0.5129001914462425
1.1097307735773863
3.475942728262432
-3.1297911853164866
0.6561415803934793
-2.0201055355812456
2.9737894067844937
-3.691927298634934
4.873969669218159
5.142157473266082
4.238024116819728
-10.703083178223123
-6.822441051462951
-4.913209088443747
-5.224788922113809
-5.188349823404669
-0.8107584468189766
3.7960506272294032
8.288672117923593
3.9441302513754244
2.763522789256983
-9.416678620475071
-6.5969149510477685
-2.192611771709013
6.184913636255236
2.5185121800408936
1.810314026559165
1.4166453348344246
-6.452048351219707
-4.451331406918111
1.114817540818069
1.3776827328246932
-4.932487841715557
-2.288276345492437
9.7859721711431
5.064318849359401
-8.912297960153108
-3.5264045000897584
-6.162161417888964
-11.205332946337007
-7.571270908608578
1.859196745828759
-7.653250286654319
7.7475141854703224
-6.181694241005424
7.138903359132202
11.315725261583825
-2.181655730996877
3.8391930997527193
-5.057014945128253
7.969366358532035
-0.9315177318377027
1.4270546134693016
0.20752727987143435
9.938126816940493
-5.355232845680761
3.72816595377979
-3.745044965747336
-0.6260110838096419
-5.136636165050846
-6.4089414757205425
-8.522487739508966
-0.4286332216739077
-2.958166787041139
-4.578953746324362
0.38290429772956786
-3.9217612515016564
-2.777900059676167
-7.613357578382674
-2.8384805309653403
-13.580207201184841
-9.002193000134039
-5.362990877384796
-2.012158779881189
-4.2345614236842355
2.9514846256062386
-13.641684302215886
-8.925143091321706
1.1193405710118964
9.297430860274343
0.46580910666300684
2.429936719477502
-7.045888339327419
-5.224363570790883
0.35967620659835686
3.925287081552659
-3.562792556985405
-1.0808421536591428
1.2030714809897922
-2.6963390622005012
-1.5031991536679459
-8.523925177892831
7.455388434844901
4.251976700593061
-7.144638843430364
8.556418852920425
-2.4360898952856505
3.242237292238342
-9.55119562018932
10.26060935534619
-3.3332628837589993
-2.026606451114233
-12.282151662585598
9.223297598640018
-6.900415404636643
-6.890734630078806
4.657326316529618
1.0014980116007743
-9.882221512812066
9.37505322904546
-5.955503797172504
-2.123433679483908
-5.4711445384882245
4.5717501098537525
6.5021719428413665
-4.472534586977882
-3.3278273285328326
8.91823672948856
-5.7467723350297275
-8.802194949434513
10.510195149845504
1.14727586344386
0.6474293613686876
4.96356088553522
1.6888097586800275
1.3178445540759005
0.14874648734317764
-6.126963901621317
-6.469061183646949
-4.249218103631304
-4.532623743130743
-0.7310187993010068
-16.113172782484092
-4.658101867229481
12.963701406862414
-2.8949738191410033
-0.32694160175441833
7.06103395210377
1.20578409934911
-3.9713602514589215
7.940035146163933
-1.1701292777651269
7.207345997552884
-3.289658495839817
0.26442731958423055
-2.147631998548555
-6.841668493226646
-3.0142340008343496
-1.490149016064616
4.3936621391462145
-1.4013768641191704
-1.3639006954459993
-9.049804418288913
-3.8140184915466513
0.7153251390068466
0.7056712326198303
2.571839905116597
-5.869210240064055
0.34118502175630633
-8.13980322307543
-4.561857278784422
-2.879049796697345
8.517638703249702
4.8072305126203805
-8.565563884518474
-3.49234714003904
5.8750051358419935
-4.131491728524565
3.5013078593243785
-7.881830496897816
5.186899255947801
7.4575516608550725
12.328343385405352
-10.705856247005128
-7.068970175244773
-0.24278561154003325
5.154377336289876
-6.508566556351879
-1.3191396169021634
-5.095544937402007
1.538077005534158
1.8313178718085472
2.5037345548569445
1.3886417808731442
-5.1154405425086695
1.9370266699447205
-0.7517455513703212
8.416787482642658
-8.15733499691846
5.287014678490299
-0.7450385428402724
-5.015889833060063
-1.4445873604223627
-0.47016968995468544
-5.381516544920114
-4.054062542273675
-2.445247836316406
-1.2689211957744957
-0.6903245920771883
-6.601628882011729
6.394051663091982
-13.91773523389871
-5.276444390011116
0.6446849549555596
-3.6985990628621273
10.7053908985761
2.051493256116089
-3.2920317189799064
-7.14252992145453
-12.581315579301627
-7.071940080583834
-1.9099713485229903
4.916652277352596
-3.935234993894726
-11.532582848428802
-0.8537201917631977
1.3286916057789697
-1.3497357097264102
-0.6703200743966555
4.787035653073333
8.401043073449973
4.790488519100245
-2.552832057265027
-1.8233859388375826
-8.053163538908876
-4.943533138079156
10.043305085232479
3.058843311305978
-7.23936247451661
-6.855666131327218
-8.046686986280818
5.8627593021899145
-7.115494721228179
2.33796898378251
-3.4368755805102316
-3.1128421751668833
-9.767568681253593
-9.186943225138371
4.943302656401509
-7.918346224662483
5.761994954745604
1.033539079407401
-7.913232990686397
-2.3999302071843074
-4.26264263649196
-5.804827110022949
-5.665881166188639
1.7704195948838313
3.500682522284134
-1.08706219791841
-0.4574380329405508
8.930494483299155
5.926648467827608
-6.859016262718177
7.08756894900586
-9.521086485424492
-2.0023920352376696
-2.443198797728436
-7.433817380116192
-17.123162037038185
-1.4371991352080788
-1.1958599127394165
-3.207871469280898
-4.545354124839191
-1.449629449238882
-6.681307233578704
-4.149461070110152
-2.5537361153302784
-6.346188450735701
-3.298662803613137
-2.037498744946707
-5.365236327412058
-1.3755381599780627
