-0.14882004063158633
-0.615061601695667
0.597566343886623
0.04552694137557626
0.4534434864245825
-1.3017382933670747
-0.3079748405957582
0.4048490790965315
-1.3429499511652758
0.7193303433991037
0.39867294547540966
-2.2250697429895068
-0.13116690379584423
0.06692564685474515
-0.590297923869323
3.478755248049921
-1.6151974679822487
1.1525671326753952
-0.6190588239703112
0.276614396934374
0.933915679754731
0.7921324001831137
-0.22215878301749134
0.0166610074606172
2.570782130108684
-0.5978671010317009
-0.1195149879674061
-2.060382381269923
-3.8204129003352927
0.7860532939985293
0.9862443044621905
0.6094148648344695
1.044390854147453
-1.1887781256644567
-0.11116349215092487
-1.005707763686798
0.6070080931246619
0.9606334485092997
1.5403022894503797
-0.18336673578752657
-0.7018594117937274
0.14542732847127396
-0.9446582432851045
2.059252862689989
-0.9440628188901394
0.20918409460086188
-2.713630880447422
-0.7578450370566788
-2.2815902695460886
-0.2541695530237132
-1.6690828453575972
-0.3099246876498262
-0.22142887368452044
-0.165790998408223
1.8097393092506269
-2.6477860543619998
-1.3958472228191912
0.21666519033933296
2.3493008694235784
2.725117857775202
-0.253992857257958
-1.8725274992561332
1.334387311731238
0.8271928048276149
-1.9077071208584035
1.2428685617763238
0.8829028755882148
0.5504659831982613
-0.007908243322164697
-0.7643487682664696
2.2752297064107188
-1.3062267704139283
0.40604151993378423
-2.539215140473738
1.3058067698463784
-1.3118364682146813
-2.9844376976022993
-0.39214916774221215
-0.8714847698907141
2.4653963015434317
-0.45252935564007696
-0.3422093014670336
-0.8822700755050407
-0.42176398941251564
0.8419426095128619
-3.348410624758727
0.3801436993599729
0.304344337218758
0.9727274136977675
-1.1752508590225632
1.7272844790079003
-0.9588063859138397
0.840612226779245
1.761709024714839
-0.8288133485222989
-4.262513837356662
-3.208588218688297
-0.6518234239791324
-0.3669503698073546
0.020727895187173186
0.8919536228637953
-0.5241653696586536
0.0694283304299048
0.870192630185426
-0.3054288696848354
-2.0429221982397974
0.30562039086771026
-1.0445821361324654
-1.9187469145615643
1.0864992315257498
-0.14096999736532986
-1.871331348521271
-0.6443772620747685
-1.8961336233745634
-1.217632116117903
-1.0065762268707505
-0.9292671312440821
1.6055139808665773
0.10578938500986201
0.28939420538043475
1.6242527636498443
0.37721538535741483
0.27434273751352856
-1.599643903437133
-0.1931500160977974
-1.733357764937452
-0.16554707835453605
0.7273452194444378
-0.698029122687432
1.2042346829280914
-1.4245440963998104
-2.363690115750418
-0.30921198147269563
1.785562210423585
0.1197705460726935
-0.17890850714301126
-0.33876836823701706
-0.9020877820858851
-1.1472190375441784
0.2542849296917677
0.5916599093056601
-0.23390660975880603
-3.051865715369179
0.024159281531057935
0.48142069473714627
-1.1971581920546501
-0.9847473991953375
-0.12365212945215859
-0.9626309683269929
-0.3782534357032469
1.3729711683979235
1.114345900469459
-0.96743879076973
1.3528890046375952
0.49715601609973625
-0.11840067203016573
-0.04900221691208295
1.4931951443437115
-0.1736046251701106
0.48285869689087496
-0.24040463560760014
3.381811813522194
-1.258388649143974
-1.6272053360305034
-1.4077763335793416
-1.035763876302952
-0.20821203498632126
-0.1826218907593514
-0.8121684534795638
0.5585460995532583
-1.4734900026009432
-0.13859044223015027
1.4253896741820076
-1.1495664386029913
-0.37786217003828204
-1.4405820845167252
0.2830093527015139
3.42089432654656
-1.3825416717111036
1.2716952563406592
-1.2061177493306672
1.5135278119936264
0.20916692151129251
0.8327534931320866
-0.7854787193915459
-0.46693408439472456
1.1772730220363388
0.08980350249935705
-0.8136001836741664
-0.3983347725003072
0.5430536824227661
0.16604302725007627
-2.523772286303869
-0.913876710514265
-1.587910036580087
0.37586998149429307
0.15232293630916402
-0.3172068295483175
0.7740126950662923
1.3135284517469805
0.3926995841578189
0.9351646461723797
0.2034096833214442
0.8856398975838016
0.6782645240643908
-0.5431149856500995
-0.16705845582388676
-0.8141553362263838
0.21220891948928686
-1.7795226157337771
0.6397557104868652
0.5322034275519764
-0.6742647651202902
-1.8000616642022054
0.012387958212597843
0.308428374028882
0.8296214460651039
0.10740887425228912
-0.2557224278220286
0.21389344035339927
-2.3934199211741713
-0.9654194109771899
1.4916762343363326
-1.6409559235227675
0.6286648331695454
-1.6730528304642671
1.2609738409731546
-0.1480522230238109
-0.7230711307168636
-0.49461804775472057
-3.4714189939570224
0.7037922036743407
-0.96601240912257
4.099271061036981
1.0885872747232535
-0.7970747955858223
0.22815857323704147
-2.4916154546875218
-0.6795901819838874
-1.4356412966598333
-1.9517408230401854
-1.4779030240937516
0.8771997048884553
-1.1092633526078313
0.05315516544652009
-1.4769735452754003
-1.493725441720685
-0.927313604969681
0.17069413332197023
-0.14659359262280336
-2.111083832844054
-0.6528280527760407
0.49071787384147025
1.139550156257777
-0.5052227587639588
1.5078831676001654
0.32933487384915067
0.4323113804467808
-0.7152540758230477
-0.9867345253429444
-0.7382993330244807
0.04927352280728841
0.3948266696759328
-2.9664229254073575
-0.9425082339261207
-0.3023780253323076
1.5516365361359064
-1.2184055349257985
-1.500310367705726
-3.4738919215148347
-0.32591756178357295
-0.08958113511020757
1.8569466884622514
1.6658697592926996
0.9498950694351911
-2.384945670416112
-1.509007158026279
1.0865886847650508
2.158756989466395
1.471050069557581
0.3395113560025521
-0.12230108353636818
-0.4697182178467024
-0.82507972945378
0.577338267963246
-1.8177076480740253
-0.2486500126952027
1.3826540714390008
1.1316239273047821
1.7842993936440172
0.8123365223782731
0.30183550133929754
1.2215037204684835
-1.0686959656220718
-1.222884411616674
1.1103548056708274
-0.6732847060431602
-1.5317127461608562
1.2728249889426337
0.18209192153506576
2.6547343587298786
-1.195602976848811
0.26933383742962314
0.3155025545223622
-1.1942965945460202
1.1928112842807708
-0.11072399763654178
-0.20085012119883466
1.1432763534932857
-1.059473627554314
-0.9229917716664745
-2.4128804912578614
-0.551868041651935
1.4700439814431823
-3.2617795860135734
-0.8350800041762673
1.1935685123829325
-2.470657069779445
-0.14107920669656224
-2.9797181167890954
-1.9648852972284638
0.018261501868944513
1.2520036156606016
-0.09831260078946431
-0.8054110185644623
-1.897226240151605
-0.7335350530649946
0.34065925810628894
-0.6543109253751788
-1.5949967113209618
