-1.0422295723241073
-4.055529178852055
-3.3497919644457195
-1.8324663683799607
-0.963485890244225
0.5683416526752657
0.8175145436378009
-1.1792554670367155
4.0604996015817845
-2.056913075654101
-3.5297992083744143
3.2598846815781086
-4.560809126613849
1.7720636085362125
-2.124837816805879
-0.06655068994506914
-1.081625510146339
1.446639611043783
-5.233923752322017
-0.10718327806284779
0.7241815621687998
-2.3386020787199118
3.9111678095102125
-2.4644214311141317
-2.817598674386783
-1.9020958214396073
-3.2437500169118207
1.534893411652042
3.2130617116598206
-2.960068476800821
0.6690827670741799
1.5779197517074095
0.3502929317619896
-2.7187212898937485
1.2310971770402148
-0.29390465946526817
3.028722990125804
-0.9091031225232241
-0.0544355848253574
0.5415174361231562
-0.32759444809012384
-2.527449169572442
-2.651855367316231
-1.1290659435390156
-2.0222143674695134
-3.464039178171316
0.18963181371864996
-1.3755562592004742
-2.9214745956983226
-5.283578925780343
1.605321158645141
-7.0735009394155215
0.17278984388555763
-0.6751203201476198
-4.989664852942197
4.213322461511886
2.9740932788677177
3.23874645641446
-2.5734908831548022
1.6371063420245335
2.525068295434378
-1.7721137411252728
0.3343705021678589
-1.8600023323201444
1.0530464141898492
-2.4653015588063907
-2.725494372780071
2.8119445571754578
1.8516053090466884
-1.624747051803581
-1.2393065106145336
-0.2701519336386006
0.3982408877768814
-1.470704448103559
-3.0337676449725217
2.035064045049437
0.6545468004201813
0.6348585451300205
-1.127873475022476
-0.5966131710610426
1.694750250278583
-1.2160624425120266
-6.163696587550077
-2.0460154614194175
1.4998979161151025
0.05987809051437567
-1.0263789045405063
-0.4466522772406634
2.8505971281743423
-2.247645932818991
-2.5492513527787093
-1.8428151954691143
3.1591513202872483
3.6592776267064417
0.050712981469826196
0.4477513277387335
-1.063382505644352
-2.693169817515529
1.2308812022109341
-0.14990285940264286
1.965256910769151
-0.7894149244124825
1.329254421375405
0.6619875341807905
1.841459566192213
1.3380140740548532
-2.663150515843051
0.9295345481242981
1.5268727379540075
1.1543890332056004
1.032107314664829
0.2991563940766926
-0.8708936330003487
-1.5176880967726785
0.1756456931438586
1.920878693570888
0.5797179370635752
1.9622417954969849
-0.7623371680896814
0.11570473714482307
-1.2316867898513484
-0.40540238270002227
-3.2001835580040137
-0.5408232071745505
2.406586151780592
1.9749284888729455
0.3200649770562226
0.3359439148634909
-0.6927989006793479
-2.176738612682213
0.027372280430055098
0.4992555512896699
0.36465699885055064
-1.4094851975902554
3.562722882178329
-1.2117800116094197
-6.131992946273715
-0.2588765002786877
-2.68938515928821
0.6079155579213339
2.2860312683925965
2.709934924416397
0.9020742146429075
-0.16352986933370717
3.1466765099402485
1.3803008162302322
0.7480765459891751
0.2706462894826559
0.6276616561935524
-5.8638813400050855
-0.4193716290913849
1.3296275254937189
-1.2500722227409258
1.1959812998199058
-4.189907274286314
-3.0833794973681927
-2.811111929860213
-7.33069944083244
-0.1897212705648986
-0.6023737185060808
2.579941528780912
-0.6345214183988128
-1.1295358591346547
1.0085662735496017
-1.736178643060836
-0.7881330001697149
-2.533194687059825
2.2799618435800917
1.5437634114632002
0.43134012487494383
-0.3907602469067131
-0.7732997411743668
-0.987862937577711
-1.3171054815848364
0.3690753242584899
2.5387025503471414
0.1692948135574449
1.0751210140129126
1.3018879528661655
0.3801202636562321
1.06884440732777
1.2597080016672408
1.288402506262811
2.3507879480178957
-1.2749294736424437
0.05965942286192947
0.07708549686458649
0.3743033684439689
-2.0784519021274175
0.922126283894334
0.8367193582000191
-0.26376593212162647
-1.2453500210326134
-5.938851512605841
1.477090238405824
-2.554501022836966
2.280028951337319
4.924099182916943
-1.5495925911674058
-0.2256128448224744
3.2314662125220655
-2.825268898122634
-4.6781054210830115
2.468734132316645
-1.6488792266497607
3.3862261324380087
-2.063303214056756
-1.3008425059165725
2.369598089880704
-1.1900250369348988
-2.8682294596985893
1.4746541351230895
1.2742818430689804
-0.6677909566394161
-0.7027158634830971
-0.08341896394692337
1.961768294647595
4.688384270342618
-4.3389836114645535
0.0849110028707067
-1.3588280269587714
-4.896290683931002
1.3121263997299388
-4.753536323298795
-1.9830371113469265
-1.9191179398217342
2.917482249278104
-1.736385274161055
1.020541406132854
0.38905935724793306
0.06224983438805041
-0.24132285829105868
-6.12941581592219
0.8066047444947734
-2.5657342581508864
-1.4634674024798486
-2.2882470991779154
0.29297664608584734
-2.6719399060036926
-0.06914095089654017
-1.3667461415616045
2.0100339901096578
-1.9814917624786756
-0.377283048590473
-2.2293885078389937
-2.39173924296985
0.06338805994431085
-3.72358195875698
0.8917883031279235
0.011542659244814943
-1.0747004153168136
-0.3925638237928278
1.4054390711246483
2.0299307523086125
-0.025623913965797475
2.396652569585096
-0.8322598620711716
-2.025793540154888
-0.7272367604879255
-0.5308108247437817
-1.1785918581784967
0.2476403780272049
2.6463687622768512
-0.7179506570148114
0.6395539501573196
-1.5729933597586057
0.2500661180404351
-1.719160432480491
-1.4627297494926779
-0.05462437902316866
2.5187718046350427
0.720481323846337
2.882280727458432
-3.214616963550609
-2.218333074035913
-1.58558257331699
0.2888931056544822
-3.499524680808099
-2.552876486513486
-2.8204887466365687
-0.9665933366557253
-2.73954599418241
-1.4584226263811138
1.2006546795442359
-2.2551917113792923
-1.4965305528322286
0.7461890112292903
1.6116838615323112
-2.041563926511721
-0.3185290404921888
-0.10713765438724324
-0.9402394709126763
-2.281149052835694
2.2979863695119596
1.2316389315009595
0.09150866331904035
-3.1269465668080074
0.4760516781313149
-0.8309675845612049
0.5137548590976084
1.9397865013537674
-0.6673117400541064
-0.6545248817192321
0.34131564131889025
-4.090154867630244
-1.2815853206054215
2.1188091713889565
0.11370469744830872
1.4797414542451528
-0.12130677356309562
-1.5127601259016696
-5.307835819344853
0.3656965882191847
-0.5959311941349635
-1.4934274629749251
-1.7562513462865694
-0.5736704499602648
-3.2240099985339956
-0.6227933922978041
-1.0811791848599464
-1.8916135621313779
-0.835829090739608
-1.1582588368901816
-4.45342897349875
-2.4057090361327154
0.08293663643633195
-4.4520394738418405
0.09764323345852882
0.14859442929717623
1.1391554687302277
