-1.5528388010294591
-2.8942003162711165
-1.3716363104180775
-0.22753740474628026
-0.8666346945865411
-5.9766171020046555
-0.9768332041983476
5.10387728308826
-2.9478188547027453
-2.628178532799762
-3.2166103618379456
1.1310625980604683
-1.9091433715297104
1.4073375607626155
0.9638890656195844
2.7984688833878177
-2.36447789066295
-0.6181683465531939
-0.5727869920891868
-3.5817633407232408
0.06493198195000588
-2.01784978699151
0.023946965143300823
-3.9469248213682917
1.9718966474553778
0.750462212139192
-4.45867791482858
3.337153394032882
-1.9642529712243666
0.0742111594187737
1.2234751750450938
-0.2578235950238948
0.7901980110509228
-0.7641123484061053
1.8125289360754822
0.29515204772400433
-1.879330795803768
3.623714628064535
-1.3980355049281934
-3.753215399670596
-1.9643119565271412
-3.178886652435719
2.8056519053049556
0.6290523023531395
-1.3255915607511048
-1.9806007100608496
1.829438691790186
-1.921438794307529
-1.3235560736836953
1.474546298784573
0.005855071490009924
4.241746586140576
0.8694246218517625
0.8691542371184983
-2.6592860014107633
-1.3320029814427847
-0.6179064083415787
-3.6707841370191625
-3.4909824009631967
-1.1942191494314078
0.1612791059472542
-1.931123121160956
-3.3752936236798727
2.1610018534163387
2.985713679195144
-1.854308653757392
2.0830304920207716
1.238790356462231
-1.7266575485201205
2.1875274532747837
-1.3087081720257427
5.707294586787143
3.58102624453828
0.4337406362358433
-2.0950592050233903
1.6935253912586727
-3.821390802806823
-2.661162100908256
-1.1477225013938084
-1.3329166117982927
2.4563159632124236
-0.8559939438987613
-0.2408553360158872
-3.1232659455086202
2.5718923916400405
-4.2445981771654155
2.8639717234333104
-1.3711843272516782
-1.3643734510653263
-3.2413826052834467
-3.067253877438867
-0.412329537767866
4.004878265178515
-5.141356769293833
-1.3926553233735859
-1.6186635921802082
2.306476900350535
-0.5991473684838083
-3.873139858043892
-1.8509689698473932
-2.2859870949733674
-4.068609463255519
2.8917710975119
-3.6415925931218185
4.159792040788699
2.3350498142378338
-2.5355084214512607
-3.6191157596492625
-1.3476500471504953
-1.7550000036018611
-1.6898330322226462
3.2896081183667962
0.8515931193727619
-1.108781308837596
0.011143854163118581
2.379864155091723
0.2226654995733061
5.760478883782431
0.10706278056137118
-1.7071409018724282
-2.584702883692884
-1.948793641532783
-2.710793562835307
3.3023011282604444
2.133977897270733
2.5600203563447845
-2.137128116731193
-0.8425742299979472
0.6496354236464438
-0.9176665128546909
-3.294030174342668
0.21763138725000403
1.435382411621281
0.5262934494467693
-1.2086589728107098
-0.8387956809399818
-0.10966976049395803
-1.1460386017778008
3.6565404182706387
-1.8232677338964327
-1.6473967872570916
4.544572114378199
-1.2493488006641378
-3.8227281859750333
1.3698729037425974
-5.176999707884597
-0.019822398796978075
-2.0841967716536525
-1.833607464679037
2.7879736786672
1.782823036028507
-0.10233683596384688
-2.4928821974475337
6.113191688024049
3.8215578777335684
0.1784011178728931
-0.22671126434155528
-1.3849851050815445
-4.534526134592715
-1.389298986076194
4.1105306233458885
-1.5259957430819353
-2.4225851357098263
1.127435514239088
-2.802393303349818
-4.392913960790445
-2.48629654240939
-5.885636340144826
-1.7228222421957995
-4.206889092503307
-0.8691619134201553
3.552501914995956
-2.8017242702177088
-1.5370003225032862
-1.958899779593075
1.5301961223568388
-1.9397517184906232
5.970349963384005
-2.3275987662184434
0.6824759802081002
-4.277873658916169
-1.3172317914407945
2.1496290000999885
-1.2065794242644177
0.9591037781227755
3.706780735862425
1.4318483867862053
-2.3411861336948134
1.0467213741785697
-1.6726237443212795
0.4982448670857847
1.6506206345403016
-2.1075097457275653
-4.3837279705037755
0.6892595206430943
0.22109936735549254
-1.094459457555981
5.172653157042913
1.7727732838793617
-1.7486132545113542
-1.9920660001573685
-2.715914815328718
1.0970709000033225
2.1291678333437027
-0.7859240681309411
-0.29893936246745656
1.8321433089997827
3.171757447208785
-3.1972329952289735
-4.764032731876473
0.16728117788491656
-2.560399545228918
-0.6028025654795404
-2.8629705090938518
-2.536436148135784
0.369384209550871
-3.428811152704032
1.6987332036696643
-2.1787536292729173
-1.5682283771501577
-0.4676256887247382
2.88649594895948
2.399352857521464
-2.5267846312755378
-1.153285635268001
-2.813067159078441
1.95148462025501
0.9217606850695513
-3.8609017641088608
-3.152542174617528
1.3046975763831805
5.815499383790765
-1.1316802657181004
0.9816799279970064
1.3118564492174274
-1.3919626906980873
-2.4218171425920807
1.6974970080641991
-1.2118931782109028
-5.302033858074777
-1.1443441010029636
4.373624362788373
-0.2568312027405491
4.02948945372108
-1.1692358323086374
0.30558552308935877
-0.17371492005208636
-1.5349057740284202
0.5255922068708682
-2.0274836215204104
1.7410819465530956
-2.2485612690605374
-0.10934158268234284
3.3811254318027517
-0.9749703195416963
-1.7311108517460827
-4.753069741336841
-0.3745389548281548
-3.213419736947401
-2.1334417282980707
-2.565855557581527
-1.965115893447355
0.11493123950276465
-3.0970111511610043
-3.2400669109868296
4.680381632178421
5.091353881482276
-3.3791705648566444
-1.2710389046832316
-2.796489637564176
-0.15175437462949068
1.3851865862240824
2.007709654298812
4.799868253542717
1.678455503466517
-1.907968102344439
2.3042204703723494
-4.65255231520774
-2.2718070608107785
-2.0000043889945314
0.2991291815341641
-2.9165582343884746
-1.387417572360912
-2.3456747705335186
-1.3283049716006174
0.3689315902578612
2.67957945561774
-1.4707989810579791
-1.6222523542779441
0.5871030244457125
3.967134546929945
-1.9328072243595296
1.450244777454803
-1.9638948721258245
-1.2248471892933008
-1.146648488878253
-0.9356472896132755
-0.7623687921691163
-3.0047038090586473
-0.23573022447170483
-0.1826715549687889
-5.220165006874605
2.555246647794616
-4.895300376341222
-1.6853441906100557
-5.374730246280653
1.4100193937575793
-5.369493515497944
-0.29114602217474184
0.552378042639828
-1.7426253748295193
-0.507611385189944
3.4882085039408657
-5.871052521747719
1.8109411392142916
1.8099505316834046
-0.39038468351908334
-0.8474339775245809
3.535554801269002
0.3644849628981482
0.8550094363598136
0.006682845150387795
-0.7576950893319929
-1.436281553529464
-2.8554189753759642
-2.3046998988321135
-0.44062050467421676
-1.3748300944813097
-0.47016351842197046
-1.5509261769433207
