-0.4173834815294778
-1.1822930527308966
0.5572537003649851
-0.9424656002192697
1.157794957743561
0.6275287369289939
0.19962119778487009
0.9994957201282938
1.4290938863247078
0.7426411266770494
1.5796631666105863
-0.4865475236633592
1.4053957119498928
-1.1852499177661477
0.6587415548055067
-0.21577845304449667
-0.4037909254042681
0.6290136487356992
-0.7059157109993792
-0.6967134042878504
-1.555964600199581
-0.706342084655429
0.2715578357060584
0.587457742856317
0.6572914771969065
-0.36949933225535425
0.3603259480437232
0.5090167083450183
1.61014501758109
0.1317440747136578
-0.15714985433095902
0.021676014672046457
1.4905824841249964
-1.0751189129482774
-0.9618253113528993
-1.0865835941700333
-0.20697808320390343
-0.28741053350868745
-0.06548418202348312
1.1055159821321667
1.1518747055118281
-0.5582618961156901
0.3097531372963623
0.2589931556048937
0.32970617448272665
-0.5857849474890657
0.39701852498790446
-0.5468340718112497
0.6624223607880106
-0.3408736678917939
0.1323122645342679
0.7702719017864503
0.21210172752509027
1.023280439573824
0.8087136552690498
-1.128750435925558
-0.9841514192168437
-1.9277031580657538
-0.7827602124394677
1.1486813980307353
2.1526297176781175
0.14439250380199364
0.9566748979026037
0.7551052180047972
0.1687071663841186
0.8629602106866838
1.82709283927879
-0.33796076693894145
0.65950935619338
0.2571540813521859
1.624932324259998
-0.39405929853966143
0.3449627058398571
-1.0292816350121705
-1.0755688284997285
0.3078577337544347
-0.5914162397269194
-2.0859407724241223
-0.4349177053348787
-0.04919792284698761
1.810035540829352
0.7314321811318122
0.5550646212220237
1.5293234311577786
-1.0568442060750256
0.09992835459416599
-1.1008999300233924
1.2806456497704741
0.6493743767483644
0.9289046094032918
1.6008979908559917
-1.3252824268574193
1.6957197489684512
-1.8014575271298583
-0.31705567191509576
-0.5920813808229561
0.982826011419926
0.3289835260584284
0.5693682268488434
-1.314827965276723
-0.5368148076404654
0.6532286133368199
0.5004076216101082
-0.2966405225655575
-0.9639032141172523
0.8804040724633995
0.5861237998346338
-0.5492123468669926
-0.15022070429338585
-1.5540275169866276
-1.5822174333985188
-1.180956841695811
-0.20023063918869952
0.006880019726212258
-1.025508808755494
0.7599385632557036
-0.2581781478276055
-0.5368135289711586
-0.6317885610601863
-0.09517488413696355
0.4775650367842328
1.8534483443696854
-0.07222978619911526
-0.657503926595367
0.7477218878491059
-0.45802215214173275
-0.7388681062624425
-0.2118624176199551
0.5176393120662424
-3.361071975019599
0.17540754250512944
-1.3821737851521072
0.8913347754427957
-1.46490508144448
-1.464615032597619
0.19837174561878246
-0.534836113316193
0.27171430401558794
0.6294985578055189
-0.4754618604336542
-1.01013815576938
-2.0268489511374987
-0.3605251734021129
-0.5575735650438788
0.14566423469192888
-0.5708377446960847
0.21695946440379676
-0.041188236442833245
-0.023791490856582474
-0.799120513168182
0.7839747245299111
-0.47008958753326613
0.6110734714416318
-1.5861120717555002
-1.0296484559936225
0.7744896897223008
-0.0925955807557142
0.3158549674151955
-0.670238389838311
-0.056971834024250365
-0.5943303125412284
0.20339881310451563
-0.15056375907048997
-1.1910445997914363
0.8541742902829192
1.2285568767521018
0.15742969997804818
0.9820579984451179
0.2706558608808527
0.7335441961948727
-0.05855793497509106
0.4248403251900051
2.68927554099788
-0.44187269972554843
0.34176640969989275
0.16953600583553208
-0.8210088381105549
-2.288533482129742
-0.6789466180277028
0.9463558099433695
0.14139733211400796
1.2661802772620931
2.0491678044261543
1.2731441792673284
-0.7360509066863297
1.039105057546553
1.2043974344715789
0.6738337556697701
0.5900286047073655
0.0025588339399557464
-1.053530946920556
0.8786556047325453
2.290327122911721
0.43382512035853593
-0.26112098267369654
-0.8758432617520053
0.7408340202512347
-0.23976426067040454
1.4751911483839761
-0.36556146642666965
0.6699102387698086
1.3908298917004813
-0.30625220897897176
0.5203645610584722
0.7563966464405103
-0.35274539743409594
-0.9006367008941323
-0.2301912498149363
-0.375077371007811
-1.1817961753005144
-1.7014336247518844
1.3205155705848717
-0.3832506331432851
0.5784607638517023
-0.2093104982954779
0.34100733600565925
0.11653365075149488
-0.678505585520591
0.9363065066847089
-1.2967170324687156
-0.12704777977995874
-1.0540576328303062
-0.23469528536111664
0.7162432465815871
-0.5086669029971065
-0.9265548129235885
-0.3953001382610455
0.8757592525405216
-0.8986508641173347
2.0958817315107736
0.5655365250538941
1.296586943447315
0.5586447965865649
0.5106272158372489
0.6331162165032674
0.7678631592784082
-0.5018608494521489
-0.8929164594352085
1.0399426081551837
-0.4923729619199722
-0.7220541032581844
0.527360443240374
0.04984971252336821
0.1125440444199152
1.129223511323515
0.15135946992856414
0.24843754105885124
0.2226952130387813
-0.8508129077984757
-1.115210725797496
-1.065846451728164
0.6314139235315953
-0.3622875300275798
2.0120065480844307
-0.9950542134566815
1.7952047337110484
0.11409210215142174
-0.09116749124053605
0.5040399744681823
0.5866373623236055
0.8147556918009248
-1.0808454880202383
-0.4257739856707486
-0.01940004067476942
-1.5650689204646098
-1.814614573994321
-1.3268634486537443
-2.2590454485129268
0.8304044089511712
-0.44209169056063957
0.07199545924729564
-0.6934904138749569
1.8358706901014301
0.41978040254504434
-0.7776379127642565
0.32689839952885763
-0.8186032135008553
-0.2051939248086696
0.42433381640988677
1.4072258327872549
1.0845613068495112
1.3892536210533128
-1.7732301636636045
0.8357124391911895
0.2872343808791642
-0.9031912786035954
0.7312802739846456
-1.5006546984127789
-0.8942947214258132
-0.588943252446676
-0.02925770750629554
-1.1932842662686332
2.413108000341216
1.4065852162874877
1.2424597813813845
-1.486644228951592
-0.17229722690370208
1.1022812509693245
-1.7194240921171822
-0.08491845621365873
-0.09439967079464406
1.321336700356643
-0.251805446036906
1.1380419468884044
0.4193275443624926
-1.4519584079313776
1.027322265127288
2.5648090704149067
1.298189314096975
0.4515791238521982
0.08053799678916602
1.15711481814905
1.1995628187217913
0.7326225984546173
-1.031197391460459
-0.15240342273720234
0.4924324147427478
0.10688317598470679
1.8435856562015767
-0.7337812653094233
0.6526037135507062
0.6682168573856894
0.8781090101620815
0.15147605592564117
-2.1578697802028084
-1.8159780544538153
1.3598225578660077
0.2429861377448551
-0.9090657323665564
0.10528372551159601
0.9530702661212376
0.5586407428915681
-0.7462201337648855
-1.7914035085193891
-1.5972127390791788
0.2745239827189499
-0.7717358243932
1.1953124413429683
1.0843226103957158
-1.3646186788891492
0.5577469506216456
-0.2246309044245207
-1.283737044903296
1.5669247133934345
1.0524918040599884
0.4984059357366817
-1.048524890839687
-0.20384670792851686
-2.426509522985537
-0.6792486290814291
0.4019043573224993
-0.08448255558880441
-0.34655142104583414
-0.9268671219396764
-0.9524176393370528
1.250443688870754
-1.0514283141370868
-0.2798372781896525
1.6799589753344444
0.5457385009351745
0.1283431737796389
1.4954217744398708
0.6715943355445488
-0.8825228058428429
1.7920339041554778
1.266195704163613
0.37355756484881886
0.4956628010070403
-0.5310135974061291
0.47367072021543205
1.7562677654977048
-0.30894931807399306
-1.4033398836476214
-0.8462304352008918
1.4655192509120327
-1.492129774568551
0.30483739536740206
-1.3624537580652814
0.8406331893167434
-0.014194135125100387
-2.2036869005030395
-0.23418001246782402
0.2445014828350395
0.71903210532718
-0.9678645885852883
-1.8340198038815818
-0.9610679138380298
0.43370967119399617
-0.49397817390432996
0.13779068084644755
1.8476279624628709
-0.5719818962829859
0.8617462494725466
0.9727695152091362
-0.4247386875567913
0.2271619927295655
0.051499789667799147
0.3311417813917407
-0.8555529976494628
-0.4188681645418077
-0.14781106954962098
-1.703259200246915
-0.8581671958303151
-1.065740601610753
-0.25129141427673907
0.33993485471587565
0.5715313125341793
-0.6209044295101928
0.27867497589080154
-1.331249318350179
0.18350172964028588
-1.8743511163481823
0.027940835445192238
1.6189276703422553
-0.37928018652998974
-0.81682550148132
-1.6100940015764882
0.02582475403467255
0.21220393871102552
0.23839220839369024
1.2625777138387348
-3.134671653932418
-0.36290402972286023
-0.18439880350839355
0.1286312828410523
-0.6174006476036171
0.3249095404726429
1.030919747619827
0.05801290983592804
-0.4326717641467739
1.023300821826592
1.7949646274003965
0.1137476871204781
0.40094473016328547
-1.7546061598116902
-1.5343224743863217
1.0096225352542112
-0.6535169380283105
1.9601080853787942
1.0551066206193382
0.7465847280440665
1.0513266060554212
-0.5839055882479944
0.6961934911423256
-0.6156553726899957
-1.8863410674825989
-0.4425776261252541
-0.5010768545670059
0.48551790919974835
-0.4151072749798701
-0.6643293181557232
0.495510877389965
-0.12331617676313798
-0.18759454249997326
0.89878222354837
-0.6256317651291536
0.05983229350146233
0.48283934743463547
0.6140374571785985
-0.07557322808270944
0.6898769780994868
1.5153091563937358
-0.5213903635138859
2.7324120125224067
-0.9502956732892274
-0.3972491878029753
-0.8170300827796401
-0.8398098331588076
-0.6623740005624571
-0.93654550551504
-1.0540584612331418
-0.19708657229717083
-0.20244043054892635
1.6048259871921629
-0.9087118883382391
-0.33386034393070324
1.4760550662921552
1.1962530557955504
-0.6008540125093804
-2.3125855138817064
-1.4186890174981828
0.38537819028902714
0.8662016263110331
1.1306282477844982
-0.09602653785848315
0.5242684783379196
-0.7427365179648958
-0.3996977955362998
-0.7502768942483546
-2.0422143179357324
0.9151307909078129
0.202727838371403
1.3931610904380205
-1.770394475367413
-0.4441549660196702
1.7588445479205033
0.14985646883666032
-0.04896269185937414
-0.677094447584692
-1.4960689235570488
0.07479551067351516
-2.4033318146480807
-0.8203355390613971
0.2699664395689468
-0.5835742620291686
0.46366222931513335
2.426605327468712
-1.4692721092427576
-1.018405189908675
0.05530679935835804
0.8555090484748308
-0.03224777887336884
1.312917529578346
-0.8740940848867543
-0.5456069126717313
-0.6130276905171104
-0.959628828995267
-1.139142326196917
0.8374961336315133
1.7677965905524669
2.0365007706040674
-0.5398341946551436
0.19989421745890404
-0.6184301443255079
0.16290722589144774
0.20908581932231346
-1.3792656792571283
1.0401840140071383
-1.4795864395950236
1.1557034955024763
-1.885255287356098
-0.7975749130660749
3.792455011151475
-1.0091944893592066
-0.41339643506213525
-0.7975334735953138
-0.9713260058960339
1.2873638595856614
0.679877796254748
-0.083319584308565
1.5284596483436672
-0.12691920940509827
1.7057513260435904
-0.7800303508309233
-0.20440351119099537
0.08920354604262593
1.8921403315735685
-1.1050885432047013
1.7571666381077014
-0.5790423327604818
-0.0019810250854276163
1.6063765182311742
-0.12423232818625676
2.0560479620160983
-1.1043702701829565
-0.04624809232324425
0.3221664529800216
-1.2431520350389753
0.6123337502283349
-1.3797089809960823
-1.3983343201108787
-1.5150606274967064
-1.3378176490018736
-1.0125128988118473
1.6503904695977505
-1.4980034054984293
-0.3755354571082961
-1.4256440649061524
2.030014651683627
-2.445511317930516
0.3838927904867237
0.23811601728117526
0.46281458185683727
-0.9570162089890063
0.9512908875933832
-0.10569316641670358
-0.6491242491647514
-0.14305805134002275
1.2641796748058736
-1.180277772865391
-0.6574325283147274
1.7442119058513639
-0.18242781354184245
-0.0663018265068573
-1.835904634182466
-1.5559019793399032
-1.4949573340570048
-0.28367097318940054
0.6762739979051094
-0.8828107439008009
-0.009261844111878807
0.09406775275871232
2.0653099751573523
1.0779001903863452
-1.0778660242204483
0.4114528116561849
0.07132684646247578
0.06635055404305495
-2.050507947950116
-1.2143700361715355
-1.4714461895714996
1.2669591000011156
0.3321625256148219
1.215736086249031
-0.9933052256454116
-0.11701771482961426
-1.676879711917126
2.975462351150123
1.8348537111632686
0.5501370937442169
1.4601992103252803
1.104575123111146
-0.14582837970312204
0.9699371708042898
1.3288577303537366
-0.5978847426519716
-0.2980505138180742
-1.4856951205087205
-0.858460651746713
0.6045851243476628
-0.7684616621102842
-0.31747873931427
0.4266034165474653
-0.49820619442682407
0.5239450271648843
-0.47322873998745707
1.393356521863994
-1.122438186006343
1.7680325800962098
0.787286410152327
-0.3764896591050233
0.07249412692499259
-0.6227776417544263
-0.5719198378294751
-0.32944250587121
0.1477382039405547
1.1605563754877195
-0.9655959035298409
0.8697146903159949
-0.9053739505684278
-0.026021706708702193
-2.236194045917692
0.4754608987259093
-0.41723212914354324
-0.28838951740248303
-0.09551073073263067
0.19547033371383354
0.18838955266416424
0.5008696711857026
-1.1287191827221728
-0.05642202457448006
-0.5513063396844633
-1.2220648514982984
-2.0258444963218594
1.7924727486585605
0.06316488515123667
2.4307525122535107
-0.7741123845846899
2.5144897579639225
-0.15649144989648367
1.0035148185792497
-1.9938663466637372
0.2355568705050854
-0.5957696438910651
-0.22549122477124567
0.004804290819431683
0.9994757955968399
0.5112254023276247
-0.05481011673554718
-0.40594870608409483
0.8183382362525882
-0.3412291379260837
-1.2719469961975685
0.9243373804568544
0.26690452995808617
-1.1035361318937915
-0.8252596701446488
-2.3028162035036397
0.36440583901656026
-0.9651764138149778
-1.346321573152177
-0.6172455063452831
-1.980234407315814
0.5193186873991278
0.7105836609492588
0.7272612614669649
2.7647061241319975
1.7195148202460167
1.9040572879843076
0.30252729379991056
-0.7294248961211791
0.11636478756920346
0.07658790559432097
-1.3520206522607845
-0.31922552376878116
-0.3547546384973962
-1.6417176757768746
0.7590014018272886
-0.9233184307822161
2.623600821010174
0.4565493245991372
0.6914852707150615
1.9808617327089104
0.3098160619055407
-2.5513459668581056
0.9675032563426177
-0.20037675014510886
1.0150433295410082
0.34144485397752483
-1.6529016659904316
0.37607717121660467
-0.6930432798193567
0.1544278425524451
0.11170486783546651
-0.7861455597263559
0.8137393794847304
-0.795073877788371
1.1084382199901244
-0.5532963374173582
1.5889308450265447
1.377546721822031
0.577939345014555
0.4293551292480336
1.1001698205729185
-0.8447913683733616
0.7392575789237059
1.3486551134695053
-0.4656085173658039
0.6982217802273822
-0.30258935594955433
-1.2756102588392506
0.6948901461275849
-0.0610574324970755
-0.6595509220604671
-0.5408062127452782
-1.582346794267606
-0.3012977990583631
-0.7224695058678621
-1.2481868593905947
1.2862955635840998
0.7083309290736249
-1.222411200347763
0.8082980489586608
-0.2895468749355467
-0.5040790885503005
-0.1924154536934028
-0.21726223875150566
-0.6572977419424462
-0.5000850601562066
1.9046369441509219
0.4472340343618029
-1.4694190365811384
1.3642090557989104
1.104774310414886
-0.954506473577808
-0.6300661730784104
0.3140475517803886
-0.3404429279862108
-0.7620217430479795
0.13402317135203015
0.8252546498856311
1.712975143589993
-0.342729295063429
-0.06253627401351686
0.8261683250834544
-2.4487784549094282
-0.09261956464870566
-0.39085488138886254
1.070543586066338
0.16658642910475424
1.4321852153650902
-1.1109841454114584
1.0135679743684318
-0.9469695228314104
1.2253674886794097
-0.04599898810405832
-0.17699132078308494
0.0887943522079987
-1.2731285355179744
-0.33705340486213636
-1.8220622905586734
-0.15614087585623765
0.6246772667981293
0.33056927345481685
-0.34470738036877296
-0.8068817873545624
-1.6713949149113794
1.5306491082650813
0.20190582539104984
-0.8900660212561425
1.7036310823468461
-0.5274834348919115
-0.5029943810022593
-0.28373458741472585
0.7099424325510562
0.7827370523883742
1.1422235999344346
0.3128573484493821
0.826923864925099
1.0616589748199676
0.2636591292314547
-0.34517941953760595
-1.4066874377995164
-0.1500454798778202
0.7457134069639763
1.272499489947565
-0.20902119937015562
0.7944127453693356
-0.04699713354450286
-0.6955482154802565
-0.29003891388518327
-1.1056548089880966
-0.7150161323658747
-1.971802968207368
2.1022866354328036
-1.7521886256870927
-1.136793573594793
-0.349375718399906
-0.5157677747583856
1.0383358222543182
1.6539523748509402
0.2895407384005897
0.8416814279280324
2.557446126021633
-1.02724891465155
1.2456442542839739
0.20399050495563953
-0.32399453816342033
0.1751787112849848
-0.66717644578053
0.4943967987841719
-1.5630544925972825
1.0838853354356368
0.6512602427345517
0.2844231598832302
-0.9259350274417352
0.5072390755024963
1.4664097696450955
-1.3984137283439722
-1.0843083203132342
-1.258479510949193
-0.16548214370835188
-1.6987749025691772
0.11854266485457912
-2.034569427790518
1.7294107297417665
1.0700784996497892
0.5946557877699656
1.9151254136422657
0.7159203004894881
0.31506606982560914
2.113336920756188
-2.337720323576393
-0.6331969815391314
-0.9804741582848187
1.9018036331093968
0.7583034631570417
-0.8923383973764737
0.6665391502805811
2.3530288570015543
-0.5518502904435114
-0.0412204987250745
-0.37608560339977304
-1.956348928782668
2.446446146332246
0.20245909341880394
1.303598047875453
-0.2783218345137466
-1.92153284624378
-0.6210758437746206
0.1272236098390353
1.3045689967427405
1.0935437707811304
-0.9684089692512357
-0.5968904860267724
0.7587225248987938
2.208783436935693
-0.2073667676090568
0.40119436252628954
0.4121420797231603
1.0308991629408004
0.8113686654212031
1.334933023507588
2.560508583018639
0.4745735144659111
1.7139799708052676
0.49930294489675414
-0.13550140640192937
-0.20129791172822853
-0.1995223331498036
0.5616816511750229
1.2311949698510227
1.1990045311094353
0.20549168252568906
-1.313797797400809
1.4181339210323691
-0.5970661171432045
-0.7997466783025974
-0.4761036333086351
-1.6910392081396162
-1.4334185230029706
-0.8980445975799678
0.24833282031202944
0.3400163111380951
0.6019187547354229
-0.4481083730780238
0.03373109438761985
-3.305818063505589
1.168294554209823
0.47169452859845346
-0.1700150374976643
-0.3348941163894325
0.3371401381537133
-1.662477928607474
-1.3820584843629247
-1.3117500689557944
0.28676734600430437
-0.28437560324462136
-0.7222210228553333
0.32279615378440957
-0.5410747523714636
0.32257216824386314
0.2986143189111577
0.599138017660626
-0.30150364106190397
-0.9017854015853226
0.9042832143493759
0.4064301948796538
1.7510384719067966
-0.14928306874228467
0.03322370757212885
-0.6988662725727901
0.6197979340214287
2.105659376242964
0.2662325470265449
0.3068077155025944
-2.5288052929231886
0.7824093221971837
0.0032714322815005875
0.009110436492316762
0.18471436679095388
-2.4465472469214173
2.3060123855748107
0.36395388057067796
-0.595751582268526
1.3319343227917146
0.9232234984906283
-1.4001031378222484
-1.1976885840162836
-0.400508385474514
-1.9481486177692435
-0.7335302622669351
-0.5230874824446062
0.9963615256483561
-0.7613401757239769
-0.4634034747760043
0.6435165048938527
-0.2088580639398165
0.3930961332320549
-1.2358685501190847
1.4139178489376067
0.29155563754652664
1.1386773756610038
-0.6182389658672904
1.8109473143795032
0.5641274555923302
-0.020793521091925445
-0.8038387102490119
0.49434359163961356
-0.36793818604757905
-0.8873417748652903
-0.654067875028249
1.4003386845239978
1.5481617417339317
2.8550358072197133
0.32504040478405133
-0.8119902435561525
-0.482330529839253
0.574843039864264
-2.1513652995914674
-0.3816437140767639
0.3638025646901407
0.6126134305265934
-0.5760782128607295
0.968436440806345
-2.9939678674841077
0.605476535904056
0.44843945236902594
1.0670212461622357
-1.1763393986139856
1.5619879575566553
1.251808205092196
0.9906657196947025
-1.7037066554673845
-0.267424839676181
-1.6919491789020193
-1.0355325004680787
-0.33712838066867035
-0.5495535827773316
-1.7688677375955908
2.6068923779083497
0.003500326123013943
0.8277197557214747
0.07413955828647059
0.41159813911636556
-1.4598948398472975
0.7374253728459774
2.0955140453222634
-1.3606768194755998
-0.4783695416342447
-0.30037595361399794
0.2691395540064969
0.4599843979627726
1.5073742280954179
1.1453641812390059
0.28051960605309956
-0.9487022510995183
-0.45037551419972555
0.3339594671869493
-2.2790433379652386
-0.8720015780357891
0.3322688023925746
0.05645336008055578
-0.14062894494667155
-0.011348962930702217
-2.0894302060032035
0.7440998145741821
2.189369079552779
0.9508804632384739
-1.4216025537873342
-1.050478132404811
-2.1210574754885285
1.6705772317578014
2.158832569788744
-0.3004677509646421
0.30586527730921403
-0.015773515708832623
-0.387102010913847
0.4580420471417047
0.4722254969153049
0.8963516779671991
0.21678300240680126
1.5094409693106448
-0.8722068408125966
0.3610809613337666
-1.354237360630932
0.25632505686206747
0.2573890199071738
-0.5070121066706907
0.8072800997104679
-2.3066603173009823
-1.1332610770437663
2.2177769254050035
0.055412616954726074
-0.4728343980230796
-0.9495937323753517
0.5173786662182182
-0.866930317096929
0.08249227318975953
-0.44848163875550334
0.23662289172375975
-0.08136056537374221
0.2614908265596386
1.1103909009774144
-0.19388868675818893
-0.2920452444369758
-1.0234202611951269
-1.1789154847201828
0.5560985128197223
-0.31913300189488114
-0.480705925680604
1.0573956293791034
0.10274527452152211
0.6490554564476243
2.0038100191989234
0.9168875726989931
-0.8525404378095932
2.1220124399931373
0.46549646358999486
-2.1971399489754324
0.496555822460951
-1.026133175569735
-0.04664317638427037
0.8551092272192705
0.24938448714818595
2.2458082970561057
-0.5357333104313121
0.4354063223822927
-1.1799845233500088
-0.06660164416828798
1.121334742123125
-0.6541232725571882
-0.35089212328973546
0.9737104037320934
-2.136673750112357
-1.284020749682827
0.42602569029664766
-0.06602616838701286
-0.07326920808815536
0.5892448733404695
-0.571153780242399
-1.5926535007035418
0.9494931908531509
-0.9742684288855175
-1.4429115380163346
-2.584455180739956
0.5996696382180571
-0.66658041534071
0.7867713605850489
0.3846084857155855
-0.17685499836294863
-0.5697350025356153
0.5671131941297816
-1.8037123729276938
-1.1916016619409329
-0.5351277804368725
-0.8950384622444582
-0.12603316001293483
0.26528711084857864
1.472460650417446
1.2087442322284767
0.7587306785162174
-0.0491639615630298
-1.5161033709138436
-0.024087641684996806
0.5093725155632193
-0.5759814550926972
1.8682286541486604
-1.3478060820911602
-0.1477408283764765
-1.180989737141316
0.9787245047495358
1.8215062177822063
-2.410943477003718
-0.4394407762162537
1.2059500945754769
1.1873713267682844
-0.4945848548054902
1.7878736412820042
0.05719366925196041
-0.5118407814824176
1.7942668167324078
1.460695110768455
-0.7245150225984572
2.131865727434628
1.293665690247982
-0.80104010924195
1.3489268453443282
0.9828473529132126
-0.7854294352733178
0.07635527525039018
0.25922584750996097
-0.5836379931638525
-0.5600778944398567
0.7784486292506017
0.2319847962831618
1.2462759415048676
-0.2976572073161403
-0.5963001411221628
-0.8364472693479245
-1.0317488353355275
-1.063853923259147
-0.9262533326999222
-1.1745945667117434
-0.08681630628171165
0.61127832802103
-0.7080721311942676
-0.09319964163039178
-1.4120490191128392
-0.9435637837137493
-0.45261945995253994
-1.4669461949627343
-0.7545839175076029
0.6351801747849807
1.1250726871465153
1.1713044687654104
-0.6026566679155794
-1.2854425449689288
0.0019671189738900132
0.678539547599391
1.184831931101849
-0.31766266774091206
-2.6789148509529763
-0.8481640162788793
1.50883951693953
-1.3983051849525325
-0.7883666544464754
-0.09188880256884768
0.559999175281217
-0.2239824498156661
-0.19428993075543974
2.312437390966336
0.9620412620293506
-0.8346354473856943
-0.8693689437350882
-0.10856457320237486
-0.6022301138412418
2.079859217917224
1.34378843175101
-0.6673609151750598
0.6094847602246013
0.645977896962328
-0.2008080575943788
0.8480143685269039
0.05641470383184873
2.016618938823928
0.6137756911200891
-0.26475861487274216
-0.7549242691534173
-0.1539800763734232
-0.9073978902162038
0.22100272962845777
-0.25709510683477577
0.36440311589415775
3.010857240792648
-0.7946794186263112
0.011070869875581073
1.1966075196957366
-2.1023216347468376
0.13470468260872107
1.147061548603523
0.7402045672788198
0.1528126585501194
-0.6786387375260594
0.12606201700694603
1.301655334685254
2.8865586048142795
1.3460436317628668
-0.3774908257243917
0.77723914924522
-0.47307495919060416
-0.8028665404790731
0.46403333922880935
2.0594611507195277
0.7020993223101277
-0.33003564298440186
-1.2442736747524066
0.01600583306297961
0.44836771593452945
-0.48872819917304955
-1.593385110766116
-1.569371454138531
-0.310669504226375
0.6169467532935548
-1.7582330225435958
-0.8344244285542396
0.18902765034824817
0.9241353395705538
-1.1265584357337495
1.2606990486719898
-1.843941066121296
0.7036005954683098
0.3029322550405426
-1.8114186531136933
0.2708218847634474
-0.695803813404263
-2.128942005197346
-0.9775980911652075
1.9434418779714868
-2.036596195736124
-1.733866450856981
0.14071512002785072
-0.33919355018734515
1.4853745714481803
0.3655830722473618
-1.5124691559533199
-0.788976748347102
-0.25232746533628203
-1.2959896861417883
-1.0905088063956647
0.7192681909505176
0.12177527124190948
-1.778932864251731
0.9602208710413427
0.9016350538388139
-0.8809779038036288
-1.1468543071813697
-1.8376202552648786
0.2073675588654118
0.764990649657498
0.34920856512044834
-1.1821819217524858
-0.4511340089823303
1.3636382919080903
0.5358397075823752
-0.44540376420784783
-0.5533673042367534
-1.057942862437826
1.1367096261991942
0.34924437617814247
0.34170925686864423
1.833036454787657
0.5293639783985493
-0.6479924408281027
-1.8510573607932646
-0.6461844744569778
1.6386971068632246
-0.9716058767080702
0.684280068673343
0.563291365970962
-0.21636470263455876
-2.9555765621510512
-2.5892585970181816
1.136474708348775
0.5005492437792133
0.5406809441218873
0.26319480706843923
-0.5254826304900505
-0.30325149697246734
1.0481406470433416
0.6681187228903047
-0.13630289171597684
-0.986810011372568
0.42717867909846563
-1.1766069986321634
0.7966338644391391
0.9539583069765311
-0.2230333531695404
-0.5394728425883832
0.11594831274675174
0.6879608630513231
0.053996725433486804
1.0191667060437646
0.5090529319719658
1.1554557325334045
-0.6455798412727882
0.9708767440632626
2.416091389775352
-0.47009747271503466
-0.28787342503599905
0.410222644130845
1.5539162304010388
-0.23893796575358556
0.8175363912715523
-0.11172678530565539
-0.7481728754581669
-0.6535016287376331
0.5562394869337038
0.821116374654292
-1.7240145472612753
-0.9023171531414753
0.8198618820459918
0.5781790806577602
0.9351958273389769
0.7321682100581854
0.6142826208880924
1.6561902370029715
-1.5500182038684278
0.8315819448758686
-0.9949404762107892
-0.33903349197347965
0.5188069201890905
-1.5534939466060553
0.4156892629172067
1.0352633747759215
-0.020657151544556426
1.719835462569184
-0.24315866229713065
-0.5399135331277325
-2.0160872949515607
-0.6198394291042573
-0.6158760972113133
-0.262996893979788
-0.6247173609594407
-1.142489086179915
0.882899620264304
-2.1274332478489733
-0.8401542298581364
-0.13534319982404516
-1.9052088953322586
0.3748033354168034
-1.581094996391316
-0.2062227530272601
0.3632940253410107
-1.063147617154914
-0.07986293630548108
1.350317639662726
0.5820540565265246
0.7843202787762917
-0.13841036068708842
0.5868352491691071
-0.046636688236001506
1.6725030556920408
-0.49213535512631496
0.9715277364745083
-0.7902008469573083
0.15870601320880182
0.14571372686414916
0.2305574052338296
-1.4430573538660896
-0.19189862558568135
0.15578773337326632
1.3784507664294494
-0.3821381075550974
0.7159509952293077
-0.5763843435517858
0.6426938691333908
0.49942650684029116
-0.22882427928901913
-1.4163819929524954
-0.9337941585535521
0.045530182636381256
0.0460257403669298
1.0149586816669989
-0.02666096437301996
1.4968861155188349
-0.06056249314972174
0.8313654495297672
2.228229898210434
-0.4492967713269918
0.3606492004456018
-0.7050553074183287
-2.347868584480373
0.9208768764923304
0.11743303682757192
1.2564232181782817
-0.7591481457711633
0.4911475661879962
-0.36952793573624726
1.7836276104467383
-1.5736032882342574
-0.6207813073967945
-0.8296288135534612
0.14680013441318077
0.4390088312277462
-0.2704498408741591
-2.4447899850000376
-0.5002184311380712
0.63788806967926
0.14164902765607162
-0.8932535120344405
-0.8744329043934351
1.3362611231216281
0.013906580298656622
-0.091171392624348
-0.5780894474403357
1.5075746714217484
0.23872578317741852
-0.9450751567963918
1.2688514456042046
0.8609597078786315
-1.0159771151237353
-0.9316750338927139
-1.1922014390169238
-0.9298946722865545
-1.2726635694357673
-1.2429440225640669
-1.2797454527432854
1.8344403147496282
-0.11199010710305839
-0.5776704982533508
-0.7967529980434168
-0.297778622077933
-0.6951921800994224
1.6664496075538462
-0.27626977229896293
-1.5282322572565508
-0.8402832156224459
-1.1209127291265295
-0.17116163772876525
0.0548239095251728
0.1044328630227043
-0.10032265171898914
0.3447032119708963
1.4903248457531924
-2.267274118332513
-0.1439144090112988
-0.6733779100311382
0.34691306852558274
-0.034979192866540616
0.6916656155199836
-1.3844865864825957
-1.7382081591459726
-1.174949163033592
-0.2266375398792283
1.4711324999481539
-0.5058674513825736
-1.0127856516824811
-0.41478696946301835
0.1906191937874802
0.6652202842876729
1.298889640248681
0.7158500979280925
-0.18942556086563456
-1.015311227152128
0.5418162615550607
-0.11470643081802893
0.020848470385458052
-1.6065313017692437
1.82166608900943
1.3485576361003242
-0.21130401394677203
-0.7998983638204562
-0.9805602467877959
0.7543411846118595
0.15014523558596082
0.5507912728602316
-0.2921039644660968
-1.361058511821395
-1.0672203162003973
0.8795199500964616
-0.010996651542722885
-1.4333213683084332
-0.006015799955045056
-0.2602387301194477
0.24677587634793322
-0.2074508802038593
-0.32585636026755244
-1.0397804853131107
-1.113155958074757
-1.385715743048781
0.07466841118748421
-0.8785619827702078
-0.7236277134943644
1.1161780939432893
-0.6704616490433397
0.888244614268947
1.004277419660321
1.6281032952736207
0.138284875065683
-1.0343125999978955
-0.5644069160821219
-1.1550031756848715
0.44778013318240334
-0.8879103022539525
-1.837470431902083
-0.7206877711340874
-2.2522505982681267
-0.5147852694850278
-0.46695551210962133
0.9382587583612257
1.0023224774962896
-0.4741880566084433
-0.10764003091059433
0.819513264141255
-0.3146641153484869
-2.170955962251308
-0.9796880583941969
0.1666702612636277
-1.6357615566316956
0.8009507770528284
0.841248588586646
0.9613903221123293
-0.5119151983922705
0.15784009200539004
1.7640961928658234
0.4843485353253968
0.18420127752888507
0.46024120995195295
0.19294559587546847
-1.5296678408713411
0.09027833323465798
-0.5437519819505161
-0.19513896274835693
-0.3629387980380728
-0.8322725793176913
-0.5210645882962521
2.00269067324289
0.03378791867901617
0.3973612290699722
0.9754892916084441
-0.07909548157735288
1.1548576283710086
0.5182937104815017
0.8203894040045083
1.1303987582273198
1.5964361158566487
0.6291896787529454
-1.2300382055145043
-0.827984746602665
-0.4656044687047918
-0.6581685627120041
-0.9445662966271776
-0.4455333946756096
-0.8741096388969064
-0.8969144802755936
0.9050533354168685
0.9049101110236365
-0.17542576144486854
-1.3713429857607007
1.094430419913739
0.134787314928902
1.5285895231326976
0.38010390541866546
-1.3710690325032808
-0.6769348493987607
0.8482937575125896
0.3450274438053421
-0.1403410792904859
-2.930427161324584
-0.014818627530932877
-0.3035997869369796
0.8420348061515265
1.6153560933972944
1.3017585824075248
-1.1225846321213866
1.0831222465243853
-0.9020577849406127
-0.3735114100846937
1.2101498958582046
0.054261117055132674
-0.38263380713003936
-1.5258512394551509
0.6129755745105326
-0.3822241178093025
-2.204183725592817
-0.8404128074268857
-2.6914183646623666
-0.43106554910431377
0.6615768838341402
0.5057403249734167
-0.1562483703693115
-1.734501133251222
0.6635627948662831
-0.8148674452645327
1.5458708235164336
0.5497821087913575
-2.1093592741462106
0.15585788464938935
0.46500777620703193
1.9479433551487673
2.3374869307300696
0.4761854230790693
1.4729516294093628
-0.06851206021382361
-0.6058800390356014
-0.08052795175390394
-1.5616159119182063
0.5219503527617525
0.45756102637653834
0.8669760492511285
0.3101342156865188
-0.8955397303103343
0.8080755651651826
-1.1427903067603153
-2.0677430133541037
-0.3316533000451183
-0.07399785330482249
0.5821615135595224
-0.5626736244791042
-0.32366777706178884
-1.1581075506952958
1.9415555291969773
-0.011455105465443878
-0.2096354854606713
-1.5449627115108717
-1.408159778652432
1.235819002398022
-1.449483830625862
1.3166447012808071
1.5314364636508762
0.5203565435494014
-0.8910210393214923
1.0603617029706645
-0.24103375116978695
0.33959890490827
-1.0428366671541374
-0.9421067121407564
-0.4652341340793541
-0.8271218687288077
0.871308249878998
0.8650798706624252
-2.2408195977453196
0.445100469539152
0.8741870760705537
1.083394453688805
-0.09514402211195923
-0.40433094069557424
-1.280773827584795
-0.18859134780353137
-0.40555435501851417
-1.0480637018432313
0.1635650749980863
0.4396377674440799
-0.36146552349915084
0.8400271310893351
-0.45607472608824706
0.33262039801475013
0.5960993010441427
-0.43980040566891976
-1.3977883466154999
1.3566542485340753
1.5959121047374927
2.226794082882135
-0.9515595212444304
-0.833836745430047
-0.8095526508478296
1.337581872744657
-0.09948117212666967
-0.26724344202027817
-0.3820773942543929
0.05465114928242754
-0.8837567780658969
-0.16079082587763124
-0.3707669917066867
-1.6706976173506447
1.1552617777557481
-0.2983525153743924
2.7487962675643414
-0.13795743712281722
-0.7163759887290149
2.10721820065325
-0.45632883760435017
1.6544987125417572
-0.4440697720722472
-0.8445499193212
-0.36024123923312623
0.8899464625403157
-0.2554651961668347
0.09431809033826581
-2.5408323878068746
-0.01334921152996471
-0.06677423490955472
-1.3439949119632102
0.28318323564375675
0.8715822164525355
-0.8033534133948261
0.6861786209783977
-0.1720848704268001
1.4176672112090316
1.0271237291883897
-0.10165072784173826
0.4043370091793522
1.7802491239668699
-1.4952897341190687
-0.7015335191075173
1.4802527344625163
0.09497132164316947
-1.5271262984880367
0.06880089913386608
0.45203184571863314
-1.1022579237800842
-0.17325060302293183
0.37395989145792174
-0.34995011129040543
0.23684695835076186
0.2619919300724234
0.9138164352331194
0.10239444722867963
-0.5700643206616245
0.6551480927326019
0.5818906186478134
-1.5555475938553804
-1.378733300977544
-1.615887357301989
-0.8214388333345125
-1.6868222326858864
-0.10453379609160053
0.5942144823529244
-0.7297662581672374
1.2288797226844939
-0.6089605808333148
1.0093432104751119
1.8215661742364235
-0.9424406592352504
1.7800156293588332
-1.2511620906366598
-0.5047154865920375
-0.36406173673202935
-1.428065115597673
0.6962162560494162
-0.019988365534327122
0.8274142819544562
1.3279113096914636
1.1430661153984087
0.5870804448562369
0.5772894236980745
-1.307425368174505
-0.2807384634674361
-0.16397161158329676
2.5622738495635016
0.007689005492754034
-0.21044613698754355
0.7055358550629564
2.2729973353553623
-0.2443897280220597
0.90734592583462
-1.0164483572791605
-1.949952674421329
-2.0883151064238623
-0.4479251779015421
-1.7011959821045295
-0.3258499019186732
-0.6292608217261352
-0.31820214688374154
0.18980512790814913
0.2087445761984808
-0.5649874772730026
-2.3857519228574313
-0.43829781156720604
-0.8275255480673186
0.5866899885607907
0.18493278176112465
1.2084623672198034
1.7047280852730164
0.8336920063459025
0.959292920580156
0.33521516641415267
0.6701326767091581
1.7766538926489837
-0.06895862555884974
-0.40053639148878917
0.002881680400485701
-0.2968279788158617
-0.6094826898524061
-0.7652140500521922
-0.08823045955605692
0.710883648525607
-0.6645501306464375
0.7887071586977862
-0.7605002477304569
2.009830042786757
-0.8570290121500542
0.66469429474368
-0.19117203718828665
-2.5164422915013818
-2.284922807332942
-1.9323848869211036
-0.46958445030953083
2.2096455363193064
-0.36721575118858507
-0.718416895632469
0.733011904318913
1.2786404588301328
-0.9863985711775679
-0.759060377372271
0.9800204267060824
1.1122070739004475
0.3637621451199596
1.2898715126819056
-0.5706580388288077
0.6282393092726568
1.1229110742180937
0.28507095421163553
1.7752624871827898
-0.39780396092326253
0.8619720599734114
0.4426731425403409
0.611993600395926
-1.3028795412283376
-0.647691160689765
-1.5225483518353629
0.7848214616817706
-0.0742770817633506
-0.561970466523404
-0.9252411338294055
1.1207935796967607
0.13716917053695152
0.24888761601296444
-0.0842929399752478
1.1548157124485505
-0.03535770920395201
-0.2087850584647083
-0.29154411850936396
1.3086772392256774
-0.7205708020380629
-0.2952578192799471
-0.048043490152657645
-0.29648980960347654
0.7072412462075078
-1.3410801822497331
-0.6704609052009539
0.13812836931679734
0.5371434897402468
-1.7811116262827345
-1.7388021159790268
1.7288193992270415
0.12239795449127291
-0.4494949985048015
2.5068086210063756
-0.24361079585071158
-0.537569525484771
0.5028968862566784
-0.79651522705143
1.2317860399281197
-1.4364366201582655
0.37096804605417
0.6311011379221164
0.6184971601912654
-0.555307509713665
0.759506243163581
1.106415050069361
-1.529553587784107
0.09609143690107509
-0.26776895612306
1.0308298519668144
1.0666135677556028
1.4045410489796781
2.2985520799546073
-0.6091139242317855
0.2564569859018136
-0.1924537634246122
0.920648511397594
-1.7678047568493207
-0.24573418306166528
0.5598085854333714
0.5607773132731108
0.7872245640830361
-0.5403893203710936
-1.200928370894708
-0.3510087396377389
1.0396851624722585
-2.461995795725107
-1.4156058393556676
-0.7550126940424559
1.169854384588107
-0.27017180087933546
-0.08944049803823727
-1.6287733502005577
-0.5736270890911074
1.5505923977269955
-0.4516920457005044
0.24911417902253505
0.2516579304762293
0.7979974693859665
0.06892006520592255
0.541871420982891
0.2690952394635578
0.2879030279353452
0.4200185157951351
0.04515963113138256
-1.0522872785548592
-0.050935994547987015
-0.7716548876471239
0.6695049699500235
-0.6710586227704366
-0.6229324297201811
1.714893806845133
-0.6722747746327612
-0.6894882336819642
0.9216980562120586
-0.7355767311461389
1.1342623810292838
0.587453786955996
-0.11661142954601446
0.06129929948014668
-0.14657765678843404
-0.7552247756245931
1.0646743681446826
0.2823863868098947
0.6386196440806083
1.8828071039299266
0.4245479260642418
-0.14711502116502018
0.01709303838012535
0.9919363124368413
-0.1963965507553797
0.7074569987292493
0.4746889337116899
-0.5268533556353786
-0.3178886452756913
0.6134927367713541
0.3427524852007234
-0.7951019940680207
0.23006952751521026
-0.5345198851925134
-0.43459516212436916
0.49018214772617047
0.8332782671302791
0.2960987413268565
-1.7946725601238096
-1.1724143150662667
-0.4360214347042764
-0.37397064205356995
0.37657315082158566
-0.603779120552737
-1.8172260720613536
-0.6801089664079604
2.3437697819117393
0.5650667442787769
0.6279132229766432
-1.1341072143982882
-0.811070282120611
-0.37028101670337926
0.6292592534777521
-0.539839822059292
0.023191974059772084
-1.082068078540689
-0.18231651796671253
0.9617692749880494
-0.0327458215649695
-0.6397144248326595
0.4544205067211959
0.41082803031843684
1.2620956223533104
-1.324116762431114
1.0736288080550562
0.6599100672619544
0.4013275751187498
-0.04485135047603093
0.05366840106884036
-0.3689552330747498
0.47231279843236923
-0.7543975198215309
-0.6230204853830773
-0.4302265312582084
0.8821378229720258
0.5566516947687237
-0.6558977846858488
-1.1047306190322341
0.019734682535055677
0.5084717465526701
-0.4931507038364096
1.894460715542377
-1.1868079573654107
0.8046409479864751
-0.3084303930728168
-0.3943465782614273
0.9886724801705379
-0.2214845258757021
-0.08916280434923018
0.719357906402768
0.4533431120535016
0.7263336536516165
-0.2470787826174317
-0.49418787750126764
-0.4975995029744638
-0.0448313901911414
-0.5625959117513084
-0.039884666864803874
0.4541602860125104
-1.9502657421053955
-0.27835517730660725
0.1521980439227577
0.053136900470183206
0.7762994403912117
-0.42238260003015726
0.282315576099106
-0.26581992447690805
0.033710260189747314
-0.09641414502677378
0.9306965987365918
-0.37300587855977096
-1.1257112299585827
1.5350025175913533
-0.4644431927916883
-0.9244822616787548
-0.7651218798363506
-0.8581529997015085
-1.8302325384280596
-0.8491745135626768
0.6708248652740347
2.094103705092218
-1.9299325140414783
0.5994929235275689
1.1219442120822471
1.874722317317921
-0.17138178444054203
-1.0093391297630596
-0.1749985603215284
0.9414014507339384
-1.6187848861822833
-0.44427778370620524
1.6982873380631613
0.04294701826862275
0.7420869752171616
2.3321293963034466
3.4392658487571337
-1.255548352034883
1.412030270751147
0.36396496686404983
0.1885319472819566
0.20807743161313055
1.526651455727176
-0.7866210666582895
-1.3779546312850326
-0.5217251540805774
0.7217153004543244
1.2140865642629781
0.09478417268107767
-0.10434828343452554
-0.15714835298257773
0.5920750923317748
2.3802191532922774
-0.9141947084137244
-0.14944652865172686
-0.2648300853172046
-1.2439214877030533
1.1637330095510983
0.3860784479776434
-1.2983909598882066
-1.1072794447926277
-1.048042739098558
-0.5436701973207883
0.6502847775966845
-2.082243385106095
-0.4545251012145524
-0.5282359116349151
-0.2954095270300967
-0.2305740525907128
1.8353314190311032
-0.319414502317569
-0.7212650915624513
-2.4142596721613274
0.34453718987988474
-0.37497592441707134
1.41402438132803
1.2789731926357997
0.513905414958748
0.01141020556622917
1.3862405755919414
0.6795731040515517
-0.19273614123503563
-0.21138753659023635
0.03468761755453233
2.235332744553389
-1.3271362566652238
-0.9527831857975068
0.010783955086975798
-0.03373591301337848
0.16843058322215262
-0.6006039147446585
0.006135479946835373
-0.6179145536047145
1.9566440360606536
-0.12339772510709097
0.2341119626290501
1.1496538907432319
0.4836219783229581
1.305101704717892
-1.1471533626868984
0.17654115866524622
-0.7031763462339038
-1.2267816885254474
-0.3290525218932924
-0.10315569414921823
-0.32835090892779945
-1.1365949519314134
0.9067506049767178
-0.3176203411341364
-0.3828792254924548
0.5231605457104002
-0.24184072441800328
0.193523365797756
-0.8497815846619492
0.7303600220642057
-0.31682597773364485
-0.8294441912077757
0.7565916867460588
-1.753332997248089
0.5500574574759403
0.38564343707259136
0.509466054198455
2.3632857558658413
0.727720030892853
1.6120072624879016
-0.014395840919730618
-0.08722749632648043
-0.910219693919279
-0.6451445481597643
-0.19669406666526637
-0.7550680981518111
-0.006461603771898649
-1.2096551503100332
1.6588555738631683
0.132717622031194
0.03082955248140391
-1.0942963358104452
0.05630509939427269
-0.38083055195840126
1.9448850223124095
-0.5045765753814987
1.6528931637523083
-0.5837211219607564
-1.6835226331656532
0.5384538649364706
0.4817615300066868
1.6908427130550643
0.9830014805035907
-0.19411349700904798
0.21683701687961462
1.3372964729202437
0.053823477327647924
-0.9603886803032321
0.16785752006319407
2.551624812373415
-1.390103154355749
1.1948531581097146
0.571122984581965
2.110035672267584
0.6037363327967603
0.452156489982846
-0.19145544480636476
-2.155302540188263
-1.2016938254143619
0.07667341650614064
2.210616710765763
0.09096235281218083
-0.965693704887564
0.6259382410886505
0.3334713817098383
-0.7595453344494065
0.3548311372136804
-0.37334485871797474
-0.22272789521896152
0.3142003874512495
1.2127381349817934
-0.2994456493991742
1.6220025429834002
-0.49477374640131944
-1.2853275935794923
-0.8280102578579964
-1.3455619252162885
2.167138874797027
-0.06695564540094352
-0.0655473002691088
-0.03371783014740865
2.1165852732289316
1.416919372988324
1.2633565859560618
-0.20898661784453812
-1.1384864077781294
0.09601454786538124
-2.2677284424232926
-0.29642150167461573
0.25418406271693456
0.29548896805995334
-1.019727633956892
0.24451530855098422
0.8808875847088531
-0.05956652405480714
-1.7815455315755664
0.6154695078051735
2.28888546441858
0.49251446674472066
-1.2615121661013164
2.250522686531488
-2.3187448534128334
-1.9298483982340298
0.29752498524029086
2.3352039308675145
0.9121636350043496
-0.7490045435828063
1.350875205390627
-1.837722957352341
1.6460741641219006
1.0949911222428508
1.1422439584325617
1.9576712288783418
-0.28110253757975084
1.0145683234469298
-1.0551371018835172
1.0046875127436146
-0.08174614506794489
-1.0547726101900738
-0.7645798582046075
0.12075334216318942
-1.3640939525541462
-1.6686696220483739
-0.030887541292544066
-0.506323706086313
0.6356312927569568
-0.5783523693664985
-1.4865753584690948
-0.8079297306287248
0.7181935498706765
0.2015295354205256
-0.8321399678847425
1.0773843547639936
-0.24953826834261544
1.5124312046000643
-1.8697922523442543
-0.012752510123794044
1.6709972744731632
0.6503702661191849
0.1036164624683845
-2.455826954917536
-0.3229101355797296
-0.4765735708349365
-1.016297794178599
-0.6761582229404691
-0.007948807703238142
-2.6287238309364636
-0.6769005839171842
-0.6329720076948495
0.6620518699733138
-1.8971789293574601
0.32126239879281365
0.08714538731457935
0.2946716693791247
0.249985479503288
0.15231182693596926
0.494409070622236
-1.0830136757218671
-0.06151613429863293
-0.4563584981408333
-0.14437388809343396
0.7838280012230379
-0.3751068562416944
0.5915335381833048
0.9478857084324057
-1.0441173933340928
0.9658600169019693
1.7729181031780477
1.4528207583891468
1.0612569540324144
2.104315577348479
1.217891955720888
-0.278167828082565
1.2844110583516655
-0.5925512486745362
0.16098009289548837
0.30170140764272413
0.34061006140604344
0.4749443651016209
0.7997144161604497
0.8418571258023096
-0.553460041583289
-0.8891709597523806
0.41732550949870795
-0.7070582215420552
-1.1838014289708563
-0.07381345410292733
-0.6918391884065384
-1.3429258439794987
-0.3533569108350414
-1.4438251248369103
-0.19844621835201584
-1.1786960933067943
-1.3087503460872605
0.9077676294246748
0.14025360977684861
-1.4415162225581528
0.6025400017068144
0.9046724081314185
-1.8715080680252374
-0.3656422560841741
-0.8963656993198995
0.6883918283357544
-0.8725335691232459
-1.4040066680931274
0.41440348523422943
-0.14402203524564974
-0.3185535979419986
-0.389944846824636
0.01829025504954537
-1.3431687824223726
-0.2012870293472205
0.47249782410123004
-0.5020872426480635
-0.09465516080555146
-0.02010616317139848
2.245039874887739
-0.18886901675758244
1.877527043655792
-0.19468287049368846
1.7549206470610406
-1.4223998430960978
0.5456302149580257
-0.6925775905671961
1.0607751335820894
-2.83007132768511
0.9169137896800196
0.3735112883233668
0.33409939957758406
-0.2641966717607438
0.6376753650927819
1.2640219852853694
0.7102529494707526
1.3627792545763113
1.0810415874342665
-1.4988812704525114
0.6693709382556173
0.7773393718798102
1.2104003792823042
-0.30398905295859757
1.6289361900376589
0.8551906545252143
0.6083833788536948
0.46995556412926964
-0.6719411035140226
1.6769658070867672
1.5911644484915985
0.28638232519282036
0.5240167661324481
-0.46268996043988525
-0.981578946860886
0.6040732792696297
-0.3195300609632349
0.2647519191746375
-1.5507484840400165
0.0515255982895586
-0.4808195500692689
0.2718843192347302
-0.5426369304925558
-0.935521261630386
-1.0708795063353933
0.4864544204742629
-0.49572599724985567
0.6852603108289225
-1.0990111554897979
0.7420521284893309
-1.5186314126486093
-3.3247225320640337
0.04205819529789899
0.5157028572267519
0.5549232664406656
2.2100309788612083
0.45155902778838475
1.2877993669622971
1.1947823297391438
0.10773035377317156
0.010213364580242723
0.43644377156801145
-0.07724304550926292
-1.0150641008707662
-0.42051377772400544
-0.549818494210224
-0.1522374643473743
0.8474035350419235
0.4507721986131614
0.6990942171245368
0.8061340023268763
-1.1370619618224804
-1.5179132000887414
-1.0095848226257738
-1.161626919326823
-0.023134584944024972
-0.020101800044852982
-0.4682195567694647
1.2365783076782018
-0.19892725411255055
0.03922905727477728
0.24379175522103877
-1.0985449390802182
-0.1292715179905701
0.07336674668242016
0.885088041063633
0.2779033446350224
0.7398041926496783
2.9907408463070957
1.8417889574524
1.0760206892374071
-2.289481464529499
-1.2309603908579414
1.100853222160018
0.7761857609062163
0.4046324951101334
0.24596073025676637
-1.756233848879949
0.22043074390169332
-1.0506737825376353
-1.7334591741972627
0.3532377531613693
0.38424536414978694
-0.5349446898231204
-0.9065277712157761
0.391687921543133
-1.8510237527721405
1.4474534710769218
0.9831193663494514
0.41288263990250207
-0.2673013146397069
0.5673423577370604
-0.432264240933348
-0.6587665910547026
-1.4096751020637321
1.4662136359665077
0.14078029999109087
0.14103184081383888
0.06488372144632475
-0.1142146018325163
-1.1087201368136237
1.0083726526688168
-0.13948971913428737
1.258532134208677
2.7381802050568713
1.1854091607893567
-2.5240095705935084
-1.830507289229697
-0.2369881502172575
0.40390186749959456
1.323584607384244
0.3605106134806084
0.6419556671972707
0.20457906225334488
2.9843351087458836
1.1659369847558356
0.242129340516678
1.1748196613770132
0.7965089952964117
0.8920452753676406
0.2863640983348693
-3.1273814671749482
-0.6401159676837445
0.13140375643196012
0.5064690501568799
-0.5394160216781528
-0.005579802448539573
0.18700437489119393
-2.184644443106825
-0.24709941508658897
-0.2473513842301524
1.5969124246619206
-0.7198107606412772
-0.13362534405747925
-0.044745581430803295
-0.2558013159834769
0.090501399357679
-0.9376080560724592
-0.40006060304762253
-0.9994111843981327
0.14152927480746097
0.7873835907725691
-0.5713695269078308
-0.690107012471184
0.3654496638487844
-0.3084733314535901
-1.011270156473619
1.788040824701804
-1.5464471556496384
-0.052220320410707115
-0.6984705923149163
0.5181371247485066
1.3949802073303377
0.10160524996578474
0.2075742981168694
-0.6636589639989167
2.6785669034461237
1.9669859552759181
-0.0526072820393552
-0.2012791320505219
0.8975384829814996
-1.0116390941435833
-2.114046255508015
-0.794128345499265
0.8838537475829229
-1.2297040499765752
-0.32253296410442
0.5852221022076501
-0.08316181315415877
0.3666715236229151
-0.2881933634675189
1.3330316428814877
1.1399971067166828
-1.3044601834034775
-1.6759830821363537
-0.5180308276226887
-0.28725237523754843
0.3578248372652848
0.053867042333917835
0.8641680947852055
-0.40943214363907643
0.8975733579039369
0.6771511490095791
0.8635687304105184
0.07841186886617924
1.2604385222212575
-0.715790601919791
-1.1923242547526098
1.3192718540725408
-1.181015531551075
-0.6694808932149443
-1.175855337374791
0.07392167743600074
0.03534070991304393
0.16923758921382304
-0.22462185476992275
0.06248092160120249
0.14076413638247953
-1.970154614758167
-0.3726203585160354
1.6480007804104533
-0.43715565412757246
-1.9972861243987596
-0.34032714528674274
0.26109725760222796
0.8178145314506913
-2.5660915043218773
0.9450056491749975
-1.114229205583683
2.4913471807447176
1.5582190500826436
-0.31660246688711935
1.4869060767108124
1.0370871111869566
0.8150915431856052
0.5696773717470329
-0.18404229417988932
1.358277757811226
0.4979333554192121
1.038108658677646
-1.4741580347693333
1.0284598998420702
0.9867832446372058
0.19825346982198344
1.6736930177076006
-1.4750457744996321
-1.2839087208328683
-0.8104618064739368
0.5933919580876954
-0.9931482504102195
-0.05141190423528276
0.5724573983320398
-0.21290257353172437
0.2010136108383127
-0.19942409457975066
-0.06338933391509821
0.15098477534244278
0.9847373641499795
1.528128140262629
0.5912524298018468
0.4318213430759217
0.3071850848510805
1.2802688970393592
-1.6655559875976331
0.47263995637939177
-0.38827228232280203
-0.5525750635244453
0.15402552180257562
-1.1427649689739134
1.1429041016501473
0.6279549151643036
0.8077194275533768
1.5826728094144413
-0.8112316105870598
1.2039174179573258
0.6241669972627961
-0.4962350416438707
-0.34976257608888955
0.5235377324993875
1.5120000760210845
-1.0774055535865892
-1.5816055187484217
1.0324778241442312
0.3707157933760959
2.2943609770631057
0.46481843229708747
-0.7679600065702539
-0.524546288148478
-2.4685018378724415
0.7057147838077336
-0.6401255768168983
-0.09627818548503159
-0.7491698962478509
0.9516728601784344
0.24043964068783863
-0.7258924333237702
-2.6632692547829238
-0.1812129255563597
-1.0773913702298306
-0.7066909947375593
-2.257819840274191
-0.5893314225373465
0.6415171840429646
-1.6538731088459122
0.061149095289036656
0.930788120689073
0.28089152502738013
-0.8901543473633933
0.8032233714644283
-1.2811101961446638
0.9691552728156542
0.10246951916238624
-0.9478280935061167
0.47226537705358473
-0.9148039760579779
0.13483377052488627
-0.6092323208600312
-1.277916197558292
-1.458741929496457
-0.6957407417583639
0.3458276126478404
0.9975852937344803
-0.7851780877177579
0.7797652159269297
1.4233446942467052
1.6401205094246216
-1.8587427975056232
-0.3834050106447399
1.1713329689315375
0.5628701247826802
0.4643129618050184
-0.8479574361817397
-0.765617046498508
-1.1032396095527022
0.07599851654065302
-0.48036191800837696
0.5716276623983662
2.1941625780479868
0.9845795397217016
-0.9855484616313961
0.5322042275233716
0.9372449958005813
0.2431184905908791
0.26835938751901756
-2.5427243944350675
0.36512574266059583
0.03923775422799434
-0.1386614442541321
-1.0429228419505077
1.9809634496417632
1.3927059094772538
0.20057776550882409
0.9302885094086821
-0.9226952271802514
-1.411808414587017
-0.54227634490315
-1.3390787815776344
-0.47933031113869756
-0.5889553110300636
-1.1471169300922301
-0.3246348815504246
1.1562265887070327
0.7403619669632621
1.3411420079233938
2.068373442473111
-0.03276654768779013
0.07403634502095609
0.6152986042364499
-0.16684587198537099
0.4834263135926112
1.8408203727560797
-1.1075101593194363
0.6747645722413884
-2.24241021826434
0.4120221115728689
0.0892290142667628
0.720182070784182
-0.036854679545429
-0.2864753302559725
1.6694413967940112
-0.011281332676636942
-0.68260888243112
-0.5842554820202819
0.8944773008402178
-2.128608255682423
-0.7728013279570256
-0.47045530197231705
-1.2079225806540288
0.07609919511956013
-1.7538674562486465
-0.6599613947633514
-1.1022930476591362
-0.6847057446873199
0.4460538127298083
-1.7269680599156105
-0.7085513925946771
0.8542891054426658
-1.0605091658395023
0.7633250498765449
1.0104838798513716
0.7130312550045075
1.7093697177561826
0.11378819768670845
0.08766675475185431
-1.39518117083573
-0.8300774001556481
-1.8718029787542947
-0.7165878778122261
-0.7491124673463752
0.3757030827032548
-0.27137210939258993
-0.8933567862046117
0.06042229822022178
0.34734020192494686
-0.4648973666290225
0.5107511298765492
1.1539182175065412
-0.019966091972550167
-2.5509726151056094
-0.6597104614143565
0.19386121993137193
-0.7155813125970847
1.0843339192142745
-1.3690293162730776
-0.37048411103328704
-0.14709274227564098
0.6861054848328729
0.7831698107546152
-1.0237038094005155
-0.34877289388695487
1.5116639582398834
-0.7518342814381866
0.1522787878143456
0.16885767430610035
0.8420182908355545
-1.4490370221695166
-0.6929913291259769
-1.004876092871694
1.3048448257536365
0.21232420325163442
-0.26114605058542956
0.10363822277348639
0.7072302077518042
0.10908163987422055
0.7036899308952251
2.1780068806503277
-1.1180106016677869
0.2757257731163054
-0.21715019762412022
0.9826743570155776
-0.12987141631612376
-0.035832816298210377
-0.1937839348629665
-1.1747653528002424
-1.1513281899911338
0.3084550610724568
0.2626452570218377
-0.16351307850288377
0.49922538896017044
-0.6265130536995454
0.41243566411965105
-1.067537641349825
0.7034785791208904
-0.07436346380997938
0.5871647221945018
-0.7332099504082472
-1.108699801168412
0.03338215531148963
-0.9130061561970678
0.6826732205348518
1.195543464690943
-0.3182049225060979
-0.3768576319506845
0.686242383387387
0.48291901514142804
0.46642069841128886
-1.369152897245776
-0.47918936357193387
-0.1932297847677932
1.5565294912012388
0.9759540175029472
2.249724563072904
0.9360259829383465
0.6586180355522225
-0.6542093292875953
-0.23835329486423198
-0.9204977286276359
1.4961751111717487
-1.2724601838614111
0.6053587439663285
-0.36965157602697074
-1.4036658323183258
0.33158309701393174
0.7698395793988428
-0.2660180283505794
0.7582387506769758
-0.27332064322943533
-2.3880146773920803
1.8717339311188232
0.7783378729893985
-0.29628812288492845
-0.0966376622337923
2.477181240164591
0.5878045634517708
1.7943637604657923
0.7011331204627724
-0.7183782099022265
-0.7895870814704999
0.30594659940665636
0.4904012608616602
0.9436986673979502
-0.3017917181218668
-0.4243180591935732
0.408355231841956
-0.5550765952937747
-0.4883461852307324
-0.5694035065630959
2.451584964503257
-0.3639622512055327
-1.297904491440116
1.551380157599951
-0.2552087435640009
-0.6869879994515811
0.3942429075849254
-1.3451402340671352
-0.15808853281394664
0.1353336307247983
0.7269245516536342
-1.3606676025880635
0.12006006915809596
0.39644782257795086
0.03732854728611932
1.2719048634339216
-1.583150592326897
2.1239262061505007
1.8588503061232593
-0.6630441589359464
1.52704804472482
0.16706140311427695
1.7921111558870413
-0.6883644984563271
1.1136799485615942
0.5534075294236049
-0.42211288256719526
-0.21536041863921002
-0.5596957807875429
-0.047200675330658956
-0.5485066434681654
1.6743972255031014
-0.11390802253099
-0.3905239803756027
0.3420897682517934
-0.05661249273239911
0.2077727487594275
1.6022825030317212
0.9671754777022544
2.2035492389586
0.2646365732841004
2.4118704071311408
-1.2330069374476424
1.0384978076173483
-0.39161053647339256
1.3637032183691036
0.7953583330287392
-0.9193090444540932
-1.1192804393353348
0.3063368224151417
-0.22602522656383275
1.3372809177736484
2.0137772822031734
0.4008507993210586
-2.447496208322326
0.24083763231649524
1.0216413069594792
2.2552892196916763
-0.46413746086109964
0.9742164190852711
0.8567534268628835
-0.548772370221061
-1.8941245897615966
-0.6558100687904536
-0.019241214692270716
1.0932045284044485
0.4536401109366013
0.23734511137683298
1.5525565500330238
-0.8074896836603391
-0.10146555015745934
-0.14790916120801287
0.32936746875853745
-0.7369211744530797
0.1002589538628039
-0.27339947402408704
-1.655401932397283
-0.001600007482429554
1.0134448614548317
1.3061699584465123
-0.9006738117058994
0.9677438734533456
-1.6789697704980129
0.008917818098991366
0.5451599059369413
0.996943333061881
0.5651084511127852
-1.087635789679661
1.3795912202971135
-0.6598804918284783
-1.1996930232006853
0.03135167548019621
1.1752729725952937
-1.0112679005652399
0.5926374905822392
-0.305349850199832
1.5273687914113534
-1.6462896149442563
-1.7234780170305077
0.43941842269531045
0.18160520709874886
-0.31760188198234957
-0.9813421475873382
0.3427719219071362
-0.5560643966552515
-0.05403383944450486
0.38406484838226346
-0.5614255469255256
-2.119876927770559
-0.5219814161584372
-1.2155454580162268
0.3757798992847938
-0.0865343694460877
1.1029632919548362
0.012067457780110903
1.7857471999086068
0.25428141366132184
-1.3867874077430067
-1.8260596457172154
-0.36924024926565646
-1.0035609326036419
0.5734127364393875
-1.37035095434972
0.14820138545383582
-0.553091805337957
-1.4817240873979207
0.5220735755155926
0.5556644687573923
-1.0196990063607543
-0.9943158540266399
1.3039327354729129
0.8834302376497288
-0.9211547934169806
0.12848189598593102
1.645128591029243
-1.0362932835720644
0.9623105387891719
2.1252839202013316
1.4998355040502092
-1.186272064449717
-0.6199214314291993
0.5499252236043789
2.410535574852368
1.4841546495172349
-0.4269183697347177
1.2234599077406443
-0.7283748056950923
0.3598742458830071
-0.8157108610068827
0.133802430348327
-0.5104615628561209
0.8446139684860636
-0.10583994778755348
0.5266453178670487
0.5590306021782178
0.26206557927878543
-0.07902359015160762
-0.6118758993588039
-0.06374350406631821
-0.13666532581586832
-0.9363434401116784
2.3417744513153234
0.006299816679732648
0.8737096700228932
1.8135195447098924
0.4402346355153048
1.7676743579878795
1.01302627163277
-0.1051863969385243
0.9651280997357828
0.7985099313925957
0.5710299788660692
-0.4101558212052407
0.18165866530389108
0.6180366226737165
1.679787396876586
0.6481404961108257
-0.5896285458877812
0.08935014921934385
-1.5517009291876143
0.7469008019284691
-0.521804829290449
0.8145981015971765
1.0969812209116026
-0.21913558509055697
0.0027361859501241113
0.5327967933309224
-0.3545348676769015
0.1387846555873144
0.45805967823195215
-2.032187726170405
0.8621516819531359
2.3273523413733037
-1.6915641766256857
1.3611966239824949
0.31765194169153416
0.6665685572114709
1.411828151236244
1.2129192025784707
1.0352016330728926
-0.019124789299868813
1.4349171236970957
-1.3512453067233205
1.0764951081667673
-0.2303484406915749
1.3044170282177103
0.973004886297638
-0.7137139724526768
-2.5951846589299414
1.3082180957111689
1.6774265195076419
-0.0678266299332396
-0.3745939897642829
-2.710767937534773
-0.6777875628471778
0.22003939827311134
0.07906027044957137
1.002174562411689
-0.979375271278172
0.7439480391742646
-2.350925046146561
-1.453712310317115
-1.7389727897826837
-0.27749252765484034
-1.5214096615593362
-0.35949785516725385
1.478934118674413
-1.9726503611729718
1.310628143438217
0.8955014396065568
-0.5640529137316316
-0.2498651836198715
1.3157239211319562
0.26941406089667586
-1.447455625146949
-2.5502353638558755
0.7505308703599057
-0.6770036641224583
-0.8811983390772161
-1.1614820725222466
1.326549541489137
1.8859581282781437
0.8735809491843743
1.211881849127229
-0.03299907016060126
0.7410480481050555
0.2994005485743279
-1.0171754829796233
-0.19024166359431974
-0.08405258234578386
0.5074234780097632
0.04794931833315731
0.8036626891302601
-0.9453957145538637
-1.9071196696491493
0.7010719829014543
0.2617229683282572
-0.9201444085396431
0.5125038923085942
-1.6824510750585793
-0.33229623641810985
-1.1939922046966842
0.44444999961885784
2.229424904755113
-1.5756756319947094
0.7275437378100208
0.8312937253575726
-0.1659241398404794
0.4451824701187894
-0.5703288800555809
-0.06634466068542286
-0.5182403399847583
0.12922356064709134
-0.38829121521105353
0.6084843034952135
-0.34078922468137235
0.806648560518379
0.19842575184976782
-0.9047639126440133
-1.8180814947441242
0.2525931139251078
2.5195341491862204
-0.8549223516469896
0.4510870758517364
1.1627755772472692
-1.2562889845507117
0.15151915853719145
0.08947853610538603
-0.6628973956618467
-0.24612461995053897
0.07256380484408326
-0.17526042635599876
-2.2171424724762554
