0.3738757852017369
0.3013881958079184
1.2554272242814302
0.2889686321410404
-1.8947304753873027
1.3001831146921232
0.12562176891315102
-0.30315964223700587
2.7321857986069134
-2.675174663381445
0.7423817166609504
1.4419584019102032
0.5286866817634693
-1.2578904846537327
-0.19440547136054642
1.2243583212160087
0.13410804771279577
0.15998876423495967
0.2928122414566584
-0.8534683231196131
-0.4455849118556806
0.5228871197487659
0.26995778283296357
-0.8609480585639318
-0.4169781785032469
-1.9778463230921022
1.037296006074475
0.6089894436819955
0.2414928400141655
-0.7016023907610575
0.8658054921610593
-2.276141375515193
-1.1449686683753222
0.21910725165265288
-0.19981671401537984
0.6053159664079149
-1.2205943585485106
1.855108766539013
0.8309055057467049
-0.5002791466361055
0.7693006669689583
0.8658746839965777
0.49948373828025844
-0.9330303883753929
1.825725032631241
-0.2184880270329541
-0.46805475159708354
-2.6207071151559376
-1.6954254865618308
-0.25179560220106306
3.3884026403349394
-0.11502816608294031
1.3174726916817658
0.10203197349816417
1.289410605093082
-1.4183049805615224
1.664560644352162
0.3519521284300917
-0.19757038042812844
-0.7104663925257247
-0.07545443794302034
0.372251597332942
0.2740407522176232
0.08782522129246505
-2.1615758623964205
0.8757587107073983
-0.7920887995963277
0.7232374237706969
-0.46597541685024657
-1.1905854596296048
-0.7710443716393045
0.23200563254258516
1.3927343994616568
1.969506553094432
1.007303440152935
-0.62844950754078
-1.4349487298187213
-0.1301725775379865
-0.9869646096496113
-0.27091604219283416
4.6955100375505285
1.099482076237816
0.5510139642222542
-2.2097727631560296
-2.77575625324357
-1.0423441898355732
-1.3515369530391583
-0.9335121916577098
-2.2071914445258813
0.06845135905257282
-1.3348480914236347
-1.157865520889988
-0.36353920720754734
0.7654769819474297
-0.7014951939021327
0.8570837803337217
-0.3964410241352026
2.752924820607377
3.2597145501725553
-0.29226179946489655
-1.6385993598656399
-1.5204431889926455
-0.77110968925104
-1.2075153555820202
0.4736306520420851
-1.1896582736308645
0.00742016074618662
2.75065868740988
-1.090868816431023
3.617811795497192
-0.3829140927918022
0.4466359142944729
2.5698592728891754
-0.21948932313402683
-0.1703086170484462
-0.5703487717848367
-0.09066331516790918
0.14291577896521085
-1.9417325720184342
0.9178851678549357
-1.2541327305534005
-1.7833506921525477
1.1975148177628803
-1.6861939078269852
-0.9242584927227998
0.6633203569615101
0.40764604379258634
0.2713500985607266
-1.2764878697414725
0.8295226649806047
-1.2124536954513854
0.4522445156350103
-0.7631522137085859
1.2999489628958207
0.7319998925780301
-0.9941790701102124
1.0037895317322898
-0.4801708517680854
-0.6950706105922365
-0.07706089251455554
1.4972531148448898
1.2759149366552234
0.29336739004427015
0.003274418741691341
-0.24016755380334479
0.3187574877079412
1.2845569938110601
1.1753241807895922
-0.06914042788948448
-0.9876756082062556
-1.5673199680033496
-0.7931920078568225
-1.2901029541233864
1.1495366021332636
1.3432326341118266
1.2593822575963456
1.482414732626237
-0.8118754495560885
0.46275357303879655
0.48821880987226485
-0.635296505159727
1.3279313524166247
0.14483687808521556
-1.4150595904018524
0.1750052070362696
0.6686924422861199
-0.5147777794345966
-0.6287330546653136
-1.2524286202196457
0.23519778879883024
-0.28120270582056295
0.7922228679592638
-0.2573696497639689
-0.18532341325515106
2.431296412336084
-0.08248007965377485
2.728907222816205
-0.1650598179327341
-0.23645802108807534
0.05297811776485133
0.8844152858314215
-1.1605589143135269
1.834530881701218
-1.217795559566557
-0.3792956588496784
-0.5995829961739322
-1.3875548779818152
0.3645907695094882
-0.5367122548255551
-1.906487697364733
-0.586297294766972
-0.42787934498313357
0.20105533142300247
1.3590722057008666
-0.16558530905259955
-0.09916689773227377
-0.1477874128339053
0.35168598881619334
-0.8362536426835799
1.720739797329959
-0.6967699406669233
2.1102984801532423
0.08281451508669059
-0.06628006542880575
1.735673027388275
0.5223473932531492
0.9846314486075868
-1.0929533311006154
-0.9009513112182611
0.35659320846029857
-0.8290796190652839
1.2346199272335556
-0.10574229327858777
0.028657515187135968
1.8841263404659068
-1.5495150974306555
-0.7089631075001139
1.6835155773208668
0.6781107081287592
0.1794365995762802
0.2266357743937237
0.2413234831806182
1.1994803247111923
-2.088432671955769
0.5951007270260519
1.7263451623326653
-0.5621779113302695
0.19531288960073248
-0.1654446440204164
1.0849666592249925
0.5032999012174575
1.4076031519969927
-0.5801494099148763
-1.146301829954363
0.8241452452156536
0.9654600391973284
0.5332519676437323
1.773493866082308
2.4501402128838756
1.0724373740504016
2.4696024908757606
1.1129640559438627
-1.03234528254126
0.4377283979524948
0.21617495742964407
-0.03271388598412548
-1.7509860685293934
0.21940969044244132
-5.83936228394616
-2.7960718116835137
-0.5956370420269463
0.6493415747570068
0.26905545640453027
-0.3873949269525892
0.8005146999569915
-0.7010248055479101
0.0048327120509875495
-1.3615995471146467
-0.1745473981007675
-0.1550027176701454
-1.837920815266746
-0.5932193958423172
-0.01896628905365257
1.5522457497448803
1.414208822910342
0.8217070634153529
1.2433471182098428
-0.5483288527995285
1.6072681806198552
0.028214240190151594
1.5114874785395784
-0.586468390082243
2.1097910203358246
0.39479144493304863
0.020783414127335354
0.7892673496621414
-0.04290497624502117
3.111629515078886
-0.4398733873408416
-1.6982318972896995
0.23344962514465087
-0.6282853014441552
-1.0310907386104429
0.15999238206322952
0.7688181315372123
0.23345913760053535
-0.6472411552573111
-0.8499969829777779
0.7907185439197463
-0.18405364783044567
-0.04041640940798625
0.18463606119747725
-0.6797051428189342
-1.6637474548870235
-0.3537126054085701
-0.9020528226206683
-0.6741533047859538
0.9160242362527742
0.4403732335062125
-0.16155721044388646
-0.345852899554186
1.5924861144375697
-0.20660996829874148
-0.8348433380002623
0.2620337262362195
1.1660853307321104
-0.1286185039003423
1.451423826482929
1.0380441465035917
-1.194024793861789
1.338130497727937
0.9293007985225467
1.9494611323062914
0.30492022706437094
-0.00809709180904173
-0.054903084353723146
0.8330302264925745
0.06680940332811788
-0.22155986584105392
-0.9630168823691873
1.4379759452884129
-1.2062195119443064
-0.9804341999043769
-0.09664545688338312
1.7214388756284642
0.9270405908554501
-0.3812886814843132
1.0909188610779976
0.2532866115490352
0.03813924478663186
-1.9807891954470724
1.1711906783931174
1.72956335741238
1.2393476300315436
0.49824468116477216
-1.1796528269029418
-1.12801340648084
2.1033377618652693
3.6992326367956383
1.2033075631307175
2.74101082007548
0.16831697587380004
0.508095207119174
0.009371137638024123
1.5530978194984724
-0.25655651161688514
-0.5662540364807972
1.0186818025570004
-1.1425206920063198
-0.3740431645683638
0.47423248156712006
0.31117018637249855
-0.00391071243613866
-2.4519993679880456
-1.651916840089304
-2.910210695141233
-1.840966925293304
-0.20800349984667546
-0.4455835469593614
-1.2291187189708437
-0.4524609491963107
0.3045530948484669
1.7003389853306503
-0.33070024325386327
-1.506994248724427
-1.2810528312887368
-0.9402421581768869
-2.3335386781943392
-0.14549806873676568
-1.722211012862906
-0.2803622733100713
-1.459351904964017
-1.276267940828998
-1.9675565284310463
0.1971080107170103
-0.6833687152433044
-2.661881892768451
0.6838352821947474
0.8476890079208378
0.5921411873768841
1.7718749736128394
1.4574241688222753
0.15660919997475728
-0.45762134318560416
-1.4499305591542078
-1.4723905934446726
-2.2656893449805
1.426952773200587
1.5338191996909893
-0.2866147507728832
-1.1377880932504363
0.5871577070651713
-1.1408143143806133
-1.0650760219942041
-1.1084804281466716
0.09111057054765295
1.0751327574329048
-0.5471877557325844
0.21713518184250957
1.2073959413483024
-0.06860340075644175
-0.6027443344547914
-1.7723964414127416
0.17821463781425867
-0.37223811269134305
-0.9609800569114779
0.2948368743283794
1.5513249011920074
0.9953679349681863
0.9871607061426726
0.9397829796749881
-0.3167947998969957
0.9843160766988432
2.470071343426255
-3.2667071786681605
0.6555814171839128
-0.31919300168534376
0.22169312728909568
0.10478724948630339
-1.2431278456367139
0.777401802230419
-1.0223664463471036
1.4840294578956397
1.204728721369701
1.68653402618067
0.9253088828695168
1.050458157375541
1.0290003377551824
1.130692861969447
-2.2831311304508595
-1.0247239268023736
-1.5150568834586273
-1.0147920965124648
0.16641627796962166
-2.6988088082635766
-0.2157821988389067
-0.6309059319003787
-1.1054773092352872
-0.19982837211802096
0.1390044776178636
0.5680188905663064
1.1648802709220243
2.0728661356024074
0.5337383581953907
-0.814352175349206
-0.960906254465427
1.0549439813357224
0.26973390405825104
-0.8329381982272169
-1.9025270139691615
0.022870279880079888
-0.8721818428332715
0.4078696208035891
-0.5324601938523641
1.05616146648727
2.1992595986058254
-0.5074265368887574
3.1288988638163158
-0.01862571693533139
1.5159372117359333
2.6190051338122156
0.48398026050610293
-0.014990344003936137
0.5153905381273661
-0.39072396759348876
0.630056249861742
-0.026133626039437117
-1.6767970672918269
-0.5108689060178189
0.0914890544093657
0.2358975668592187
-0.40440974096428756
-2.6338751308156194
-2.8977008614616544
3.2776698220926233
2.6232171583394597
0.8202927110563405
-0.08052456274828045
-1.16646514002622
-0.5251832829693907
-0.45966234639788156
-0.6838297185590938
-0.9636746083398557
-0.029328532850931465
0.04434471387285684
0.9085423301736351
-1.5131000529027596
-2.41832787990448
-0.7981221994132568
3.232145502247586
-0.8656559654042599
-0.003929605283063132
2.1015242108856698
-0.13194884249310884
-1.26813580815748
-1.4612064031139282
-1.4182805710888569
-1.0826443945224327
-1.638441422594484
0.32038032750434087
-2.617413848017239
-1.466601064464437
-3.558400415929747
-0.11988848282847128
-0.3460330448181975
0.15379855575381707
2.78728042240227
2.289639112066014
-0.5344585017844489
-1.576020955813608
-0.1400482778981788
-0.17231020361039884
-0.6289178037054093
-0.38016701036264383
-0.5985953621048831
-2.687084509613693
-2.6585211982038612
-2.9076909075887856
-2.802344530800065
0.6845205574757548
-2.565393127027776
-1.4940664919544742
-0.19960807958457508
0.5619940385209165
-0.9790145828941703
-1.2458718741766546
-1.2898888590959205
-1.6130210404104788
1.8233983887045742
1.07838817295392
-0.8618551050987542
-0.29793004608956286
-1.4125282357383013
-2.258707455954347
-0.005647118175427464
1.1206083842614625
-0.4017324722317746
1.322973900378211
0.1235219469498371
0.15504317040674157
-1.1956803959001554
1.2158076250670593
0.87349836445093
-1.0404097370853114
1.9387290030710074
0.1748200668277317
-0.6637026665885984
2.0917882280026405
0.17449216203084628
-0.6814286548139619
-0.6956683575653927
-1.1769901662513986
-0.9552038411272852
0.5752619580511916
-1.0527281120880518
0.4284400941805688
0.6274527974248973
0.34970662956324233
0.3375069685905859
0.9984479250946708
-1.6783646053609385
0.12698573735029994
1.943832418701862
-0.35877136832954426
1.2406246348382395
-2.8161347115239135
-1.0599850353380849
-0.7253452631551126
-1.5267199716291633
-0.24970459427719469
0.7661693615297434
0.07007098368670828
0.7998178658993635
0.25345743946909277
0.8304661781880183
0.5589636962379763
0.5370435009012297
-0.39890623195144587
1.0886130187621126
1.28663665311074
0.16480149215412082
1.0769225715308126
1.1598420871750437
-1.440870316344227
-1.1692547079549622
-1.2398632354827264
1.7972474913672913
-0.9016666258185817
-2.191220926362508
-0.860177333443233
-1.6749036724079986
-1.5233064562402618
-0.1720352515656838
-0.6356858633178244
0.5024209100400097
-0.13618945189154905
1.1729976245331502
0.27498975198133785
-0.31667579211026464
-2.4272957971772406
0.16982777963333204
0.17749307781060517
0.18006732607050344
-0.6804830570902527
-0.31964656331423014
1.238643444662892
2.8803805589969214
-1.5613976969446508
-0.11352396186068361
1.2878776055432692
-1.231962674437503
-0.2525115147037112
2.8549274586224938
0.5561304894890862
-0.35706260017289576
0.026656547513459597
-0.191104015737961
-0.3153647102723077
0.6963137215784156
-0.006632607633803741
-0.5635415872429347
1.0869081169330146
0.8243470998142991
0.8636166797570657
-0.02978414545714377
-0.6602454914008498
0.15984626159987797
2.9650153053257995
-0.8543485012846785
-0.06308185872597069
0.12636937228207012
0.19322077342807983
-0.8934667278094731
-0.6164161343984198
-0.5777116310373436
0.1264714544509645
-1.4799779054255262
-3.3331208450300145
0.9870301231145319
-1.2873436121828248
1.8280878093340953
-0.6821354065978636
-2.2588772560395447
-1.6803514447592673
-2.8125375407580986
-1.2940508299765456
-0.2687544617603289
0.6799763413338884
-0.18902370836375607
-1.276017387858677
-0.036795557740295456
-1.3608136031585158
-1.7936133314107767
0.0724906759266617
-0.08003961197372532
-2.629845114167521
-0.039086606054971794
-1.859850751218098
-1.3030125707910132
-1.2280337004704882
-1.3921172244999132
-0.516433683487957
-2.32799207239053
1.0477214891818583
-0.17095265891514116
0.6134625121942905
-0.5755461036969814
0.44760690010372695
-0.17651735597538243
2.3673302713109132
0.011415093574803236
-1.8971194085178145
-0.17958473190930224
0.8535738456591522
0.19348130159648438
-0.4145456646644286
-2.83655589252476
-0.03210157840809215
1.2332322119121821
0.08018484361633348
2.926729490919846
-1.4743117427157844
-0.7289365169339361
0.48501051684734975
0.4180941412006156
2.5809168128430837
0.0926728411873168
1.468237398139291
0.8185240302071065
2.6183922913354283
-0.6817325314225108
0.9544532009972568
1.352940837065991
-0.6432946174461338
-0.6553048171455009
1.5907662043877275
-0.7783608434310447
-1.467910336364638
0.09630806752569947
-1.1982721447347207
0.8450207196636426
0.4815218140448337
-2.307039169622885
1.1217860514000197
2.45971910971266
-1.0806720248168713
-0.16852057739235846
0.12805687668955032
0.9483722994223143
-2.686629944675829
-0.031920568465251375
-1.4268716443431835
-0.5678433115980701
0.6351930196005382
1.3903373863671489
0.4714776129152038
-0.0685487329633537
-0.7330159155986025
1.2341388821118155
1.316662554366655
0.2517354445107734
0.1783496070856559
-0.48396484387027805
0.06902773305635415
-0.4253240840929603
0.27741692288691006
-2.2654260272045126
0.18033938539692174
-0.8991629609269793
-0.04238719293865866
1.0814237649785143
1.561290735380656
1.1774684951735181
1.9186114442144524
-0.02492281461357631
-0.4390983694549983
0.6468141855460954
-0.982414337481194
-0.7640081419556328
-0.22789454317609972
-0.05341288085104053
-0.43896437438542085
1.5085638643136712
-2.672730483072529
-1.0949837143671683
-0.5895919507752245
-0.38295087902418706
0.9369672931148717
-0.8400515740403749
-1.5544496351883461
0.4538853088128673
-0.6690772412503023
0.28299897473203484
1.0136055776648734
-1.4615797354091855
2.31087524960717
0.1386585744560143
0.4477807111446194
0.0322709324252487
-0.15178488001152676
-0.6151668950492462
-0.2490656577000563
-1.4596241138967239
-1.0784561184305028
-0.7163331739934992
-0.3010701633181994
-0.861114341593026
0.8564684366183399
-0.9473365788269754
-1.0212122964486898
-0.8202940334551776
-2.593875929036227
-0.03133135980035815
-2.0376178577725046
0.25228920532247084
-0.5909551382450784
-0.20169636452592105
-0.10939369843610561
1.2270143196639798
-0.034752118222298706
1.2362364472521428
-0.4986554125129963
-0.15574901486888684
1.4133838072053386
0.24880874260555633
0.785533083859043
-1.1829041916060157
-0.16456276869809447
-0.28206157480733735
0.6564975944867059
-0.08501953943134082
-0.05661909509448579
0.052875637203588274
0.2638444458968404
0.5432531134420743
-0.12919613010097517
-1.9045619021177393
-0.3203401554718202
0.859891251620566
0.2628768581993229
1.8150573900016749
-0.45321873129448303
0.09279251431161632
-0.08856567738169925
0.16234115893643303
-0.9950745598468439
-0.10925764635085768
-0.8024372493325226
-3.072868071455852
-1.4270628075697498
1.4579684774037545
0.20631268348777917
-0.4792330252358848
0.6306084352094369
-0.12361096138438783
0.07471319213735607
-0.9077027220572644
-0.11423836823951934
1.3276317342942852
-0.4869449919566367
0.5505551082246846
-0.48645801779878917
0.23660957217677436
0.3230478601067904
-0.8648657957344835
2.0543626197310214
2.3230425852526415
1.5373843109053307
-0.08104232418950102
0.4926316253517662
0.009706580238012083
1.3402010088046898
-0.3554808083446033
1.338720332710294
1.3231125004499156
1.1655533697212281
2.926791912712304
-0.9493738444544997
-0.6311242081287134
-0.6439152659738735
0.9413868140674976
2.063741716170281
1.4231557419780771
0.320629060146338
-0.6338724884921639
2.449799051309125
-1.9199242929834306
0.39925053268119176
1.10256424867319
2.111826425354369
-1.451782846196828
-0.29519484153761993
0.9945074686611967
2.301582695289058
1.68727326423922
0.8845649442797774
0.31943691195037904
-0.04847957913327148
-1.0090465896247114
-2.1752516900184227
0.5871033416218829
-0.037540279270086144
-1.7124664232106246
1.9567065572930988
-0.5910071607802306
0.18539144148740241
-0.5400652302715107
2.3540112853989337
1.0611691393040847
-0.6252970862184037
-2.280293511824158
1.8319544730178585
-0.6119078205845004
0.3868420410653202
2.330201505880067
0.777315138181614
-0.38560917244437865
-0.519469048463257
1.9604375791574131
3.2550720009987173
2.4812475814446784
-1.9413038047598077
-1.1299695032564012
-1.264156217773674
-2.1189288812568545
-0.1542513142370762
-0.9805767681078724
-1.600946775488041
-1.450637424774882
0.865082143395638
-0.9919222376608293
1.185949071581519
0.8053782135138572
0.5624645121213527
0.3996477415439431
0.4596016314972588
-2.12925250190696
-2.507987159152422
1.5892875057008655
0.40314778497508735
-1.0127774974235368
-0.641509974825535
-0.8626033094100445
-0.5719306004291561
0.23722187205324483
0.2593866477422211
-0.8120286423410966
0.4342047192241649
-2.27235199781848
-2.094597503855217
-4.427175763719562
0.9854290064060571
-1.976026519768683
1.2702784497109343
-2.3003938374561828
-0.48022659123741035
-0.1763509620186558
0.8919431676320111
-0.6497142800422341
-1.742835319351776
0.2565517239363514
0.8243442000120551
1.201721054998808
1.3456135538481027
1.3146617958949478
-0.5121406768343962
-2.8754623024705315
0.017227513486273535
-0.38835143373342534
-2.6795107325141707
-0.7413743901194503
-3.0020069222048393
-0.8439939301832502
-2.316528460536737
1.1728368388413997
-0.2608706828441308
-0.6686638952107701
1.5007425799533447
-0.5915491846931271
0.5057448487023769
1.4078029263184069
1.0037660325337034
1.6369683487973141
0.327927054938018
-0.9764505014301778
-1.5711201934447783
0.18017355435259375
-0.8261598818546896
-0.36526186475040706
0.31325825959796844
0.7384578707912196
1.0967812086566473
1.4608393813269955
-1.143238791500166
0.44668064925069784
1.024385630955798
-0.12724414770234807
0.5004109774702287
1.6426445535471015
0.20740081879878722
-0.6040455945465338
-0.6724203567560315
-0.24227234281250368
-0.4201872912383054
-0.48836527250573875
-0.7901535931679308
-0.6958674509802348
-0.6843388493715429
-0.7587875848660975
-0.859514347173648
0.7969327208181564
-0.586415199477425
0.764244668796339
-0.38843148638514713
-0.785343493463546
-0.6937396434622892
-1.2711634385453383
-0.1126921185611512
1.0128686479636428
-1.372158817093411
1.1384672143487489
0.444015024864263
-0.17217946724570998
0.2625918203069399
-0.4103985696908737
-1.6440292582895646
1.6305349978658188
0.2458322360145216
0.5364206020493993
-0.270446714293708
1.5738705917163651
-0.4603586823406673
-0.06563667928860668
-0.9996605093217688
-0.11071547503294933
-0.5029170345477216
-0.24834355643555095
0.7366431696173872
-0.5700565970983731
0.9635074822493643
1.046965996216726
0.05257158975514528
1.4828029999704706
0.4712448300778183
0.8790725382581662
-1.2091404261867966
-0.6487751803881915
1.1533701705434467
1.5875682677148242
2.053415256753942
-0.35283839599551975
-0.29377581029445415
1.2189838868891036
0.24302196084022515
-0.4500919884548343
0.8489252520851086
0.3105979731975548
-0.47415612872031915
3.3607070646729276
-1.8354759853136777
-3.0574587093616112
1.466668223738646
-0.016885695196925652
-0.07691346947298658
0.2710940240631047
-0.5544357296969971
-0.37229272942830477
-1.6154862115537252
1.59337968010308
3.337201943159864
-0.9285952520309171
1.1583058739619954
0.20918155316996714
0.16498875357580933
-0.9640161982170435
0.17130147568698476
-1.553756851670994
-3.8519946042904216
-1.2612500194266738
-0.36271156887626793
-0.11619967769108046
0.06483982437605663
0.22115600042716255
0.029908969760257496
-0.6938163107014379
1.4492449477922469
0.6935473872103545
0.07181520186873583
-0.0714262898656127
0.6105548452988084
-1.510934363552564
-0.06582375203872388
-2.0129209397321586
-0.7897009944110867
-0.11720137521318137
0.40975621751151675
0.4856820806504212
-0.6860965327557267
-2.2495213376172014
-1.4199867377837971
-4.783542611132112
-3.3925772637093012
-0.05925041612087915
-0.7599602311416056
-1.736035448944868
-0.5901326186559815
-1.1685185782878198
-0.5996388857090631
-0.04401556796831595
1.2866253508693632
1.2538087558433393
-1.707445512418127
0.9194149929499453
-1.8284890003572372
-2.406273704450055
-2.2953197845828854
-1.8244365947705905
0.029420427594600836
-0.46582262975079985
-3.1816485686346114
0.20285873958889075
-0.02606216997062262
0.3011875041695875
0.32770839440841815
-3.4759691868958775
0.14988637056494286
-0.5272615611598346
-0.0795534241481425
-3.0055169606309367
0.3533015564341359
-0.9103444071370024
0.3897741590946014
0.5527945232869796
2.0078442999311625
0.4441430231057471
-0.2425061855508122
0.3510478883288603
0.6858986032845212
3.3310614060082253
-0.854128721248264
0.3511863602154854
0.39281082503115156
-0.017866270196461566
1.0623767182355093
-0.12532347587971604
-1.05397049206418
1.0278504935664303
3.3645031482042573
1.5600780307890658
-1.3943588582030264
-1.5067653004862092
-1.5269831931618782
-0.014339719623191536
1.6343529609499965
1.6707999271273488
0.5414346493529767
-1.7272031030143475
-0.0911377354742573
0.0059192929577884254
0.1185554702443408
2.224684589301354
2.4078863573298963
0.5652375844762554
0.47427928475061093
-0.01645856855673505
-0.4698170310289441
1.9600980160205002
0.18491115453352477
1.5526697005844239
-0.5767957028976924
-0.050531486024962866
-0.0727300657609488
1.656705384467535
-0.42028630187741156
-0.4110884534011985
0.2557518788276367
1.6223608639009486
-0.26250495216615777
-0.8333612514328337
-1.0531424949629329
-0.6506055180904047
-0.5600657931746299
-1.3362523848590495
0.62641884504242
1.0142373389428951
-0.13130429574527863
0.517094781794436
-0.07011156805340002
1.0913486842585725
0.1728654277596033
1.5138585919406102
-1.8753243114183509
-0.3856791184566722
0.5710523293940024
-1.1647674231622152
-1.1810520164848926
-0.39357435736694923
-0.5804670630786992
1.499260101245751
0.23527243448996155
-0.04826845276785155
-1.1928710606800998
1.0469632038465777
-0.4537411466282912
0.008046865398725518
-0.16859742191589433
-0.34510231169960254
0.20693044666746305
1.4780240250670045
-1.1429894396488698
-0.40039747533015374
-0.09353279318496929
-0.05544606820519092
-1.0930834658626107
1.4050115712390268
0.052818752189825874
-0.7587307503573502
0.3839428173194628
-2.7645685527842736
2.0627912330407456
-1.2875473346812956
-1.0133083499169495
-1.4770771985288325
-0.5568152599569165
-0.7227802921707756
1.3786506470500461
1.009221456228915
-0.695792626927092
0.3242655035946464
0.6383143336747628
1.1415266971790468
1.7164907943545658
-0.28980967843566874
2.3161328294829833
0.7633238161090323
0.20633816406606326
-0.6188265647221138
-0.6333850946414162
0.6127198729156114
-0.9068011252332691
0.9767376962926673
0.14328042168576666
0.03346570366286296
-0.7358384026740858
1.6150283773329197
-0.4319343278976257
1.4770713337510386
-1.3961851062081103
-0.945810075908933
1.059726128739651
1.6961231488702222
-0.23299481562744886
-0.07640349410374161
0.2633942258598501
-1.2348971306904237
0.5512756498264221
1.9642810891734763
0.2035238091382993
-1.6394903399330492
-1.0350216206908562
0.5049600409452001
0.8467887522087865
0.35481095890359665
0.7532630431957761
-0.5429140185072227
-0.6629580650561291
0.9773989162971699
0.7301484894693082
-0.27990964855168077
-0.6219273083953812
0.8278711144116433
0.9548245383979096
0.7981223487713168
-0.7917789382565644
-0.4765457905949383
-0.7584996642986459
0.3934340718695552
0.9122968055615227
0.9164281578940664
1.2545842106247094
0.8917521193738723
3.0181673549469137
0.596447388604036
0.5313143224666457
0.21263536521063464
0.7771694640314767
1.0697242052716822
-1.3005594136565937
-0.09462570568527692
1.1777392548457568
-0.009511140862316332
-0.3700603734983303
-0.08246275835463145
0.18521464441273233
-0.6677073251623548
-0.4651020950622817
2.029723513428622
0.5533764321939455
-0.29369509046975656
1.5741438304139619
0.888265045794099
-1.0063402983846568
-0.4860220035383884
-0.7933500922022518
0.8343570501706866
-0.6339336824388573
-1.5741169878937644
2.331639521216142
-0.5624165072686498
1.3170122746992274
-0.6934498307126516
-0.02083081128081264
0.06313491831216357
-0.41416612023214827
-0.6045584250298355
-0.027189850288052122
-0.30040932173500956
0.1495321042444671
-0.2988540661562723
1.1279199984190462
2.4417240561129
-0.6550547448163482
0.017211561105480378
-1.9439479936665685
-0.7362612360209886
0.24220071621679187
1.0886282133058214
0.801747798178065
-0.1264132041879881
0.5195381517774704
-1.3521091830951064
-0.0036021092956185674
0.8745373736615268
1.2170518554338183
0.4601353685267555
0.7688367781033452
0.16034671548441526
1.2108305875530248
0.9671316130804856
0.2882931992005446
0.706636171897507
0.17778430335989437
-0.19962461421463157
1.1899145177756114
0.038160352133467766
0.4295994671339393
0.09930692679253249
1.4897463728873854
1.1138155070718938
0.05798444979302493
0.7948049004614834
-0.8951072136750937
-1.1446727893706425
-0.6540378871982122
1.0459455102313309
0.4315456121835923
1.1434444056613164
-0.5434692459778944
2.1421672706044763
-0.25676540192116976
-1.8343508564307105
-0.09393022175285343
-0.10167904578466586
-0.7180389827900522
-1.6895939697665732
0.216876683586205
1.6397665728850093
-0.14813970722567565
-1.5004128756436037
1.874242321041031
-1.5186688509015445
0.37950839717298446
-0.15223118893257925
1.303601013700245
1.1438096887068334
0.7319083031657028
1.0434432427856424
-0.1918125385751403
1.3608184695549297
1.932823520014823
0.2698803809779766
-1.5396119116610563
-1.2168973173523394
-0.5964458322914912
1.0991512513458381
0.02548011709778545
0.6497036163366031
-0.4854844400552173
1.99239363523446
-0.5058262995200199
-1.5502860914805354
1.4575080458957599
1.827183716081294
0.19315194001146666
0.28762692433836146
-0.042532102832949246
-0.19888132038316053
-0.6577397494911679
-0.37008795477638157
-1.6540360100661924
-0.4278499075636475
0.767392272799579
-0.4645037114746449
-1.2497952439415503
-0.8402032473684204
0.2487979065056747
0.056366718611030056
-0.711559985550796
0.2618582475382287
1.6653091414129373
0.4081974355565003
0.19563497407822772
-0.6661539475429168
-1.0653864384403469
1.2981917116956279
-1.3834194608835464
-0.5766185978977625
0.9620807868248125
-0.7519811263524705
-0.16231849917556385
1.2271960186923838
0.7562529926825874
0.6262065475331602
0.7999052214773814
-1.3108571671529243
-0.08674306311496341
0.4574413614474626
1.685682036978954
1.3234095479532773
-0.2949282932222018
1.0878069469282576
0.7636793939922162
0.09722481542145074
0.9396205688101632
1.6536110240062765
-0.6608036100999535
1.1919844426371757
0.6937776849362904
-2.259981480966464
-1.1591226367448395
0.4404223638300201
-1.2480929617543945
1.1091636331287993
-0.6425425450892568
-0.22669196850404594
-0.9082650147355181
0.26685208107389213
-0.5703881036538253
-1.1955494947719607
-2.355270787099039
-0.45977176049024104
0.4630314358994156
1.8072800750063904
1.5063860482358367
0.5196813413606098
1.0326501883205268
0.06610845909581377
0.4160015947712191
1.3902037167832892
-0.8891936945398523
-1.5981885050914888
-1.4192514602088027
-0.341017912781663
-1.2719146641321677
0.603671738647498
-2.2059162706872164
-1.4205929376129294
-1.2183918467483172
-0.1126235667540809
1.3857926439311472
1.880352583516774
1.97415255492528
0.8750079102440393
1.1566596994297473
-0.9694168934102406
-2.4199050450843056
-0.43113622188332135
0.4165065642253284
-2.1585186369019898
-1.3339160937842913
-1.7641476383202621
-2.607297983731418
-3.0600457925343303
-0.9882670843093709
-1.6383256601115839
0.24259571428073817
1.1167252260115208
0.2913667231032758
-0.7093458411114482
1.0606236433193224
1.0826879064629151
2.1375488775562532
1.1468370263568304
0.8593592229453632
-0.5974576739635428
-0.06059172359716
0.26199559643341147
-1.8349963747651814
-1.2700701314994853
-0.16628397137342052
1.5645954902694694
0.9407060270198215
-0.44358907515541857
-0.9338850695971017
0.5786180438940017
-0.32461118682735074
1.975026586899708
1.5228656992358203
1.4470946164299752
1.3520485592884968
0.5988627530529581
0.8982867368775586
-1.061044055488548
0.5220621728965955
0.35926891157739926
2.407367510823629
-0.07328922725989637
-0.3785318614483928
1.9723335105124833
2.043242265164031
0.5922148140120537
0.19933174695490674
1.1547181993180937
0.8688094514903785
2.155286007289484
0.6690787538409476
-0.6854456106615224
0.37533067262094083
-0.929250964764945
-0.592871136259443
-0.6981913252198678
0.3124327160883523
0.26407739146173587
-0.49841041236320516
1.0145991223268855
-0.0760060370052738
0.11353561609603835
-0.2179743864297432
1.2443866539942638
1.5807852081923062
-0.22389140900107027
-0.21319516722311466
-0.45083835566415814
-1.3180754440948526
-1.7493000117335151
-0.2823796033648499
0.8641831950003467
-1.13219500353902
1.4486453898205132
-0.7925648475434064
-1.8769045462423513
0.52024620736512
0.7377213190488026
-1.0168940034121432
0.7178401701623157
0.11636392670485765
1.1777369813901921
-1.9726504093148787
-0.024673971414441356
-1.0394178699508794
2.050460252523795
-0.3419292704549066
0.6250430380562262
-0.7193999501159047
-0.06362785153291545
-1.2078664825025733
1.1585394863926997
-1.7795682109935644
-1.5187964886674918
-2.180450098526303
1.8837557109276708
-0.44275787478107603
0.7811216233899487
2.0233310920562477
-1.4627059581944457
-0.22823901014272216
0.5629584575470257
1.0804774766955458
0.2830125076127118
-2.8130183254559515
-1.3771931070565973
0.4277028293820866
0.08734451560622185
-0.15246659526729714
0.026278996951599277
-2.2645528659145175
-0.6215697848360725
-1.7644888269061616
-0.7636710432765463
-0.7762912863417595
-1.0925835669598611
-1.0478083148987358
-0.7745755261176572
-0.8156810071035552
3.4057570836157858
-0.49587607255959565
-1.239124542910972
0.9699505435302589
-0.4098533937207407
-2.672762109413101
-0.9003923038338596
-0.29701363849141427
0.37846337277580194
1.9901281387845982
-0.6921501076737999
-0.30760495669801824
0.8379744645786502
-1.7280457257869695
0.5782550969379286
-0.12571292913626017
-0.24415064523411342
-1.4744238443590838
1.853301685378551
0.6361625090813151
-1.1014318160439185
1.077886873284962
-1.0077120438293434
-0.9278439454288824
-0.4961093516412697
0.17575535156095193
-0.3936983139756506
-1.1353288844558511
-0.43715001703882794
0.7880353183107464
0.4542409587642139
-0.910677469398003
-2.044173073287775
0.30598761385931095
-1.3759286910051285
-0.4490563883301665
-0.29553979507907285
-1.6690114173513764
0.9988715660843921
1.0303919227026275
-0.8247997143073171
1.4095887096653748
-0.7385207197357343
-0.8519161013347755
0.6971265750894992
-0.16202262091128897
1.7302451189572714
1.7530432822559232
-0.87495394500638
-0.23783849286902728
-1.2690527048894906
-3.2530553517416156
-3.5871788614042033
-0.7265834100262768
-2.954665371386376
-2.200620940191417
-1.7569108850790591
0.06533013436077753
1.2079516515441604
-0.17329030981479784
1.1268336543882107
-2.073211245922273
0.2956110030002865
-1.1094267758426832
-1.0342787501512096
-1.530855943184268
2.974850122984517
5.361166357681012
-0.7801853815898777
-1.764863337496464
-1.3103995398637662
-2.766424735754672
-3.3763399144877133
-0.04059567388150897
-1.2269219860170204
0.7890285407523165
0.38192875299299006
-0.8465121722113552
-0.9532784757674477
-1.1917581520686467
-1.8664074848534271
0.22079220859125526
1.5903667473663459
-1.1766783628105946
0.44719038306323705
0.6221377097226823
-0.08960869636367157
-0.9547001651671387
-0.3172561944022332
-0.9531444515382618
-0.5543162331953522
-1.032795977530079
0.921985063250155
0.4551197181822857
-0.34375683455320716
1.0038131841731353
0.8333044379876301
0.38351552452462545
2.771393225298566
1.5113499421928493
0.7570587727622184
0.9553815980408006
1.1041597705134991
0.2694438219367269
-1.7666894853374178
-0.039001177620278764
0.05779645006985227
2.067335498569293
1.9026800620074849
1.646426316976311
0.8985764308483344
-0.27364165052889833
0.9914648311486156
1.6756918657353757
-1.4352751118459581
-0.9264446195318238
-0.5634789088526104
-0.5195217564175441
0.3071225297828789
0.024716029379015025
-0.9579697417649987
1.5780465803203465
-0.24344977433789583
-0.06802722627529485
0.2436464155244876
-0.13908103392039764
-1.12521018879211
1.0114832820252193
0.1266936226103816
0.1527276021338323
0.03366652062746003
-0.5875344147781393
-0.507315147177859
1.8240779992486837
1.618846018345267
0.2818325248254085
-1.3849996700119789
-0.6827572629530603
1.4172566273535705
-0.07421723649844096
0.2430023679573824
-1.3882659795687473
0.7447835697230094
2.240135036279599
1.95151313464457
-0.7945464208479245
-0.133450859141585
0.4480188054236868
0.8932710922897548
0.84596833122949
-1.41362860278899
-1.2114499668674643
0.8771662860969234
-1.5176023164581256
-3.9826556213562916
-3.576360839360156
-0.2760652236316425
1.4102004111555995
-0.20091677028735752
-1.1238584796532642
-0.5279238808974568
-1.8290737218200048
0.772550953220478
0.5990804551193117
-0.2169189085433069
1.5117380571573378
0.8751680215428015
-0.7058556512304943
-0.3171815945614981
-1.8905329607204788
-1.5180368247983254
-2.5935501652146598
-2.481209020124748
-2.0987553903811973
-0.2847851226538539
-1.381954579433628
-0.035051742379624586
0.2984311656163392
-0.8507760755917685
-0.25839835575493264
-0.8008882839711257
-0.3064820956632318
-0.20625604192769706
0.33071661679963965
2.051811258629583
-1.0449947022115216
-0.20267731856971014
0.3570218953462794
-0.8455121395147902
0.11003377256394266
2.403666422547244
1.8852728315446465
-0.36559013578255906
1.3996262131734545
-1.6942762471483306
1.3555643337958956
0.31194989084058367
0.44490132342570776
1.5029849433070415
4.028708191159027
-0.042834747411483534
-1.7987572090312112
0.4780876156218153
-0.6388737896799089
0.06374351503724998
-0.5539215452804361
0.3967933330798492
1.754470032889389
-1.1807455688493405
-0.817682574118045
-0.32059009902476976
-0.11286088027919555
-0.9580080484777965
2.474228059680334
-1.7755125564506944
-1.7491351685778769
-1.2536855607945911
-1.1805233437001785
-1.8555592315190181
-0.7633733339989467
0.38860496287374224
-1.2645108449271012
-1.6570751536900814
0.7744380307456037
-1.593369734659642
-0.6394853828749568
0.18504981441635668
-0.1521745306443281
-1.47606703968868
0.08637161361904211
1.8005830758829697
-0.34131521804946446
-2.0885260416267104
-0.6785531353124498
0.3998178819367301
0.9122147368021507
-0.5880833694670295
-0.2737021362003992
1.2565257317213785
1.6984878449332834
-1.0312890543096587
-0.23423055833214354
-0.31991153000799466
0.15379864567844065
0.5962914319932711
0.9876864447312816
3.0102510298067036
2.2503069055312293
-0.1314977321035944
0.6826645109966998
0.6474258072163577
-1.2460587815507225
1.4289894729598747
-0.36438744107576587
-0.5684270361157976
-1.3936463152527505
-0.08992296563629493
0.6516884281669186
1.6648499495393574
2.328635737942369
-1.5068431102492277
-0.027530221224927005
-2.3192073273009206
-0.16977505628804085
0.9268569286955299
2.8180127433598003
1.1141388343871157
-1.2213010839294562
0.5263850899194681
-0.06683996107048717
-1.4226517103462295
1.5985145175552653
-0.2205836590871429
0.6709872647618534
-1.82957323162433
-2.262365410728427
-0.6669182745367389
-3.3996831210681004
-2.584612468530466
-1.1192670893162502
0.21932613412364974
2.534725056739228
0.754351696868368
0.4135710681374505
1.3777789868806938
-1.0273948958401835
-0.2150845851219735
-0.690567515286727
-1.933761064282961
-1.3494221363709047
-2.3006095837344174
-0.7207655780730702
0.4625908377707547
1.7364017344954314
1.2340059979937237
-0.5655225896979598
0.4326659963902678
-0.6543809115037134
-1.0656284405431942
-1.337703723892203
0.30581287903135934
-0.016146671823133205
0.39603649911286787
-2.3678993475263046
-1.766945825997546
-1.7099417127323313
-0.5327363097025939
3.879624149494171
0.02461670814756763
1.6175335844523409
2.752896645560177
-0.287357716783883
0.3402016181183446
0.3162860435234277
-1.053184897925675
-2.867028626496612
-0.006026421783040281
-0.6595807500454942
0.09080785156994374
0.5085859281173182
1.6264923691560458
2.890058077127555
1.642854993469717
1.822366476591581
-1.1230139264410244
0.09726366146393568
0.7328305830884767
-0.910049271673215
-1.5969841326345269
0.159681410127792
-0.6753817144264805
-1.3006994057494328
-0.3646349836407341
1.3904600909792344
0.7087255000600227
0.8812161364762088
1.7363612446624554
0.847800586983141
0.4034507485795919
0.31119798245050084
-0.44711153444405644
1.8231111243734033
0.628673406733049
-0.19100326962724998
-0.3087906249627673
0.452824340261615
-0.8721366665459359
1.0095728644243473
0.5585133061834427
0.26187065361274814
-0.5947233084570213
-4.236130099620358
-0.49631732867413997
-0.04512379012416949
-0.32953769882413114
0.4954913529310161
-0.5064130804597586
-0.8228248549409132
-0.6914795894535785
0.841044222213024
1.7168247134673944
-0.5626284966938332
-0.46588653351804327
2.511352114930307
-1.4488564380979831
-0.06496230182815492
-1.2037889741827592
0.2223037631144471
-0.05688223648505063
0.46762127222165056
0.5906029199158166
-0.6800769441390955
-0.0592531329236342
-0.19486054609358977
-0.06408322054209473
0.8520029325359465
0.5460730864664659
-0.6873460760371967
-0.4179437006475605
-0.29745359627086987
0.6354696242595137
-0.3346317684226335
0.8156275172002007
2.3772015914896754
0.7636271384184755
0.5361473018842369
0.6671573832510859
-1.8801241762680976
-1.222235793219439
-1.4010482246149278
0.0407188903351953
1.03863764313031
-0.21049944316071792
0.56954739355705
-1.0705130007493284
-1.8985392332995186
0.334167025399458
-1.9461027765983923
-0.4059239894235634
-0.9397952264510544
-1.145295950873059
-0.49559503243778347
-0.04075248744194377
0.07185413744593117
0.43631336270570376
1.1150114868877288
0.2811604163990936
-0.6507016246354781
-0.7628017927048193
0.7637105148614461
-0.15883852621496866
0.5087460231695599
0.06922626758197405
-1.1068672431868176
0.12406506041870553
0.34444322240805314
1.1133021744913507
-0.9502037890590241
-1.8906133557345344
0.1852084537804465
-1.6353622927745732
-0.45644131898597784
0.5554699618549376
0.49439905137568085
-0.29542395292318746
2.0592903106431537
-0.6942184101551593
-0.8602874089992876
1.0138021005194586
-0.8206804369771623
-1.927897515180797
0.46911720534941626
0.6669472129392728
0.044724918113951746
-1.199945545171143
-0.3160669307380888
-0.8070929259264864
0.4853725880199874
0.2918993472850092
-0.657137176108448
-0.9514060536459212
-0.3552717745185372
-1.2302309824966005
-0.6940302872820315
-1.0681417927084358
1.365668599887807
1.6246012252875093
-0.3003268393248915
0.7342554610245932
-0.2311284826372391
4.0032356444725075
-0.44916597442441863
0.5805854112406482
0.7049991098202109
-1.6932965494633216
-1.0144180635039735
-4.383706344925237
-0.6326909088156883
0.5472583480283992
-0.726794324235904
-0.9176319457460391
-0.7647112139119387
2.6374115933988516
-0.33205912803629706
-0.85861066689794
0.22459499244523765
-0.2468409861258751
-0.12380811328987056
0.13392965854880085
0.04158584347082491
-1.1755368058219862
0.04942864800545391
0.7478856423142566
0.5047430154661863
1.7643148524483812
0.0908852004491846
0.8009693838794005
1.7725298597852392
0.6649289166826512
-0.3241174658596406
0.02159362982764649
-0.3949080448349559
0.7934070896980439
-0.4299393816234956
2.720103099374576
-0.40981183896640333
0.5784417071389139
2.539031311955332
3.1196739125242687
1.3248030186244781
0.049328255455730045
1.8153187571478624
-0.9242800694897286
0.7937859538066823
0.9010591533248679
-1.2906755360456676
0.05188101081354727
-1.1145017570714095
0.17380106915102175
0.6800193110970982
-2.005252020381666
-2.107218153038931
-1.8654245051553888
0.850155513826641
1.3017219066596242
-1.5119724040575282
0.21636244632511276
0.17608345944533726
-1.1085964743219383
0.8498162747366987
-0.3660206877024609
-1.2656008782280965
0.37238379332284754
0.2876233373793252
-0.3565445489629006
-0.1048033127343536
-0.9034068548536532
-2.022422509991631
0.41585405859255925
1.3644964075622237
-2.9034372445585808
-0.637093763097393
0.2823382370422548
2.3109871466942695
-0.6980899328536538
-0.8120846451566902
1.9138159820820198
-0.41014617334347525
-2.3379034879215346
-0.420058004206437
-0.36142999091544586
-1.1767156696565344
2.0241473760488295
0.03606556249771498
-1.2693905292830148
-0.7610524433832914
-0.7470481364465665
-1.2060063609548615
1.4227307062487107
-2.058341156213393
1.3588482847163865
0.3246233437719379
-1.9394257766261682
-0.8472195590138624
0.3194014652743785
1.1302318944894867
0.16014066564761448
-1.493013736383392
-0.8992642198808931
-1.1178967680300158
-2.6115117783279516
-1.5161082821314131
-1.1239546258390536
-0.12980248039922157
0.40280854457923226
2.660512293257299
0.6699904752632991
0.3035690586000427
-1.380733656076665
1.08809280215649
-1.1576467344679893
1.32968481474921
-1.805785632545184
0.7494272060523249
-0.8748466874284178
0.6096679261515486
-1.767662484870862
0.13340988007015703
-0.11354117126845939
-0.5746385093312159
-1.3660043962177895
1.143190093093403
1.0314772960234886
0.3101354722238198
0.24673392420077886
-1.5204157592100063
1.616663070301699
-0.8996844258918707
1.2109331070427867
3.1300317334650853
2.1826757354813653
-1.2189944659155938
-0.8452294328014853
1.4599443863580945
0.92213280814072
-0.48525082474684766
-1.2160821062711142
-1.1631720596833723
-0.07496035976075067
1.3883264901180894
-0.7705715983885639
-0.08681458186118562
0.8821803251103145
0.059785327702620655
-1.3052130216748248
-0.830237465960218
-0.2023855511702045
0.6689576598155653
-0.020413576207840775
0.20030685452042826
0.884476602520201
-0.8023544915351349
0.003060425953128153
0.1232260967097487
-0.09096419370501437
-0.7075764922468307
-1.420848041378262
-1.7085069632729866
0.29394623138052467
-0.7689566293188651
-0.10522441101582129
0.8526950195304428
0.3589569044330082
-1.0861018155831093
-0.5794753231653843
-0.220286773857144
-2.429748616670072
0.5330512083175901
-1.0626149684593011
0.6159786837805
0.4488092546872653
-0.3821845132419883
0.42566568199341515
1.2035735406821888
1.087664577183576
-1.571428021798699
2.917145973281912
2.0472012371054285
-0.17602509620799503
0.9041453929883517
-0.9387574555901549
1.8236381808362605
0.33212447339595164
-0.13393653849551868
0.5272337978667548
0.8104310205384836
-0.8537079561243652
-1.2573465021000867
-0.7775030483294373
2.958864498401444
0.7941889844819546
-1.0410722594261357
0.012848230373988467
0.09296606979034888
-2.6131234178460017
0.22245872757099144
-1.0931252610070605
-0.2151580281809432
-0.9545113038772607
0.14345042007016506
-0.12236395354898477
0.6053224336239592
-0.49529370996341415
0.313347800515297
0.9980643579532583
0.7084732086199941
-0.14172484133394633
-0.6015542206009798
-1.9240388504016135
-0.9520567890260676
-1.3697537735047347
0.6111377653631528
0.5570538377138189
-2.259360895213876
-1.6976937806776975
1.2103458308969899
1.7159965472675085
-1.7308992590248486
-0.7836592816259923
-1.9085963980210994
0.5429031823105664
-0.029969534837501564
-1.412796803309921
0.1977583636175592
2.701572142967802
0.6714787975685753
1.5163149818621933
-0.2325937072206365
-0.6690860613653871
-1.420251671906834
-1.641334477977627
0.011296525739352333
-1.4656739212825123
-0.7015020055898831
-0.12460095915919961
-3.757074213180358
-1.2353365761765316
0.7154311403565107
2.3102388059301955
0.43461410192267946
2.2797450031367363
-1.031194617446468
1.3160199619908592
0.004952579480530299
0.6449663259702473
-1.7232198943281367
-1.8032256475205433
0.4844660677851972
-0.23758868171534964
-0.25589524639519945
-0.31406166702089056
-0.1335528587215052
-0.8738973114321581
0.2714594648464229
0.1656297791461575
-0.5190348408049297
-0.8052737957822939
0.8969994382861074
-0.5104954083713429
-1.318145292239216
-0.7564876736398577
-0.08126231939337271
0.3998223856701911
0.7474640838538197
-0.19405528798143387
-1.2375028783567432
-0.0014220518218771925
-0.0861109229935415
4.065839387999373
0.5155981417872858
-0.2939505984407566
-0.7027451322865502
-2.443807564266359
-0.6050366319699882
-1.9332941735442521
1.282657368504946
-0.041363449761645056
2.1417430464471963
3.5888018075406043
-2.7061429407955795
-0.48577231110930236
1.2050451411909935
0.756197494701676
-1.50205214708596
0.1393350286804873
-1.8630952671955325
2.062556437134401
-0.5537004473522723
0.18334261695294465
0.0252183597307873
-0.5572731941928996
1.2632722775098384
0.6190227623813619
0.9571205594450775
2.650348781139451
1.2001672289947576
-0.9587179609867456
1.2433294421299765
-0.40363380963543694
-0.6379571435898809
0.03397424970492141
-0.7988567587635672
0.21816616326480548
-0.5209055315673085
-0.6660928145658894
0.1068155621739046
2.3648910958766725
0.9065372184172727
1.6944795912798396
0.2854336011374539
1.3121270626058443
0.4075755657849372
-1.2996357714531168
-0.6365748434907363
0.22223846553547988
-0.09871531784579576
1.5258992196505257
-1.093848154184418
-0.38660686989529713
-2.097194666377835
1.0705318549331655
-0.5022362328236822
-0.6168230796801227
-0.6480804252032826
-0.017758955140739646
0.46594533695724505
0.3986552219137809
-1.7456099710322437
-1.7036921587799312
1.7025073312272505
0.08551959197056701
1.157055861787498
-2.5761696290571288
0.41752608274457736
0.7286181010484639
-1.0498132664392523
-0.013152515419656318
-0.6322302308147939
0.630294277793879
-0.5072027129375583
-0.22001579275368846
-0.029940212097103843
-0.24432404807320762
-0.09248543412627266
-1.5633244428324562
-1.1764434298466724
-0.07176713696611058
0.10230998135140383
-1.3177290963202515
1.040744808370077
1.5367938787993245
-0.06767645495133771
0.8297676916666085
0.7154060051868337
1.7046740105865597
0.2872098206734783
0.18301380074130236
0.38573141034380215
2.880534179611199
-0.747507138097176
-0.46084649071877054
0.38203828141129165
-0.029366779992954263
0.4750884852303939
-0.7396568520686823
1.1502338852696832
-2.373289879838494
0.14522309186389143
3.0591034748749184
0.4508244429693742
0.45198459162642673
-1.2343916281264675
-0.40390029717786646
0.9583476821750658
0.1870218316546383
0.856827910520063
-1.0847197979176826
-1.2204277224328275
1.8180757387528172
0.6873334755063286
-0.6845209169584331
-1.0526257265866021
1.0396013387301044
0.042185533628556655
0.5793005607518878
-0.6746025183090447
-2.22370800472316
-0.5452046818684033
-0.940074899894239
-1.4968711827385608
-0.35368358777493153
1.0653885476188076
-0.6354293160452804
1.6735305925375619
-0.45591147790837877
-0.6452729398316353
0.27210601969776876
0.4486444864921575
0.6003318759677589
-1.593337917279676
-1.1921958885823958
0.34827811357344635
-1.367649932651648
-2.227699999287838
-1.50988989553041
-0.8829789771577873
0.23782632205352056
1.1146266557944722
-0.4939112968252843
-0.8488707699951491
-0.4122678185191507
1.6160324089000448
0.6509897084965854
2.2878788182942635
1.2236792752300933
0.9271250876089557
2.485742721571614
-0.06637320962902225
-1.6299517540780935
-1.451660593540525
-0.3648207442928067
1.460864745172159
0.8563730283037126
1.8018025234703134
0.9278120855538606
0.6891807232458722
1.0803384537077911
0.7496948223229608
1.2175404173373987
1.4076886851615726
3.0853889058582036
0.6094457880905227
-0.4590155724292869
0.25524857936912854
-1.6543079985454916
-1.0294167778244963
1.7179379952777323
0.6858871583139482
-0.9465287417522178
1.5879005089639786
0.5873442336968046
-0.2582789982747573
1.3126267017066702
0.6591074590713186
0.4770509556094314
1.0024036090689885
1.0615694544689736
-0.3508344185271334
1.169314401916738
-0.8266380702759051
-0.3244640432262328
-1.0483509875800157
0.6377217964848713
-0.976776909705002
-1.1379451442594075
-1.3850917234037192
-0.2332965953382769
-0.8240756816623569
0.09498896331994441
0.13298568475117206
0.8937009448234595
1.238206256670994
1.546267307394347
-2.241450604238426
-0.4142952536106613
-1.6383463491369956
1.0945781037480304
1.274175150530539
2.0940619850658932E-4
-1.2346430486232418
-1.518753237307268
-1.7973193579985682
0.6296143498220821
0.24012928315302262
0.139880940278333
1.355562293078694
0.819779171631932
0.21325269728854832
-1.3723609074106673
1.3842959289001755
0.35645580196813687
-1.4002466091701176
0.12102107730153781
0.7620517508582069
-0.29390578159585773
-1.1336361933967547
-0.8038602064377005
0.4992363090396701
0.1431062198373116
-1.3373932927276024
0.6751968990195072
-0.32582763154025934
-0.4140827462820045
0.5055555625134627
0.45712453185915947
2.0172894722459507
-1.5922438434116253
1.574340440809822
-0.20267692067214793
-1.6679239690963252
0.07680525621204569
-1.1808019811585773
-1.8379624008593478
-0.6928206600570949
0.15095651998805323
-0.018499325966317395
0.45204201528671506
0.3556538625950708
-0.19292618737531403
-1.6797916496785206
0.407156938355199
1.2259002924910285
-0.926408865780265
-0.1310462429813734
-0.6609866807036736
-0.29288205510103604
0.776409657775218
-1.0965664175951801
0.9059535076167905
-0.5823910751817312
-0.27381639511466416
-0.8861888799535429
-1.1790735401711059
2.3185188331217335
1.2217360542086704
0.5109944405804145
2.001269636612223
0.3719788302161025
0.5283377319521182
-0.8383587947467476
-0.26958894546974804
0.26446179034315404
-0.3392058917179778
0.424260640301425
1.3441827016853118
1.0978074506408855
0.5874322992892317
1.7479729721898525
-1.9597105439723164
-0.6194492808211599
0.186787358563606
0.3700020623657497
0.06752462372101663
0.08792880405946656
0.7445821859081029
0.25568551996539324
-0.8002671738764869
0.6867004364114483
1.34670613200909
-1.5008368638474443
-1.2880118575345407
0.7414473826318516
0.9562670129760816
-0.060654285026949036
-1.9521642923807065
1.5327533896753134
1.0430447124245132
-1.2100312630939642
0.027725031744418815
-0.21956888500786576
1.4697201476675805
-1.0363881551848015
0.9707588116112753
-0.012409722142696422
-0.6632052536169433
-0.997441510485299
0.8925400373780095
-0.20202571894032442
1.742398733606664
-2.2962613931399605
0.024255939423707438
1.0734157182767654
0.7575742209871089
-0.28517508672471725
0.7427850027396822
0.42919278199240707
-1.4920561397122662
-1.3077186254359432
1.3332173848242872
1.5299450431835266
1.253075781686734
1.2928196129727465
0.5187347003652151
-1.089658413117875
-0.9106701891304572
-0.730680083969761
-2.2345881095574676
-1.9771534854734067
-0.06524968662220824
-0.157930763868732
1.103922362924476
-1.5553127504685866
-1.7461067117328481
0.9602988388491757
1.124758103142414
0.9656104348324832
-0.6456144906297485
0.04929124344492239
0.7340938224217669
-1.8281914089105273
0.6809720159702697
-1.7725500234649552
-0.30833755791526946
1.1798411438359389
1.4685116857322456
3.990184918810115
-1.5530505747697982
1.1124999470371804
2.1626653817036106
-0.2613977157278632
0.5440951818781559
1.3417758943119744
-1.3668161621547934
2.0229662233847496
-0.3699974632270059
0.03517871684438076
1.3073569236511708
-1.2752698654483634
-2.208951466951319
0.2470226219929046
0.24523650801837235
0.3589078125692163
-0.547696071131765
-0.400213292089813
1.7742493807409638
-3.4763457235483552
-0.8884974018460987
0.21456374859726937
-1.2626823876315
2.031376404850398
2.312581209209682
2.1752308403053786
1.2508446390151142
-0.38411477011687456
0.8501069565186624
-0.2124557480631292
0.8481598861849443
-0.3279144332686823
1.0759008575721059
-1.530887683271022
-1.731189269251359
-3.343966495863393
-5.422597512259158
-1.0806004411430248
0.9606450725202934
1.2044576286183846
0.9477167937222554
-0.04806064177698
1.0012979332831802
1.4601162944827442
0.339405452364401
0.5238767905965582
-0.40059073439496834
3.4006389143329208
-1.1049823630160704
-2.45671044930015
-0.8756364022621848
-1.0763618168951552
0.11875848673188408
0.9545806598775805
0.581753844477383
0.8138468280309933
1.3958990731839758
-0.12128395039944292
-1.0792147819877513
0.3793120241829901
-1.15942400529935
2.037972630805574
5.367316559297994
2.336668445621506
1.9536735763811612
0.6275618069834522
1.0172622102682054
0.0899553685630336
-0.07568549806977462
0.227495367955297
0.23624532286120153
0.4053063156132629
-2.659040122023334
-0.04225043789591612
-0.27535686416803645
0.9437141795504711
-1.247043878882915
0.6655948520838579
0.327822997504541
0.08571463668320164
1.3690300338237142
0.2497783585684582
0.8055504355570542
0.25638809408435614
-0.6292146814236498
0.2556852384250721
-0.866254682601182
0.07176358833517055
-0.298861481807711
-1.4071983438280462
0.09730001146079689
-0.8294649965314017
-1.3872898417249766
-2.355703003147026
1.1752099777530363
-0.5669452857377241
-1.534578674028442
-0.14175183668692107
-1.3126811823499438
-0.4996917074962951
0.20856516819472834
2.1858437220259535
-0.5369140205996675
0.6405202960775424
0.7401929740003294
0.32376786058648477
-0.7906782292192921
-0.28500554033497605
0.9974090879879016
1.5424200050358605
-1.1405879440931312
0.08946201365733561
-0.6149665530208295
0.703943389474873
2.403663241598856
-0.5841982095143188
-0.15222164301641744
1.549518729031762
1.0027208555643812
-0.04845480747788877
-0.0884808458709265
-1.2823545293533591
-0.5504546342869401
0.4024593339198342
1.2279535783048847
-0.47389975292474
-1.278580535877378
0.253249475787439
-0.389945619623508
-1.454793900034209
-2.010778905282261
-0.689482657757264
0.13519833292851136
-0.4293541496194152
-0.277256698176762
0.5060700397843321
-0.006580768341404215
-0.2112397409701278
1.7145101815503054
-2.5618498599086013
-1.5267785530079527
-0.41869100260486625
0.561433103406316
0.05579618812356376
-0.9618518599871861
1.928154179223662
-0.4589594393191301
-1.0287633418843944
-0.7032520779734508
-0.28711202405974445
-0.2203082609609355
-0.16101707684667418
0.09106527447944897
-0.9494901032279959
0.03794686249573167
-0.17733438987103542
0.6459026306120492
0.36998306264578806
0.8347298415303743
-1.6523154104151787
-1.6417938318207468
-0.8794078524001268
0.6329476003521044
-0.2264316857498069
0.4012253912973397
-0.39047123025641617
0.5146118760113877
-1.2814481864897982
-1.231521271236882
1.3764065101927505
0.6907290488318112
-0.7462701985748977
0.39818367743799005
-1.0526278373880045
0.2883608943568769
-1.6717585111816258
0.7302715029010363
0.06557062576820237
-0.2636718715262094
1.6470056585263337
-0.7983140649936671
0.1788372797270439
-0.2975031650423685
-0.01993231521633098
0.43643673970694924
0.992472786384371
0.05411426835252447
-1.1776917314533972
0.13316061278142363
-0.6953796088305243
1.1916052320504262
-2.7000234722403462
-1.43145215821738
-0.47667301362801084
0.02562435048226079
-0.3394786417557462
-0.09023159625515012
0.3176194477501808
3.0869459744148022
-2.031178244434412
2.4367125507990037
-0.9586640217533966
-0.052382832912432106
0.10051150217738296
1.3338401757118947
1.3083602910445626
-0.3136221878881871
-0.5934922501688795
-1.2058102171817195
1.024364214482387
0.6859161623976331
1.0705244769579858
-0.8020724347894705
1.6286499298441606
-0.23240463395636834
-1.9148593420390072
-2.5108486049529266
2.3436365760118214
3.0374617708102876
3.28245990133078
2.881128223606553
0.03574507287092344
0.9508485541832635
-0.20205499834885846
-1.384941439411058
-1.7125328790205914
0.4294055415881584
-1.534032074996792
-0.17262629181614794
-0.8305009673729622
-0.03905095015832418
0.7470180841405901
1.1195068168236042
0.8541698336165864
2.7349158039311243
-0.418769587930332
-0.8623981690963665
2.403179472821335
0.19335065202551324
-0.04465169933195817
0.2569261922025764
1.0400503770967278
-1.8727955731038384
0.012749810534724623
-2.069488586185554
0.6591732724326144
0.4144017927424196
3.1628719434220436
1.7165260292435325
-0.5098152346111912
-1.9338354939325897
-1.6083202931779574
-1.1294011736238672
-1.1476292383308293
-0.5974177697594723
-1.1027110089008367
-0.660324643138397
0.02701635462142608
0.6486095314084648
3.848083216502118
1.76692017622044
2.0623342707864003
0.3719239581388945
-0.19938778754297087
-0.25083640383558004
-1.0485420050376375
0.5472303361905643
1.0749668205037806
0.4816557365065224
0.49181029218650335
-1.5808844374488604
-1.0877623792697506
-0.29584320621796356
0.05789506778755853
-0.5115670944708456
-0.8697447893371858
-0.6342728912605975
-0.7185096277816904
-2.7421712619205807
4.376062585690227E-4
-2.2712767171130768
-0.23866868189680485
-0.46891856714736685
-1.325715689830106
-0.9095938644517849
-1.3136513235903282
0.3872902930949889
-1.7617619518209986
-1.9909294597749736
-1.2953710369738627
-1.342921559227086
-0.2972157628940791
-2.1787371536332816
1.3119256330953677
-1.666317279909815
0.012426561773807483
0.6836685086772726
0.4082469311844254
0.75652296194642
-1.0443076705836167
1.0294208730666419
0.24212533520436388
0.7484914184204521
-0.2615964283637136
0.636188660458308
-0.7908782346525126
0.10082898497001289
-0.3728736029664727
1.2612161899287657
-1.0001282091565884
0.315663309286497
-1.1634625515766912
-0.09793022045807319
1.5795951531743986
-0.4995219173512836
-1.0570310505941143
1.4908261249878036
-1.2921196307086908
-0.4653539302187451
2.4910258281711823
0.745078047046021
0.36666503040218296
0.6318867618589845
1.875977198431529
0.7973443914528433
-0.6814732269585144
-0.2698814671623324
-0.19793557167336343
-0.8092149555151325
0.7611575708233658
0.11766734101777891
0.5845059374132974
1.2379473333026416
0.8886272205837665
-0.9445208674450097
0.6943522074120233
0.6616266307414301
-2.345972110369296
0.7803420061241987
-0.7992215133265533
-0.04261526236128728
0.1655056101045656
0.7650419466747994
-0.1243137822434374
-0.3834577851366971
0.088112494699273
-1.6444889099211584
0.5851809630776706
-1.1807167409149506
1.0309091901088192
0.3261535358999187
1.5429647803997404
-0.8117043196440631
0.3317345681300973
-0.9890630494948625
0.11860538809449502
0.10886881364123799
-1.6077180699647138
0.17058897012859153
0.23219111354833832
0.9612369468121221
-0.9790732685214588
-0.44440429975833207
0.2868150919097576
-1.446646873421614
0.22536556007488015
0.9154881416422125
-0.09460266059669291
1.5815664387756998
0.7838841091791405
2.1013749609875134
-0.4974683052399236
-0.6380296329597609
0.5061384596175977
0.6512504775015197
-0.6201921932321882
-0.054122830620329104
-0.19843745694080853
1.3251260921006303
0.20211110877996116
-0.6366893975563255
-0.9333726698505113
-0.1298680256168412
2.202087075837211
-0.13791955425529076
-0.7247058543448374
-2.3705754493176765
-1.6941413952967246
1.6473804142058601
-0.9451531835000421
1.2843077860457552
1.1754536946746843
0.19307645493704004
2.2277867015357655
0.2442819266795642
-0.26725628805707
-3.2331332383885867
0.19242542037007612
1.6366607064420422
-2.004021498357575
-0.69049523921028
-0.6352513646081805
0.35252428412249653
0.7272643090503363
0.03227484047956444
-0.5790652706271268
0.01660965023344872
1.150676772282989
0.28034608546249173
-2.5202215300024475
-3.7770375743238076
-5.319884135601641
3.020363642633936
-0.626724819753657
1.5461457163375842
2.024494791868197
-0.6343181940863653
-1.3072066758107561
-0.6383974360982161
0.5727559600191127
0.7184224076987077
0.4115072099009212
-0.9082418751700362
-2.0692398898674162
-2.582993914084538
-1.013465017696838
-2.3809672688642802
2.5932681560197604
-0.7824297890281273
-0.7877209760663777
-0.37266951938339227
-1.1872909172537227
-0.9407683994017666
2.3577997690670345
0.2722339375025589
-0.8419369574608196
-0.8969049090377602
0.11051757779170912
0.12887208257816438
-1.0144488735355544
2.1053577549363887
-0.004317600617772416
-0.07559714280633212
-0.16605786075203344
-1.7704843818098388
-0.21955045854968788
1.4035701049951508
1.0756344392181016
0.40951846942608944
0.24720320733379697
0.577336608736659
1.3646115728580739
-0.039839311725670165
-0.12162135304501395
0.5772898883158867
-0.2253171729477661
0.6532387183626551
1.5229750496254306
0.10307997672677927
1.0173682291857735
2.064147351594553
1.8164175772466602
2.1813168125668496
-1.4405769457457864
-1.120968979111563
-0.05883588851061332
0.9082060513404898
-0.16363972253918105
1.517680172916598
1.0216409284955739
0.4066359819147506
-0.30209192385576555
1.0086841512366307
1.697097805906578
-0.11168123639880728
1.2378124036605902
0.42670805494123293
-0.2537807246310321
1.336990815215802
-0.4065609228904246
0.5079781606957875
0.20569522196302864
2.2457479088996553
0.5201733756014729
0.9993622995022571
-0.2480724801993825
-0.5397329131486958
-1.1313897466739924
0.07711449846427715
0.39150368942675134
0.696772127941279
-0.8963262087959125
1.405179509903615
0.0032290662280065447
1.9181513767350058
0.9749741057845674
-1.0227712448023722
0.9976353645713096
-1.6479742213491086
1.6845039042407002
1.4880320162804241
-0.004217164579344093
-0.4181658318454603
-1.2458899726687316
-1.075325897201729
-0.13789534550216587
0.00789834107633946
-1.5362014775407833
-1.434963131902157
1.5818011138348327
0.6711174680783011
0.37641780307510114
0.962932634584932
-0.7141233241973372
-0.7224273805327783
1.0594824799701001
0.3605533474723322
0.36153156859708996
1.6900823651477503
1.1282852715426115
-1.9801340705549724
-0.8775501798085744
0.1808447363854746
-1.526643953723803
-0.19977602304101622
-0.191902620648217
-0.5795036087399488
0.9352070402384481
1.1571103453675466
-1.2621846787327644
0.3731933645479467
1.761290365593314
-0.43700646442493984
3.139203272647331
-0.9403214501679883
-1.3411529179520323
0.7837484572135655
-2.1798994069459194
2.267091965117022
0.00261899796811773
-1.0893781792172113
-0.9279671707966726
