0.9105269693299602
-0.7080358899318081
0.8028078817273709
-0.3715124431156802
1.439363279569328
0.05815695987116149
-0.1986867145666322
-0.588718602172284
0.6759076912880185
-0.4335880880149975
-0.7950014371179469
-0.7309966642134773
-0.4084028791809265
1.5225048526045506
1.5285651475292754
0.47917928239316426
0.5437053007664084
-3.260536259792701
-0.19612234295112388
0.31134080315639573
0.46788923664303583
0.49540536397851054
-0.1930389298298206
0.5782490799539655
-1.3640981945781185
-0.12212822759960866
3.530509285121458
1.6585614798919923
0.22379955547353234
-1.3642944590272597
-1.4227930265291917
-0.04432173930910813
-1.116512280139618
0.6853827343588986
1.4703518766075068
-1.1075004120204859
-2.1435732911892416
-1.4344993623056979
0.8422930345680901
-0.013979772772918526
0.5367213583773532
-0.08919063107529225
1.388402147447602
0.7760355323200426
0.9907411049895314
-0.28005070217076805
0.7777014373206476
0.0810661546790892
-2.048857539520581
0.0667334868554772
-0.12265352924397219
0.25598677020745547
0.3629890537867368
1.6902398773636613
0.21776907091927838
1.7886413174315776
1.0054014825568758
-1.077550543659667
-0.18483894677509888
-0.4805613863451241
-1.5911625954596946
0.19542492008942786
0.2105505129915967
0.2619220430899669
0.8345993166682895
-0.6897786131113354
-1.6302953578240316
-1.1428918867320799
-1.7405174743196585
1.3176127292696176
2.698072205822592
-1.1531462382378943
2.151338395970266
-0.6492666558131969
-0.04672089631456708
1.2171121135345562
0.37758996871363043
1.10735610907582
0.9282366520111478
-0.6452279802670896
0.3304892381598911
-0.7121543998185776
0.6330529668845443
2.3855161288197397
1.24003771438088
0.9116591495009165
-0.8354588088952377
-1.1078005992970075
0.6783816642935512
-0.3958183642966825
-0.9015571694843526
-1.438966048036281
0.7420547078338424
-1.3259598483634594
-0.5895854287107524
-0.7878301239260814
1.5608903778612107
0.3318090188477797
-1.4331967799635525
-0.1796608836256205
1.5455452954802231
0.3774836733667459
-0.6524809861164982
-0.7672066445230611
-0.1467236847119143
-1.2835878499142945
-0.40148700594270637
-1.7809691597354462
0.8264252679440857
-0.2896286512965949
-2.5160220804914037
-1.8817497794456137
0.4426803300091958
0.5537641636303079
0.4362331801116795
0.9272624453782368
-0.09782891792094993
-1.3841799049869268
0.4225792052461197
1.4424889908340355
2.2556526516229964
0.3269761648161746
-0.45356979699154487
0.3694447812419812
-1.2472553207017338
-1.351974911472363
3.153348679627938
0.932370193967407
-0.09183907646914773
0.9054357324588037
-0.777832095123542
-0.05924243597614568
-1.2973076748023742
-0.07220588901093777
-0.9911408956974181
-0.44804769582184756
-0.9372675449071332
0.9764684938995514
-1.0912655094524817
-0.6289971042316702
-1.625732035708286
-0.4931044991309794
-0.007599249296441291
0.9120736785014161
-1.6212132265470847
0.723807044359371
0.5356567247851318
-1.0231462336202048
-0.42196006539206726
-0.2868323113845299
-1.0192881755626149
-0.4123041540127149
-0.7951081721589047
1.1400453902916616
-0.1655591870897602
1.6020591957352246
-0.948093972854939
1.4880549653545065
0.5959956259663839
-0.08757938757280717
0.4369070410180691
-0.5996127918769263
0.2921017152151482
1.1700946211124157
-1.1304837326179655
2.163694398389639
-2.0160308785860286
0.2038151603479759
0.6838399958204588
-0.7454091617507448
0.1576456077323815
0.2556645224630197
0.5213768064328473
0.5402238134774382
1.2316090602002399
1.0442963378316756
2.9000821760049686
2.4559077795570388
-0.9474897932321859
0.2893132941726353
0.49764272339257176
-2.178115274886193
1.789036920698214
2.8790793297025576
0.027863492487186357
-1.931634564999693
-1.315561961097577
-0.38035833686214715
0.24217422280998147
-0.5654396255066346
-1.106964399294455
0.1452186117165688
1.2432285759040318
1.4132886369449962
-0.41036113187848655
0.4523473621070384
0.09205283304439711
-0.10301534509441622
-0.752072117998702
0.19127932184861482
0.5539404366425108
-1.063258538314916
0.518257174914694
-0.8993974039943172
-0.41737675329441476
0.35453096368678705
0.09762358872639053
1.9664711454841546
2.736771413107035
2.0198871420709
-0.09230064607571016
-0.464653599109412
0.3649842927844756
-2.2205434338581154
0.10259102334810634
-1.1011062885251561
-1.2690644253860264
-1.8832616525365238
-0.0015756129792885531
1.7188175788070001
1.88986351825934
-0.463746318482246
-1.3836455660699927
-0.5249159038206728
0.20243438369964115
0.03480411790202132
1.1214890539023554
0.47897044018796475
-0.6365506059277214
-0.11347624035483903
-0.5587473276946253
-0.32283951501858305
0.10028290041670529
-0.1399513840125124
-1.1343062462495723
0.923743973593881
0.4300379396548282
0.594543009872068
0.8592591281297738
0.4478000459296834
0.8490263783097464
-0.22546455061544549
-2.4982337735028164
-0.32598150569614504
-1.282427597499101
-1.0134757466855224
-0.07252207238344961
-0.41352494587300953
0.13023654981855415
-1.417784524528916
-1.7708373770930128
0.6292654490112978
0.4526193068780068
0.19830870647336635
-1.4063173854043778
0.49911286880665306
0.6727349441816928
0.9914203315430589
0.45210355661205953
0.01406812597040673
0.6678050978540478
-0.63136001526376
0.06058538516857446
-0.8845242658336717
0.08438465533185259
1.4376172550920232
-1.2697576423639856
-1.6511276853837167
-0.6586467359985165
0.6052626536727536
0.6529118146598379
0.39674103237434516
0.46655079071271094
-3.880501155562606
-1.5950565552642935
-0.27636941415221056
-0.9849102868780689
-0.5108442373426761
-0.518398798566046
0.543615638397115
0.6224904335153061
-0.4408124755113835
0.5955498514820275
-1.7305787316862407
-1.3917104179145432
-0.4223086345073959
0.2787524987621442
0.5753751015000784
-0.051677505617009595
-0.247755130082298
-0.9843432680486255
-0.7703732857810726
-0.3979464801528432
0.603411825983484
0.38536126126662407
0.8666471260406522
0.030501302696576162
-0.25716532251742835
-0.3996313511901689
-0.554916905427328
0.11937393976988282
-0.8916851771520271
1.0347624746798991
-1.56233556822222
-0.3245697955905975
0.37649691615787434
0.0452107279765502
2.272110204873874
1.4845660138337797
1.4206676748828013
-0.8377194424269524
-1.3376012511402533
-0.9635836548013553
-1.6631115222521407
0.13864195024476705
0.23560637680687999
1.1706469835419313
0.7114873535274381
-0.15180578371489395
0.756110531044663
1.4264139162525018
0.3447750522431225
1.3038798440562671
-1.7113819667467634
1.182617996767598
0.43726332051484057
-0.44308667600656104
0.9946299304068132
1.1003414287026485
3.8082370930182314
-0.15123071949513603
-0.3944936044892436
-0.09684500434394124
0.06385767077022708
0.6734065221810018
0.0569167050153608
-0.9433265646159837
2.8840084375806576
-0.2611375104897836
0.0790725375608104
-1.7125799616173534
1.1371521609652357
0.711149061956069
-0.19870270994717637
0.6753769614361089
2.0526222114764514
-0.31937358069597266
0.31629378713026857
-0.11443156810114616
-1.6926282950442662
-0.1280040132831709
-0.2329712549473665
-0.15621971909779656
1.813544944675378
-1.4427287079643953
-2.69604468318349
-0.2489933844753013
1.100251948703506
0.8250815065965679
-0.9415666037897199
1.2097471113029303
1.8191948889589318
1.5775077174036884
0.136811676642221
-1.2500986525987747
-2.24227472319665
0.1420055021999753
0.26909349435221414
-0.7644599385672638
1.1029473126381018
0.2926817625010804
-0.9062293154952067
0.840834739337673
0.19478393911115988
0.1525418442047226
-0.15975379780995605
1.361997748656861
-1.3032770546456793
-0.04856843028793581
-0.4845562426675855
-0.8922155423135962
0.9524524052775069
0.23383019192356522
0.09833536633483257
-1.8509837945669718
-0.6696333677303903
-0.6950266925105666
0.5591221635175739
-0.5797054607187646
-1.1526704445717524
-0.8835017999254785
0.8616328415571102
-0.30322354201388446
-0.3648533685329645
-0.8662657204330692
1.8932341016638632
-0.33037474572041836
-0.3438133035841309
0.2700496019769467
0.07392119179104399
0.2720956912805003
1.2139949323503307
-0.01541919375298606
0.7892569455856847
-1.9091815098567153
-0.8225477219494132
-0.7622912684937573
1.0570052204145741
-1.6705041541021173
-1.0116180854804253
-0.29865723660150106
0.9949793309068905
-2.903022199456584
-0.5157181783142526
-0.5208507367984492
0.5609722996175598
1.559173993523199
-0.3295695117667989
2.16209798508226
4.054624057145764
2.3447273965710047
-0.09673162990512604
-0.9232069456558011
-0.6717169377892044
-0.34035938929637694
-2.051251281628159
0.16069041604604067
-0.6750431903061355
-0.5320140112998082
-0.48044298930323437
2.3587992363855284
1.1732770892497015
-0.9603157666594013
-0.8131656231249729
-0.4304669727408437
-0.9825352970150273
-0.5797275824279715
0.5565191749737891
0.32773922389970145
0.9226117049084206
-1.5153032463174658
0.8933117001967998
-1.2983330798820263
1.1326242797942385
-0.45682180356151614
1.8306091337003458
-0.5193762956287638
1.852743257191385
-0.7649080497422033
0.36789525588586086
0.5033874953705051
-2.016126877341572
-1.1621335301029525
-0.48524209540278146
1.0026734712282386
-2.4052551368345285
0.8144175484825696
-1.4063869529219766
-0.18206271315431566
-2.424378955380672
-2.2631257261318973
-0.6397798127053492
-0.6345591456919003
-1.1092713130966565
-0.44290329002516704
-0.36402046882139816
0.9667854010292849
1.822264308536776
1.905671404701569
1.3358187241337804
-0.07439919575459804
1.3923442406451418
-0.9536589698685431
0.6826749736939776
-1.2566597732994524
0.38355271062712626
-0.464595659745513
1.2112647171620097
0.08700798270874281
-1.3359719380951358
-0.2455558985350306
-0.6127851737670282
-0.7465973372673284
1.3609103039931996
-2.395239729089286
-2.171130242107846
-1.4924994490305319
-0.4530732323744967
-0.2184699772207568
0.8054985676633706
1.2393785337154106
1.2369367593816145
-0.4893875866517949
-1.6553272565312134
-1.516838732966416
0.26316195429407474
1.3406745907290238
-0.20712465402962563
1.1718766049762799
0.8337794496123374
-0.45545780603609193
0.18595775669543269
1.7943548329391439
2.2024477015909487
5.200225754922752
2.4800857662247124
1.2288686488283431
-1.7704928951122756
1.1446179445467342
-0.6305071423352887
-0.43265909821144233
1.2484540843276222
0.28618442027549246
-0.38332264748531486
-1.4165823755284892
1.741054020043751
-0.5814746625866752
-1.3518960286869142
-0.9697339527806509
-0.627423797049381
-1.9314220959162582
-0.022436313450228233
0.19765612981440428
2.399779419880209
-1.115498162711314
-0.2867099661933426
-0.10959730650924866
1.2928290948402614
-0.04578130423203792
-0.2514695506333634
-0.9105860525024421
0.2881426448142718
1.1583184842524148
-0.5252763476278647
0.6390615098981279
1.6817417547299727
1.3645975514324136
-1.9069879296761643
0.9747259579718642
-0.512751977681274
0.34352076159962613
-0.5047172019508169
-0.06115578223465014
-0.4590443501937873
-1.6817846961764475
2.247849584170872
-0.905962437728549
1.076746707932325
1.2799194457967242
1.5986166369228691
1.8815647805234612
-0.41911710857587886
-2.7531413519477397
0.026940088068009117
0.09452346918721279
-0.758315015998082
-1.0793559863323419
0.8654123621383444
-2.3870603327845856
0.7812861600245183
-1.317456714095369
1.169863290218924
1.6882354097498127
0.3677760730786028
-0.7986934364723116
-0.07442058158436418
-0.4564955857219574
-2.275305745781649
0.03299607483768682
-0.013536731563671295
-0.07331487477548493
1.869671626884082
-1.6397616548412959
0.36329323238819533
0.1022210903105507
0.40131056360237
2.256355565788349
0.7247446058880297
0.024552067942688677
0.7567273428453232
0.6705462746566809
1.4254819247262531
1.3224774728803341
0.14457665461413352
-0.9276569796106982
-0.5324596878077289
1.10147513593414
0.026588370674846123
-0.12837568842359534
0.02335805409467603
0.9234194311058639
-1.0674112902215969
1.5441573819262404
-1.341801738384568
1.2984339350657244
1.4392711253985622
0.3213915612314171
-0.6131733669733537
0.15234303811639535
1.7496143302350322
0.5553650957794597
0.5519824388919338
0.32072212704644104
-0.23087158931196705
0.7444121625438009
0.9012106723136558
-0.4796013645115244
0.6252406277687427
-0.600320788458836
1.278682615790996
1.6006128863053706
0.2951084645522424
-0.3869030184899159
0.6442550001353305
0.21098542527849767
1.2051145445607203
1.6188657975417113
0.9068224694836579
-1.2666129338433263
-0.0854205147701703
0.4468165637837702
0.06556183221435062
0.3684162327932715
1.0625861578046985
-0.046905657607716617
-0.7427714691336961
0.5327973879918202
0.9426552120625046
-0.4392677880545442
0.8247153258429468
1.4401587219567988
0.9721302046489878
0.6740413809292466
1.2846110524322938
0.02438226968296827
-0.062170666499780904
-0.6793523242875665
2.1048089163869843
-1.0642831400377313
-2.5400191019883005
-0.09898714840517468
0.7293965463397525
1.2592605662589422
0.8889883013501803
0.17246361593793433
0.16302840863649257
0.6701452391473315
-0.11726212221465726
-0.688029792745431
-1.7276325206216918
-2.6013984860988817
5.54743885690508
-0.3111721647673101
-1.152526053413054
0.3886120834032529
0.23035460549099207
-0.5950108965922748
2.5168793665595737
-1.746326188865433
0.005851473853931826
0.7818098397168483
-1.3446728605158742
0.20319858804077562
0.12053376326080477
0.1870742120019413
1.3245096084753687
0.38241683483254885
-2.3867863544838483
1.2439473979005309
-0.005090047237579355
-0.7270882423504047
0.9666107677335286
1.8775236082675575
0.8790027151835692
-1.2404609425588695
-0.57544502975048
0.42072361092479943
0.5259274668640023
-1.2080993759157064
1.4002276193683345
0.10801211249640885
1.1729057894690282
1.43544835945064
0.26679511484866836
-1.9119851015172733
-0.6835452494556045
0.859900770253283
0.39355395502666
0.8999789153394967
0.4831329844106329
-0.7749523554717266
-0.04535373610310311
2.1395564881892857
-1.8288822206250681
0.4850239461555963
-1.056515257934538
-0.1623444773330728
-2.5472768601503786
-1.0136133627626043
0.9347016396058426
-0.7442907398550214
-0.5777865000476953
-0.8856107015674954
-2.1975535725169473
-2.222235265439171
0.4463733533342234
0.11417003662808839
-0.6708627713452449
-3.5329320019424117
0.5924347272831316
1.6753440372541295
-0.3645746595052425
-0.2143308691302083
0.34128812025168576
0.8687719375697938
-3.169749581664914
-0.8640741604741378
0.6026513492791991
-0.2733409839284069
-0.28831068306791935
-1.9854466428363546
-0.37217016623277127
-0.045077595746277246
-1.886141582909644
-2.0965193849232144
0.9709629143598739
-0.15324785586758924
-1.0619568235005892
0.7727878371645954
-0.6196904004850587
0.9482528399592443
-0.8842573882844079
-0.31494889863355263
-0.19118934410641178
0.39467362311370285
-0.9949380100100217
0.06468874752870779
-0.502664403426553
-0.15833648486500776
-0.34265435754829693
0.5844765593404201
-0.40578827917275356
-1.275780971782586
1.751124923167473
0.7160880059792056
1.0499571386680844
0.38243745200734125
-0.946982358886341
0.6928227639541824
-1.2849136090218205
-0.8933175519028842
-0.07018043620631423
0.7212200634225153
-1.466813003181133
-0.454282082424168
1.1572682920667576
1.6268915074218688
-2.5152793180025412
-0.009015131045092344
0.2215283758322517
-1.3678884724114084
0.263514516444377
1.8686176063820483
1.1782940959822017
-0.497351093991463
0.07461136287232494
0.7920660254086049
0.2324684606665632
0.7860663530134204
-0.6558839224032555
-2.1800237343507956
-2.128227962154197
0.029780372238568928
2.110406442691017
-0.7057759314020198
-0.7998968104196534
-0.34006099227580416
-1.301062428264008
-1.0919927405170562
-1.552595593214752
-1.5233267136008837
-0.9137484392783022
-0.7918856695080789
-1.0668567349129303
0.40936857387706216
0.3506337261708044
0.8294081492117725
-0.06327608029675598
-0.48982250640037617
0.820451539499246
-0.9411525927383376
-1.1919346973562168
0.13239778228147245
0.24141478485309897
-3.032567523455874
0.05362324162466231
2.9033133965848212
-0.5971710904065192
-0.24389159480641773
-1.4261505806743868
0.9660813488772308
-0.9808021403809098
-0.19068887675283683
2.6435971851102
1.055600967757015
-0.6320068327811419
0.7097076986414995
-1.7907602535422795
1.0964402006521146
2.924042367864089
1.5347165332988606
-1.7325546261922293
-2.0594147665924285
0.2370749509924316
-1.0718792968324666
-0.018569943456592717
0.13415085564817933
-1.4436582522799706
-1.8616767805197978
0.049097327461467964
-0.4578626615563807
-2.049217788688224
-1.299951151919879
0.145428253332865
-0.13930838431058012
-0.5429497106562893
-2.2606745468343794
0.9041279754710984
0.35340536114506116
1.59136208770326
-0.12502510466619168
-1.014028162604153
0.5058663508003264
1.4574361104864386
2.2395011711156436
-0.40193613847568604
0.40564710116001756
0.9933224306391825
0.4693338286819981
-1.773181850198315
0.4285317272302714
-1.5351025383685235
-0.8184118214416598
1.0064295775235925
1.4767055339324622
-0.2646804904720751
-1.0322040707302116
0.06500476103209853
0.3133180920682572
-1.0856333616788132
1.3379946693089577
1.2368950919425092
1.3117518899593796
1.525521235671483
-0.6432466280502088
0.1976429591443984
-0.2409820524051131
0.26590351145714824
1.3585015632733786
0.8140756008255311
0.08485364062212551
-0.8502032688704886
-0.1929329745940922
-1.2075959606475382
-2.8814741738427045
-1.5976792889916367
-0.3188398892677055
-0.26978368187653967
-0.4935346853398556
2.720644686131694
0.6811658261492787
0.960812855958316
-1.141441960334929
0.7359932726655122
-0.6262542874022086
-0.09639719108748211
1.2467813867900863
1.2137686801149852
-0.6591570806245524
-0.2828403914774154
0.1278506046538456
1.3825366268583912
0.9033258944441979
-1.4643860552237362
0.28610403195033857
-0.15667272314965433
-1.8731282699145315
-0.1475874115121262
-0.022110875133915433
-0.4609781440119108
-0.27156714129482057
0.5141675433677149
2.1172025357940107
-1.2671368316433176
-3.0070710759949932
0.22899238858239032
1.324051214839982
1.1067252407935884
1.5876660750950047
-0.5447350666708122
1.2493379040710444
0.1998348282890087
-1.8479783963237615
0.0708699503578838
0.5960979963848694
-0.3010994012214479
0.7965978922435112
-0.22497412477154605
1.7461957467722935
-0.5045910976743307
-1.209585379888312
-0.15156916953511976
-0.318398390040792
0.39348328410102235
1.0292025682784736
-0.3115232094200792
-1.1624941924728827
-1.7806905425491844
-0.9812951529137046
-1.2482823401250778
0.08621354110191261
0.7884522594699663
-2.4257412762144615
1.5577808533756272
0.32123570576352356
0.4821895656265376
-0.4798423682454912
0.6746001005862304
0.3422474623666555
0.9356930385660599
0.48978852937705114
0.3265449957554122
1.8888416090692008
-1.928903796526963
0.09928475517974093
1.0153428089117142
1.689872769415824
0.38659972454444785
0.40531629402548736
1.391255609834338
1.5960476889348956
0.36607197325635493
0.5183936663031778
-0.42729598568624577
-0.7029890633086077
-0.16834624817599586
-0.16675342677522145
-1.860212699540073
-0.49747366212921246
0.2902591914835723
2.869587916653274
-1.6132600517740994
-0.7096394387499
1.4081132291242617
0.8116564397853666
-0.8622877624843572
-0.8062842815399116
2.6805898200720053
-0.4298256440949313
1.974692808924688
-1.7953785740732895
1.8890722131472502
0.9195233688450497
-0.5269815173818351
-0.9113735306267308
2.0299894305736803
0.549279815337205
0.8161200261168722
0.8792551481286524
1.5697643564521866
2.119919943302783
-0.40875131528504843
-0.9786916693359486
-0.14390240481416736
-1.833955090511414
1.236212235687657
1.8213404011879637
-2.14272691466095
0.9258910764089759
-1.3304529867845634
0.29055343194612937
0.022213274060804197
0.7886791452174016
0.9175635317311385
-0.5886024606631554
-0.07574785657663533
-0.14367002772102325
-1.2521384118880674
-0.8724598038471025
1.1380792374296638
-0.7736995528962947
-1.765429003170697
-1.2288828655894974
-0.05648116137249376
-0.7670471539660303
-1.1198867425330794
-0.7806703643521199
-0.05203955197679639
0.512870806000172
-0.16101318773924164
1.0698414605451454
2.7999115204642453
1.9794657793191308
1.3905317430982518
2.022264536423039
1.703151506876903
1.0399333387261023
-1.943663138663954
0.8752426886509439
0.8293095267670054
-2.192164220393343
-0.7356636729069934
-2.4958700444707804
-0.2218474634279251
-0.8988383563216773
-3.6849128318808018
-1.3812022935257582
-2.48860486682014
-1.0677586248248223
0.2961069103474416
0.30988921663608915
-1.12999357445733
1.030148922483505
1.1313969516337319
0.2513860943609866
0.6003654095717981
1.5483993028443301
1.3228858025343853
-0.42062252767426833
1.5441216691125506
0.46126167960349873
-1.1749267841049107
-0.6033145068460268
1.255857449658246
-0.19657895697357952
0.7537137112143764
-0.7129392897313421
0.948129968507195
-0.4898943453047244
-0.4619020530078474
-1.0201648995635126
0.49850651984033323
-0.6955814756001032
-1.3013576169754117
-0.9623044526529443
0.5917265252329312
-0.842903824858531
-2.0795434783317748
-1.2280088449799966
-0.9452382969834088
-1.358829913272272
2.422215793081771
1.8791388634555155
-0.44297352894762493
1.51458412201552
1.3285312138607133
-1.8592577697263777
0.9664916618488734
0.35340594613532433
0.5292956085473101
2.560865948674541
-0.8305455312469067
1.0363493026647896
2.116063376888262
-0.7749054881156033
1.3923838081262057
0.47764896095456433
0.837669557957169
-0.7548057279420476
0.31202766403823895
0.389120848219882
-1.6410799586176028
-2.022064570192337
-1.4624544640909876
-1.5088570606281455
0.30014758885854625
0.37597592917913986
-0.2035987200083887
2.714542333024921
-2.6101258443785174
-0.5158799989560972
0.1740970416557497
-0.567133431112771
-0.39919808740777546
0.3524006712206437
0.4589346532046641
-1.909696719033768
-0.429020354948847
1.6179261569526724
2.4493228814021073
1.6336973510784163
-0.12713040024403116
0.986665269614493
-0.5539567912091186
-0.1052128305015959
-1.8498345970539614
-1.7353945119951697
-1.6082882843040887
0.7115407595039177
0.6397585887344417
-1.888502584404242
-0.6999073716231112
-0.6375902410852641
-1.5218308718324023
-1.2755302669996769
-0.6819590576619159
0.8798592607417193
-0.015270127843123375
0.9434096839670056
1.574864004547546
0.42822597770189935
2.2876304885009953
-0.4682583953915772
0.4209724900598421
-0.07792595352307957
-0.9868797920357073
0.2722577214290436
1.2356098735973289
-0.8337776943649463
3.114010967186489
1.400170941756538
-0.009251604846563734
-1.3615589983577008
-2.249695946474627
-0.5204437098774378
0.0846351418937993
-0.4002225733854034
0.5417621845818968
0.875716509403249
0.06454902661782312
0.9394299818023651
0.19023389423032075
-0.011392492936990161
0.34275195954491333
0.057514067011967325
-0.37011484710422987
1.753025121797196
0.8080122404617284
0.16282127196587773
1.0990986591243583
0.035684530800186486
0.08360224921450359
-0.33799597694714584
0.7339069753831102
-0.2789952270301747
-0.10017449150625407
-0.43809742965180776
0.5980624616600791
0.7762263456017809
2.31198692581753
0.1653302925797401
-1.977739561585423
2.00285320249957
-2.020369558666636
-1.2839361737089883
1.5646608726544136
0.7391462838161046
0.8230424944869102
-0.7224430942284802
0.1306386772341246
-0.146420221349426
2.4957386386883442
-0.09274102115338123
-0.8232432970051881
1.2491733190999128
0.6929816495923865
0.07771755146760922
0.47350248250643684
-0.6381532393877559
0.07211373974935244
-2.2749982640419617
0.8083952353140863
-0.06513138616653598
-0.5830350487774713
-0.4878019657568446
-0.29782543398135225
-0.612563966016494
0.9335988332449227
-0.49165892546895573
-0.898035149093663
0.17924216801806683
0.3388188193288695
-0.30403497350545494
1.7690807875472017
-1.3766792768816094
1.7439771650285523
0.07791063852032201
1.716186553465035
0.8810517665986127
0.3218881196562639
2.0876452310772695
-1.6378981126139254
-1.104983502616115
1.2130649203122077
-0.9988745029790421
0.9592231269547371
3.288104677895161
-0.14960480189655317
0.8740003531452855
0.044914800619334845
0.426648643311025
-0.25178994517165676
0.2644482882000324
-0.8564856239412224
-2.2747234658521878
1.1018320477885832
-0.125981003942614
-1.0685709512739687
0.16563483043185423
-0.3050302511262693
-1.363178175851827
-1.5117313718202254
-1.488256720010322
0.1505250498241654
-0.8217417064346257
-1.3587368334479082
-0.3103745934457916
1.040474958764708
0.09736176483379444
1.1147135625088862
0.9852791423543497
0.8975764683974754
1.0106610338324435
0.5852047579417406
-1.2195526565629335
1.4914896828063338
0.7390297140525645
-1.6224405312242824
-0.7848737003916941
-0.4206048404070031
-0.8445075527747916
0.304590317697577
-0.31947878783208106
0.6121371219538583
0.2545468628581503
0.04178788097501843
-0.6040047944195835
1.5648462581540323
-0.7774292947593671
1.062724969259312
-2.036192396235557
-1.4232930655064178
-0.32038135186261174
0.6480002630477404
-1.5072200571715402
0.495909266263789
-0.9402635301736681
-1.863645598957325
-1.312203129221024
-1.5221952810002812
1.0223650248466447
0.7610167477258758
-1.017581496770394
-2.20043652196315
2.6529270022371603
1.9904097612318914
1.0151956955014156
1.7982762040140599
0.47169860731084934
0.8425211444685538
1.132231745395247
-1.5007090130013128
1.103667538998212
3.1593947183929743
1.639104329904306
-0.9718852865606905
1.5131739443884453
0.2574239148455462
-1.204762923049603
1.318354189625928
1.534361827796284
0.21473990272878818
0.2892638611411709
-0.47340116172936314
0.9946603342660723
0.3517277071735944
0.3941848617308831
0.39933451092665273
-1.643526774081888
0.9342692475915728
0.6537284601887117
-1.170114798667393
-0.3444978771481323
1.1455345920929365
0.9823961003100166
1.317675974357072
0.7088564121803812
0.19829331454334845
-0.7487990554218886
-0.48351317916660774
-1.7551601908604777
-1.752459485478795
-0.4663680003762792
-1.8082749338278616
-0.6102564374355873
3.4380864788950354
-0.3423653816701996
1.3260989597513269
-0.3025683710382523
-1.7546060357222326
-0.9060745266754444
1.9666162344242555
0.34705852290943145
-2.061141723956827
-1.271434096663394
0.338052556790415
0.20011500816967764
1.3171657416799358
-2.1569187535681817
-1.1078813330894008
0.8125170901914657
0.890720668661829
-0.3632226563950835
-0.14716853202163804
-1.0144044462905504
0.8767495814513425
1.1880381799963349
-0.37971784308613843
0.8566870704631213
1.0639086553239334
-1.199688938820621
0.3391396159120958
0.2682048894200008
-1.9538204020522827
0.02935315920951977
-0.3790039482604689
1.5944448475449182
-0.7545540408833722
-1.2730572698133553
-0.391145472322584
-1.129611630748133
0.30579231261505163
-0.5607945651545144
-1.5910484763314772
2.8764914690299825
1.270298492162047
0.09727396600580192
0.8186842952590608
-0.4389564932258384
-0.4749735941220792
1.3606200687452437
0.25346073965834487
-1.424108674067436
0.8265494706622465
1.2530078935349287
-0.8841471465038238
0.15120679255376523
0.6831559390432926
-0.22672375568000105
-3.755245669135549
-1.0836214764824985
3.718451764857109
-1.6368567430992222
-2.7852563386216653
0.043419537054061055
-0.3055398478292297
-0.3930138059899015
0.6737741603231086
0.9685185539042566
-0.3729511200133919
0.13764464215635097
0.2711611514614841
-0.3153248757242384
1.5103859487406346
0.8528622301319438
-0.7827394490975279
0.18164535768711695
1.139615937831562
0.22348678173869987
-1.1267163401512428
-0.34070817772430856
-0.8764191712072968
1.7137292101479311
-0.6484602545346836
-0.11683518047495808
-0.7003668871901818
0.6843596118970127
-0.30796185098258216
1.6627392681206734
0.9783605378718448
0.1052409637251842
0.4810066259463379
0.2520474636157782
-0.8096111860205591
-2.5391946221497856
-1.6189874781240783
-0.3253236729632201
-1.4764719878579902
1.781769961102945
-1.2766724244079504
0.2565580043709867
0.7522139055969286
-1.7317145810274688
3.1143967342033476
0.7973332209053401
-0.5858781399485367
0.5187621675624976
1.6218970565083657
1.7310174094154969
-0.9203269318567564
0.6746096458898094
2.9443199294146645
0.3703205790786893
-0.05171160746095871
-1.1807936481405394
-0.2915904120538426
0.46981379086050185
-2.938954468751897
0.48172185943642876
-1.6251407777762934
-1.8854150532587415
0.4828768478377772
0.25092696729830194
-1.8919314072211781
-1.5763210324462553
0.7631452149259115
-1.6135880603316013
-0.8639285169289735
0.3876945282367182
-1.08425586693965
0.043247467226096084
-0.6210339074546883
-1.106399348934101
-0.5019148465896716
1.6636689840728456
0.7084784433423944
-0.4560843205837161
-0.6827980475121725
-0.5373241077835552
0.8135796823158234
-0.6537450473540247
-0.24113465547087226
0.07474237644086221
-0.8312262332462628
0.3529011746549253
0.5312592480348276
-0.35508679704166307
-1.6214513582206638
-0.36048384606365275
0.8214104973080039
0.8536988668749816
3.040050649758735
-0.1638253358888345
-1.5758587013837073
-0.7732059328796084
-0.5093215397421696
-0.348739195887958
-1.6444897074969742
-3.881466151265472
-1.3152263481671385
-1.6279565322856089
-1.711365277759799
-0.2545865872552744
0.0254161011687418
-0.6758401929450792
-2.2669298414797128
0.5694987321362581
2.0205993684196977
0.7717219923828327
2.5104023348851427
0.5832866514320473
-0.9202132723073937
-0.9203035601975665
2.6273861388512314
0.07336306784635153
0.2965492368050631
0.5564669512131671
-0.7929786690247038
1.0014766873607226
0.7572061420864632
-2.660570498030327
2.6060652184815623
1.0120891959301639
-0.6262160484619385
-0.4431137837387661
0.3955824420196655
-1.5619986036089948
0.05520089851306787
2.923254188784979
-0.11846459259937703
0.28689904630192214
-1.2724257934998557
-2.217867093165512
0.28428663363626255
1.3288755382216462
0.2608938502755624
-1.002529992870268
-0.5888777408350021
-0.7129091949947263
1.2464304957115728
-0.1269596184088521
-1.702043460756466
-1.3941100188882745
0.6771313760776078
-2.9137473501309925
-0.4904170541482575
-0.1887849836429291
0.046152209093902975
1.8619557008143501
0.8680853316462116
-0.2278946310999686
0.8413010304523998
0.11506196688779925
0.20848332397530442
1.5714142405765172
-3.146340930101642
-1.9068012764941684
-1.215225830409795
-0.17690715726940667
-0.572895455072709
0.6165631241915959
0.21504543398713347
-0.10465188859189198
0.17185553218779268
0.9440552339699323
0.49592008781752345
0.09170860320348666
-0.7366795993238986
1.1235529312555506
-1.0305017182313836
0.3066536813136591
-0.615569725645394
0.7300074087299812
1.6920151249049993
-0.10819041388866535
-0.9069925334179246
0.5947898044905269
0.08683456018111248
-1.490288361484302
-1.1049315640358457
-0.6055558640245293
-1.0707789147518707
0.1601232314887622
-0.08515549134857665
-0.18387490161651962
0.17169200556906125
-2.642521021629387
-3.3152815469650965
-1.4036786828118775
1.5641627540282752
-3.036750433606496
-2.7780309209204064
-0.17557508869736024
-1.9235605261380602
0.2533661063864136
-0.7118382766275494
0.20626596926898041
1.3568646142951202
0.8980163659782927
-1.5473155280899038
-1.0184611775817012
-0.3777034590593009
1.108948463243003
-0.6615820797317407
-0.03360836379831123
-0.018504539374048407
0.678320252927655
-1.6651631985466822
-0.9810870101158349
1.4444078580370245
-1.3812303496429603
-0.7792643755414901
-0.7238567632531427
-2.3189950265782104
1.035633792781985
0.3142593976054074
-0.4997601797126482
1.856215847046756
-0.7354848010227945
-0.8690978169359923
1.0303073021019513
0.3940153755920865
-2.1041633131931996
3.065404299832103
-0.2556469512392646
0.1609836696391399
0.3976953751715348
0.09743095738068808
0.020288381344806605
-1.496692378223262
0.7762207439856502
2.4374004085641925
1.8681043989063977
-0.6458937443063208
0.7793185358897101
0.23402120495891168
0.13723853662846688
-0.8477875360208688
1.060679928781207
0.7506311044732525
-2.641982667347461
-1.1758786744850387
-1.8145445234892321
0.039182726493328345
-0.9191170721100966
-3.2467925392076085
-0.5984061701664638
-1.8718585418669247
1.1009557385194473
1.657213716829027
