-0.7068204821270497
0.01865419606379019
-0.8483191865346712
-0.2598950701354669
-1.3506198267554315
-0.5899116480627701
0.23031271259264458
1.1713426920701526
0.020563657939758135
0.5346373466826392
-0.08824815453047548
-1.8384073476207166
0.012537496582935823
-0.08321183962026273
-0.2016637209109448
-1.5358351225218747
-0.8516413510471527
1.3312452141182758
1.9855851267536555
0.5269101473794958
0.014231873411020309
2.183559253844677
-0.425080864301246
0.839736261279855
-1.425074847781393
2.085123116629393
-1.823494398550985
-1.085862142244111
0.7686245948365561
1.529787631759486
-0.3393587439517037
-1.6397738047039059
-1.2698472397749443
-0.6207028305752733
0.12770425274529407
0.13344601514430768
2.4191629986745338
1.5574878164388484
1.2174672497431336
0.6691541480878184
-0.6646093332684669
-0.825078797185116
-2.7294415179867837
-2.8321090469154933
0.2091456584300979
-0.18984486893813457
-0.1761922569243825
0.057552560331049225
1.3277307722664957
-2.063700814013219
-0.49412734085942794
1.1194434744854447
0.804512434941562
1.2927011315103478
0.44385838002984274
-1.9838430212243277
-1.7083193431729735
-2.160511048573529
0.10266561949431836
0.9110988721667771
0.06474779040586502
-1.2395132697910476
-0.0031294046812336924
-0.10282078146325135
0.6263268188127251
1.2792855124368523
0.40750374240268716
2.9594185289331585
-1.1676956165118968
-0.26974080411576185
0.2255988719810488
2.5023986650487813
2.339710744158219
0.034470684517531554
1.263767072671649
-3.615884425244699
0.17634484519622096
-0.1361884540460564
0.18429128065001274
-1.7416726250339452
0.3369999014746717
0.543419208856362
-0.08810883128173509
-2.2086523296461356
-1.7425778398765444
0.12568477447325943
3.540326350725692
1.4671982718218177
-0.023199111712122137
2.7141768858944952
-0.6651258772907566
0.7746210239473214
0.1893342933080108
-0.7963762265747043
-0.43028808400976465
-3.7108339561626327
-1.1957809611043877
-1.4172655548935027
0.31683962145354966
-0.3227885155215695
-0.9633924890025224
0.23881134826611528
0.4114439913113581
-0.13081507101225487
0.5993566454033209
-2.1177652412232644
-0.8991575951857803
1.2313215398465562
-0.9709558959186784
-0.1653888101463311
0.6668211838163073
-0.6348177398593606
0.5509534643215132
-0.6202738845660678
-0.18632021616322847
0.05867500578870622
-1.5243289728855531
-1.2165037076040122
1.191934715046954
0.2662296195408235
0.4382400871192464
-1.534341523821632
-0.3505755558816674
3.471339980590472
2.2613205727651087
0.5933970397030276
0.6985403957794153
-0.8795690061625853
-1.101384473330695
0.12214016905102572
0.17639886582817269
0.4995598844299152
-0.7884316003716726
0.024794729831692883
1.4985008166060412
0.24962934884580867
-0.8674137681460898
-0.5759916524704086
0.36617645004674465
2.5491053652792433
0.45135539731994706
2.681652786874577
2.2043579310270154
-0.10371712088584246
-0.32193329047552366
-0.09973655769116949
-1.0837863622192532
-0.7114994936933026
-1.2094560092590962
-0.19993076903286833
1.1160192761562209
-0.9355378378115667
1.033794520799448
-1.0010616037880475
-0.19776867450216257
-0.1843456095556533
-0.9620455531594229
1.5230733767972588
0.4214469943937752
-0.35316979929166575
-1.1404437294478227
0.28120687153074747
-0.5474682620906444
-1.2481177129147223
0.0933473260252675
0.6111757490346555
0.11341561852256384
2.511581750469312
-1.211481408182111
-1.2016338337270531
-1.0134842495721939
-2.177300842370379
2.214461822450823
0.294984860797569
-0.38958842791212933
-0.6544503725872245
-0.6533441993346774
-0.14892738213601242
-0.2803805244549062
1.1350058558620832
0.7790102759981546
2.2726494642098802
-0.735707748658544
0.13340001160562204
-1.2009795402016503
0.8986767277265125
0.5167896437922815
2.210410986374678
-0.12652029710471385
-0.017180861625483573
1.215831773742753
0.36702597293993977
-0.8640337195687601
-0.33015638917720497
0.8582874194096998
-1.1045005515136734
-0.1357322341683624
-0.5044396841624964
-1.077583905413927
0.5565121792244668
0.3931268142050842
-0.9208300826062029
0.032456900722480926
0.25299583578974366
0.624022600392217
1.1698155206824763
0.8897100500891632
-0.12395332850862446
-1.1463406037919286
-0.2927559418207515
-0.89375199336682
0.03638538678330739
0.21660461084581945
-0.1669420504492259
-0.7032794514805297
-1.156795290490603
1.1361599643554487
0.10059582628894966
-0.8450752311304369
1.302189713926524
1.144532865981726
1.7255942728389106
-0.21523607357048571
-0.48456484060385485
0.9790018653584547
-0.5904442156680293
-0.03459621892776641
-0.3502523937802886
-0.7117949915814363
1.545315912132299
1.7604128320009735
-0.09648074532165782
0.7041118154152632
-1.166496317973076
3.041559635643615
-0.13738917699841383
-0.8191812110889365
0.6861108651880633
0.34323066744162395
0.09352681639903561
-0.16979649947073883
0.9441000456779735
-0.3187464181072316
-1.0051986856159587
-1.237313863531713
2.2018115242383063
-2.1006566826281894
0.4327256906331866
-0.5005347956528305
0.16117262731676665
-3.089248422046923
-0.28448577823287086
-0.6577170743362192
0.926120777942329
1.5311026549403417
0.6073779689338455
-0.40993526039296724
-0.7844005202477154
-2.7797688132519807
-0.19774676587965911
-2.170942322557338
-1.1640629760636982
1.7025288303942439
-0.8274325352162032
-2.519905069825452
-4.215922755514735
0.29052573588938346
0.19369744975463074
0.468761410363215
-0.34388357387683477
0.04773929154722389
1.0494194875736482
1.264904721662638
-0.7982907281364519
-0.5935275345251236
1.3966758107754957
2.4548761128214722
0.11703753545381816
-1.940091669080845
-0.43584979310764327
1.4791219746801219
2.2154505295343196
-0.5617752961753145
0.5724107127054784
0.015354574501770012
0.31111245935181286
-1.1369511051263201
-0.46229051951960454
-1.451597015659456
1.0037096326138006
0.5771623045145171
-0.8835705737539562
2.2846112528395253
0.5802847097384166
0.49450595727078744
-0.3441190624797178
0.6430760320414131
0.9717828430203284
-0.48007521444175094
2.282826613915588
-0.7919059694313771
-0.302705656825895
-1.4057619430343997
-0.17522751393550193
-1.045665513418633
1.1343375223841783
-0.33649363020513595
3.498784023007334
1.327841320114782
1.9380664362775728
-1.602500648016438
-2.9664857703782648
-0.7333286090779397
-1.9951359112972085
-0.13109115569658455
0.8992689338359315
-0.18694933200722685
-0.1907254042984104
0.35935213334592125
0.10083179018626989
1.303587229088812
5.639259428339816
3.733384648411376
1.5234091393758578
2.135178600899976
0.011870321602156045
-1.2110138077998434
-0.023353592330311965
-1.45183702533482
-1.6141594840231899
-1.0257458589723394
0.6482884390465512
-1.1908252451625996
-2.7630578312059893E-4
-2.051418706627864
-0.8162947570183182
-0.8984617669795883
1.9273525006656325
-0.12123012367760957
-0.3272289505142945
-1.5047578211615393
1.181720116669082
-1.39755456269116
1.1829362531592096
1.644743281110283
-0.6866237587445422
0.48219879740682314
0.02665481141393315
0.5042015954370379
0.16878387331808872
-0.4281681050298827
-3.1147747217886974
-2.2672040833374525
-0.866827046226395
-0.9598827769482517
0.3342861883657295
-0.3253520687085269
0.5161547192192134
1.9826477268591065
-0.29599087421100956
1.1153831423104397
-0.2798171423105975
0.4193849083940876
1.7106279878107167
-0.5466340499035782
-0.9444996471189978
1.3044520192444424
-0.9853623787612324
0.039851874034698594
-0.8862351013600084
0.272760284966757
-0.2153835940060476
0.8825606265955794
0.7849862267271394
-0.897666464904146
-0.506140305176844
0.04764987719409992
-1.5564860231273314
-1.752435037915251
0.9318515747046597
-2.1821318232337097
-0.7074383806127249
0.27693012157074953
-0.39369777904687603
0.21506461555824957
1.1318778024722917
0.056345591600525206
-0.055821239126016976
-1.9573795011744506
0.5078196702928609
-0.4353959272533775
0.5325683645066371
-1.5136903409519402
0.1331062097339604
-1.1183314982736983
0.9834864965107435
3.1808389017604353
-1.0686675032406403
-1.4733189296181781
-0.4190521119646011
0.8714149187339965
-1.5744545420367582
-0.8107184183191699
-0.9461914254482189
1.7826625145202766
-0.8599997568262769
0.5168113828760664
0.4702877023908234
0.31322900795492215
0.772970640598846
0.8053539443244855
0.6503010433849516
-0.6567798581451277
0.3133540265608699
-0.02073229804728776
-0.44370236009719366
-1.888619132996966
0.8990995900559146
-0.9659517396685802
-0.16617543855391123
0.2149894906430472
-0.6192691695512973
0.21028160717390634
1.467036818589949
-0.5319897291024371
0.6277521135509891
0.5043782395153321
1.4452856843680317
0.051559419265427564
0.17534313496271756
0.4821780077613999
0.6130664634900642
-0.18039276359930426
1.2408870358451525
1.2220532523359109
-0.27068585331283795
0.4004637150199223
0.034520844700696926
-1.108347552077406
-0.006376303543439149
0.2422720337461315
-0.2872784430429088
1.965590943469148
0.5421643452686902
0.9859075989635513
1.0299748276755818
0.280122369603855
-0.16217038777167928
0.13176066069971873
1.3457512089386616
-0.6454836038034879
0.6040236350033614
-0.6365107938007353
0.5795055842671115
0.7752972739766443
1.2752115858008046
0.640249130706842
-0.08296716760860806
-1.505822414685699
-0.10170703077039692
-0.41143509455199645
0.2124581088045058
-0.5355100214619305
-0.12043633640895318
1.1578534639451576
0.12172575904114578
0.47504672969968964
1.0827406227179794
-0.28346396689544545
0.5497635131686298
-1.2615413398758544
0.3753649386925749
1.3073937385444552
0.13333701445669696
1.3666520764297594
0.12139483552234281
0.26528096311154303
-1.3259338082648382
-1.0117142483460275
1.0039252080053203
0.15590026992598222
0.9832668518870994
0.3066588127396389
0.46215931454433
-2.041636870399662
0.5679610005509553
-0.8496630555608857
1.41395945469393
-0.0354861676029126
-1.6072461578754564
-0.5691369140441817
0.32084931235497577
0.6303489443869186
1.1580871567692432
0.00512083454289147
0.18579513092531202
-0.354293889478398
1.1552610964958856
-1.577689647590047
0.17313853017524464
-1.353786111156177
1.304531376176593
0.2815792927982836
-0.4549084656204723
1.8821978305837432
-0.042187144597430684
1.6372283144899267
0.9894767334687059
1.5668958478918518
1.270014035738076
-1.7365276720849054
0.2203903557977778
-1.2299542620913064
-0.7487085310231859
0.3106591291167889
-0.44830205961011
-1.3766375203654722
-1.7562538197700186
0.44731479910171357
1.3433571095723469
-0.01670196699008161
1.0783110703270158
0.11689958790941093
-0.03970271184080639
-0.7494125063974875
-0.964958537378125
-0.47963993960814166
1.517712723426625
7.614502524144361E-4
0.21371752067717947
1.650060675418783
2.732579076661641
0.793776631317775
-0.1412935731048392
-0.3890324356890927
-0.9177916762413504
1.1059468207551042
-0.7432126751297977
0.11925426857595105
1.407756633598948
3.1318576032806544
2.47400039614718
1.1590460224644583
0.2616259549344896
-0.7876847935855884
1.4776402219990867
-0.6503619267786469
0.862402569531702
0.5936301741753901
-0.9658327692546438
0.4317262228755238
-0.8224617930667053
0.4957176920796807
0.5810070918319424
0.5411134307167392
-0.6059623657974496
0.3072991046695368
1.3233752599235173
-0.4741299535576746
0.36877586889086605
2.0093041530861395
-0.2840606321974854
0.4556980916462276
0.7364456675903674
-0.19442404942729932
-1.7645100675299572
0.9491327376738663
0.48053531616987283
0.9973568845076751
1.040229423985689
-0.8918217804730549
1.7635848529387848
-1.3932459311757455
-0.34639387316671166
-1.0335125139754735
2.7710929367133588
0.2938149168426275
1.0804737419140005
0.7625553404814058
-0.20032561153034398
0.05204227235352607
1.4961044209328695
0.1536649127193026
-0.6037447245126052
1.7854944234706258
0.18613572962054667
0.09986124307855984
-0.02418752925300156
-1.0490263185615576
-0.3054185978435262
0.4685635388458934
-1.2663286131671727
0.7812474576244852
1.9981977932975363
-0.4561101691646159
0.16489746912746556
1.3932366675758003
-2.6118338915706394
-1.1293542654637663
-0.36631086883615493
0.1522722973515998
0.6010697780499139
-0.2123038276183397
0.2956093790320621
-0.06941834764329692
-0.2927000702116449
0.8770488580561475
0.5514069201034256
-0.1572951279002054
-0.15085141716979317
0.8714238252372956
1.5960119214335609
4.773166041823104
-1.8361190049103813
-0.5165308410626056
1.2406982721325956
-0.4673853363834189
1.5163349523338954
0.9801305225950583
0.0644946146118786
-2.380774121725459
-1.6349527370932766
1.7750057291465207
1.7433957923511687
-1.0740829323357048
-0.2898451189704462
0.18175573133776088
-0.9206450528006326
0.9073261523279321
-2.728336354631819
-1.6247341915778304
0.3028980975263212
-0.5129539799213367
0.024201298333601042
-1.2018023242049987
1.01216712852192
2.528043089564338
0.7137042005559369
2.8108681869217453
0.3188322989084639
2.7497986551019986
-0.13906337436406913
-1.7580509332971685
-1.7501870603062197
-1.381361938179109
-3.6130914290593954
-1.3604427773735688
0.5805736767932499
2.163318376214235
0.3784734071660719
-0.4088419841082794
0.45036285579147967
-0.2032724422411962
0.6198121904677469
0.2554712646972245
1.48329171409031
-1.523504223376434
-0.9768778637627282
1.84209237218229
-0.9458756563391117
0.2714037115991022
-1.8824111018020449
-0.16086286889076418
1.107164275369358
-0.7925135133670976
-0.6018037420338718
-0.1255155417743342
-2.6838878199947014
1.1079278792749545
-0.6442312224126301
3.8714628130587965
2.907859073311382
0.5947189334570522
1.3300987346671374
-0.9170450784730673
1.8965092804783272
0.84021613218432
0.10703070063612545
1.0385124512338288
1.2879711404702898
0.09175553541765905
-0.1969784083373115
-2.0615736254853325
-1.20467733796227
0.6423437784081636
0.5122882324425972
1.0187584688655398
2.4455141401989136
0.5174148409998914
0.2601188816694468
0.3759975073770518
0.26553647185676804
1.2328331680080105
-0.1911908342079957
-0.951324546340717
-0.07227356618114973
-1.2927801756508284
-1.0707853306084183
-1.2139722546016203
-1.0026117233454497
-1.586615163506241
-1.9111184968813093
1.3537575652754832
1.510573906390754
-1.8110890934449184
-0.8694359535359794
0.5892529964934318
-0.18206545603889246
-0.384878483950987
0.6227871458270189
-0.49355493453531873
-0.17821481486987578
-2.8421211090637453
0.34985665876270816
-4.335856086334585
-1.6543279559829491
-0.32788537534827716
-0.3603231704238285
2.684707394329039
-1.15801433380966
-4.544028038482385
0.47444579791240615
-0.021095436618175128
-3.2328110298377988
0.3515227347077641
0.2031513521889932
-0.4169610106673815
-1.9702478106034393
-0.5173885061860032
0.6427558209578554
1.083454718949761
2.6473788002108165
0.9757911528668491
1.0706264408904396
-1.449542204309271
-0.673858889815725
-0.808655968220932
-0.21644800065698022
0.03129180107855353
1.024587109270061
1.290407183975575
-1.3089308414023675
1.2753535856535503
-0.572033480053532
-2.8300586225759043
0.28285270545244123
-0.5592419878673162
1.4818608985759
-2.36648186872518
-1.3003350611596105
-0.7548120139186453
1.4566293945057667
1.3656051868255155
0.13981595748442394
-0.995854559242008
0.774420382997477
0.7178041649662374
-0.6380273487446164
1.5284355776055527
1.1469454724527444
-0.8044213664727099
-1.2643703530382095
0.4047975202866427
-0.6506089392367898
-1.8421337107976858
-0.33677033155225233
-0.5079314356440752
1.121222974869713
-0.46508806010244863
-1.2731919772669267
-1.6498715692898847
0.030849093951598468
-0.39430464277166316
0.834450398429128
0.4450135023227634
0.06584194661677259
0.4482106920389735
-0.5660775337334701
0.7965304020904357
1.3461744570208214
-0.13755276862157512
0.13512493159984706
0.007377359478404905
0.0851602764096533
-1.2426194435521631
-0.6069946637215783
-1.6059752292953104
-0.22310391190738166
-1.1989125419872366
1.2272904956639692
-0.3466366387825334
1.6024111886121617
0.6972380360112285
-0.27731202144161077
-0.3382448124612852
1.0507083577766163
2.356278181392031
-2.320119557414113
-0.12655434131348042
1.6389703878002357
-0.8142158238037279
-1.174149275880432
2.2528037062195136
1.312247063834965
-0.24854194620119707
-0.15671119915538262
-1.5670166766069107
-0.18792596318616597
0.55797552888167
-0.861501818226256
-1.9103508159418505
1.610747905892968
0.08506999272355721
-0.4599325142614575
0.13675376249646498
0.9154863798127008
1.22295197638132
0.2786042155522336
0.4506933897470675
2.3010565915833436
0.3148389999194475
0.6090780985786907
-0.9628128538240545
0.39005924662226066
-1.130077174356914
-0.19694337643236667
-3.2310653211890723
-0.2606147580876876
-0.033736844442767235
0.15273199320569142
0.9375987080939107
-1.4606887867650549
0.7791138518629699
2.027527743663617
0.8181322820461311
0.5530332224748318
-2.2417819573458324
-3.4142879185362434
-0.5967226372539184
2.084609386063143
-0.2095278772979963
-1.2737579255563312
-0.22305717926272955
-0.2561035680208255
-1.4776191112862656
-0.6312274814573066
0.6599928287398533
0.6897511820114324
1.1522331927625906
-0.03445014147470277
-1.0886496378587012
-0.12317533570511623
3.04257208889387
0.20011532671431376
0.5023408725109343
2.203306650991976
1.5207579988728308
-0.5617470403061592
-1.473392611059755
1.002773069091465
0.3095032090864536
1.5442928644639238
-0.040493596339857094
-2.8848308951947828
-3.454067266230356
-0.5275566070151686
1.7164857915968588
3.1131473253054227
2.168462097889295
0.8207849640216155
1.6074907347498917
-0.9678761747203753
-1.595652903770812
-1.2257422373133153
-0.36625312780199276
-0.9180563479728358
-0.19246646387677632
-0.6724648858804562
-2.4725189794363973
-1.5919108592737077
0.2125573646018606
0.01854624557783166
1.2899571440203415
2.131674468189749
-0.2471038339422842
-1.2025674422353785
0.538404882501322
0.8689345065000419
-0.0796854106821446
1.62634937705124
-0.8521017400859133
0.491757550871092
1.3701618240356959
0.47221177281644905
-2.4646734288610355
-0.848930496443217
0.8095034352116979
2.034520215809503
2.9350936796651768
1.2797232123168065
1.9402830312678745
-1.4638311957759917
-2.2621524389877004
1.09384022681153
-0.42293743425149904
0.405567895596085
1.489828784017254
1.9170785184770527
0.9516810965334733
-0.8935778122669735
0.3665843866214451
-0.029581717324467235
-0.5312074668039066
1.2729829151199972
-0.6636860366093432
-0.7663946193288661
-1.2652663980751433
-1.2292043308461518
-1.7424405308307078
1.165710781416805
-1.5952993821797448
-0.39805554821200484
-2.1426201388878705
-0.1148073634827062
1.557971492011131
-0.8565805545169631
-2.1669359300162245
-0.1197560714764506
0.2353233194050138
1.0833776196775422
-0.9442696924860393
1.3569165652676556
-0.8511612970233516
-1.1252739043585922
-0.9258289155954421
-0.3317678328094143
-0.5985144620549371
-1.1931080415571016
2.2164834838589496
-0.31096592456376265
-1.426353553772297
-0.2269906866521498
0.7110193858925641
-0.530625246654561
0.6652370141801948
1.5208783637800596
-0.9377123995326926
-1.4134385694200453
-0.24201412117487764
-0.6201811614055176
-0.10109343061037404
0.013505669567478737
0.22430843123236793
-1.920275755062388
1.6205554520172478
0.437016523542394
0.564254987641133
-0.33029210311826596
0.7299283294804032
0.013522222158828348
-0.5444051715281122
0.9133879894728624
-0.3368742541735585
1.1989550854092925
0.8950620631594813
0.24354683188646753
0.2822299106466359
-2.165672503882345
-0.0559379176271276
-1.611640119979486
-0.2292650158311969
-1.2590138745880268
-1.716566644393099
-0.4858178725071453
-1.5093204796879482
-0.31582801501057545
-1.3729633967148984
0.41257387064187107
1.145675918722547
0.7236595053215046
-1.0752517102913233
-0.8919663300174235
-0.9227190725810949
-1.5957471321438224
-0.20785813120289887
-1.5699417827650188
0.09119929597635415
-1.3834577611948358
-0.09707782393715811
0.3121357375890177
-1.1419788377631903
0.7833734557217688
-1.3631912808862257
0.09056443924265875
-1.3168514920097176
-1.0812635397718848
0.466754038541765
0.6297417259745167
-0.3340991860819257
-1.1412284916539426
-0.2034387250394634
-1.5367671813767292
-0.3736462380995255
1.3408528486306774
-0.6598733582166159
-1.0150472164384823
0.4452748470069043
0.3562563163463872
0.7753100487852144
-2.738684522710974
1.0089510939177475
-0.862049886458571
0.5990733672619277
-2.108986524216756
-0.291798523419591
0.20245804672204082
0.35520462562664795
-0.45948559171735337
-0.47036033854063763
0.7958058194664814
-1.2217598586969494
1.5407712239033085
-1.511267188971721
-0.2740246067398677
-0.3725884749968307
1.2249428439074774
-1.370598366599835
0.33233402693477065
-0.6164107445810658
0.7324771802121983
0.8645825446212546
-0.6333615897977973
-1.2269114830896126
0.24423595763047376
0.4017164826328419
0.40062369553230165
0.701083997963936
0.24086367280989282
-1.4899016439711161
0.3320927958328842
-0.7026108586002348
0.6274589119662334
0.3740925104390039
0.7261466119736525
-0.9793137054916102
2.209208415188387
-2.029156343531719
0.9269014433437706
-0.17466999132094188
0.13005077580193286
-0.06772239329975817
1.809561218363948
2.175713985896212
1.0899044592217217
0.5404589203062949
-0.5427265494483916
-1.8116639450083387
-0.0839591896349255
-1.5589480779682257
0.4505715854148453
1.0445091690563282
-3.038665279073535
-0.44412233524066036
2.0146979439772834
-0.15766549833493748
-1.4783162524191473
-0.1256732740446612
1.9240744430373398
-0.7457053738678739
-0.13430770414909582
1.133207371280239
-1.8927019776568101
0.10517644807997213
-0.5980573618581219
0.7717552434677839
-0.2943463399474698
-0.09169052934774888
0.5531224159326235
0.656324639945897
0.02501600402839669
-1.1274574449494754
-1.0278796420897744
1.6142659423384047
1.4213633445491252
-1.1403779751493552
0.2946293098941116
0.401267133636548
-0.567181361594564
1.305018942863515
-0.5060477603796741
-2.2575231873794914
0.899425981349413
-1.2331429389393247
-0.13084863712304726
0.18808884269033382
-1.67921435299888
0.548828759813956
0.5084071020284202
0.46662693544566924
-0.8466399855232748
-2.6098366929555477
-0.35998668696246006
1.045982143899465
0.9828135221209034
0.5161974983160882
-1.3745166163335452
-0.9165631749289752
0.4710294301546596
-0.5827979075849833
0.3981685165284599
-0.28132759376446054
0.6897855238001094
0.6159146559244143
-0.8398482057664707
-0.7643551372260592
0.049068928773151936
-2.240970488589391
0.601731536529786
0.9116611818100746
1.1628154655859582
0.6161170853170739
-0.05247122871953904
-0.5357821895550648
-0.6632288841906976
1.8260154304706304
-1.6446532800582017
-0.1908627537944105
-0.5618524192096565
0.08323847665799541
-0.3581318114607004
0.3720460209387545
-1.6514007304788176
-0.9469634194059464
-0.9834498553882361
-0.08533239778608176
0.7352574500229689
-0.48118630312378535
-0.4403293503395008
1.0792599045126086
0.38966666815758527
1.390135299663093
0.9175004122470803
-0.07641829573056781
-0.4134492644322382
1.4136832731087134
0.50761593171392
1.2091053783392247
-0.405637612021827
-0.582687945133851
-0.017104583590231027
0.3259591898030623
-1.6481266134530947
-0.8670807768268164
0.7758449072007332
-1.2835299774804936
-1.5271331085508308
-1.2808959180572685
-0.8184301295237663
-0.5365516521433987
0.1157096911013738
-1.4496479794532002
0.902323819118869
-0.5186836772412219
1.6100613336941532
-1.7518299417045862
0.6889724190951524
-0.27625534523938045
0.6559524836633079
-0.23307363786845986
-0.4472566260021321
-0.954728216777131
-0.002609685893024396
-0.7731700364281548
0.5055153620767888
-0.24554421352026046
0.36846748077602
0.8811310347830585
0.6339274320844492
0.07796518752241306
0.8581845480263002
-1.4607130336183143
-0.5217257145473628
0.09190944522794374
0.08328596168993908
0.34041074277675015
-1.324651933679266
0.18560401006015517
0.10016939699323589
-0.34745056049957596
0.6286197180340887
0.06705054711830179
0.30477674679984773
0.7167950284492404
-0.2307519399995824
0.8006567763657841
-0.580799226908491
-1.8104502001967977
0.2416044796700826
-1.4293632945381163
-2.4907729839871684
-1.506294773378139
0.4073466122177141
1.0829793703375983
-0.607659338839976
1.3821606270687148
0.08998102642491686
-0.3659492822649029
-0.2599831419764987
-0.30282096695453586
0.026090529216025254
0.003233712268295617
-1.0208901021193826
1.4685509231331917
-0.12129596780420841
-2.1421747093766346
-0.5681137821291555
-0.6997425099507615
0.1364797289623791
-1.9468130576436633
0.006566924728086901
-0.6111827895421567
2.951109408586396
-0.38090155489928607
-0.7260299729371036
2.0669639786401794
-0.43338892691215386
-0.17052760691619603
0.32534285528231693
3.9645633076997977
1.4756114622118695
1.7380386986513785
1.8212870972095436
-0.08884993874505244
2.2393474698461002
0.18593450239260834
-0.9756636235335298
0.15965046885311943
-0.9478918323970951
1.5734885639609957
1.5383121279761658
1.254520432220465
1.088021171920906
2.0186253709941666
1.516176899680015
2.1286428057594136
3.139160378289209
0.29889208726627325
-0.25037213067993624
0.007505496057065085
-0.7772552901334605
-0.05016467962739597
2.312574391099212
0.25775955332456846
1.3043284118709886
2.7615703237882157
2.4817134030128396
0.029368276312743306
0.6872716421900809
-0.29726702699028995
2.0656499061429034
-1.829014854591596
1.7871984456680121
0.28503396921970897
0.9349756460341699
-0.9842039116058745
-0.811751247407787
0.5953092879059787
2.1125271459120785
-1.4287375165569498
-0.17437308396423432
-1.2605256471781738
-2.4767237744230486
-3.1701587133334876
-0.04292891107473037
1.5208402121794278
0.24398016061437836
-0.42907953290067496
-1.4297814402755216
0.3465735738371553
-0.388836030950438
0.664311673586182
0.07945985369683063
-0.006512425130531535
-0.5252119320346642
-1.6740377447479695
-2.494557701331225
-3.9453204604271987
-2.235294153995795
-2.3817921038723875
-0.7159687883567779
-1.7052323495576596
0.28466433883109843
-0.5785773256441539
-1.2979326921168162
-0.22871845298825816
2.101196935926921
0.44555808850732487
0.3543356703927137
1.5717486204249342
0.3566401701020241
-0.6759753676103084
-2.4356597951668375
-0.41317521086621045
-2.4975730383885
-0.020893936035573876
-1.6129543972622424
-2.6052287863785955
-0.2116254563077704
-0.5165379545956114
1.1227094881361952
1.3122105917357418
-0.7636407625258352
0.8846274253700965
-0.8676313881253577
-0.7311753644338805
-0.1601637666349481
1.6317823395529651
-2.942865353090225
-0.3799137550842479
-1.9220694690271185
-1.8643746027270514
-0.817474469928324
-1.3878931092987896
-0.6997465177932851
-0.5742375395035755
1.2231839997653908
-1.863962651142802
0.974518164689991
0.7612735533819095
1.9821671608047444
3.3697096673612967
1.0016217505172575
2.164204296432042
2.1569445610738476
0.23898380059584876
1.98633576511541
1.9669436170749266
-1.3363316049051754
0.8051873919245315
1.6371118297820708
-1.8356625241540747
-0.06083272652386133
-0.07426550593546043
-0.40022164532949994
0.1762521135210178
0.21908519212105348
1.1118648937555
1.6565240992815407
2.3733078935909817
1.0852498641573818
1.646101159667432
-0.23489978558493022
0.2795374211097501
1.667137047279131
0.13561630017445495
-2.4610187144822997
-1.43575495677097
1.3073724742372776
0.6094058097584005
0.3225366684496743
1.3348687639587342
-0.49580314934307423
-0.365147001649892
-0.15130911616325865
-0.5951633003609286
0.22978205893855289
0.43486051771590695
1.435927656087103
-0.25249045927479147
1.2437487470478887
0.44800850892548966
-1.6997425778910287
-1.4472345234880202
1.0410885113028236
1.9855068483839846
0.49259792413324566
-1.0038787276126169
-0.027962892077168795
1.3172574111237985
-0.2545643755007535
0.0892749298796883
0.14037643728196014
0.998190326810034
0.17752871100827733
-0.7429654665599207
-0.1736784986602104
-1.4576217910402411
-1.6396625136833796
-0.6001640371569789
0.7790778781148046
2.4103052487846934
-1.6600643944700362
0.3493748280113972
0.8431464061140265
-1.7533847902630844
1.1801855475423715
-1.7269190424536895
-0.272414414508565
-0.989708992198064
0.6734552466253368
0.23935293404321986
-1.1533234547063242
0.4545072821865448
0.30406575555022386
-0.6722996017201752
-0.968726662433552
-0.5377128581336328
0.6517740644251827
1.0485968797711198
0.8081656392579873
-0.7123059003199372
-0.023521531144535097
0.6591847190001933
-1.1755481476486922
-0.16968923036842648
0.8363582877971109
1.5134128626132568
0.8537204891580362
-0.07288037774252146
-1.7151357473612607
1.0753632935494808
-2.1338753639356463
-0.9122719837483949
-0.9558118823946259
-0.23997720899061786
0.0381862488590261
-0.5577704637707392
-1.65970095247374
0.49749173839063204
-2.3939422374094574
-0.5587768838807949
1.997590446024944
-0.9470826780406935
2.1395442951426404
-0.8036822051510188
0.28210689628520264
0.3577551480054307
0.7933999648800202
0.9219473449457855
-0.7298333111906362
0.5697257789824716
-1.5459733879286688
0.30898014982810873
-1.3999398053374394
0.44614847979358585
0.6287064090732082
-1.0639209617507432
-0.4182877002617621
-0.7663728594586957
1.5861675762426202
-0.15867779078352712
2.1352342343410387
-1.0733278677824263
-0.5628322012919017
-1.5178375172806584
3.7389615307142923
0.8082608787778407
-1.2252566676381529
-0.544430825770022
-1.1038069100687398
1.2301665056096291
-0.5038456381315471
-0.05095330154638869
-0.8357120273807127
1.3778554700733527
-1.348637506525894
-1.4824397379985599
-2.004592649069585
-3.1783222991489355
-2.128450933234352
0.5481576356752667
0.3576099295144974
0.8712813218527281
0.04912275811107752
1.0838943545687116
1.0953125141542601
-0.4977675364092079
2.0975009996241805
0.2715863716055501
0.5164311102572798
1.9015029268830153
0.27064590001234445
-0.7893800120224272
-0.9296721277454079
3.463868587995436
1.478790916257241
1.373737374735022
2.332593148791872
-0.393539938161161
-0.6359004887456693
0.4534371282622038
1.895488607030342
-1.0838657811511287
0.6049915782620893
0.12725482493415896
0.9543923651316385
0.8037693250320387
0.2750423600191489
-0.4667340081927848
3.8712397768538924
1.9489034020619638
-0.32947736012271006
0.18698559542153018
0.041623271053047924
0.7865805134976337
-1.4352918489035045
0.09438807704526717
-0.1455664026326116
-0.3128832760580662
-1.3492906144701717
-1.8085604771587895
-1.0247077841827377
-0.7577627892207027
1.4337969283976961
1.7147643241126471
-1.0266421272142927
-1.8977793293559484
-0.8358561695456559
0.8170709033824521
1.5528425385682565
0.8823344077647218
0.8454109166999276
0.8388488444144641
0.4641812098184013
1.056478743599104
0.2634171905457655
0.11989481062178875
1.244332622985705
-1.7936073466759992
-2.242784804149113
-0.9204053692238119
-2.357562396404977
-0.7646455195244706
0.13173253650509908
-0.3094192359309982
0.7542400684930836
-0.8304745561571124
0.23551010619105195
-0.32982061397631945
-0.6856702137012328
1.6894420493234126
-1.0428688323934803
-0.6286730339084716
-1.83750214701643
-3.3377842013755963
-1.1864836668752772
-0.3011240339175643
-1.4768354501224124
-0.587833290041441
1.0684773477179144
-0.9038887904940253
0.6946657364083068
-1.2748447895777641
0.8131089869812768
0.13625792310549278
0.4558025060770894
1.0061703069340637
1.246850197112542
-1.0768334273262414
0.8055262266366117
0.9985416522108452
-0.6829011154939526
0.09061718693169889
0.6078955812892668
1.2836293317536012
-0.24438490936434576
-0.1668154617802044
-0.8595609764096158
-1.1438775130324332
-1.3808664378126112
-2.1060320696924135
1.6618620779433422
-0.20541391692809902
0.9375794588176185
0.34291600652854415
0.8013213145131057
-0.18335234718086693
-1.2160401835030434
-1.3196626684476778
-0.11734671775870689
-1.0482995195150515
0.7850252901282655
0.7776085767908021
0.3566770809965214
0.7932818117892457
0.44986895417144046
0.6666663369456227
4.611933939295209E-4
0.40467718936768216
-0.1302798188724705
1.694037261025263
0.21193471944793396
0.4928190299719091
0.3758177523726232
-0.7995510796053755
-2.362647873291725
-1.7425676728524842
-1.3172940906270165
1.5007880663072912
-0.1475697504407712
0.8454840593133209
0.033991756930732225
-0.5396794647910806
3.1753631404948814
0.3450281092383871
1.4121032655805572
0.5153186259027073
0.006909313742279678
-1.7616844536458434
-1.582068925007322
-0.6863241817456638
1.3014463907022762
-0.646585964143974
0.1772998842450043
-1.3262696391515263
-2.112784972948112
0.2414668193060477
0.7505098484564928
0.3983810499740014
-0.40744248306021613
-0.7793950052486779
0.6352605542028456
-0.7233718063830988
0.15599890917697157
1.662318439673738
-0.06839702612267423
0.6099761031510625
2.0106492094134047
-2.167311387280767
-1.3758436224777721
-1.233717733963332
0.8305838635489854
1.514691590514333
2.160116222667002
0.11068254661260367
-1.570185005796741
-0.2790588131936817
0.40055275660956124
1.9182356857809524
2.200613179437797
0.571098720703336
-0.8927279122729765
0.5440313892407498
-1.3656559632248526
-0.5258029842574224
-1.9940361030888238
0.9080677831764284
0.9104347046445798
1.1923814484163306
0.7139296571130174
-0.8059320900323681
-2.6538283734386274
0.3658207016173157
0.452365849814536
0.07340634799307176
0.2807909475399458
-1.8158190902699078
-0.4523692311763189
-0.7880639990413039
-0.027220633768187133
-0.41153400400345186
-1.9895535314012391
0.595962852187286
-1.6619467054395665
2.162199944507267
-2.335892933337977
0.38879119645664784
1.1690755394418966
-1.714467103466683
1.4145624070246798
-0.6661221442550348
1.747516658991819
-1.3340401088084564
-1.0104637106553418
0.7195778086743596
0.5783733655723675
1.5178678089703663
-1.1141811068141756
-1.32695770558016
0.20707466132566993
0.3472930299624472
0.02188009346874759
2.712088266392342
0.3477968272638608
0.07264284785706047
0.2522567084065824
0.019569108069194735
1.0696870006511001
2.7108313612384887
-0.1424580410008589
0.9372318189759908
0.7089243489365459
2.8747517299484846
0.5185941547737005
1.3687839928632006
-1.6718639936353585
-1.4788381514596325
1.1819184116726251
1.6386587857320845
1.2702576883045638
-1.4630666546339783
-0.29439200505810703
0.3200177879363708
-0.1918850051064887
-1.004742719149443
-0.8007373299509587
-0.48488530805977875
-1.034584366995241
1.4148377701541002
0.37094998880708874
-0.18692875651117033
0.9838117909102589
0.3341264512942576
-0.6299737667235163
0.31677445089383294
-1.820533221977204
1.0412438130855484
-0.9557776971924339
1.2373270524480868
-0.359769619277328
-0.3503680719831361
1.7356749094016766
-0.16720441349008514
-1.091552929070382
0.8606537821689866
1.9567407436974567
-0.6104891379014246
1.6020792982710146
0.784720850889512
-0.26158947832827895
-1.8127651297077199
0.5094981950345148
0.5285098678215787
-0.7522999423230337
0.09435386155391395
-0.9078935770504021
0.1732143900144868
2.161942064572101
0.9001460787322442
0.8956980367045086
0.5642422339910689
1.2311157607498058
-1.3836064047921668
-0.21179011102003462
-0.6452672769181038
-0.34842104059117307
-1.0882035716348102
-0.43264634820472436
-0.29648967052952846
-0.9798266859239486
-0.5307046116801577
-1.5974042941774427
0.29585092521405465
-2.0094896787759753
-1.862375819969839
1.0742383850267947
1.2344063377291055
-0.4048673760361092
0.4700575320334566
1.4341358578204426
1.6026321107572719
0.3016596568749611
2.04780066030202
-0.640258177350798
1.8885644698328745
-1.254847925229353
-0.497745924589856
-0.24742281239775368
1.4076464330254557
1.1541716381854004
-0.24455687249383715
-0.7920616293484837
-1.3923570558464933
0.951326339076964
-0.7199351097673725
-0.5772219078715144
-0.22437607714924382
-1.3035010125855635
-1.0418277100257414
0.06841988332620771
-0.8721502101547101
-0.29531638889798084
-0.9034129983836156
0.961844198437996
-1.7745329169945392
-0.8503020983538631
-1.342084414869485
0.8939542845180575
-1.186686232582662
0.7067356056373474
-1.0655260595478862
-1.4043434246523745
-0.36660318000123865
-1.711620659101042
0.12982144751092703
-0.20019019013302317
1.193718452488463
-0.5496421135295344
1.045036203908069
1.0372862423593339
1.5948152459755265
1.1461804572206054
-0.7225657000370047
-2.3207573972974416
-1.798025416380117
0.5901454123516432
0.524860474307179
0.9851358343779058
1.220564186758522
-0.2618111946438699
0.7224086462944272
-0.07871910017304178
-0.7586851646671083
1.4011500897340965
2.088715640296934
-0.44965822506267816
2.4869828040867543
0.29091697179869963
-2.859056586327751
1.4951111298027318
0.0013606157723272752
0.360254526465998
-0.11765405149581408
-0.9424911002183467
-0.8364037532745341
1.2453955003959445
-0.9120254185991066
0.09651807948012399
0.6990484573730573
0.13082800289330687
-0.008614495381532286
0.6089002841181412
-1.9454094227666872
1.7244804673005347
0.884399126121595
-0.04948869645548921
-0.10689957745977602
-1.7719682085771562
-0.778905366081603
-0.1860977049560045
-1.0117697062993236
-0.7758279525146343
-0.021730112419117313
-0.5603138200482399
1.5206581201031428
0.5968447592212434
-0.11204017728593164
0.07188246266114788
0.09789506312700888
-0.11400625135682005
-0.003791059628153881
-1.0928081255692945
1.0551049010732643
-1.3724590987250713
-0.6879789823637583
-0.12876015257566584
0.8672951129632773
0.2649537106160678
0.5005666855990114
-0.24783648957331134
2.0713691568924246
-2.2267135149758954
-0.5674785743798968
0.9802640470120743
-1.7830374988987923
-1.3194644791376504
-0.7293132701986673
-0.3614760476288949
-0.9533575184501346
1.9017593478076202
-0.5309582766794652
-0.6289831267672631
0.7048804457863336
0.905151096228765
-0.07562940229556346
0.4573266682586823
0.23494373186764592
-0.2758405952868779
-1.1417764585976402
1.823660354851769
0.7709725232101973
-0.789603515079792
0.30805137684189277
-0.30624347511493466
0.8298955493329021
0.05254592623935561
-0.08549821568899377
-1.1686171120977205
1.4668677731176631
0.9261734533995453
0.11690404309987364
0.31068991750622893
0.9614664310209186
-0.4975470467908345
-0.020809114926495214
0.7199699500745161
0.47450095466239356
-0.6329901078095375
1.5083819938996754
-1.331754752284796
-0.23083275496953745
-0.6411718102774718
0.48212361269689746
0.8302400063170782
2.1956519214739267
0.13678341583361564
0.859874342680816
0.18539265330354518
0.1084457085138384
2.2332954607958015
-0.15558081256652842
-0.6852242930239724
0.1867120018063221
-1.7686284090454176
0.14557167149009573
0.4415667051970267
0.49575698416785424
-0.4305082194564341
2.0658504473340953
-0.7834563833332177
-0.09214715600790603
0.1735695898121298
0.6994173427202927
0.9390016825092574
2.0270386866444294
-1.6569280039763299
-0.6182030077416635
-1.08946329227635
-2.641992405328323
-0.6828022591575997
-1.3790240858609377
0.5532114701967746
1.5179185114057283
-1.4303216048429366
-0.3870260832617218
-1.3017231858821674
0.5377556739565138
-0.22232807230302054
0.4791123007145106
1.9549280296412084
-0.11528483235348544
1.34553715099003
0.0669981308933616
-1.191624930746554
-1.8641020631267664
0.4785919200193226
-0.16367018700728922
-0.23168340363022946
-0.392783495332675
0.5740356195193195
1.6945187073211305
-0.08696975868538541
-0.17533034781846332
0.8358432161180467
0.7078907763721242
0.1463792167525462
0.6637406424198214
-1.0647064528871746
1.8626719657171416
1.19124552941991
-0.3283373903330779
-1.1258810800226446
0.2488622679199533
-0.0600336002039743
0.8623910676077805
1.0582458511066646
-0.5873738915635335
0.8892995322833112
-1.5373812944270084
-1.8926592490655767
-0.3188886794786067
-1.3705662546353232
1.7555509372111975
0.8723425004480846
-1.2519315602067635
-0.04203251616415207
-0.027754216381453155
0.512009268746873
0.2987867994051361
1.7660375247957318
1.3893219719355907
1.2263935151514724
0.34133646573984544
0.9600754866626178
-0.9598415356177107
-1.9989593489886068
0.6739209920160538
1.9601585657514597
-0.5438345349084532
-0.09997559173424049
0.17685493357408352
-0.6347816648204073
0.05692065205438342
-1.0386482845214458
-1.3416943110499375
-2.4551636954809117
-0.9655326257846454
-0.5055815138051492
0.8468385732455553
-1.5070281400534373
0.29612346331288225
0.44548142509139216
0.18388791232062016
0.48452721954716793
-0.10365129917892647
0.9654821075034777
-0.6067578482441459
-0.9993104275631893
-0.9149618466866957
-0.4089023341680402
-0.9723671709594582
2.432051007452842
0.679829463892646
0.002002512271674668
-1.536347204574351
-0.5692312543801928
1.2185619967972643
-0.5686466146482265
0.21325346170404538
-0.4172415253441208
0.01566146817060911
0.09851501238768452
-0.15876421422006148
0.6730440389179807
0.6798657421766126
-1.1809610769542924
-1.0053002106240359
-2.0499172399036794
-0.37472324270376445
-0.2537564974085678
-0.16746750840726257
2.254986127079835
-1.2745849211964086
1.3861472294048225
0.09971651158127097
-1.4522537059375358
-0.39337150177323676
-0.5780930961182226
-0.10443254486282293
0.6193778997404782
2.4058761483402873
0.2690163080743195
-0.6187871447638686
0.8195891684889549
0.6998750022402549
-1.2969101818606108
0.1978578571518127
-1.4492603610919668
-0.157803322284297
-2.4561545170622407
-0.802844603689998
0.02659693501203911
0.9430906773806723
1.136087752757476
-1.1716412370724643
0.3274973249123878
0.2345807604487454
-0.11840858202495155
0.9866136224288679
1.1847650814269093
-0.06988821839360917
-0.27273322070313477
0.02312903257700071
-1.1420166094621256
0.24028907098383218
-2.677629255266937
-2.28334745383307
-0.6598723087735905
-0.14677423425457972
-1.3796603311901152
-1.0235842624997822
-0.9714337617780618
0.9731854956956886
1.7859958799391673
-0.13238766704530813
-1.4306817917170294
0.0029340720686497636
0.28548392731189004
-0.42295526341858974
-0.9758362725861295
1.0630536733646165
-1.174066197752011
-0.21568738894577583
-0.8195893618151049
-0.1560034149705815
-1.933066284098017
0.3481212881871557
-1.401173386098174
-0.27819610334457284
-0.5832912580301035
0.27687763876020316
-1.3506958591939442
-0.5833861973839906
-0.4279178192702252
0.1063544043253185
-0.8030893944832312
0.10500252787164924
0.8538756811104476
-0.24289166180509217
0.10198633210729831
2.213145585610405
-0.34737177790492985
-1.365861313987457
-1.2591752758065415
-0.17332554764428332
0.5268249719321784
1.1988940135800743
0.08587742293466398
0.38969732150722197
0.08936804513319073
-3.1227408316273237
-0.15685261219784877
0.5190386777743142
-2.465877446380894
-0.09626200284964609
0.2963241913967114
0.8438386290569717
-0.5890674262866105
-1.871801189108861
0.10340826923275835
-0.4413051791611719
-0.14228069719652764
0.6168874288325265
-0.2689313454321857
0.45276865025182506
0.628254559087534
-1.163676728176842
1.143131835468823
-0.2529147850925038
-0.47532155036411294
-0.7159088977292519
-0.871609785494458
2.1031660569991817
1.4177796335670299
0.27060878564294005
1.2100479677017615
-1.2374196859262778
0.019861461456473887
0.3949020273930282
-2.1973592837750804
2.180930578840184
-0.4942354421722544
0.39946497642128703
-0.3342115497854296
-0.36199528235221295
0.15118381110387633
0.671879111164143
0.8565372793174447
1.0102085044306073
-1.543539250560477
0.8485643625663131
1.144532342117672
0.389649601354049
1.4549210979162952
-0.21226849400632572
-1.1772119812039974
0.7906447748478325
0.2573359219296721
0.09065741450007928
-0.28953360807195244
0.5783484360709402
0.3446852968942604
0.07462768427298577
-0.49534748230050374
0.37975861331517524
1.0623222161836374
1.058828589193104
0.0558863123257097
-0.4204143985634632
2.566207657202382
1.3038118539694583
-1.1419414939894252
-0.7300119379413003
-0.639342128478108
-0.6900208023111524
-0.04043301100372246
1.409546468257297
1.0567685027363327
0.13205714206160363
0.28882965313077186
0.060736056532853105
-0.5518186205616853
-1.3757005707524366
0.1494354405178339
1.054030094709462
-0.2744019041899184
-0.3858395652503757
-1.1359118457778132
-0.6779911548465586
-1.8725108093279643
-1.3273123624776684
0.7991511281708863
0.89554514750265
-0.4599934665246143
-0.7889864305353989
-0.687207296108935
2.047356882236606
-0.23232800217269658
1.1284518819116989
-1.114786445784876
0.9479990634242982
0.8375347377557673
1.7465953029915078
-0.9645090181060388
-0.9635893343631923
-2.4434889255230026
0.6900220869196839
0.6800897243074944
-0.7783874000509278
-2.199631493852821
-0.22777390123278188
-0.8306721164578384
-1.1408883517581931
-1.4213030831323785
0.21010882593183144
1.6345128389166572
-0.6686756795812531
-1.371209816302291
-1.0770037031856008
0.9366914321207835
1.0507305179754867
-1.3565344633599083
-1.4458346107345612
-0.8651510502329561
-1.2599889385827059
-1.6414858517443154
0.0933730662866563
-0.4674549451393522
0.27651696534429604
-0.5836674862553796
0.4953094009769369
-0.8703955934454747
-0.013224790765867972
1.2747571403124762
-0.7856558054792574
0.7368992475719709
-0.20861045805146464
-0.435353253925001
0.22561103588931114
-2.3578512119970476
-0.7161894479469328
-1.539581775598963
-0.3144710495071032
-2.503386999159934
0.10038780933954566
0.4223388722980325
-1.1646725656648143
-0.24309055126877074
0.4220857557693333
-1.0645730649694978
-0.621369949945957
-1.8130704153959392
0.9326413236736866
0.6330055635779527
-0.43993150678792103
0.6311888583360085
-0.4089529723475173
0.1340264657021119
0.28039802194435925
0.31580383648742766
-0.9454101639697267
-0.9661773240810444
-0.2439932246005951
1.0976221508253725
0.3312894938311815
-0.3664100424436146
-0.7764058376930835
-2.488240350009944
-0.2627386291606435
1.490731789731734
-0.2751758549257109
0.5646009930338821
1.568898675157513
0.27757118605646663
0.3155548646372395
-0.6055347222650038
0.006519800329466698
-0.37970722611168906
0.6773322022206143
0.4987148521362234
-0.4713875994099437
-2.0894594282599233
0.34725236323533754
-0.675486862319766
-0.7970597719956931
-0.8785486196948088
-0.3377983196287883
-0.5712716437401386
0.16508947873291976
0.7194636203521396
0.6156409984805016
-0.406867433503229
0.4857755753061921
1.3605920581926654
0.5348826327116304
-0.36342878622387387
-1.144042079228897
0.8115633790586196
-0.5421761118117397
-0.15121385245854949
-0.19177633074422507
-1.660791718028333
0.0857146784311886
0.6667555196789976
0.59722025097865
1.2260228624079759
0.006903766388277435
-1.211868120933607
-0.5712096582083488
0.7087159099243615
0.3597316199965026
-0.7138422267476169
-0.24573573058445025
-0.1781253559324524
-1.3586980720999
-0.2612689665647115
-1.4302826612322463
1.0251870575299233
-0.6556565394282268
0.7627662734855797
-1.9653311961281585
-0.3941079716402758
1.0616992033981483
-0.8816260105933535
-0.8168382129279772
1.0698453801467869
0.09398850368017703
1.317362636237827
0.23841677672064493
0.2658997634583634
0.5813734392875163
1.5510803268090883
-0.5140026490010238
0.7316034069202101
-0.5902136333415834
1.458391162816256
-0.4691572275155949
-1.3380575642513228
-0.4614395973454236
0.07558479859132622
-0.15333830549240313
0.048608813740313776
-0.6309098127665241
0.6166547992229042
-1.046143979519548
0.47853572456962895
2.49425151112252
-1.2835406268977432
0.25589326016982733
-0.5328958673624683
0.547909771387449
-1.8044150373384766
-1.7581484019238216
-0.8680389815500982
-0.6271438714855158
-0.238330221957571
-0.4019639740383548
-1.567850988385406
0.031418962075109254
-0.12916993737107055
-0.18405893139228882
1.1931909067252753
-1.2847990345840303
0.15391444094741216
0.6099100835642126
-0.20698436753272284
-0.018379999084781714
1.7202930689168876
-0.8086842582389724
0.7177437040365551
-0.0017945407180599544
0.5377741256293624
-0.7889149191101935
1.4075575714319357
3.1886301223826896
2.4624737434588275
3.4554740135277973
1.345988501218749
1.1036365074048122
-0.705098711800016
1.5927651734558412
0.7979922634225236
0.43332599724081144
-0.09301798567245359
0.09081397658810816
-1.0764737244976599
-0.4601333120224777
-3.400875461194396
-0.3879675823530158
-1.4196021340056943
-0.8367589246816988
2.9309639073559812
-1.4512013602376186
-3.076782617191277
0.8125408602890042
1.4444759338396907E-5
-0.9924001056914806
-0.24257662390445286
0.8220177093026615
-0.3369421045172668
0.572609960284418
-0.9507376923439476
1.0375764283993365
-0.898879669811579
-0.556662212868111
-2.3956911346053493
-1.7092960405432356
-0.7457622945694451
2.348493107414021
1.7302125753319462
1.696246902160672
0.3641686511285206
1.3509010908866004
0.761497585591276
0.35242787944064885
0.4787294237463706
0.7508948276023362
1.0992629572303354
1.6609556488679689
-0.819229415353319
-0.27354886998421724
-1.9547339308604756
-1.9544794816727205
0.0158887875370876
0.06382861332239309
-0.4688427159779735
0.1909721399515014
0.7748090683098268
-0.40567142291343966
-0.16388156730004858
2.1997991705906137
0.687605945685542
1.5083196778709895
4.185635453179281
3.007590265861731
0.5371380311409417
-1.2653572549793424
-1.2973721185743876
-0.23925274428479043
0.9279422445897398
0.80058780484292
0.4832888743614734
2.042102392113424
-0.33899146600379326
0.1926434859813362
0.45510242592283834
-0.888678076848051
-0.3630567153261629
0.8843306734997165
1.0669327151266084
-1.8400136494480681
-0.2226508516426612
1.861166332646305
-1.5639266299424714
0.7832091749448461
0.658599928277042
0.01464491439623913
-0.9239765523444274
-0.7066240849551568
-1.3641892439682295
-1.6883647262639354
0.8230407342792179
-2.3901643516090565
-0.1670425310534565
-1.5425141264930156
-0.8903218466828526
-0.34983351192444856
-1.8149978812783412
1.2850067576379158
1.2799762676522712
0.9348492633834244
0.9214837095012134
0.7395542003878208
-0.2607490647791705
0.16690951812358426
-1.8266392658650605
-1.4407288782603453
-0.709837510968158
-1.412198551570464
-0.7675658142278597
0.396822852815993
1.459919547051554
1.5000727725331624
-1.560927461901564
0.062225506046471396
-1.0217599415921605
-0.0037967786638384597
-0.2669701888782058
-0.39274448491323444
0.12597249603255745
-1.8727643100343
-1.1077832780615535
-0.41346804928240943
1.8975483120234635
3.891914208366825
0.6465825136602086
0.8800331139337103
0.7489869806257585
-0.5232293092734723
-0.7833656071409446
0.770316647180443
0.7238981204840365
0.4598660276867461
0.4433343384647984
0.8443936465844778
-2.8449548509689824
-0.2381380071700072
-1.062861857681584
-2.7165240944641353
0.35167281391390004
-1.517552963169491
-2.058617935434125
-0.826178448310635
1.5071760759709243
0.6617894816188944
-0.19827719492208748
-0.8119090268277067
-1.2809916480722259
-3.1896671932289116
-0.6893708058029365
1.694196938903461
-0.13450310134139787
-0.8498029161435877
-0.25938169370770026
0.30053773956320673
3.0738670999573676
0.14090720853642286
2.4218640672378826
-0.3967051009145417
-0.6988130192535464
2.842160033518884
1.7616475185181906
1.4547812665094515
-1.6965035495090972
-0.8462668816968799
-0.9244367340619505
1.654292024105848
0.8043550062726313
0.15892292295773056
1.2538561374973425
-0.49069287806708545
-0.4500947006628791
-0.3998053131111485
0.8805082772288314
-0.3238790217261299
-0.21766992859248754
0.9631761067813815
0.16820296234081925
0.427519586038906
-0.4896941141928077
-0.39554184719503865
1.5316606534030783
-0.13019775866916666
1.2947866763923823
0.3442445997586974
0.31072360368810076
0.11594690653935763
1.3085935306391674
1.772694404721602
-0.1245518755767392
0.35741335598363916
0.41150199740818266
-0.4206710583066177
0.5202124077381052
-1.5485675493632054
-0.4165898819958828
-0.5584218617232752
-0.11827106150753021
2.5729899292157583
1.5421680604644479
0.361328081643239
1.0027689862965061
-0.6388478668937381
-0.11009941179925546
0.033322644113362984
-2.3001968941513735
0.3223507599032092
0.40750607016339196
-0.3423096599588646
-1.2958000722139449
-0.9918505166335422
-1.2152707205210542
-1.4883653718946221
-1.1561372425660073
-1.069442134057707
-1.484777981775832
-0.9884515006700642
-0.6087461026977646
-1.5153326894388146
0.7044867757188176
0.04773922802364883
0.4447607347225042
-0.5935140548567723
-1.0682039332335131
-0.5201996593254112
-0.7721643696227725
0.5430955408211221
-1.9497852370418085
0.3165322127201811
-0.6368699127469061
-0.9660870445930977
-0.6338816712798844
-1.052605714690582
1.1759394846400588
1.9533880167299218
-0.3627076577209025
-0.3360116205495651
1.096397316133177
0.33215547427134445
1.379770043023751
-1.687441109196234
0.02443664615308581
0.6338912562270616
-0.04649047380212752
1.0177963832238195
-0.18242741663368467
-1.36412917824459
-0.479780520824708
-1.001810543676833
2.171517521260359
-0.23650103447013726
0.2566381859537845
-0.3618253828499675
-0.05785343924044612
0.7859702790659822
-0.651877643188823
-1.593381571310957
-1.4441930976497221
-0.14395349808951785
-1.1578910931944857
-0.5469836129719093
-1.903345667415792
0.7693176228185978
1.3418596047118676
0.11917892045177635
1.5604560056068468
-0.8616868884161478
1.0908743249871526
0.5821853155363554
1.2751497236880827
-0.9403709230594756
-1.8947055090508351
-0.5140864265850907
0.6476045903489281
-0.08696638850070741
0.264658283785123
-0.2053908898183515
1.0793114032166649
1.2257548670383744
-0.9702261475296561
0.09407054660149708
-1.678510537621671
-0.8180037319027051
0.02605911951935875
-1.8168066245604768
-0.5162673579221054
0.14499776158490926
-0.5448657342480678
1.1755884144324267
1.549318329318774
0.7803208375235104
1.0473078541695537
0.6576540443881016
0.4713097553110513
0.24132599056712423
-0.36051899976966784
-0.30552319582861687
-0.33154070950739695
3.2133228179342486
-0.11520061413599998
1.4354313894259534
0.5975588038102462
1.5068254993228294
0.24789575980254
-1.1246298125344494
-1.8470978502042152
-1.4663343995165343
0.31846772637806836
-0.10438216910499604
0.9781313857964999
2.5414663066106633
1.2540574134774114
-1.339867690284
0.5410233910138484
-0.8825504258500848
0.9198126198540283
-1.2721479035105308
-1.9017327209497783
-2.4691511359776115
-0.3547134683255926
0.2703047620521635
-0.8741306399688075
-1.2567399753161033
-0.2596362547294366
-1.3552227193505877
0.09977612544038814
-0.5225136234064351
-0.13192909752488552
1.9583607077327327
-1.9686647728853925
0.7573803994110663
0.18860881293772427
-0.9668279714657354
-1.7346043558190414
0.8238263773883413
-1.1680013514059424
0.7116379573432413
-0.3202715348128921
-1.3920801565943897
-0.3305603483993028
0.11725455889179129
1.1707019509622696
0.22121559505260274
0.9072277834074169
0.20407368188557573
-0.4594839906370351
1.098691571830614
0.03172931684416755
0.1548132237404355
-0.7097312097100164
-1.0910563513708642
0.7153667770928038
-0.20170444153245928
-0.7576379787214463
0.9069718078102309
-0.22515324123907826
1.05880511721868
0.35040927252199444
1.1722673120201028
-2.0682641072943553
2.631692459839955
-0.7323967479207188
0.8568341410558804
-0.612504471868791
0.5320620287022612
6.483512654735557E-4
-0.6356013329942558
0.34673745315950183
0.8607382708870053
-1.1391753365041204
-1.3367593506137934
-0.7262407018262114
-0.11194577878508892
-0.28608839502302247
-0.9872168872514079
-0.17131551591383368
1.8723128916481666
-0.7208623014338295
0.7995507827557361
-1.7230905777879386
-0.2047886359562542
1.34776927141965
0.7535245298575988
0.12416448937606574
-0.12355024148391451
-1.3119129623985575
-0.5441353675779083
1.0979763419179436
-0.47435547504151365
0.4400002239850356
0.06407370879106032
-0.37940989276300496
-1.57961631873494
-0.4548752224992296
-0.6102935538154883
0.8459658831223091
-0.32106285321140104
0.042558479624047414
-0.45482939286294
-0.6081752273161375
1.440209008039199
0.26980805893337934
-1.1391852944987297
1.2631153843359655
-0.8561134985623283
-1.7030836096549622
1.4972304618864645
0.04549472263546097
1.877464299021485
0.6222317498438762
3.0424582333891896
0.7232298462943271
0.001726654755344089
-0.4922013497147064
1.026686198163438
-0.3209221631403617
0.8701982254120866
0.3678614832088066
0.7337341979728383
-0.439878849461831
1.2157194314108348
-0.6266146041386896
0.3695911941714823
0.7095069900650227
-0.3905512323286436
0.008676721746401295
0.3044887974385413
2.8624748287724655
2.61839198334028
1.2861446164843207
-1.3807397562298684
0.16819445346106865
0.9492392670737997
-0.4513899389709706
0.7277622713255311
-0.918074014003366
-1.320258919160403
-2.3334265478548715
-0.852113530605242
-1.9761821656293073
-1.3782516833269147
-1.1840980405943857
0.09411461692679758
-0.07228197407468749
-0.6967153414282398
-1.6884980157554506
-1.9195437708535668
0.04538348051639386
0.24801990879079874
-0.38625270472419315
0.7595507017992554
-0.594493969181937
-1.1147857968699624
1.1831470541565692
0.4139556115396141
-1.6243728251617036
-0.09879493399870949
2.2378980653748726
0.9468090587622301
-0.5265894383287846
-2.6347163085705114
-2.0292324419600134
-1.4326545029315807
-1.9511072826913132
1.5751892278908015
-0.9318170235509687
-1.118705642444805
0.904525080772805
-0.4543354152042986
-1.0366353487686084
0.301531505528768
0.9873058632453768
2.6224710599845373
1.3654086691793574
-0.22414681698735053
-0.6411448152770973
-0.37803459393577515
-0.634734698247699
-1.2327685759000782
-0.8778014236948818
1.7318211018657086
-1.1076096020227502
-0.4350633618189758
-0.4930010157536243
-0.03497496787579386
1.6985473765321664
3.648315194139639
-0.9049961699548428
0.4045320574329495
-0.7018742590897276
-1.5727821150208559
-0.36021186843683994
0.09112851349625795
-1.758479396240144
0.7332719973537972
-0.6100046334361237
0.7806906288942695
1.0411204470625357
-2.059673944068356
2.676878479836642
-0.8420569719734776
-0.5939079783610473
-3.0977541836163165
1.4773658299995802
-2.7521490177721715
0.18440032586620453
0.44749772493856443
-1.0186077990540232
-0.46799631601863034
-0.3815407069882152
0.8199148029711594
0.7780403328436818
0.8051379810978893
0.6560853910890543
2.021473718262165
-0.8272469647445622
-1.2953958774525032
-0.8864036026132145
0.17167103680962512
0.5091258603712144
0.03655578666045663
-0.5723630712086412
1.2172089024835502
-0.25355348822952517
-0.10251625529503751
1.7178156657522174
1.235063437443816
2.133641671948117
-0.23956350414189592
0.966366234214731
0.7126023398241356
-0.18605744536824081
-3.8775094535529884
1.0027117036186561
0.8549202947066425
-0.20182399627816544
1.6118916137511528
-0.596772361171373
-1.0449386356383064
-1.6116644987186246
0.3584054091042149
0.559289605925853
-1.7321149960847935
0.5676145221068329
1.4514009180701397
1.8248519228247928
-0.3722655968529029
-1.5102565615059118
2.2551132492054276
-0.15527570251584588
-0.13422109306266788
-0.197897037274234
0.26745713617532674
0.6857423024538042
1.285677937051305
0.007370566316308377
0.2879465994151562
1.6728623211021638
-0.5383636381119088
0.03333209642596908
2.961339150881306
-0.379338153841756
-0.6798530077851416
0.052768732297059334
-0.4520771670872654
-1.2672730438719364
-1.3738337118428583
-0.9865706945726859
0.051510896752313795
1.0901698358446865
0.23636448929484533
3.9547661581693316
0.08198364682316836
-0.44280123553411477
-0.6484099327251582
-1.0362568395344849
0.5061930464972126
1.7137132060865832
-3.1576267767157256
0.6259865389110237
-0.5001210223138814
0.4088044974654841
1.7702096155245353
-0.7358410762736611
2.2220200175724485
-0.10018533661479653
0.9353051771952265
0.8241707931882514
0.6406496480453674
-1.2922680210512527
-2.1812470297788598
0.636934381424615
-1.9503869163829999
1.0089263596726894
-1.0089177318017055
-0.24421957833851865
-0.13561042040746826
0.6254339243009677
-0.9174018486098319
-1.6263956494321885
0.6946191904918855
0.8038820807583564
2.943328184337739
-0.16633658870063472
-0.02523891405700017
-0.558361338588979
-2.203047352921182
-1.261459572595228
-2.125624787125655
0.07113196697870484
-1.542127559800695
-1.1791130700385775
-1.2210672827532858
0.8879407174276478
-0.04174264896361445
-0.032007263792632946
1.742257212729669
1.1560843102409732
-0.781042228370147
1.3295612817224585
-0.7080907076165351
-0.9968878962996994
-1.2517725081466669
-0.11716857128948398
-0.6319562134158538
-3.1783579744657735
-1.0832519352217116
-2.061586476173778
-0.43167134751091113
1.0296404677465576
1.1985317008435312
0.9535589727632396
-0.954312727734805
1.0762466559432562
-1.0477748983394732
1.14192031045601
0.3270635668976246
0.726556247679968
-0.6600082845052215
0.18231554135169362
-0.11157011392509991
0.7852498655542248
-0.9914641820026562
-0.7306671925703565
-0.9793763921497864
-0.4997555494274946
0.019527071811732938
-0.5435306794710209
-0.05526995750911856
0.17640087153271836
2.986748119783217
0.5098501696319954
-1.5964696041473598
1.2654129568032253
2.5603721848531915
0.6096985682647693
2.3942067345610853
-1.1536836689890066
-0.04749211064187927
0.9561016676861005
1.0381139499667098
-0.0680003834375312
-0.9265330487608445
-0.9702166814180665
0.36513642739963387
1.918421490754338
0.9935718345265608
-1.6569995714657502
-0.14522168994039097
2.578712709560742
3.5578372201795556
0.05112806570108702
0.0945565280659743
-0.04449789994500876
1.8952450287292852
-0.6724742815096487
0.1248307396754586
-0.33522636906133346
0.5478804874303045
0.3042147667600682
-0.2312286796161427
-0.7027517106649651
-1.1198244903685934
-0.15595062914709176
4.685489838090532
2.238581154811321
-0.3709674234283521
-0.07519939587374884
-1.4407646530951828
0.7987669967844082
-0.30312197560856724
0.3027630521458823
-2.8617124421526263
0.9126536282800449
-1.344306857040146
2.076464167233284
-2.169536878659582
-0.85262884670974
-0.15364008754739936
0.8507728080902313
-1.1206191231717981
-0.3767202973154902
-2.795295951992528
1.3177190126534015
-0.6448365362062309
0.40982996267349525
-1.2322574064232659
-0.648129718261438
-0.7592988556968399
-3.6585808454450253
-2.057475181025371
-1.8000850807934647
-0.42128375965603876
-2.098358979004896
-0.11874230971111531
-1.1869927251572914
0.49632332948876723
-3.0148384593958246
0.2010027553103379
0.5183858624547117
0.2950207002973164
-0.6043882395535096
2.0379412632356866
-2.213529454673014
-1.264993567881819
-2.034833536980857
-0.6186942323863378
-1.1142762233543386
0.060629791377429236
-2.579777323369584
-0.5736068412052691
-0.5631196933068796
0.4679741633490225
0.30528351389475816
1.9410186294377563
-1.1457338976322928
0.4541090004861291
-1.5287275647569754
-2.056058080288325
0.22689437056796605
-0.050351620790393126
-1.5886389024000018
-0.9033041356400038
-1.1595166989148247
0.8729728131386535
-1.1598500844102873
-1.0932889850047305
-0.5650308856548996
0.17064183421613804
0.8760180018079184
0.01844942659050565
-0.14454692949992742
0.7240628760048802
0.49292752134785084
1.1065432190309785
1.5369654655930012
1.1707063095091494
3.4420871207205446
1.1678277024886767
-0.07668683159846502
0.7746795014194555
0.2072463439118992
0.6756839601313349
1.4370120957801906
1.6804636132178827
2.036173024328501
-1.079664714676358
-0.9843016848083044
1.2863803263413014
-0.5681499290120257
0.16434272562223046
-0.1737517183124428
0.7094389205947705
-0.5616704968970306
-1.9350421485250882
-1.1716544681206285
-0.14520430647511676
-0.09739983607347173
-0.5720032047674766
0.5678246310485138
-1.3600829515044754
1.3219942446297988
