0.512908805961302
0.68940072253501
-0.3523835211925484
0.4842235188719398
2.032445638795984
-1.0293607521400416
1.2653148966645857
0.8224535439836277
0.49520012831520677
0.2776873764706292
-0.8740903466801777
-0.8236954220528548
-0.998901993567345
0.46722871100167346
0.33794381199486545
1.4134723246415903
-0.7819909409638349
0.3446542110877697
0.40322512373694336
0.8723494482103736
0.6034699865853704
-0.05554794488303064
0.7464911850911419
0.1331791348445992
-1.6610341999862035
-0.8540434732151058
0.6738810673887993
0.7402043635492563
-3.0544216106954982
-0.8263233767239971
-1.1894896861693702
-0.28250022765309807
1.7660411438825523
-1.0489140547108566
-0.922788608238508
0.03222044714524886
1.5706461082739267
0.4447333498516023
1.0946503268146188
2.2373862133159923
0.3767633208579113
-1.5822450155472534
-1.8750704531901348
-2.6774050265341987
0.4441400872380122
-0.17285563695439762
-0.24647146646767745
-0.7580888126059926
-0.1302526277210066
-0.19087891895582587
1.715547697266122
0.045915348607042994
-0.2402199357132524
0.1803406165434155
1.0813184384720438
0.04337523113859235
-0.03452681935794147
0.7749074263698399
-1.1175040116416166
0.05991473700700596
-0.7042736503403185
1.1347388134734395
0.27230278025716986
0.10774490403902368
-0.10821832835320626
0.16786942618620349
0.5571526824950115
-0.7064408472947017
-0.6783045913988108
-0.9745468474747042
-0.11186560941226026
0.5022182080867834
0.030113760697458285
0.3671758274436982
1.7802876203548863
-0.021267179188621282
0.9814970038898211
1.0580513107292868
-0.06683809121901235
-0.053198069457203206
1.5061974350550682
0.5011268597092596
-2.587417003150641
0.5473435733078185
-0.8500997671055078
2.5574452113904993
0.0714697201918187
0.5936505397963855
-0.6009228065780593
0.028683068025909583
-0.7440554327619927
0.7584583300043775
-0.48186683789292795
4.291593296179518E-4
-1.8499347912843762
0.5225685160023888
0.36737139578260125
-0.555248543065049
1.474448542771583
0.6675861950334592
1.6225165957246057
1.2499926776871408
-0.3078504201208524
-0.06372898835179007
0.7761361300105966
1.2629231333160176
0.23116281185871662
-0.314957638944135
-0.7618209296280989
-0.6747992836337767
-0.339587161711072
0.5486714892316767
0.6508082649837338
-0.06529353000298578
-0.8826044918519532
-0.6154481533173226
0.8365359276805714
-0.6340440956689909
-0.008189496648728046
-0.5347128957937588
-1.1229064611582
1.885216819191484
-0.36159636276259766
-1.2069848743688676
-0.7997102744436067
-1.0004002609460807
-1.516004998794848
-0.19937619130855944
-0.33138773727523707
-0.09322111183143676
0.5369115355039251
1.360793123484496
0.20533985806464317
-1.2461920508662006
1.4035312595679355
-0.10796206736822433
1.5297887460513482
0.36368750528285704
0.11546304282175532
-2.5261463244888196
0.8468162767697397
1.8166644372978056
-0.2953737735300238
0.6235536247563909
-1.6099797103622766
-1.3386783099871278
-0.5867842404312612
-1.6383113852420679
0.3303001112797423
-0.28875577273098946
0.5397987668950387
1.804159832122627
-1.766173987710535
-1.8196351976698226
-0.10973317185003174
-0.49604397074883294
1.1198799870177671
-0.2537088294311721
2.1920981902992476
-0.9995595243376931
1.3979839410584476
0.16663848479133925
-1.2576110730661283
-0.6634552625497897
-0.6706201191018609
0.7348745125634301
0.24857196902777626
0.15567842287921135
-0.9010837405952998
-0.08494409849670602
-0.23330680090075753
0.3330293371306081
3.090868757672063
0.17860934164858608
1.0815023676856588
-0.3587255233366413
0.9890281829398838
-0.7884239333910669
-0.2669862570047124
-2.05948476077224
0.9669872509589991
-0.3359477900410897
1.0789472471018204
0.7536361955458646
1.4322097467614558
1.8214856740051364
-0.20433854038934376
0.6954248502715528
-0.343325903981642
0.22567709967566646
1.1301690079448168
1.5946780227882589
0.917446144934641
-0.6958949285840078
0.46060386513867213
-0.681997418013684
-0.23917406304731603
-0.7186891707925821
1.4317763237153205
-1.597733707989546
0.030886268523554253
0.4309925334672681
0.5405915202079712
-0.998689535317041
-0.727568283350817
-0.3155191430650276
1.2399047386278679
-0.5141649184920235
0.345740633640232
-1.375522219126639
-0.417556119981498
-0.7866566054595386
0.9252499964728502
0.410311008732515
-0.517601237304765
-1.9009315593479645
-0.10598653456514781
1.3551602431235874
-1.6622938563354026
1.3019791171631125
-1.034756375977674
-0.5351507674983881
-1.4453090912116213
1.3656381962725768
0.7876861300495576
-0.11680817900279435
0.8357583544258537
-0.4726848827617711
0.611134223951777
-1.3807434660465023
-1.2809332379433798
-1.49234355448488
-0.05507910142241379
-1.2943783586932494
-0.7994865911012093
1.212841183383683
-0.13629354483790046
2.1177428723199747
-0.7282901973375171
-1.233864505268852
-0.016955921907250725
-1.5571806341416132
1.2690610760683998
0.2635625017401734
-0.45171888597699533
1.8627511602401883
-0.9677602820405944
-1.1504200788088097
0.19431338210316734
-0.8180752465957252
-0.22877420016907052
-0.1169929579348247
-0.5589839480382579
-0.6192927596122324
1.3536285109860875
1.9131223872680658
-1.4085366693301522
1.17906857776365
-0.34145844613186743
-0.6468545202335957
-2.7116758311943823
-0.9276217459222201
1.9893202124763336
0.5633496371457699
0.01337445678729788
-0.86085824731024
0.38346765136424626
-2.630512852561928
-0.27686344069302565
-1.1032512653591053
-0.4650074758680513
-0.6149304345678471
-0.8683804284376492
-1.1541660667466773
1.278623152919209
1.3632242397854182
1.5039699454470425
1.465587777276351
-0.3512690659007084
0.5690172161155622
0.6925654891116952
-0.17387513257640072
-0.1387542599621394
-1.4953661250159784
0.6160730679479629
1.1316202722341473
1.6181455987463904
-0.07237589075029052
-0.004907904639232395
1.2373515451165098
1.4925318070064852
2.5894850780154908
0.038129813052836685
0.2785615709890451
-0.14575701691182166
-0.22553892530312067
1.1918769220783574
0.8684233467023981
0.8711547356281427
0.8802425617204405
-0.47486088640192287
0.15735157731822355
0.1007337842135991
0.8738668475843245
0.6726720926587312
0.9466542005991497
-1.5087155573451987
-0.8885539289111142
0.15772751736511495
0.33392109602429587
0.12123222857960068
-1.132492684582341
-0.473909129459899
0.3505218924113906
-0.10045107178612814
-0.8299966438086694
0.5777713048760446
0.3957986942514996
-0.6639351564913513
-0.32852901821293223
0.1986619916940779
1.8186248699850909
-2.9538458570070683
1.0586240146464179
0.03080939986322169
2.3329998445167575
0.060439874467404765
-0.6710104431209458
-0.8378106441531702
-0.9189358110453348
0.0567420762887207
1.843756841033842
1.446804562089026
0.6968025003902388
-2.0515025049865585
0.3329631284918624
-0.69815094409667
-1.3184107074710398
-0.2006753622246848
-0.054975167427739766
-1.4423718955534184
0.02165449991917307
-1.4353966345743152
-0.3678699789109899
-1.1324799875755664
-1.7524220301186755
-0.5168640236847512
0.17743968133305194
-0.6736309330897329
0.05842518247572232
0.18854200836566679
-1.6422158614115938
-0.9631742146142052
-1.0872012881390902
1.4969650408047281
-0.24067452620376312
1.1025723750427632
0.20605128055776284
2.1504976987163094
1.1742943046273329
-0.8340109824012438
-0.1912897034881117
1.0420835618216346
0.5767628592970403
-1.1146311573913847
-0.31636174367369846
0.09427619545939622
1.5582814906890508
-0.8728876632654945
2.611775904045642
-1.2069075351309704
-0.5598697270434942
-0.07559162303882562
0.12569383676087767
0.7264885475941466
-1.6918750867196157
0.595258613285977
0.7962935132085759
0.1925681114091991
1.312240339687254
-0.4494009231785853
0.5751606274231441
-0.7261345576489519
-0.3065683256706575
-0.5173215723262944
-0.43243735705490244
-0.5252417966632409
-0.4191827817016779
-0.5675306108837176
1.3732049567680926
0.061589955748639194
-0.011567919913030786
-0.5762927633720369
-0.9590378173830068
1.3575455417123625
-0.6139575139691849
-1.4800440226594307
1.0226765159029723
-0.5896484039219324
1.5255202973463473
0.6374537663529595
-0.8278947870779867
0.043904772044218464
0.27528190457847207
-0.9347538016247354
0.0010081629650969123
-1.5487468919509138
0.14623790009317905
-0.7415201016369211
-1.494166062889961
0.28552327104943503
0.4564979654297042
1.3504789999440114
-1.0763703415917405
0.05426745664479322
1.0013568192910953
-1.0745697243178776
-0.6508313442872652
-1.7262193585961374
-0.47886868975723357
-0.9909638346098321
-0.6319494626964246
0.45763400781186714
0.46362025458597667
-1.784865505848657
0.03667707157793011
0.17875766621846562
-0.43356916751452124
-0.27455314377088347
-1.8458686487240015
0.17736227237284727
1.0380763824404502
-0.006720980183968955
-0.8370622404097242
-1.166122694538902
0.07757741082239783
-0.506530133483321
0.33477936099308614
0.49381133770364805
-0.0856982037651464
-0.06900566521381843
1.7382961047077128
-1.0030336633962649
0.48284063812526057
0.034512747011958715
1.119149506665337
-0.0663403319229741
0.25155613737097593
0.09304947944190518
0.06112791390348265
1.2414759190450748
-0.2210475078096154
-1.0873050046434676
0.6009239413398035
1.096688084676238
0.7290091216396132
0.30399591543169086
0.37860885132948935
-1.2078728369545557
-1.081220952945512
0.9125555788935208
0.38526867721227065
-0.4769039652659072
0.1722097512783149
-1.2979361543097445
0.21558882078892724
-0.5645796367246212
-0.11103175285227057
0.58196469383824
-0.8763527958654386
0.4046595150051545
0.19197676509969006
0.8567776904924153
-0.6555526547682051
-0.7344593486427448
0.11221829770490904
-0.4775105984687505
-0.09084788833486467
0.049212376651519965
0.48067881954445896
-0.906812687118138
-0.14888806300238508
-0.6257936506315406
0.5955260182990476
-0.9547019583026006
1.9948993567529685
1.5234755871470573
2.1055199535366107
-0.36305473628977114
-1.9335800338426161
-2.1151538914813512
-0.14480953261260834
-0.08947457528647984
0.6171721259165622
0.7785419786538537
0.14376556148845537
-0.4816837704145357
-0.2126007595411094
-0.7033192469908722
-0.045806796867740814
1.288079628493537
0.43926680578085137
0.7529762989620185
0.5181498700144392
0.4988263199665574
-1.390548216500495
-0.27350411223963556
1.3059106627628176
0.49339305642075
1.6784250370853404
0.20250052195493937
-1.1792602509113972
1.2356040338884053
-1.235748219513581
-0.8279591447790202
0.33695470692436336
1.6683980229998914
0.16299718577336333
2.6568037919608303
0.656673591249174
0.8024684772475473
-0.2934966969935162
-1.2551340879785406
1.6355910911952993
-0.47002033096500134
1.0498306965102904
1.8746945227767018
0.12437062965597914
-0.2894849793229392
-1.6756097990538759
-1.2502510354209346
-0.6169661199618661
-0.40111352168313863
-0.48796572194221893
0.6206900706147468
0.620734432778545
0.5776665273139316
0.06640956633791052
-0.27771178318781886
2.630146759483151
2.4790848591347605
-0.7440841721960688
0.887763468584702
0.2733723361374827
1.603936939387538
-0.3635276236846629
-0.20130148858988323
-2.439090816774067
1.0730974517497547
1.6993411849142515
-0.07196217491554174
0.2247136277270834
1.3837858072645774
1.8223672583698156
0.3818638034158379
-0.22630806444780982
-0.38330017367682245
0.283622899179811
-1.681937830089565
0.2710462282392769
-0.8285367568790749
-0.8010738822876057
-0.519483693973574
-1.1145442828662664
0.16693554113309744
-0.8092154638384056
2.759962531538494
2.020687618957164
1.0186208324636736
0.9014458627229633
-0.7277611071818192
-2.91917949606954
-1.1959789441569424
-0.981063872154069
-0.31682238730392503
-0.5073144580662406
0.8870669804918659
0.31314900401743795
0.45507398510144925
0.8018432287700269
-0.429402594593631
1.0515448816015616
-0.9688884760377088
-0.3555754277396676
-0.4660846337852578
-0.1860998530833715
-0.5910531186492798
-0.4615870528956363
-3.098584297663638
-0.9850140686846701
0.5267794245867906
-0.1472878620428263
0.8367427507884866
-0.6112543035227035
-0.6269632568964756
-1.2940546026722284
0.10669654129998839
-1.4300340164126375
-2.6295399679604494
1.049250603779998
0.04199682752274486
-1.539689976283917
0.8030138340695768
0.1771551196641269
-0.40606056013336733
1.1371705927120093
-0.7953993584152796
0.10444726209889016
-0.17253640251789676
1.0809204976707796
0.6175205682934607
-0.2914692897606841
0.7310915857768165
0.7737504401501941
0.069156971980214
1.3897864744386252
-0.3221552387355073
2.3475803399888515
-0.9658634532868989
-0.6405184940209052
-0.5516545609270429
1.0068891012880723
0.15691499289879401
0.2276395977079165
0.36923052769023046
-1.234657377120344
-1.0620107935518592
-0.9797098672621043
-0.617766078636853
0.9160634209806071
-1.5217687642621402
-0.9365889152050573
1.034022005941634
-0.8745921424330629
-0.6665286014674544
2.592279261996943
1.0201343128123834
0.036423157420848444
-0.5688813944399178
-0.14583727520992096
0.4085445630462417
-1.1705973472066744
-1.2359860399635825
-1.4163793207482107
-2.3869904209440382
-0.9379110141100097
-0.1666654321933249
-0.9329428156826152
-0.6204422122077294
-0.7654880056224199
0.32395242495630994
1.5694789644322777
0.5246089496903784
-1.3336618614573303
-1.023922613884484
0.5808866967725111
1.989948250267185
-2.065853244622823
-0.6984593049956126
-0.4512140462541774
-1.4868480545080878
-1.5090207930488635
-1.3835618059386208
-0.581040538984057
-1.6498077211738211
-0.06448239239862917
0.04094800400819423
-0.9468673469886761
0.14482722472496015
0.7487657933244142
1.177156101102455
-1.1965917391885565
0.3278651609065852
-0.9919374135005948
1.1768065646766315
-0.7160938539900354
1.1410570864749168
0.9524794219370487
-2.0528703285849086
0.9841476698697925
-0.32683992893876096
1.2085969445389961
-0.9993270208329089
0.2978949088970254
1.2662280575649123
-1.0041470732880222
-0.5234814903306826
-0.22576442414919243
-1.7259679220557254
0.41048117744897417
1.8504335167633055
1.0062128269783057
0.818655364315881
1.79087225826098
1.1970542269263
-2.622791018241553
0.3172723370279602
0.11846555078787417
-0.32795751129087336
-1.4861436997499862
-0.3142630059166459
1.09441511103367
1.211526989835194
1.1386020344725072
0.5204918347981433
2.2006603317766245
0.23754895762424452
-0.5012788126860752
-2.4348095416989604
0.2811665635500644
-0.431696208611408
-1.5350822618393833
0.9614294918194967
-0.017693225567893347
1.8053074789306196
1.6949703432483467
0.3975439527432572
0.21056879370703802
1.3622737578591175
1.884530447811853
0.3093093351426301
-0.409643947203479
-2.515463476676799
0.5694916631029207
-0.7541786548832929
1.5211411323802992
-0.492459807943671
-0.34635260989576433
0.2721007443886588
0.6107159909172837
0.6883434715632042
-1.1300764948492084
0.8883289571044131
0.1942434186838454
-0.4464832943552934
0.6493567970602365
-0.025837274488048182
0.8805405021045211
-0.7184083273892908
-0.823001828313227
-1.3128884674963752
-0.09386362098767362
0.9513380142146263
0.360198388706935
-1.3959797726158105
-0.6580793812184853
1.2509921412655816
1.0901054947978313
-0.7762226396829843
-0.8802781464742016
-0.6674151637942536
-0.7091407657459634
1.0618330831343834
-1.1551404704458577
1.731004883326694
-0.05926951032938222
-0.031079250814345816
-0.5958116911728226
-1.486488915531902
1.5024485286261617
-0.5214281569770203
0.3818558374009246
1.153019590043401
0.2697976999700676
-2.6128202546835984
1.0368793031094712
-0.2956934596709047
0.005408198706484975
0.09924854897875979
0.3272080285415939
-2.3547585011077374
-0.18759472151310164
1.2131912141643957
0.8516517050718271
-0.05778165720419449
0.33981776009140907
0.4408425586828715
-0.30640946726295404
-1.282751317440509
1.2948094566874213
-0.9454977470630305
-1.250642618388031
0.6068077068409078
-1.3395196071524822
-0.6505766222024995
0.6601941267759838
0.6084631796089174
-0.6756730800625609
-0.05744839362799282
0.7102890704243734
0.4309674628628946
-0.28431480911658547
-1.6179644662589325
-2.70992178081958
-0.7352545941568809
-0.8794815157066971
-0.6484733711933778
0.8162151780102528
-1.5882098168802166
-0.0602099354035668
-0.49188931801193847
0.7997631799949476
-1.6274934056316408
-0.04076499129303121
-0.2551016831013444
0.6087399792207936
-0.5904920777009242
-1.5375086133963034
-0.09107536923929407
0.24513567201111872
-0.8489379237847198
-1.3415766367042692
-0.33637822557287206
0.5120022870364239
-1.2915758158469213
0.8314309979152884
-1.515227318837789
1.1915345939437116
0.29072831517737957
-1.433163128110496
1.3729951355987722
1.4764742166749414
1.4175471946768314
1.1059815723422146
-1.0474554112038468
-0.47932871381794295
0.14718227495573305
-1.1895572228600046
0.9896186807616154
0.38396241550307203
0.5092741991691319
0.5371524321945929
-0.9442183777872318
-0.44867346831770455
-0.25778866908172393
-0.2985370008131415
0.6088076301164073
2.4842359743557267
0.4686115476268203
1.0045888086007377
0.24546585782884378
-0.05235919802904183
-1.1738039592201444
-1.0434728514809175
0.29790655572952884
0.13234723644239638
0.012888660657606375
-1.6733186416748704
0.042053662482994976
-1.0480275439320328
-1.4244445678027893
0.10759441141541744
0.4324812026032913
1.2684484196932786
1.160988890695086
1.7562824163784436
0.6037461869231402
-2.245863255222961
0.02006895115203615
0.40960827897364066
1.789255036583822
-0.1197203403396663
-0.516885378088989
-0.88938545159857
1.8536971116355678
-2.6853843404490507
-0.12861548533760353
-1.857850959059719
0.4949769100779136
1.6341059869743244
0.9447956261089003
1.2717896665937138
0.30248738332478536
-0.42299466401785024
1.3250944619583285
-0.2170239350201362
-0.412023272595298
0.13596504484704167
-0.2223316828039282
-0.607833779480868
-1.8311387379307735
1.249151013800355
-0.8035639129167698
-1.2996093703732792
-0.6848293859116281
0.7011424094038375
1.0187462457220529
0.4757350089069653
-0.8236019724637645
0.27214517187095627
0.18066209370655442
-0.9252580720051068
-0.726295807782889
0.3837447388853646
-0.6855292716659979
-0.21172490357505214
-1.1597439458145615
0.9100788094389681
-0.3719004526321724
-1.263071521023833
-1.4301989620262678
-1.7585057080615356
-3.1511418440234875
-0.03397919210801797
0.49441771122010475
-0.6791682700928862
-0.16304260275721402
1.5258475504074152
-0.6755916248269608
0.6920437885667778
2.6262444572024983
-0.9715736471233491
-0.7488942762647244
-0.9394808588268011
-1.028186463566585
-0.570947571923114
-0.5575074645175537
0.7084073780598853
1.0860516044953257
-0.7769136656239995
1.5390361956636682
-0.1103170804510081
0.8177148422949161
-0.6656932332013259
-0.21448442718370553
0.8278139638582729
0.06617443209832678
-1.3570417371037709
-0.2235415361253634
-0.8662306571744728
-0.0422257135955157
-0.7362643954608054
0.5136025359546994
1.096123583883104
1.6079143969227965
-0.7794189538034194
-0.5804257476617627
1.3518257735178139
0.07153444163474736
0.004679256291000908
2.323040560445144
0.2698837726684264
0.05498319400012269
-0.7276586053839962
0.14768253739398957
-0.4440759499264718
0.06823709760197112
0.7414503006189239
-0.46101566609814737
-1.1749850464363043
0.07082675249213344
-0.7663796036086397
0.6742166588340098
0.8841138864294155
-1.384821689042492
1.4155181376368329
0.14687186580817685
-2.127615784659749
0.09920782595098669
-0.17015946879448385
-1.0646421501523728
0.34834570486495914
-1.4071012961769553
-0.1996258326457388
0.5779772918351508
0.3762103350680463
-0.010441931610760076
-0.6465192593516179
-1.1860161351482206
0.8777859807013086
-0.23793657602269916
-0.23925129792120606
0.15388125269414277
-0.3927668334980194
0.8227420867224904
-0.8223238002831934
-0.05924965541489318
0.38159789567723745
-0.5357580087308659
0.09791787359099792
1.1074917473440415
-0.203195635156963
0.5759766979899373
-0.11948416433082627
-0.3185017905655839
1.3875446486195457
1.2707555978307148
-1.0926224914317573
0.5107448991235126
-0.25708969431582557
0.03836127360363547
0.1481788714139968
0.060511800355705726
0.3661352998482034
-0.5555163896944976
0.6001836840252354
-0.4281953587138618
-1.3798328643668085
0.2793484985918658
0.3354834024690414
1.0335480232204264
0.20883195581728198
1.1594721090868192
-1.3831140717798336
-0.8524785439621702
0.3663040181344376
-1.981219005743989
-1.4554515488300566
-0.036253221190250616
-1.2653674608578824
1.988486013901003
1.7082574162673951
1.9726513233479932
-0.01847851291419248
-1.2612628258875012
-0.28959829857593555
-1.338549080498297
-0.43090431666152834
-0.47216985596162764
0.7777693657041246
-1.7083361464220315
-0.8320926665291322
-0.3942506038177696
-0.9553709498966969
1.1215553481707863
0.32864428817681013
-1.0298277993568283
0.7947884322445623
1.0211495334558822
0.7561025993499841
0.3370328443403517
0.3250934187471768
-1.5386925802160039
-0.24275868176782556
1.1924247015226552
1.7009442470044858
0.635923843035179
0.7191813758994754
-0.5740733723138753
0.5361233075929313
0.1049503445677291
-1.3570447801171222
1.307380048834846
-1.6871861391515266
0.08412694502523427
1.206578970283646
1.4231200498653416
-0.9262213968113283
0.22119389990253013
-1.5810226304923714
-0.47583264277168524
0.6833331321486776
0.20878441116260169
0.8691494058520076
-0.9919688574796826
0.2984883193687895
-0.0367721036724544
-0.1406180078238661
-1.3506511819313443
-0.08066308374293797
-1.237743024108978
0.5785169533938865
0.5113760916543775
0.7879055671938009
-2.7476995277434133
0.2392897291472129
0.7715728245022848
0.5682676657668964
0.4535888956586384
-0.1447662504601258
-1.2096138869525
1.7314916901531432
-0.7904973358242822
1.0113998177774097
0.732523654000612
-0.23937338705980823
-0.47942331545795797
-1.2892795237017949
0.5301414714370108
0.9057391803674308
0.06820432591928224
0.1281468352553803
0.12208466586369032
-0.48772750417328226
0.2723562744765625
-0.06242383026561182
-1.1484955927924863
-0.10370873666054686
-0.313066729266642
0.1358848523840956
-0.5892938542108695
0.2505433981712874
-0.35121396166112456
-0.3287699762011424
0.058488906951341714
-0.7977303713122614
-0.5171447634783959
-0.744041086762463
-0.3690790922301793
-2.263628701783487
-0.8819418267375801
0.5239044680373011
1.4363873380134475
-0.19816396973589498
-1.186659172186798
0.3380252924026428
-0.40351989585056897
-1.0320154296142992
-0.565161759814563
-1.347974068833556
-0.45504422322710353
-1.4562949786139592
0.42913270621123834
-0.6358606582636541
-0.260170708120478
0.3413405313941289
1.0428719820127201
-1.0466281612548711
0.662429347592964
0.9014409566014013
0.9222396424123231
0.5186143307452508
0.9196606115414718
-1.5895665069285219
-0.5441606691583898
1.0861217333311466
0.8928895707045218
-0.4659477516682442
1.748539288321731
0.8419779675687658
-1.235293779857906
-2.2142191212144167
0.06645816358049443
-0.6776156276410321
0.6235584805480214
-0.7348145689389819
-1.7041651074524713
-0.45760846790155557
0.4882387414947502
-1.0299425556219406
0.1721696023233562
-0.15202962420517716
-2.0195148022599545
-0.3922370541588658
0.14837691906581937
-0.07828743483752822
0.11430608510648713
-0.9003323953936172
0.48161828359963804
-1.3122294620732566
0.03143532603929816
-0.3041626102268153
0.5354019133984527
-1.2443642713992955
0.06977345729366562
-0.46364158956577856
-0.2259246221448883
0.6487017095626005
-1.9316949911011236
-1.6629791084935535
-1.4083581955816216
-0.07602036866462424
-0.3456377875663025
-2.0086255546207457
0.563522979240518
-0.7730268128455074
1.7017390577121505
-1.7287674758608738
-0.5344412637294598
-0.274313490228507
-0.6549493787905469
1.0270345502794238
1.0520206042794702
-0.33072136982586225
-1.5165611230034453
-0.7971590054830098
1.167785553058942
1.0588105871230564
-0.308257905509304
0.9787738495705931
-1.0719318775077749
1.1628193087425402
-0.3168615310680163
-0.5267658743723862
0.3031431508910092
-0.8735266359266383
1.1107847989417694
1.0062711934498205
-0.2754173122213952
-0.8995971116570946
0.9681333096741561
-0.5722933349769034
-0.009767004628452536
0.05185059031252032
1.1847897139756927
-0.1083753658972889
-0.6498653910666243
-0.07172040374821967
-0.7316978271037503
0.5203947605946198
2.572816467034108
0.2920923591522431
0.7947911121718563
-1.4089522775128027
0.7428986357408947
-1.780911498515436
-0.7331177342201294
-0.4156975172801161
-0.6266540936317586
-0.7420117735574171
0.9818206220709662
0.38188302522341244
-0.6975465846705047
1.615077577995338
1.4521622499205127
1.3848567595041534
1.4724059260087252
-0.8761363213038904
0.1350793643049268
0.32339462924328555
-1.1494388989928357
-1.417879221973342
1.8250486132956951
-0.6811152550961768
-0.8413864982414828
0.037482515622581675
1.313347628421885
-0.7862407260857415
-1.8093022808919996
-0.010326166341200024
1.3548469448556937
1.237402800008383
0.25774790780720824
1.32435919773639
-1.0593574255142093
-0.4670799344461163
-0.5775474639801039
0.43440386108142515
-1.9657824655637366
-1.1356204353632586
0.202599255780954
1.005345898757265
-0.15758946487471462
0.0247290075660648
-0.07221155104544313
1.0783214130274639
-0.11073180399545664
1.0067453500382864
0.6561840372833939
2.6648653782766734
-1.3503482868675598
-0.37088239328466444
-0.1742255807047468
-0.2781933695059129
1.408185868865959
-0.8758755458240727
0.569458344524678
-2.137152316867327
-1.260810540652532
-0.23119077581723058
0.711897360019859
0.9454355238458676
-0.2582588368155002
0.7132415587285238
-0.3743571128020217
0.02084907411648701
-1.6791587262193495
-0.1275627204424056
0.6459509742183241
0.2300403959706602
1.559874483356206
-0.9134252655430962
-0.113061088848909
2.070310847236123
1.169320340602684
0.26784021885048215
1.6209084458423773
2.0251584236134677
2.280255254277077
1.9573763296656763
-0.11858860330210609
0.02428960713762719
-0.3861458051337596
0.4644110784518383
0.6027368729547347
0.4644957393691858
1.3274145192348792
1.0398405308420449
0.4195754771631011
1.0251638536250998
-0.1187356214336753
0.44602624804952273
-0.8304061462848189
-0.20561695800781793
-0.9640026549240214
0.6759341820385089
-0.1762276388556392
2.2850864962935535
0.33182111453552193
0.5176817665101769
1.2258262539108602
0.9621471323641522
-0.44159712670003687
-0.2689152987670224
-2.2112456847997715
0.9123075400053462
-0.19551520073336556
-1.7889366606797048
-0.9166357616769597
0.07078875419837015
-0.21231051711103283
1.7173258371451632
-0.2170465857242798
0.5266418241116464
2.2071502837585464
-1.4013001573030206
-2.3760754025668596
-0.12377604378489414
-1.0139922550365392
-0.936673611379812
-0.6043806907504492
-1.4372112334913978
-0.14202741463078672
-0.3515803923239374
-0.7983468384192334
-1.038607344581009
0.10810603350828416
0.2187633895818727
1.680865047884099
1.318132843715813
-0.32500809062584546
-0.01643684788109726
0.34695970871947435
-0.5895055749855832
-0.3642890557310203
-1.0698437912796182
-2.097686902216145
-0.8775166238898874
0.5488008000031689
0.36727796627558723
-0.3026718926795239
-1.2203284078376722
-0.7149133402399931
-0.6353818769557121
-0.1481303920826833
-0.9677721107638464
0.2448433428855431
-0.38993042141339074
1.0035769064224054
-0.0086807899131176
0.7073031375013936
-0.5833883771757034
-2.147615978864505
0.42161992018504396
0.09952084493956484
-1.1975863953592758
0.8106988538394012
-1.907678820797357
0.060475285487067515
0.8594545795341557
0.7165277935505914
1.1484039185166313
-0.041077006680456364
0.049581104224978696
0.2970240791351608
-0.8973044768645037
-0.5234273382038198
0.28622467089824033
1.065732561379644
-0.7663250379180812
-0.49986314280064964
0.470705756810336
-1.2039168681855474
1.0006869854593698
-0.4445597358011906
-0.9922672810697976
0.20593725996651613
-0.6607379111982256
-2.306726881365553
0.01653775902025413
-1.0076686777708155
0.6408008730505337
-0.6423000105481623
-0.28961394779410926
0.35575749116626476
-0.12115694086682367
0.012991751791590157
-0.2054850626819869
0.9874186592764864
-1.7130008588185295
-1.6467414665484632
0.39756682470043647
0.2184773112086126
-0.509058449006218
-0.6009833633735253
0.6046671526797462
-1.4005746489206763
2.2163812791825865
0.26996923119656363
0.3616861130351331
-2.461859966743009
1.193657230791624
-0.5927205655618488
0.6143983733853136
-0.5016060943709786
0.6352446561191979
1.1293806079019928
-0.9806292132778275
-1.4483892558590068
-0.3234465186696571
-0.857337634358248
2.176063215885646
0.8413372631734268
0.6788653635104958
-0.3079882944338131
1.179360925541084
-0.0026240642108921464
-0.3901025386831245
0.6022503876630825
4.46019055780389E-4
-0.7855282463819008
0.47746535705869086
1.1326750909227843
1.414974129159112
0.41371745138227434
-0.23198932474276618
-1.7647942396858853
0.6017976894478824
0.18203848418212293
-0.30499078726627166
-1.362984529791949
1.7104760034706528
0.9599795179916445
-0.17482570600215017
0.4549284192189109
-0.3095881532789697
1.2405142562804372
-0.23030768815613872
-0.29700164891316183
-0.01232019937977944
1.9768477664407245
-0.9339019517666898
-0.9292069523318209
0.44505250992490947
0.13621311367756125
0.06787578359655382
0.3226658498500496
-0.17870255967381538
0.6371831842969038
-0.6661241010564973
-0.3199096267519432
1.0679375673483538
-1.94578693294054
-0.7319004671731812
-1.5033700127341938
1.494581779478783
1.045728498228952
1.8596933373490605
0.8073006293044379
0.556601447752605
-0.5483550756279685
1.4842461135831946
0.8314383742924167
1.5577134899163674
-1.2773388192395838
0.3790323530024412
0.5478060564111518
-0.894565112509285
1.3529478577585083
1.083205404485678
-0.44089434136086586
1.3568168547822352
0.9130879153247659
-0.6850300225611241
-0.2951839458069487
1.0298264537988926
-0.4585130160377101
0.5287190619187955
1.5159627365486619
-0.1637921273942838
-1.1625288475118898
0.5708580441945097
0.2838999564847498
2.0976784850918464
-0.1794080526607489
2.063913683788139
0.0013235587617356265
2.192494639723102
0.5548127270820771
0.07226380689358917
1.9404537073549253
2.0288608914429953
-0.30381482726193926
0.775009111211685
1.4948613834772255
-0.15549646779752446
1.5020826838588726
-0.8737604011737895
-0.7765328429357995
-1.43366851961544
1.3909026591524163
0.5768934148030203
-0.8343931975800764
0.5069482396135672
0.24472595271021533
-0.6351974375502332
-0.0037458459904423677
0.5167416370899408
1.040383333737948
-0.6040532838915399
0.724583679815701
1.0503439584267855
-0.08749895387204096
-0.13021060326903672
0.3366413860315274
-0.42851091557414883
0.6012888573968144
0.18767943200406417
-1.0421389153112743
-0.11395600517738173
-0.08237569578632442
-0.11877446953183193
-0.7181429468238429
-1.603283412714962
-0.8570188946694732
0.5375559499005724
1.222913688409414
-1.0718293692568421
0.2213743409229957
1.6365057187412693
0.612237246868809
0.4619196718963917
-0.048338475260238066
-0.2515546141438007
0.12612335484295834
0.17661975446212777
0.903172081445282
-1.4206139665970952
-0.3457428112212997
-0.0687946084129561
0.6186966708448624
0.08082912899177315
-0.8048264047146354
2.060381598513821
-0.1211238207953892
0.19205645089568124
1.906594812478218
0.429160006793073
-0.5944237341165415
0.7053630532580751
0.6977203786448578
-0.6451477905361728
1.0330445950259146
-0.17774619692890198
-1.490454261087045
0.39084799698435574
-1.358289396436203
-0.37841587446856584
-0.8112874760865876
-0.23856674644850667
-0.8758781628005837
-1.0432094080486967
0.386116826299624
-1.132046497383554
-1.022555074294572
-0.3573019303658846
-1.658250301088423
-1.262279079505565
1.565525081200164
0.12506058775117537
0.5066522811186122
-0.3521148371092265
-0.5151005069678174
1.2229270335866382
0.8030997249477831
1.0186447810191839
0.25540951647045906
-1.000176308416474
0.4712698435210766
-1.5467352896355548
-0.6752758546588127
-0.9720026479654604
-0.011714022789370794
-0.04690753637233293
-1.7679488038531543
0.3344619937152054
-0.12311124565691721
0.5954797038258173
0.3308110628847735
-1.132227481164311
-0.7180436568567238
-1.4085799860880102
-0.27971430395231406
0.24901878160432683
-1.5781341765289982
0.8989157848956116
0.35106455839481754
-0.28510621773005235
0.5810039689175638
-1.0697314126997444
0.4717943090907474
1.7762922933044467
0.8651423854765267
-0.4743354823569547
-0.5786240197012424
0.609432132874772
1.5588971184004121
0.38064188440677243
-0.7621216614357675
-1.0659492663238366
1.0690012472126853
0.6492904979142897
-0.23689333788405642
1.4995034401373413
0.019779336292875267
2.5035937037825495
0.33726029213598635
0.07907261517811122
-0.6338358262694788
0.5779750648399751
-1.2621640339724667
-0.5629231337108387
0.18377692153700484
-0.3704849935399717
2.515593100496988
-1.7669615584086822
-0.9113375053524002
-0.15164101881418632
1.061022426235127
0.890967739658355
0.43311235765769446
-0.675150515296775
1.2376441727382212
0.4791629989003161
-0.3597184070269614
0.4597983680015094
-1.1745552275084234
-0.6992289929961776
0.707519854560506
-0.025444756215292276
0.5682696982771538
-1.8378535905995985
-0.19191078762839914
-0.57984616467553
1.480828221726897
-0.6159320831635425
-2.036497196059806
-0.2720224905375728
-0.8672791144668176
-0.002777238922150061
-0.7285434255275103
0.39191702033713877
1.9085033788768055
-0.31520818140384355
-1.1117426770333092
0.515169921085854
-0.6349493607494936
-1.425716278552704
1.8471803842537944
-2.6392229086214716
1.5554689389215777
0.45137972788423525
-0.6088951950660105
0.24893288674696665
0.3990278858964574
-0.7702065252326119
-1.111417982457752
-0.8107468449182568
-0.0186359394737262
0.6466472373204151
1.027022697732934
-0.558520008363603
-1.2902008066308739
1.190635476416124
1.5604310503825978
-1.3746196719940713
-0.936407572365512
-0.5927626952647702
-1.7141439171639006
-1.8681826759038926
-1.1679883850854276
-0.2939351384977097
0.07336167722602538
1.04937437446397
1.091502477470683
0.056131892967734166
-0.9468051630942239
-1.534963957920526
-0.3265212562473812
0.7598354161969332
1.7385494961058134
-0.621459207696438
-1.0082512399159644
-2.6162286462092723
-1.231982210976331
-0.877882809665916
-1.38532992261548
-1.634958051545177
-1.489862861727893
-0.5154097554184648
-2.4932300472375277
-1.3436417613481506
-0.19821598577793134
0.35045775480614844
-1.0838818284820417
2.3613058342723647
2.363290763310786
1.958586305865626
3.839136031447938
0.5994867388345638
1.6602975499388137
0.28377908503968396
1.101230576090505
0.06205074073097734
0.4368667891371004
-0.5081956499087089
0.03970180167380494
0.5752344874911937
1.4934867314177587
-1.4909806972035273
-0.09923598625330156
1.2149751419317731
-1.186847172985603
0.12167981011873397
0.8676513791855206
0.3554983607711776
1.5630037793801832
-1.0906252202261846
0.49656764580808255
-0.6599703438862186
0.06726335711259712
0.2908275224191093
0.1830121662109058
-0.02632179379910197
-0.18873474063516277
0.5333416744254091
-2.1876893253861214
1.0631660909411396
-0.4155118676370952
-0.311044789018922
0.2536362439899777
0.7655282649186148
1.7696220058221146
0.8634958285345918
-1.712203961966749
-1.832925673078808
-1.2389519878588584
0.3310467692906007
-1.9981812964598835
0.4060498288903159
-1.445452563609306
1.3564941682755347
0.04733009946825816
-0.7918971411727768
-1.8494540633886682
0.0943213637176764
-0.45986774430102395
-0.36852208316181007
1.6669624960244276
-0.8276919034844443
-1.3514521333738396
-1.0696204629531731
-1.3019602195379618
-1.0933684223365288
-0.1867931252149435
-0.5387910199277025
1.0770332207514428
-0.05295351401038488
-0.254847091233702
2.353573488937276
0.9481543323127617
-0.25496507139780455
1.0058003487295897
-2.0409392114156755
-2.2738690823367285
-0.985838378978752
1.1265507604174343
-0.9942795838217569
0.33686192592177516
-0.29512765591069173
-1.0932322817188527
0.037201998440388094
-1.708250489571727
-0.09620100968969608
0.8887110884942695
1.2067782000872764
-0.82556292146853
1.7603352433208925
1.1159619385785668
0.6350653578417352
-0.20471099737086398
0.9761688957834711
-1.3992010562156647
0.5389181122345147
-1.3495605718859272
-0.9198583195308757
-0.1875368495392355
1.4642707222157605
0.33632482043866224
-0.47516718822731485
-0.7734247135447507
-0.21459865100089662
1.0907225992685396
-1.047101515521685
0.8011299696656334
0.4914241746149046
0.26030518654212825
-1.864970604073141
-0.28304106633329135
-0.6673329633390923
0.22810286946376324
-0.2558359689446684
-1.8639060201407518
0.7980675928687175
-0.6999239953670764
2.111820726070852
1.1991134966705252
-1.0799384661364224
0.166052547446233
0.4461847427051658
1.4408908032524295
-0.09072133196699304
2.189414608276489
-0.8871554584740602
-0.6301284520940726
-0.26072542564723433
0.4877315497800551
-1.23734876546221
0.8021737346965456
-1.0587553773380833
-0.8150599928716605
-1.7347906892387446
-1.7038913186925264
-1.6214721329646824
-0.9926706658306235
-0.09456489811289057
-0.41934730784748986
-0.8899995551882555
-0.6330880601610537
0.23069344213035264
-1.5053322744609463
1.27688419538619
0.9405872567484738
1.4526864866073192
2.4195871747635826
1.392597869581894
-0.2740092771220423
-1.926788671602609
0.9169461296488584
0.37187325211628264
-0.8376354842582471
-0.70742338255022
-0.396883084269903
-1.2558882597992207
-1.2287087331643787
0.618667509438381
1.034902260612389
-0.6071198943104203
-0.9050222969086841
-1.2161406252440494
1.0621391716935218
1.129566888255824
1.0485857107587138
0.9458410751581219
-0.23633144129418546
-0.27548749738509243
-1.146958591914649
0.17469078705187432
0.6472128277055244
-0.05686911588390612
1.587930916035009
-2.309968678042135
-1.882892227819597
-0.7859769223487193
-0.2688580826343722
1.9088660786790035
0.7081667556211476
-0.20536330753971313
-2.067947954739555
-1.1943202993664221
1.5181880134096766
-0.6384963350517663
-0.39457016953622476
-1.0072284972412355
2.536572363441107
-0.2984052453966425
1.2679504307503688
-0.9134767792994515
-0.837128239723483
-0.5855351993566834
0.8090673015925617
0.6891195964474962
0.22826038143527538
-0.03668616712284167
-0.40869254713052144
1.215250857127885
-1.2216139452717725
1.8538309464311475
-1.0041862626789648
-0.31377097736407117
-0.7956436328187334
-1.2577246736731296
0.22016161982166982
-0.949619762594957
1.7090617344895807
2.6244998283595753
0.8769906457127877
-0.29862511902316163
-0.9339122472891281
-1.075603247980789
-0.19905255474226322
1.04429968023285
-0.2680747641370378
-1.045661152785641
1.4191723689947726
-0.2563078632778128
-1.5042293328801062
-0.6071923294189838
0.8349486486113558
0.31804394036109773
1.6046911163391637
0.9133314457765144
-0.3689822488017365
-0.49958295130489466
1.225838503616389
-1.5624363062679067
-0.39050581450240357
-0.22704626171495004
-1.1561692524440026
0.9733517241846515
-0.7757873043033578
-0.3622680636477462
0.030181959370865992
0.8248657113684946
-0.9128434284721347
-1.9349757831450003
-2.285749673303826
0.18973659554096134
1.4285218595102354
-0.7674934768038292
0.7183596387634986
0.09877958153805144
-0.24875941538859025
-1.3137598198591176
1.0593371285513284
1.8437323279710205
1.436927444678662
-0.5361003338022856
-0.3184973626487195
0.21455754935215762
0.5619868929739419
0.16172520371550783
-1.6748399139267158
-0.7680761139496012
-1.0212744164865035
-0.07905161105540291
-0.03915421343173514
0.5381634464848485
-0.08425517956090932
-1.8127081586293718
-0.7617001321783017
0.6910074011341039
-0.894836784119527
0.20414197867460412
1.0850024868222428
-0.16962525426722722
0.13419477554796655
0.5795932965196652
-0.6177929221688039
-0.6303293068541874
0.5730259478268159
0.14863698289637745
1.2308543049617504
-1.0259727511108545
0.2892502627873506
-0.8772073319253302
1.9408447907804223
-0.9160985253210583
0.6018972691299513
1.6771293724458056
-1.106203542748085
0.2041081464521426
-0.37016872958793706
-0.07262843893276841
-1.2159270782295912
-1.6095879251301817
0.8231795831040443
-0.4124291955808398
1.193738317109667
-0.33572859581146647
-0.986056807266227
3.1832698586625505
1.8602773935413024
-2.2223206354266596
-0.39622771991255346
0.8308897713473453
0.8838201286002616
-0.3884283132150694
-1.0196024458019344
-0.48149277593038364
-1.0591294520804186
-0.43171617457132855
0.4617527055971497
0.23376692173943966
0.5655605525838605
1.3987366535809198
0.8088027617483246
-0.5313060138294796
0.024589721526198923
0.5171847967137964
1.834371403854059
1.1915255914366527
0.5336318822909462
-0.3440916154852339
-0.6971854687807167
0.8725029621490844
-1.121205169029873
0.02990230889877929
0.15009042192318048
0.149491506886263
-0.4241537392106758
-0.3343016903127592
-0.041066663461030335
2.6401985208064995
0.6510002996150146
0.6939466440442134
-1.1277893533401948
-0.045368249055589595
1.0129810030590747
3.0255576284537495
-1.2568867288348415
0.28923840009528845
0.8902027372674367
-0.038053205693599615
-1.1467434420437332
-0.30131953348552926
1.1844205953033422
-0.7105031135304529
-0.10916967258393426
2.0419539800767357
0.26055351874914356
0.15216678776729536
-0.815782432908067
0.07360005766951229
0.6471987772920971
0.9746453881053289
0.6688575329879932
-0.9946078771693246
1.2182218736608175
-1.0346706226068483
-0.4686860894975197
0.46687699137025446
1.6650004301729955
2.886422101679719
0.11132747209965604
-0.04504191956314291
0.16685113297792065
-1.0024568525508364
1.4139954265112937
-0.47129244105943296
-1.8931330162587425
-1.205705455086444
-0.9640865991523782
0.8254810816656447
0.6273955791832034
-0.48013620161822645
-0.11684819927776896
-0.23891298654311496
2.2456680793170434
-0.6966794544137064
-1.0388305902283952
0.3174251564607803
0.5889882041440467
0.9400622723156712
1.1868897586296836
-0.5058395585027144
-1.3228009141092658
0.21933320489072228
0.2722890803851462
-1.1684107820297613
0.28391864967397457
0.4420850769767306
2.9647550039178907
0.2884990852726317
0.930724139189932
-1.042150544245681
1.0356337194923615
1.3562876388603302
-0.330635380512539
-2.04625826302757
0.5067965614641726
3.0497634119481076
0.4957022521590201
-0.3868675114944586
0.19880253958259303
1.067366486508704
-0.04063841554962257
0.4392170908689225
2.4120403045345737
-1.1622458773566529
-1.2791229085298321
-0.4568047997244093
0.08886473455104554
0.22849064946138709
-0.3217017275130075
0.7804936571439858
1.8324202553080329
0.10103615356076003
-0.2840031028844851
-0.8596508350275158
-1.7153915255206102
0.8112748119384909
0.7535204284183429
-0.30544187159926073
0.22108790648654908
-0.2247143822431915
-1.5328381681162935
0.5419685041308417
-0.5068444504978088
-0.4363836060836477
-0.19599713442030597
0.19234262148886813
-2.3594674794847204
-0.22852136362687878
-1.4299690932888114
0.06890761524623688
-0.12317092120899167
-0.5424199764220928
0.10204455316608627
0.21654918174839327
0.525165329402371
-0.25045954144036225
0.23244593868061317
1.4418700326287361
0.14631269330315466
0.7742414351877807
-1.1538509332472116
-1.2579409538311401
0.17018595549765184
0.6508529008758186
-0.37194534856279177
-0.20583473802950467
1.163192076547125
1.039819415209101
-1.4778123808678032
1.3071322502866647
0.9862407120868607
-0.5410042915930311
0.029234273568524337
-0.6759864825310333
-0.8445197054761506
-0.5456063110608834
-0.3023161102542442
-1.0309140250733302
0.04776172998378567
-0.7671686707572987
1.3271836591929302
0.40677507134923635
1.854655300163073
-0.8787178260402847
-0.5625573485313052
-3.1290808267581145
-0.7269152988670322
-1.070291512360067
0.08065550898028188
-0.28409865777696963
0.0217184766565083
-1.5512850575018118
-1.0883410496240966
0.27521042548915214
0.2901963410213026
0.611027351456127
-0.10442690384256385
-0.2553090095598272
-0.8084183078694498
-1.8232420033290075
2.2259050103619322
0.40996571137928284
0.4332268919002838
-0.5646532362153999
0.3698601139442774
0.6722944944988761
0.6279319094112633
-0.9080194146815898
1.6205117037853214
2.501291251223315
3.1027242336485665
-1.1701684897680134
1.0947239837900484
1.4882498106580424
-0.5700157839687067
0.9770360736253607
0.5160205921505184
3.082222609702906
-0.7845501845550452
-0.37071454373388757
-0.421880527947679
0.045839147218123835
-0.02014829892096303
0.5937074160540704
0.671107820730179
0.5794322956711274
-0.3881476148729152
-0.7705049180601612
-0.19742094260866733
1.4162308631401155
1.2788289257597494
-2.2783971541532733
1.5520965079413551
1.1315737917943098
2.1194515922153014
-1.4666675944502925
0.2668981848103296
-2.062058048726322
-1.5926426190203709
-0.13092405070964566
-0.08198753137709881
2.05593920982215
0.7334000514079606
-0.30182105812743876
-1.4560399952252887
-0.15962280980401558
-0.4841459546428373
0.5293937693802994
-0.5354257455312403
0.7238989260983847
-1.1603919155681257
-1.452607096003238
-1.3127925482975478
-0.8429666198973603
-0.899053565957735
-2.881270558475454
0.1659630468246492
-0.25652717249646106
-1.1915673677020553
0.22086100115252005
-0.7059977787941368
-0.6239031529239581
-0.9508686290962242
-0.40295863381024966
1.1030704394013915
1.4171891396846414
2.4815056938663114
1.5627653252724674
1.1195425434090442
-0.5642438838354187
0.06716003196601354
2.421395171010156
-0.8937327839569965
-0.9944943339767092
-0.08422505043699016
-0.25864388177141157
-0.8790766015040518
0.2004351283697544
-0.06930684044011855
-0.9624681808933114
-0.923435781545732
-0.22535283293642294
1.1126264696376584
-0.2402589821253709
0.49231192955587655
-0.03735969492080789
0.008460245060908249
-0.3555163825446682
1.1242267979892846
-0.7817146633461847
1.2249673632047497
2.5006484435806633
1.162573677979506
0.9490172147949032
1.6650448284048855
0.27770434594395754
1.8238041391340223
2.1176163941935586
1.696681192464709
1.5041665911833224
0.04587689562984178
-1.6772688317099882
1.4113027781255436
2.2931696307080047
0.7387838490630395
1.9415511449151568
0.5116423502693546
-0.13155443522138707
-1.0845512156637163
0.3015489339222219
1.3548827367528935
0.762255884263237
0.44735378091793304
1.3067509065043594
-0.7337380043546502
-0.3361992599710089
0.4043440060476503
0.9829442332443296
-0.1346432719247544
1.6561430503405805
-0.3625547179300003
-1.4893073489352409
-0.5428551682175968
-0.22247774155107822
-0.4389036811599803
-1.2068493531898934
-0.7208956899359964
1.2762877163499504
-1.6551066950317703
0.8291175573238634
1.4385687575474757
1.3460923774724742
-1.5549694734230137
0.761671126759054
-0.046895838282256984
-1.1293491817825585
-0.2583595800577156
-0.12856564902067424
-0.14718212796350089
-1.0447020394243027
-1.0699972281701224
-0.4171076981048216
-0.8362300060590326
-1.0318063858393547
0.7027812962056529
-0.24403632409035494
-0.31214733230701536
0.15779272988847845
0.617846345713509
-0.05647518056446646
1.136254068647282
-0.05830096555031134
0.1831821763918147
-0.9875964129664719
-1.0755430112384141
0.2444787656699159
0.4053958871135908
-0.3479795571964184
-1.3682247045049507
1.210698235795832
-0.2385632249831793
-1.152473765431799
-0.32517380117765465
0.6077607639664165
1.0363424188605161
1.9743245996284968
0.0407904260276669
0.4651623574089889
0.9079194746635333
0.11935955955366477
0.6824628012310616
1.2707182510146342
2.2161990999236787
-0.10968765949548277
-2.789678634838859
-0.4993198966686659
-0.5194442909756884
0.3411887388037675
-1.872300327966938
0.4924800870187817
-0.10193267726908595
0.4174760020270133
0.44236570222528365
0.5619798875787646
-0.18488035570467765
1.0466631215389537
-0.35049084115602874
-0.8443176788650749
-0.4091278886772793
1.2929863816635392
0.25231882868745414
0.9842424859536985
0.5485470771389698
1.0830856941341622
-1.111636814709598
-0.4178791703197492
-0.16374089363019048
-0.783682020771175
1.3789461217174999
1.130578684154523
0.351526979522486
0.2929778847812036
-0.031261307626188305
-0.6910919806304548
-0.36278413440048757
-0.2958995910671323
0.5509807809236775
0.20478371795393369
-0.9017940515266354
1.1445902710627842
-2.188161185001002
0.8013247757339764
1.589968893184536
0.4055177328614873
-1.5886872285238935
-0.7969276730952181
-0.4730962835422241
-0.6278608724663974
0.18172657499333844
0.1936191745060468
1.5158083245332028
-0.00494906928013609
-0.0272588715852126
1.213686753362045
-0.6653501208283652
-0.5938453157539263
-1.818303622439314
0.12777656206785418
-0.7169135480280132
-2.0144261972608897
-0.904846072184354
-0.7833193297424321
0.46816833766632776
-0.8728247383811021
1.5568499868555155
-0.6463057266622564
1.2011537966989494
0.17999083686556644
0.24614812848405174
2.1678658251828073
1.7365977906651233
0.5498685252572044
-0.48147678444544223
-0.29902202333702704
0.5878819772928113
0.9274599869552738
0.4408731832387627
0.8126667618274961
0.826459518728253
0.02841882753844446
-1.395074375849129
-0.22017140704055657
0.4186275958348957
-0.2231182218112455
-1.2703506328302514
-0.278293111528387
-2.25397255731544
0.6356594056412652
0.6648506957882498
0.7123899996618694
-0.4132432299372328
-1.8794231969051813
-0.13828363984864323
-0.3596835274972568
0.09715766936371248
1.2893560451659805
0.05031655624539032
0.3097544691918038
0.6947705976149071
-0.5088608293429633
0.39448756793969475
-2.2934444456148726
-2.936677172282794
-1.458169694466095
-0.39815718216706325
-1.4687968314444606
-0.039548578674976374
-1.3269314129357008
-1.2553740388301835
0.0405012621014507
-0.35324500024829286
-0.2835839030322055
0.42818088858811304
-1.542073268911268
-1.5865263198360018
-2.948088720113183
-1.6006868513483117
-1.4744709863135033
-0.2658191864943212
0.6248750965898932
0.39798930638329116
1.0297274860515726
-0.6085098267065076
1.091298733111026
1.6939575726242118
-0.5736181141006068
1.5963372641497315
0.6544584964766645
-2.073007356908135
0.3582445870149389
-0.3348039359843461
0.35466261630481666
0.6828963403366137
-0.09643490060951501
0.01658619376873745
-1.1270917781627605
-1.363142583303667
0.8667734489252872
-0.30232918358848004
0.006954077051475332
-0.5397715818168825
-1.8848259345990361
0.29198791264142093
-2.2344628753907263
1.098757861890977
-0.43524782463715694
1.7657118718047176
2.2814373122860876
2.0558678865551214
2.0680262460628587
-1.3480604216873426
-1.7293370306656233
0.06069089292554451
0.6914284905619711
-0.2797718245224127
0.897211953194671
0.2733944531465761
0.2000153885583821
-2.0222923247923914
1.4978840344831987
0.449060329827736
0.9659115336363481
0.7690110637144669
2.489962377703117
0.23034560525233871
0.08675729427249017
0.1731704179654998
-1.5701716245646962
-1.6846601289511811
-2.101817931706229
-0.9397660220802292
-0.8255161610670891
-2.585690156434143
-0.16297850806259803
0.5765185392611517
0.8155819465999803
-0.04707102759025109
-0.1609912566599961
1.0798018727740588
1.0633996561538506
0.9098550153442749
-1.7952198989220314
0.6906243964667627
0.38332744302123856
0.40977499840754644
-0.6136322669513221
1.3606895909584018
-0.5440676540553167
-1.4716200586074148
1.010290360412191
0.692772084268337
0.024777239110246367
0.9340539894971938
-0.427355784373933
1.1376600431968966
-0.23611080362836026
-0.724876741782123
0.24512693785001044
0.3795436468575729
-0.004578915851392765
0.30405226243629674
2.369541475874165
0.17944709951598428
0.8792281597325105
-0.1327962569291559
1.256519595458448
0.818632093234352
0.23878527383604312
-0.8021206393863041
-0.7553276248972818
-1.1719111250317042
-1.4322740404364087
0.043038846938739
-0.7353733124874396
0.2835108166040661
-0.1943941720487535
-1.4888852427877273
-0.026357224624149897
0.10283688072097667
-0.5302509199545922
-0.8111857862402749
-0.27367599933515324
-0.24147201069069643
-1.0101896838412314
-0.9105419303230191
0.5961916320515896
0.04239151275012054
1.994118092418606
1.1207472203329973
0.19878355848279053
2.3639549129648407
1.3580516379528162
0.5903154528590856
1.4870938227753667
1.8302215880733697
0.9301262172112814
-0.05109034897306447
-1.5028260900630745
0.1879961732679881
0.695517801953951
0.5326661175093137
-2.541669906632624
-0.10477839426146877
1.655659906195918
-1.2854643450877241
0.9901965672051902
0.17197300029429144
-0.11409578453973761
-1.4404088601522715
-1.32703444520036
-1.3743089987718908
0.41119363472471854
0.02757316046876095
1.263941446867043
-0.7035403806289839
0.1987339663902335
-0.7392327901728898
-0.3192596146129031
-0.21507094617755185
-0.42045876277453326
-0.9941902520642745
-0.3207024957539893
-0.13455531723631375
0.8676099404101918
0.45551838344978507
-0.7601933345561965
1.0569250317699332
0.7999320318477968
-1.6600166481604872
-1.8891737905290624
1.4655724142267876
-1.0842508197829268
-0.652499466290199
1.4734998014348124
-0.7076934842639466
0.583576712146661
0.061597677975295716
1.2826173098735412
0.45458015117835554
0.16337117749182273
0.01742309980959825
1.6653012700767962
2.2902531506084034
-1.295665377295446
0.4387928980740311
0.9882423479848634
1.0288601650351337
-1.0425609572991623
-1.9482043695248765
-0.4116700496257849
-1.0391086728365482
0.6072472561021076
-2.686181200373724
-0.3956509351324639
-0.758143080392064
-1.8911849344959533
1.3254085448405557
0.2445467241827791
0.875673556130598
0.36833574058924057
1.2025750562325563
0.894885821474647
0.04520948989796209
-0.7847940331543145
0.2555402946608382
1.9529193491314776
1.256443201393091
-0.22746700568273365
-0.6166705525143313
0.5691169640227309
-0.1273190616805892
-1.2009059462093772
-0.46539165975570984
-0.4600848475354486
0.8242795527815779
1.2618551726980713
-0.28178120906559273
1.3931305870067798
0.8500099733163212
-0.8279149322788625
0.34910520163941505
0.12465182520944755
-2.4455736675154394
0.03257883440694166
2.095508593579705
1.2351172035647902
0.5263532738487395
-0.9754507761780714
-0.8323012286725168
0.8575402935026469
-1.0116440468010246
-2.155801603696012
-1.5468586645091873
-1.9594016018380391
-0.8945010319869061
-0.21975247103867476
-0.259596085777061
-0.8069365998677391
0.48417722356694426
0.7993715070953347
-1.3397322462137207
0.31366409476351775
-1.6464439527790846
-0.7201879280867813
0.518322250059765
-0.44601814353191466
1.597258941437575
-0.4433089178803007
-0.6029784735019571
-0.9124272697140529
-1.988984265366111
1.2986027491599006
-2.3110158364224405
2.323191972140562
-1.2275865266634087
-0.33384863150113975
0.5082816725091425
1.5987078159385033
0.760736929011518
1.00429168485749
1.0550672244846566
0.17583403970163275
2.7937831895376886
0.5090490522409834
-1.3470243634693804
0.9580463943664965
0.5635053772533595
-3.155332495268109E-4
-0.10307104464748225
-1.0470848075493626
0.2568833448289975
-0.29950038504967985
-1.168811746559274
-0.753127004099163
-1.0499084446810167
0.4975977541164947
1.0409886878262
0.4088220600191062
-1.4002049357828017
-0.9116152200197166
0.4988515708405767
0.6036406403383305
0.7260483784715875
0.0848772539146882
0.11883490890047917
0.323757751475076
-0.32718400964932365
1.7378804092764597
1.361220521557457
1.0899169256969337
1.6703015029200268
0.9373494186121422
-1.0831814875092252
1.4496417420321512
0.5689834522561137
-0.04696421400865183
-0.06249309567394565
-0.14298691041181313
-0.5131880235282906
-0.995659354648295
2.602552835283266
-1.908747094541497
0.6706550200275125
1.2278814775055866
-0.5647749758639354
0.14266687139248463
0.6438799784056045
-0.12221616077344248
-0.3453259627125638
-0.49842646986503325
-0.3758797956310846
0.542932441228785
-0.27999008654290775
0.703610693073704
-0.2520822220505585
0.07620174349708064
-0.12239100275016143
0.06503949748288378
-0.8158197942074998
0.6910328557592644
-1.8172205575675329
0.7685554313921886
-1.143865236621265
-1.6621165901265806
1.140764382941946
-0.2398148233832818
-1.2753628086094195
0.6556489596434341
0.7124623056301695
1.793901227485549
-0.5326529905465155
-0.509993161009503
0.6413554682948195
-0.7989328136786188
-0.4975868744817888
-0.892302631413387
-1.363112177187834
0.15693396019526168
-0.5227320929481247
-0.7580473400857373
1.1673857924371052
-0.10955620678586155
-1.2319370005021064
0.7573848968766469
-1.5775739390353312
-1.1518713296551168
1.027240898765577
0.6119308988655873
-0.008932639817688846
1.0429353898161369
-1.610204789410506
0.29826901164804664
-0.04933275050091184
-1.691297353069923
0.3282818468756262
-0.9585579655918487
-0.17387602487653944
0.3267895417828697
-1.593202640831963
0.11328605058338229
0.8189014776408029
0.9515427593477479
0.4358849475511041
0.008338755287167323
-0.4073135517891936
-0.23345186436706925
0.6691754887918574
-0.4899585555344261
0.566920048485289
0.8122248859984961
0.5638808836861853
-0.6795544167143752
1.3048668312516436
-1.4632176861894646
-1.3214559723493795
0.2563662102790944
0.3375469181314001
0.17170243153014558
-0.5620579231766895
0.26902818153121405
0.5485693161397379
0.9305611454249206
0.23727012834243727
1.1651392694075382
0.06042668991817308
1.0525031760646884
0.08722655530968379
-0.7298685454808431
-1.194396208712402
0.802536295653266
0.10333842024693224
-0.3466992835776611
0.6061702183202204
0.3541257507471681
-1.4282942181231957
-1.0643279236206218
1.0832242150191127
1.7110709568388218
0.19315469443122502
0.09252399563963341
-1.2306035073011141
-1.1502154345768605
-0.09395429383074122
-0.7887186910893933
-0.22802870122553248
1.8393233774692659
1.0902797097886274
-1.1356390033457298
-0.3160122868606828
-1.1091649526689469
0.6071706114808377
-0.3994705078528829
0.5349259583902668
2.867139957451127
0.6887248163976375
-0.4190275259353383
-0.27631011188073634
-0.12157847597725169
0.4646274746589966
1.3110408094229904
0.15770817837803836
0.44747990176659125
1.228763190898125
0.4893559246988252
-0.30034069873018343
-0.934435116145565
1.6909498875287705
0.5169128773069387
-1.283102487115159
-1.8289223121704712
-1.4818992409459737
0.49799959401937993
0.7572628827857407
0.7833513176649858
-1.4208948641568258
-1.4967664000298948
-0.7061586994264262
-2.551213653281597
-2.2416600274253398
-0.06711888067986813
-1.2040932137754878
0.4542384959105367
-0.9929217025915823
-1.542096700688177
-1.5214903914740512
-1.2641256183496925
-1.417553215115973
-1.0424707545195433
0.017385255908459046
1.4520855601757652
0.4710142232074641
-0.47792863587243506
-1.1444055488673737
0.7090876228657143
-0.755540318789217
1.2158230667049894
-1.6853413389179623
-0.5603493600537327
0.8379462642604008
-0.24653730111676955
-1.9091903383289204
2.0033354767244447
1.038742174606192
-0.4891202819596421
-0.1578433657180118
-0.3544206567855613
-0.32264749561255424
0.6750760765687913
-1.5201617450716631
-0.8200695431178984
0.5646321110214244
-0.5330349075475201
-0.299832644313758
0.48406376583349475
0.9836366513374355
0.01664620536609739
-0.6947268960103622
1.144629460670693
0.6832147119557683
0.24904322146489916
0.42620790943531633
-0.013540572598920093
2.1010004560974322
-0.11312521575783362
0.2777970093015506
1.213083082260662
0.34484114201675714
-0.2906033890638685
1.9956633211193575
-0.455066921747979
-0.780556197935452
-0.20904884786067776
0.5493533099335477
-0.029545228077354463
0.5232540641579074
-0.3706657892677789
2.0335466555366324
-0.017836437027386208
-0.4300111584090092
0.31658189723391367
0.04461614244794357
0.2661978604431629
-2.273866051109261
0.5280228164586402
-1.3920571182491237
0.42840156906587384
-1.1963426425238457
-0.9630819160783366
-1.3780595183530968
-1.4733288759292906
-0.09216707361712038
1.0043088980085946
0.42622610999021027
-0.5951363221169239
1.3001620881268843
-0.6751753823976628
0.5138279438821806
-0.9871641985883142
0.6106011267644336
0.14024423293190544
0.7063269490337323
1.1266937142132951
0.4266221184913809
0.5125686755484754
-1.1194724740088924
-1.6626527446924806
-0.31582424254098707
-0.49289834110176844
-1.0490093307711321
-0.11898006944374678
-0.8587204309695798
-0.6523597219349255
-0.6724524623643378
-0.04271475284125595
1.0236583741183058
0.9296509846129044
-1.0121392130154276
0.10188191948709746
-0.4913298183221563
0.6654666988327821
-0.29190697194354437
0.791141936605288
0.22045057988792077
-0.26889341077440254
0.35730489118215414
-1.3766210670273547
-1.8557924890846997
-2.1705494558439007
1.6053471920351974
0.13752553650705038
-1.0995523916552532
-1.1328020117221536
0.7722033972025656
-0.9901158915479872
0.30109535283611183
1.1226615662842687
-0.6467880818388082
0.751864043065553
0.09006607776483196
0.9885144015359597
1.2762919250831188
1.6487483331054955
0.560161521601497
0.33662411160501987
0.03832708811998855
0.306772096802432
0.5631826167519146
-0.3015323890004615
-0.644045368361544
1.3036308483825163
-0.5652460377343662
0.37081652041849417
0.9294947740615019
0.5793689672148225
1.1060193995350536
0.07610656742613035
2.393568425128205
-0.18903033617807194
-0.5929285987890905
1.136692077068004
0.34694451989790964
1.6846546216210039
-0.508997910505222
-0.4392958498340062
0.21093397004787479
0.07170355584701699
0.445579666446618
-0.4913535199644785
-0.9169981074048937
-2.6286514121947024
0.9340158838381866
-0.045572617658115135
1.1556965738801024
-0.9412503709398969
-0.3531668240708194
-0.2576282479133739
1.669969717481327
-0.29271203933635687
-0.6980473996453213
0.6871240597361539
1.1668775939433946
-0.7385784058942406
0.8197955793575339
-1.876278266980039
-0.4709877949737106
-0.14118204916778143
0.463535591413167
-1.5154898813255582
-1.0934690781100693
-0.49869016223110507
1.9159959676030722
0.2492481354284189
1.113527074242358
0.07236617793283592
-0.46382425828321044
0.22493988911429078
0.8701079505570982
-0.7719681918404828
0.988322443081279
-0.4449162662855722
-0.46116881196351056
0.3166463154289893
-0.4049555330921068
-0.42865100449275173
0.49859048195789496
0.6434483152387588
-0.5904504684594364
-0.709927450905542
2.0451401027949214
-0.6060341832509145
-0.4281439370023397
-0.14640000799098912
-1.4003178694465188
0.44688217877370534
3.6129162181552696
-1.0880776959937917
-2.037522863811434
-1.478012980295827
0.0906730333151212
-1.5574000458553836
-0.2709805613115615
-0.2700858188150283
-1.6576562825086218
-0.16239380804402975
-0.2363011607794057
-1.5983089032129647
0.27195922584507837
-0.43720372812193314
1.856586767199819
-0.9686406383483402
-0.5286018902493816
0.10042250396069671
1.5392920398441035
1.154229583741955
-2.2208671693305084
-0.937504974015485
-0.23845089276647582
0.25890405538132616
1.05778711474368
0.6049425463903474
0.1098529078871486
-0.986332138646656
0.9376850388276232
0.118171004371922
0.1817620373127815
1.1765676957682851
0.7259516050821897
-1.71393309142154
0.5441827463502629
-0.059340297589027695
-1.081765177125906
-0.43638450331033907
-0.8843481534854191
0.9386255127066188
-0.9926521441314485
0.7002436515919656
-0.49189844552115247
0.6254289597480207
-1.5825316748939224
-1.4281517879836376
1.3015916738138997
0.2651096028387426
0.7833416400035794
0.15700107772956481
0.9172732497480001
1.6596811398113003
0.6958672769918872
1.496614401221893
-0.44397220108207563
0.20855756689715063
0.530381732000185
1.0516509807813863
-0.7637485251451058
2.247441422994974
-0.5380575200405565
-0.33139034243392707
0.18904043671379606
0.4430175501727164
0.2779451801362626
2.072845139186814
0.857858567971029
-1.0235032347052964
-0.9260107517730939
-0.09504735864936746
0.020145863700036116
1.477500127801072
-0.6581009131029577
1.307869824138519
-0.039535315507705476
-0.3686413509039688
0.8680449014452978
-0.7908690014131511
1.1653582421156086
-1.5376011270523782
0.5154066379008722
0.6508388372109049
-0.6945100287020607
-0.7158387934498542
-1.0012336880029138
-0.05910923226847225
-1.6335290750197162
0.06952256908724369
1.086207738463139
0.4952889323326129
-1.0218965299533886
-1.2097513454317779
0.2099582078918505
-0.2360037044878885
-0.7796120629073376
0.09766879682792844
1.3493752949219986
2.0652248088401772
-0.46366418305247953
0.4321585242250522
-0.32406357469873437
1.090004499603168
-0.8514174580097434
-0.07616622531935831
-0.07284824143908943
-1.9989959471237697
0.37012900323427056
-0.5735676537678951
-0.4314465037658143
0.9483712424716206
0.8616081315352464
0.18260493641836936
1.031120634290617
-1.3683461817455358
-1.6032827452160425
-0.9714379436062068
-0.7975368165180958
-0.17972327165711527
-0.21972329898541548
1.222441832768213
0.3720119786122102
-0.5646868511256282
-1.3515119534743476
-0.11486655933505836
0.581268127638515
-0.5126915005295771
-0.753866175205749
0.8774417840924047
-0.03277202274067846
1.2142107186405533
-0.033124280062267836
1.408596733012217
1.7472915859058318
0.3086449277796776
2.9279352716505787
-0.18339745584112332
-1.2467416529962274
0.08716268949524578
-0.9160208916815129
0.3120452387352712
-1.0346656313786455
0.23329103060937184
0.323313621510712
-0.2509971153687799
-0.24189223875395055
1.3842862321207556
-2.0230006561860407
-0.5987885447393699
1.3856411003640194
-0.9950790438789957
0.31052768787680957
-0.055014342112242716
-0.44985934934147376
-0.5703601337250287
-0.29033232193519093
-0.8620884402763834
-0.5680608780300928
2.1766733857639213
1.3886912872603225
-0.06569430560149149
-2.2078854974934274
0.4651676167293012
1.8023256228259839
-0.2699615538091676
0.34135501400559903
1.094481071134944
0.22273610785078868
-0.6019582650113846
-1.1353055752021182
-0.973969634945658
-1.1377446970361176
-0.9627896394211014
0.9579334864210279
2.9999904709279868
1.7019409522789226
0.8349544134217394
-1.563786353551754
-1.0831810227486627
-0.7037623671389649
0.7213929296174674
-0.15371218055783814
-0.2203586676866563
-0.16865680294731433
-1.3056514944914832
0.09843269907048613
-0.2350211482597115
-0.2632213317980362
1.1547095039855024
1.8783737498435424
-1.0957884900836325
0.2886527552170175
-3.0236496647367646
1.3686201172771197
0.32711259741670695
-0.6387569483590437
0.8864406616090235
-0.6236003696979904
-0.1109439306768904
-0.85416864370754
-0.8761392287713597
0.772337469922403
0.8285917391096128
-0.19805923339071027
0.848433139342845
0.5020876083860649
-0.5443158962681118
-1.0901333728353308
-0.721598891983408
1.353485092966836
1.2336961017751544
-0.4512842811872717
-2.3701344898594496
1.0731934387832431
-0.2389091458806644
-0.31078018732144963
-0.3249181086115838
1.144701394174126
0.49483247336465624
2.0688398152093628
0.7154202751709471
0.8417297032409609
-1.420762974294142
-0.7444230254426946
-0.5280838459195053
0.012338605687742739
-1.0366980796645615
0.07357478318493077
1.7449760260081393
0.05882973769754903
-0.5256156086892152
0.4422826661286968
1.114145817365878
-0.11090023726168802
-0.5733241636386522
-1.6228033189849185
-0.8507677175917959
1.5518202823716536
2.275444925622179
-0.2785488575266216
0.8227607038025215
0.3531495041965938
2.403442064154463
-0.8343727927904898
0.007704793065419796
-0.0993088394289035
-1.938756527344913
-0.48286483565250876
0.3083546080811229
-1.7114585936896016
0.1084334284298422
-2.4674385008378934
0.5263563920190993
-1.0532977899296745
-0.9133950913718235
0.09146760276614804
0.19026685835111706
0.8604431247999883
1.0474201261065272
-0.1295831250462127
-1.5537512336829213
0.8633587660774297
0.5846110820401039
0.1297767692148364
-0.1885178144910737
0.46652377254253113
2.045906976509897
-0.9028639219221043
0.4221532855308699
-0.30464031867311775
-0.5773489482107625
-0.4212894526080984
-2.1085452493135177
-1.63698665924714
-1.399376495836
-0.05658036316385383
2.2087157904397077
-0.07222711405684454
-0.8360421642308459
-1.7794446236318682
-0.8411666084136695
-0.9342144162719235
0.6552262308030284
-0.13194546485804332
0.22617974555011364
-0.08041854084128501
0.3167318483767481
-1.5256237487202786
-1.038653882270061
-1.5501993006065367
0.5267305283413704
1.8985665563316287
0.2503197219011906
0.8938041108247059
1.5248623077245533
-0.5773536019875186
0.7149880303262837
0.4871433734978294
0.24029261546574954
0.38046168632294913
-2.1227120301182754
-2.1464973597368746
0.8041583518701813
0.5797729167769236
0.23987048491912139
-0.13165169550446215
0.4995821441798449
0.8497008084843104
0.9545424143192
0.9049694715957852
2.802222343692232
1.7868273944915023
-1.7746657740529401
-1.3477879598099265
-0.379828700655972
1.0559199553094398
-0.4261140895532167
-0.296804688311641
1.5378495804037053
-1.242964671981981
0.5465665763057942
-0.024572662884071825
-0.1469368053210603
-0.24486933645009207
0.9620330474258022
1.6470976469852776
0.8563668213910715
-0.5297776930510427
-0.6660410091633786
1.5184336223393926
-1.4379776028911329
0.4388815738680533
-0.31421199697043967
-0.5577769012983615
1.5143590796913078
0.529610848575036
-1.9978371072600285
-0.5517194526815342
-2.4841889447723444
-1.13723415057932
0.055094331122433976
1.4626881471707796
0.6279791010990818
-1.8158791969121106
-0.4646935182433696
1.1449673561245872
-0.12017229627790249
-0.5489739437414854
-0.5981204593608905
0.055027599419542786
1.131390513919114
0.3366127688496628
-0.5413060713873464
-0.5966026806054568
-2.072274884605693
-0.7981579278630777
0.6432809160742029
-1.8834246792599592
-0.4723273616848107
-0.21213169856704356
-0.3682132226553839
-0.23719281754281965
-1.023310262086466
1.1304100896295266
0.3394601807815601
0.42852226401956756
-1.925060612459818
-1.1380036222252625
-0.619895301793769
1.028859160060344
0.08690687977797104
-0.9285381584635959
0.4246579933436216
-0.4735014941220413
-0.4935811290939967
0.2191331078472528
0.9701281917094251
-1.4118200234094813
0.7762144654231582
-0.09694880970139799
-2.6383802972353707
-2.505018303400312
-0.6002900289060416
-0.03353468341097937
0.29967444385379216
0.7580430899741134
0.9197183380827606
-1.743694691382414
0.6523694277083754
-0.10703419239741484
1.3098879722081227
0.03256117344428228
0.6555727872446601
2.9994699036226797
-0.39054619872632323
-1.2379466291196386
0.6799298153519377
0.7785304040840201
0.8001287116019656
1.250838837013785
-0.1455890576160245
1.0367327261646688
-1.528279299087637
1.1679710335579119
0.0668012831614039
0.804076626720535
0.06809139863281914
1.329354092304635
-0.2815423224438844
1.8736881769967422
2.6554333081822064
0.43439347284886437
0.8276332133077527
0.9860729555098043
0.4565218810445529
-0.6957575860507831
-0.26463106821714477
0.4801630793760257
0.221273782846991
2.3392197925898293
-0.9821790151467314
0.8239174118520448
-0.26051321462772564
0.6704758342211629
-0.5928702934872982
2.539767924367171
-0.06081542279027873
0.8828969420750477
-1.193962116277399
-0.02307867728734582
-0.8781016275317406
0.6306478947468985
0.2471748049317843
0.9880702405373883
-1.1067849649311077
-0.5980357576128216
-0.9015659041511628
-0.6744508744171758
-0.03194980545894238
-0.6940876370832225
-0.6571408968999946
-1.2731213147286016
0.542400877236378
0.23969887137590887
0.9693601910821822
0.06223750868442497
-1.1176488607017026
0.3795747468141542
-0.3685131882404031
0.0708515421731633
-0.467696595104061
-0.44226572863910835
-0.4986265390105125
-1.0119542451420924
-0.0385576510891055
-0.028037462060480467
-0.7668006222118315
1.7125332677457494
0.7931802302644556
0.6699593503105719
-1.3616144994403303
0.5816482874892056
-0.44479771186187317
0.33312175234258595
-0.47193048599484827
1.274987949101061
-0.5619520413262997
2.41425367890927
0.056943312461572713
-0.47933869125227696
-0.31037992389014235
0.793768799446934
-0.11858869609123605
0.0783702230403789
1.723747488445238
0.8682120340780629
-0.5660536527135145
0.15323469623575314
-0.10889294873712715
0.35164096966677066
0.6144948419610333
0.5064260485346259
1.6001903570734919
-0.43391633287929593
0.1902729376659011
-0.3062412834640043
-1.6500403624404834
-0.06175552742041821
-0.22492572416478235
-0.06856020251825272
0.2023770153201433
-0.7736363382140834
-0.5714708963122064
0.580930913275069
0.609582126146627
0.20788219941861272
1.2335999989706115
0.7683389412274246
0.7467853100248975
-0.24433359789280665
-1.003724946534415
0.6427945218659815
-0.8569187153263986
1.310763236664807
1.3535269777572647
-1.2944103212210718
-1.6827892979035104
-0.23146518288891615
-1.8959153851266355
0.7352645927257149
-0.024143326450634182
-0.8157922352099044
-0.8046110228553979
1.602179264645189
-0.42916472820875545
0.07832878348568463
-0.6099296685461428
-0.4720210490540811
-1.1195949454565353
-0.21073850357021343
-1.5290231121672186
0.18254656363859847
-0.7713592340589488
1.2081538795541902
2.246602906704793
-0.9532483310538712
0.07029003209742068
-0.28451118801275854
-0.5762249930288496
0.9596472008147076
-0.3936861996444613
-0.17672444195555106
-1.346005285760692
-0.8654012136929193
-0.8563175685789641
-1.7766080119281866
-1.7581753194558307
0.14992068118320154
2.3049450776884868
1.7784049641032378
-0.0828825901022624
-0.6935084811081637
0.31090636576165653
0.22485502567874757
-0.983510486967522
-0.9442971421984533
2.101778118111276
2.6815298326036547
0.6604207095142944
0.9478481485591523
-0.5688062025028672
-0.42044362117810546
-0.41041300964339567
0.20892826488564392
0.20598563746509102
-1.3066764617311932
-0.6517396186630192
-0.7345040221074862
-0.6416078846885345
0.5224639370511919
1.0249923983691653
0.8252359139424811
0.9837222908374359
-0.8621968822682343
0.8847492608256677
1.7289196778007583
0.1734512935409739
0.654658524766877
0.019785261652058444
1.2802072382357248
1.6471834067067517
0.16632823569786312
-0.3951452846269346
2.6410959826156795
2.669141738759477
0.7993395801381279
0.6301245596555293
1.4172668664867398
1.2786665259755605
-0.9095853587461423
0.06601288945463059
1.1405891206387604
0.32985159383993656
-0.5606627449851694
-0.17213040340968275
0.2858786042627159
1.1435555022471036
-1.655803805215062
0.4030506931712355
0.6510451031057307
-0.8502273408814737
0.12408581707230866
0.5981785313202888
0.8400538229125988
0.14173169967538246
0.020147929197033284
-1.0188423007775789
0.4112121015558604
0.3002826424072407
-0.3981877515328069
0.7126412161497346
0.3529904446690391
0.8160840209102147
0.6709523605992844
0.16119487081228104
-2.032676469547141
0.14376323708766958
0.30304415220515224
0.037435081480967865
-0.21172611081446127
1.1411922977035605
-0.5730295081990717
0.2747242654572553
0.21847881425051158
-0.41411546498459834
1.5732130746996775
-1.1037370261582677
0.7146942957482662
-1.011933633056066
0.1263254443579185
0.4212694528615602
-1.269128938436459
-0.04913239205352276
1.3411394051915617
0.5235758752790132
0.13292553468535545
2.248568389729971
0.07765575736779733
-2.3684731721773913
-1.4355334159949393
0.5748696124689029
-0.6346508577101903
-1.0055839696731717
-0.26181872669058937
1.1256240726079567
-1.0486380137745488
-0.14152085400601816
0.9905022764542031
-0.32354529695103484
-0.5290569640854181
-1.9693092749513461
0.6323504071223088
0.9972166931347216
1.133353212011407
0.05233280814954202
-0.195011421903493
0.9966616415535201
-0.6589746081578646
-0.7551314227659053
-1.0411356534935525
0.8640804652503137
0.9360424079275858
0.5106827041198319
0.5614900241348295
-0.30526882426152885
-0.728793641636364
-1.58122587790041
-0.15331020731709064
-0.19847187835883082
-0.7759259107148224
-0.8071715958850371
0.8689925114007016
0.9559113774214586
-0.9111750410327106
0.2336699848081513
-0.7066312055157076
-1.2176290863224744
-0.004469204627717181
0.48505179438413965
-0.27268843674327053
0.8570247412943053
-0.6702287700663044
-1.4015828478509695
0.2458598540559117
1.8325005904029246
1.554163029888275
0.4969545008658551
0.5255548134888879
-0.3686367972160052
-0.2163804792233122
-0.9676881358219127
-0.9633027580916785
-2.5963978560180347
-0.47670776078039917
1.7450325552995636
1.748137219702025
-0.45967891112317977
1.019164727862824
0.3437143339542032
-0.3055578146431811
-0.17935951161327493
1.2764857272613273
-0.28385465759853673
0.10948097080459504
0.5786700137769717
-0.6891791917981904
-1.3464286889777033
-1.6317790997762212
-3.1115330858730443
-0.7135815045471412
1.4789952281922845
-0.295205791337826
-1.52837592969063
-1.476151024679735
1.5232570559928225
-1.0672933036814194
-0.858596486262463
-0.7907256211679233
-0.767922415641536
-1.2954905506205567
0.5338491484789757
-2.7435147410479312
-2.1249649094987832
-1.3907081427233368
0.47238635041671784
0.2821905166397881
-0.3940695756071906
-2.172755597048126
-1.867440599257757
0.23196122471670266
0.784821363101016
0.12222171620505667
-2.5907570936422912
-0.8681584548032869
-0.07892027317258792
0.4568000480290875
-2.229569293413337
-1.1642960041562704
-0.0047652072107094556
1.3932610675138453
1.0788071733462896
-2.1517599465086183
0.7795582783470579
-0.5177263247494502
-1.515481238442425
0.27525630490615716
0.17916934881837918
0.7498300180867421
-0.9890135078333137
-0.6128722830893787
0.1162819025601936
0.2530763126484569
-0.6573216354799264
0.10193282650980173
1.5804379009069818
1.9054324856992864
0.054634785406652
1.2057566413842735
0.34052190997367354
0.3634073827991271
-1.1039654639263967
-1.4291909558324074
0.15692299924353392
0.29248575095056545
1.172277124011766
-0.14088007456815455
1.5272861494159347
1.0867239280288992
1.0431434525985812
1.6026833511948535
0.3475742259917909
-1.032030251315338
1.0099957004780955
-1.7161413459319381
-0.7007017177099653
-0.2728145417060106
0.6245822428392727
0.48178439441249576
-0.07046506056260576
0.8733600596014228
-0.5534048675167742
0.03362714150965542
-0.9940694343206002
0.8526586346242903
0.7018093873633049
0.8664753750097801
0.9853890625334241
-0.57514217831634
-0.08621871361455513
-1.2667023249160654
1.2239905757236207
-0.30056450844778154
-0.16001515629097043
-0.053761808109841575
2.3879091114029376
0.21304587474039827
-0.6874350408789233
-0.9281440244479287
-2.428188968484793
-0.0493551468456573
-1.0070599936596232
-0.12969041246711774
-0.4155520231197834
0.763034399689948
-0.04930283951425536
-1.609653441918139
0.5224281384362008
0.5422871549811125
-0.7896045101745687
-0.06649729886722514
2.472376589088703
0.8272070310630711
-0.11381655448742471
0.03680703358663288
-0.4257727126661949
1.3297260021002737
-1.0749332227664623
0.2531443431296863
-1.3092554364219189
-0.6169299683642535
0.4382974353004292
0.27425878044557445
-0.36943410266361276
-0.9225046398332131
-1.4795400091487843
-0.12278723019028284
1.3251080896342076
-0.04486150712647924
-0.05967049921974987
0.31848721713192646
-0.7223158705723077
-0.5293907898755232
-1.5775426710381395
-0.6710507577978674
-1.9045685503039194
-0.612046096549762
-0.08594923212714332
-0.3578472539952053
-2.0202819143856856
0.2884550227949281
-0.25702727298046346
-0.45568042678324455
-0.6520158847618419
0.1361853892614676
-1.2424042908180555
1.2866491240772369
-0.027777799857480433
-0.9727997361210505
-0.316575712323536
0.03002204715692571
0.7069482176290411
-0.9246790923709537
-0.9130347987099515
0.6692469040194721
1.130536111164155
0.3690093816135658
0.14725440923631922
-0.6022281986085598
-0.26869009325203924
0.43776073745496835
0.4396210879404324
0.2041745429919561
-0.3151586131757528
-0.9445127633833689
0.05323957403566155
-2.4031542278788423
0.4260658719593341
-0.16973058633338162
-0.46278582046500705
0.3631901051477124
0.05772853208695544
-1.8801903919094227
-0.09759129458721076
0.11423212951855288
1.339724432648839
-0.3410099152691331
-1.365776791046429
-0.2582214451503873
0.2351694200428192
-0.7033659209859634
0.3431394135904481
-1.124885725222514
-1.6258118254387415
1.3213358366607708
1.3451747821770206
1.1098258921106
0.9486098209833992
0.9469573959321261
-0.059207282924158236
0.5115578544547865
-2.2391875987183
0.45719998172516424
-0.9359628523328782
-0.09290611939767256
0.057335411861384654
1.1214001608959914
1.2080167191968951
0.43102791454017536
0.9816685512681478
0.8963905670868741
-0.303584709038371
-0.6846906034849469
-0.9728813574405534
0.11251817132001282
1.7298984962974924
1.731019964310686
-0.5094316476921773
-1.0118288033735083
-0.7144386494090499
-0.5221666740769787
-0.20729863085844097
-0.09851521885148856
-0.43793763852894824
-0.43233365358860226
1.774166746346165
-0.46366607623245426
-0.5443464217251722
1.2167105922962052
0.8289143484511167
-0.2606001393795221
0.23848906995011748
0.7763895608546816
-0.08893812463003692
-1.0350879023174
1.1124353393291988
0.34156641157280543
-0.11440792760428278
0.7724457189420545
0.13725633787966182
-0.7304133987313371
0.24970522482878293
0.44891615706154075
-0.4150151925748843
2.1164947496740547
2.053036846677888
0.366346014988704
-0.6169202754299922
-0.5148657363138163
1.1881023823124963
0.3160311617554099
-0.5015844826373169
0.4658815640242022
0.28593196454923697
0.7073516020796368
0.3914111548030948
-0.45395094104884115
0.16027694315134972
-2.0779579242272246
-0.810075942897514
0.29870842632716166
-0.7460172910802402
0.993306722509648
1.4310270548827764
1.191976540841504
0.33358798723315
-0.13950169807287024
1.164493941764341
-1.7844489671136423
-1.1277617440830305
0.9040514308336354
0.04905935123457001
-0.6639240188138672
-2.7128367762084267
-1.1614374156012837
-1.8380438161190096
1.078958602849939
-0.3864135282680247
1.5095924480444798
0.27846801631964324
1.1481507122356787
-1.0922343095530296
-1.1455646513685251
0.6080677659157616
-0.5785426032245136
0.759004451863553
0.38659507659729414
-0.022364863938348137
-0.9445444164398946
0.4271671145975762
0.45276408946240754
0.9465363393120411
0.027105298427941387
0.8893741606571661
1.2740019961329894
0.5854711583846629
0.6519843409222817
1.2027232484958739
2.244763294848564
0.14112584677399062
0.31555257332651615
-0.9890328792357108
1.3933045577336094
0.8939376556427345
2.1573787169549288
0.42886495399371866
0.3490315110976356
-0.7526688071840105
0.8586941639797622
-0.08709754419834152
-0.4902584117335788
-2.135221804252095
-0.8334650383088197
0.04091856684516276
0.8287533436956462
1.2868728459760914
0.21616194934135086
0.049896213046087434
-0.881945724981501
-0.49252527614295427
0.31966006771077804
-2.0285223872541196
-0.5443073280667167
-0.6119574287264548
-0.6657713200396302
-1.2126164438919171
-0.5327039607552322
-1.0549718475516432
1.5961411857712864
1.795609766632472
-0.4853853802353849
-0.3304637993351673
-0.6166130562307298
-1.6832577766793086
1.0607413658931648
-1.2009461224447393
-2.02307131502826
-0.9043110305871986
-1.6060900828349762
0.005330122204944439
0.9825196460709715
1.1125690874811558
-0.5832263552590565
-0.3569438465140597
-2.4542369127912695
-0.09817583364149006
1.4511262238961309
0.7930023065707482
0.7481257061199081
-0.5738518704433414
0.40133585183516524
1.7524734585927924
0.8209067062036672
-1.170699548984823
-0.8640853047514905
-1.3560405779205396
-0.18313275587953387
-0.15735008691706281
1.2224566004265665
-1.247255080923304
-0.7667881203614642
0.7854165433457911
-0.15939936447640182
0.8996310593506812
-0.2006585087621066
-0.10082947585203253
-0.18839652168846283
-0.7842233414960145
1.6296517905323369
1.5464560289374036
1.2921190414490242
1.5699167698890453
-0.12955411087261942
0.04612426428572117
-0.010400185122551095
1.0482843796533516
0.13755111054828115
-0.34036815365865536
0.336490567370332
0.273985213428782
-0.766914557384044
1.9985787785968212
1.4939803486636485
-0.0786976198809842
-0.13351692586211727
0.32442010291110673
-0.47451624671452186
0.33250603226179576
1.4190674453634218
1.9646341238140856
-1.7597541000044463
1.1549556880666587
-1.6409773522105415
0.5382637984140417
-1.3271563852822947
1.3506969681482863
0.04936295009231979
-0.8672572933999432
-1.6834895549840712
0.2223833198127052
0.8634498997510462
0.6586291628045301
1.4311393428756776
2.8754681810773217
-1.5805026738749033
0.24621036130695761
0.8322357828273494
0.043182265108275046
-0.8385493092601213
-0.8957377288744471
-1.1663860471472947
0.007325525089453204
0.41183247723434196
0.17124475656424865
-1.2117253694172294
-1.3635690049575375
-0.8154226779047901
-0.40159658170660384
-1.8183240478671412
0.8440134281225914
-0.198745639998546
1.1057667262667634
0.0718240796957881
-1.06696837767173
-0.9312724686237084
-0.7572077866294459
-1.0186726398237531
0.11363306359728259
0.6652096940340659
2.12878940510303
0.0319817597420899
-1.1380939112082742
0.7298444229829694
1.6932484987045164
0.5331877435582896
-0.05675752270919311
-1.8470193372025696
-3.3286806441142014
-1.02295067829339
0.2771896075783427
-0.5116590266037916
2.498751674338657
0.2787335615597537
0.3156208630335278
2.313040705452902
2.512165735564396
0.4097030363707415
-0.38790457863078015
-2.116464866270039
-0.22331675171741305
-0.6014440219721032
-1.1387025886670774
0.8505054623930323
-0.6821383963540556
0.15753707628382743
0.8498390240161303
0.963694818093335
-0.19131899631338317
-0.6616913875232744
0.5509493506366098
-0.004973902010305589
-0.32376677562865364
0.13720951075839868
0.5035775559218195
0.9759159214106986
1.2423369638616868
0.22568206316120745
-0.8894438709707989
-2.8156849174024567
0.6334051465743238
-0.14579014896377576
1.1613159564972477
1.5466001579383664
-0.06820988029842553
1.7237084856546354
0.7398919816796661
-0.13368190753675435
-0.8727190936281303
0.7144829389179206
0.21729150571221742
0.3593214621610118
1.0800333764100736
0.0017333968147646404
0.4368289222819804
-0.8141731041133669
0.889088699761822
-0.15777950399874105
1.696982837245404
0.3228167910611358
-0.7809458239246427
0.48526267565882997
0.17983210195692237
1.8946522835958195
-0.9416814092692611
-0.3698791817431828
-1.6217440738484548
1.9908186947996906
0.6783756194835762
1.5500055000735007
2.2612095464095905
0.42680624581641163
1.6633923349382467
-0.8922412560230375
0.7888799760829798
-0.5313584157969745
-1.665819263340454
1.5895107179210233
1.722822462333833
0.5679205122036692
-1.1525684794877125
-0.9919279953375149
-0.13747319414733222
-1.8796837266107222
-0.1566341592613673
-0.5803371120858374
0.20949618798424532
-0.0018653377586549363
0.08775701707799781
-0.01699432093978479
-0.06626211865417721
-1.2255708121558258
-0.9725794555482925
0.8951611286049213
1.1044176777769037
-0.5930188734906788
1.1059028347791209
0.6424370939212058
2.3987559055748124
-0.45809505421311003
-0.7208354904317281
0.5403473607806877
-0.1355889413056249
0.4204985885311092
-0.8855914367092936
-0.6581863158896908
-0.033719364521822046
0.9154986382813566
-0.6246708737427042
-0.2856315169539815
-0.8592890076010533
-0.3685393660645161
-0.373211821880665
-0.07142471807327612
-1.4631031396331509
0.013215900227578823
-0.03826155707781705
-0.6697074121384723
-2.329954966906099
0.292838194422211
0.188515787192359
1.3897333527707154
-0.4676666768624458
-0.13910447078277222
0.534974229734908
0.028803890046805714
1.6833061460572047
-0.2545654475813547
0.7251219375509375
0.2569637210138051
0.06072678355222859
0.49411045772615675
0.4175705457744343
1.6753183566782377
1.023360599169534
0.8082148233537654
-0.741971780948481
-0.9812553818217011
-0.5176139520786541
0.06253292900988341
0.347911383535805
1.3891083298662503
0.7207585690436789
-1.454274795715526
-2.6159133475177407
-1.0795837885640065
0.04468214774419482
0.5262036746478486
-1.1780312615853643
-0.16036734366124308
1.7885067271807353
-0.14542688278954288
-0.6708500292251555
-0.26541414470424934
-0.2921156140016036
-0.5914555350966056
1.891594231506176
0.6867984572358895
-0.08077162117239574
0.7967435173542043
0.30509612840845135
-1.3018595505991863
-1.9233789286784386
0.2662058753020158
0.8634408171025828
-2.1166006053580393
-1.0737181216125722
-0.5385592504846436
0.09382417890648523
0.7645382621197073
0.9916037202065048
0.14373417381285078
-1.0856315704703245
-0.028135209653893788
-0.33217030285914706
-0.19671639639150373
-0.050097654149082446
1.4195230079553987
0.5201939895357394
-0.6996897514203684
1.7385858304586115
-1.059681068284326
-0.3075357243894511
0.33285220663960235
2.427002887366164
-1.7823081769639113
1.570393914437018
0.41193085037956967
0.39702709167734024
1.6935826195761687
-1.3800623243532721
0.2074765748354007
0.10635968879401426
-0.27328344697060186
-0.2623696275852911
-1.194884787524867
-0.4701052929179615
-1.924773812735676
-0.07490323420401962
-1.7713293278076099
2.226866964784566
0.7798883437368201
-0.8325367663301171
-0.9901907723372564
-1.4575698781804034
-0.8570358003558303
-1.2100713391214677
-0.49014186684433964
-3.277113529186855
-1.5158378400007502
-1.2880310746208095
-0.5270097528222742
-0.5267928176160477
-0.8352944120757037
0.3983898151680335
0.13073863690458676
-0.3343167842632559
-2.599493486226839
0.7654943346932713
0.2860255502257904
-0.5978306992704434
1.0101147433925355
-0.6637974815495667
0.4447118492363845
-0.433506344271593
-0.5447608617594751
-0.9808659696313432
-0.9952425646678701
0.39154456148292494
-0.28737807325526143
-0.5115076048638293
-1.4992956617469337
0.24462209402268711
-0.5243555703149728
0.8637355940734256
0.9323411992220421
-0.23045289562480578
0.7572421384836172
1.8307651734704617
1.167274936698826
0.544286499587142
-1.564470183057867
-0.7247971178708171
0.556091010311939
-0.5395001080923916
-0.4566251720904869
-0.8443370500632303
1.9167275422827061
-2.1592846461642625
1.374626665684223
1.0385808202783644
-0.3465923232639248
-0.7254133538945443
1.4765335533479014
1.9015365575141567
-0.28306980661734954
1.315200303770881
0.21521121042058483
0.6317816358001164
-0.7003474037755877
2.1036091930529057
1.7667254659769254
-0.49160728610793064
-1.9669132682940207
-1.2707756959830059
-2.4912646470234825
-1.0080600384311724
-0.9631171781528318
-1.2119672719463421
-0.285904768972499
1.0866549212494054
0.3970696739655222
-1.0722014847158872
0.9068881261709588
0.23083475853824595
0.8786363296449171
-2.084071484394071
1.7652920044379001
0.7219966912173861
-0.5447180092182655
1.5732087466335258
-0.43506364081400434
-0.7074959366659725
0.08962685569499099
-0.46753907828946956
-0.447658168903624
-1.4175635082910758
-0.683811228158063
-0.43043591809409315
-0.18988421930743232
0.3160049366753359
0.7232946038939774
-0.5582779420215555
1.2946682184207465
1.275963089316055
1.0256678445168503
-0.7767759361773043
0.08034016765912796
-0.5831028061701631
0.5849004028538124
-0.6031991988388578
0.8341927772096592
0.9754605484522451
1.1024957570228469
0.524184794945499
-1.7270883962587007
0.29789736583570675
0.2158746032264749
0.09785660598916657
0.8890545137989381
1.1606429646131757
1.57659273694842
1.341075048340724
0.2558615790179198
-1.0606447548436024
-1.5174953098384867
-1.1412453726422702
-0.007571767755479292
1.4727107152028902
-0.4569521199348914
0.19140028083834343
0.41665642972092265
1.5520692338189237
0.09264920790680822
-0.5397105303924031
-0.29835247510492774
1.465329591995076
1.2350893788593265
0.5279374076617207
0.8476492112794064
-1.1215961794510774
-1.9440220626124392
-1.6590279833553876
1.0142884891983537
0.569196687511028
1.3343032026866553
0.5514579419344587
0.4040121100858162
0.07171142189749576
-0.22145771573113757
1.5975167445588547
1.507260814685336
1.9790833643133756
1.1862974143994567
0.08424539112879231
0.1894263029031669
-1.1610262287805713
-1.8770106754933975
0.7162145630704475
-0.28753132907996576
1.6017007120051163
0.06125448583068685
2.2041245735513013
-1.4363616931029135
-0.10384807548412933
0.8226790073461636
-0.28579183952068726
-1.0586787624934204
-0.1484953696920074
-0.5808235322633958
-0.8989295855649962
0.146698321981364
0.9466359725827856
-0.10595744233934762
1.6707366473368666
0.7876804135091284
-0.9552776770059773
0.852983097719549
-1.0456256880268056
1.541154384143285
-0.4355265337649353
2.0235894657578473
-0.3870110425423996
0.11533794273740193
1.6883662827808907
0.18622851346699654
1.600964916148882
0.44151804448635457
0.032117615305753244
0.00723987537171459
-0.6907302577513169
-0.2284510392598828
-0.004587965000536025
0.14256419866111364
-0.29287869815582646
1.2823145497903272
1.2708634554963976
1.1608494835031953
0.6387305401677795
0.9326572329240193
0.023981141517281142
-1.4715966345690088
-0.39761131074281575
-0.8337065539828256
-0.452501586581623
1.4672146514359807
0.9528115728830635
-0.03538226978851032
0.0775372415390595
-2.2709518129351323
2.2634646475979916
-1.767461361404716
0.4916453152800398
-0.04386275069641355
2.454368608492044
-0.6323807610525499
-1.440926688084319
1.2588681836245093
-0.38452266425382814
-2.0420704685314957
0.5101990535982557
0.4818544745491225
0.24932932866359436
0.08345798894235493
0.9988359440285853
-0.014922560470939882
0.4125709306671646
1.5609543874322493
1.7651967458582705
0.10557437932053176
0.3791001121667605
0.8669836543999309
1.0017098668057411
-0.1178996895817815
-0.02307675923598404
-0.4607513526823147
1.9964363571603767
-1.266323662679406
0.33318783753512554
-2.3633805729922694
-0.3820106106939536
-1.6196580352550933
1.0931373714098864
-0.5048259627008512
-1.324911540268838
1.0373335342601235
1.303822120320281
-0.6284724936003468
-0.024754341055222267
0.8809434013488256
-1.1958227240234247
-1.1177099151877805
-1.9792854923068355
-1.5420882254593047
0.48735444528539795
0.9386618284829498
-1.5218076799317661
0.19453383691059872
-0.7932135981818268
0.2684358560157674
0.6745786915296087
1.0146422326240712
0.2909728834194243
1.0031127878086077
-0.18172105159393012
-0.8666719317070275
0.4151063031579686
-3.2247325539200684
-0.7469913927279115
2.2193738632705946
-0.7525234739492355
0.6287373166705517
-0.5518702942943545
-0.7066410295830556
1.4070460134203513
1.801922363981024
0.35554996756182944
0.835723265957332
1.125828806878669
0.17844793847812868
0.18604843313404426
0.2718865163689518
-0.05085628706473845
0.9712450525610643
-0.52534758780024
-0.634339132839938
-1.5443441132000122
0.9613035684717337
1.779317950456743
1.4065582938982177
0.30797663169466694
-0.2523807073773557
1.2564727343639153
-1.301141792984417
-1.096866430738388
1.1767830134443247
0.5115885537286623
-0.42767367156954933
1.1012494668991304
0.7855685868808964
-0.2198329638244033
-0.9134547667144917
1.0141013563260417
0.6044692450202791
-0.8763753047705336
0.5620577519838874
1.9439245984551747
0.6998694881562951
0.3376596487341197
0.6377008686018586
0.6598981504678701
-0.830400365666557
-0.052256491516677814
0.8473991978650882
0.6059429619110862
-0.5973886108066707
-0.00904535224730676
0.45909307959254875
0.5221754470648048
1.5769228368048582
-1.1667273559772593
-1.1204914858431394
-0.6848420046673543
0.9455728396105295
-0.3543021654393224
-0.3795495466706727
-1.4449554931995465
1.7922275264244498
-0.22025051668171142
-0.23382747726190384
-0.5137966163475444
-0.6550880138165117
-1.2294612458890501
-1.1321493699903968
-0.6781404188896534
-1.3049836783275803
1.5058165505924102
1.2497191760910975
0.26691817024485637
-0.10705641725000441
2.771009783675087
-1.1791452355400671
2.1087950719038138
0.6522819080376574
1.7785311717288872
0.6742479094871819
-0.8553193287729913
-0.10898201431804878
-0.7249109540968924
0.9788437660904062
2.424591595784611
0.48787442916814483
0.5117335540403567
1.0828311715872445
0.8008198732667233
0.3748295371573731
0.8888836394640001
-0.16332450249368252
-0.6241368771472466
-1.1511835773265813
1.1148118163210443
-0.7975815575158126
-0.5415239112447868
-0.2111987840276301
-0.11584269183029587
0.1449274659500857
-0.5144998263041665
-0.48065400182979123
-0.9425310592820547
-1.6468687839993383
-0.43410565938680934
-2.145646159394296
1.3021934370984332
-1.5128116296912206
-0.4739689545438755
-1.7985118713466397
-0.39832510525657333
0.020409836441958155
-0.48474539367132957
-1.2010560054418065
1.151414125978315
1.8503504294024684
0.20722084025397136
0.2861252168888616
-0.39723496973920175
0.6737684811774319
0.004416253491718987
-0.697636532482391
-0.9061734157760564
0.608144412077049
-0.8216082876170521
-0.7852208133332165
0.4068042467689339
-1.4846719540030804
-1.9642414386759999
1.483150916551051
1.130560007072005
0.2530747623669432
-0.4741253234530656
-0.4181946006957741
-0.19694723716571705
0.21849315780176287
2.0459533531933447
-0.569897386603814
0.4598581105015937
-0.5724433719115767
-0.5569010655796112
-1.728830243541028
-1.0748050811368253
0.33892425646035024
0.8973744298448775
1.3474199287506272
1.474264415471019
0.4473014020970059
-0.5829034237419172
0.7147019838929284
0.10294993060100321
0.5123596684838359
-0.8233191442204693
-0.43475741198141743
-0.15393822352241643
0.39435900547271924
-0.0060963518743498155
-0.2795004779765831
0.7096023339312546
0.30378444525427145
0.202227897899131
-0.288524240354626
0.20023899179406568
-0.3500602879871024
1.0497928493427051
-1.6492086615841386
0.22861441766223034
-0.5477412220455492
-0.26323013616515345
1.0580271662701333
-1.3030181546029582
-0.8235922597422208
1.1038457672441933
0.7039631187506054
-0.411643553127291
1.0486986420375464
0.9631359490421509
-0.8261075991749852
-2.176639873087075
0.46495558162250894
1.3898174088204587
2.3597255079078323
-0.3579477650492714
0.7356626494600653
-0.32139770214947155
-2.0638939471965587
-1.054722315210225
-2.2134791273095167
-1.535809700242652
-0.1288767883842863
0.6315890456026626
0.25774029721972935
1.1180930077455493
-1.4493136579958894
-0.9895925142993333
-0.38638017505804034
-0.5525857096008013
-1.2203430574271386
-0.775706018656666
0.5357730177062331
-1.8410331191317622
-1.7977237631757397
-0.12799460872751892
0.27465505076402175
-1.1940330986386372
-1.2862094799777537
-1.2003707841139082
0.578765844645386
0.30629787914736933
-0.2205863992885957
0.6245497305174934
-0.15578826857720307
0.06974793420610192
0.9453856662655817
0.4547175915005942
0.026876548284959775
1.4917425573290604
1.5916958861903465
0.1495579751186541
-1.2824152455029585
0.04227442284988227
-1.1202629343398942
-1.7545571929616663
1.4861729833889823
-1.744244866304667
1.1770105303580933
0.27791767477293433
0.520863318765624
0.16261719374449218
0.8089657362213499
0.5283306172362351
1.2071450191822832
-0.1249228450779447
0.8608814804448017
0.7099685029155298
-0.7250273408481259
-1.4468497129280862
-1.3721722911253873
0.9622310882949727
1.1643993505049741
-1.2039730984749228
-0.993838675982609
-1.1630856325122936
0.6727501191980262
0.46228357636689266
2.403510265711809
1.0947714979841439
0.025274061868738092
0.5434214744011525
-2.3192145331100407
0.4447706826426123
-1.4232743444905436
0.07036437777400614
0.6904973877429423
-0.16850691142740115
0.1779374725227792
-1.1603798322909582
1.3559781422118604
-0.1858320217121461
-3.1685085361007643
-1.3470931260824437
1.140791239881586
1.5904397633737613
0.8699883760540036
0.7913277176911145
-1.9270270736804591
1.6575904437746676
-0.38988832961537173
-0.7699753489409562
-0.47733575784227245
-0.35248029553572835
-0.19014413160759616
-1.0616097293398181
-0.012868705341722578
-0.3846259912559357
0.5903684353817978
1.1771767935873694
2.02187468466253
-0.6843730861027706
-0.39955336283842313
-0.6792435616289666
0.8880506476290738
0.30553528100492383
-0.999420688834763
0.5096833959954697
0.32619866294174954
-2.2518283207072813
-0.4208057455163613
-2.7187451720255353
-0.35830072045538824
1.8017840653567696
-1.2585126395941149
-0.5829315995543052
0.36280411218740344
-1.0451712501754014
0.9514040918610048
0.6502413721655513
1.5873456623714823
0.7214375738430374
2.644477533514921
3.0694230454759768
0.3975682523115978
-0.43215796879403
-1.057205767025188
0.21772776895605983
0.26055498820921275
1.4652034784091252
-1.6385840334018962
-1.4287544381383719
-0.7824507291011791
-0.13843453550659013
0.37205904940604
0.36713240860811014
-1.1238037833564023
-1.1279271798429549
0.6264861456238889
0.34427028388188297
0.504112705666167
-1.1920189912691954
-0.032646333961840836
1.1170060670977018
-0.7789319381713599
-0.29204988584809627
-0.30932275542824766
0.34561113583571873
-0.6559279515868703
-1.1852944874257028
-2.295002639381447
-2.4529426650491835
-1.8488975105557859
1.2968639970438005
0.750847095528255
-0.26628146108680567
-1.6149453186904545
0.2910034533398934
-1.3685112735661034
-0.41243725965674555
-0.5384855617674666
-0.8701211791323405
-0.13012838562578338
-0.044912587850020634
0.8757040896575249
0.14698907866502434
0.47693852500548417
2.1783056400775815
-0.020098881787666882
-0.6688400539720237
-0.304557764345847
-0.34081475546510087
0.9408950319841028
-0.10459702268585716
0.37998587350900825
-0.8077185312335496
-1.7730706192837693
0.7122428514526463
-0.6101353357997364
-0.4281890618317746
-0.24723035483226222
-0.03933380098155574
-0.40471224660972605
-0.4020242706774833
-0.5032358056415186
0.30732374163286724
-1.0323009837162984
0.7496522162770864
-1.5775819226064496
1.0106344179114397
-0.9274690242455533
0.4073860449256686
-0.23000847590246726
0.3331302449011493
1.00141284569427
0.33074453998561526
-0.5413522412248647
0.9787924707786179
0.7848854517170184
0.2706913188605717
-0.6493272739839534
-0.3918793554267167
0.6537917818942757
-0.47021683181415325
0.004453977427866986
-0.3202834678961385
-1.028894430392265
-0.42711838732875657
0.8384802593972779
-0.7878162601016252
0.6240835283912317
1.5765850371965786
-0.8499358194477946
-0.0325159952783201
0.2756271900217389
0.09471962514102446
1.750351319463465
-1.0593651868168095
-1.9959191230089532
-0.009517891581570759
0.9496032525416669
0.6278249627561417
1.2070943459126873
-0.9797373181153237
0.5823949345388058
1.0599357074118394
-1.3131630529444578
0.40846470195217527
0.3048906942335097
-0.4443338011802959
-0.3585069326989869
0.777396376963835
-0.4053511406151094
0.6606627325391013
0.08167324396336277
-0.9226610794322098
1.7930127522027202
-1.17532109931004
1.4411613274329005
-0.5138455352041195
-0.8333969297009913
-0.5088408021917602
-1.026368793990808
0.12209590747759161
0.653094831833448
0.9861142711226191
0.6678176727957079
0.42371055246005274
-0.8941130747767746
0.3625629658953765
-0.6027179279106039
0.16504464316635145
1.3685830710418925
1.1302867126211535
-0.20025360574867562
-2.0796950544880812
0.3051477830797617
1.0613078550051838
1.4351244756333836
0.1621514685795795
-0.5186672721821669
0.18465715456173054
-1.0274931319516492
-0.29565915466296494
-0.4883114487039994
-0.12276853820236393
2.0642264146366345
1.9108401324400712
-1.1291374815360324
0.5868481709911538
-0.22928621383267542
1.137281910304525
-2.0550744119052946
-1.083079602628099
-0.26074094086275723
-0.28338154468198384
-0.664145978002899
