0.48550489887393194
-1.2624049853664543
-0.3093958020508234
1.1418516500223996
-1.1301791691527103
-0.8337137015955027
-1.682237470253829
1.7693201750383951
0.7425161575477797
-0.9442180437966672
1.2514254243324767
-0.3984810369199028
0.5581967272048459
1.420963252194065
2.1962332912779834
0.29327682685992434
-0.7005978156436387
-0.8812682237845111
-0.35155260901788615
0.11058723759999345
0.49031912387005455
2.0940869768391734
1.8871876781136983
0.2568916875783319
1.6167633557808978
-0.1551409390391894
-1.0825651829433502
-2.3163404071577993
4.047850966396453
0.439203968857223
0.6722218156480843
1.5055223756519798
1.820793479020984
2.4315530508737124
1.1089330964837567
0.5898181978246723
-1.2008118882121808
-2.5942830378568176
-0.7774182649871095
0.9453777508943787
-0.0020848909456974546
-1.0874929185248436
0.7758814448523635
-0.13538024172070318
-2.3972591307293056
-0.09872364427690938
3.1781449961713077
-0.03179256764182461
0.2991021185492623
1.4080469026031344
-0.7814957616011419
-0.5573388293909959
-0.7947979431012274
-0.4336998107334255
-1.3559322712774236
-0.05677544784112381
1.1705829995628194
-0.7963026938159559
-0.9309635026331659
1.945538641791059
-0.2509154239839602
-1.2836824368862456
-0.597139506234623
-4.874457736546566
-0.686771802788897
-1.7577742203526263
-3.2263688030424356
-2.1198446095956665
-1.9497236428174578
1.5821636133336945
2.379847188454947
-0.43154520198525576
-0.047618626861777785
-0.5638837642620745
1.6468929231202887
0.5185195768971047
2.2761318991994806
-3.823178233055374
-3.9421903158564433
-0.607553128515819
0.50466381269051
0.6125479441474391
-1.3128233508126461
2.128858742902275
-1.407366640422886
-2.3605850115462097
-1.0234775293046134
-1.0934776840990237
-1.289739343871522
0.2727758955159592
-0.7541460580598333
-1.5259279962079462
-1.9769675379521159
0.5386448433159071
0.5535829139307592
-0.21072141662884858
-0.17816562332580865
0.16326988081252772
0.5485713974115811
0.36397077785073917
0.7336321152448476
-0.4376459964935144
0.44102027467433774
1.3409233554845348
-0.33361606315228404
1.6822689762496994
-1.1386635230935673
-0.3867087200006239
-2.049664268427087
0.06204019080456867
-1.4898906994283123
0.3269850660715229
1.0223468538152456
-1.7014188190061512
0.6346159180454821
0.8707349273273414
5.32329099181754
0.4878606143300075
-0.36204980776763335
-0.9206319757375291
0.4807190176387876
0.7857647131906018
-0.1635102621063489
-2.4798075379781026
3.427282926319465
-1.3689624683872512
-2.6754903327974304
0.6803296011741635
0.13938825560093482
-0.7602287643776992
0.40092024572702184
-0.3192619672030821
-1.0465541625127828
-1.2821902322434182
-2.990710414090305
-0.6390172074957581
-2.2522610333735034
-0.19377655925958215
0.44544736247623506
-1.7540434081653207
0.2502581369482312
-0.06223275440004468
-0.737567710548183
-1.2119516123620495
0.23737671770131405
1.0986314524938947
-0.14697218973149465
-2.598401602429373
-0.5213526029200959
0.03059230305424181
0.8943404705944955
-0.45487924515605715
2.264595744929312
0.9197226782748721
-1.7770944277562293
1.4521891374283804
0.6664806811610878
-2.2478235754371165
1.965688117004383
-3.125146585072199
2.556845203109566
-0.9754926286407585
-0.2509109869306495
0.18026341695394468
-1.1539736543531578
1.653349754242657
2.022585732779069
0.8803472341574032
-0.6262343734012404
2.2020311854527
0.8736976586423941
0.7755566082738288
0.5631097087362859
-2.859955059956489
-2.6242779465941495
-5.246711030754055
0.10122248233490927
3.200997882583288
-0.957436397416837
-0.26497495491007106
-0.3896159133102795
-0.018623928351281765
-0.9441060267874095
1.5991974041293835
1.5143351280450112
-0.8638181358903795
-0.037642048624015705
-1.4352558152446708
0.9006758008598108
1.6488355508048729
0.40666090474410743
0.7692731165373539
-1.8955731624917018
0.19398152777693325
1.3406464828149647
-0.48651286291540136
0.7895763400797546
0.5001961538953152
1.0287681786215985
0.5035094049252195
-1.1114394046454457
0.037369478220978164
-2.2076578471167325
0.2334604654375401
1.6268291545662381
0.4352750009445446
-2.000553061050208
2.292997417797182
1.1831178825441884
-2.715457313454515
-0.5046723169135163
1.0369399631103184
-1.4483566787431843
1.0178315799998117
2.814264296577992
-3.1880663568207814
-3.334232534761517
1.9480162771233678
0.8250105027820556
-0.5656747065195891
1.3495002897658976
0.1424900259549511
-2.9711120889738
4.793671074275584
0.032601176776999745
-1.1190756150590524
1.9347129291177474
3.3772233246687557
0.9490652213808175
0.039808575993831564
0.3488090816950639
-1.8897355783849346
1.2167793914990193
-0.7783333263110578
0.45208752718931305
1.0555483594274897
-0.3587826972270866
0.16915010453518312
0.8282647647299772
1.8782827559350652
0.5522773793121866
0.744514146485673
0.7622646574965508
-0.08675243315881984
-1.8099414140465853
0.047768192850585305
-0.1910984169681216
-0.08827703341395918
0.9069444085498284
1.7430778409457044
-0.11174075219789999
0.34903225382825853
-1.1167410062221592
0.8265130117704486
0.1792892217610227
2.357016645882733
-0.8323668444739263
0.3443991097997446
-2.3000093758034756
1.9065816274008525
-0.16083522666078917
0.9383475491309407
-0.5518969537253333
-2.913395960386739
-3.578645080572808
4.122728349477244
-0.24688151271743725
-1.5457348611216455
-0.11570856657761135
0.868551116175681
0.6297160108173071
-2.332800882468254
0.7622285940522282
1.036153275661885
1.2225449756768578
-1.0625502306318473
-1.1341790277456165
-0.425206625424679
0.65952065873416
0.06216248232484117
4.113117537240027
-2.9834140657241246
-0.4571948151432884
-0.8133323660618301
0.2006804273653643
-0.03242103156389846
-0.10894490730883126
-1.2707172953404051
1.3456701414336283
0.8238549861555625
-0.2272299114531438
-1.197297984233599
-0.7809321664315217
-1.224912454591066
-2.22120023693245
0.2952003387635404
0.3947748773716937
1.471813522787785
0.8857875407064806
-1.4336336451747493
0.6667816295342078
0.1047407225266449
-2.116265187359662
-0.34535332672733526
0.9146975713312046
-1.2716829659898208
1.3020547062224428
1.314591441488828
1.4642045444133855
1.1166746827725538
0.9672197430955417
-1.4876607403344198
1.1549426376805405
0.3518923018482547
-0.29412330223032535
-0.45351201660205986
0.24350391037147912
-0.2879510302416776
-0.46206800565017925
1.1376034212517747
-2.0090670157998587
-0.24492169273463435
-0.6386479511127348
-0.40750094265246173
2.4773308768092086
-0.92081099156654
-0.829825922500197
-2.0740632063475406
0.10986294967491038
-0.9937741442668366
-1.954526703687305
1.3983316756665127
-1.0710923777601864
0.03590985093049644
-0.6801644483281442
1.1016398283369158
0.480348613971085
-0.24940704415845216
1.4707788781129318
-0.8111911791206323
0.8448458500337744
-1.6539475227346063
-1.7060589202833525
1.7392838463968032
-1.1570406355563343
-0.06747708797402506
0.1378189250244065
-0.726540658267735
0.8318059662575958
0.3959830963491852
1.9771377247603406
-0.8355759513470955
-1.0438636607026182
0.23428093741097844
-0.06897827823729619
0.1072547947974398
0.008329722059835407
-1.0314866588430804
-1.166204715201365
-0.9273079381198462
-1.6917345100686874
-2.379040702005996
0.265490488326623
2.3720738047640584
3.146658496371556
-3.8515777787916994
-0.2747113002731757
0.6417310638137267
-0.14771287454926854
-1.2209631170709558
3.358695969359588
3.2577562202238544
-0.789264371743079
-2.3976783751055466
-0.4784681620134832
-0.42877182365686667
-0.11585687155407533
-2.5034278878539453
-1.8548560540451096
2.064476750431602
3.178556029164121
0.7014536303039735
0.8317490887511623
0.46243334968374483
0.3903104431263065
0.6487456937326351
1.1720199527717303
-0.6945497812524792
-0.02464018845497584
0.1860561009816116
1.59386625959192
0.43025325043705354
0.5091727442024414
0.9239807499656418
0.5111656229392557
-0.42162655204998106
-0.093190245433971
0.8780105102532396
-0.016937826040333257
2.1288512017744177
0.05855550687679504
1.9098256640384468
-1.4499147532275074
-1.2088828903838382
0.8310877463031565
0.07080607867795519
0.8827358609297271
-1.0441122986578206
-1.0027604137543287
-0.07015552516033564
-1.7180782002041473
1.7955343502020764
4.391476648558512
-4.556394376002158
-1.0746336491823896
-0.06523977064417666
1.0755931145184783
0.44654707712772596
-2.6745925028155764
3.0801448707116554
0.37844220415281904
-1.4206018609932098
-1.412930748263231
0.925639677596774
0.5976170934098317
-0.7287237762562571
-2.2452864526059115
-1.2572148294548149
0.5862793824736106
2.075516716271748
-3.071428716695029
0.18224588065451444
-0.1737673484664181
-0.28768103749888635
3.2816849073185828
2.6042745119023656
-2.588548202557521
0.261650127587644
-0.0124224506651335
-0.7184029229788883
0.7935285855913569
0.8311430430910399
-0.30479753579993135
1.2361215418781561
1.5099525848481692
1.1679994158469578
-1.6820875184558295
0.05815742958719852
-0.822459115135668
0.6723773995850761
1.34157304408589
-1.055488549710982
-0.349742634017005
2.8771848436747707
0.4334510171421886
1.0650155711332143
1.581565727159894
-3.535091469201338
-0.29131242618949116
0.009218481659798255
0.685332586970555
-0.24024824132274625
1.7812184816518535
-1.2166747890715985
0.7683037624213145
1.891440677005152
0.46667249337292155
-0.7387987270282045
1.6058209614014023
-0.3561329611212881
2.5890893575703418
1.1151030566203926
0.44872533056140096
0.8477646532905978
-0.4859861665166076
2.070157757041318
-1.1039953755406877
3.1847234261517463
-1.175995418662272
-0.11969276313761568
-0.25025307194882607
-0.6006240394000103
-1.1926986300682805
-0.15715808216042476
0.9864005904351131
-0.7067124970747717
0.693721998933233
0.2154941657867272
-0.9370986868717864
-0.35168085712647357
-0.6285946703557312
0.6398045941055822
-0.8870625100322493
-1.3741165070314545
-1.0341932149354005
0.16673282339083906
-0.9131508061282608
1.1665395648096089
0.7467065035543937
-0.6949865265181828
2.2165325458380662
-1.2416677225501995
-1.2384477304440995
-0.06173676504895378
-0.19123694874481068
-0.8460773934528187
0.3520953909949464
-0.997405619482754
0.2878830767448032
-0.9886670538332133
0.49837105567140977
-2.788028400629896
-1.2036887715235138
1.8927541182292758
-0.20878707374888897
-0.8854619059670666
3.249259732659309
3.2005860723179373
-0.5044547947624146
3.3153736456652823
0.7168096163276862
-0.524353372813494
1.0122506939309563
-1.0906574935463131
-2.636480613253077
0.7510733118031968
0.1909212543674588
-0.9115499607207975
1.765723066973466
-0.9073617114461666
-0.3956950008587043
-0.2115335645864286
1.7946946349471338
-1.3235439833457057
-0.6692107173387958
-1.6869443091823075
0.5892856663925122
0.09628549447811097
-1.4733705254452532
-0.3707024234856174
-0.6365149425252167
-8.922980990655158E-4
0.287858446265574
-0.4880719340691944
1.311010085959811
1.97425814009605
1.2389982320225914
0.331318437254001
-0.6671283623137224
-0.136144182132636
-2.4626721599948693
4.014002525141532
-0.6783496849218855
-0.14053366957307817
0.3593194257386885
-0.8908877418638798
-0.21494633143130276
0.8366276183583266
-3.2832709039900423
-0.4071509587150624
2.0956626156876665
-0.8094151229756088
-0.6892886018436867
-0.786243656302585
-0.45128791551309955
-0.372660509306807
0.47591091797856483
1.007510966872936
-3.651318781839415
0.3220113301773253
-0.6417605528859458
0.21423661921208523
-0.44998716062006316
-1.420872495681434
-0.26356858736962085
-0.6606855040068657
-2.1031566177294563
1.595382874402586
0.7371745143688687
0.8251935089301424
-1.3372903591361398
0.09494513943307097
-1.0879661206659987
-0.3903462424894589
1.201285649489115
1.2704355915449825
1.253035710471888
-1.8178905927888065
1.7199614540198092
0.6387015244570895
0.24285574424470233
-0.7124528685000155
0.7762863864708165
0.8144009041052063
-0.022918121166243442
-0.3548535003360631
1.4610031309863618
-2.048240380980979
3.526808146942089
0.9383078488100985
0.7211348284800317
1.1660814859053752
-1.2657056750390876
-1.2833812331079588
-1.5990627744308894
-0.03749334198488057
-2.517810610066768
-0.7769809039235744
-2.6969039553179415
-2.479189028782156
-0.7169292726939361
-0.9185481141306479
-1.8153695781776324
-0.7622775828834971
-0.8980916740244981
-0.07367752014436382
-2.2750007843371325
0.7650853167824581
-1.578461258917022
0.4796182536505425
-0.11918555430466311
-0.35713033163499736
-0.2354719505980444
1.3754721784801502
-1.3376798824859375
-1.283915452933541
-0.2244218677959672
0.2618440211902117
0.22107838727864026
-0.08907027297500125
0.05388196916401688
-0.5589583792576407
-0.4137011108426701
-0.16085936046433416
1.925715515679357
-0.14161920945317086
0.6069308340929834
-0.9410302599715709
2.732914256873615
-0.11600348301247658
-0.46633665010323067
-0.6707168738646108
-0.5219682422467296
-1.2560553984232703
-3.336590767748966E-4
-0.3586187591682821
0.017468289524743084
2.6942944015612245
2.017317700586038
3.1608776297917833
-0.15212204747036565
-2.091564499974969
1.385292900088185
0.46981683201241353
-2.1803913426567014
-0.2714109341882689
-2.035246009510821
-1.0292805066546067
-3.738637342599202
0.8490417479314066
0.4315367478215882
-1.0681407482304894
-0.6360254212912497
-0.4930926455177471
0.07822544925572786
2.8074984762494224
-4.48586400107697
1.1413077601324506
-1.2058801241436945
0.7532170979028333
-0.3243823658980464
0.8117281295323764
3.9648766449954813
3.5332088513398743
0.5963266848655074
1.0729284674167086
-0.4966074868160101
0.36232216039678533
-1.1369856148754363
0.8482791363525756
-4.312020335246192
1.0049168845428138
-0.6042607164309538
-1.9974144496765391
0.12984466127176397
-0.5769535858924495
0.9015040707249713
0.6214837256247299
-1.8370085285937374
0.3747867052545019
-0.31168020199175506
0.10826217371877796
-0.3895103644544904
-0.818573780238196
0.3529613755788106
-0.23484635285801156
-0.6991587403151877
-0.12561456833158818
-0.32315604890873934
1.0009840557525027
-0.9313488236446423
0.09142877930508268
-1.3018321611642274
-0.09217618413802224
-2.629417371487143
0.37441523545420446
-3.9498687073354075
3.5726409529837437
-2.104585400253855
-0.6271668434339331
1.1205203747582153
-0.24781372859890954
-1.2455602153797367
-1.339042762001232
-3.6722307645854846
-0.08420057470490405
-0.33221403607487493
-0.9167491494708825
0.9266308989091397
-0.227295295755977
-1.492513781764803
0.2978938014452702
0.9563965314323675
0.9207244305408558
-0.6132665945338932
2.541753986019114
-1.6026749171507446
0.23135363828104757
0.3743706531229359
-1.0366811374679277
3.2695271406975066
-0.2324670152777534
0.24200009011947068
0.4725641424093893
0.6800117880426193
1.2149923464331354
0.33913431415539386
-0.02677944906548061
0.3391623353648403
0.9132571952482698
0.11829393944231771
1.213009926641302
-1.9392355622219672
-0.4308871230744592
0.5803810863231149
-2.6169818286543807
2.3653056621304214
3.141850795336968
1.576017634500124
1.5299837079238228
-0.44161641572129673
-0.29976004273971424
1.0032166807189389
-1.7335498359190455
0.22085375327522255
-2.483399469030983
-0.004217641866440322
0.8762637479933532
-0.0354574413474721
0.5747649270186035
0.2967942294781486
1.0222418557842305
-0.5123684672276521
-0.8453606012028362
-0.8200182807793324
-0.5254083017942383
-0.20141328880095202
0.19520355645137286
1.4718347022265066
-2.7979890130901564
0.904840495820493
-1.783932396174286
0.2883755411832699
-0.7268665970633567
0.2388387345446434
-0.12908187733998816
-0.6428569520562883
1.533150306488633
-0.1734748376746199
0.3717702687240266
0.48109734142791005
-1.1642541727638038
-0.43604575271395185
0.01899230280465025
1.675667602152053
0.4050430672139798
-1.7630222652004128
-0.17078091121848468
1.4463385038243954
0.10420063175645426
-0.7828069547537885
-0.7030223667821123
0.22129003674084036
-0.5861321217841134
-1.1635903935120129
0.26482643023891483
0.02362113756477722
-0.8882967057652001
-1.6317305183158357
1.0904899373338166
1.3131208311872644
0.4693600575515927
0.24004298272399513
-3.1888724188635242
-2.8096047237344006
-0.8715027663401904
-0.1971028959848903
0.21803895842032384
0.2456655227667817
1.6139903593471214
0.7046586171254586
-1.5355850890937162
5.0677949513925284
-0.834231769639447
-0.31636896755769495
-0.9669939529757992
1.516055116424946
0.8047087652991822
-0.15723100369686185
2.972589709256253
-2.179679631282784
-2.5137039404482233
2.6941480373864732
1.842784289776484
-1.215006681270063
0.053500782468936546
-0.7368830520445916
-4.332477268539736
-2.0305428160996244
-0.7823988351008974
-0.8200416264479019
0.5245059886456032
0.22227864691733687
-0.3081829959686459
-1.8709518544827792
-1.381306333492372
1.5133069330556608
0.922153856855161
0.5729557083556456
-0.8842892125589606
-0.3413597024618006
1.2632367517608913
-0.4404104211688126
-1.1508187691752199
4.944388702630191
1.5151116504275808
-0.31764491422330415
1.9894876068939504
0.46529082567224217
2.086738791411572
-0.5617875457753624
0.559637102569792
-0.7548737988299378
3.341996195562276
-1.8524851945807437
0.5556694695366624
0.7173353122174237
0.3351428111151453
0.3960155672852878
-2.157547986941183
-3.1747116823500465
-3.5435986498138305
-0.6789991504806908
0.2628883926328399
0.9883058961251576
0.5519198149249743
-0.7716974998189743
1.975827971040657
3.028373344707324
3.2261619612341996
1.234901371438605
3.60110026877546
-0.6647717883348591
-0.886462295771408
1.5671911879277645
0.8650660317781989
0.6076262634209874
1.3164290773997818
1.2964578765960202
-0.40767979485933187
1.4759417826259495
-0.21949806087653992
1.3223472369354008
-0.4802046618384207
0.65828613591995
-0.1298148308274454
-0.0021199219670232075
1.0904834663366934
0.29344992311190393
-2.0224667764727866
-2.2934431490305105
-1.2361126075808995
0.3356663867447586
0.5268997520486961
1.0399250951628407
1.0157492817452882
2.8789187229592814
0.7623671584832165
-1.103324979366779
0.30362725308807037
1.5553011770526581
1.4297979448942648
-2.473518638958294
-0.4791631522858263
-1.5463303641291457
0.14984088577893792
-0.35045306058233827
-1.5875894092105554
0.42167280528153644
3.4056474050134686
-3.648609212176719
-2.6479033985061147
1.9827974437002054
-0.5487696385292808
0.6266511808641211
0.05535783590780746
-1.009240220827494
0.2847247771073538
0.3984166656622652
2.4615544022943068
0.3744164255038911
-0.7141556483430712
0.08042517153338256
-1.6434154681589637
2.0519802844358823
-3.4639432027581547
0.45693092490459647
0.6296663674865166
-0.28820228939050563
0.5291752893599269
0.8100729333363765
-2.087570560920763
1.8240203069758805
0.05557275044275481
1.6225813411629846
0.3345887892942712
0.6920927306234517
-1.521724456998025
0.654602569403926
1.0013488599569798
0.9641443999580036
-0.33804054427473046
-0.7668245037994398
1.720454027225742
-1.8379292813144872
-0.9024447823374482
-1.048848939035552
-0.631668070645435
1.1886552399419463
-0.06670609797313343
-0.9467698732408085
-1.3007407684580106
2.7574028247355096
-1.0929828665081534
-0.29853972929316375
-0.5505793624226633
0.21749552776618125
-2.262470816378094
-0.5058199016508061
3.4494683401248896
2.770875183671052
-1.3480356154162152
-0.05904036546284557
0.8054009411568325
-2.5385797775170573
-1.923087852607721
0.816435778810868
1.092024944038697
-0.16954431994783892
-1.486238298779662
0.6783471159627551
0.6797396870774477
1.637242129913819
-2.892776394125012
-0.7218846582915901
-0.8488862645388587
1.0674937903308697
-0.3310257486747452
0.3677867311990706
1.0600212495225518
-0.48950048991886314
-1.5778977645954766
-2.291856965098414
0.4462852710124585
-1.3010246197654134
-1.9791155492705654
1.2371695609424787
-0.3806263441370982
0.1400590071465016
0.01222680697315461
-0.8340590206411223
4.0498209297481385
2.432816727144469
2.7772280545323857
-1.3463630058456306
-0.6967986381921943
-0.25990368131939673
0.14561932706886507
3.1329813057525584
-1.3371607175553557
-5.146030405333112
-0.9468209557532711
-0.3964806950918058
0.12115410631602962
0.7781375883259607
0.6679945698755703
-4.016496610253326
-0.35910501362460595
4.723762969723665
-1.9309871778686227
-1.7909926679735457
-0.3876865554760485
0.12362203687081641
0.25098696812782584
-0.3453884714990173
-0.5550913635532344
0.7784060863648796
-0.3522910600057114
2.357598910349131
-1.290972091212033
-1.7653268440256225
0.2099689534370168
0.49412697808293604
-3.2418687671820567
0.3454426680515631
-0.02646701359838209
-0.6049005495964335
-0.31871527693203733
0.12916033278498754
-0.14283927972024568
1.7970848746773376
0.7920475043790048
-1.1179978071221484
0.12710792829698941
0.7241662040605022
0.2100579202091109
0.14015153732377608
-0.25900070641239736
0.2532730734908066
0.6985396126010598
1.5319526613808676
2.6087187132550134
-2.330391719961758
2.1639469173893184
0.8268608059170204
-0.2107792986756232
-1.0179886745716817
1.7049816967341394
1.9081640996935927
0.19816192066902374
-0.5066598799284986
1.7598232310874125
0.8525651951893126
0.06750811669422277
1.058562333682044
-0.19415772264290462
-0.5330025420033879
0.06536068274829641
-2.419036802471183
-0.7156226418341781
1.0860399334992907
0.1410088470692582
-1.167022035069918
3.499461492984428
1.167248315667823
0.6819617707860126
-1.7330253687255521
2.022329163037752
-0.8206658024909295
0.6940377824663047
0.024201476360068894
-0.14836393111545118
-0.7323884182472322
-1.1228674175242535
-1.216875419748686
-0.3959592796652256
-0.6147824815711938
-0.036327145993191465
-0.2815673883506173
-0.44379731508155873
-0.9944556497293874
1.048992388117393
0.6566885814973097
0.20595784563893052
1.9325784464952067
-0.29826518593285045
1.5957302055453637
0.5284409457484108
2.290978861247663
0.8001243326822153
-4.036419983113519
-4.070992822532295
-2.0016017412203
1.5177279599373927
-0.48270848780391634
0.15238969531921404
0.7363447335140275
2.079769765146852
1.6110219080594435
0.7775259467598284
-0.052328032486946785
-0.6739742843429019
-0.1994619361080297
0.09839699240461543
-4.615990824875477
-3.2351931648246306
-3.3769750638505003
5.942315699697941
-0.7329970959183096
0.636644954245808
1.2205177603465553
-1.917094523005716
-0.7009847782870609
0.16512607405738974
-1.423256103840369
-0.49220391232041133
4.274070031408863
-0.7328471204368187
0.3312519954534755
-1.4553359306638889
-2.2391909576943294
4.459168913278629
2.9030855040362855
-0.26844357272041425
2.5626243532762203
-2.8893974940675347
-0.7499828416294135
-0.7452470477161026
-0.7767901050051875
-1.3287680457335644
0.7237749489937019
-0.7442007459972971
-0.5889951597399561
-0.7720716918189562
2.109166767633156
-1.8184651248687322
0.6556338254749442
-0.736997030377871
-0.8835680639704007
0.9069394810596753
-1.9684162708014805
-1.6031348637680118
-0.6468725663179138
-1.0694838619419305
0.197894089133067
-2.9622489967534014
2.686313200830474
-0.00862730158124136
-2.075574745108662
-2.057623072323062
1.0754997027095774
0.4340917391466491
-2.188014232731616
-2.8641640992156834
1.2741531537176394
1.2428190093368963
-1.1680733528672254
0.17832915814384245
-1.158695753135804
1.264128658165476
-0.5124656040687399
0.24228205928574892
0.04339884347679993
-1.4054640173210713
2.9953517018204576
0.6255649981243433
-0.5869816487454822
-0.5748689862505325
1.9320234194409294
1.1285525478764256
-0.5238577745555477
-0.8483062304256926
-1.0722113256858627
1.4593711547430517
-0.2898696864247444
-0.8908814108258502
1.3027941595371677
-0.7841067183632716
0.0035249252695757696
-0.7618670015587345
-1.2333477827706254
0.26033248028864875
-0.9827613343848473
-2.207697030952923
0.9333937540828767
-1.1701503945125553
0.2623647466154313
-3.9086533396079735
-2.069077733732506
-0.5752501262061369
-0.10736251291829699
-0.23276001060436236
0.9634068239791391
-1.4870109359274193
0.4595756395482694
1.7578712694906853
2.430045651729328
1.4298673331607472
-1.5817660295262432
0.7987638384324688
0.2898900054063506
-0.7681219390579519
-2.348747434865736
-0.24987075729054897
-0.8850770359424128
-2.6302860584083234
-2.6353305100666993
-0.6922109622195843
-0.16288109327234218
-0.15810373560671728
-1.1625460022919942
1.0344806751179718
0.029993787592109387
-2.994606345758407
-0.47629420764727465
-0.5000842992412781
0.19424104486781957
0.551537169575778
-2.646085560150725
1.7872410891277992
2.288538524360083
1.6515325835920793
1.9815420884952477
-0.6280850868137297
1.4236738428631561
0.3092629958430635
0.6622006495989015
1.4218552415415704
-0.08443572109864404
-0.19206197635996397
1.123398434328035
0.17023719267755044
0.7850372773846366
1.3563868940125299
1.0914828169938595
-0.39007333690192664
0.2992621220618202
0.8499246072245648
0.367764772982567
-0.8022474880586093
-1.032889246076479
-0.5133727935647662
-0.09296236294171291
-0.2475798807605833
2.4100210831806765
2.277110978531806
-1.188588442711926
1.332623284771666
-0.964619066265903
0.5239615312772536
-1.8560580047852178
4.81938227448546
0.368549517581518
-2.528474863482693
1.0841325868598857
-0.8519327812103287
1.007494899508687
-1.3903380318117926
0.3283885617854505
-1.1662460343487762
-2.488884530159561
-0.9560406276384362
-2.2497715695055738
0.728352619352398
-0.5158890268574727
2.237265950764811
-0.049346916986779704
1.4333486350818618
-2.24391714483599
-0.949632927760514
0.6756713048581233
-0.052144895399785805
1.0083516735388467
-0.24606155717567954
1.77251280472416
-1.0465174973832052
-2.456581896952354
-1.4152372548805836
7.956610242232438E-4
0.8142501688326246
0.7551749568366783
2.494723527053843
-0.5530847843790417
-0.8317109995494627
0.4769961606663397
-3.308625394790767
-0.03130518825905477
-3.3064593342226667
-2.309769101306362
-1.041548637100014
1.1538929828342601
-0.02465754051986869
-0.45234150256739875
-1.625985762046357
-2.4326713181415487
-2.580196812234568
2.871344313236211
0.9251035161317769
-1.3814539638595924
-0.462611774647825
3.000886118921001
0.46789412667506963
4.431288600291922
0.45351691770571484
0.5477720864146555
0.20061459483450433
-0.4187152342799326
1.1493036787669504
2.4993969996168146
-2.234224878415202
0.9584710864427809
-0.24045985990078317
-1.562540063841352
0.30627747296821944
0.13724679131606454
-1.6318705374166234
0.41483543250471744
-2.927171238584914
1.792456913888055
0.20033454742191875
-0.6750373594747029
0.6470057115205938
2.3269459344726866
-0.3466480374760671
-0.4108561568489611
0.7029305523903394
-2.711586186035847
-0.5543219730170752
0.13781556635612255
-1.7421300037277545
1.019117694938574
-0.7886884394110123
0.27553885933277283
-1.2733943259856346
-0.046818924735914494
0.08711059624371849
-0.012860298254386742
-0.7405762074026531
-0.26999673199948565
0.9508559364841532
0.08892360970773014
2.816117464525769
2.64050943168109
1.0556617652876161
2.5265446066626387
2.4280954945991806
0.28278483779649694
0.021116729586674717
1.7660929914950194
-2.529235280838236
-0.06845038659949815
-0.29102074525544575
-3.4924016150488524
1.9843450078112663
-0.22833528958272845
-0.43980583587613215
-0.45558160997335617
0.5468382242033797
-1.1485899614993602
0.6874605389693121
2.3056496157279027
-1.0311067269899354
0.2584796993994571
-0.48490862432500703
-0.7168267152682218
-0.6298148514254858
0.2495430996391832
0.6674277617166796
0.5960907339040779
-0.6309394264941663
0.4116736892160944
-0.22598110843685637
0.1057135817862463
-0.44724443381990336
0.6285738199092419
0.15913565321818987
-0.15958849984778484
-0.25975712206229784
-0.1293008419532605
0.3994269438398019
-0.7145376186668652
0.1308267968036258
-1.4771891837352213
0.9929240240282323
0.9427800925472821
1.3473574164026862
0.00237959829996073
-1.269146506684334
0.03367963756082973
0.57609451299201
3.2258849899987907
-1.1371232470599106
0.621461138790831
0.4589187547952577
-2.0796326208976397
1.7172487418607427
0.2729764493027294
-0.47738216233799563
1.7788025522507107
0.9953336633993787
2.2165063631284556
-2.1166971802970886
-0.22458966943510345
0.9120326494547113
-0.14156653254282242
-0.19712262512854306
-0.3313625981919076
-2.355624996808677
-0.7549773042660004
-0.37766976142145536
-0.4901776077051269
-0.2102375493215316
0.2787893621897687
-0.2469775315996571
0.41273161050805
-1.5732142259456365
1.743905742733408
1.3504459821809167
0.8263193920945985
-0.7429064661926992
0.12544268834757824
0.10855632804241053
-0.4360706551767614
1.2793212193360899
-0.88945813330615
0.10217408754974411
0.822410439448168
0.8543921975396532
1.3862956056973332
-0.3501935308584266
0.9183518467558737
-0.6731784016343261
-0.5815184806951328
0.7267180546953075
-1.9743817893493532
1.3207810083017264
-0.12444173698897751
-0.6821846259886616
0.15490341973153246
0.8929353180991323
1.1894968475977445
-1.7738351550828748
2.8062738645880665
1.6246097954687393
-2.2076318646249113
1.300438606481054
-0.2603410247807478
-0.36643510443950084
3.168575993162746
2.423992052317339
-1.3796105191966495
-3.1838136930285375
0.8983031229032472
-0.39164676437362905
-0.5105350481511504
-3.993261372291934
-0.8433498197322583
-5.03382062494965
0.3382141181910807
-0.593246382365744
-1.1234350755319633
0.36152187275488357
1.0021106823440495
0.9290985779474743
1.0003133235879493
0.8739259911930155
-0.965365541715982
1.5510833277345226
0.6965618367628701
1.1317205010704898
0.3552727758034503
0.18195663172602153
-1.0218249771607386
0.14723575934406966
-0.48405032482115057
1.3063372371127975
0.3178614638417052
-0.3384375684273089
-0.7002225243837052
-0.19792534582086369
1.5357587854683505
0.6748625296641496
-2.5856584165829735
0.5559767559298759
-0.8043969766744987
-0.12319861727550209
-0.9719050184798661
-0.07115971884392137
0.5952105004334467
-3.9942664781455375
2.972264720999242
-4.852419242937171
-0.22536449799699368
-1.0457607585230193
-0.9449384551776828
0.12588733098891766
-1.5954964572467054
-0.3342826104969876
2.96594811755792
-4.029624276107074
-1.8211512788026665
-0.3501630458323187
-0.44406190210571345
-0.1394921427737512
-2.7655188749869057
1.3236625734205818
1.7401541464312094
-2.069430258956969
1.217775051896754
0.976677366404624
-0.9985675890623966
1.1955655147374467
1.790190042299731
-4.3077522422021755
1.3107002909714713
-0.013394228502868045
-2.180730139877886
-1.7391359495450125
-0.20282237564447092
-0.3071080840495721
-1.3062836198123133
-0.5997727246420657
0.565863065645252
1.2680786527794654
-0.2805355592268358
0.03600378009240133
-1.1277310695752565
0.9178050151665195
-1.180128540572349
1.1508667358284894
-1.7868184760332442
2.533772224645059
-0.3594251335522955
-1.4016640557261697
-0.39401265936051805
-1.4041322967805694
1.2409142800227604
1.1098367139253829
-1.3892977285111165
0.16453389198291526
3.6826237261066646
-1.7292347976135183
1.1074634021632541
0.6167471044848849
0.9630557130662194
0.6032007455374541
-0.7765255193693402
-1.845320569037601
1.0086489976062851
2.5785466368700822
-0.8386952838230836
-1.1729063986010717
-0.6432328456436897
1.4892430273490027
-1.097034888801821
1.21513369552895
2.081280492061414
1.7042439598244985
0.3077958660584868
-0.1736488121019257
0.3596602417921511
0.5566489139889399
-1.4239462367256945
1.8618774423689906
1.6183060738647055
1.9638546785150965
0.7926336335760664
0.5105895914895144
-0.5474004038507163
2.935825901720913
0.7183398559353745
0.23524305310129423
-4.920271809761135
0.2218115080618064
-1.5318686013951237
-1.7297230813073357
0.9069783181934238
-1.6285885985705784
-0.5529016046877905
-1.7232291734182068
1.0821797897740255
-1.097943527885082
-2.6650177678794584
-0.7446865693936828
0.6344769407166626
-0.2603390174051807
-1.1038641023084703
0.09911299586599964
0.024509276336955658
-2.071507537709325
1.5389152173173242
-3.0579757479531637
-0.036842471536112684
0.9909344299328925
1.9347043135132782
-1.9743695270984554
-1.6786325021745307
-2.145644368269767
-2.0850535784777717
0.0272688884477458
