-0.10955303488178504
-1.862913206694047
-2.779849437597806
1.4572469903045582
-2.599767472132841
-0.03449395495309524
-1.9995464701228565
-2.151944168537073
-1.7069619222990164
1.0614690836264047
-2.14579463504527
1.390021519364912
0.8327034585695522
2.1199338096082827
1.8257758916806697
-1.842465259385439
-1.4354768723235234
-0.45745218427066653
-0.2404230498957498
0.1466480583752318
1.2600299788578384
-0.9777132051708655
-2.7107101981891852
0.6564221392013041
1.2310731843157057
-1.9327414222785706
2.685032710535578
-3.0613491987713255
-0.38733317249599003
0.43284943877334503
0.4213127862099917
-0.5152582682751013
2.172948502573911
-1.0122200428134565
0.4782030530560625
-0.8156955843286773
-1.5740523106920736
-2.9665349955627143
2.0053221922670486
-0.14019581531389488
3.08812338314092
-0.9412152679442399
-0.8620374413795556
2.06169127187328
1.7552425374910203
0.5971120491469678
0.5773636840802432
-0.9631589112724595
-0.8180391350381763
2.39350891695356
-0.6894772597584976
-1.436916457937808
-1.885068155468997
-3.3635408816263825
0.01511894315604825
1.1773801103999644
1.6595715229684709
0.6721853150274586
-2.2908662390010806
-1.1340363866638943
-0.5662752891880399
1.473188884287289
-2.984776291115917
-0.3638937875673423
-1.1403137202074518
0.8367802805800957
1.0104366990510174
1.1859428477773364
-3.9824503888856784
0.6965584079574723
3.6218223119942925
-1.3968203206189829
-0.4367639673138154
-0.031179780370428845
-0.7303252537049142
-3.6831164763569415
-1.7625810334132994
-0.703242693940432
0.7701940264250479
0.1080154249719839
0.3149048432027586
1.3755828975562534
-1.708427773792762
-3.3120625811510322
1.4918033952552328
0.8177882175485885
-1.5636443115280279
-0.5682294507004801
0.7150679341345016
-0.025199234987860777
-0.2122769253017894
1.147787308526004
-0.5630358359198765
-0.1703769419892337
-0.8465007665271905
-1.4447470235263027
4.59004643455887
-0.10625619484531379
-2.647651774041274
0.1098117694881341
0.24249036929870563
0.28819875450576093
-0.2779711197103451
1.092411662955899
-0.5743491018620357
1.926507738937984
-1.4756270711997361
1.7878611022350879
1.2130730573806596
0.982058018465147
0.6527720173259985
1.3227063445128298
2.34613178930029
-0.9203894878139685
0.023388739421506335
-2.148437583264969
-0.7474436635428323
0.1341074865218138
-0.3204663503040005
-0.9035162110773943
0.6074287800852517
-0.9238253764052701
2.243497829809342
-1.5454843638349598
-1.9797248063129018
0.12791125545053436
-1.506458241188921
-2.1794080350520635
3.2635600606691244
0.5499241757215735
-2.8446445078579905
-0.6605098175961581
-2.514539612636092
-2.9406975424114314
0.7618204402563198
-0.4979351320529463
0.12914053804125902
0.7764548799572836
-3.0484353534317434
2.4202240346653277
2.264697071999273
-1.0356177236263484
0.7985454769265827
1.9763426702621534
1.4874883040764404
-0.4106693240041836
-0.7783855221900107
-1.0834241392129556
0.29170330225068725
-0.029947083354975472
1.1276712394467345
-0.5854127106654257
1.7144627997572737
1.018636215609252
-0.10736104324575953
-2.2738696590766447
0.08751514807266866
-0.13131017482676569
-1.7461132771191585
-0.9676797924794295
-0.08718570949666121
-1.7267001460971028
-0.6065281904122054
0.1996503373197105
2.0136398971134595
-1.3928406721347681
1.322454985508206
2.0066559130665
0.8807283818280169
2.1197554927760445
1.1003883179414982
1.8081237116684288
0.20300269295068105
1.2369148026841554
-0.8527057550228049
0.8455516057226073
0.5750971845565116
-1.3353098049582315
-0.10116447965542863
1.162923807689483
-1.4652971803291612
1.3046081679552326
1.9599062305584751
0.9041579552264982
1.3347030918651086
1.093201826815866
0.4630722179352293
1.6692637912674955
-2.5343053642346627
0.9515427698211847
1.014469303347862
0.14142115242574535
2.560489628688916
1.8956430065465362
0.14578224683311092
-3.154722140092651
2.9697847852365875
2.464912925962156
0.9921714737853035
-0.28377333163806656
-1.6984479768872502
-2.508946064076126
-0.07790229884446753
0.16738323031154637
-2.6384076251202715
0.766185918066847
-0.2125869797528336
2.501583766002277
1.2400574839066356
4.042759920075904
1.7196821697425646
-2.9383381640806054
-0.016578313234380797
-2.0572250798273877
-1.3534462000749596
-0.5613793625944852
-2.3405857460382293
-0.8174044558631032
-0.18049164796445044
-0.9364593804382798
1.0367871972561116
-2.8701221909758057
-0.3765810442036502
0.3875444986147533
1.5029318181746132
0.613221624174567
-0.05268523934110228
0.9735675209032172
-1.684205163249216
2.625855957323528
-1.7283212531166996
0.19603439487805058
-0.6160433174825376
0.9946247426702652
-1.4640274174814818
-1.684394815663222
1.22468363811949
-0.9607491696442786
-0.12936867820089895
-2.0160374221649
-2.6966506386817195
-1.967473018458307
-0.45986897192838916
2.9088858807976474
0.021711694506138166
1.847650093234994
2.0557926723504427
-1.4777735545075719
1.4632896029254554
-0.2619546216436748
0.6863231406179212
2.3118814316333096
0.7999683527601507
2.8010160016969183
2.4121337030792787
0.3790645640686452
-3.503562015614258
1.903554303701003
0.5072227069650072
-0.390112972075392
-1.7486277166448863
-0.45599644993412974
0.3401128189199015
-0.9164212180188294
0.41035523090380044
-2.9731719845616182
-2.366531630173885
0.8547988729814449
-0.48802181968442004
-1.7112614403099529
-0.29760395465429507
-1.111395716793189
-0.5004349470068546
0.18652174348614067
0.706829303939652
3.2879408049099728
1.0463518891865369
2.129799588420062
0.34385981991891423
-1.7770830375564246
0.7485659577955113
1.3955335363528765
-0.4762465341655705
-0.6903228601908022
1.9581654314016308
-1.4528998254490508
1.7574036311772108
-0.3815318631773824
1.7560034970635992
0.3515632080023861
-1.10084912798569
0.07345343893602069
0.26391093096383544
1.3183365194934833
-1.7504393301442358
0.50652668751309
-2.129788105564104
0.9228804677555783
-0.7583969628825971
-1.2207067551244979
2.6917578169757825
-1.6512340216727206
-2.4264178974826818
4.3670231340765335
-1.4545651013575873
-1.2232988614437557
-2.059786502787603
-0.6203683388475713
-3.9547913467061893
-1.6823317946813487
1.9899286174938686
-0.463107019163907
-0.6110849808212822
0.8449564553299267
-1.6752562493150747
2.144460719523029
1.0199859904032655
-0.39058264570297213
-1.1745306074410988
-0.008755770367871429
-0.4798241962750378
0.27416127339051866
0.791363333520224
-0.08762006695082857
-0.9617763611100253
-2.144552077841229
0.7311226120696646
-1.9147992595364791
-0.036290025582432966
-1.8988560393406742
-2.0457133483785124
-0.8247618085963516
-1.028157195548922
-3.0161108012973297
0.049360919498450104
1.5258775000723865
0.2727109635212505
-0.5240525439325365
1.2053563641388725
1.6283792436683693
-1.74101672351208
-0.8108388871228291
-1.0224419520898853
-0.1300985717162221
0.7537825501797076
0.45550154801388365
-1.894519719696841
0.817427598247421
-0.8941521022786466
-0.895725347944053
-0.9835100341065839
-0.3788881848170582
-0.9003700763146989
-0.1529594910732595
2.781844390374424
-0.46289930229581366
0.12923713869526984
2.6165499147585636
-2.3172910472498023
-3.55314835414166
-1.7638503244968058
0.814080159557147
3.1728302570324476
-0.5767248067961697
-0.6904481203894672
1.365931286747701
2.2493939900317965
0.20790557087569742
-0.760442316904058
-0.7455502704163964
0.14793834865394356
-1.2357444255447922
0.792228681375031
-2.398174160282304
-1.4146606183304964
0.4548712391259334
-0.15918333299946713
0.1652891561806904
1.964739838310675
0.7689036436148942
0.9081490445234446
-0.7968593584822414
-3.9587409815323125
-0.7784407685031111
-2.169579034696621
-0.8275224706360915
2.283768309402875
1.4497619575584402
-0.21327720357953295
0.019500276510103758
-2.3308110350968145
2.3849844038080072
-0.47430154519140083
3.381804551852381
-3.701547435225047
-3.33990185886294
2.080732528029555
-0.35061043795436686
0.5275979903148066
2.5733771274085666
0.3863557042371149
-0.9774993020738983
-1.884495452800592
1.4631840166153312
4.046416627190613
-1.2782785662966845
0.020233251267116
2.3294305310159875
0.7603169754250528
0.1005609969764381
1.8608393938396708
-2.5121551011809538
2.191874681499716
-1.1130340883060141
-3.703788568929016
-0.6263937866798227
0.04949160771598966
1.1541491594310729
0.11409131577087274
-0.9966054383589781
-3.570949670234186
-0.6148854353893447
1.394712902089574
-0.8699013313741408
-0.49342937116742275
1.3298266107253558
-0.1260613103368959
-0.40448813677932466
1.6326868714452216
-1.279575157152815
-0.8766049220905795
1.0503936770400222
-0.6100623325353534
-1.6047758001542678
-3.2294649260333483
-2.163036599317396
0.05433134464221127
0.8481476647692816
-1.25704354868129
-0.4008957558835017
-1.2450080912291142
0.4559425737418544
-1.3690374771831064
2.1725583440802447
-0.47459006117487357
1.1478913236111288
-0.9345182968998429
-1.6012600225308105
-0.06548400908024246
0.6559730863104895
1.212766616732183
-0.0625458983943366
-0.9540648279581304
0.8854422952317985
-0.30549031113016617
-4.855650396281524
-0.3830502187283053
3.380968416047382
1.9303655694969424
-2.4134538295369614
1.0573226639777966
0.8737169945367647
1.026402812919317
-1.2055642666366453
0.926952245155476
0.4709690532884416
-1.07948831458169
-1.3365355589192471
1.9577673044373862
0.2899053067206875
-2.1873039494096753
0.46767721618649255
-0.46839643168376116
0.6214563422593383
-0.7016083689018233
-1.3276310759136714
-1.4414592322145974
0.13825919730326688
-0.5186039596271319
-0.5162695093918573
-1.9366569761618682
-1.544403521168004
0.09398297011816675
-0.16542474065053692
1.4852886074422111
-3.706508096853781
1.7616595815096994
0.6515648130983219
0.25038576166161164
-1.2464245135793544
2.736918633375526
3.258330164698571
-0.36090080237139355
1.0408340327216463
-0.3660946881460476
2.4233366594548515
2.9384812423616347
1.6799210181424566
2.8340607021237254
0.11917049135172496
-1.7622663935101417
2.3599122244380415
-2.565065652429615
0.8766493805400039
-1.0549944667876496
-2.638916576034034
-1.4414175759209666
-2.0244221512012444
-1.5899371875003518
-1.2160614457766743
1.2055354449051667
-0.061402211836422346
0.3036741948079808
-1.6620384815593838
1.4478158512219157
-3.2738206154283715
-0.697891540978904
1.2183779226942382
-1.2304003769012832
0.2807878925397883
-1.3079910094807425
2.1966100735854894
-1.5572258689927059
-0.8331012517707664
-1.1554472702529217
1.409789229226651
0.3616006637749548
-0.5017247519386382
2.4411803425472542
-2.643324303072736
-2.2475746244321257
-0.9874158009110852
0.9987324077874424
12.330857032347023
-2.7909861970423306
-3.7757534208364016
3.728014777124407
-0.29566216328384437
-2.223629744917021
-1.1142049636045643
0.22508153265862188
-0.2568476571490918
-0.22491070048063136
-0.39419091304216614
-3.550026641591259
-2.260056209700675
0.0016651892877278859
-1.2775385417988228
-0.3765042197160638
1.43130275848111
-1.1622229574799205
-1.9532779402585596
0.9407359279466916
0.633032321866896
4.247752784361886
0.11895136830032164
-1.907157030944704
-1.8313094646878934
1.4009925542878179
3.1316837430956164
-3.490615513630599
3.8210262150067766
0.6686191035917297
-1.8026038406758882
-1.105263713422723
0.1813858746771465
-1.0609343791983121
1.1286481480734092
1.6445849064160571
1.8770669635081836
0.91598379179074
1.7558164447153588
6.370998955438446
-4.971182206613911
-0.5992413274277034
-1.0562965896765035
-5.98753156959518
-0.2149654499390974
2.011555380196558
0.8247198085967069
1.4278306639204406
-0.906243333500246
0.09303496000485399
-6.189768193542748
1.8316565120791295
1.7273382657326992
-4.064197542612173
-3.2044706900248876
-0.9011222470999749
3.835181909063668
-3.5804479806884997
-3.9484563338570577
-0.9407045435205439
-0.9261937783037255
0.5280764295314967
0.026032760413768785
-0.6348932191158517
0.6496126671507868
-2.40199157236626
0.009874448409012825
-2.1880108530911504
-1.2445537066662768
-0.5301884488382644
0.5195007967300247
-0.21638494167807004
-1.066402599640313
1.3449123146165225
-1.0547109919248068
-1.1488925421533354
0.6920684517078225
0.690881301317154
-1.1408644580725922
-1.0509192544240755
-0.7236138831544044
1.7493496910361181
-0.8289363178335828
-1.4510206243510815
1.2487821263307544
1.138988375907009
-1.0956202699225348
0.5661753412073125
-0.4641815061949467
-0.6053502389752151
1.6041143274017486
0.11372311388796996
0.9474902734534498
-0.7041690730430112
0.2584243626181928
-0.8518288389356511
9.17316502223915
-1.6435834637744904
-2.7242828492753115
-0.35034355916799914
-0.2882181492282435
-0.6052140830682357
3.6607191934682404
-3.186836203552744
-3.8421486638521154
-0.7068974808702617
-1.4624741955681644
-0.9373353765133597
0.669980526665347
-0.53628451256969
-2.1920437639968635
0.10211616230840878
1.794773230515132
-0.47155516331892094
-5.002501814217418
-3.3086714442967473
3.2508184641994937
1.3948666076429468
2.4865936152827706
0.45857066505828376
-4.126165672742585
10.091001481429556
10.624546753324708
1.808256523401872
7.222177644077845
-1.2266504873871809
-0.4127055736393203
-2.6107819405767136
-2.3864008541037287
0.6214057549518218
0.4371994630861076
-1.478197507809312
0.06414386487464464
-5.006667488540616
-4.0365929984035915
3.0501658682651116
1.0289999404846077
1.4848042126950682
-2.2700434785597086
0.9134356117003404
-0.8076147912223672
-0.3822353312738402
-0.15881858249748365
-0.09264398146736293
1.4243918922509136
-1.9725961002082786
-4.301438311768336
3.4629795669562378
-4.450668204307688
-3.5482228481514952
-1.8533302061284975
1.3918539451256546
-0.9889562429658337
-11.600737455480752
2.86695500313573
1.4139323451301133
0.2707989222937254
-0.6002822216120904
-1.5646958262988706
0.6204140754287545
-0.697563213228507
-1.7012499143797386
-1.0755614834512344
-0.46518890412387515
2.2639320819541555
-1.47476416393174
0.5439006225938723
1.5577787972294797
1.0568354607467745
-1.4158782889657622
0.5119327885720221
-4.509504969252113
-1.6147080421241178
2.891027943296177
0.6868589494100981
0.13364476984543353
1.5476481595423761
-0.6757667674883558
-1.8052163586414811
-2.958155795151422
1.0979724476044925
-2.1908285004052908
-0.5544554296609748
-1.83130768294453
0.2089418142671374
-0.5333434260367418
0.4193821923464682
-0.01874110920208098
-1.635034157966426
-7.418883119449954
-0.02996445277267809
-0.8935157807633982
-5.86205676869778
0.03235525703530305
-1.8538370371935131
-2.907046975463769
-0.8384849160926269
0.19260662001093912
1.7256863933472684
-3.6383234757496123
2.281889316047432
-0.8627197792905744
0.5771451815894059
5.841105931989618
3.9345719331565085
-5.943623422862417
0.41202739429467844
0.241000568367156
1.4725621869845242
0.5499495150689576
7.707282799364936
-4.027484358893964
-2.630845690194359
-3.693744489083206
2.765371780934905
12.08355438824636
-2.60477324300879
9.137773569960697
-3.644612917410564
-2.408876111765684
-0.6146843847646234
-1.251594065161669
2.678050786918966
-3.950715250052757
1.125351229282184
-0.17010779611726254
1.749529099140164
0.04668303988161788
-4.914607898615586E-4
-1.2875086248462098
1.7692350814499647
8.210676971930354
-0.36887977246443066
-0.8836499543739856
2.6435297220368796
7.063758802441223
-0.46330316292477614
-7.515746848687278
0.16337966512405921
1.4373152643681544
-1.4497056115598963
0.7148840981404059
4.053822557917654
3.407380949594538
0.15887015717422273
-1.6519258994264256
-0.1386436025128311
1.5451920411323588
-5.516031352753808
-5.865631495174003
-8.149067285173686
1.9476749178620867
-8.345434157140014
0.7502346535629137
0.41519532877325077
-0.6357823738499135
-4.327253300570734
-0.9605381804743122
-1.8864943312494244
1.603508055586326
0.22127523684774192
-0.2363152859993748
-3.627273723294453
-7.987691101451989
4.457926338105867
1.2338359299761965
1.5137356891422482
-3.066429715668793
-1.4463836696001455
0.44337567330113703
0.6897542119404372
0.8561530840981278
-0.4440151521374265
-1.8181304576078572
2.3762902167649194
1.1402789083943872
-0.3326940812979069
2.5370977357332225
-1.9874295761404628
-0.2597442688617189
0.5254471977490546
-7.581833188489007
-3.0809574473913326
-0.5856451988245893
-1.6643633313114794
-0.8175238681211607
-0.6856650629012329
-1.535244025968687
-0.7921273457692847
-1.6221876375177258
-1.4421617755384586
0.5827758084173409
-0.7667038144470657
-0.46822440413390976
-0.7341645626158275
-0.3683277470637286
0.9787294955255531
-0.6120749598548892
1.4185444143332706
-0.6146174705618036
-0.280588015840899
-0.4923485126234898
1.0585487320681228
0.8686773780477285
-0.949278261077808
1.3236075976983501
-0.46122620375713796
-1.0704309401310386
2.012789895237383
-0.703134223251934
-0.5978703333233036
-2.0036131391374292
0.02342392896807994
0.6081902530376995
2.050706620502977
0.8829262295864895
-1.720499405691221
-0.30480684846123257
-0.8730005209362873
0.7065943687053685
3.2837914450510435
0.0807440606658365
-1.442874309626025
0.7867825197038013
0.17162168059718963
1.0216844885217227
1.427139643499959
-13.083071770932749
0.3011959962997729
-0.1540306020671692
0.14432604966525053
-2.4134085976809345
1.0555528202112647
1.0979591665846107
1.1066396774998624
-0.5447393075128413
0.2988387956891155
1.1227197904059425
-0.5688152543068723
-0.6823021342325103
2.2157810926691885
2.9724578384808766
1.3763655472974423
-1.4618915371203816
-0.1427557323934938
1.5526164967224818
4.010602888010292
-3.626954028238572
4.601869911686187
-0.29306415390270624
0.9789535638835503
-2.3945904201232198
12.834174107048979
0.5931639065093509
0.9783336713509218
5.971881792366123
-0.41668641237787696
4.1239709161856295
0.5911028745805368
1.034479114156449
-4.104867332876181
0.38893542295836636
-1.480202357181694
-0.9924444618752506
-3.5782374359124764
1.5596801457910336
-1.3647144900106103
0.791134680631264
-0.3494326760472869
0.8971772235601165
-3.9949488860446696
1.5226370933386133
4.0088422346772985
-2.721798137830574
0.012009922333348085
-3.8866465516066833
-2.4786313658851875
-3.0744717929621155
5.436154894542075
0.5895937518770654
0.06773885390162643
0.49408830479837046
-1.2711474135164322
1.1321901993493402
-0.7256077919525156
1.3176803411327906
0.8445947345268823
-1.844877852212336
-2.103148401608165
-1.685717941726494
1.0980755624653533
-1.827984730271374
2.150677087468929
0.7766205704622218
2.3866973125108077
0.41403374876516624
1.3894314488516568
-0.8205666534497963
-0.3843405825797859
0.405691736219701
-0.5187474144256294
-0.8302427796455635
-0.6788833784224441
-3.422092812345558
-1.3725766223826743
-1.578523470700127
0.8537980861050326
0.7155422381048002
1.9859975296325016
2.2376581225236927
-4.64144747214209
-5.856973997634977
4.426309098689831
-0.7001900634849718
-1.2516467725531524
-3.663401440030531
-1.3455569903576965
-1.769998817707779
4.500987362229868
-1.7777934290001824
0.8318795724659435
0.9820112969271172
-0.6782856286583284
5.88508083985268
-1.930868953205327
0.8832110776464183
-0.48357636955017663
8.230591221980408
-1.067067883501
-2.285332469190263
-0.5813159320939596
0.559206062817077
-0.705228431518666
2.3472604325607573
-3.5270402736805195
4.240308673347639
1.8752338745187223
-6.093720101993879
-7.696205766893988
-4.997601183703527
-2.287247195789699
-5.8003487359379235
-1.2098973198670209
-4.106921986234334
-0.7549048600639504
2.421130205472592
0.37615859884972597
-1.021026338908824
-6.476747207653297
-2.3846245227585414
-2.7926823163820425
-3.0547322070421625
-0.4510881892649092
2.4344955658929566
-5.457377525544208
-4.778718208958698
-2.927146970796784
-0.8330277090502423
-2.120553811193725
3.3863737245213352
0.3980356416518469
-0.8203584908488992
-1.2320881330503388
-1.09388176647384
-0.5268213232596991
1.3242786346880207
-3.53436107326065
0.4053234702575717
0.5645724164964403
3.7482332032779513
-2.6559805226407995
-6.288651977293083
1.6945715859823336
-3.5875452596696897
9.655201431563688
-1.397172783905147
-5.977772214923932
-1.042483799889027
0.9524021350795281
1.5549221245914628
4.416764234465974
4.1351220886335565
-0.20769197177834317
5.9194800922085395
-1.506914567418962
2.1113568273449204
1.5478210796766614
-0.667837660932034
0.30389801321414117
0.016353206639622343
-0.38154044242707286
-11.201957003017828
-1.0486355196791783
-2.5256548139511015
1.4523445166330424
-0.35950434615816496
0.5587572292950367
0.5483368091629583
2.0703869131519457
4.320774945192099
0.8362655993771737
3.456141802727958
-0.15555066329625508
-0.9414183245087396
0.9841755580358923
0.37629334227242084
-3.680180045757873
-0.9363775049542626
0.637119924129514
-2.2829122220465012
-1.7632648970288296
-1.0572140685781848
-1.3893764086909905
-2.661338139973743
-0.21230397935268777
1.3609391172964371
-0.4324727017713504
0.3954931250753666
0.7252883143952253
-2.249758620751733
-2.185055508789409
-2.709342550472762
1.3729439830168968
-1.7620542430164723
-0.32735593052711504
1.3875299972621609
-0.5417087419355205
-0.5206937905000996
-0.39763832158415946
1.5546667047174354
-0.8593413896260965
-2.160345435777311
-0.7973815834177317
0.63485353769967
3.550713864558787
-0.8622540271421061
-2.0383918672912964
1.082577218200232
-1.5380514870908808
-2.3360003594075187
1.5554936552616
0.6476128426344595
-0.005128939834461558
-1.062169580942983
0.6946368493604882
0.928950678528352
-0.6897806163736897
1.7855333859248155
1.8972931523630743
1.0174615231323803
-0.992402889490336
0.08773127922391692
2.743931971416794
-0.3819877591531029
-0.09047448967371632
-0.04314109006065488
1.6401093869168017
-1.9821683415582663
-0.25399005703773014
0.2525782849181379
-0.19803240108170517
3.7518199801655427
0.23678378653837864
1.9860176732234047
-1.388496280789626
-1.9765913559069686
1.048078044428129
0.8587623669224267
0.45668698208615116
1.2281344421805036
-2.0436820828797817
1.013060014578826
-1.9773952784307813
-1.1328033636985597
-0.5912892655171162
1.3370432267808905
1.9018694234583926
-0.2704984974710621
-0.946716711483796
-0.9393524920016715
1.5779727699239883
-1.0405196947032027
-1.704843491475684
0.4940869543121017
1.1495382968123626
0.8928056702565242
-0.39398838368363037
-1.005447475327727
-0.07443910794442124
1.2390448463708525
-1.1928648106756512
-0.24493926849733416
-0.11138064400753636
0.45802454378919844
0.3039437763102224
0.6616241130436179
0.9384838410046773
0.2734597962545448
-2.8421709859356397
1.837224431910231
1.3358081809044609
0.08008970225128459
-1.33287625023757
-1.6287288191992277
-0.5375864554795321
-1.2333814836416912
2.007579841132814
0.6094446763253006
-1.3083954643439573
1.1054779394119207
2.3813220393545476
0.8347677579552326
-0.16776608868875492
-0.3907051624990973
2.218577036356212
-1.6554202892348668
-0.38531232419558475
-0.33469682472651896
0.5728229518585007
0.7912360986434245
1.783100119470971
-3.010270215129289
-0.6223358656003832
2.921758072439328
-1.392401000594277
-1.452127799279162
1.52854863806234
-0.9673821443828717
-0.5501606745824001
2.171544468879293
1.773845740225204
-0.16878467427139066
0.11890139113601009
-0.15485619311641466
1.1653369143618673
1.8302522017556686
-0.3589445656419559
-0.34043313049755825
0.9583106211164029
0.36946631251984097
1.798135777318564
-0.9060025688312704
-0.8181691043259349
0.0034845590617904325
-1.136105127694651
-0.5021960646100337
-1.1348011461240657
0.8532288940043679
-0.3713555874039207
0.1436397091109763
2.218259029115615
-0.9486554842040316
0.7728293922901952
0.0327463508237168
-0.15651786401952344
2.8395291196197885
-7.918303577845007E-4
0.01564589475162713
-1.7407833040159615
1.2392360564613847
3.108107768928638
-2.367230242559466
-0.10920681259195053
0.9500682307207037
-2.806077295733515
-1.378968004551571
-1.5824346404904048
0.16569073988015273
-0.39654632955138563
-0.3454916643547279
3.9105663170196316
-1.271617760015612
1.4562929132584788
-2.047036446947638
-1.113323679800289
-0.2432049183950417
-1.5464823529688028
-1.1273077049170124
1.4945236505444237
-0.6550317688529355
-2.4664901032661364
-1.5969190408628362
-0.9484922497843291
1.215653642643568
-0.9160950000185972
0.5939544655395749
-0.3481096634153521
0.6274958845282355
1.9811289352043102
0.6385800106096696
2.3275726098130454
-2.454054068919031
0.884692621855242
-0.021968381471872328
-0.8302065192517267
-0.14598252903707543
-1.0145756081241901
-1.148581328617973
-2.5106503373548947
-0.16533913642820183
-1.5731812164934047
1.553445960812158
-0.25448496501283474
1.1027597871031725
-0.26335490104224774
-0.3647534387150507
1.218769459861691
-2.7527410488441553
1.2305489056458685
0.9259304852993896
0.9489018519663514
1.0589615431461556
1.2593609815138884
-0.24508313007167684
-1.620433280130191
-1.5843450625302948
-0.17965074766397582
-0.8136430682540461
0.08943576913519438
-0.9853686834330185
2.205543812152165
-1.1033860936711442
0.9460831748576778
2.7720790888402367
-2.6299356194366466
1.1190767272363902
-1.629519498118592
-0.3159967392885954
0.6017495784679425
0.6872414059002107
1.6439861899547712
-3.8275188270827334
0.5153414630537737
0.9865847688107241
-0.21667529963038423
0.10186498040110233
1.98705305107705
-1.2716550714668957
-0.44920205965611826
0.7252888824214164
3.053288441167677
-2.3137235995566727
-2.6039996241890773
0.6402882688440817
4.203956238463727
-0.43515244179735774
0.5500018096278788
-0.9494013667036282
-3.7373834306415206
0.5293308998559024
-0.9715377762311995
-0.37746133916908364
0.7538262191446095
-1.0837922291700217
-1.4148079954150923
1.6159132385626216
1.8659939758441197
-0.28113590424749696
1.5057905698211884
1.004681067624822
0.8851631905605692
0.4623057830097225
2.544893209930903
1.9221972560702858
-1.1623492701093074
0.4699487980595347
0.09462686374618944
-1.4830555785909416
0.543333384116337
-0.0034419859273670974
-0.6513231954021251
-1.4897326565224291
-2.8421908146839265
1.6446451549507983
-0.652604843279255
-0.6717322336029529
-2.5049143130044054
2.5823117781482443
-2.539110316018759
0.9410018454718553
-1.984626138092495
-1.3312821891450806
0.7072449172908848
0.22189730902969582
-0.695474296103839
2.1323274753994585
-0.9916041668608445
-0.4143907046536796
2.6948392933466634
0.08637907365492922
0.8338277005882514
-2.353018927263928
-0.16453493964377527
-1.5668310319213652
-2.549856387544731
-0.338414142160379
0.3725682405827274
-1.160635618670986
-1.079614934863741
-0.8066260370218598
-1.0713597121331286
-0.7918483814023308
3.3927425570929874
-0.5939817281415745
-2.403814855059484
-0.5388683424075535
-2.675549844659615
2.693684698110654
-0.8884015194424918
-3.2154131332250167
-0.3793845082139261
-0.7673695405340119
-2.2316584636902843
3.597311956780517
-0.5883506086936048
-2.382269783868597
1.3892524046824708
0.4201225372225512
-0.8324131603474311
-1.5328127646447995
2.2614555855997
-0.2341475835636706
0.8053909330553182
-2.1768922595213485
-3.001115261386332
-0.5978080903871535
0.39117613811271834
1.0113463266732057
1.6870997749411514
-0.8008020142876895
0.5254303459381726
0.25605244348571116
-0.19419159903597888
-1.5190140717025244
-1.9877320940703098
1.6876417973175966
0.7520643706041584
0.5835501847950844
-2.55697536027558
-1.740443932581419
1.823995730067521
0.5119367866875838
0.5041750879632759
0.757957253369007
2.232886194534211
-1.7334692520001733
-2.1275956584709137
-1.0885148825950852
-1.4639517474060377
-0.47552982661640036
1.7595394379137441
-1.1180461210151533
-2.5117624674399828
0.769555646826324
-2.0518821542975947
-1.538639941502015
0.5276196512114897
1.0783005498289204
-2.693345156156691
-0.6074791505897723
1.7901054994586088
0.860371846573065
-0.30261952366845307
-1.0807603118590308
1.3075813785686337
-0.49012468426145117
-0.07475210418155251
-1.1102689770253817
-0.051618818656038734
-1.7108403192354362
-0.6128427124649539
2.5757518904369117
1.1107423637617355
-1.0994449671777338
1.5931502687477863
-1.6553239261849184
0.8413109954365858
-0.8152318854992905
0.6167887995459155
3.7161377219621157
2.4217375250577566
-2.2337383770455412
-0.19827444140903575
0.92252583864624
-0.6135305524704341
-1.5998168268274204
-0.8475731230215636
1.7364532466428013
1.4497243125093435
-1.6610566983618242
0.7136296470806635
0.49059955776739117
0.7436743057018587
1.7435890860327508
2.9555128638272357
2.084438041322362
0.6841772565722902
-2.2578179382694485
1.761228598644487
0.43745018538647085
-0.5200297194752735
-0.8136603200945102
3.722894363735068
-0.23419293368767924
-3.0916595604974177
-0.1708252291497499
0.4037640051185638
1.1600495921372536
-2.136130435873706
-1.2580837084472256
0.8486725130021825
0.22299385104080888
-0.21909322716094096
-1.316858332744552
-0.8361114965890031
0.5488378744467751
-0.28154237229472484
3.4402412012676247
-1.0230885529516032
-2.950952049607413
2.3970223355004663
-1.415633668433474
0.8687123207013118
1.0236032656486962
-0.7239977578739575
0.3177358202265481
-0.3848754878270438
-0.891814639606766
-2.259092482508701
-0.5904028097718887
0.6774487978815691
1.9051890180180282
-2.1909446204362792
0.923553768465217
0.6074526487749841
1.3119595374461797
-2.183630657275387
1.222499739601987
-1.8652884900286053
-0.024830831785569222
0.43892195611694773
2.1041249256793604
-0.11284569721285051
-1.7565517406506093
1.4014482452826413
-0.8679982414830466
-3.561670770566864
1.9589419272626043
-1.7062226628455202
3.717309144783339
-4.159506807320725
-1.1711996221230845
1.3484923429072018
0.39151511883032497
1.749113687841031
-0.9727727190380958
-0.8452669564188119
0.9202275453294478
-2.6061395611583893
-0.36038371009462977
0.35142605344595507
-1.3112977920559712
-1.785018856083808
2.0952634003868766
0.8022021860000336
-2.071342034679732
-1.5404713053886048
-0.010438717651486734
0.2983176942971261
1.7719381547158322
1.474444101203591
-1.0401753028753686
-0.6494470834617075
-0.783782113669229
0.018260191122972856
0.5628972317810313
-1.6454163433671798
-1.769951715769551
1.8100616896925013
-0.41190020713546965
0.28239055423111425
-0.8183049260184233
1.128009262795731
1.9729891199651688
-0.8388722552437992
-2.817027637725392
0.36538237321783795
-2.5878036783778664
0.4926758718462209
0.4424962348976773
4.654191538867167
-0.22740758137197067
-0.49178351104553736
-2.376880252272059
1.0603457684207416
2.545174216862446
0.6203030509151234
-0.9187112384366728
-0.1433115855571622
-1.165500107742914
-0.09498685575280351
0.3664137151501571
-3.1654014496383733
0.6092391183976876
-1.4030060467200112
0.016860280396553733
-0.6301447932245869
0.5066258759677571
0.10233805499476133
-0.9204015645032342
0.6279709552650299
-0.5049652848954526
2.3810475890050733
-1.6024828336754067
-3.694270593112374
-1.539696013156545
-0.5192145711893404
-0.06027481255445114
1.5432891033044733
2.7175685953841864
0.5323616172315473
1.1786830422370018
-0.20139290766105902
-0.01975718474550707
-0.1595521982749972
-1.694113670055791
-1.6487972366144972
-0.3579214281108473
-2.1484318023261304
2.289729875880304
3.3484475074452122
-1.0636036727043259
-2.7002569937399055
2.199011350480319
-1.8671056451723442
-2.2368086019951603
-0.3528167745774177
0.5279670142227655
2.727235869743848
-1.308595785041351
-0.78458830882251
-0.43329777996350227
0.3854575770651326
1.4067211211388366
-1.2998842812286076
1.0379678804610224
0.1391373232805948
-0.29001583765585703
-0.6929073097343292
-1.2087279689554713
0.5684053252769607
-0.3615197766853922
-2.617380463405485
-2.947752176374435
2.197519399882007
-2.985073488141693
0.467463516796405
-1.5085281869237315
-0.5725999777999854
-0.2210281157382206
1.6484171754916879
-2.659262925209752
1.2557824088226603
0.4720380119315116
-0.35989177409989304
3.936241796488986
-1.2241616958326702
-2.788735608590924
-0.1866001449026257
0.8707304604617458
-0.20831562139715903
1.7869551487442592
1.3145648978692
-3.4998346788528827
1.9300778110074432
0.08943499273220405
-0.5562902329897982
1.915208583233255
-3.2760532396424233
-0.6765656881216727
1.9274283608161642
0.3111431889076854
-1.4852608277225356
1.8480328488628248
-0.4709059382366115
-0.2910082304468045
-0.06103131777232013
-2.967269216804349
-0.9914983955542216
1.3917629256365762
0.40596387969116526
0.7927641286223875
-1.5936591440559975
-0.08424876738072903
3.9050538308389235
0.4387252699608409
-0.43633599920451605
-0.41772578501926694
-2.924753747168724
-3.615908654309478
2.0788237113516823
0.08053287780925199
0.060302601304359195
-0.47792743713536273
-2.8556509069844176
2.174085328368675
3.6874784062166426
2.615277116484283
3.3502593520961605
-3.3470332475869995
-3.0992593721721007
0.7465213474088523
2.4548624316103784
-3.218918407931279
-0.3755053181938718
-1.0951337096319853
1.5932495285972936
1.4958601561007445
1.2417974907459248
-4.986053415347726
2.0562316482755087
3.1415256925493726
-1.2656212084954135
1.4568350195801119
-1.820299372226724
0.061223633679967276
-3.503464986093535
-3.7630248445719623
1.7199959736507962
1.9073030469727652
0.8454747702274809
-1.9109963975814344
1.9428386275522957
-3.2670444715736435
-3.4832753176003988
1.80693731719007
1.5193574308982953
-1.6785098411873491
-0.6389378016823517
-1.0784474761743528
0.04584595992624965
-0.9797454016620689
0.1261811797947174
-1.0340397443612075
-1.7942482206336425
-0.9206687724556314
0.13885251542175372
4.29738528228973
-2.463583454577084
-2.8985563209668066
0.40524786689962244
-0.15623931176050126
0.2703809052037918
-1.9491564589079904
0.8193008960873173
-0.05680227217287835
3.083691923946311
-1.3037601642100622
1.1286554313359831
0.6719202871410653
-2.3631129715107164
0.05905370736407325
0.7609849233034748
3.4369078819739207
-0.35118200905736585
1.4451611113450995
-0.7302190941517704
0.017698124387874943
0.6588808554501623
-0.14299385549187454
-1.1844770489154413
1.784302618513445
-0.17654532107303342
1.6911526171139293
-2.711806480917098
-2.167186886418528
4.605782996900711
1.286445945266507
-2.5546969109502884
3.6332152270182494
-0.7481390164154353
-0.561046573634451
-0.013796961744903115
-3.5298330304286867
-3.556241416012269
-1.4616488993486372
0.3162206369731875
-1.2371715832960033
-0.6397344382645479
-3.4214432525447824
3.4924302990035594
-0.04211008962996396
-2.77807861277929
2.729062785856629
3.193161306416094
3.069029079123075
-0.3485388805955667
-2.7167512273693557
-2.3161880239556356
1.878817999558927
2.0990852904439485
3.163052175158079
-2.7629186124491665
3.6459797015578164
0.39619955573408305
0.6867085285256554
-3.936033654782302
-1.9708142340224712
0.6855203859850468
1.1672011275796532
-0.10265436917580656
-0.08701883560730356
-1.6503256541301699
-0.5692422247583621
0.199445164595364
2.017358849594125
-1.3509823925423299
1.539445513890133
2.1393105612760173
0.9433792251037242
2.1188042335094615
1.1447077632653386
1.8817648428028804
0.19905320526031262
1.429498855077892
-0.7458448573389843
0.9239209603699224
0.5600667039328228
-1.3567492322567676
-0.08266418048182549
1.2058458197130928
-1.3031037325818562
1.2937942020222868
1.9753905870014774
1.028631439050794
1.330558914116584
1.1447333931551793
0.5639810685432192
1.6710636308759712
-2.3743743884154718
0.9774469585183405
1.006923974067245
0.21254673753951023
2.787531571108447
1.7361213593334492
1.0109036461818952
-3.115796666623578
1.2444449279813654
0.27393443741838164
1.6930786529388093
-0.49486456647245697
-2.5149289960966037
-2.9805413726123833
0.34521747087697974
0.5752406442933753
-5.1613011054186115
2.0703245460206334
0.2726972598358777
3.465135293331189
4.020976233148503
4.899035275244924
-1.5778041404109935
-2.8098230785141207
-0.3561489949542473
-2.052343811839358
-2.7583996006943923
0.6714115289095445
-2.1803585633922626
-0.986845363586637
-0.5747873565240399
-1.4365538735908243
0.29272068528643735
-2.1491614219407227
1.310659694732919
0.1472900434563712
0.7105531598295042
1.3280752448319606
1.122858010851254
1.094215293669661
0.4839480241850938
3.7791858162888596
-2.1079551514073596
-1.2537655476955887
0.7686193626871723
1.2012956347310215
-3.0275163098180804
-0.5979567391175443
2.855777473426785
-0.10808258012067501
-3.2277026194477916
-0.5527772834141262
-6.027880642174087
-1.7270214547211387
1.774578158284268
3.82826607257393
1.1205213365435283
0.3340054589802485
3.771796091414141
-2.392602402795467
4.6375205253404514
1.7220659561664242
0.9431369885533502
3.026009688083711
0.18466823198110666
0.1344684988606662
-0.3355765876278866
1.4143675869484558
-2.930795369679094
-0.4280995489920886
0.7333879936118415
-0.07856019041709378
-2.758197918557198
-0.5167047805989363
-0.41113260982119343
0.08017282042053907
2.3927140655114214
-4.080470276536338
-3.202044601077617
3.672156570055378
-1.953267082267937
-1.894364614708234
2.4281177287754083
1.713424293594497
-2.3329978984302002
1.6029363131856915
0.6243198786222236
2.09115341902262
1.430311876640617
2.9468680719147877
0.21492320434392334
-3.000875865753097
0.579605776904542
0.12990639948098337
0.8439191031166497
-2.2943571695819642
-1.5948457616333889
-3.005272741581896
-0.6039043431815614
-1.2709686657495605
2.4262720937764093
-0.16163135190343683
-0.6358907394178328
-0.4556490501035313
0.8358669936214408
-0.3991630478788722
-1.748891891095782
-0.42019899791773974
-0.02871442770494161
-0.2441559507323172
-0.9106972467446732
-0.27712763183140493
3.1432343492172494
-0.3120479736396427
-4.850588318294166
5.1313370517112675
1.823016148736565
-0.4651699380593554
-3.4006442693925485
0.15680314115498778
-3.4337216954325185
-4.921460107042431
2.3956577050968346
-2.1885676208074036
1.128924018303813
-2.4668403156358663
-0.46369980880843986
2.528140033763406
-0.3221182808595956
-3.07542975467296
2.19937553888995
-0.2699287567601719
-0.5047271961164246
0.442379888800127
0.7774681753032446
-0.24044376437198434
-0.8925013008120094
-2.3603135796896986
0.529634963066597
-2.0893115147632395
-0.3994569915977614
-1.8902643120827962
-2.0471127314879234
-1.1735603753564627
-1.0125195862138399
-2.724217330398438
0.0850932530419694
1.3356211054706397
0.46485900618736065
-0.6461438833257016
1.3953111731906787
1.2381233466082278
-1.7342034930144203
-0.9182409752562214
-1.23047480523823
-0.4080484575870083
0.5330024688069684
0.11398331649007361
-1.910486275770038
0.5401474614185828
-0.8722630930910992
-1.075664536487182
-0.9540774314380428
-0.35794943307035815
-1.2929510317859714
2.977672690731228
2.443236220636805
-0.6337428842291807
-1.2546182921780313
2.15813879860356
-0.8463661261473094
-1.9146130308560287
-4.196868003418596
-1.2438267141743249
3.7936875530994443
-1.9578248224961323
-2.272016126832125
2.3308186356371157
0.1942378326980056
-1.375900588328419
-0.8078837576474073
-1.3871000550501142
1.0924388916450234
-2.637692848637034
0.8543662008314231
-2.2752672308636925
-1.277779438257356
2.384742456462552
0.29307637242533435
0.380275380738333
-0.5538606168338156
1.1780495568744187
2.6203714703916723
2.0181241637748624
-4.077869911154959
2.1662711804790824
0.305533494980232
-0.718446157226494
1.1509894467331685
1.1941692315707877
1.8391273189660586
-0.9647605888770286
-2.131680448795127
4.5600090369255035
-1.350850731594772
3.8033913203195326
-3.887594415807363
1.1874396834542416
5.523130124682593
-0.36486092357855043
0.4031852100424907
2.746466386191295
1.8057478590570348
-1.4713125051361815
-0.2133740120369667
0.8150992434930971
3.893796484089624
0.3520168913372958
2.8861281282653137
2.5464646076639856
-1.4011024716142637
0.7408760451467379
3.023798229611049
-2.2749417672185213
2.143739546412354
0.7862288516481376
-1.5765082209234
-1.0272548171114666
-0.060112342177917034
1.0485565200112545
0.01934015336876535
-1.0391084408754596
-3.7865049394084114
0.20017882972359105
-0.03524900877255176
-1.3374355873077093
-0.769267317030599
1.354633163630942
-0.4322088165956523
-1.6242543359188477
2.145284842408151
-1.8711817215943911
-1.113862849009365
-0.1453113062180831
-0.8126213045937736
-1.5972529972941127
-3.3955327332371192
-2.5073344279946386
-0.4468521561295082
0.7114034721628418
-1.4481963446732518
-0.8950981295002214
-1.714221656006155
1.1901528108973822
-2.064416753027638
1.6273319836050288
-0.7219905089229381
0.18115389768719223
-1.2999975809716808
-1.9689825441420454
-0.6861199221860182
1.681991980776696
1.260268446520483
-0.03915855980368882
-0.863993708115042
1.5047292459537922
-0.5556255912138115
-2.468958988277103
-0.933241825003685
3.7320966125398454
1.3745864698112067
-1.6323805224157013
1.7311905019562754
-0.7177664091717184
1.2165079225630089
-1.1339198690333738
-0.2952850807538762
0.23051794460781433
-1.3916177282438607
-2.1246052200763135
2.652375079474564
0.7771776912527459
-0.9036066212868296
2.4169015965125467
-0.43924213030889325
3.487532553512332
-1.0237914646979556
-1.4111809889554767
-1.509923465570921
3.0601250764097285
-0.7093761998265089
-0.8544865689220686
-1.3107435832764995
-0.17881345438981477
1.4933503967966109
-0.2869240162944267
1.780612932505517
-3.792621358923467
1.3190000278353535
1.3876743181302813
-0.423806964315393
-0.7938084147118049
3.802868404248469
3.42248578501875
-2.3164960728039174
1.391316215432828
-0.13530064476702486
1.7699737369189956
3.2100303103411503
1.5221215517401794
4.0173020551906475
-0.504189422260524
-0.4870886707260162
2.3542960517411946
-0.7407457339885142
0.6684036092643669
-0.47047886397854655
-1.9167653325743639
-0.29517220979136327
-2.1533595151321374
-0.923785947043259
0.6835391289216289
0.8429343111433691
1.2629099277341151
0.7038007294600951
-2.3425523855815316
1.626845965913058
-4.76949022307176
-2.2652341617690714
1.4385707367618343
-0.3507357682350839
-0.04237762517374309
-2.0321362657627544
2.30807984210118
-1.7483706476786534
0.7026940199921359
-1.0595887380575548
-0.01498852603751567
0.217877514363728
-0.444705885869001
4.720583447609934
3.7945957970781903
6.552593771528817
5.121613964819284
5.941653192926038
-1.7656427948775677
1.640249787764089
-0.3715329597886858
0.8678954788392053
0.6381154225242034
-1.406170854067077
0.5625042610891401
0.7914306882145418
-1.2075831952518439
-5.777280684677068
0.9680608232843594
2.574324825852883
-3.156764510942501
-5.81263762988669
-1.1851595491041882
-1.7515632183677434
1.5616838790728897
0.22108410606339163
2.891210007192864
-0.029678777644817144
4.37480135041339
-0.8726869592638301
-1.5540305084176151
-2.194856746614617
3.492895606564024
-1.5250531149810789
-6.260698368434959
-1.2521881644792334
-1.836321624834263
-3.922826485369347
-7.586882345158544
2.6180491956772545
2.1075776168090092
1.1779831002049561
2.462797322070116
3.645058199250562
9.670499161871707
1.8754575017577602
-3.129721293191969
-6.863997163805496
0.397413843392353
4.347648176873549
3.0472113887135395
0.08484244517193082
4.3243076680218495
1.2762031628791874
6.099214750225976
-3.088405131580939
-2.5435479102060734
4.715655219612301
-6.966121637250201
-7.0104042353032545
3.8933996808453024
-0.8145989266819361
-5.029220238363817
-1.7315682925153282
0.36329383432903256
1.3762203262814219
-0.8148763650101577
-2.4990609979023066
-0.28030727424443846
1.5198178870536367
-5.237972023008748
-1.9669084691013152
3.134184962660679
-0.7671763233801908
-3.2049959534464274
-0.5453165017572239
-1.821865119459927
6.183706200200546
-1.412661010282263
1.7717576252725051
2.917269965182183
0.44737840250969446
-7.41545350482291
2.6565819368034833
-2.57982898238543
-0.6387476763189041
-2.032895589943009
0.29507671900735205
-2.35855855605934
0.9022102859018637
-4.357740803410186
-1.24073326408184
-1.9428409849760566
-6.29860686978107
-0.20304647753311084
-3.421869611508036
3.3115657150454956
1.550362066893763
-0.27542788741403657
0.5366271487654017
-0.2790875558350142
0.8410636865533268
-3.9494128728390714
-1.2876455620232008
0.7139573275497123
0.323596033164673
-0.5288678590446593
-0.17183344749183208
-1.6133631621278621
1.3199858382687177
-1.5125599069409625
0.9478248289077769
2.5127891185637914
-5.556195478003004
-0.8227230844856708
0.1539403895813051
3.7686715996342444
-5.754525837104583
0.6855418416366761
-0.2589235338693422
-1.3119434915764547
-0.972681825376694
-5.79592907216622
0.10632343524360971
0.08986094466619886
-5.330394833319526
-4.618807272328339
-0.7014325457330679
1.3637076432430997
-0.12726005719848338
1.7296205041653643
-0.7919288747147157
-2.3892619865283957
2.8527599815121265
-1.9459363501089997
-1.5592318660122026
1.1652085013903277
-1.356902374277712
2.9794986365897964
-1.303152165087922
-7.899290370829973
3.943587370207673
3.3573038410484446
-0.029760978260772303
0.9462556192453669
1.7866552607033541
-4.921625822642089
-2.5094078122970265
-0.3714604877395117
2.575904825556745
-5.587749661616642
1.1546933197888276
0.5568486908849708
0.77025569422023
-3.3941352058949112
2.1235195243261664
-0.9400738641538435
5.499819968137978
2.893239596700482
3.2287253262098248
5.448414364741146
0.6070714076145045
0.7374908176531167
2.4317043270430028
0.31564035183930794
-0.4042486351297399
0.23169222372436132
0.03260483541597692
-0.42156956470689944
1.995727522985537
-0.2213827652413199
-1.6738950235290178
0.6550087298842481
1.1364048269960625
-0.22490532307392094
0.8202804463699918
0.07509722523062781
-0.8015975622485232
-0.12201707174331826
0.6016681401299564
-0.6721282627013239
0.5097125438793821
-0.6926919351294417
-0.33280386447386123
1.5286978464033765
0.28229732320367357
1.4308308838539916
0.10964402145135983
-0.011959345229545396
0.8906964662240169
0.5963782680869926
-0.8623137296057187
1.2686272881875211
1.5836114269117565
-0.07355790307147489
-3.4628518199673155
0.799029873642357
-0.02187045829369878
0.07123271803530157
-0.5453713079944243
-0.37769042535575126
-0.9781266248852734
0.07151217979137559
1.178599075493201
2.706080571137527
1.1066054389428068
-4.841680931425222
1.8628062563953502
-0.03441374087381884
1.997245887256246
-0.31357873202095243
-0.23177862749543218
-0.9025685906104147
1.5823149255797706
1.5921309815945905
-1.7588391151994278
0.8312864341440923
0.1813201311693358
-1.5837610057891631
-0.38162318459618283
0.16231193106359038
-0.19203152555516265
-2.0697361633806737
-0.11415153526188482
-0.757547893306167
-0.5873514697198718
1.1847384158153447
-4.212669191160465
-0.9564091684893303
-5.047645372520307
-2.7762472748403573
-3.721692868774989
-0.20230198639496605
0.45934526480379356
1.7274282010847863
-1.7287517881475507
2.3055744865729473
-4.470652198664408
-3.2424391000723825
2.8720590518459885
1.4941651233493434
2.3331211766789646
-3.4034892530540066
5.001430135984868
6.549710283820724
-3.386273863473036
4.812429588513557
-1.0324160654367487
-0.4233968653603436
-3.174486246921571
-3.656082703046497
2.369930688637574
-2.7563963523504964
1.7769310792241275
1.6895525972642118
-1.286838266435405
-2.9955764861840577
1.5005201502527308
-3.5664128851137025
4.193792577425233
-0.8194145852034851
0.7225827046484216
-3.091906942081595
-1.7050649935037874
-4.956354759268974
0.20361886096053966
-2.2834266228078652
-1.0754907706230787
-2.5819347210020234
1.0779048368996607
-1.7476463142001601
-2.3305805825965744
2.4713617701527557
-9.105912627894124
-0.39266946606045405
-0.2702954328381188
0.19274308862948275
-8.64776854259326
-0.1907137177558634
0.5573467673647853
-2.8605684188963694
2.1683691188954675
-2.600649330358186
-2.32242975606402
5.021239219225455
-5.993173427976595
-2.773914277312637
-4.542465528372842
2.032653779374539
-2.2094419183947327
2.8866490351815286
-1.358743727892333
-3.079251820221468
-2.261168385463862
0.4673461023329328
8.158720845338964
3.3367213145751897
-2.0952010405988317
-2.5626702812416715
-2.745198153838938
-0.5566104389450065
1.4262359695894429
-0.26145147001090846
-1.032950551611303
-0.6433315738242724
9.993586982840498
-1.3696142658854895
-6.289236893769831
-1.6561503064346197
2.473576357259363
2.7326168928213725
0.1363213181556917
-2.567744114691697
1.4287749928041542
-4.858768553262173
-1.2484334613160282
3.5670292820780243
6.999893968108073
3.1000072062811332
6.039985625134648
-0.7747827940397388
3.6149411683421877
3.5287195071265516
-4.281650104247774
-1.7771460414257483
2.9691915948399323
3.7912978262865713
7.628561708245098
-3.2988368287078864
1.5920975643899633
0.7264979525220154
-2.33314871145532
0.2156755800494882
0.1525825860832087
1.7511954196791006
-2.496149085742713
-0.5013802727897178
-0.5213168711575727
0.9727640855419655
-5.641868218044671
-0.5287051427328451
-7.419324244531858
0.36381890763936797
1.2860594012825783
-1.1955598861244505
-1.9967776358693754
-1.5012596802830218
3.259136219962151
6.916850953479037
2.393246498677223
-5.97661559814261
3.3586341142301928
2.083288796062473
0.1528939304423502
5.127463857896661
-0.2910147975729185
0.6808309030938845
-1.66158250639384
-0.8840999124872808
-1.14286443362818
-0.16938440299240795
0.10033106084212128
-1.11173287809045
1.4999300491364318
2.648208358282954
0.054969566959646846
-0.4300991210791772
-2.1784337077449223
0.6102397962400614
0.5605165591714164
1.8286988934604183
-0.8433259903203355
2.105904446399939
-3.780363162266686
1.6300458940465798
0.130551463508167
0.3549935806162726
-0.9802729303131719
-0.3792753943516372
-1.2845824157037353
-3.2893573753066416
-3.937173080344115
-2.0863282353739234
0.7446320007962778
0.80070960245227
-3.9226177630657526
1.1387318289413844
-1.2772970196156384
-1.3992904533412553
-0.6212544600922627
-3.4204167250722546
-1.8581320337329283
0.6907202058235936
-0.9297079854473862
3.762024291105838
2.0099742133071836
7.799567755820187
4.939103522056157
-0.09242299406492681
-6.101883836042257
-2.7432016162822417
4.867557993605631
4.554772296116303
-2.9349679863703977
3.1920611575840425
4.381144383247262
-3.9203436651717203
-3.5238900756576372
-1.3741767031886567
1.129713543271883
4.852267981588036
-6.124709835878375
4.031384384955963
-1.1567791303646817
-3.5227231748856522
-1.4861783947720724
2.397256377339215
1.2643757859038995
-0.3969476015974155
0.019173082914493596
0.7044124076988743
0.367405244343116
-0.8623123337158911
-2.7014625904589904
-0.5367226009894879
1.3006072790470773
-0.1736228885554294
-0.17505641980083947
0.7678009376123761
-0.16224160264223275
1.1773325358291533
1.9674501307184824
0.03580689687946348
0.34588955660214
0.6321843665034871
-0.72698025855739
-0.18617483128032167
0.6533297836801342
0.12685298671963377
0.06906935237245765
-1.6560118841146905
-0.5167427034072629
0.14456969618939275
-1.1700733971710342
0.8205547919636278
-0.18851521815035507
1.641206611711311
-0.07357920335140972
0.35815863359941813
-2.9746224608464713
0.23198743086547324
-11.574059687273257
0.7982827934483038
0.6765456750717682
1.337628665535449
-6.5091920949428665
1.2924073897188093
1.484491230216205
2.550397378908649
1.2721130629635427
-1.7241045146286456
-1.5695449659384786
-1.3166379198335125
2.084091375755622
-2.6240459644790617
-1.2037534934996288
0.16094876545834724
4.265655982032016
-1.3537579394982693
4.427180894307449
-3.7965062308051105
-2.782802304913695
1.8211403201493643
1.0561587174049725
5.159140845828749
0.13482063268042385
-0.9182981096151086
-4.372023064044006
-4.816968105772834
-4.258010551425597
1.1407239521519394
3.2911046905350596
6.863601613979552
6.415535789628631
0.5654024308655058
-3.5698349392624533
-3.1622583354602267
0.6881121321501666
1.4146311265222467
-1.3785496054829713
-6.568157476940922
-1.0752994675003524
2.1528214851263745
1.414937549651439
-3.331829081291731
0.6328652863465262
2.314368891835647
-3.2619270865828844
-1.0429522084659755
2.209780081964365
-10.000176384637603
4.646000151290386
3.573238544811947
1.7191968899637944
-1.3604895774370094
2.53977260085804
-9.356632977713733
-5.6414136042094105
-5.202209512989515
-2.6484953605869466
0.012631156920155142
0.6294453958175824
-3.9632784354562336
-1.50163654437829
10.699746168930472
0.22120585208532717
1.9547226263838187
-1.7671047821925625
0.710830296706486
-1.998062477999402
1.8712484534007394
-0.6369298709091095
-0.3363403126327798
-1.7769335628593557
-1.3722152182860332
-1.2469293993725048
-1.35676316184431
-1.823173126520255
2.1266299175025263
0.38204580494563606
0.54462024100774
