-0.1975673621883603
0.4973648642708998
0.3405736000096274
-0.4576833264668771
-1.1579696177147258
-2.314408214539121
1.8926222000569712
0.5674788264177709
-1.6753485669578174
-1.1307830671506305
-0.9063586657887739
0.581782265404438
-0.6511409491041493
0.8390218212998488
1.5846218366896474
-0.25343262102563624
-0.004222565780414841
1.4056625022429807
1.5537753609240132
0.30498909791561085
-0.4493974212933686
-2.2609409511636374
0.7506865628064096
2.186863495256203
2.7040298954251463
1.23890499846418
-2.058436586588462
1.123317470135393
-0.8541436828149284
-0.982324232861233
-0.823189247548096
-0.12904170121348274
-0.3582647993177772
-2.130937936509188
-1.1488182528385251
-1.513057022326214
-0.756243232220441
5.799267351223787
2.7688818153504373
0.3125017902118521
-1.5626860701628387
-0.9006743095979324
0.4988347398988584
-0.39075662653232013
-1.8666465901744624
-0.0831674500929419
-0.24513734000782963
-1.0257095153815403
-0.8309295883907268
-1.384530180272852
-2.6300475484068544
1.5350558101212908
4.3954596499566
-0.5852808238746189
-4.924865688884163
-1.3628330843660614
0.051316175116408354
0.21151322918038595
-0.5405080408189883
-1.5041528903356793
0.011253932700161588
-1.885856115383534
0.014613573190377972
-1.5544148854707824
-1.553001658683726
-2.270085072462752
-1.4651497149523331
5.921547873918954
-2.5228088362281604
-2.8156765226678413
0.04486321628574301
2.4167888485067253
-0.9044669118666147
-1.380870323230239
1.1115857232814397
-1.5545888133964632
-0.3706220567201854
-1.7929252578951342
-0.6187770833360318
-2.130672789127799
-1.7425146681199937
2.5877270460424477
4.097081871708999
-4.930690411740425
0.46754835870768235
0.11487265804019071
1.399475355924458
-2.5252281559860825
-1.3145396158300864
-0.7185018257713629
-0.6378109126438432
0.5137662469815066
1.2043195702743361
-0.12018901652887426
-1.2969211048382834
-3.0675477150704706
3.0592488283334203
3.289862292796893
2.117838633590146
-1.2342145220700305
0.3650616658841108
0.7359591261507826
2.8485980136659523
0.9817224386944184
0.3957334251399069
0.3677053261713487
0.6922015031121227
-3.5248331551150067
-1.9970668257111042
-2.1036222416989623
-0.049047494316865364
-2.0256935532402514
-0.19323665707025653
0.16728490396730686
1.0919363081268043
-2.2515672534096147
-1.1669831522806833
-1.3062616151951942
-1.3440844542839558
-1.6502301412898885
0.16852215228198952
-0.4000746290030136
0.32910195884386023
-3.5012192239997786
0.09918383166287299
2.8853027924594303
2.3822220401580343
0.4025758339350865
-2.9649445462867927
-0.38982256998643783
-1.6697471172337994
-2.059821745340805
-0.11849871497595851
-2.193324381148645
1.1453233100139733
-0.3265639363311426
-1.977509787785907
-2.51451168075433
-0.5081544293792337
-2.962670787046891
1.1348962334156347
-1.4334096969727979
-1.4551051335342993
1.4422432834408425
0.6387292395082306
-2.2797468194182096
-1.357101240674254
-0.3279151238531924
-0.17495893039985136
-1.0496999263575932
1.1250263528878375
1.4208119183930628
-1.820278768135041
-0.6305210387097542
0.8614562616375497
-2.7516430066256423
0.08245192108998674
1.4918224888555909
2.033558788080852
1.0355404396344934
-4.5027294403153455
-1.1029446309105784
0.5325788212810452
0.5690884525407938
-0.230569489822388
-1.107285995078174
-1.5082163522031957
-1.5296492895187865
-0.1818682184244729
-1.7136282351563121
1.861808929606689
2.4695542197158082
0.4413968053565938
0.5885006223901307
-0.40451802226958694
-0.8104166143082617
-1.422367178395989
1.3793317221440158
-0.6703211815666554
-0.1089722158409648
-0.2273801432082826
-1.1321746786343263
0.8993568739749958
-1.41516958426531
0.3172210906761096
-0.6094033445359672
-0.2031159765490208
-1.510619305225291
1.7376342973055925
-0.7527345335934226
-0.45063416774230053
-0.16899441297546272
-0.19940216938613717
-1.0023039154532654
-0.23113300384691005
-0.7206765100502635
-1.2819593565087615
1.0921112598796283
0.584414386709683
-0.8392623663905469
-0.4575972143737389
-0.08518357101527345
0.2519592358759341
-0.9552767041593146
-1.9728913135017616
-1.1269945396981291
0.5502949272198038
-1.2629834162834144
-0.923396232531022
-1.2540073772199165
-0.022685506039082225
0.4708974936640472
-0.02842317410165969
0.7573591258399891
-1.6763126257931142
-0.6488826150926567
-1.1684354269794237
-0.6708805557447535
-2.8720033625808092
-4.402970349642467
-1.8412968381970654
-3.0692300055743007
-1.0564060796699803
-0.09922638802259696
-1.2292825447925413
0.8547841880020507
0.5629811500116862
0.23295967754311847
0.45787896494617375
-0.3125456108161399
2.8115999327519035
3.454598550212843
2.111808090104923
4.276059872757511
6.398221335191761
0.6643998102240222
-0.7208298742611201
-3.2262873826698506
0.2971401801744002
-0.8118365049123503
-2.2812212540314785
1.6589327248240122
-0.07702618276381575
0.3831769968024798
0.8059185422967504
5.3369528080945985
2.957538987179474
4.456240435556934
0.2899264452505721
-0.15031633596656166
3.3882157816507052
3.2383984161627035
0.8359494923137566
-3.031635062005632
-1.6931678480948438
-2.198451244703368
-0.8509286328996973
-0.6825389139773561
3.8083128034888043
2.3341627349252607
3.2242737778477046
3.641487213390367
3.546875962422411
3.1996566600251533
0.22193055947193466
1.660015209196364
-0.09687750735825024
1.6205127883030699
0.8819511949124998
-2.2887985431116697
0.5552030475618698
-0.786988387672141
-0.8380666157023527
1.2404614201500244
-2.2522097334041153
-0.5152226085177003
-6.66439110720105
-6.030925483914846
-2.4529772106018157
1.6221451044555872
-1.3766673522578743
0.9949974239734999
0.53822335678135
1.9422040459833207
-0.09795504942597444
0.2764275783140837
-0.3153150390738933
1.0285357278005607
-1.0749729775762706
-7.63793137149024
-8.06809925367036
-7.246611144770905
-1.4213549104688061
1.064649465105453
-1.4925379801135188
-3.1772615229938017
-3.5641087266104323
-1.6904882996314572
2.018371967392025
-1.1962152615870072
-1.9061274238214063
0.6179410550367971
-3.4876192009509954
-1.1547418799875837
-7.4354943102395215
-10.282663598525632
-1.4468588339434618
0.11456114836260117
1.3370580935782412
1.521936931790077
-1.5270675697745102
0.3790308795748159
1.7919606001548387
0.7089356102701412
-0.2958165245461921
0.6896209123715423
-0.15029504702540003
-0.22173578504940863
-0.3344643619686262
-0.42450317574960156
-0.27538864248180417
1.5142851067534882
0.8599405190831201
3.0968960485211254
-0.7956149306916785
-2.9140130358718017
-0.3533445129560411
-0.04972691494855111
1.7918544461478414
-1.9785228404868351
0.23527719759233606
-0.6494815524959224
-0.41086119213332956
-0.18351958562857648
3.518850225021665
0.6826820039656506
3.071413078474196
0.3719645918449873
-3.936482790127994
-3.474710972680183
0.05921999564641799
0.00410078622143076
1.383108994847806
0.7320666058141202
0.7412233144983887
0.38468570591779866
0.3351249207135691
-0.8786891711021131
1.8788849814885644
4.561693965476399
7.72877598959531
2.03848806542691
3.2560186876419865
1.9678190529245
2.4834903609857313
2.002841592806411
3.5847478086223075
-1.5467595064009962
-0.9179969328565175
0.7233585694302156
0.35959479171613257
-0.727539549621585
-0.5884288128545364
-1.0827438361382848
0.563963777366853
1.0607255275724679
0.2316197568167822
0.5225721108845831
5.521274071753921
3.1844397233820234
-1.4119911706207275
0.8857255133613958
-2.8974564882953544
0.2752745251672618
-1.6483597585990382
1.3505957636280843
-0.8912359788104681
-0.5094125349780997
-1.4471925735297468
-2.5148824593995305
-0.6031009854518672
-1.9035161141097336
-2.2530944844132352
-0.9200392921823571
-0.6012431017497248
0.015533988724938894
-0.13622252378555488
-0.23382559101674302
0.5012978094306604
-1.8741365081261108
-0.58855139653398
0.5307276973744234
0.4822067724720682
0.7046217971828843
-0.7271735523021741
0.348241304319766
-0.8055437571790776
-1.1451625092798818
-0.45350746149567805
0.12156837635206776
-2.1986721390663595
-0.12259245942883379
-1.0400380375009812
-0.6637230269675092
-1.3230954075652783
0.10744793760961353
1.9723713357690391
0.17632847045803482
-2.028792188126062
0.4040392267738829
-0.21922001024782464
-1.8380976599018548
0.48410306074977477
0.5334535204703297
-2.59452653994283
-1.4113007880278337
-3.049782412825084
-3.729809214267604
-1.4435779426773632
-2.104482110523731
-1.119815019574111
-0.8819320644558126
-0.015395225900786885
-0.5559565905415182
-0.5251549399631066
1.750746426359083
-0.4282464119859069
-2.069130475042316
-2.2211472594057784
0.2321890973923898
0.453769923534639
0.6303067421526696
2.284457443773986
1.401585729398747
0.5057801581123592
0.2690897373526184
-0.5819457607161892
0.6729313232940921
-0.23329235608688467
-0.6338071193337306
-0.20014066061798816
-4.172805699176948
-4.464205125258489
0.8451980141454896
0.6491520957690989
0.43326901223748493
-1.610426390259706
-2.0128589072943783
2.272138762838811
0.8776074111207544
1.7111734645955323
0.05881976169478258
-1.5156099300534365
1.6672869922832465
0.28777792253596596
-3.4786394567879575
-1.8970374352415116
-0.8978374876744543
2.3716729714223823
2.1203044803774356
-3.0191526508284046
1.0299826440199797
-2.7197052136050175
1.776831003771524
3.1712757186727005
0.22720980594977122
0.38739442119826645
2.12801782579692
1.2898827499805554
-0.31301089494593226
-2.2135062014806914
1.120247376349986
1.5180481566217379
7.812158990096764
4.082237598144966
1.3382479165560643
0.27066068609335797
-2.387445117075286
0.2104390425040595
0.6381485083941312
-0.9275510513055608
-1.6321120592105367
-0.7398853957040841
-0.3213886237156858
0.3661615626975424
-0.03179153894539542
-2.020492072568601
-2.947560854494768
1.7704748943054023
2.8484149861438435
2.611325323186467
2.143474106339066
-1.648056054348131
-2.3476795578202987
0.43124277950170165
0.9871619008712746
2.1186726140747862
1.3442617454833892
-1.2614283504220491
0.9050434940285822
-2.173056112981239
-1.5254623190140797
-3.53926939387008
-2.1607907125025494
3.329078988934534
2.6108413475903114
-3.814901883761435
-3.8116597224147695
-2.0864356784285416
-1.1397144363296798
-1.555591435094148
0.6258842173769548
-0.5238870895369652
-0.7679727152140858
-0.6277148771996549
-2.3623309655981695
1.303576816478043
2.515983082333221
-0.36337972560082726
-4.6078769958378185
1.4605748573780275
-0.06997839242147633
-1.1297298898951662
-2.730042787300544
-2.686215017584127
0.3511360117055225
1.4012257947049407
-0.7670888700311249
0.32950800031042266
-1.781632751993704
1.135099503857239
2.251764956577133
1.6057553645182039
-1.5085232628266008
-1.805200939637468
1.242692487942393
-3.430596506628351
-1.1835706939372972
-2.671935147711244
-1.397372363236073
1.539245985836565
1.719757790637109
0.04391087267674622
-0.523212312384724
-0.8565119845892971
-0.010497269936736294
0.8729192744757976
0.153615793903867
-0.9187719336629886
-1.490220765858384
-1.8380298604274699
1.0914904447684193
-1.0182231328919098
-3.024394643934485
-3.4200084992427318
-2.0200136828790756
-0.3749656235088015
0.8783220745853033
-0.9255082415715721
-0.19879143610261424
-3.464093246784513
-3.201088539341375
0.029617440510178988
2.2257373075375337
4.441065557634144
0.3970121611408477
0.9875270623411375
-2.037973843278182
-0.7346891395234688
-1.1664172749719894
0.3581065255668439
-0.47109578828855264
-0.5260054947162349
-0.7262172259402875
-2.752322670023711
-0.2614798984352886
-0.46657764596975587
-1.275678026016693
0.8053258467668322
0.07257332551889414
1.331285705374674
1.4185639380888757
-2.1388292675680014
0.5653180016489535
0.044830195890843076
-0.29389548437373963
0.5572215543391321
-0.3582967371596985
0.5340789094847416
-1.2964050625207708
-0.8072348982407991
0.003455248170030603
-0.03484786042863138
0.6714871944450732
-0.061247200332177384
0.15611286734676083
-0.9124924987221764
-0.4200862949802605
-1.0697181169695429
-0.4642319024945679
1.5662193281035384
0.10981142393104874
-0.5062606118782174
-2.7470227226662494
0.43639143219509624
0.48474117044283693
-2.412345531510494
1.3446736737852278
-1.7521041377673425
-2.9561261369833782
2.3270612574295733
-0.01966737477698079
-0.3705993897443611
-1.4617748856425163
-0.875956874079521
-2.9285537303224665
-1.0304954823111885
-1.3554478894066024
-0.4428408058120531
-0.8556406542862356
-0.1818791206402003
-0.257874612255003
-1.0254137337993103
-1.4018150899636166
-1.5788072667173223
1.3266403628375203
2.9475658197363206
1.41232875835574
-2.6424587101183206
-0.10709546897399636
2.592962862432159
-0.3769567850039263
-0.5554808268806439
-0.18875454831783794
0.5601057642554157
-0.4973584063650727
-3.0286138358222403
-1.4160151496382742
0.332280284789416
-1.0290533335352443
-0.4887029666555832
-1.1626092569425956
0.8980009407179419
-1.4526748515903054
-3.9267879199031355
-0.9778996312949759
-0.93180412881837
0.23221046784434518
-0.1809924408199543
-1.6750555717181066
-1.804452537360989
0.05285184792771615
1.6967875036108875
0.29579945504722616
-0.7306891172707694
-4.313492266434681
-1.4309021481084805
-0.1872600677263964
-0.3276196949341413
0.8308283606545036
0.5129466683887361
0.17817465337420132
0.021327692046849266
-1.594587228232867
0.40559694844629374
0.7958217062668507
1.6314006952061033
2.5850966073471473
6.4607267381856275
2.2852319606414935
-5.174423799518741
-0.8803353271798753
-0.9929608096900439
0.6664320928015706
1.9541111002170226
5.155235243163219
-0.5107465167303444
-1.7957066655196412
0.8984991287550301
-0.3077600468433347
-3.587652524772933
3.653335251672582
3.1619882488435325
4.456525563177217
3.713972796002828
-2.422173786262005
-1.6218879600685225
-1.3592234755129
2.50110133521813
-0.37485342992408255
5.191341293014388
0.9258842264985461
-2.282302560329772
0.44822875587294486
0.29510430512203256
-0.8364970410586705
0.18133952710702
2.909553860756343
1.4324295376444256
1.7417738689876938
-0.052629835591880406
-1.067478796792617
-2.113986729081487
1.1738467683745943
1.8244173451723913
2.049711874069602
-2.0093529691763146
0.7460715173923576
0.38297926691899487
-1.7112788083116313
-1.0450489134211036
-1.4708458568335276
1.7652607197026728
1.034353432675394
5.499759046386825
-0.07166877838526467
-4.794136165870498
-1.5705619906163562
1.0959101149135086
0.8248527615901409
0.47521054820563274
0.9949841720763603
-2.6429065929923667
0.048171123003990464
-0.4055119336660581
-1.1133600414884517
-2.0240259104136777
-0.9421625476896021
-3.758986611932537
1.0681700959040958
2.65641692916984
-1.9473302058725799
2.2824833407938785
3.397931943013021
-1.9696625517341684
0.16189203144161354
0.15514265711635897
0.06016188015984999
-0.5084854407237146
-0.7068737508023251
-2.3549805017211205
-0.22796262372731158
-0.1931437748287713
-2.2105135229750417
-0.3996586631186332
-0.16546918273752112
0.6843064490323543
2.7268237658577994
0.7022290049272687
1.4204380615831282
-0.3316542516560995
-1.336803698448929
-1.273852123384263
0.1294736016999961
-1.0124185519221856
-0.7574253756232132
-0.3204653536041481
1.6860296026453716
0.007933448040495283
-0.820069208311404
0.949601170260548
2.638931985113217
1.2291854455269609
0.42571431522676684
1.1780520134835588
-2.1543900088160792
0.5816252625578744
-0.4522037774616712
-1.5702717096973724
-0.6251278752707721
-0.7204050081751421
1.540414015126478
-1.2251838150295244
-1.2716485920074234
-2.9981626887170907
-2.0005492750753864
-2.4524971445603043
-2.2166602502429704
-1.608457917125275
-0.7115109961686901
-1.3489648104309286
-0.1370045204098137
-1.5498155287069753
-0.9493144859518718
-1.4994612579504794
0.5028893025719613
1.219758061576111
-2.066040917346274
-1.345566229259818
-0.6089930338290858
1.2423613177573318
-0.7347406103046912
-0.7976287511705585
-1.1940797987713148
0.2591126306581168
-1.135229969500156
-0.8214752890453622
-0.08931726261885012
-0.490898601574464
0.4138302898613792
-0.11678658769703323
1.9642293724367437
-0.23120936272854015
-0.9299137419020997
1.0599622428032698
2.7015486053145614
-0.4319959916543797
1.9487145563570702
0.2511443684852208
1.4064749651115747
0.15446855111442662
-1.7002859062589146
0.4509102133476909
1.9239447706294497
-0.21322060149823202
0.9545612789657686
-0.9950313265025658
2.5492006325617456
-2.426598640939349
0.18517116041890883
-2.777795184882347
-1.0355818990818042
-1.5683637260341783
-1.692330291524877
0.6982869542925385
-2.674633670340576
-3.0319615216304965
-0.6775092436720104
-0.012278180221630684
1.0558348960998858
2.0931717831954173
-0.10852728934886621
-1.141682955695485
-1.32773455518514
-2.8679969669181484
-1.3572891048497304
0.057411438182054554
-0.6394805658974101
0.04409778022192957
0.6204998332473705
-1.885107716178009
-6.621060084216372
-4.697897878003168
-1.5254096532871138
0.05759799766767698
0.8375343310079859
0.052745727802035104
0.17655038501887696
-0.9739216475089728
-0.4165922818369515
2.6419260954389645
2.399814755944304
0.9931840423185014
1.7077719707109325
1.9098213716663752
-0.37703844325866825
1.069662576077832
-3.273407217529328
1.360906097142868
0.3924785194249903
-1.0721014879461053
1.4058256107463385
1.0286493462859305
1.9782532825952384
1.5961309113356437
-2.1136696987425987
-3.004963264751053
-0.4223367399138556
-2.1218107555801726
1.3029255881251671
3.5707863438077916
4.72312651618619
-0.5378457988485796
-0.2555161131614323
-0.8141312870340941
-0.4542626978890675
-0.23138125165709472
3.02943597964203
-0.9104848680172504
-2.5716915827335005
-4.31809581082206
-6.710461833580106
-5.901438172564641
-2.128988243906832
-1.50035610511498
1.0795978133267334
5.060586543338807
1.7859256275620177
0.11233964771267102
-0.30174047752673266
0.7606808396160115
0.6275152977938255
5.402713083900378
1.8728254772241681
-2.7382885295307084
-5.021672124566126
-2.8214634837529706
-1.7808429419826413
1.6362305636794257
7.007994826194632
1.4884197437395736
3.5789739293326757
-1.3261988468385
-1.374345778494865
2.037921005513915
0.6366106676129053
0.0026941599426351013
5.354528712576449
7.216213406242818
9.733445463263374
3.928303794573099
4.320225140019724
4.826951755093818
1.814444467634109
-0.06225369162185649
0.3102527539025308
-1.445108019160518
1.227597306385606
0.2542178275542038
0.11209988578704169
0.02081146883282195
-0.31154638266820905
-2.0026215337106255
-0.8149581076525251
0.5635265690311378
1.3164672798394252
-0.35651693095486114
0.3273004547307323
-2.555699509457952
-1.403523576652593
-3.8836052884538086
-1.0858736412762047
-0.8073969019117864
-0.9865652375252393
0.5707464339356433
0.06871494125657346
-1.6418038893090205
-0.6263197129419099
0.5094612517436871
-0.9080406559872004
0.6346336180081734
-0.2656048006983039
4.497397271012438
0.6421834264575589
-0.6245778157928843
-0.8397137802735727
-1.3561883098972585
-0.03197894022465364
1.1414665178747012
1.8046830801830747
-0.015479927144446506
-0.1813077297833596
1.3125202239965386
-0.45745362560967767
-3.555899474914905
-4.056310382210687
-0.9796287095522824
0.40211425925715616
-0.5255855127567081
-1.4052811997874708
-2.424682845022567
-1.9420962649252231
0.9294549100307593
0.137185470613924
-0.1007288374458711
-0.7304090731628662
0.10020705251339757
1.6080931317489446
-0.9974291830210695
2.4208894254225366
2.405982184464993
1.2655634813516694
0.6070170736754298
0.8773593476001332
1.1438835761800008
-0.7034632107441053
-0.6295251014228616
-0.13398354794516695
-0.8217280079702164
2.453153519653568
0.13576122428391457
-0.34241453981841485
-0.41309750654831856
-1.1852278995293721
1.8870779129876523
-0.14386810796440053
-2.067043238308864
-0.40192494893431124
-0.6988290792134071
-0.7251289730000046
0.19111343201856273
0.7109216848292412
0.9545996983754852
0.5926538382109516
-0.2723372802132974
1.1670990726780617
-1.02214875807227
-0.447195920230146
0.444387040853472
-0.8657698223784311
0.6700655352841581
0.06438764384812488
-1.2439269251410974
-5.085036251180221
-2.6916653469584175
-1.8440888658633403
-2.378825611267503
0.35324093856066696
0.0029429236001860377
1.1459617430035847
-1.649579289990752
-0.06915141320333193
-0.4857588956915225
0.12500199744681958
0.4478458133229669
0.21436667380853452
1.978693573260091
1.807010758418859
1.5794221597225817
-2.778645416893305
1.250641666020488
-1.3419788240964705
0.5055070120552857
1.009902224376017
-0.3525850308473089
0.808296748830591
0.20774804517421447
-0.5699265733735367
-0.786953911553946
3.6711512458441877
2.7087120993579474
-0.28342826917132485
-1.9138753198825347
-5.1356938919376045
-1.254245258432029
5.45131126717215
-0.7245663147062116
4.098843221703141
2.315609796393571
-0.7619893822656398
-0.510877753280981
-0.9839426600004394
-0.6656231801867348
-1.5073066188045088
-1.2266293190772675
-2.0520577100469333
-2.7413787310053204
-1.8361736300349014
-4.480660737859022
-0.3143052590239067
-0.6720331894350509
0.7664663961067413
0.2942087247167566
1.6639370526006507
-1.4177558825281635
-0.05627197395326679
1.4423833882918229
0.8450782870681481
-2.3073425496107305
-2.198117946804491
1.7811888002025666
0.7382810330788669
2.684249745748866
0.4983037407695878
-2.551935767714101
-3.607010521760564
-7.886375052759361
-4.781001265687261
-0.28668483680706147
-0.9267405234265542
0.793218571481966
-1.7308074821723751
0.8349317918957514
-1.2233058081045902
-0.8832246155629115
0.9492833134217393
4.910000938832495
0.4874892092562594
2.6423982817433354
0.8990776856802245
-3.0169904920814394
-4.804363964260243
-3.389086578613462
-0.1679701915879409
-0.6888847389782902
-0.10471702737637165
-0.28717826235397637
0.8699278391472218
-5.127030328562266
1.607084505649814
-0.022895355170903946
3.472350037012894
-0.062197486289854574
1.9608695698849854
-0.4810201047781373
-0.3476454584145215
-2.204029241335312
-1.776757333590277
-1.0080566680890364
-0.5329099223694613
-1.242947645222158
-0.8010438503334913
-0.1810819109952668
-2.8927208094017587
-4.4295605222242695
-8.435487356442707
0.7667512098208561
2.969083190542664
1.2304845602719467
4.309330165794078
1.287666307378294
2.3576462522146646
1.265371019736858
0.013308965575579262
0.5328424543177164
-0.5811737656936897
0.39168112698925256
1.6551637388840423
2.8211081391417068
-1.5412641081327036
2.8082619266854008
-2.983653927734394
-3.4469846652265574
0.4660228949017776
-0.24052858508730954
2.55823930062997
1.9797979035152238
0.8411333898629678
0.5232996393905157
0.4558461191960881
0.024872948654117755
0.9503280701372656
-0.7928382400468473
2.401540344767729
2.0013848295616428
1.5115647194719788
1.5884389436723172
0.7488767425109691
0.12697179840241804
0.8684486173794544
0.33288911145890493
-0.3301941131538813
0.8754567940894307
-1.61575137184228
0.549205415537177
0.4372218264715251
-1.0679970029987294
1.2647275798776199
-0.2974339455924955
-1.1125211278101286
1.2722342777303433
3.231198430682209
5.110483841394374
2.0218365673118055
3.6556201726951065
-1.5620852485924084
2.1316867176518937
-1.5325254939987545
-2.8117034761769384
-0.8161762965342141
-1.6497601357039984
-3.225931970248446
0.10685005180489579
-1.4466910673337485
0.45875697028228024
-2.5021180458479644
-0.605865463534573
-1.6601486894954705
-0.555489550407102
-4.317396002516405
-2.046546300027222
-0.4422293870947516
-0.6894300738265386
1.0088304040839668
-0.8140092119080284
-1.358244844192595
-1.3427440594661788
1.489979123591198
1.5046566771434917
-0.8749321110903513
0.5919965659482253
-0.07216928764952023
0.5682318907410348
0.0550412794222605
0.23760470260936373
-0.18861479332312228
-2.2897992709076163
-1.0159699397780346
-1.1039279877520674
-0.1010822836915576
-0.9250307998156754
-0.5871691114179644
0.6890056192740625
-1.2078396432825302
-1.4530040776262252
-1.5077053991521903
0.16046948822240778
1.806875589155199
-1.566516628523867
-1.4851934067836052
-0.004874971070891915
-0.7716845732088944
0.4804702462023823
-0.6116812866653503
-1.6856926346599488
-0.4944755239519518
-0.0708727825444782
-0.009527942302064189
-0.3994835648342932
-0.6044142639519353
-1.6702204049852796
1.2805741073847852
-0.618677230786865
0.2011958368319275
-0.012397929543187284
-5.020293873558285
-3.534188540222347
-0.5384303460101071
-2.628261433067628
-0.4468265216652157
-0.8684814196190803
0.10838454926485479
-1.6559045201042872
-0.2539756516695254
1.0213936899190559
0.7723688521151956
-1.0581772759503039
3.9450275524230416
2.084800779821924
-0.6228432618888228
-1.6001749047423328
0.4559953960479682
0.5032956641631091
2.7261856873493886
-1.8415729571145991
0.6727073021808373
-0.1349628234894079
0.5717970716207631
1.4204122147307832
0.49049620594549953
1.9559017702102701
3.2067134967968096
2.257828103301782
1.2851544226664968
-1.9778251552720576
-0.6502840669091235
3.8093182091959696
2.9817106618001272
0.3307960085078703
-1.5478159960197735
-0.7839689244932154
0.19279427506582564
-1.7550966613180747
1.4859751414052114
3.4359238121432427
0.9223517675434264
1.2904010474000938
2.240709387527024
-0.9475145222119379
-0.5308023336046619
-0.2077756265563589
4.85027654261612
3.9812443719020716
2.7933642704928974
0.09587205967387073
-1.6129257596991489
1.726734484101446
0.6393648178294277
0.7906841435335272
0.1340905929452587
1.82912848652496
0.3126796996720097
-5.49934836705218
-0.3498634221099886
-2.1632250641528077
-3.244208129760087
-0.2067473241454199
-0.4628769816982578
2.3618485449699382
0.26618039744462574
0.577605380430544
-0.06137575411789246
-1.1987720382901244
-0.02510676971189019
2.046470476853346
3.130122685944545
-2.3148920068202634
-0.6666826162564432
2.503012651766142
-0.7215875492171525
0.1904192589943642
-4.33056925926703
-3.9682809568048256
1.2383337853921834
-0.414885198010766
-0.7038381796222571
-0.4226865128287889
0.12120490042996528
-0.02796234596812519
3.8371743092762776
2.9139522057190406
-0.8573535199270321
5.702661432425387
3.5625460216291494
3.6255835744900775
2.5637562502480327
-0.4915599076687283
-2.5464663036410577
2.4640108247716848
0.46708722066932823
-0.1450873332291503
0.10525165556975767
-0.07888012334622617
-5.718179069163114
-1.7444635026623938
0.2856610210933627
1.8845256372514265
1.5697033354471552
2.2446398164957
0.8670874732624569
-1.9782481171273127
-1.0304099872132966
0.0652726374301783
1.8379427116165055
-2.4588443744598605
-0.0921620243629759
0.846369636466512
-2.8529252162167396
-2.0009434797330425
-2.4103860956012872
-1.8165149753530934
-2.1637910207707436
-0.680001952243648
-0.3760834661247434
3.0073628600234024
-0.4293892009054326
-2.749508544156981
0.28731761490445945
-1.0301904942639921
-2.208176343260037
-1.4203813254519835
-2.3745452626372376
-1.1332614804270138
-0.6228535574503421
-0.1904209064850685
1.6834400204628637
-0.6110584478097115
0.0927288845812415
-2.120840474646025
1.1940358065278152
5.320411159901068
3.4334000166852268
-0.3662334395484865
2.2532171193344936
-0.26008714626332247
-2.4778444730486786
1.182071596404819
-0.6298178822114197
-0.986092948401896
-0.5345920972949498
-0.6436970931087826
1.0086932695273856
2.6555698027633965
0.24127093697575683
1.1511944554518556
0.015416468229982098
-0.6124431200959621
0.02311641899790418
0.5405044619518405
0.19071407044786642
-2.910008144846717
-0.334665336033411
1.6036454306928625
0.7625318049056407
0.7445043620335212
0.7616047146280027
2.572420362618976
-1.4627130878205241
2.4897392012632196
0.5958133415352063
-0.16887924542208577
1.562299562677694
0.13000075340630105
-1.2395204222969052
-0.43032047742012763
0.9967878455944783
-0.46895589201359483
0.5526441340742527
0.9207905773213074
-1.0170211629519503
-1.2285024104755502
1.1392145728149563
0.721700575906277
-0.37284561280257195
2.23359567883768
2.3856715653033578
3.4521135669338454
1.3299513946132053
1.4314032459337174
1.2192961803389581
0.8207942997588884
1.8090381535822027
1.6534478006165614
0.7554795228050846
0.7364418917242906
1.9573596016231205
-0.258530054427978
1.4660613956686033
-0.05387120621178986
-0.5328960653691355
0.5344239911275168
2.098227626235598
1.7577225109361738
3.9302188306077817
2.45663110021966
-0.22473561588030316
-0.9548154396176168
1.4847089491806003
-1.132660598964581
-0.09229305669062564
1.4772394574299836
-3.4367296667398297
-4.053359295197881
-3.3099595481599002
-6.747465951425006
-9.545981709048137
0.5797144067248368
-0.3125537574876718
2.076130451000115
0.25040584874682653
0.6501246154427776
-0.48501415698941364
1.0165954835269866
0.150749222106245
-0.31925386820536084
-4.916373177401496
-2.9156114974509695
-5.707003158759544
-8.467731803797616
-4.655966387836809
-4.82612671598519
-5.397965621764955
-1.670583079783565
-2.6263795605627815
-6.817200014372399
-1.331408572056755
-0.6557732384985668
1.204360743714329
0.5220406577905684
-2.17697786388258
-2.7873023602868106
-1.2415353066541772
-1.2656740994416475
-1.0108726646214645
-5.677898696995291
-1.7168468688684944
-2.195152897698579
-5.83670778709907
-1.500900948653311
-1.5457086176221158
2.2305884471076416
0.7044589398417668
-0.09976904448909617
1.9876502509541338
-0.2499318709393739
1.4169694123579462
0.08424852981604174
1.308476407393516
4.23701796614475
3.526165257586209
1.1833193019563484
0.5606828013088487
2.830124014435719
-1.1960985399616462
-1.3737472573515777
0.7384962441194292
1.218705049969619
0.4778418185470849
0.742890463872788
-1.3180614492767444
3.8012536931727845
6.262001909617351
6.328487408034745
7.448002042889243
1.7662198719708981
2.789490870099367
2.882405715866093
4.087807074877969
3.8363529625903205
0.9525050939830491
0.4289402214763032
2.175730381724942
-0.003543169577325268
-1.075017278239607
-1.394001270556934
2.7159184285057254
4.803902177414012
1.374071265407998
5.217644906455278
5.332257360387315
0.3618846451294828
0.12067289850251949
-2.477988166727539
2.061964046807855
4.368454977631776
0.4793696087131224
1.822684692617822
2.1295663147761053
-0.8620519821560808
1.8561140477854596
0.26035756366202234
-1.0228406329503636
-0.26738355249735873
3.7551933202418257
1.958612383187044
4.339743274176584
3.1726397867380913
-1.8770219322342305
1.6614683603786289
1.98589829803141
0.6799916162428514
0.9430673606249225
0.04464938274350378
-0.31080881063882765
-0.11371500328079681
-1.2510886042737919
0.1973411183350498
-10.320034567350282
-3.2200222649852455
-4.625922086967084
-4.4131248080745324
0.8663643528845535
-1.0289290217100306
-1.2147787191021084
1.5237636341256893
0.7827069535280801
1.5968112748098608
1.48103335976902
-8.383983728534949E-4
0.33658543882350134
-0.24842268821680819
-2.938993666036264
-3.2601884920133104
-4.30648879498304
-3.668926250883798
-1.709380957719673
-8.872397055097943
-1.9587135271215546
-2.4803113392584994
-1.8133027044168504
-0.2710173658738189
0.013130842723474655
1.1203996620610708
0.5716592418247446
1.3432635467064205
0.1971305025798741
-1.977373728924578
-0.9138845007238343
-0.4758320994092314
-2.0035715009712427
-1.9843255464343108
-0.41174167265086575
-1.0551526392497659
-0.45630553581189603
1.1849805795240604
0.30270425991210587
0.7207058735374583
1.2072183568472457
-1.8259224569721013
-0.024703849751120107
-1.0540495032240629
-0.9405084058815032
0.030470531596527996
0.5545317026510921
-0.7531190279297514
-1.7417935666170323
-0.8530171344101958
-1.2344535992785877
1.1665166730930419
-0.952929983366029
-0.9339560916533451
1.2525053952772796
0.3158955541986263
-0.35084883501000846
-1.7093161926759288
0.6949696865507209
0.34951923900058746
-1.0243447090564692
4.105998819785531
0.47616059616424844
-2.16930992459016
-0.3876167327860066
-1.3013394298272056
1.4605479430832993
0.024858087897109814
0.22564398881029188
-0.8708221085568808
-0.4377437446299352
-0.06260126963436248
0.3603698867048288
-0.17019307994403707
0.5911752871007465
-1.3918182445804985
2.5179235230038466
1.1142820628829864
0.14858529257641342
0.5971096012599021
1.582679287889879
1.8612041766468794
0.8123581235414368
1.0276015633693325
0.7046447927272483
0.2555218630184234
0.7744669954879129
0.0778503993402127
-1.3579308709966353
-1.2549351783937408
-0.3889766779720085
1.0310242278473865
-1.399193190960185
0.6746185527532104
-1.2173432711891694
0.9834547285462972
0.5588987310896368
2.204280836071962
0.2383592614379045
1.905756183309719
0.14222119483356663
-0.7893832465443897
1.3623705952152232
-0.5773445251488127
-0.2255778063842152
0.9794504327795416
1.3616682745647892
0.15969620552183633
0.859693568877953
0.07103908179540704
0.6889013404784011
1.4617067363491956
-0.7092100682635085
0.5132795817599777
-0.06781870154089022
-2.25810054262319
-1.0052539350000895
0.6190468305435625
0.5855075396877351
0.36352400441223254
-0.7927465537285903
1.3117740078829903
-2.3423894038595154
1.0664181214680093
-0.019997752912095348
2.3090630680887605
1.8316509192842823
0.5235026078683704
0.09691292760201382
1.284019227364714
-2.467059945663652
1.5900180957734387
-0.3758451064454953
0.29457723484177434
0.16268878626309122
0.23517006856280911
0.1021867059188784
1.1673360986948365
1.0598559985680227
1.1195242834206895
-1.5805540795791715
1.7384945377696552
0.7359592803559953
-0.33469187217714824
1.2440963397999893
-0.3226844146260815
-0.13182501127728527
-0.04369725277498156
-0.3760524498443593
-0.8761439423313778
1.1969330073870477
0.38579874748929766
0.03174693639222307
1.891665126297708
1.2470937074635795
-0.7759103926470209
1.1818106132879311
-0.3967872548415426
0.7373592116601904
-0.9640660030106191
2.348374395752615
-0.25257186142615085
0.3568387488607664
-0.17576698271097166
-1.7407461290118027
1.3721938141279695
0.06060679838545389
1.0672137372131278
0.7567400561515385
-0.13837131755720883
-0.9941888873685152
-0.775355283917849
0.6717929368577165
0.4391960569186692
-0.19535053540003747
3.2618460961252453
-1.6065144011377077
-0.7652623097431307
-1.7045697575698007
-0.33902262802172045
-1.6410649933009824
-1.1164740653467946
0.6723342183026547
-1.6295236067289085
2.149441882167415
1.2355187770401512
-0.10950407678958687
-1.263141844112571
0.021737107520308004
-0.47817994797144264
1.554089610411058
-1.5867075177763597
1.0886934872331242
1.8564593542896146
0.7878873498838647
-0.2043139860075717
1.8659390691717042
2.0050300917298443
-0.5947392762790202
-0.1336813921289279
-0.7459429307401697
0.08421398887792934
0.8384152610922029
-0.41140340808477643
-0.5567588479670164
-0.8601871226669116
0.5004949876878465
0.8751010922403326
-1.2851278470332594
0.3294483577401095
-0.5855952284283561
1.404591345997963
0.6321866813620437
-0.08167469715401779
-0.4822872382695478
0.9129801017540375
1.2803701151389228
1.7183032590785947
-0.15579963671718638
-1.6106494143780652
-0.5194885312382154
-0.6049006512367838
1.3722392660720066
-2.379386202442529
-0.9813148833601151
0.01835921881369402
-0.0860082985979322
-2.9803625622891685
0.6138907236534479
1.8349708793259512
0.5082246018373701
0.936722665692059
-0.30901624711602377
-0.18971012649578242
-0.03913956464731188
0.052192743451715186
0.3096089193452401
1.2651796108792501
0.2802692841534044
-1.3597232462514155
0.07736183953489396
-1.5702926820846796
-0.06943927890938732
-0.5874951352470823
-1.6930863063713024
-1.510004354706953
0.13748784746964288
-0.2853187416423763
-0.47410597999476084
-1.9308311867654977
-0.5505362162222471
0.5363321132152181
-0.17024256796160434
-0.2929385456260704
0.15252421085684184
-1.2754051210978883
1.0332075373781962
0.03204892372508145
1.0325751470396065
1.2818746620156738
-0.25591408957567224
0.5934894823246942
-1.3019477989800234
-1.0856404796869794
0.5827927031996946
2.0201945362554876
-2.411119646090314
-1.992762929647546
-1.0316251408795973
1.191431726199424
1.6172937192238253
0.9727996787526924
-0.3572535256118268
-0.3823136048126237
-1.7773599300722798
1.0572716435657095
0.3805454952906279
-0.6810171393905493
-1.858059374082627
-0.8989820885306969
-0.02086707342019914
-1.1533317225688278
-1.1360943436763389
-0.5964233953252152
-1.3038875629107105
-1.1132215320280667
2.7811465983714183
0.5924620410610137
1.9960228225622438
3.1419652364908144
-2.0956508555236915
-1.3601186412688788
-3.280739818279603
-0.9706958683999185
1.520163682868513
0.3178007811346618
-0.8048018351234677
-0.19181478198888194
-0.8839950912163363
2.0661143447128296
-1.6391546823618766
-3.206293880465168
0.015313919188567183
-0.21143762408807118
-0.9877243771628355
-2.1530214719180987
4.504114722280756
1.8616595390023112
1.2004385291776223
-2.0626057807095766
0.7072302443841372
-0.010699158959359797
-1.1260483156658956
0.35191319720708286
3.0446604722859543
-1.5413532752712633
-1.0984869330036755
-4.28177300367178
0.6841628230571823
0.9374352841986778
1.2344048867919506
4.373676569011786
-1.2257847343149957
1.4225581226747646
-1.604942200203603
0.07724904355553774
-0.09805302561691362
1.7325982246092861
1.4270118532609066
2.3540594812078743
-1.712477454853029
-3.1605831919736462
-1.8206508632775766
2.0600842144135774
-1.601069411094026
-2.798908392877925
-0.25105540674232
5.516150105624265
-2.4315048987972703
-2.11957613010183
-1.4525053832062433
0.34754921597670846
-0.13296571936485477
-0.5450927769099732
0.08411265275661257
-0.23788266936274355
-2.5371351235463386
-5.920250137479415
0.5588630371839344
-1.217668851547954
0.773645017197182
2.004923013767496
4.63239600827423
2.8748541832862875
0.02770205774042473
1.119949878349433
0.06042050071705703
1.882037130682031
-1.1947177531802613
-0.6205197749485571
-1.441745303813398
-2.898654923684585
-4.979674516656859
-6.78062047957048
-6.3480647742871685
-3.225587312069259
-1.3742264221769434
1.5532563055849755
-0.16399380612589382
-2.2975953158400526
0.032521571254658786
-0.7033832334802248
-0.19302842610214746
0.868677100032377
2.3526380327912118
-1.2757077652489786
0.4432494289356489
0.1846631741797971
0.47216325815833393
0.34554875062957713
-0.1896190494139456
1.4004487674195605
-1.5957656213710574
2.2124187361080416
-0.0908982100015482
0.1831535968409396
-0.35623574469204705
1.174907775502672
-0.6979081007786296
0.459787736326481
0.031069792365157823
1.7581965412849856
-0.3010283263598049
1.7561731626828905
0.8430364989515854
-0.6057409496103716
2.0085779464171827
1.913247516502639
-1.9966844382902573
2.115223830145892
0.45815556317341194
-1.3601831454691973
-0.16838836505718816
-0.701065613171473
0.4591517743886098
1.8951811739679618
3.458945807087871
0.08250705660368472
6.428890869889937
-0.6004031515254511
-0.7723586689600997
-0.5123742797074359
-2.2250152486102963
-2.817096303312995
-0.9079719786371632
-0.9581922543275008
-0.6994798673238416
-0.24776801863767214
1.9293533053939536
0.16436966227879937
-0.1368611393387521
-1.8120828581401662
0.28356333782588944
1.9966272942894772
1.991897617593277
-0.5215612430832182
-0.8291427544403351
3.484776659807118
-0.1740774733961081
-0.47444601872120495
1.0571903250638095
-0.3792898437548497
1.5821571854599004
1.2361232636607073
0.4346872982586339
1.5506354693763271
-1.3359985575384192
-0.8689647182924564
1.3312005790704646
0.11244894928754039
-0.03778208100606915
-0.2963707842257724
-0.7618069218048754
0.4316491568693931
0.4249414759817614
0.7695515630004887
-0.4131184447973196
-0.6322463965539712
-0.8308234628490908
0.2136958892237935
-0.9759802511093169
-2.774037844772419
0.07006670207352762
0.9116636498525877
0.9222066435173567
1.9980331526327262
-1.084409113471318
0.3636244985553009
-0.029762954969174808
-0.8378145458760131
-1.97488271630107
-1.2924432640005707
-1.1622696076093082
-0.609904668321901
-0.3396065617368382
-0.6757679694141111
0.4681864214445716
3.941612439640351
1.4874622928472268
0.16100302143427025
-0.489019586673278
2.1382866518088632
-1.297437535535437
0.982192263958621
-0.9394796122973557
0.29837967385142034
-0.30246717580285787
-0.8546726224687333
0.719500675759979
-1.3319700864223638
-0.5976026326445042
-1.766848080660238
2.0483753655954486
-1.805918281830334
0.5041580592736645
1.8722882392370808
1.900770407250743
2.376820480407589
-0.07370246019392142
-2.2763865445981217
-3.7026135117161267
-2.989426600153381
1.4233671302652142
1.0264499714342175
-0.9261493481515125
-1.3082561962708565
-2.1898903065949953
-0.9413630478623322
0.12074533711714576
2.6155774861015337
-2.598256315343735
-5.1784922505459265
-0.4545666115074996
-2.9690728045981487
-2.5452028220865826
-2.7624889275357023
-2.5276816698264013
-1.4203944531986592
-1.8045066290625578
0.639669006826939
-1.5267055103784566
-0.0690126797508637
-4.684907978993527
-3.786802448394532
-3.6715348674081394
-7.319238048489199
0.2354876284784611
1.5285777607404647
1.4564503110925031
2.9855297126436375
-3.0289297867351728
0.14492226568582514
1.259964858474589
0.005660584453193264
0.11974016238226269
-1.0681197212474347
1.71201117224184
1.7144149984076023
-3.521756980485028
0.1534872746319432
3.185771073506165
6.050324452917777
4.260779753038241
2.8784194411337336
1.5645264734372744
1.1167131806287642
-1.577467092314832
0.2513452196820815
-0.02453721545478192
0.020018970121799026
0.3242139264029179
-0.43387979870580295
3.578411895729299
1.5713701427966333
5.083551982902216
4.7857789119528285
5.362744951609451
-0.2594812264852748
0.45219531157557036
-1.2551266943553254
-1.3911622716695582
1.799633071696255
-0.26457265601032737
0.4463900103006638
-0.41552265181586634
-0.5522438656390473
-1.5112546547630266
2.348179522509254
3.533532594208416
4.35796444618397
6.465631575592941
5.3875739014949975
-0.5673963252590305
0.13168934615175412
-2.494671018173664
4.213825042939072
-0.737501789356489
-1.3364555063010808
-0.09609470049092815
0.6442412046858204
2.039249581183522
1.0414547952943967
-1.0241328472128128
-0.9866036517773008
-2.805400768903894
1.9976743576985736
-3.0012937823482875
-0.572059176273939
2.05812212549131
-0.34959933535031207
1.629441063780129
-0.033953109915021484
-0.4692308592543594
-0.4182338265943099
-0.04537080626762754
-0.11217080898363228
1.0261176755979298
-1.725690179318233
-3.6850148133214895
-5.5832582592707825
0.9067030045005683
-4.433169891752499
0.9408100730202554
-1.0599029370828592
3.025893993876609
2.1339599863662277
0.8753562032593434
-0.7011555439080955
-0.9040559050783573
-0.6824111065235278
-0.8918963669842764
-2.4575532881989783
2.4971596904905082
0.6277576752395642
-2.626484222565198
-2.492865120209226
-0.9609764823375073
-0.1872650653598953
2.758721087670462
2.265322715972294
-1.4187268707224625
-0.521556372037336
-0.7517201316910688
0.40998651266939373
0.14811841877825543
-2.7320768655116145
0.09234264167811851
0.681938036882959
-0.29115927362508814
-0.8610442790643317
1.8666082764423955
-3.253562069848746
-2.9102027468208727
-2.164631992036756
-0.016199198856047956
0.33852391769666024
1.8646645283663317
-1.5920208352763174
1.2303469932917894
-0.08074464561656698
-0.2946535645577606
-2.126971251526383
-0.18902811357073848
-1.1226287121299596
-0.26514143576619525
-0.8960639364945907
-0.8445521700001474
-1.688670889563446
-2.2630601909683503
-0.3008071102490033
0.0801719818747275
-0.5055992475898776
0.06493328854280114
0.012864727911374168
0.49738352184911777
0.43469684652254437
-0.2625759257457714
0.16313931062382636
-1.3989525513147056
-0.05186060193046237
-1.4896420192089659
2.014099608262978
1.262936651936535
1.3330145405672758
1.0953455322336079
-1.0953770651609223
-1.1556610782140309
0.9752263986535027
1.2702462626497202
-1.2819853860273966
-1.4557994013681748
-2.376390947690378
-0.9120430390026057
3.0974881206368363
-1.4537241526394962
0.422746264162372
7.304709769355336
3.159874330573749
2.290407559864887
2.364357659093931
-1.3217715009503048
-0.21580352898002875
2.531125228751398
-1.1333842554060982
-1.2519697687754177
0.5399791313767679
-2.7630930524376547
1.0623175983027127
-2.2992421891170935
2.6230054572451347
1.5353459905092497
4.605352805459553
5.477817625454424
1.8540216768626547
0.6305207920443903
-3.137211660337036
-1.1833230347182262
-1.2275383275186504
-1.518754989883211
-0.8332352265688567
0.20718239713799422
-2.274215836687887
-3.82640249772524
0.8866562376930371
-1.8235302237178215
3.0798735493201037
3.967552337305223
-7.289382280898319
-0.39210767846645483
-1.451230782159455
-2.0357153574548215
-1.347737638918684
-1.7282144997051296
0.577040560361884
-1.3551689329816232
-0.7837790559463761
-3.5738579374041977
1.4290232276984072
-1.301425970652362
3.054451617576614
1.0557375067526276
-3.3383037997386342
-2.4072013374213386
-3.3499839529327278
1.4805026240813863
-3.9091515262214283
-0.6275865867901539
-1.629724817420102
-0.08348658039053027
0.09923489248110724
-2.5385374022911624
-2.256547375227561
-1.4529653852394608
2.4756501500247743
-1.6775047080279428
7.482345330517635
0.6299405217512906
-0.4592756622833408
0.38328193063754407
-1.3779988370872487
-0.0026924866365158114
1.743755002157232
-3.3583592587060007
-0.10756485468434086
0.6379660944785654
-0.2789836176209525
-1.0567555829908009
1.266639063815782
3.5501632728434505
0.7124748912060267
1.5601404183084482
1.4855730684372577
-0.24646020335646482
-1.281491460018255
1.1258038058534114
-0.8971193760696498
-0.014126263281630696
-0.35328345826825397
-1.1204271860711843
-1.1295326236658434
-1.463532429356243
-0.6672110693536865
2.5944636758400272
1.5909121690588452
-0.16949129506209232
-0.6378395203975495
-5.266007718225185
-3.0112789353802554
-0.6095098361624595
1.1875285287800852
-0.41640915800703465
-0.9678881956681835
-0.7930207129848413
-0.08271353808027383
-1.8957473679555432
-1.8524276462493683
2.1117816931313005
1.0653234786796695
2.877000135491277
0.262531597950567
-0.5647654390935964
-2.8403597761682624
-0.2539421603266735
1.4817719545971508
2.6469297034774795
3.45685969732888
0.1580449101201943
-0.256185950043123
0.4319171346752442
-1.3974111160020322
-0.9860063381567186
1.1070481693332748
3.4356775163753217
1.6408701543926254
4.094843291750804
1.6045606229180085
5.4664594201820265
-0.4070012912062701
0.939401242327799
1.3499685753395427
-0.6217131444391766
-1.152911023851132
-1.1363878116349684
-0.1787618630472442
-1.589046592912467
-2.080015818244453
-0.02683280389031
2.050305448837071
-1.0410827377496226
1.1952397564317083
2.9551443173844505
1.4659168129270095
0.37710698935690734
2.3822540748597656
4.090406392930074
2.7200403742195904
2.5822200293374773
-1.0815269751422822
-2.604133899626997
-0.16622267631647422
-1.0762954650805563
-1.3643113296080898
0.6649665830760799
-1.9441578967433724
1.7493839095064012
-1.028174392275441
0.630052311830745
0.9301044079030146
-0.3830551947626416
-3.56535751588231
0.6088160004031246
-0.8809048448380862
-1.0180010068655967
1.747773434233013
-0.03868569253401337
-1.0926597442379131
-0.0779930947991675
0.45991859133184704
-0.9419515198579853
-0.24867600090458875
-1.4239867939958575
-1.6839027957034298
-0.4105283113424569
1.2942481158749668
0.01304669699059967
1.0645636011748167
-1.552829676127552
-0.9666087812469863
0.8644828617440572
-2.3957141428327056
1.8885089475451855
-0.361780950167998
-0.27236704849023546
-0.8224053725321451
0.8364808707443412
-2.8290658885076128
1.3457809072810367
-0.12241840078250064
-1.7306614523660913
-1.2956172121040903
-0.2932375682954942
-1.0833563599508576
-0.19807884970411987
-0.6862606573841463
0.2965477166030593
-1.3686488250274078
0.40688483151786564
-0.14615154116294968
-1.5422524014105687
1.8566557790472331
2.611555431716167
1.607247922013003
-0.45343166941061036
3.379496735337931
3.680470397334314
0.24836289059076702
-1.8421524717564872
0.4777437673401839
1.5806423474867648
-1.1462044040503514
0.07952731370574867
0.3453758705191717
-1.426619982865927
0.21470123381526388
2.483984777666687
6.953249679278907
3.981243742572764
0.2401904637416424
0.2215324291193256
-0.46567871891961055
-1.2984005584987404
-1.4824555595551552
2.529467815702501
1.1514255004558105
-0.3657026183459669
-1.4091256438118422
0.47033741406665913
-1.1963531082071963
0.77466409774331
-0.6666428238750146
1.2222904957057399
-0.32212013369289955
-5.820279511587178
-3.944707582554337
-3.476814411207046
-2.9824719483817015
-1.2947923007051187
1.1782262820609752
0.8568351979649331
-1.9890805325308967
-0.9395747564124752
-0.5535335865719042
-2.9497379594130697
-4.373485839414112
-1.180318233921425
2.006330092873144
-0.7283072495515903
-2.077432182077925
-3.3275358857907844
2.942876938097152
0.2673913671166739
-2.403139880523088
-0.8157920254745467
2.249606079585478
0.15712486333181835
-0.475763186512045
-1.2167441990128616
0.2447579783080905
-2.3511657899947873
-2.8113153819951973
-0.4053511141384612
6.706795436815047
-0.5419576974286682
-0.6780158808066519
2.975590176444838
-1.2997493250835617
2.469943634660627
1.1286908746854685
-1.6609079374123406
-0.1356429028689181
-1.2161246785005673
-0.5450459597499331
-3.294138408426693
-0.13617217635104595
3.8649056196587153
3.6799300326311584
2.0985109172298775
3.304087240873982
1.7600053868755503
-0.12411069008272217
2.8599753414828912
1.2726524893070221
-1.8235270601959963
-0.029305889344384783
-0.9362535116813686
-1.9573079633957635
-1.6557902990734723
-0.8620057967548616
0.6308061493568213
-1.254836261981959
4.215305330898402
1.0890554319377208
-0.0467214801398915
-1.1092184949806738
-0.8175234521596844
3.0276882960566267
2.0630857060461874
1.1611140578785455
-2.452915731264409
-2.276889949350964
-0.18623489411290742
-0.8739004311954796
0.7948117694396484
3.3759980998084993
0.38269685359962313
-2.0518444907750717
-2.5032852819121865
-2.8275242425235643
0.29947298688778995
0.231934882987962
3.914246333405688
3.2120171703061002
3.1276123477913833
1.231851909840678
-0.7876951895949607
0.21470172326125866
-1.3258690106061548
0.9499035293466768
3.0895985483093704
-0.2753727434626709
3.105860970070172
2.173264809709702
1.5620488839830273
-1.778067263741261
3.35236747116115
0.9095006428920932
0.7976144223577625
0.20363604669644378
0.12108499355038313
-2.5487171893160347
0.716351387539724
0.6500641851998799
0.07181852744860732
0.9454115770861075
2.3605347815116873
0.06734744740315561
-1.1090248660823256
0.3595132002171608
2.9747764360115543
0.1781057776243767
1.3846151940193208
1.0289975817249712
-1.9533148823849338
-0.4791854857052718
-0.36418518463036426
-1.6946628954152085
0.5297953701264129
-1.2588869505560767
-1.3244079919700404
-0.7437589115926061
0.03465627576439207
-1.7609216214142387
-2.103962002863331
-2.156273528337377
-2.1173246309478615
-0.19803785845374597
1.7465969465323072
-0.8241698322558578
-0.5265367454165191
-2.691222640363094
0.31319995871835143
2.0905699639181323
1.0549109569575863
1.9647614581920647
0.4316353543158472
0.3535763490514355
1.1734736393626701
-0.203682112577115
0.41028909841456734
-1.4017821222352254
1.917006870931421
-2.1129410536165607
0.4604338746764578
-0.21306675899332522
0.7762605875419721
1.7099258709072214
-0.4891243347031107
-0.47582358427532256
0.5724563579698989
0.6814153890050096
0.08927588137198357
-0.4622651353504406
0.17864601201880315
0.7325360055890651
0.3748088486449846
-1.795665416769067
-1.8686833134515475
-1.846370301696014
-0.4066265057286313
1.2767032841192973
0.9526894666015862
0.40901593420545734
-0.2756264277085193
0.040260545084433136
1.101164075172009
-0.44070263531386855
0.34743271827413774
5.473222582349109
2.7629474289481464
2.831681590286347
-1.4074214844336148
0.21345020699584893
0.9741725635546878
0.3808541107722369
1.3418095147419933
0.6817519455563673
0.7322668044311897
0.9599614117392272
1.66045840928589
-1.3237144780555268
-1.679287625309618
-1.1153521317801223
-0.5599378343814437
-2.1871814435727828
-0.542433814295552
-1.481900133118488
3.730534497708587
1.0000946642509927
-8.06698348566805
-2.565304175763971
0.08916846463520461
-0.13728490547270344
-0.8374001149885885
0.5535737335042432
-3.71063662851936
-2.367074634436782
-7.89431465945424
-0.491244192476217
2.3765564890794875
2.587885515619737
2.139719893720882
-3.3321985447315923
-1.2108592161184772
-1.2262011194333753
-0.7204859956797401
1.2231833614938197
0.560463329041827
1.121026444165684
-0.35125236002941473
-3.1233694988406544
-2.029019153010564
-4.020372395374023
-3.797994483333391
2.6790062666475256
2.1012285013453686
-0.9905831125095825
-5.275164390652267
1.3592202548316847
2.0867899124989457
1.0196863659382664
-0.2793560069721206
-0.03096876657287175
0.5903461618878347
0.42605408261067534
-0.6219945978756309
0.8126362236076865
1.41117604257867
-1.7422064005599711
2.875824057007103
-4.271627298388419
-4.598447268817479
-1.8153175350906168
-1.0141941714878824
-0.20774482391215085
-1.6893480953256654
1.0840737401506522
0.6542489994893617
1.2961514965621685
-0.923758062498744
5.112747932957123
1.6370504913667037
-4.150210063598431
-0.6571921903408896
1.8958407524781589
0.7751451237885857
-4.587016453533279
0.6910347610182214
2.5482019674040233
2.686340833159034
0.8970387747550481
0.9280668489479516
1.4293920358240155
0.5858057830234523
-2.3699402367019236
6.867452354660398
-0.16421670972766214
-3.270164039236866
-0.9851538522041062
0.5233893519565056
0.3589292329554152
-2.4026373127558887
0.6573858227179418
1.2295887127818679
-0.08307473136349953
-0.3350963845518205
0.7425148710306826
0.6888642168077861
0.07674691797307748
1.3895275187647675
2.2846947301737655
1.0302888992400419
0.6257574167263499
0.863857796207049
1.9865100251067909
-0.40904280720465436
-2.7290004149592764
-0.22805382702324264
-0.5526258172121115
-1.4653737353495557
0.5488286389394526
0.16284961218862537
-1.3891281704772587
-1.4039830734126129
2.4951711156471097
2.1654951832220948
3.4027954228162596
1.8103546484565405
2.4014389828636764
-4.200825011265516
2.1822994718827875
-0.7141991345828302
0.9284683085077375
0.7929811040854783
-1.4499769569155125
1.4199886065023883
-0.6773542406472395
0.7137466795415681
-1.5029710875611084
-0.7387157372112281
-2.6233991583353435
1.8491355227400303
-3.1721625057215324
-0.14845300108019072
-2.5454175721608765
2.487135460210826
2.063004700337881
0.14191262482928851
-1.1962272667656422
-0.2973221235362331
0.11963546783153252
1.5149453738247767
-0.06879456330733257
0.033630650066413734
-0.6138452715269016
-0.4984045667907039
0.007577641057238082
-0.5957495840704581
-0.11988547662825776
-0.5423079694094466
0.6670625600024767
0.0766553390796988
0.16232966701236085
1.0695057030999013
0.31946286528496814
0.5422160352439038
0.2163376544774191
1.343109600028732
0.4436243990139768
1.2136104614642962
0.024862928270072984
0.6175653277764942
-0.1992125826872295
0.04412535977088976
0.6186312437968945
0.5975154810471919
-1.2288449956300553
1.384144862998306
0.8774825247357999
-1.326815737061413
-0.46916829922740905
1.4346991424462074
1.5958624676104254
0.9435989332372526
-0.830970180978217
-0.07709845722702079
0.21894643944175438
0.3435061653238037
1.39783035571665
-0.9363987572186208
-0.4854176056217013
0.8305236859179516
0.9061017755506615
2.6211134741310333
1.2815109610903148
0.39823698436038324
0.807103979023771
1.6652909456143896
-0.24352988397589312
0.9333367040365367
-0.5165675096368337
-0.15318518541355544
-0.5439969932549101
0.3287768527214822
-6.550096003058233
-7.1323923026094045
-3.814351122577748
-0.16761917472158477
1.2036662730950851
0.5112062580433259
-1.9173198091131323
1.5933638045477578
0.09529396210381161
0.12592238825269356
-0.8205651837098132
0.4460886977931526
-1.2519782773786088
-0.19629704775422574
0.30480521311294134
-3.6468106368855193
1.815497095454524
2.9636326324487134
0.10660949491889771
-1.635161815929976
-4.1345742362632345
-2.4996754604850127
0.4725499032727868
0.4024223147030321
-0.7488980252196596
-0.7283885270210898
1.434624315806518
-2.4507130805184816
-1.9820847932301815
-0.2997884842393588
0.20201559011291764
-2.071370570601472
2.0386796574261
2.1382995166433796
-0.3543972993932976
0.14260700568808124
-1.0660758764431992
0.633928966541883
0.7067443983964562
-0.11899809343247604
1.3802338656885111
1.5769224833204312
-1.0644812231559342
-0.40982200387986617
-0.27351175266382843
4.887334777938047
3.02745011464945
-0.7508399675547779
-4.152161658492229
-1.3078753312151763
3.6270973879002573
0.4189327074007173
1.0182472229410091
-0.4816260425629398
1.719945173818529
0.42168507458573734
1.2599715112745062
2.1496190662255596
0.6896017073305649
-0.8875757849493584
-2.1013878481384256
-0.4550747184184399
1.2593899398330874
-2.454734697159788
-0.8015546420698476
0.4562714425661049
-1.645195811118004
-0.7139754840073222
0.9251595300564769
0.2727961257544593
0.3494696981784103
0.46372474830744986
0.44426023058054526
-0.08331554323710834
0.920559830558111
-2.422571496071081
-2.5547339295463996
-0.742211691943304
-0.33359165755414283
0.3507253965350439
-2.1618379146427484
-3.6539885414316386
0.5915992409658455
1.7026442347280808
0.6763747970758037
1.4871677240740555
1.360908752199686
0.2383855133794533
2.5532071197856
0.18791247231777802
2.688630702956816
3.5270746157404465
-0.5874651327207318
-1.5121883282623663
-0.9151404632297541
-2.0444004538487754
-1.7863268545609927
0.9698027327574122
0.9068359872367032
1.8198413403763367
1.0886323783841747
-1.9863985749142783
-3.644685111604271
-0.02137580993986369
0.038146751730370326
1.0906648433563553
2.0923287029629396
-3.6077417435225025
-1.30961320093061
-0.3548909791415015
-2.881744841263532
-0.12320825596680901
-0.11684841621196565
0.7822209112398896
-0.21883120955267069
-0.19578575115198213
-0.24290400960326794
-6.846550814690375
0.9062470224646725
3.1583257784353522
1.799406282338257
3.7145916438989013
-5.5241805507574995
-5.317859241612266
-1.1607436024004643
-1.1810306147559488
-0.020088164898230277
0.735652556132343
-0.6031124783371541
0.12842487975032427
1.4477779844593366
-2.051562757032255
-1.3689258666391801
1.9129010824387693
0.785637978704821
2.4487984948919572
-1.651876264986296
-2.803209796519705
-2.1064532017466084
0.6717357478952157
1.2485808185747966
1.1875601840030268
1.4806918766832293
1.4633979529365222
-0.4244221764166067
2.2784217780146077
1.8905489361757137
0.273631251758022
0.7609039628295223
1.0139607301023539
0.4049626318658655
0.1828365485861462
-0.4247369242524147
0.8164681539557459
-1.5941923876605066
0.9822777917360181
0.057751792101662945
-0.10493452857840492
0.6994240613133577
0.7657365065761071
-1.010902896401271
0.6014581392332854
0.18161061477992846
-0.09216922550108585
-0.004130054439012934
-1.126783234656251
2.4840328007275994
-1.908249345961033
0.8929875963473813
0.3807151667460035
-0.39599748815370395
-1.2825905781966944
-1.2419965622659803
-2.1166641555616237
0.8715474464502564
0.605750048644712
0.10518254271983961
-0.6947390977664198
0.40778874393523923
-1.3635487747105157
2.1370606168471777
0.2965014926443116
1.8231562226384936
1.8596901309295042
1.0882696328115455
2.7890844252197717
-0.13960606741864784
-0.7342835990812139
0.2756295325830799
0.12428610787744705
-0.3188192012112939
0.32439421244920086
0.45128325592641694
0.1819765946443597
0.9472200166256429
0.7877054954983689
1.3882162597318897
0.6767078219010084
2.7495211856243333
3.906181507357247
0.7916685628926635
2.5197104097459224
-2.065185606281761
-0.5354950062916772
-0.5462275305076305
1.157588672930939
0.9268813083277407
-0.8548935780012408
1.0995151014970355
1.4825695589379537
0.8875180397830291
-0.28262371096396893
1.287739601470032
-0.39619627777024713
0.6295430555474612
-0.984645453392081
-3.842200095103066
-4.85263435243452
-0.65484930742213
1.3273901574020859
-1.2332183554265588
-0.2609124632476682
0.6847918961360884
-1.594647947708497
0.7263753960538926
1.2674039802811183
-0.1281231226554306
1.332091439032725
-3.9256778937111907
-8.93831031131039
-8.036700300477323
-1.0051080891682926
-1.1025347876519571
-1.0632041747921088
0.48923703675322583
-0.23804334649306164
-0.23232390525217045
-0.5294443717657347
-0.18476390170710835
-1.1613355397556238
-0.17962819724967202
2.55909942080276
0.7993035786707554
-3.750497185239916
-1.1353942578512501
-0.365573559032914
-0.20270854249420978
1.0733138736068637
-2.5812774219751766
-0.7119294998246728
-1.8343994055389126
0.2890806550415612
-1.1476624079632989
0.5810963678038784
2.1698080120047836
0.050083018312505105
3.748600982467647
-0.9797055444177223
-0.22912776224436363
0.02296560057386303
-1.658739912151881
-2.7367344547206756
2.7083022874769944
-0.4159041302594459
-1.2368192322534486
1.0605015932908564
-1.408842907728526
-2.165643674903273
0.5437013393559436
-1.6868262761089667
0.3839533495540025
-0.8441326630679429
1.3015510061752733
-2.0793829063049376
-5.2668926293737846
3.2671610524833703
3.35715154827991
-0.8206963377769361
-0.20751763180770633
0.11597372209254071
-0.3798117103046921
0.2642967415962256
-1.8077790179552042
-0.8567527796077952
0.921961983217889
-1.1168066728830046
1.5944936140771315
-0.9646851380919769
-1.9323850649736274
-2.7906431965639236
2.7834146293544673
3.303799211461547
0.38308680129958184
0.4079258315304441
0.5344672216762782
-0.02977380992781677
-0.8567061452871303
-0.2711471392508455
-2.5584301682430093
-1.1373115705254728
-0.7171018858233797
3.568929063207396
4.381607709901169
-0.9007801709120847
1.675838767679229
1.8939049119837543
1.3026692719070807
2.9801633161103154
-1.2018268073493923
0.47462904226330704
0.08633682377506881
-2.7200764789674086
-0.1950215628737364
-1.5990678838459245
0.2010607356645447
0.15395894458747597
0.9049945898364357
1.7297251437670595
2.1172223814991566
0.15705299377262844
-0.6933080734925786
-1.9478237583198366
1.6104794575653059
1.282991277639496
-1.6050400014241193
0.8224589402130225
-1.6681129597058457
-1.34473205580667
-0.44016599452804783
-1.513642789482736
-1.3259662738800042
-3.1183555136201853
0.1455332433961975
0.19385730169060733
1.2185399354918183
0.09841712822784932
0.9317019803296633
0.35197990491049846
-0.03136498266255004
-1.2143778729486736
0.8242143769853245
2.0659480490800877
0.3013675826495662
-1.630020855934511
-0.5674069610255276
-0.502797916031485
0.47802593456033293
-0.46112147336954057
-2.2607537411111203
-0.3423909831925547
0.9686067645805565
-2.509221691727592
1.3251426566908713
0.7412698967326365
-0.8439723276327722
-0.20964356924260602
2.0183621766650535
0.360335203915668
-0.8454591875437937
-0.15693899755992993
-0.9193368451993512
0.8339098081750044
-0.36338607104439336
-1.116558006628276
-0.0865034734394746
0.06091757338983263
0.5395159368467778
-0.1891236198747063
-1.802482107468374
-1.3995322499060718
0.4360952588264938
-0.8892603949834105
-0.5188501328444513
0.08893762393563108
-0.16632012509400115
-0.580459912975861
-0.2547343676217392
-0.6770392135049493
-0.08855915467993071
0.3877790673560983
-0.7762721516477462
-0.33085695025397915
-0.5599982114546758
0.7037231205567499
1.789915824266276
0.04331112119552451
0.45202575035682013
0.4580164876647904
0.4534631462836037
2.3706124680562195
-1.1053337075614411
0.6849122032950313
-0.49353948747463183
-2.6873035156329843
-0.6469949609456058
0.034977829402822
0.372534635922213
0.7951575811818417
-1.3880735388571883
0.5179068907247616
1.6984288223679136
-2.0616350135163333
-1.8528182713375105
0.10701705625619867
0.07533051031590365
3.0131146879645656
0.3156241085507195
-0.987100804469244
-0.5432088144201281
-0.4897253718077514
-2.465768046332358
-1.3883865652833733
0.811215728267412
0.37521450034653986
-0.40780764019835686
-0.6989433084271806
-1.5677957793286275
-1.8428036135363177
0.3092893090733244
0.003359463828904459
-2.34607530808763
0.651742113939605
-0.4434725816709807
2.678098494884215
5.542876830786886
7.016885366817971
6.955248266613653
2.621143290715157
1.6088782530022854
0.7582060062262709
-0.9906760259467376
-1.8465540437759655
-1.0904360951848844
-1.2381937714696745
-1.573726481497871
-0.15650475523645957
-1.534370302958827
-1.6024470462775786
1.0974479819516538
3.91700915939427
-1.5561689281094455
1.253242672715966
2.5337397448611263
0.5568516429857171
-0.8654393703091641
-0.3417432727334948
1.5322047731529238
-1.1744826030924616
1.280811817130611
-1.5869382191241421
0.803069274400318
1.1825157750231126
1.4393614551211271
1.7146328915896667
0.6849318841038718
3.350614311712358
-2.5205931078298165
0.9826259055729825
0.8057418247727723
-1.1077554540981427
0.4572818900243447
-0.9964764271430085
1.6422141762280529
-1.784486181662156
0.07090255602929205
0.7124158364423444
0.6264360050850062
1.5134536108164145
3.8538247635853846
-2.0275847926351083
1.2097566531127621
-0.9259781600991374
-1.1625569317806772
-0.7638440771316913
-1.3061421792007615
0.12037655099314158
-0.7814153441060988
-1.4805332820532773
-0.32579946443798014
1.9485686259937305
-0.1595590192314605
-0.6480686182567041
1.8371970179542743
1.2985797902100995
-1.7015339401333722
1.5631888169166601
-0.7337126490853916
0.4275508481947488
-0.9435667028642357
0.07896352011437659
-2.692311517202904
-1.749975863758132
-1.0472209211819807
-0.2861667458787675
1.151406261491676
0.06547799611320064
4.0871814046582555
0.5565148647226683
1.207723475092786
-0.09537273162928919
0.30882947375234804
-1.7872890751442945
0.9315169705271281
-0.9533949574091041
-1.0612303978662299
-0.5960981089901712
-1.2182749555864907
0.43277256708010853
0.09350563096320141
-0.21666547241554837
-0.40278524258599285
1.874463419993501
5.132262879999815
-0.32216374051327973
-3.950887534397344
-0.47827583829839143
-1.1837533594279306
0.9736735746922138
0.6516491727396801
-0.9617739007251596
0.1475291640823083
-0.9426521815043244
1.2681246031112388
1.6964794632302596
-1.3247068416486065
0.40797926509368415
0.29566513596248295
1.1375701225436574
-0.06719853691207495
0.8538976634367206
1.6373157167241896
0.20312038207699415
-1.5776623453128857
-0.7320916873230097
-0.49917161247701963
-0.4848462906450127
-1.3041681849749025
0.09509229886701505
-1.2552503575353355
0.37766428423544135
-0.1415897539029676
-0.197134603979606
0.8160570987615545
-0.24738033726757075
-2.2338934998641164
0.030507266434439784
-0.5372871705394969
-0.9082226794470519
-0.8191029611974846
-0.3188088326024463
-1.0776369101798573
-2.539396987204458
-1.0177871337389535
-0.13711196117398633
-0.4463377863814178
-0.7992207173966465
-0.29765087477446034
-2.2764573410564104
0.2876978753496651
-1.5452999422338176
1.8379455970529637
0.881264888699893
-2.376959771626847
-1.1354367038272088
-0.31817094446622124
1.0897131706357985
2.029222142640161
0.7423114762135531
1.6024241293551853
-0.43893074287242834
0.2411538303197691
-2.1424626687418313
-1.0368435469571828
-0.8423428636383841
-1.773206222341494
-0.9161749612347894
-1.0962021247288654
0.6956348478379204
1.6715560128427562
1.4848807314988053
-0.18943223202507617
-0.351972469322882
-0.07754763796818469
0.4100628752581697
-0.1562404210235956
0.25816159001234723
0.22629918028313356
1.9505800818819214
-3.9314878756332416
-2.398954810809908
-2.5448390592008243
-0.5926871397673914
0.20721569520259478
-0.3581600150874257
1.241593131944462
-0.9983051852734035
-0.4080072688984467
0.06212421153545798
0.5008636404053323
0.1343801270440611
-0.5428011361533076
4.772783893363758
-1.3322201241479192
-1.7916227685529322
-4.713358500368071
-5.652075856999988
-1.0980858068279518
-0.3712587965744357
1.6922816328370491
-2.149198449592893
-1.3715483968426483
-0.005705024548475713
2.4567223568890215
0.4371515522396165
2.7910473093763435
5.0467151382146005
1.9167756923048127
-1.9041707977626232
-0.649076404179075
-4.168296943934773
-2.27546887401661
-0.5256277846063937
-2.167372372975752
3.115632874502677
-0.9410024021353336
0.11748199508556044
1.3987764686196869
-0.6891997412461232
-0.33357676948038445
0.6036774305319175
1.225146345857895
1.278892788664999
2.7442765401120024
3.737680139359444
-2.972021528624998
3.47589405011008
2.8354202786601452
-0.33165819218779563
-1.5900505268347882
-1.0145539983529097
-0.2826109235243502
0.06970711648924814
0.04913793022710397
-0.6524390007161215
-2.982696160337575
0.04298608599158612
1.3324473079933845
1.387499577417019
0.3959481400540581
-2.7815689940065904
0.2830175324067764
3.602440192275557
-0.47577153644007514
2.2064315593813064
-0.5571053670694652
0.7663058172689792
0.7166234021178294
1.4422278822305699
1.1845981493754802
0.7387644524542877
0.06656770487309249
0.416558028249842
-2.8219948860830772
-0.027612427747587074
-3.172046688175866
2.327072971131063
2.3048703374381048
1.457693132923323
-0.05790618635331358
0.7109151116650402
-0.06785573213109873
-0.6834976452238924
0.9284100744043103
0.14461678699734046
-1.9914765042299536
1.288715387856383
4.055256509834896
0.404269539731025
-3.481550944045518
0.2669736408321047
2.089049176271646
2.3772436954786254
-0.5846387169949616
-2.6743459534088285
-0.8584167033407764
-0.09363682831089015
-1.7504200173856135
-0.5205860063078037
0.8387351503080359
0.7717478506030165
-2.88259951866283
-2.4409571656972857
-4.320171176514178
-5.09812057332193
-2.0375020922185034
-0.8886734898354693
-0.7970802136169647
-2.0326259861407108
-0.9760825208448345
0.4108461304833051
-0.5640091853669424
0.42211458882923053
-1.1727578968799977
-0.867692201034189
0.5269905619846348
-1.7491259700185429
-1.8476130784446854
-3.239404328110244
-1.2035361376473606
2.1596315310415783
-0.37997628475053635
0.22744408119494522
-0.601938785195893
0.49313225073275135
0.047225942689188276
0.2524768598645654
1.9507909163053307
0.5754892989132881
0.573840871037569
0.7378670429553195
0.9224625806336463
-1.5321712407565276
1.3638089743525224
0.30428385334127955
-1.2010258175569888
-0.08566671496544644
-1.573268987596982
-1.0547413509324632
-1.3750810374857994
1.4931236479195684
0.2952322652016333
1.3835311066342149
1.0423223483449453
0.7354379766390212
0.8462309446780402
-0.9401323826080271
-1.6004050453388428
-0.20037091703664825
1.0952098257291227
2.964229654783836
1.2647798168299655
0.12603174757156624
0.9017623808880334
0.10133713405627096
-1.925283409190408
-1.563448949759768
0.04663503748438817
0.368648348479421
1.3675094530885845
0.38521819830525017
0.22857799731593872
1.5285562519047127
1.021228546966856
1.014029819750103
0.03562390707697188
0.11881416930660446
-1.0821189393096164
-0.7124613806509303
-0.12412489974144747
0.9378725547337041
-1.0853886534163997
0.7489104063918106
0.9958640794347653
0.30975711465168365
-0.6150160449559021
2.8889219217587163
0.7527193306623542
1.422404153864227
0.6507445918098255
0.2700022741116293
-2.133251141206819
-0.24346708993342733
-0.9663471315679442
-1.104667234223727
1.086176802396179
2.2515473170215508
0.8531785921566053
-0.13377405625686975
1.9045598374846078
-0.3048416636352723
-0.16804309250612723
0.12207254563235476
0.12784412654419025
-1.405919871621063
-0.26996917942421744
-0.5641152444046215
1.097380370065955
2.535493803945573
2.4921447371210887
2.886813891317725
1.6314874498848368
1.2803018727512472
1.3990137189638168
1.151818054115851
-0.1177600670013333
0.8825941229528734
-0.18209119258739873
2.320244178571567
0.3761171058399743
0.027697618891787037
2.647075321558138
-2.6237449408777724
-3.727122370972163
-3.752230844930563
2.384218479477575
2.0489760357387183
3.0782869583411667
-0.24239802871585012
-0.3514787276924529
-0.47070495599636253
-0.5380941971304114
-0.807685893609241
0.08149575224351494
0.2757058884458498
0.998570737562461
-2.44961055887408
-2.5348636059726912
-0.949228091551927
-5.454229918356945
2.7304615679129065
-1.893414489601528
-0.712908179558701
0.49812473996679624
1.0747660750471106
2.7979075093803427
-1.4790755485149496
-0.761158207853155
-0.4812968289490694
-1.7328751596299945
3.230352816391203
0.43637085512658363
-5.644964961436269
-5.321872173652171
-2.795392193933771
-0.4907319942182178
-2.174550439547327
0.25591401296948196
1.453961695513804
1.0054454728590774
-2.0047652733844417
0.07763207410093012
1.2511439866590963
-1.083218379594433
-2.771643100944502
2.6601559607823204
-4.137246882138649
-1.6237275948326615
-3.246410024864167
-0.5535442423535405
-1.9327565184742783
-1.9719428763424343
-1.6717167677641989
-1.4780586954766233
2.046971075854018
0.9632814733099704
0.2114757800414154
-0.7828034211051488
-0.6212869621033047
1.011894655316514
2.7401697977745383
1.852429243791677
-2.1996867747468416
-1.7971281258162701
-3.511864394099143
-1.0226554429743853
1.1596791228437318
-0.19677120646687443
-0.018393369590555906
-1.1788881659088881
0.6745448834148503
-2.378845758591855
-1.4976945247142888
-3.3076855561336624
2.1547837038778246
7.987522726517453
2.530316518211457
0.27939731283776414
-0.4238308525610691
-1.1479796306723566
1.562859039478737
4.482301558163787
1.1917030491126603
0.08970495948501316
-0.4696672259242505
3.1015695039691917
0.4192767244527819
-0.8029459636712922
1.972532477871137
2.5593594758234226
6.131920004492389
1.4705480629083814
-0.5365915183723552
0.9360569051621845
2.058009385734984
2.2275679701977196
0.9272706512212469
0.39780180520309366
0.6291868954154825
-1.0878727194395355
0.6068860836548751
-0.2653559622661997
0.7228869737365501
0.07243504117901778
-2.8557201186422025
3.691562402552366
3.655726339782499
-3.9095542267097905
2.402730996014009
1.6967671728934692
1.0977960136408922
1.7999842721810724
1.4944612031794304
0.00785864858442081
1.166228805212345
0.054639628557495754
0.2778749952564113
-0.7983657729506848
-2.244475626506336
-2.0609708969423783
-1.8898295762417447
-1.950185781735111
2.4719844806301468
2.7477956987006924
3.620024865673196
0.2957352078338859
1.3096022087507375
0.7283554432025405
0.5759385444444463
0.8341978736163991
-0.029759084088924
-1.076990730377101
-0.9292735705178461
-1.8191503933493307
-0.8506149755168644
0.9183828828369894
1.248613887074351
0.08588319124158007
-0.19575360340956113
-0.28365239611890497
0.3362107189039348
-0.6646646984358383
-0.14082505634500822
-0.3516195124075677
-0.3211861240731667
0.49704585122991013
0.06372108171078467
0.3404572217873196
-2.3154158131431166
0.9574240799582078
-0.61302756825504
0.4637303455048724
1.325884724156782
0.6743699160612441
1.21458473358394
-0.26355585176849256
1.6723785484107874
0.8136662644436224
0.6441242395956058
-0.6764401637776972
0.007598866924807376
0.7394479956043688
-0.315999067402948
0.8742703248086733
-0.9475724825095225
-0.046066538152071276
-1.28824771285521
-3.527436542473316
-0.8669177795445386
-2.6017419463519005
-1.8182717644223185
-0.42699651358051083
0.8689839876974829
-1.4398151473754295
1.7141546597995598
0.026852373801394696
-0.2267127197782265
0.532257181228825
0.3691720658884743
-2.0454386007207757
-2.0540541351572528
-4.4500545023665214
-4.263498633833577
-2.5700739177607574
-5.027541852495239
-0.6949976795590482
0.26391028129951233
1.0614108750750995
1.7512221689557472
1.290555195710984
-1.0813969025650219
0.9892469732964074
-0.040745891964394904
0.47460790116341917
4.3633166097107985
3.6664853297966045
-1.4482830206472113
3.403220909647589
2.2412024574631295
-0.7879038456269568
2.6900218966735125
1.4228630514180436
0.4157138150466869
-0.4422256482686793
-0.10352440554343448
0.13136130515439826
-1.1531496005904571
-0.018411412163456778
1.2621401806301575
-2.1413422032450162
1.6960202879390684
1.595686528649563
-1.3365990216386505
0.7056668731417036
0.4146961457967077
-1.2697397703507365
-4.165467343089816
-2.664376713347696
-0.3264379915335692
0.5205419364214718
-1.2279781601622781
-0.2565941198104878
-2.8429152456350937
-1.4566087982456521
1.7535520619274592
0.6421772173066809
-0.3241734679932498
-7.5812165261651865
-0.1373780272729919
2.6157816349723704
-1.9957362512264099
-1.6422696714188643
-3.8984270356210704
-0.962147478057484
0.15892676800588265
-0.8975151545510899
1.221542284244932
0.8839493185896466
0.32288983792627607
1.3347005368579778
0.8336890678080855
1.0614154555478488
3.1588353957038797
-2.343108741373459
4.205216308079232
3.8477531211155207
0.707905642260187
-1.3029877172567008
1.087872220448895
0.9480562702125398
0.45215539555765955
-0.18275962399114126
2.07633678877072
-0.13666261369901883
3.6580687229036273
3.8768782276531297
-0.744606262850012
-0.22043174657429282
-0.6717912801598659
6.382642579680515
0.2696119739070205
-0.9116255013014003
-1.5369073532077593
1.7524671719924414
-1.5457230010939444
-1.3395516176391895
0.5469206436479783
-0.4688635714964541
-3.516252866440497
1.8545333572608085
2.283521393024932
-1.405219475751617
-1.3475673347091537
5.080686645594607
-1.5788243513542353
-0.29782884978994745
-2.1477384283103937
-4.318190527452918
2.3110069442962806
-0.43302172020693713
0.09264368802136458
1.3935187099357706
-0.5706005516603782
-5.073899411704145
-10.163492831643287
-7.639045250950619
-7.245732478417703
-5.156002807685981
-1.0604434929360043
-2.1694601112026284
-2.2751347517713474
0.9742740085290575
-0.7027916327999645
0.5106344123368718
-0.5671867716006432
-1.1063271110250203
2.669251911855044
-1.2043021480260179
0.6686447875241295
-1.0646694412857645
0.909001529075762
-1.555756505507495
-1.6874240228506638
-0.34398388115470735
1.3451094348105854
-0.7913474725984997
-1.2061165464669017
2.4546347133016555
1.850142343918628
-1.2015611610618577
0.8454635965584164
0.4006546815717043
-1.4006441438657438
1.4548080523265745
4.709297252533311
0.9287840060242494
0.22412884210864703
-2.595462043839645
-3.3943256169021194
-0.8404557565329369
0.10995837378083935
-1.2830866683747912
0.9545788099987453
0.16905809115252657
0.7395912321868449
0.32931055122823
-0.3062577142258484
1.3451138709508543
1.3540738049194276
1.5258901026661604
0.168622994108677
-1.0981188106120825
0.7494220023917928
-2.4899942243115976
-0.6426474641374054
0.5590475787932594
-0.10292798600787972
-1.6873590598927828
-0.22894051046893693
0.46712629450718085
0.6679420164141726
-1.0290085857278202
-0.28299331685086065
0.15633897145414558
-0.06629921391694757
0.16033258970361255
0.5945927312309419
-0.7199054958463217
-1.961447905134161
0.26445499359046576
0.4610849198555063
0.7120584333884402
1.1414852133372626
0.6971547919204858
-1.1044121707093926
0.1225679827328153
0.8812388946297908
0.48214082107407197
1.9539366222441006
0.04631068871917885
0.9869379789119519
-0.0020221087098619118
1.933932093198602
1.1162087781932164
2.8311484578212793
2.1740964697715697
0.7902912376638722
-0.25186773167253795
-0.9087040382337261
0.5263687341509841
-0.40712918159361394
0.15136566381724795
-0.21063217409411764
-0.6301020212431653
2.7148926320967086
5.1134870604413925
-0.16533796651614696
4.016468293170362
7.636313060922579
-2.965894578093765
-5.831390642130849
-0.5892259574810251
-2.8626950582558077
-1.7234878068463189
-1.3354002936822091
1.1712186958188335
0.9114524216303289
0.22909821916601306
-0.7007395142435723
1.8391364852248122
1.3346885337553096
0.3306539740000309
1.3597259012069738
-1.1402082157713322
1.6025376724226272
1.7504447246365562
-0.9217704200012133
-2.0017713476536234
-3.2209498248340163
-3.080331197487643
-1.6562355802453728
-0.06925525383628858
-0.48634235344321614
1.110666572717606
-0.6130124612385403
3.4060577604675086
-1.6342959948657112
-2.942935119728818
-0.32724341555779485
-0.08215817075930294
0.7284713901754007
2.319198928404421
1.0413265747089622
-7.533313185019621
0.043185695456027816
0.5556239159211024
-0.2486161245125049
1.2710955015557903
0.8275325406813663
2.337544583937705
-4.1662995606078415
1.0458297316957756
-0.4512390975538387
0.5476462654656198
6.032223501466478
6.601393926334781
3.203627161791023
1.1027103288214672
1.3323099232036273
-0.5924358888600434
-2.1885420729406433
-0.7327600895726302
1.9248516145870156
1.5512928555911958
-1.300015933614185
2.7193806655145263
-4.707479567225492
-4.861710748451926
2.445744614009767
6.134029143813397
2.5552583693795063
5.430722050684241
0.8505754994178334
-1.1488246180529493
0.35946161210258315
-0.8227501180159681
0.6488528455515837
0.12665175253779756
-0.6937489293555171
0.6339341119301595
-2.223639927651439
-3.8462307850273296
-2.0876875306717775
2.4345718929203426
3.43185147485535
1.748048656700571
2.268565895241166
-4.05873396418231
-3.341893327241269
1.5067477619612244
2.1531497756168005
0.7369511824555804
-0.5011739335631887
1.404808766003149
0.9204403700069331
-4.05071134692643
-4.2901362080423
0.2393672199990384
2.7448461941665077
1.1806776473314193
-1.0884753488206127
0.7223977576632848
-2.625281768399032
-1.9629081951234193
0.08536977538087846
-0.43178096560542184
0.22414715634386487
-2.8215297578501963
-0.21328989803258752
-1.6408162897539775
-6.162104040887087
-1.9472765428685324
-1.28071048363839
-2.460477111893841
1.0574767915234424
-1.999327807233005
0.6589319216092144
4.409799119571475
-3.9489861908936605
-2.0391562356086834
-1.1657060928301577
-0.34288655046225264
-0.8314394912071507
2.382006252585441
1.7665284582085437
-1.8349973134551645
-2.319686324919441
-2.903918512930834
-4.398443665132123
-0.4353285986650118
-2.398217888167437
-2.446595195793221
-1.939236414648041
-1.6389323564172857
-0.21753459469792474
0.14471091629820645
1.1678698253541506
-0.0378423409633898
1.9969165697750422
0.8527988324498452
3.32820575234957
2.2674558125342994
-2.717948323641591
0.14606800209124413
-0.9356281426035671
1.9119215338636917
-1.6738411762181409
-0.09272625600116374
-2.229487479112209
-0.9359374688962133
-0.15811857498319423
-1.7255548081796939
-0.31789561883210965
1.3394489245609098
2.0415248276060627
0.8766045305704184
-0.7965700286820255
0.0202378782981224
0.1957349631167737
2.2491810684958513
0.606512473383838
0.12208588119115998
2.134054378548429
-0.08460248472796592
-0.2967441767392429
0.6156090363548116
1.1077840391593339
0.517867437442621
-0.5417451328550021
-0.8898159568187898
1.0703538790277873
-0.06869086623996981
-0.2193160916963042
-1.1114696222574822
-1.5426066486938739
0.6179719367340897
-0.12950184935538808
0.9120832933483192
-0.567009750083596
1.3010175231385936
-0.9581208646821269
0.05299569457989682
2.333225706318119
0.7957566618380529
0.14930907192682627
-0.4149258243237844
0.9049553806109123
-0.7138017394047668
-3.0446271240602196
-3.9582821343355596
-1.9426877926089252
-0.2483474331322748
-2.632305062896475
-2.417320495913304
1.3955777715012236
0.012541914049097174
0.409791314107462
0.009983118424907652
-0.4700932870676278
-0.7151395996708148
-1.8960271306537044
-3.4637031928354522
-0.3149447587773438
-0.4047032866358705
3.4167471612633418
-1.1999769920968075
0.28937184613019823
3.635159473038542
2.2784334245880986
1.1453623987722656
0.30217173824949234
-0.6587739842534719
0.2145674393460217
0.6350879137494065
-0.8296051429008465
-1.8131245539314678
0.9428029324770217
-0.2763112024397145
-2.728068947679425
2.391302475771348
-2.2562512430490793
0.5818681261756028
-0.8997614463360075
-0.9966837094404757
3.190818976905967
3.163313284485191
-0.9723262622919676
0.09492121385258576
-1.8567777868816682
-1.3357403046742893
0.10624894716576114
1.1941927130900163
-1.0305419079069082
4.924332373198317
-4.6346658458415595
-2.85103506754709
-3.787968894610004
-2.5504589062393968
-6.031578860318565
0.4679190654203586
0.8578332337713954
-0.4648215327695339
0.07345875480944755
-1.4202802648546358
0.7186359232538733
-2.47745022612616
4.567998515569247
6.6680151277927155
7.300886025740676
-8.61440108969358
-2.8919120824621682
-3.322486323817968
-1.3896397238792686
-3.668819742765196
-0.055722604994104065
-1.7679555482031342
0.7468045891208178
-0.18337997880550486
-0.7121657396298875
1.1192102979612368
3.783929363404117
6.050196412072541
2.796767982426404
2.1694341119457308
-4.393932330960543
-4.792851561280573
-4.667893282043362
1.3367657737587477
0.43494831451011406
1.7755637306100083
-1.712389808725507
-0.4830203437330413
-0.9098521961319941
1.0842813093903616
2.033673411686153
1.477030437806688
4.823788262293947
0.6913801360738776
-1.1304137606539018
-2.53199479581841
-5.005217752547467
-4.918192185563884
1.289701867499159
3.227999797323088
4.817902721030346
-0.6093968048284143
-0.784319328919467
-1.1874983640005659
-0.2080526492152782
-0.5894836119523612
3.551124165594129
2.5065330941016852
-3.999718922388527
2.017196609124949
-2.9988522442311614
-2.0039563125486453
0.09886596053233798
4.497198126151342
2.7178188614365117
3.1112827036762107
-1.0087785275762606
0.05764422639032593
0.3143576360181754
2.5711240386550216
-1.4263848563887724
3.411500464719902
2.315173412097662
-0.5318800609080222
-0.7195835981476917
0.35536173036647334
0.26549511248134144
-1.621465464893248
-0.9199933114053098
-4.8613400304850005
1.3103429781138962
-0.3342972773810961
0.002735087664556197
0.05956442656424629
-1.3496234117106425
-1.6048782492637397
-2.3776089875832525
-0.4645796729765821
0.3566026102607536
0.9895882288547364
0.889975089272615
2.738026495524746
1.8461340993881383
1.39180267567139
1.078467192215545
1.6585466349307365
1.1849690347853306
-0.6868951797408049
-0.6118862417782674
0.806643817803965
-1.8136534921686385
1.8557835035554262
-2.391778051731373
2.0581025765581504
1.76229006702407
-0.3357816401388889
0.2823546720288077
0.639778603439527
0.3157704981253
0.7999798184833868
1.8229669642861595
1.5909345691212895
-2.8188377775592803
1.1162898815115367
-0.06357768133843292
-0.3128391755975299
-1.848966753045283
-2.623500640482608
2.1222694554264803
-1.110394253876168
-0.9210967265810946
-0.4302305115059386
-0.68600121482703
0.21869042437687103
-0.08466824162491533
-2.1679745552974765
0.11574187888220949
1.9144924411946693
-0.6842044075754223
-0.18819659872298267
0.41531569837874205
-2.059162837117069
-1.9019783496442175
2.1645164975735587
-0.23160321528022448
-3.0523746145103843
-0.44955788219332754
-0.33110106709510323
1.3547029298375217
-0.012803953782570359
-2.153793463073549
-2.401435282506157
1.2385974214808135
1.20067484933336
0.6583330574055926
0.43007052312730965
-0.12853157944989593
-0.48592369528888535
0.7115823586139103
0.34494299030984943
0.29338577747735745
1.29549977781257
3.274665188167225
0.6388014293404429
0.06682285155710495
0.5796783143093793
-0.21199608518411986
0.03689566107718291
2.2087836610481415
0.15065374200531312
-0.1291975829282611
1.1079025767346313
-0.8234414972202442
0.06592226152959436
2.426615491533288
1.5022609781556349
2.2834294509839808
0.043661754567314984
-0.03727188974985315
0.07249265286537476
0.5337336921963619
-1.0627009707102382
-2.0047292718492953
0.5986393324875966
0.7555851972304035
0.28633504173877855
0.35901649283985804
1.5302215673980455
1.7168015890232937
0.9615821279933869
1.4323138268526432
-1.82365743447869
-1.8737252108799602
-2.105481047614334
-2.066050056926511
-1.7628763855621723
-3.8798279343167486
-1.1824730903571659
-0.24557078272592348
8.519766027750131E-4
-1.3347361105487863
0.24429053005001372
-1.5739198169243624
3.341295372146522
4.064681333056253
2.520976160749059
3.9383526731201512
-2.0473976644686447
-0.7979272981733256
-1.0542857205640488
-0.13470683299663494
-0.06133484109343366
-1.435617290754254
2.29437191036993
1.5454964439879009
0.8272152463465166
4.378552475337542
-1.3635973729377002
2.5063703946154345
-1.35006011458968
-5.038518580579073
1.3455351155871296
1.2776621914648862
-2.952016722964099
0.31154558112580755
1.0426689943982228
0.8870094577875285
1.1286880890326723
1.8576848056202535
0.7455475357987764
-0.6031876716113318
1.4934101474710901
-5.228793186755196
-3.5412394812970263
-4.981535326046834
-6.27088267109788
-3.0096443466679847
-1.1843200629479427
-1.3907882416359152
-1.4310323904959252
-1.739239629581674
2.7598159539488942
0.14818416611606205
0.6858945383595827
1.6577770709238708
0.4186509921902737
-1.2823067308001734
-2.419441849183963
-1.6035299585318052
-4.016508370368822
-2.0463667777386445
2.838442006724534
-0.5796808975366352
-1.0616574341533844
1.146832423215233
4.031518789368382
1.7155486553231112
2.5612053062006788
0.7308002542293419
0.25224076751206187
2.2486945573060995
0.005136938874008147
-2.463950098854839
-0.5954495166914217
-3.4202330376373915
0.9642328616183387
3.883483091231113
4.604080243573685
-1.2162390934681868
-3.9851210791059084
-0.19188805276289278
1.9335031219421208
-0.19539528374827342
-1.1320937169016527
-0.5740900521371468
-0.7096037408605331
-0.3805106047052087
-2.0477223211750806
-2.0866481126897765
-3.1158516291834415
6.5884757458640175
5.153556053994048
2.889195118293149
0.1591669191521096
-0.6271944221341375
-0.7208427942478534
0.31019567077382687
1.4357444787254328
0.15234858644480903
0.34822094509492674
-0.5214857697638959
-0.6204965118402687
-0.7630745679966282
0.36043685436670203
2.160036744734385
-1.1400072988689294
0.5699930390478688
-2.2399947946429664
-1.3817159478965402
-1.8330455847463591
-0.20216888113188888
-0.6379197813667423
0.22082423733626305
0.8959070941987501
0.16051538300937457
-1.432063341907208
0.15251018563825355
-0.6538703058045208
-0.7181832559107437
0.735076009616394
0.7243904919380224
1.0805639703834784
0.3088947463406625
0.5208652755433841
-2.433980290810142
-1.7994596591674266
0.46463908814675536
-0.21240803353141363
-0.2737082316455854
-1.0417359999642941
-1.1751237256315041
-0.33565235628299206
0.5575970721217878
1.4809672933185638
-2.0280061396895914
1.1539486449791512
0.3764648353887315
2.656873358668035
1.6192603687555314
1.7466770175730917
-2.1302975538863467
-0.2774737714272903
0.04900352993727387
0.7267547362298874
-0.15843606071034744
-0.33514972428476525
-1.7822335613061457
-0.4551665183036541
1.1884640705853826
-0.7548629915703966
-0.37498585830320785
0.3617169813744243
-0.6045132840992414
-0.18093082762956542
0.6428288490143466
-0.4874769706498934
-0.8805589727932202
1.4837476275986092
1.5469736579007982
0.17389635175770762
-0.09062494856192906
0.5549004046387265
1.0699619438678978
0.005027730122673407
0.8860278684403079
0.8488948543460375
-0.30429083585891614
2.0692467374646655
0.005578331360045743
3.7000763641421437
2.870967689053723
0.9823186582289045
0.3226580794844322
-0.6992268448037323
0.7249747461188965
1.1392028138142445
-0.48103805199263333
-1.3437456381907646
1.7245963608255985
1.270933482413189
-2.000773095584099
-0.7198034532058321
3.2512279689652748
-2.64515558441956
0.4514505643746589
-2.1219128090182555
-2.8797386016445627
-1.8201669023605642
0.6030947108843913
0.5227940793947955
-0.5189905743414508
0.3762873436056506
0.6113200422072629
0.011271159992110777
-0.4642605232673127
-0.49041653684155795
0.12712389060768564
8.585516597441364
3.785802199023002
0.20621935861990046
-3.008082006178772
-0.05959901949966055
-2.0803104683701106
0.41469746587879974
1.2025381737948795
0.26262140361533864
-0.4706261442893916
1.7860695433426792
1.0711342055837498
-1.728253616679149
-0.5814833239590457
4.369262914269541
6.894680436442321
-1.5107156314133734
-1.6920342410136402
-3.7229039772522308
-1.4666363929970734
-5.457944125312397
-0.373212400371451
-2.3948073657601974
-0.06618520030300881
1.5378553924187357
1.0946911924352587
0.6521716449181229
-3.0371758937903683
-3.797623916818077
-8.563551885402802
0.3971538275471524
-0.35488468099799747
2.656069660383723
3.821702373569184
-3.4965394283590934
-2.266097308496057
-0.25397426271388984
-0.3505616222946381
-0.14340710940402915
0.4807985365202462
0.32335758498646694
-2.100267119142878
1.530293903304472
-2.4393867020681412
-2.4840524790161367
3.541673573213025
3.642188413714954
-1.2791290291306732
0.8901929767827765
-0.036958940428060805
-0.56310615299536
-0.6290487822006903
0.8648895215386838
-1.6198400061865295
0.13364773552114692
-0.9297820240036793
0.7145254904942392
-0.404426905420738
1.9953979203527832
-3.38163395628643
-1.6829981819095094
1.59035708964722
1.2900739369932817
-0.4239697917339305
1.7178856242985499
-2.0117589857909297
2.4423307076209015
-1.4376398072800916
0.04357846388198289
0.6968283589068137
-0.9172306858496779
0.13380797917001003
-0.8289712348549148
0.03949354511606449
-0.39842310868094466
-2.415968056515358
-0.22721332143595052
2.8305943581165653
4.937588165966265
2.129448085303571
2.68135553258018
0.24742896524213268
-0.028376121605367167
-0.8595583255877779
-1.4488095279774422
1.4382414774327097
-2.6490928983021766
-0.8592206061284293
-3.5222967294835423
-0.30054225647141175
-0.9499812024502198
3.5514820329296937
1.3830755668658108
3.3949565010855456
-1.4231928557391988
-0.646510649057365
0.47344942612939916
-0.23991527968846874
0.06261041961489063
-1.1640985339563468
0.7796017405397326
2.348845424708254
-0.14781743539980588
-4.882704872996527
-1.8876296818886955
-3.1056753218335063
-1.1165688786950692
-1.0408662748560764
-1.771591375934762
-0.17709236748161913
-0.22546627783319445
-0.8738247075361447
-0.9218813283227527
-0.7673753899851143
0.4215415633377699
2.454555972746663
-1.3983113962287235
-0.5529323437648218
-4.076088106614358
-1.1240861903345367
0.51493769272587
-3.7668261569392487
-2.652127613601562
3.7286983099033817
0.32473040065090136
0.7066929088005324
-0.9037253790444688
0.6220102774845679
-0.3145449397768098
-0.13490812636322602
-1.853229761199663
1.1062519891352265
-0.9693057272530867
2.4538065342065263
1.6644475025902377
1.922027223225687
3.1982310110464076
1.3181102938122504
-0.23772577298102188
0.7704873291326066
-1.6195405294261391
1.7784435302477908
-1.8753004200921572
1.6734495698038168
-0.7958006121786007
-1.5847155250849516
-0.3849687755537362
-0.6674185744006481
0.2464804660912121
0.7459039441733605
-0.8793316737094692
-2.3141356814253524
0.24025861457192912
-0.8783813791564634
-0.8215685891612057
0.6868525200743395
0.8391219679840781
-1.6799703943362583
0.845076674260084
0.8242182999180144
1.2000202678509075
0.5478153440190686
0.3462397321209515
-0.06460767692117285
0.24705432498801216
1.3184915023816468
1.003195868405629
0.5616392450605395
-0.12912000394120193
0.6129823277975565
-0.9401812087169377
-2.3622769979960125
-0.7215089867851296
-0.49572990954871743
1.3929399618152987
-1.0610492704150571
-0.7451765057472755
-0.038482905847737454
0.25971799691782027
0.2997920166132242
0.45276434348069866
2.2292817263103144
1.3750753944201601
2.6775074377520287
0.8072708245712285
-1.9671100892721443
-2.7440689019981797
0.6994860961452484
-0.0797569799324807
-0.3071255136367945
-0.9576630197349402
0.7676131194678
2.4050144676283174
-0.30259150515113087
0.2299584597524002
0.9137766073526571
1.3853034550551337
-2.8858413008944956
-1.6491783062377534
-2.179425717008097
-0.3306183210007647
-2.5080519889697026
-2.039758733408974
-0.5823108292202483
0.2662906213648652
-0.791207033574955
-1.609249045106989
-3.618199489218841
-1.4747793073561561
0.831405300489449
-2.269132782126496
0.6591426910243761
-1.0574245603933075
-3.02981837066492
-0.7959121896753886
-0.9637158725553927
1.7020782781075
-1.5619922887399442
-0.8369470711499586
-0.19594325834322068
0.3520480502957747
-1.49913000276372
-0.15286397972487242
-0.7856167705966217
-0.44531951782201
1.3025180582083913
-2.4546213538828776
-5.603797847944537
-2.445867865785466
-0.9552723029409551
0.8851770809672798
2.729360695609908
-0.4341368756593125
-0.8548437344625764
-0.23474980006947632
-0.282420258692111
-0.9489795016980034
-3.7346286230665684
-1.3353137206869672
-2.6424119335198846
-2.2488933863868836
-2.7138811015715087
-0.010517891456719712
0.3003311303771521
0.6261791793232387
-0.33189407519780106
5.2932945798654325
-0.8983502609420765
1.033352900818452
1.4074932790572188
1.0192361517825885
-2.5315935723156024
3.7561962011156056
3.5739665565011802
-3.2293654826272835
1.7786857559348574
0.497101463224893
-1.491174653622872
-3.3719376923080713
2.3808121085184712
-0.07519203912563521
-0.13002359844258005
-0.5678043178953293
-1.1732702599161522
-0.7066428009961013
-2.018488896720508
-0.12883154563436375
4.2596407996609
1.9373169844684093
3.213158712545821
6.9298635897469545
-0.47601220885238077
0.5161370008847911
1.9506958066035398
1.2957583361966412
3.4297845000549927
4.053328375453567
-0.1347867024654615
-1.414215576576356
-0.7738775381486026
1.5371363123468302
-3.283380927071218
0.44076773712088013
3.1243866878057873
3.480881462179148
1.5761068316586622
1.616031415598259
1.7604851847322274
1.3861471594779073
4.56366055019345
1.7973586507574315
1.0864779715862263
-1.3535419028129816
-0.4280362210771964
0.25641022535046876
-1.586489830768255
-1.797263998067704
0.20760245362630064
-0.6331708615062036
0.0054693833561011256
0.8511991983204713
1.867064792323097
-1.1945351775915471
-2.193408086370831
-4.594810956919732
-1.5269543145201139
-0.8738261540136847
-0.9302351239185708
0.2225779199267151
-0.4378313545338366
-1.7677696200202573
-1.2074968518924618
-0.970633970217801
-1.7703275744889824
-0.21490792341110396
1.9749342935187089
-0.5617158839062651
-1.8006214459398606
-2.068119941755464
-1.071619855886731
-1.11626095517645
-0.4320377698811587
1.7613985196531563
1.3959952950012866
-0.8397381987143199
-0.3657498509125494
-3.5985779007858922
0.13205121119554553
0.8489663755469642
0.18696681475288748
-1.1431559527966988
0.8400517181251383
-0.36794416139829195
-0.6066014266832409
-0.4938767107284758
2.172389931373706
0.7223029123021032
2.2697999949014878
-1.0111651137477529
-1.3471259330924585
0.16038515154634353
-0.5317399726688162
-0.8549967178427745
-2.2775230523443053
0.18777580057576304
-0.5333198347184912
-0.2503277953712676
1.055229934380104
-1.7918843335358061
-1.1081265505296918
1.5523474616762156
-0.7830290383241799
0.4041769407132077
-0.5997855991424722
-0.8003582023213421
-0.10301832304219125
-1.138725187020645
0.6581827284849854
-1.9270559616073963
-0.7394531240695825
-0.1844882423514402
0.05078276137529805
-2.422970006185708
-0.36829011001868917
-0.1881758760936297
-0.2971388478469977
0.12882316231528573
1.2201915872622666
-2.2967152944687363
-1.1768916806308864
0.6708204632005604
-1.1721152666148178
-0.5567751161388111
2.2530714403588488
0.8671569411857762
2.047981111799635
2.016017484776656
0.7574746833983241
-2.3246821623934673
-2.753445396774842
-2.5027751432489183
-1.1147522901560796
-0.21439821360253625
0.5979161979208155
-1.1396207575397288
0.1395081648118101
1.5642226995759356
2.229548238451091
1.0372210685843897
0.38007797299046675
1.3082887583707834
1.2312426848173237
4.895424851865467
-1.0723203289622354
-2.1822830297386884
-2.5108069370343755
-1.8697294369911452
-0.09469522499575114
0.6988635320657727
0.46789563138367884
1.567660939712116
-0.8333000103257348
-1.073694864439573
1.0645027359329684
2.2321070814241324
-3.348106410694336
-0.2521935019727174
4.992770882333794
-1.201381453979599
-1.581627000004943
-4.408390015344524
-1.244281154788265
-1.446759219132422
-0.12879736679386977
-0.3337227456910053
0.1598017659752164
-0.43602370422128783
-0.6057365600296536
-1.3728771114166556
-2.169706324240865
-1.5867047222686204
0.5363266884319509
3.167594798163542
1.0673939198964935
-4.412275409260764
-0.9993647356570171
-1.3322032307761944
0.6356744540968371
-0.7042652648203233
0.8035533587112828
-0.11019851741805295
0.7317704468693186
0.5146305697140532
-1.0877223036986032
-1.1855666666165743
0.3511032440483476
2.6663642816642845
-0.43137407172089776
0.29220084176640265
-0.19228329309040137
0.16392168834383666
0.34145326446740804
-1.2792854343738203
0.5689995025592982
-0.8254856974090979
0.5508574624968753
-2.488701759762474
-0.6072359699670405
0.3223357165797778
-2.082073060174546
-0.03402820884459382
-1.7128343326647137
2.064787539497376
-2.9454220908039996
-0.7376672844045684
-1.8414609126102788
-1.816378676962416
-0.6086082064198769
0.4794047678388147
-0.7012504989501066
0.8757071695002897
0.06978572982418017
0.34618380781085634
0.23792442971692104
-1.5054255134153793
-0.4787588771481568
-0.26748344745087543
0.285952395546733
-0.4704403354758583
-0.5066279936194181
-0.6146244215694385
0.3926126170865595
-1.5005514348523705
-0.15367486946744105
1.1263621680927038
0.6106657587085788
-1.5941158650642755
-0.7958105749086295
0.6020847702015049
-1.6686030058506225
0.4818177677632033
-2.800480101299588
0.027401691141763756
0.7034951976334275
-1.4045005798698464
-0.6129007067003585
1.2267832768057207
-1.1981565771348652
-1.749554818816003
0.8094149173399122
1.2527756381865764
0.4109416249902133
0.34034844180723983
0.15433064926074158
0.6066570216234278
-0.9252678962225511
-1.984252787156396
0.13711332428063214
2.6901736650452417
0.8614140206744838
-0.4064812059331867
0.8200713636139122
0.5086878256145919
0.790676639894881
-0.4094238008478481
-0.8229399878806759
-0.9823666212266309
-0.5252738201865459
-1.429701874665463
-0.19369976832532218
-0.13121793809927007
1.1818369363143144
-1.0649286101564823
1.0429094739456912
0.6123125870735845
1.6467554318725848
0.56577964211659
-0.599953991110836
-1.707861187919286
-1.1986699336470241
-0.9035548514295412
2.8121887100452465
-0.9462702707343363
-1.0715385094453242
0.03522281985245276
-1.574434185319195
0.5723851348958023
-0.3806766197375681
-0.10529344019927579
-0.4458868724932559
-0.8404613085691759
-0.3840872686078301
0.9053101983488805
-1.4578760337015184
1.2457339312097753
-0.6025318371915654
-0.018820724572696384
-0.04948547393232737
-0.38024110946272016
2.301592552914313
0.1516816527676339
0.6706298275181883
-0.3344842017798376
1.8918047056654415
-0.3158906787759493
-0.8926757069246414
-1.69064406125972
0.9590275680256505
1.162645227663912
-0.2795430785970521
-0.20966323840002285
0.21675516299860373
0.6331105824342228
1.490696362292304
-0.3836085316719963
0.12603683029040622
0.18025204601239397
0.6966863874008645
-0.9746492481075868
3.5185977196480627
3.28676428917501
5.713121142333843
1.8450250491267832
-1.1392261559851349
-0.2065104998899677
1.346626279538436
-0.5875936739441573
-0.2276598935440202
2.5281159365096793
-0.5085532629493285
0.9597337190507143
-0.7546483167116382
-0.5877950817442175
-4.9218088012896315
-1.6087528107217215
1.5296607266630693
3.426017845292571
2.395280842287374
3.161762745544328
0.1251812199043167
