-0.49982459985463673
0.20700630818843688
88.55619403510549
162.38260390721322
516.9879266711945
417.16272849874446
88.90296490458213
-238.99776019177946
0.2739677451393781
143.67545662962178
1335.8897169629913
1565.7953033581357
4252.880015137309
2004.2490144066726
2150.899753187169
50.1755277929384
-32.77491665499368
196.0215922559742
2941.8777438850957
2895.068315001513
2426.4293783296
5332.149447175892
1687.2098011612688
61.16692556828333
-23.848099040340095
307.08982410266265
3619.3755839799255
2808.2537620586504
1033.422865970346
5001.722793565991
2442.020156670806
363.9747312874026
2.6412025240219865
318.87834971196054
3113.084331922518
2352.0727722378433
2915.914382924858
3548.1578661800113
1514.8268667945576
300.940431856729
45.512028871269635
657.3764622366306
-253.7844309276087
1383.116565825121
1545.6997031810913
938.0447898869078
74.08784199957081
-14.23311514713852
7.980068478342835
-0.022120253419996346
-0.14666552080732098
-7.149386713392793
-47.8160047214563
240.0346212975794
291.7147846146339
66.35869875346759
-286.6815476163855
-0.3365710757181676
-34.50641272801408
-671.6657876093133
-1672.8323338543735
579.529141236981
-479.13799861870575
170.62928752924302
231.0338419259613
26.854434982272164
98.05941618176772
1515.9358765980776
1246.014910176436
-1011.713581174639
-247.86728032734476
355.76380286588847
134.95432848259523
-22.589864539182603
175.38556643216572
788.3083144186406
-1066.5390308625877
-4449.47162708372
1051.0586630022187
190.37550886044923
-83.32139092034004
-21.130945451310097
-987.7598777251985
-61.36707179428096
-984.134354821293
-78.42931492477386
-86.62866828889742
-856.4144052014288
-164.56823857488436
-3.384788076062426
-550.6535363317075
-713.9621489853305
1151.600476276024
794.2262320038103
203.01281723143674
-1.4241843494503077
19.030747315355562
-11.67393423981061
-0.35164767777000455
0.407934457326148
175.8446907343841
294.19608738323785
57.49787817650854
-45.097891319005925
-59.665933867544304
-281.7608948330163
-0.5744377215570807
35.92025614663324
10.751331856185478
389.4738580085975
332.4842269700123
-924.2164624631126
-3153.715532729622
-1317.0703163546455
49.81636679841877
481.5509570614723
-53.48704201324996
476.72610893137147
1533.9418711933847
2726.1691123131804
-927.3566930752919
-1237.889186500217
15.699220688331195
-326.8836177879753
-3000.3694795227675
-149.16380450822905
2777.158559857823
74.4115784546992
-711.174253937342
-36.72002690969435
40.98807035388279
-1384.3332337655645
-2592.2833926292205
-960.3115924899305
-183.15419236241397
-1575.0270782991852
758.5692421785224
354.52243607376806
162.10280938591964
-381.6843241491983
178.56275505153187
-158.05460204059656
-824.9264286842005
-636.4077777061942
795.5151113577373
61.04366326462398
-35.506622209587526
0.7592502264189271
-1.1206132775558182
1.1861226692676534
-6.449631197308878
-224.00355487124665
-231.29321225437826
-18.615256354787032
13.921322762950156
0.0017720135212124237
-29.90214524189553
-479.54509676206067
-1035.7188581880116
-1885.7270540686582
-1182.8412902577447
-1404.0768349458438
-209.6304623361772
12.797678185074044
-45.177933514483996
-1356.435549273033
-1660.9736281093078
-1042.056726433162
-2408.1644197594796
-1033.3495027670438
-234.05987876801882
5.7932734638283625
-252.36901946081764
-1912.5326135746234
-2051.1460251458666
-1951.9603762259671
-2040.250869557633
-1048.2405498480773
-138.3493911978442
6.294831360172645
-286.7732014645013
-1932.9825890350542
-1626.5997807276271
-1865.0855700145041
-2067.0249906742674
-601.4836101185361
16.089009938717158
-5.781310356733716
-90.70375382088685
66.02958178184187
-410.0532035226214
-709.4924987801847
-367.92536009302773
90.39705977880044
15.152234458427175
-5.655362009713732
-1.3331528945003523
-0.2855199624509497
-63.968010906098705
-127.70700140948836
-8.00848739895221
154.43154586356852
21.16716893919248
103.54864649982848
-0.9163980939362162
-66.3546827411201
-485.8441895388755
-1320.1273414971972
-1391.4264784002892
-436.8157170904563
-302.71789129984984
99.35071397696942
14.113129955050184
-33.42509637915207
361.6130505983463
-452.22947737448527
-2304.0258323231456
-729.0911163041014
-441.61649967805874
6.255007898462789
-8.363705007154914
68.20024141353896
-83.51620764085415
-691.8446218638345
-1059.1479157670258
-423.9218269831019
-619.6492498119751
-128.71503251490844
-18.23573116254678
-468.520225583998
-316.34026729337324
-1062.2303819371334
-888.3258544761546
-804.4245795228028
-255.8017832714026
-178.80267559252232
3.6770634729285185
-873.584884480575
-403.75341826920345
-293.5971918872075
-349.25778915875117
-54.24236854859676
-23.6180148310454
1.8544463262030129
-5.483874420809578
-0.8002993754248134
-0.983752208604983
-77.94388016184246
-85.98063437586073
-411.71453847873306
-379.95775929822867
-38.05780902223123
315.4114594995801
0.3534625662210905
5.835664171769643
157.54291983583082
720.3764978324826
-1484.5781319442303
773.0620715533847
157.08284628559232
204.49257586078434
-18.029763801149485
-35.59687285204533
-542.6973618130535
-554.4838361250563
1098.7082780925841
-81.78867071458019
-291.8486422871711
-110.09792729691472
19.6868273465404
-387.89431134590177
-143.28891362314872
1191.133394922535
3368.520508665859
-644.1177474361941
-858.628712473128
-176.51722673097677
-9.115993399121406
459.48494435051936
-324.47684682782716
352.45256106667887
-95.11850018699288
423.3631825276642
-206.42456720690996
0.4260858474777999
-12.457566498289449
89.83448576605616
635.37607654755
-401.47014982563536
-274.5802576558795
173.88697328609328
-158.95321959685322
-27.836468103567736
25.858579692395125
-1.1264915320371034
0.09017324544184765
-112.40852157468792
-171.3908803197101
182.73631912633562
144.06192852648084
14.186231753817014
4.554368101154561
0.5432560937499552
-114.61700229638576
-1155.5809623913055
-2670.310181072587
-2985.928242417637
-2464.3245810557014
-4209.640316810311
-293.35014633199404
-85.1302168036928
-1115.9922564567983
-3446.938291198614
-4161.180126182069
-5010.310360641998
-5562.200296955893
-2341.4743122183545
95.70852300772877
-7.84523615274573
-358.8126746815568
-2524.0099772007025
-3500.6185653786015
-5374.583981881138
-4253.009739648958
-1708.7686835795007
-108.61321211772226
-25.22365479737415
-642.0988389519719
-3393.6489521641106
-3213.154459088634
-3662.6444836532964
-3493.709757044235
-1554.1828677079977
-137.28310911798522
-33.510110697734056
-423.8419052217199
-78.56517725696102
-1658.6992795410852
-1781.5072239534163
-1003.1171160820048
-233.46468149270146
-35.9417091778115
5.227149155753979
1.0155759077522972
0.6005944457580039
-124.62652593960448
-437.2341374397602
-1292.9522504854688
-870.0886647139944
19.029441897810987
1151.5753669018895
0.8368733233256355
-209.5344008818696
-507.31684251687943
-955.9871865628626
-3317.01904318572
1679.8531745821547
229.9704765744124
644.3958686932318
54.77978878024052
240.93001292404324
1199.4827560329616
843.8989268210614
727.7366734930338
79.1733100120885
-2355.8202020062085
-1210.2518734130858
20.048806769606813
-60.65046558658986
-133.1800993179325
1717.159340663995
2170.5100727945114
429.1321322934543
-2783.7219723214735
-711.6366146760488
-20.636752276057667
-851.0818434430652
-2850.9038027119122
-2025.0252883647008
-750.0995459369794
-831.2464752588172
-632.0727742530287
-40.475185105243085
76.9140007466612
-1168.2868508343072
376.3298670974493
333.85503896565797
282.5016432532588
862.4010720286308
362.98217599706146
20.94533342778516
-4.077968187421129
-1.848009178727726
1.1152012258992505
-83.1431748589405
-79.69334286659051
408.7094706307308
512.3440860618956
14.785026534336746
-413.911787585189
-0.3710393795520327
172.1108967268116
-154.75026423045
-1486.4070631408392
-233.34036001892113
-619.4509970597819
-399.14982982298886
-653.9109945939904
26.835891498943987
452.60060522018154
-981.4648498441402
-611.873466609486
1349.3230909863062
1245.9667972424083
734.9144484052238
-237.48277436687647
-13.277667456853859
101.35414517979788
1436.0395361952176
-1068.4779788100655
-2269.7552791748612
2165.534787701441
463.38033667662603
-90.27106128508107
-20.589387907717295
-515.6935613792535
-340.64444936403476
-1947.2300855153594
-83.59132536230867
-313.4242572501443
-815.3757434726955
51.01556651408182
-6.52768570220339
-24.61854451695898
-5.604356523248736
1262.6978096514256
-104.08680763706823
-371.45324953677283
245.6693368384197
40.012858280130075
-11.19501414986024
-0.8394673335553848
-1.0060113804188
60.519272881616956
165.41459668329344
451.66476092154835
230.0501031279975
132.68549096434836
196.84575932481977
0.1788226331516606
192.50915079347354
1698.2162023690787
1452.9094647030017
2196.698726338404
1548.0693393746894
224.12953519133856
-118.46878032690167
-67.01174673170674
-7.097229810360329
1125.2394679495947
816.8338260676512
1808.8804487297677
2793.7801685269983
133.35244486536632
-151.32343248884126
-22.30543854502544
-196.16667413672815
2521.0617235655322
1565.1645847275315
-407.2665726666432
4342.4963418166335
2085.487041807923
389.38992185785463
2.3713715762259766
829.0645986562103
1167.938723087332
1211.43012268427
2137.2038572031993
2621.3679437991937
1188.9601611809762
561.9309651461953
27.59309850824343
1374.4757535957299
336.4508223288966
826.4442342938178
497.7353882693541
604.7266874095133
139.09215675411494
-26.566477118675884
30.06973467192491
0.3063314038839653
-1.9732974328277497
-8.596145023295216
-2.4885593050917083
288.22883924910894
14.353057378227044
-53.47045676941121
-307.5522956960674
-0.6841545369186974
115.76209692859207
-607.5817931505102
213.3595886120452
584.0224753910948
0.8916659104691602
-94.73564700101926
38.31987294546375
-51.88913708721607
-139.55399489871726
-1190.6501746123574
-856.1644422162209
1272.6586400034444
351.87455875916066
-3.5333047503837545
-37.10115852182153
18.726220887155304
74.15596079850108
-348.28536076797315
850.0247690765748
36.187627367395955
-1008.3528270702204
54.59642822337687
-216.57705690409452
-0.41995233409086224
-17.763902917014146
-735.5897517396188
-260.6773937319283
-654.7131320858545
194.51030082736554
-1175.2027697477163
-322.92387944425036
-4.434675385924334
482.93541013486526
447.53448394818383
45.567716699290074
240.65604282387963
18.075907880027117
-230.0837996381099
-3.703445453555079
8.363887436931568
-0.49909650000145883
0.7918489703002127
-23.220805332207767
-68.76312606587162
174.24729520429852
360.06815999862397
-115.33807747197854
-149.6703329756454
-0.40063867351874805
6.6591559730635295
-640.5707534843449
-141.07646212140125
-534.1363445882293
-44.66969563037281
736.6749630473118
-77.74337368669289
-35.9839286020072
-200.65597888468417
-293.5684870078674
-827.3966497067864
-1864.7848222959453
1633.8960076834833
369.2707216091036
201.18370627547327
14.218082023790197
164.44516754086965
-751.7282249125021
1756.3292611319303
4170.12462824337
-2494.969186638509
-510.17989027403337
-105.44418646444433
-8.060468963557494
-279.56490650344267
1097.509219688151
758.3829192452571
-1018.5226363942127
413.3679296487887
132.57032132779878
-625.5678790652446
43.52479748627442
-916.0823229279122
-240.9270324754201
-1423.630504642081
-78.27886006971025
-203.55498731595574
-394.8787989212793
-16.999334331206995
2.021923258923161
0.5075539954205389
-0.5980564404415809
-46.56755221044088
-51.86994691862333
-100.31176306816133
-107.98160579316858
86.35310171100227
406.45888185676085
-0.6054125876854722
-38.02920926309106
86.20122535685594
-731.1884840686072
-373.64682080614625
541.7946475717613
-427.2263209334039
182.114364989699
-44.994708921012055
-307.64858229629283
645.2373118463263
500.57102149995956
-1638.740874832566
794.9726432733295
-1076.4831434910514
-477.04871104630195
-22.20176870103125
-137.81917246010272
1236.0931072524868
155.07199334764707
-1753.4936905006034
1295.2903912577358
-355.3904592444448
-145.54120184399653
-5.547917626753383
-357.6491347312712
-898.5175384176365
-1112.5335153428955
-666.8466247967189
-154.94507294726316
296.788730652236
134.85286590864985
57.50473318296529
-203.05916272710968
-288.57633502824893
227.25688546430467
217.83172429758164
323.3873274813293
21.36232270292035
-21.19478184633278
6.412141975148379
-2.845926125113896
0.8757825832605466
-124.85362648393804
-231.9105384664085
101.18487426457942
289.16207003655234
5.457746697232245
177.3087114348622
1.7447933069683208
26.08338074030991
-889.959015126632
-1146.0185324602778
-1676.7749848983049
153.44726806582946
-649.980814883638
-36.43193541201481
4.691423592630916
280.72042148895343
634.4604090371832
-154.56144830407803
-1612.0138644646968
2239.6471256370896
-808.4645770915783
-606.2876290414378
1.7125742086377043
46.731923558374156
392.7874806556621
1462.9448491510088
1529.4990562716705
447.34836963815366
-895.9670375228256
-537.4534368534319
-36.163383421608884
-1063.9606636642018
-1255.1785313726205
-1456.3900936323375
-561.0273721402907
-291.4095010532473
-521.0512172935738
-491.3174506495664
85.9639667358271
-1613.287832447861
-305.3790529601765
29.626902616463642
-221.94432579008924
20.47220225238938
78.18288189945187
26.256767444595216
-5.974623031909409
0.12421269927712413
-0.8805742834330326
34.90203276604929
157.15626109760404
105.94943264329966
99.11757652418349
133.33148380418675
266.5407032387522
-0.08689404774009339
101.08738282565525
1065.7883489129563
162.32355685701037
-191.5130735653524
-28.827686453232403
-390.6621215553754
-74.34124395279116
-76.34046645821446
-280.0015673403898
205.32977935853805
-701.2329190592643
-1957.092371147061
1090.9960782144094
-553.538554650877
-366.9475586865691
-26.65581707877248
-420.02135802411976
1056.8402398123262
-495.010464399375
-1698.70235160045
1994.0032681843486
721.0143102981963
127.0730593533534
13.849318882887875
458.76591005013165
-53.42470524594407
-532.7184520839866
-456.11632477233337
261.4996913756066
1218.737745170057
375.59483501069525
34.312940125204264
676.1284123745343
-150.91754148825737
-65.27971607078638
-480.40337325659254
-10.131392600428676
23.56021148907496
-26.98320800925221
19.870035738821308
0.9763547387049735
1.765375413528962
87.87571562383631
176.57609096513218
844.802036547147
691.9343530358575
58.30264398411928
-139.8392312599133
0.12255475065634082
126.56093073094173
-197.83981072869693
-84.24475995687953
-52.76546661936585
-684.2826895081294
-1043.4974994322524
-361.8485271663192
19.302608070572422
624.7411803590962
1843.8596661907309
161.5485422146684
-1724.584177055518
2766.384889592464
-549.9334263626316
-393.0993193391451
-1.4836242724776125
-161.9437494997174
-1371.0612957946619
851.3741117607991
1136.4972036781562
600.2850936745721
472.0925116078129
-94.32571255897005
7.720336656624604
-954.2678911416883
-563.3143863766751
-92.0797518297036
240.82386843771033
211.58310894940792
446.0444661786611
-245.93408450291227
119.17618067755579
-655.0554917570147
-325.1809236675152
-160.5328646592415
-316.65841005280856
53.53657106021467
205.65867789300387
40.28801744623051
-4.981216576868145
1.6665785657339058
0.54078190177248
77.2639816107895
201.1990385772772
823.7643599268766
640.108099057054
126.24095445993217
80.36995430268975
0.2592978688633645
79.56802940084367
1656.7040579960974
1167.1319212137973
2590.918643967449
1560.2775009666525
-369.7371093685051
-506.72971874362327
1.4603187889083573
208.43122134559687
2001.516357232666
1853.7310260292847
1876.5511631009422
3244.4799331258737
710.9119110809098
159.20429463269417
-21.538560477647174
71.89923503674547
2562.5787342223825
1185.0361900207752
1949.2083886439905
4772.7241232616625
2214.9969248481902
667.8734754469839
-4.253047604163776
618.0568349438631
2356.9641393929005
1733.5920786159097
3343.518405250058
2778.5068375127366
1665.35328504787
712.0901987913771
54.21896564072599
722.9676280579961
170.5028526773805
410.524688439524
-42.62098365797816
413.240597632669
393.68815355252326
-7.761066217284748
12.808095308945733
-0.8977352318095453
0.8396381504075386
-89.46263029058873
-151.4558461809189
654.7356096039632
480.6862332047278
55.79372978462983
-469.43076365816563
1.2932898005616642
-151.21317994221965
-868.169286174314
-1490.8400012177096
915.670180200602
-295.4997897846297
816.1149008052338
633.4946961077144
23.154177145343294
-110.2863520137952
1900.9239729701187
1168.3763895091267
-722.9290804346188
-1255.2174382209053
804.3732919488344
919.2325489152162
-23.528795977210272
603.1667646457327
1688.2692550090635
-672.8112183915247
-3504.4230230881294
-7.9049908075953494
367.00453680712343
11.669413255845638
-40.27810278603562
-854.9298419121341
1462.902063382603
301.80815924017094
337.73401053529244
666.4272205165262
-1022.0805505425901
-390.3058796032017
-83.41823978654111
-765.0798158381361
-553.554377190483
884.7271952322044
856.1018680943513
520.027852792666
-206.04078510357493
1.0597567343513197
-7.7870365035307065
-0.5918864320482802
0.46457542680026026
-24.64626813605892
-211.39880913637282
-1528.9235706952343
-1097.5812728924386
-62.06877633146241
546.1436320780781
-2.3862837386522773
-22.472534291446237
588.021466528748
-526.7490959093849
-1785.516087210912
736.3526146181122
116.52412247971805
-321.20263681225055
-70.533376767321
-253.0215496669472
-1270.0608188616752
-542.4287234396938
995.5768033739571
1898.4034415783278
-1369.5727613802303
-1766.4556695227377
0.039082601285526555
-225.73478274671007
601.2915315332035
930.9800637593694
1043.4851560284542
1327.1916424958972
-2313.907661896989
-511.9284477389577
28.564827946828146
-800.3641690092084
-2501.8268181580115
-2669.4927716022576
-2376.1772479223605
-1661.1971159359493
793.6345979411876
417.29381562723336
76.47648334038175
-265.191725252522
137.10088978052116
407.18823797299217
423.4031549150332
133.04674017835814
266.96655575860706
-23.38971810696981
-6.428850683466758
0.9247468208793329
0.23040282667749776
-18.92259940953495
56.04539792618487
-105.84859119550961
176.04737649097484
90.66737349805068
45.972952572192305
-0.6615730499800914
120.07533913432191
809.5572255059905
-792.0658957805091
-207.72092714051428
-320.98350332725283
897.0083715702958
-9.710764245590639
-6.229636784429481
-41.88635709311956
-554.9352737794221
-724.6849474346249
-1282.7297533011526
26.08638524467477
796.839889011988
46.74308635309824
-26.902000079849024
-116.03963143205267
2134.2034556096382
-1266.6236700593377
-2338.296561504177
1762.2106762197425
721.5559329579503
131.27333640502493
-2.423843291892238
372.78631727071405
1369.760252401103
-679.2631720573567
-225.4084613840038
-160.7481541508701
946.371897527714
268.43784940735924
-35.96350937532305
65.5048906448117
-572.6170495387021
471.86346770954736
-164.57378136213308
-204.8111568806772
-41.80609553591903
-17.541670701508707
-0.3844257719081322
-0.025215464437340147
-1.2880630975720933
5.0983752393906485
56.04049144755295
-568.8772093741368
-657.8097858680112
-86.48546625578098
264.76977003924037
-2.0535278212264996
179.65122706060274
394.87103273552725
262.95858802032205
-2446.5161334835375
602.1518957905504
532.0573905907725
-416.40716800829756
70.41002444593252
791.4868409266007
-1761.610344102291
-1192.3425750893114
3621.0408823405082
-325.8807797301531
-103.33415389700572
-553.9278514377007
28.380838578498015
-313.56234466032123
-136.8958482683348
-607.4705553800208
1906.9735286263497
544.078783138585
-545.0058238945865
-209.70324906041517
22.378037340672538
868.8976003685841
-883.6902780258785
-826.3466779943888
-514.0125381232382
-619.6655964945055
-277.3619352184786
285.125668564943
-12.647869465578452
937.0567355101928
1040.652323251263
361.8058384400253
-625.7048892977264
-129.5286706388396
356.1304140279948
42.71549129972989
1.3892752503096018
-1.544628827083362
0.8151186675396837
3.820611942914803
37.90704909054909
445.6202236651447
208.878391973528
-6.527775244455898
-65.97487250755061
1.179958597176525
119.51916206970171
-509.3237364506113
-128.9341692120903
-471.84363287342717
-49.09262887068334
-2117.6257449302716
-550.7227351098261
30.204849758407136
317.69447611187826
-926.8607299785107
-126.4134990822471
986.4149901012438
1055.5478699034798
-857.2863146310572
-319.3386870487123
16.411992803075567
-42.293730687840764
-741.1124077970817
411.3108182012231
1186.1659707773142
367.5678308719147
-82.66362284619095
-216.54670561520732
-9.483330152245216
-467.51550888867524
-1333.200268715286
-820.339213627602
354.60093624039496
-226.93373200560856
-629.8231995545506
-137.23247934657456
55.63457703925638
-260.9007221639292
260.346031033167
-103.35301130797745
-672.8447138979623
-369.55370840466645
237.44197506444078
36.37195204560536
-9.109319447266135
0.1062624940478046
-2.231056999099109
-146.146013003036
-171.72308364496104
1165.9630274815445
1159.6317994616852
46.51481228125998
-645.563068324756
0.2570052216580757
-72.39506700275763
-698.2641595037564
-2178.262232856654
195.9960833666879
-537.5846814903113
-520.6943350145598
-178.5310141212136
28.002944129508546
-44.181571838585846
989.0744361176331
329.8568513726583
-1846.4337526813624
400.0900824587278
1180.4284632496813
804.3791776425476
-26.10931475703286
504.9882614789272
2290.5423754411113
-748.191679104048
-2052.1680662704844
1264.2053778478412
675.5577455696956
141.88953658800727
-63.35376452369524
-1095.0435759920206
2008.0514094527268
-646.8370643893842
677.1350613893316
745.2807576497775
-529.596973188226
-318.37610259391016
-34.90043779390598
-1419.8738371827503
-752.1317901003816
529.3229115364338
-189.00287107468657
-303.86214369805026
-110.16025856716163
1.8979946596545998
-10.13154428426298
0.8788607543770658
-0.3701318765565303
2.727804249136598
-227.5693697419753
-1415.9940639070473
-1131.0630717338654
-27.647803806707262
361.14755388417814
0.8405116224162035
56.1847508704948
-1104.1442544372012
-1090.7104409584952
-1222.5935328171836
615.5703930602386
670.7544379803725
338.050170628337
32.169803323766715
540.9715443412603
1131.382812870005
856.2705811091994
2113.6223902572624
1986.5492821317619
-1936.1856272472626
-2001.3448536535523
11.057961204418634
-349.56448845342686
-1157.88042365833
1188.378993353415
-2640.963471863855
614.7047437902531
-2136.077421123701
-1126.9035155046668
21.708650772878972
-1580.9327579706958
-4286.525875534978
-2932.014509512765
-2470.573641851878
-1582.7909289809081
-1210.148007826888
-242.02835414896015
101.51801892238073
-418.25736781013995
-74.17905681135127
2094.1722026081598
1661.558101561272
870.4398976130044
314.43798256209215
47.100246613349796
-14.999852789281217
1.2638678512111157
-0.12800795159119718
-58.475138138268996
-186.82181717591803
598.5257031277711
565.4626392062136
-60.88364343522126
-142.28991153846138
0.33884338681907605
-95.19349838472
-653.6594467259258
-210.8116900155833
473.18096087674263
329.74187598637394
-1943.2601154682757
-324.8111202040506
-8.707634185220698
-353.6280909987489
-167.0044035268665
48.31124639812956
-219.14824550823639
-182.694489368732
-560.1625812336973
362.5485529174859
18.98617924955354
281.3784881563862
-829.3799582421138
1239.029644268636
3128.2340448695436
-1514.4296455332844
-467.6977554897461
136.5765432936464
-38.70585684824189
-630.2896786680589
-1.456620667535162
722.3816510012155
461.05190524081655
644.2528760387759
-564.609722070372
-204.86320314439413
38.58157084487911
-692.5993173009884
287.813009032074
-1301.1428470536089
-465.42096845154697
-191.69905004010178
-3.819076955512945
-19.62719968797533
-0.04352319700941669
0.1997384829644359
1.331715100668899
81.11320709955946
-69.56845513645705
-353.7734391439086
-474.93500466355715
-93.71623880939562
-522.6901681181172
2.054799805687097
-116.05748775057751
-419.0572897482944
520.7994599958814
1747.307122412714
-129.65241223167112
837.3052081783087
314.2567827737964
2.2738487233302838
-79.25609431893015
225.41848623555973
815.1929812965448
1977.82657882349
-715.983594870542
445.6636252318381
146.40715173968664
18.593260283565606
290.10697739169433
-708.141476341855
64.08496112592202
-829.3436106804671
-1891.8939752256233
-514.801765176323
-104.0100382584844
14.250564398608184
-616.0219937175574
-47.02603275582034
739.3783351622958
-848.3587268216895
-30.326634377411775
-772.3798178524781
-129.14473580932278
-17.550331994148237
218.50766420837607
2.7162476913205547
406.9596756590959
1196.9784628420089
413.7334509791938
-75.60078363510405
4.140217044794745
-15.56370708945067
-0.34339855154473103
-1.8532366764254968
0.6468343012947523
-37.99369371874244
-524.4237050813778
-124.52188095348825
91.88389941656693
296.39661324777364
0.22326481821807265
-19.188929032880484
862.261670378346
-1127.001427285808
-1354.5136109488074
-73.62208083871771
2320.4283952940104
400.69082992736384
43.2762049802384
373.4244003606931
1922.0592623818986
382.5834815169099
-2100.6031511155256
444.3692526792473
427.34387795607665
-213.39489113691107
-29.907981298494988
51.57648038790619
1534.942335493376
-1384.8032494596334
-2126.106043569718
1849.987854092784
159.52756172749127
6.551963794228448
5.660734167519629
-0.08135260967268536
1428.9751962895052
-585.6471395979008
-826.559472259239
-214.45639822358234
1266.0806775087756
188.11158042381874
3.2010841974582815
-556.5854829208766
-841.1011677704582
646.2843774437364
333.55053273601726
466.1844292702888
104.80983064966681
6.548858707190678
-1.794319402514496
0.8747343646509491
-0.7747297654636545
145.58946999084733
177.29124325487393
-23.096921386135538
-122.72521906922631
-63.48405918202845
-280.53493913388115
0.5143179829639277
67.522394958722
-196.11896265542305
354.6800121307273
12.66515196952636
-611.3449458433189
358.2746135423138
-254.92267672970198
52.315016307404846
625.6511597345625
311.1815315251489
-76.03991307988369
1074.7908809107396
932.609202472785
94.70455728043713
-424.84709082335274
17.549472061043886
-170.83666990910314
-1925.0641409706407
225.90820787205564
1037.9953567463097
-1221.9461228866728
-180.9325974435109
-118.90510442441165
38.15588289824662
-369.1106115294046
-620.9473532472273
144.165085113571
-719.0014056736394
-450.9886916224877
49.731585375431436
-110.44429463485018
47.958813713362375
111.33262522289452
123.30966921576788
-17.516038599454482
114.20770004141053
85.04541602157845
140.79516234657956
40.962826221735
-13.03016519183573
-0.27853922684554017
-1.303513248086415
123.22378085734506
53.6863097248064
-1106.9744470191972
-1052.6563608130134
47.08296691738261
767.2549385909813
1.135059769610799
144.53749671554826
-57.71034237524468
608.5767450281719
-1745.0491135516693
505.997518656309
995.4021920784727
385.3673888221919
-17.13081494261471
546.2026720544683
1314.5975931698213
248.55066058424748
322.3426527786288
2111.9297019415794
-2397.659468804599
-1841.2166755354988
6.981936009216308
-730.7956212522929
-1937.3914356188966
1479.968425917697
-610.5741833610142
427.3562811251601
-1419.5800938845134
-737.321455366763
52.69355662122254
-509.4268226216591
-3595.1412972410244
-1574.149012705137
-1917.688533583152
-1024.119044419067
288.2658068106939
-58.3592714482868
143.98340532636004
255.91871815595832
53.38056685543952
987.4862285612863
971.328322043774
999.1929356801222
234.80756828987666
34.98220906027357
5.536795253955185
-1.564556642298698
1.0952893839912483
197.7121481181178
339.3613622456848
-435.42221713335226
-591.1547935276125
-30.849905857005947
-197.92667603638714
-0.009598327437768058
-60.75423005771638
711.695933404445
924.9693681312904
582.4553662281583
-616.0388193460486
2262.1668912705436
213.3022487550926
8.037247808396105
250.2497724262706
907.4995339698461
-32.66669010051416
900.0930486656392
-978.8067511973824
928.1053097750033
39.82522307756913
0.6893241576192495
7.127104527173025
-941.3573918887263
-2032.59584153882
-401.3124857607461
-1118.4785784995897
217.40140765680044
285.6737997375491
59.14575717469386
790.573019955645
1521.6615126035583
1129.9643048923422
-893.5302419300946
-566.5440880867753
1324.658852405222
439.4729619743316
-18.22258440481626
792.7668537791635
-368.00515253015834
128.5727080016339
517.7864068313914
226.77541794330747
-38.246325845393905
6.479472254480511
-5.313662358727227
0.6141037905126874
-1.7404270132989001
171.89732577635198
360.9195505730232
446.49609697116165
336.86861488307517
112.26985149221507
-178.9245962926425
0.24899290557621195
105.90166551863715
616.1087410416769
-572.4349246061473
-707.8084421330337
-1184.3665266945136
1002.8122436636487
-394.0754293678712
156.9744291477128
1303.4853723149968
1908.0541814495596
394.55324580904266
-346.64038109983585
-806.445631530856
1421.4086755697276
182.4882533511545
-16.005449590233322
-94.12208737134183
-188.2212918203349
-3883.7393364424
-1832.4134358217336
1347.760813257736
1529.8239290950926
419.30538699774013
30.099615324268918
362.88498787577186
1945.8655116333553
-205.34365430020483
594.2201057955714
-128.36333033268735
1220.322678699234
475.8653344376892
4.347598699609869
161.22950111578314
-488.8052435648665
771.8057968189119
-511.1723556477495
-131.62387539167332
529.5680647573582
80.5281313882977
-16.390748992788723
0.6947781960288765
0.4434863100714061
33.20353363054732
14.92412624215561
-327.528591587171
-277.9445663512814
-16.78380052313996
-51.99844417132748
2.868902320643854
-64.5880105839795
-382.4367164585072
-565.0601808519407
-527.7555149852822
-691.7511041510021
47.62810662693174
118.32608869490174
7.689415977479574
-57.37992761612627
-118.16471696206497
-426.47556504988574
-922.0039515203791
-1309.831692260219
-378.7439915286502
-131.48004346875845
0.21669779250042642
-75.2157554215261
-1189.992959736157
-1312.506050909744
-1770.097894978631
-1474.3075558365142
-706.0300449171215
-106.78398650669011
14.76569934472365
-302.07343831403017
-694.0451865155953
-601.5171215868156
-1384.0127111104443
-1309.9756308088158
-159.0692532059524
-38.92180189057655
1.8372508764856557
-178.62328924263556
-289.4378354933898
-32.880282148480774
81.39400856599136
-11.651968107438389
-10.263506184497222
8.818008853149465
-10.045481265781575
162.0187270363322
-249.20208975259743
127.93797636291819
-173.30110097921602
-146.6606381853015
231.68530551291008
-514.3325569187178
233.93628337078718
-132.7044843204359
108.07577791287761
5.572417510702564
37.832929334699664
-149.93762963057048
-46.96905852322728
-184.26850396221462
-52.06208261341586
287.39590757244804
-145.88949039395027
-68.07102435472314
-234.11907968481063
250.1948168331822
109.48189328318757
-153.54659192841345
-184.0456289017442
226.08207081941552
29.90060341936147
-213.9094410499801
26.124593541923048
-123.25554361320988
-63.24997939040382
-54.524505885179956
-174.59191700392887
