0.5674431851390788
2.2587070395611644
-0.2205235076926148
-0.9782393952412463
-2.387409459871759
0.3035263055561373
-1.1351439916701402
1.3484579530790681
0.431811270121083
0.22130775913871287
-0.6947829635051003
-2.1192827208402734
-4.213599487918272
3.0421064029639564
0.5546346530401779
0.19917208509000975
1.2931322678394455
1.1194833958319255
-2.0169649095540656
-3.8645194575811996
-4.9343192059391665
1.8372277694574008
-2.11673063273064
-3.3426831064365787
-0.9662218822662664
2.3849334665079316
5.46010645106879
0.24946677174022047
2.059759907579807
1.9610822850521683
-2.943069312797296
-1.4865026388823477
-0.1871988682057998
2.3939243363113065
0.4784741763366823
2.0396415407830224
-2.5739130061131377
2.529752251180106
4.345613810931043
-0.10463371597182833
-0.13692299427828017
1.0141968661297978
1.1434525041674775
-2.5849914132085607
-1.1134988402932864
-1.3522986863512572
-0.24437328178668147
0.04053157683073404
-1.258999090863974
-1.8145194224484873
-1.4809516234365525
-1.1344940645753105
1.4163764820183218
-1.3397929408960125
0.6357704018008471
0.5031889718116437
0.45451774022973257
-0.8697001559000833
-0.21323786202365125
-0.5014946528669014
4.824214897405649
-2.551110752023917
-0.09110221558982072
-3.3914457713297574
-1.6544480846774314
0.12471711189965697
-3.3216292757225148
-1.7914211423276154
6.09859815813033
0.8532516676274303
2.3577413523453674
-5.631325514168795
0.7662583302954531
1.3200298879501264
1.0191297514675053
-3.655205861860078
-0.430999299042305
-3.5376814060800363
3.4741254170723175
0.5371463113199025
-0.1205609105016193
-0.7092954726097339
2.1486585031370162
1.1344918958453394
3.2280528209568375
-1.3920437311776215
-2.962076848541528
-0.33433456601803996
-0.3818005558090373
-1.5349127164800158
1.5427079076163952
-1.300009493205589
-0.8353715978030685
-2.1270875100225792
-0.4808823126854289
0.060911415573941356
-0.578716964802637
0.5111488374160945
-0.6870839644028329
0.7819925750588063
-0.16018823347783878
3.2831639425372368
-2.4363150283624044
4.241880311034417
0.31419895311421653
-0.20774584982238545
-0.05617682016570384
-1.3157388715514755
-1.7964183925530124
2.4657105652789184
-4.51154021255261
-1.8854230964846206
10.493884216097063
1.7708200771662674
-0.7603641273776033
0.5976318110042669
0.4025523000358588
2.9848961094366135
-0.4753516096350073
12.917144780311435
1.795334100906823
0.10898731660868806
0.4839240617812548
0.45023034101889353
-0.5493781613039042
5.313790255701624
0.7447329723682914
-3.035870316345897
2.784357853347501
-0.03408210674892681
0.0616392596935432
-2.329278224810551
-3.0950742686210515
-9.198448279491656
-10.386338070727124
-7.087496683901157
-1.7108479954111209
-0.10051480181008975
1.0426362668133684
0.15206421123407604
2.3358458556503736
0.4699684871282288
3.850333604556153
0.8587129005773266
-1.0658128060027974
-0.5986640487866864
0.28601988815253054
0.43932721528117297
-2.4008729175917676
-0.9768154776250775
-8.793248731414858
2.3134818606416574
0.021151098230542016
-1.356306210710013
0.721528418476607
-0.9358319936288783
-0.07976062439882668
7.876809812616902
-5.299471843135932
-2.8484879233323848
5.857228425504365
4.90064245588196
0.6701294287105519
-1.0920891501902306
0.6372113696141501
6.389586883912664
8.375118774137665
-8.417825732291133
6.185366437300228
2.922154223646428
-0.3610166357780788
0.17816742348407827
-1.4852729938846383
-0.30621079172448645
-5.873029869870786
-8.736479215527156
3.212336724861688
-0.2796438935877844
-1.9460514829211597
-0.5794165090319535
-1.0028557273862322
-0.8704789443043444
2.230670788918201
9.09117414796341
5.10606018488
0.015976447225773783
-1.831148621899658
-1.2394458771161427
1.3519731399372135
-0.7420861861862614
-0.8079949438367596
3.528609373053418
0.19633024427869583
-0.7200237910628332
-0.6847434193514986
-3.758528531907321
2.4456862405105344
1.4352866360658816
-0.9375792783607988
1.6003818839318018
-4.191980755359504
6.438609017015482
1.6266765797902687
-4.546343760732513
0.5139280891435274
2.673894582623456
2.6954998035419377
-4.701977297122759
2.8780817770211247
2.35181286496845
0.14365727584079638
1.2196428539586128
1.7995071907366957
3.87933705867074
3.1533899530651097
-4.398330886071823
-2.612309972660909
6.949762282004128
5.094583954490002
2.2673501887551697
2.9867216447168916
3.2764865690520293
3.321598875730627
-2.717474435706822
2.9302021724832015
-3.5687934684114753
-8.788005987399428
2.2374665075979805
0.8008716932615476
-4.698933990633002
-16.076016681873334
-9.868327137978167
-7.579202006543467
-7.5474986619577855
-3.807506816625151
-0.561699257748507
1.1187750182292915
-1.195602464750879
2.1176045946906656
6.4470895711721
3.7373830855082555
5.871881750281526
1.7884061841048227
1.6940200059403636
0.6265094622186662
0.5618529936896187
0.6720615786558118
-1.4915502043970734
-1.4966616798060024
2.4077340740302526
1.9510559729949082
1.1309521681827859
-5.244202236797132
-0.8067263378625326
0.2729750439958262
-3.194558447157611
-1.3111700117470184
4.033989211638856
-6.496769669422453
-2.38214031030804
-2.0343458307906657
1.3158169746540989
-1.532775082974216
-3.3812247060897755
-2.610822337125237
8.202677506098475
5.540334316890235
2.4157664936849246
-1.106380592105319
-1.6230290010546005
-0.9131106300197258
3.4773057069976465
6.642252023757619
2.214796062218488
4.109851136199713
3.220825937631044
-2.454016854972297
-0.46923698710568595
-1.0348726921030835
-3.9192365179983706
-2.821850607402499
-3.0433079092403577
-4.103102119272463
-0.9235164453450927
0.11687936263837077
0.902141523250717
0.7800743639405329
-1.9487430465280853
-0.23115724551163944
-1.759680000435474
-2.714604699744629
0.32436241740468014
-1.881474775705682
-0.8265420154400157
0.4753966225093027
0.031817451590195216
0.44203135337310534
0.6410513446604345
2.8141928525471878
-0.3297989372586601
1.139867576689064
5.52510479249748
0.5981076262418163
0.16134671363248673
2.0963982445597007
0.6271208076101681
-7.850806268604865
3.3365220910634994
-9.780951602718455
0.20696169482454693
1.2040813026264334
1.3956730284033059
8.307535243305034
-0.2478341466333159
-6.573373380212872
-3.056828288009098
-6.927027654318791
0.5142372181542927
-0.6581028169501648
0.7869858836404149
-5.946856719667284
-4.211185047939304
-1.0396927382128984
-4.9731352980153565
4.245939358534833
1.0281663088703183
1.1238038419485765
1.8956288395209353
1.1041299132810594
6.178326703509448
-2.291641541062997
1.4383584408525398
5.582359468273334
2.5041860365322606
1.4447900815098789
0.09522780197674414
-0.7074145160484085
4.758177410240785
-0.33229684567798806
3.517359218498537
0.8759008607249634
0.42857843662421746
1.2223950791620257
-0.1032760518055155
-0.46617466958180664
0.606616919173275
0.5798273225294089
-2.3722020510339625
0.7904120278289828
-0.05501884752584214
-0.21291836168573539
-0.9780803877770212
0.8192632310351253
-1.9430057587069536
0.4534529437946046
-0.529994331215831
-1.7268501052440932
0.1820097510072463
1.7919124481612907
0.6949675915365234
-1.0932076203944194
0.5868939844728585
-1.6847401901870744
-2.0214486522518333
-1.467989380810395
0.18386895544803644
-1.006286710471281
-0.5229094607571986
0.058804245539912814
-0.9936312826385063
-0.6438283597076387
0.6143865088902023
0.2708085282089364
-0.054960302506485356
-1.7313110500876143
1.1434660268785948
-0.4251360893962787
-1.0616290152296992
-0.6437003721447508
0.3986189883994811
-0.46711198774758417
0.8439854832337647
1.0560940897540678
0.32803505344133277
-0.4099187557577213
-0.9463213616887638
0.7828900152548219
-0.3305993146519688
1.4581572304214516
-2.494881824773251
0.020621152453928804
-0.15993344888136043
2.400824940731101
1.2717418829575704
2.0213109019934667
-4.864760722056838
0.22243230504768327
3.58588472267327
2.5648961948409124
2.712709804986121
0.881984174849513
0.6215006323145194
-6.539285618927728
-7.030593845495576
-5.441883747303047
0.8331144884090698
-2.5848110869236325
2.7494206839883786
1.0693129528157057
2.881128563616149
-6.605675582154161
2.0931615027231625
-6.526917764308221
-4.759026602255804
-1.4518629451187306
-1.0196354222682225
3.0296997500364293
2.425828088200523
-1.2438044133841084
5.369651163818317
4.3824810829143965
-1.7017162797776662
4.683742916697086
0.6555637802766264
2.6849551035525154
0.4105527070776412
-2.9362874038368076
1.1753375165990994
-0.7752270300867833
-4.347673238070643
-2.8236710913894063
3.253730632659326
1.1182131468587706
3.0958128734492654
-1.2785464155722948
1.5270237645264912
-0.9108917171720875
1.7889227441853948
1.0837162137412188
0.937166835978906
1.5385595368839675
-0.837227127206733
-0.7327774138807489
0.8959492997974405
1.6693936490592476
-3.196129724129146
6.7003003992720584
-1.633764322567423
-4.18812123623927
-1.179607821832357
-1.2667250193556878
3.864617543288264
-4.2469831858415
-16.989636431116697
-4.504800061492548
-7.539263208020608
0.8272428054777078
1.2933454609413355
-0.32081319930805874
-5.232757906526163
-3.9497486499532597
2.744602103738901
11.054864485899957
0.8665664926299753
0.04833473247389261
-1.0205114205802492
-1.0946443941908168
7.669602162199954
9.026812673395375
9.73422599338513
-2.631807085936055
0.09590730918275876
-0.5869609597560679
-0.8535324244660601
1.2407600653485336
4.598500163246185
2.99857265329037
-2.513515874493201
0.31991428775539676
2.406652274213299
0.17869140043358842
1.8882085821090218
0.2014879716071627
0.13105235555328476
-5.481931760375889
-4.715955880428447
-4.367869572892598
1.2727796355021503
0.7852930817020515
-1.1359949517668382
1.1142207979665273
-0.0869469447883447
1.3118062446894527
-1.415803048307242
-0.16171422794551837
1.9923825682118554
0.3567609193783769
-1.1024920253742179
0.10179056097528494
2.272450839865492
-2.9138790358415307
-7.2016689814268995
-0.1821865279659477
0.2793696285211996
1.1837766049607612
0.7594079955922636
1.4931324644528867
2.624127868789341
2.8161449623662813
-2.183184745870938
5.463446143169945
0.036583943768228586
-2.2159607088811635
-0.7590844021626136
0.9208836181124589
2.8950681438906596
-6.048071313190837
0.7220987174950019
4.414195145021341
-5.530961206881307
-4.590331711239151
-0.21275582154406394
1.3241497940191123
-0.963246738865373
-0.18527359357579704
-2.7551108321835924
2.0085757744438597
-6.780457836905236
-3.3857189218893273
-1.3573210999507193
0.1562259123693961
0.5456702535512047
-0.37220358162433587
0.12226102029148819
5.025841861439912
-0.22796616027744704
0.9735200125107093
2.0933974738961973
-1.5213351846542087
-1.407554460986467
0.8270238646147127
-0.6193724364026529
-0.7298116222790757
0.28393695426571347
0.23332927582515628
-0.6651240052148643
0.8841929209041778
-0.5075809808541628
-1.1834296928255426
-0.8917209944050415
-0.7362616867924434
-1.9047409998668834
0.2476003580571096
1.2176290612192513
1.1156400497296104
-0.20992662695499145
-0.2710890929651054
1.8609526551400415
1.1939463512263087
-0.12078156315235321
0.6747506140672663
0.6981210199515872
0.11818885377440311
-0.283001248179549
3.455190170317004
0.6242815078577968
-0.25521434115306574
2.6870193716672435
0.23689469249838138
-1.2051983842216338
-0.11443356967923048
-1.3164994307094404
-0.6832152143930146
0.21709352322241401
0.06172943847430878
3.268407231357113
2.4496690249950315
-0.26630452812764205
1.0768332230892448
0.9983362210992842
-0.1212859655741509
0.7035913483411391
1.0942656268650526
1.7512845986709693
-0.7300683648416881
-0.9877802564609159
1.6217662702739526
0.5213345212690261
0.8760934107027962
0.11903272855074637
-0.9270482233442471
0.6108161788387098
0.15392051303718038
-3.5660522966691475
-0.5654984377567405
3.225385897486915
-1.2195655996175234
4.2822637863462526E-4
-3.019406384393262
-7.870328823663758
6.271243159772868
6.279356271136848
1.6100779706304094
0.9461692107221685
0.7078970194637377
-3.5123592180150216
-1.9447670099166312
-2.9334586968695344
-12.600852110470749
5.2668702759804304
-0.4629493311259144
-1.4719735688480147
0.8075545197316176
-0.9706925753406729
-0.5602320802962364
2.536834208124813
-1.788817908988022
-0.6755927554539523
-5.8156401371724895
0.4151597979799004
0.47817434119315094
-1.336181137045554
1.0253225469388936
-0.81714714551752
-2.728785246825205
0.884045831543138
2.1508149873214824
0.4622657764852221
0.5605311370790982
0.5868285826719472
0.06906244402052053
-1.6061379873195163
-1.352777428340694
2.2074207742116387
0.0607974659661993
1.230288651396359
1.6729142426983135
-0.13064429654822327
-0.014687000144273639
2.451578055407999
0.3563242010011682
0.60890304227909
0.876033376070302
-0.4530292658777197
1.6949643698655101
0.95170058750616
-1.8221191144057378
0.3975895324188202
-2.4596143998815974
-9.37530397073502
2.944976379327628
-10.828230696389495
-1.4733163204154716
-0.9048127824876327
-1.1976561242658106
1.7023969547523812
3.6303813254258617
-1.105801470033032
-1.6745579582308994
1.563034991772975
0.6988985654144234
0.13728777045772086
-0.5953945932135857
2.7096209754095524
3.962598814545176
3.347605200827304
-1.8708906130584546
3.104457383565231
1.989364682163777
-0.3884071205291832
-0.05591706841914134
8.05086853068631
5.726468072790723
-0.30538922469168184
0.797720782635032
1.6990737790097685
-1.0533388528571082
-1.1966181141610683
0.2170753667652909
-0.6876097278903335
-2.0025564431579754
-3.4686876261278323
0.3571958110880365
-0.8050540695182237
0.5601911144516124
0.47345769635044826
0.433861501702587
0.22429884117415194
1.6931196881287307
5.660214340058291
11.640519879338104
5.017074687393513
-1.667418295782864
-0.863471891105675
-0.8915286569108064
-2.635434181765374
-0.7486568207393534
5.854134868908246
5.091440542295213
-8.108256630223165
-4.490150819025358
-1.5200458650565765
-0.3113604355280864
-4.8662542655858525
-3.626670946028923
-4.9763161659038815
-3.3996425959805885
0.97695677519174
1.752764265409364
1.6171125792878787
0.7019906278338449
-3.704005297543703
-4.4284340739162795
1.9977995355808593
1.8833264672440722
-3.122061907153154
9.223190228509226
2.103850203972932
-1.6932305765384843
1.9934075764129424
2.3906004128143725
0.4527934033887877
3.790295073339288
1.0194765069427867
-3.9498971841493065
0.3930406168585672
-0.12413548403964529
-0.055414810651007965
-0.0931625181303176
-0.018478667195468902
-0.16263736331827713
-1.4289134052574923
-0.8374921766351999
-2.9687070675688196
0.21896300487555675
0.01890766751782376
1.3021095363631094
0.07515550327705359
-1.352759454394523
2.182584045133619
-0.7935587399520359
-0.9105498325136174
-0.4222226692966427
1.2447989150549732
0.9826899563425341
2.9468906740235745
-4.5113797867145085
-5.8134798785901705
-4.257187722130634
-2.9785287043719104
1.256956712538241
-0.5361734778409433
1.1434197430712698
0.8798816083592668
3.9254760744035746
2.746212397569071
-4.715729552035275
1.2414667106382535
-0.18920007176447365
0.04257960767271945
0.4267141829897992
-1.8479408500688677
-5.918800344175565
-2.3152986618677067
4.132130584445104
3.487894926934381
1.8002416984995548
0.34822089372843584
1.5152951270732493
-1.3760431781058378
2.111241454835503
1.9395868120247737
3.6067458693918497
-1.4254862422032035
-1.0141558926562444
-1.101869129954687
-1.2202931034480284
0.9780144521715257
1.630786713564263
-0.5149692023595303
0.22315032860228579
-0.32839504605655967
0.9792538848217376
-0.2484784290481863
-1.05007706781801
0.7521854786829502
1.1131283415591768
-1.652725613187399
-3.396269298722883
1.2340174211181836
1.413825229974459
0.28319371651370767
0.40014593104679036
0.03872119273084702
-2.947395411807963
-2.7298694966602257
0.034807752772434496
1.4668831169944188
-0.028485552969797
0.40555064185854733
-1.924752021694424
0.08850386679339653
-1.0877310726769407
-2.3573601978348746
1.94758808318919
-9.575151576807889
-4.252507756593577
1.2585437368879997
0.9992545004481383
0.771527168612481
-7.607630312029761
3.4712427847773997
7.526382149145452
-2.045156900269029
-6.332813081777723
0.16025780438686457
-0.16209047544248104
-2.4204828935510534
-3.1538688697592554
0.7923274368167509
5.511998249352373
5.689185577865558
-1.4995676504844297
0.966148035833954
1.4745668211757572
0.9979746604780466
0.7322819210051835
-1.5560976201277312
0.4417362429411252
0.1358598585939914
0.22899694450258992
0.9860603515058375
1.257796884443042
1.0573347422662998
0.9820650422573486
1.5038958127899902
-0.06227710055080756
-1.518397956528671
-1.938553458209825
1.0858053479198564
2.4906336027407736
-0.73446936914222
-0.2543645921058896
3.8485582490894257
-2.118642700119816
2.482564126788087
-1.3144727135158656
-0.5718648303465689
-0.20278678430595118
-0.17490407537822286
2.1443404682113956
-1.2743137849819324
-3.5680329569969205
-2.420935916963843
2.1278929026867845
0.3305098839325201
-0.41919511032183765
-1.1803191044237284
0.4811859601496002
-4.757806732987176
-4.373915571090145
-0.6070140423652409
-1.3133519456829073
-1.6987400829413704
-0.7890422438079315
0.5869970862215844
-0.7658931218705933
0.30508336901955685
0.13789637882660644
1.2245930037949657
-4.8976775024287615
1.3083280064102911
1.0124388886867255
2.2604749682313474
1.3007108495179025
0.1055104587585443
1.673958286175664
4.333873328488738
0.25957550598464973
1.3660023486321369
0.6649824670039061
0.22774069452269932
-0.19394921123574926
1.4369561885423223
2.3227492647789245
2.6685191594978415
-0.3572865390542186
-0.14548316215151397
1.7488743773517943
-1.817247685954142
2.4905775918153368
0.8261749321035542
0.057621816375898666
0.07661553139432539
-3.9269565093162466
0.24602622253682385
7.3770471895000735
-1.1085535915301203
-0.47358333176474454
0.7930387160482898
1.4440903216659786
-0.45102659778034104
-4.321993327084603
-6.37273413843607
1.7527518686215595
-3.928593006826623E-4
1.9746334285201936
0.7319728479610886
3.909308451173903
-10.954999262965519
-0.8651423614953989
-0.682323794552271
-0.10845946170252115
0.2484483935711381
0.9425904013891548
-0.7421031658005077
-0.08562743407012034
-2.998632938885762
-3.5946928467730355
0.32979698455517886
0.6541412712316149
0.714254525433485
1.5453819416447934
-1.1370809753884794
-0.8141621417336209
1.5033494785478427
2.328894422519092
-1.0588338690608554
1.4122083610303837
0.7550130967920565
0.9565414633755938
-0.2554258120592123
-0.6090098493196832
1.2033245169247633
1.9848786804649647
4.890568890956072
-1.2984965746332935
-1.4682507776920535
-0.294330200805089
-0.30513023890577823
-2.678667041760058
4.265818468180922
4.048331768026709
0.01299938748409956
2.0964164163625614
-5.111803904022915
-0.8974282682817799
-0.4217312872529457
-1.061866518578217
-9.96970000969549
-14.45165209783219
3.0493006330819394
-1.9493019846273933
0.45743148583702764
-0.939514816197115
1.7180550678353745
-0.17364950150237896
-2.5816112905427375
3.0959215427208773
-1.9673043554211536
1.1797163099818078
1.6976358667085836
1.9894074766082734
-0.431251788569558
5.481736316912025
2.7233645304188796
7.555761188016228
-5.313119958415572
4.912048961855244
0.3621425141501473
-0.8899751794852571
-0.6497333072297071
3.1175594980619383
-1.428571221911002
-0.5724134205622472
-0.8837725595119076
-0.932458722126687
-0.33876421331863416
0.5049063755291947
-0.31657629538567217
-0.440915983420241
-1.0681105996540903
-1.118102897258543
-2.213273242499128
-0.7267401665761053
-2.1708738483711563
-1.2859707264403508
-1.796111022478423
-2.0941688367396423
-2.29652389489778
-3.569438809596477
-0.6669704747087406
3.896204019296561
1.9966962927732073
0.8697789954375195
-0.03346312928529739
-0.07184937325612964
-1.6742420945781535
1.176321723015942
-1.7764509869436833
4.416642434790812
-0.9611335435463801
-3.867585454688536
-2.2945038755862184
-0.6106423425205106
-1.4454544510334277
-1.421536221736163
7.058484621766203
11.499676558982623
-1.1666113384778054
-3.665004941924816
0.5142176449478666
0.5520857734048911
-5.952322443412699
1.0675459409553563
-5.656499326573866
2.603291036874523
3.9854415668904637
3.5116415568404364
-2.923018587238426
-2.302667534912938
-3.8295982447474217
-0.30426170481779624
-1.764887818867662
-0.4395715604414802
-2.185169254884708
1.1174471237332053
-0.36875049177262836
-0.7907036517979685
0.7414457760066249
0.9178180988777038
0.652888778163224
0.5741389609171665
0.8859118480961642
0.8004036883045478
0.6055668261365502
0.5446111838990061
-0.3432357054532042
-0.7031907559721934
0.4825339143786395
1.9401610806876637
-1.0496979054351137
-0.5702663883997978
-0.05726839394900882
-0.5370838597100968
-0.16558730587107712
0.9390970896203714
-0.9840964889912477
-1.635530792704931
-1.6557884898026263
1.7915687643135751
1.1460348759269778
1.2788451334679194
-0.33701536525919834
1.1580364492729849
2.686821495289105
-1.446559162267244
1.627166974294395
-0.8069319637650287
2.433212142912566
-1.0650517731845393
1.1051132421001084
0.6506673174753008
2.4421955177381354
1.8532397839216115
-0.35942610818450677
0.5699509360464069
1.405493765858903
2.4222950407867248
1.2174538356461608
-1.2012885902849262
0.49696416828572065
0.1461991950914052
0.3307510622872944
-0.10130177562236603
0.6398535303804769
-0.29103253184861383
-0.2978300448800962
-1.134168871040296
-0.8890530391094104
0.46076257240436674
5.9120667493272645
4.603292755251773
3.512903056984945
-0.46401105522765984
3.1236269636134457
-0.16868756449634711
-0.315194998673023
-4.490452515494921
-6.6114304258677725
-5.923451700221156
-0.24357261314355028
0.9532172442582229
-0.5377363775897034
-1.1791964558556993
-0.7948142379525147
3.6675351855579548
4.839221832454711
-0.03532898756723876
-1.584585019095796
5.023089255499031
-0.5533959477506203
-0.8368076298175707
-1.9376466086135187
1.839983417989849
5.935804031086242
-1.3193194852810821
9.429134270119485
4.4051962004772145
0.21613830847076937
-1.4330959818482076
-2.4239482630355065
-0.8873641624892031
-7.008459148741236
-3.737705073971346
-1.6957986801553662
-0.15299642658162158
-0.3346162190005862
-0.1659082470865534
-0.5838532083893018
1.754662536987244
0.06176025901868642
-0.9530233847779034
1.5032284537671856
-0.19912909324534836
-0.28623432765733225
1.5936107426608215
2.175487535503854
-0.916648900697947
0.16329224335436254
2.553120048473095
-1.9093644112029866
-0.7412434129304869
0.848074516952658
1.0472408430998346
0.6448301393251845
-0.3559002528572883
-10.336466045995516
4.2412012748626156
5.210658125545345
-3.4584646836825166
0.3221119914033177
0.7024077165281877
-0.31601268848801295
3.1305730405425853
6.3719122798015455
13.06287623842567
-11.121708998704573
-4.632484850458155
2.962596063694159
-0.40902847293961403
-0.45351939292887605
-0.20174114893741804
5.950029025290395
-5.455298677716144
-5.039974120211185
5.01512406875718
-2.597692174787647
-0.7451800349187417
1.563050765070356
-3.2440929295236307
-5.362856048625107
-4.251745474841526
-3.4433740368363033
4.021245222379813
3.430936137649798
-0.3714360249797306
1.5635011579176679
-1.0317250675924396
0.9673490841605507
7.4299614441965804
-0.932907384437678
-0.18005269599941381
3.0676104809594222
-0.36389440107971766
0.8886207725369215
1.0341371957981027
1.1487237675386304
0.6027223637337908
-2.8082614449999443
-5.442386063210641
-4.47518225455153
1.4685418311881833
2.2364406221495403
3.2179866129288346
0.5969056878051242
5.747402056535419
2.049892690334083
0.13864933888827516
4.842599362038528
-0.09292261502513298
-0.8791289631881186
0.364570530616385
3.493174463221224
2.166321100422096
0.18514277867282133
14.044380139345524
0.2639032898886751
-1.7839896449838075
-1.2124671865914216
-0.3079164034512514
0.1663195707202847
-4.088597540795646
-4.788060792102021
-5.439447775304576
-5.289024104835005
-7.842432775121562
-1.5540522936096532
1.550133554062454
2.091527653718671
-4.8429477766159446
-2.1442069097697516
-2.070646083501314
1.081902265035059
5.116027828163409
2.600868707129159
0.721992182250424
-0.10643295473617644
0.7993420556156225
3.6620949521055755
0.6897445892524557
1.2742471010863199
-0.23387600264949385
0.21979362226339982
0.4022072478120582
-0.22853427880942187
-0.5411699514100556
-1.6812480969472454
-0.9447751536691382
-0.7743366509995052
-1.2712531790511072
-0.0033087665750902613
0.46946018397450845
-1.3317953342859115
-0.16587457386800392
5.949608471862946
7.8105794847052685
-3.894362763397764
3.388705387864537
1.446483334364918
-1.1701927012614963
-1.6415567139158038
-2.64785523075824
-3.926292161814456
-0.5306694897624629
-1.7420178379276023
-2.9614400998443062
-5.454558721750989
1.239914379843695
-0.5962802924262542
-1.7446959434383849
-14.295051134927514
-5.650901225168821
2.306609880085264
3.203721251616999
3.5900891912230692
-0.7169012262961766
-2.4096862194354833
-0.711259218454309
0.8018639389477261
6.814151254164936
2.4960327931108592
6.3250602226491806
-0.8604161921376258
-1.4639822719529256
-0.12632206822086148
-2.0669528250802087
2.2089766465944183
2.8008837733830694
11.144745084831458
1.3198017547605922
-0.8789430096040123
-0.4155088986546461
0.018797421016678674
0.7075444817483518
0.38654287256771136
0.792204567882225
0.010385715679606696
-0.9240342918018808
-2.9565849891028884
0.2542294536214818
0.18576641143289088
-1.4067180259917758
-1.2556624890605406
-2.243494618834647
4.3036925649538516
3.2966471539525033
-2.1165223372503936
-2.0785428484587465
-0.21704289099028778
1.012082667089703
1.5471676304349065
0.28742491113013297
-3.3287362050193035
-0.05550718393933241
-3.4131112473342102
-3.4653562353632568
-0.5160467877526558
-0.7358340303519992
-1.5748417776813695
0.22006102443478143
-1.0321074335439326
-0.37184940032044894
4.5695736908388085
-3.534080871293959
2.5162163365421755
-1.1403877914780136
0.30019241926020657
-2.1287114634439273
-5.486598613354168
-5.866620900033726
3.885644079366531
-0.8852036685319465
1.4533545159824874
-1.6576329669506225
1.0224600549408287
-0.7978658013145499
-0.5546441356530053
-1.1830511777959485
2.113559440481787
0.6465932164436292
0.45210840827235554
-0.674103404435326
-0.99916792892389
-0.892296165837273
-1.0081294630506976
-3.4986287212013316
-4.316273049618716
-6.743487006192164
3.767616871449082E-4
0.9664329733282595
-0.4179124684050104
-1.1364145890210116
-2.9296869403997094
3.5068582333907448
5.4640174822428085
-0.9390292218210544
4.657028943275615
-0.8159370717441372
0.9139760001352961
-0.4227482795676648
3.3210536805349102
0.07320947201766478
-5.047106173166074
-1.6485783380882417
-0.3766148658105801
-1.1971008156678342
1.5019329177562415
1.4950118813734088
5.688683249350865
12.581476150569717
-7.723976447354655
-1.3797545207312727
-4.086974439243676
-0.5658907427333223
-0.612063353914962
-0.6062906988597944
2.22539763447905
3.566266575112256
2.1947952725188724
-0.34103418809445096
2.2939260045425387
0.70995169365047
-1.4888384951336195
0.49794529712675845
-1.1649842262239867
-3.617985130777979
-4.703180444111028
0.016412307219599357
-0.6246182911887111
1.386786361930849
-2.358172211558571
-0.8736201921933842
-0.9513046517575545
-1.2206988554714708
0.2149693310086607
-2.396167945916896
-0.05952086379324172
0.5038268084259787
-0.15939427158534636
0.01688407235205829
-1.1367195252213205
-2.174663422003766
-4.610392781502298
-0.9938787641712309
-1.1664864080070199
1.4824259306067495
1.0279222473306084
0.3659075041661372
-0.35310906212053994
5.778749904419832
-0.2711063921263761
1.1599041900838454
-0.5725544357291119
-3.3055327301695194
-0.9198177457597665
-0.5786622191359165
1.1375548363580799
1.3019652962443482
-1.9761337472676477
2.256827760993883
3.3682342403591683
-0.857221456915265
-1.133484183029397
0.7452178785997947
-0.7267304713507721
3.458256054023287
2.359926858372273
5.204313735355276
0.4172101823839641
1.591051816062006
1.3092549729142322
-1.4426712968753606
0.3386414209297191
0.6437719106220402
-1.9013013035169515
-2.6440430126238343
0.6373689216230644
-1.4041187541247344
0.4942020911428258
-0.5275179209340901
-1.2954101591837128
-1.0956872031323912
0.6840674927420289
-2.5087489289424028
-1.714810355590542
-4.261054027265093
0.987084972831292
-4.374440207514798
-2.068261014180576
2.5683099356746113
4.466236764494839
3.4428928211585577
3.480960914286309
2.206441126334618
7.298310679495781
3.3129148201553678
-0.14151951050086609
-1.6243655932115175
-7.43663110530762
-1.357109702724253
2.7767701862257868
-6.725543169424555
-1.667702337459997
-1.6568298849707603
1.3110297022143986
1.5708587739966409
4.140866270685902
-3.7051345973615595
0.010048008805981603
-0.9275735131062268
-4.742323236272242
-2.097153261382843
-1.9994410362865755
-0.2900218587476422
8.764841266718774
1.5656996174359148
0.8095291125404713
4.177246271023096
-1.680802928079765
-1.033567663088029
-1.6036831349464782
-1.9719308142164182
-1.7670843773238367
0.9424677058011387
2.8228749384817577
-1.9183018122157662
-0.7092286831508313
-0.9635798295331606
-1.6507081525961858
0.9139953309770529
-0.7201628758206403
0.5036022490451431
0.8096370712837219
1.622764317255284
0.5091614147291069
-1.7617490551337847
-2.705891832472332
-0.09305935669253701
0.38395911383734194
6.496485146440511
7.83880734532302
-2.215538526601203
2.6428273817001036
-2.0879924565075343
0.33283934876699894
0.024462342417178776
-1.491537463999161
4.697880554767668
-1.945714139498441
-1.3226649712373548
0.7201325924819829
-0.30392280588288784
0.8973247874140937
0.2117718013538085
0.4342705076232882
-5.03708388932849
-6.052064367178384
6.337531876561923
-1.3741716514260158
-4.476204615701485
1.5981729485395237
-1.1456933771020035
-1.4162265000838938
-2.8895130848738435
1.349675404278644
0.6132682093123045
-4.983106647750911
-1.5299153924177205
-2.348722338970598
-0.2860922853135508
-2.6584188761037306
-0.5102198763965092
3.8022642319182975
1.6808495030998458
0.5905911349291079
-1.3286135363205638
-0.8983563716214761
0.6272844930221223
-0.13969422435434847
-1.3145037978090302
-0.8751956506435161
2.054586097988898
-0.8961507615234232
1.0063396986248385
0.296725965721955
0.5202853705247109
1.0008277939863417
1.269732792111965
5.592860055099254
4.480525759911053
-6.887891744637621
-1.6990193962308893
-0.6127594524195307
-0.8271476268653756
0.7235657039956388
-2.276286226180857
1.1098092801668673
-4.889255510496127
2.3611205069355075
-2.0856185651153423
0.660514981903178
2.306631707398228
-0.9306791060114458
-2.0769176434515977
-0.09708611320540544
-5.596166752901546
5.573323877292852
-3.4980916335629337
-1.650295867249267
1.05212982783585
0.017741121246317857
0.17571086964187638
-0.4123079924199869
1.3800600649805865
0.2539917951081703
-0.29226938632050703
4.433060026435631
-1.3686384901434265
-1.2132082698460294
-1.8626136488671903
1.2713382788302947
-0.7794819267861098
-1.548152625241601
0.4280114225840831
1.0582945798689618
0.2313007265670214
0.4103568943750201
-1.517844340990619
-1.7515138551675975
1.481514992571089
-4.429769108620265
5.203294430349537
-1.134941831192437
0.5271994864172792
-1.735428205611037
4.335166159116216
-0.3013238549157606
0.9247775446750759
0.7242387057512111
-0.31606636210266814
0.04768753444290362
-2.3413380238126753
-0.8626083339770105
1.9200386404427976
1.4220930995348535
3.0192021913163556
-1.9656623182217308
-3.6993167826730042
1.3522187158703813
-3.3324264413709472
1.78036634578654
1.533898320034094
-2.4796193188185494
0.4927231930307203
-1.7907819008909025
0.9231696091999385
-3.0875560265383384
-2.9621241789337662
-0.6577223363151523
