-0.5522169436766815
0.2928520934255066
-1.1712221267263285
0.6708646432981478
2.814789843999422
7.089644768983548
-5.067979147691733
-7.440463384192282
-0.12715446515563406
4.295263340386195
12.272739980388332
0.46066692839324785
-16.132655302128537
6.621504715207122
15.002969303168078
-19.903442785290096
-0.24877871540627058
-1.0020917933813749
1.115604747632884
1.3779530984113564
-11.545146261311825
-1.651063026122623
-7.82452115870292
-1.0654841921323701
0.939248671961906
-7.267749468985484
4.131876357116734
-3.368419241799024
0.03337116281593585
-4.282941455985136
-14.139582521477575
-1.891666411234539
0.7814632962091062
-2.3292710997188726
14.222017767281493
8.19333573942088
-4.770609207713784
23.529232839316762
3.328209946445464
-2.5273173343977304
-2.4289850020175483
2.0241773941187136
-2.7864248082177685
9.898973209818353
2.658475463920829
-7.1806416079453115
-0.2183907239899336
-0.39601713622891316
-1.4559603840992945
-0.4356856978426576
-0.9183819700092442
-4.7951536737408516
17.327885391755142
9.862376265940707
2.0640786405484435
-3.3815420335745623
-7.507862133011364
-3.890521871190796
-4.846522924543648
-15.21882815269321
-4.8480217133195165
-3.3152015427886954
4.759801246888786
3.1997192926044895
-8.099914851667672
-1.6816059309372624
-6.807936371769161
-37.094209219888334
-20.38082478223877
23.66362061560479
-0.06248623679395028
5.506727999318816
-2.80592091813944
-2.41770454360745
-7.443019789404187
-7.235016160876012
1.0040485122569454
2.9083484757528306
7.801043136474004
8.047520068206667
14.825251727434352
-2.136492143877033
16.49183670128235
3.4620811381271888
9.705687541688626
1.2837017397138446
0.2953180564575428
13.622839675841169
-0.7740789299311598
-0.6603448663620635
4.709192472544207
-9.749083115018799
-3.1382815910067277
-7.34241962409583
-6.908393678700109
-2.8939829737546363
0.3998508890978963
-1.237718413563582
-1.1306484678956885
0.417958462501573
2.952277495426993
20.28576548501245
18.4551180954642
22.571140845660267
-1.7107873775884108
1.3743014973533516
-0.9470776014437615
1.5665588401042816
-9.172572983653001
-5.993799497828054
-16.68520081039488
-6.104172043863056
-5.8919400456053586
-8.975957693280472
-1.3547600483087379
-7.9194588050900965
-19.110787767564876
-3.7262954657592693
-11.399503351784034
5.531601421591666
11.705373819497952
5.939523644128806
0.05123265009696643
3.1379542908491205
10.963843747408808
13.062958214948349
12.145633773971927
6.368735148664435
10.42031086650207
5.193117224212045
0.8565723028239239
1.0448599210693565
0.6278826845675128
-17.35955771045054
-5.817820499622061
0.14466257459727605
0.8812647150182185
0.3603456558916709
-0.600479747122128
-1.6429082183680006
-2.030058275274399
-9.124475690280763
-25.196248763572985
-22.424257098904494
-9.431906299475045
1.5371620996590096
-0.24096464722149713
-1.652191486016598
-3.190614219445548
-0.16069381236038827
-2.6415428785296813
2.463588576805814
-3.9000823598584944
-0.998227787754454
-3.0405775969858584
-1.6612044605195913
-0.7990582269550053
-14.978948184974257
-36.65804304296343
-1.7714127218646907
0.021818188698603625
10.373268991353005
13.223400221075337
-1.6106379966837554
11.905697384741268
14.273556760315577
12.433967203630395
18.018671204125162
-0.584143294623256
-14.355772332634297
-3.4886664528237445
-1.035186440338371
-2.060019789565453
0.8850949047017369
-24.313094692667686
-9.136787024510276
6.853138732272614
-2.614074454632088
-4.340218296777981
-1.023909029426249
-5.703347543845434
9.644480343096738
-0.8837715558731407
-0.26453045390137503
-2.169728792066723
-3.6771198571354367
0.4012091378479954
-0.5404042392010311
1.8437273807993584
-0.10031651045307119
6.36399084288808
5.0883671046630585
13.877777614940948
1.8955680892153244
-1.4045844732231794
-0.4415849221074776
-1.167790843112992
1.0353113011694197
0.35961431197166704
14.239283406794081
-4.2731309252117295
1.8808983427488644
0.8163536286268291
-0.9633035885234306
0.12226949641907829
-6.105561648748842
-5.312076041164795
8.44754950064128
-14.577325732669273
-1.4552014420830837
1.1720748533114822
-1.6205979920318363
-1.3850260287831495
5.252429207483167
-6.923888090651931
-29.389432635535275
-3.74211508153499
-2.3362789593373856
1.4122471478788983
0.006277236968608212
-1.3375934102110278
-1.241321304721533
25.16798545934863
-0.7151305968707478
11.6962183841085
3.7325320461727904
14.042202364896204
3.2314494279484878
0.3622964834001423
1.5440205829076752
18.117365616852553
-1.8916999900054128
-4.887266161239753
7.637828129996449
14.871302462657999
1.664632595629803
-1.6869482068519006
-2.68317951541883
-3.7584013263994924
-8.823798061579732
-4.829936839542286
-5.347629663878777
-1.0799280905384119
2.08881850784616
0.39144193317321885
0.32932437574995405
1.506239933045028
-1.7208430062902875
-7.290360016709677
-16.08702960323422
3.1131166251430265
1.3423760500368334
10.788322541986958
0.7480019878660755
-0.11973226784092256
-13.088977512348443
-10.67955057567848
-6.246650267934842
3.06688021115856
7.501577484901953
3.562135545232953
1.2508495336351537
5.605156246666375
28.320543181784878
12.984273897853097
4.475326766567657
7.988737562770693
-21.67692957425421
-4.091821352526449
0.4814278128773442
-1.0847150478725978
-13.467180736013061
2.9779972399897
3.505083675228076
5.072295944304608
-31.113918646008695
-4.385226742803969
2.031870920144755
-8.964155921054887
-2.416052265937835
-6.563567701722833
-0.6753611444723717
1.7931454935404214
-13.834386416652608
1.527359403240885
2.1696434135670217
-9.276766162478102
2.0715030717480167
-15.196351074927856
-5.9277304194653935
-15.809529180610653
-0.21757031552175607
0.9556906679727961
-0.11175333197022043
0.3796421237140591
0.8003608944261373
-2.4756068397024866
-9.564587205328683
3.90518369817902
15.462373186001718
-0.5002744393292473
-6.91394023174051
-0.3638585506797248
0.6382267311086883
-6.723711519214576
-18.22005091134212
8.54283617238518
-0.6077295734014794
12.511921576810726
-12.395020949624982
-1.2478497818421375
2.443188168292108
-5.712074137233979
14.20248042463596
-7.8083815832479555
-20.09449231679196
13.876301733564587
-0.9062577108407468
0.028852998927190007
-6.173785798198991
12.427845035245081
-13.59408547128124
-21.209531865568582
8.167190616411084
-0.5238560324019291
-0.0019337859893374667
-0.1322207461847187
0.2933667544635357
-1.0779384139931012
-11.550519313172043
-2.890295983220951
6.687932506081371
-9.95912533963247
-1.800095214161905
-2.0053529644740626
-1.5716666022796435
-2.2207123497164645
14.850381613994417
1.42662717832567
0.21278842546165985
0.2381667028529405
-0.11713740829051186
-0.9440280252661197
-1.6656383967492112
-1.5604338723506537
-3.364385334783086
-2.657305486663811
5.604219599925856
-2.003891191363343
-3.1307394486971654
-7.9163054544474125
-2.214022568693541
5.78196584038856
27.85550113781367
17.894262433338866
8.689872170451537
-2.920088414191802
9.221383528044978
-3.4721191861363856
-3.145031449049947
-2.199368259414943
-12.888655912646719
-9.03354801004991
-3.393089338961096
-5.428727970901182
-2.4318399426788884
1.536207689492893
-0.46475975933847696
-0.18794110920693152
-3.585085888917038
0.9180116229278075
-1.0138994199266618
4.865657043169683
-8.742625194463464
3.4600696868080068
-3.8689405781656037
16.265018295509535
4.2337016025823875
11.46179874393246
-4.876306870844992
-8.789002985581748
-3.6414198420382964
-3.1747320524070775
-2.8521635846027973
-0.9728723298777937
1.2010625825869345
15.039077618555963
16.34471147603703
4.2098809147419995
-4.524147503239088
-2.814001011682703
-2.680658220492184
-1.2955872763099672
-0.7940223193098869
-0.14254433844598505
-14.075343477425829
-2.5177766908911496
-11.20081969602682
-0.2622530664129549
-3.765174350757968
-0.5101211807041796
-0.8173312808085419
-2.9666686089681944
-27.91109532351066
-11.935226474850012
-10.931082352592613
19.433822761062142
3.5465389163013805
0.4432801650837387
5.386553483201923
10.233767652052093
-3.699663088269513
11.497934829367315
3.702004630277016
10.992452795945974
4.704303896793477
1.184235266448034
3.028078418026135
13.060029826726032
4.608330949592889
-0.8897493552291883
1.5044926716727054
-1.1738624030920983
-6.203478871265166
-0.2562371482093935
-5.1035489836787615
-15.973444774750549
-7.737531028791296
-6.639442187912266E-4
-5.965876880308448
13.29203123708763
-1.668929358812308
-0.9935148112125798
-3.0600708304328945
0.7651091811187477
-0.2696716180384365
2.3740824320147635
-18.24930237512974
-1.6145909230937436
-0.9698740198735007
-0.5142624137087208
0.36670928092108807
-0.4742766714898527
-1.816188982496198
-2.9702458405529915
-8.856926263652046
-0.928769647743042
0.35419344772431016
-6.209566364111937
-0.25272293209862345
0.35716268112385546
-9.447537573097156
1.516088998922393
15.746566165499216
-6.658307019284627
22.342934104316893
-4.994674573202512
-1.1185928288796116
-5.799937109691144
1.5271370862524136
6.5434751998327965
-7.094647685466977
-8.581652585553469
-4.481939229671883
-4.008559180388387
-0.32714611430378043
0.27881867229002005
18.45970969939337
-5.525391374769144
6.2985751445752465
-24.6025884312759
-6.523932658448276
-6.364095508342556
-1.1957770043898908
0.892349465933934
4.1708077208247465
-0.7014341046776993
4.4661743010565695
-8.480763063343904
-5.602979673084414
0.5129679697540528
0.1586691331106163
-2.3086027345306537
2.081306640661195
-0.5342749840061879
9.242441398634497
-3.7621336123008176
0.6344529104144212
-0.9649723808579077
0.12845125129936968
-0.10234001180540128
-0.5933091939952454
9.258567471435473
21.185681301015453
11.787182296308092
-2.777020837616726
2.0388476767644903
2.558765202873905
0.33448798291384507
0.5459782698706948
6.9708521208389405
2.769333859825631
-4.815020790098001
-2.1051348750660237
7.867205867089803
13.191685242479378
-1.0906258849355284
-11.142122978253957
-4.082845442663082
4.718203031496084
-0.0020681675704973894
6.337352038433352
4.610359626483967
16.39881266609041
-1.1304146087031641
-5.505869231429833
-9.677477985292418
-16.362917654580148
-3.7325044410774972
-2.506103024931062
9.72821484811715
11.550217849202808
-1.5626334406988318
-9.198016385876098
-6.744752211218708
-4.778371084937141
-19.752229856719673
-13.915991787234326
-13.421922681529217
-2.9147545622110593
0.8777564494452715
0.7898102138822441
4.230324605830062
18.678568150308582
28.487069191182375
15.144686003386715
-5.508573804280789
-0.06621037954553087
-0.9927929674183201
1.0804140631475243
-0.2943384479094782
1.560458030418981
5.236627995138091
0.7013933755691201
-8.671281152583672
-0.18605502354636935
6.591952167011758
-0.879934729891321
0.8520074327003435
3.9879509559995574
5.311034110948352
-1.2126305600780716
9.752737287579345
-7.555527175961234
3.6451958417086083
-0.3213854374540022
-4.298383821176519
-12.833592750557889
2.5981614420123758
10.075977516738389
-9.25099598104123
-9.385701883430919
-1.4550135685812895
-0.8237812680174875
-0.6762681354809924
4.582398148010188
6.654865300010378
-32.59571315684882
-5.492943563164908
12.069093303702829
-8.55053956179218
-1.5482234668698047
1.5679168603223044
26.828263672850223
18.21159719676331
8.605998824136083
7.68221449225179
-10.807247051839473
-1.7355766241958763
-1.6357364741769138
12.874295865653021
-12.31809695246433
-7.46288151931956
-8.464216685761723
-12.389810363681816
-3.6228173006008073
1.505814137444764
-0.8250694170788097
2.9923233655945274
1.387370404350772
-2.3159675100392043
1.0825744651353735
0.4115965466917072
-9.919707593511838
1.8300291197442193
12.079099158833529
2.074127087401907
4.03163420494409
1.8306990291309702
-0.2814521530833772
-5.5267999149306535
9.300907317479274
-9.200176709803033
4.434137430153681
0.7396947719565716
8.456288225539843
-21.784697880631796
-26.42445909575751
-6.157618172439486
-2.0786638628695506
-27.090433768358313
2.345712850559558
1.352800445649349
0.9311060379799049
-8.020376798109195
-3.021128547331713
-7.357584716938213
1.5096383889780578
-14.268487932967446
4.223857483572303
2.354648768652208
4.937266903715208
-33.241858300167536
4.808466330813969
7.454470274427211
-0.1945807587176254
-6.365275201173906
3.3118410998107244
4.010757838488053
9.326430379737813
-0.6119030465335706
-0.6476031242019928
-3.242302250418457
6.495631589933355
1.0464001532878493
2.440404104731394
1.42482114313256
-1.9538713989761871
0.25830545319904497
-2.48491544919466
10.224629188389834
15.577774255334047
-0.12601771300970455
-1.5980653651958434
7.568791139845318
0.9465428544976665
-2.8780499637260655
-17.28853160470999
-0.04768047539697968
6.429094317981533
-17.314509864382103
-13.257149784015661
9.530072024532751
-1.2382133314389718
2.7239532088343474
7.251762700657214
0.6412660974899528
-14.554001985485632
9.994844737620747
8.440654160253644
-2.472966339981944
-0.4160689879106254
-0.3065128343797193
-12.55764892037608
-0.29177691429244834
13.710586179336763
-0.24541667927897956
4.510678749040093
-7.283828091118021
-1.1526042282714042
-16.511564979464787
0.6351725514997142
-1.8579730111536652
-0.9954825738256179
-13.751517435390499
2.8227621939822933
-1.486124161848911
-1.0531548317085684
-2.6833039648260555
-2.5660306935005845
-4.308875585850095
-7.557297102317218
7.7477377026007295
-2.563705409483987
-0.6486717662688762
0.6497271615606678
0.729674131305436
0.6521229535948647
-1.598861939143192
1.1761798593062345
12.95838546509626
1.9098038811904612
3.3235170244502363
-2.9334297043458206
2.4773843220281844
4.596929288845793
3.134985019338108
-0.19630829217911358
-1.0712245070430162
-1.961714116225841
3.4825243643437402
7.3925054316515055
1.0460818688678555
-0.5132858368339974
-17.111071278937814
-9.540951787739395
-3.056592216961345
-10.385680914449154
-21.066806165376317
2.278905615737323
2.980395832181787
4.053081269068
-10.564350124151806
-16.398380339407325
25.476865148526212
-20.380054357630424
-19.23917304266918
0.13328820511115522
3.0804768236986773
-0.9773153062414487
3.130738485600217
10.756750035678973
-4.850283861024806
-4.103067035063036
-7.438989564351474
2.6681774984821094
1.194141354032677
-2.0301396910145026
3.042756668016321
-2.488012699352546
-5.192802235888613
1.230350476923347
1.8461996006065546
1.9409589698007093
0.2963453861852507
-0.8252900934047324
-0.8912273961251961
-1.8463127351899953
-1.6224785069961585
-2.2374387423873294
-2.660885280653988
-1.0324684228261445
-4.330264758896486
-2.2408969373137118
-2.728168098356893
-8.054755111981475
-6.975780212558507
14.911649962486573
20.681982257867716
20.4345538439066
-4.543287322509269
-2.481707006644822
-7.642270781842139
-2.8425466373667847
-0.3209653590813026
5.905588554196212
6.9790416763196506
10.540745370781925
-3.068401895017338
-1.3035909689172906
-3.5478223384898455
-5.564590435849382
1.1056907956744344
-17.685368653462437
-0.6121914649574348
-14.475762438676929
-3.0410530860054212
-2.4081671592434852
-1.3829111381134236
-5.928325008282137
-7.23950050299847
-6.953190602349868
-14.822961937070893
-13.809934417480905
-2.1656054681446313
-1.5320069158348724
-1.9246548122433098
4.977035942997794
-3.286917136358978
14.49640688663594
-0.5137087778327828
-0.5813916038790677
-1.2987531383787854
-1.6751925521664388
-2.093258190447596
-2.21399628492943
-1.59192224086496
-1.1101146370250614
-4.281085830149512
2.545403630176678
-8.954014799405895
-1.116201673835204
-3.5934869608177404
-3.5525645356530506
-3.734755333451869
19.37193853525398
-1.3997421133330818
0.8228665003811202
-2.3395189009832715
-0.95271632237911
-5.129953521778963
-13.52446257757547
3.0185952176474364
-18.400181607479876
26.000615384329034
15.354908775871257
8.520483080793717
-2.5428392068641847
-1.2723780886158509
-1.2803966266899895
-15.309354194319376
-3.0439969785143703
-25.263104604939134
-0.9072795184648936
1.6971404432589166
-4.739026939012884
-1.5100719531101023
16.711339973409046
1.0186674023514994
2.379381029314402
-8.924671148419637
5.874513765207811
16.23106877690923
-3.3648842475642997
-0.8993790851289771
0.8908094099661797
-0.10986136230314711
-2.7162450283925685
-6.636285956770542
-8.538633390354025
1.0372637202690222
-3.8471949116856834
-2.677496975865515
-1.59779936634085
-2.8527754435967543
-7.014053902247869
6.518030484754886
9.228230884235593
10.743891898677326
-6.682370547960178
-2.244702738941907
-3.1137679168074186
-11.176948348489685
-12.474731700729366
-2.363710189520251
3.6216126680136136
-4.794161789282464
-1.1414316200294623
-8.41371116685997
-3.0088192322154015
-16.784142445611817
3.2829799215282756
1.386958072682967
-19.63834643122736
0.309285448938406
-4.643120751550226
0.6404806046900058
-1.4289881420305426
3.1333149502286526
9.251419026353927
18.843338134513186
14.359948762280597
13.578865690559944
20.399094732173264
3.2285706271631898
-4.050004012573819
-5.5636996544816055
15.94056128017097
-1.8026418551797512
-8.952874966998333
4.713831181396515
-0.37064656106535837
-2.850335512353855
-2.1327920110451064
-12.145227452919059
-2.1608572811109403
-3.888899279013653
13.728323781670577
13.383117136183449
3.1729287335357865
-0.8102874561736111
-4.687261108778612
0.7682867910182605
1.12109171731273
-4.338935952889235
2.0088585129800887
-4.680551751920729
-7.145126704621341
0.06224615980463039
6.0063994174003215
-0.15666229072062382
-1.4124234246058942
6.150714894550802
-12.427668114164137
-14.785814039744869
-4.765102826182444
17.26575617145593
0.45896710106806066
0.44041576382793696
-7.603705748636008
-8.647545257899896
-11.02166526199857
-8.261796511924096
-4.057239912529618
-9.373690601555362
-9.61530494987426
-0.17208644672698772
0.4746466862916079
13.48350102671145
14.638331524092498
-9.038739490930446
8.473209218059878
0.32417537788477463
-6.511068374457288
0.9348495369396976
4.956103525674916
11.606859404053768
6.248171076158739
-13.720888491722242
-10.578151210789587
4.5851169938406935
1.1321457804010895
2.1904863124970815
0.8462750648488876
-2.282127702592818
-8.935119824167518
-18.62793674984473
-5.342740479363093
-3.5452657441554227
-0.05186121452950101
2.4376738042003847
-0.9852253467430567
-1.2546987436133075
0.17178588773778905
-7.590488784545357
2.119893905868516
-14.126462852425604
-1.754885922873245
2.3673103227594696
-0.1928010632311977
-6.895113094468656
1.0992778135227157
-6.909103277680244
28.202989473434286
9.89531417204931
-1.0202082140065842
-4.05528664653648
-1.9772006804156732
-2.1554339590154408
22.550511377261337
14.95376612047619
-21.89126010677332
-14.068983255493723
-1.5549299501753737
-2.1097494579569216
-1.2035141050443647
0.9285386394584378
3.3436259255504015
-6.694056263384068
-21.790073140480295
-4.025016397087172
-8.434666058322522
-2.108172233453106
-1.8327978597639836
-13.861356489422118
7.323220966043982
-0.9483570221787916
2.4586008675574402
-1.7623732510001222
-4.090842806767582
-0.35564302439349704
-1.8673655724138534
-6.446859945360485
-0.18636055850340957
-1.3286441764843506
8.877856037714153
2.731625578501454
1.9519342561404054
-0.9792814856160768
-1.5913816377910008
-1.2080401659962845
-0.5407586997913476
-1.0237775490765415
-2.3930848784009218
-5.328341291188926
-2.5678428327612126
-0.5646343819226871
-1.883065547074087
-0.35973624761801226
0.7634731529417919
6.497088829889516
1.974064505890713
10.237867910966855
1.3283803670584706
-5.909224074365646
2.0610637305244395
-2.023854099612447
0.5647900162406776
-22.849387460517466
-1.989811793080312
-22.74300876260249
30.948644830607797
5.436180168299879
-2.327431676314278
0.9186164963688567
-0.5101284482902585
-3.325742938023041
11.025035752365453
-30.740027685719735
-7.568123895405204
-3.6499529085092672
-2.9305866466185444
-0.5472317326141158
4.343787297658357
-35.169326747735624
4.860260113379294
-17.232067746280503
-5.903583405174422
-5.342104942955864
0.5091567447092539
0.5815745386697675
0.4990518617778623
2.0536884219369123
10.95004356447553
-5.313664002885042
-11.999701790565693
5.0305786934083905
0.6785997694669482
0.41522205670362655
-0.30311749208639177
0.4240670449974409
0.1483577301556976
-1.2013229371619225
6.140170708829068
0.58752502347504
14.91116591692238
13.408048752656507
-0.0663172309011024
-1.4993031210513228
9.337468752699591
9.891731927660883
5.43231289696528
11.053871673902751
-24.822527865594548
-2.0578774424508723
-0.7327437498350315
-5.444771525697463
1.789133750392349
-9.138351357901469
-11.048810373073668
-7.715822395900026
13.127118962886321
0.021388480748893202
-0.9057994818627486
-4.710135502683961
-11.221817814643883
-17.34997181620808
-13.519392447930105
-10.709942690763862
-7.008274456472041
-1.9079272725534928
-2.7202869004753545
12.86956845896643
-12.93591235945297
23.58390270417471
-9.598501540530696
30.694951426565606
11.371144604765135
-0.9962302230135822
-1.5684679154785266
0.015778262350926244
-2.5808937351068506
-2.4421473351179985
-3.1304921589830004
-8.558269493852832
-3.2671114682552624
-1.4306132287997577
-0.9602718553665205
-0.7452587992766765
-1.4106639136185415
-0.18353286511454633
10.715608247669266
-1.2372549487248468
-2.8004536325295324
0.8270514801795119
-7.503217610561082
-1.0667179866916023
-0.993551005479116
11.700812653646453
20.599989374252868
-1.6685790895169352
5.184513716161253
0.018372088409653462
-0.6652963523749035
1.1762177439391415
3.3484439426508503
-4.399425484554017
6.838901358217822
-25.511739756482047
-23.473230403542644
-20.314036933665427
-0.7641154544714711
0.5598669056056814
1.0904890462936916
-14.369763568389754
-3.2801036392921343
0.8592845834062788
-7.818958060951418
0.6399871521945018
-1.8880130795280197
-0.902220690385957
-1.5542747650962903
-5.495681768366274
-4.985842269357334
-2.3619851252655475
12.215324776448561
-4.996585894980904
1.0864421786121898
0.8064803560384713
0.7429377908511932
0.5336679487354331
-2.728364989260428
-0.705561954151519
-7.67427304334593
-0.980125658679386
-0.9027061913006981
-0.4734891532704023
1.159392235998214
2.9095649761865823
-3.232503517419596
3.7002021330192303
-1.1380911922008967
-0.4020540194069019
-2.719334179572273
-14.612635614352145
0.40225574046669094
4.033855548340806
-2.025319865276281
1.2706422448921548
-1.9274581234977892
0.022521195138883357
1.955151553739362
-0.9387755713437301
4.094566660009958
-2.156624985724147
-1.785283292346339
-33.44861414887379
-10.93174118553123
-11.962560452625102
-2.7583346583363553
3.39606829091682
3.629452523953671
-0.5160903276302845
-3.815581108160727
-32.61644425326281
-3.6873842056774797
-2.690575191059046
2.2848463724095534
2.455111542645666
2.0659055747461763
5.095698301302546
-7.987660294862647
-0.9980318136253106
0.24606506042657422
-3.947491623434813
3.309793548057744
1.7264706839983717
0.7759928137043614
3.5589305531798923
2.178546135293561
6.065848680638089
14.441876599448202
7.503396387337994
0.701310408158089
1.9685022903020655
4.22267055946808
0.19067805812750302
1.8295580391177937
-3.302340379819364
-2.7319229265012503
2.8049575823938606
28.256830303358164
2.1296674988210498
2.916642227608785
3.369896174269477
-0.8098244222118511
-9.821046866536477
-13.246390107584308
2.6685854937444273
-17.428203702656266
-0.2653569939677133
0.4191298845851223
1.9397522648647967
-5.405844459156489
-11.93743717051351
-2.974490411879494
-5.293225789562947
-19.33859150421495
-0.6374086779673803
4.05936777613372
3.5191203414224184
6.239404836741813
-16.79694707852574
5.029403933239657
7.4127538146230885
-3.9036171680254346
-1.4245276187173146
-2.6058195802387782
2.592161090956557
0.22051491366226492
-2.275775900793879
-4.651533572172671
-4.249000798167307
-19.652900259019855
-13.24039750282856
0.8373327124074453
0.5448432374716924
-0.516486334845272
3.4577857455884233
1.572668296192177
-14.0267963404606
-5.09191732662522
0.8405735296088884
1.0617454976152885
2.06818852165663
1.260406764279586
0.16422821763714596
1.240869255182851
-5.399973793698926
-1.657980633907293
0.46792625752135925
2.1451555882495477
-10.439687353805432
1.2583934725769126
-0.46075425765692796
6.5677422533496745
-9.551467242255299
-6.682659782462059
10.96728686431662
-4.544754843971212
1.40613654030115
1.3859020532816717
6.655102891633251
-7.771635016555877
-1.5370547522970959
2.8038981747277183
-0.6984084769945469
-8.058818201177138
1.0000516456329502
-0.11807065977358255
1.5113268647783107
-9.319549351741728
-1.6924125794924427
-10.297788538440443
-14.550836308366339
5.542984927769192
-0.07959611308695204
0.7289250662542089
0.9138022269873782
4.503867787634381
8.931885415595936
-23.90351104488712
-3.1342820282009014
16.043931506360654
1.0092536094049827
0.9220012435608947
-3.2204714402215964
-3.0267983790889694
-1.051128241419915
-0.9748611782108602
-0.7915196783623824
-4.759620849664818
-0.41265621428431914
0.0038938420857683
2.9689865613996065
0.784316970715448
-0.1464011648455927
6.48258009467261
-33.19883388048371
-10.31301978290604
1.6289104235580845
-5.906308746109604
2.296169149221526
13.098180396288848
0.8262736390189955
-0.7222645196887253
-2.3972539227412466
6.49282641007419
3.817256671108313
-2.227948870171695
1.2545513239514192
7.535888468151967
14.652273798649674
-6.8296446135141995
7.6852135185590775
10.440845531635908
2.21560608734382
-0.0407751488879224
1.2627618301043406
16.972861725520946
10.235554476522362
-3.124318469960325
-2.585142680750588
-3.6232613678987784
-24.31954705442227
-8.82232878602261
2.6902569513986
-4.720981685401423
-37.89807425596699
-22.296546752011515
-17.651540922232947
-9.873071157285276
-27.245932145806997
1.5373084826240573
2.584384041304673
3.9887069929367573
18.62625813280467
14.061260473045175
9.850869504243038
5.698997533149984
10.979041144020755
3.117155942892864
0.8752630507121311
-1.90806017198438
-0.7570244784335168
2.873632546448801
9.1913607222837
1.0406849455283347
12.294503976604316
-1.317042121531797
0.2709184972018042
-0.8225682412608896
1.664313310591906
6.001525730490891
-4.229733194041032
-5.385000080603663
-20.380832052785323
-17.507976443623836
5.089973996941069
-2.3095826765275453
-3.389162058875915
2.3330783237005575
5.033954830256937
-0.036296506623537436
4.879159772327468
11.156641218591869
-2.819904975228792
-1.1361494926794231
-7.844459638111115
14.873322744991034
3.2134617261444047
4.128492840707545
-8.957862920490765
16.31006642152344
-10.959826653891971
-1.2940061880657514
-9.889053445661824
-17.54793049700877
2.013208912859761
-11.395851658862716
15.355903390438803
2.009223406475165
-0.38115156905286895
-2.0526986771264015
0.700398785839455
-0.4245197604568916
-2.7695883792873706
-1.4580298626334358
-11.066448690513509
-5.77135787104593
0.14661928653269027
-1.2711105202685395
-1.2504033371125218
-2.5043195599080135
-4.09715062572975
5.2045287378467355
-6.37158482951999
-3.3817882901096112
-0.06810446008379789
-11.515965880867927
-2.9972336931077614
-1.529705019966078
13.314273324842354
18.511065180916784
-0.591326008628562
5.779364295861684
11.805565655038066
-11.109824971073243
-4.030062883919734
2.711741984742888
-16.39045725320875
-11.111509342652965
4.4206928823023475
5.124416037726052
-13.24549222387617
-0.7250076644120853
-0.9759944798743752
4.108581381090342
-36.004389948400075
0.5516064745401072
7.391756330361395
-14.542137071697125
-11.22831037198525
0.4911599864313513
-2.535724418760043
-9.67884505102475
6.428440329913152
5.912918341483018
11.66893616554362
14.597003972677918
-4.191944693704182
-3.3795570819781835
-2.6409261179148937
-3.5870325204408386
-2.173223856701934
1.247655403607679
14.521608899251918
8.641515493485786
-0.5648643516338454
-0.42751619135178853
-0.6628582931196267
-0.48803742413318485
-0.18471406711933508
4.430319317493805
-10.554838868068822
-14.290386172662162
-6.936090525836337
11.062972763029071
9.891376801061211
-0.06951454625317278
0.6703567214497517
-4.665077979597517
3.28769546664159
-18.02006318579931
7.557933983911143
12.477883875500329
4.405328445989804
-1.0825409200820317
-1.6563194330740174
12.00906780889798
26.59306639389279
-9.256306985053888
-11.200230213542337
-5.967210066013171
-0.7413007848108621
0.4595620591374522
-1.7063883442961463
7.466680558109267
-6.7704934408455735
-4.470729435238048
-3.201152296243345
-8.01024445911326
-3.4698674947730344
-0.46481552248925095
-3.823619193263971
9.439228174116883
-3.0892962052180257
-2.5123141845499544
6.502288010084476
-22.92169975222087
-0.4172302233441988
-0.8207835882003367
-0.7791522468011522
-1.881172135187824
17.48717604456412
5.471451168680482
-2.4417490667420814
1.4677642725358575
-1.6616254041761989
-1.4565445340126926
-0.8139737738888215
-1.1578209863962852
-1.0743338545626837
3.4750302749249453
-2.3603531801753577
-4.2809045483221535
0.6396677327127336
1.7662462917998574
-1.5428568106282499
-2.3720926540073797
12.727938245225099
3.219183500871439
3.183780371645493
-0.9049693191255318
-7.262848154202139
2.6506343702854713
-1.1220844552363016
2.865320626528893
-12.556120836848295
-15.929337474808204
1.44405350138936
1.0428294078808353
0.5051881534343766
-3.227553408417542
-0.9736600752617592
-3.102273564641496
-29.96824080794386
-11.84142361069385
-5.566934985823272
-0.9903809483350939
18.951070713656097
0.9987864080497761
-0.6215884424644007
-0.944616425166599
27.846595796324724
-3.376436340554646
-6.866375682032861
-1.9572786151540769
15.99441642642393
0.6711884784006341
0.14854937949312128
-1.3443337425912556
-0.7523985525739572
0.061746539015918735
-7.094709120730438
13.987503154910964
-0.7209763493887618
-0.446834810855354
-1.4189476660812281
0.6174603818382425
1.1674196391000105
-1.776330128141415
14.887300095207857
-4.955467002789535
-3.976137345665431
0.6137980678988773
-2.3725510086563784
0.9512396788853671
-3.311666161867506
13.963413108471864
-5.361910051774228
11.716016208893947
-23.564603773319117
-17.691267484810705
-2.102122755572168
-0.21139281983801061
-1.275463830489
-9.427729580968068
-7.316388849687917
2.9323023061372253
1.9072847498841439
-1.4926648546626295
0.19562699358710361
0.4441510784856729
-1.2288254971694619
-0.04908710910398023
3.6067003885613076
10.05996500915784
-3.5597172540754185
3.7094735166333064
7.591962779585039
-1.3693839643540304
-5.404307401365466
-5.198749866732313
-9.273343713975825
10.142185322654266
-15.354081570719407
-15.457844242224862
-2.0216594958905185
-1.5307852292820123
-0.5964182116299199
-1.6348644957385345
7.857804936189133
-0.05781359697424354
9.799365691327873
6.560512294833114
1.2428967449574868
-0.18874537566570293
-11.751308086141698
-12.351235788015694
-0.711778260128827
-10.54165302301469
-5.655943406186566
7.704535779167357
-6.792363295893497
-20.45348313217496
-1.2031059839597082
-5.398279707189915
-4.915225438280043
-5.865548380777549
15.811930273233699
-6.683244802286576
11.596625250010659
-16.521266818718303
-23.413845040832694
-20.20746144650606
3.569702613307652
-5.978140570409928
-2.3605940084839294
-12.498175955973846
0.6381632844073883
17.85863186442187
17.4689737365639
0.10490801582249279
17.201217768118326
-10.357282527644129
-13.031424040327177
-4.125730291103612
-2.631046421056638
-3.710446720664442
