1.9507624222485478
-0.29716710826015114
-14.663303986125031
-18.332232646373974
-95.64659778864457
18.183170865065488
195.99797795698993
1246.67880438269
7.261073495875737
311.6422971983808
1193.8751597199862
34.03709995503073
-1553.3923227573407
131.0171055728775
-2162.576225454029
37.395740587606326
-39.96126260532068
-328.71932545255237
-3501.20499314146
-3887.4652739110097
-133.07693946005392
915.6454569326237
-3558.061733062901
-1342.225095304516
-26.043739385460416
-1281.911286360241
865.7643311476199
3895.6122670429386
-2067.9586315849956
2319.01115554099
1453.6987931050076
-405.96776077470093
99.5541526330603
473.9861494267702
-2055.091514315492
-1887.6675671478622
-61.006071040103514
1996.1612596546486
335.62665737261335
305.3622450314076
133.68133182426888
3268.1225098657046
1560.4423246655128
54.32307842475418
-1370.1322258364573
-1620.174652829426
-78.70267702735545
-88.05454640503345
75.87151659035003
1.466626804644269
-0.8253757734806323
-171.31806893856896
-149.10804177695124
969.127025261325
1901.894507853872
168.35440071036135
1192.2311115585549
-0.6275482844133308
-202.1550481810457
30.85833355281722
-1241.1981754679593
-1840.4440122485196
-499.29529546617334
-4730.416359554794
-398.64791042625086
-7.492770052168776
-339.6345305073457
416.7576765742903
-507.06957184659785
-1501.3999148659968
1870.2182700586484
-1201.5236563560668
1098.4734782005078
-58.828066618415
618.0079028894894
2685.0458211975497
1909.5796454411486
324.2520192298076
339.31810711201206
936.402266764353
-1306.1688075383333
-31.019298740884953
-2589.109515469064
-2702.7985860051836
-1018.6573421934731
1364.4687712910986
1427.015850708553
-1363.167279176758
-813.0585685512601
-51.79512793000271
-1716.432462151552
1040.507298292457
403.8364905358851
-1484.9827910544382
-1024.9540528522157
-101.47708277989948
-26.299128968056277
7.027622888090374
-0.9240299683278738
-0.9321776938587756
108.11484190797815
96.66831651486399
-184.08416996760204
-447.38906007742474
26.088600228114622
-2253.56287923399
-40.06768884535688
542.3999753971764
1678.7491078432142
1557.3571723448822
558.0015797034696
-1499.4196892610796
-827.2242439927395
-2541.4093733870263
38.82427763595163
1057.574951474487
-1668.6175161343558
-2117.4708739960424
2386.5153174516345
2787.441146240721
2116.9079709287894
-528.4998758859376
40.23014310618769
-575.7603611729247
-2822.3725269300453
-2127.0473646139167
-676.4627889302535
1099.308165258283
1650.7659926561482
485.26740623829414
101.43240383517588
2180.1092864066673
-1778.92145685931
-2430.3061763830005
-745.5590659061803
-212.37178674314885
6.27808078951757
347.28656985072945
165.70083166778574
1884.27650557837
1084.8986064283843
47.76879889399182
-784.8387991418801
-942.96383531909
-144.46644260136185
75.34857168498927
53.32452413729214
-0.28214429670036384
-0.02783386575287771
72.2981162429758
218.4751668889622
-79.38309842692037
94.40786991900929
15.650159904955613
-1693.695290610575
-1.9293000970265795
122.76389699850813
261.8889131943248
2346.3258221487076
3120.8046793423755
-251.2155938038422
-195.8481981695424
-1036.8594415216342
-12.330866333541376
212.7874560540566
-1554.1924734830593
-3108.6477614308083
1027.3692180772243
2035.1515410340924
3475.5311833799574
-296.3750255956828
36.918492654476076
-588.6821420127654
-3358.4366424214495
101.31065297876393
1076.9027510293042
-3216.378384137619
2170.4076472018382
727.2026615542115
117.08369391140964
1493.860142621532
1529.0264462725374
188.5995126043548
142.1513803229783
1672.0931871799255
-393.5688054342986
185.04557882168186
126.47330180746023
1713.4774111615427
209.5076966161933
-913.202249376236
576.1561587697711
-255.7010786574649
-459.8156444235504
-50.978824745632274
42.48941342386522
-0.9720626721286233
-0.34603583113117137
-93.49244130772088
-231.3172385709506
928.6766596616317
2107.2350858668356
-66.46469324449313
-1822.343020077779
-19.564102824447072
257.66561160447037
910.8657635718695
849.7546896655347
3850.824534001268
-2490.0944898034736
-1016.3495133040857
-2038.4784789498904
-70.05232638377034
-211.17054212648057
-754.7461829860305
-821.4780521080556
-3812.7863645784296
-535.4940181951293
5381.533015504818
2012.3655039228954
-79.21479811976806
866.8851164462907
933.6895556509979
-3556.708301037999
-513.4125503894837
286.64500447755887
1629.8336724920116
451.2477127921058
-61.37955693540066
1492.456074255868
4882.914250621398
-974.6977158370189
587.8458003049143
868.9077918461319
490.34153626585
-211.40064918944842
-6.468920266122255
-1161.6513094294055
-241.75564696349312
-1741.5179657454462
-2313.551004831108
-880.606292767245
-514.5398214291524
12.797447630501836
1.0922301983358182
-0.9890224613253232
0.44468681679304367
-36.7136792444208
283.24417494952604
1863.511968118896
2865.9736850735003
-2.1035181386069453
-2650.530918950804
-66.55172573478998
-204.74620491795991
-1383.003236263789
-1578.6510619599687
2520.034186419748
-2685.2232130787634
-2169.140716567027
-2384.8292102213336
16.51789217322884
-117.47669415996327
-1155.360751384569
114.10671636466915
1136.8706538936194
-2237.422358804468
5322.978877548333
3896.4711421562424
-4.254051846334572
1580.4763171428315
2011.0008042735735
-3275.2233239448497
-2585.392795132427
-2737.344394766982
3018.956256764776
411.80818625603143
-108.12035863722919
659.1506768138327
2910.04334746222
1435.1057636480284
2600.0953403579915
874.1637796928268
-2609.4755211850797
-788.9957880101636
-51.216282856182865
-1044.5049939927687
1433.3212779515447
-346.6817388370388
-2027.371098402323
-1069.4112840218224
-950.813196874981
-22.511006784919665
23.1951380174698
-0.41699582492955806
-0.23502682241989423
-104.36273242263337
-349.7407226159424
192.59494596931634
542.613140239218
73.3465943924169
-2298.4254654090014
-70.16616394963212
-25.916468042687203
-303.0339842095649
-534.4406152597036
2264.3886665840673
-122.38525334938495
-1873.5302231562591
-2734.5737385731854
69.59681221666536
282.8584024482899
-284.50395289905697
628.6476839474943
2737.120538718549
779.4251370862684
3282.6148004936217
1998.032846470424
-12.803878993191681
2051.8340550870657
1453.5935797646089
-2369.1676952681396
-1485.4587193958262
-2329.7655643617595
801.2903339030313
-402.7186261259509
-85.68709232224403
-250.4802672960181
43.10196345711601
-1572.4275829061514
609.3942554564666
3.383939672566002
-1867.0694252470298
-810.269451035919
-61.606482509460456
-958.9881280697665
1652.4722908403376
1101.6916840161723
-493.029496696906
211.1442826745796
262.33285608205944
36.93812574157998
-9.511271473314434
-0.8733770849906197
2.25449825483546
-20.21639623309131
230.1170380492412
487.02149872129496
-201.61740042523195
286.7420756181695
-2237.337604162685
-76.66810992431036
-334.78639891256665
-1773.0911769363174
-1355.989622307667
2292.4922250191194
-1402.427663103377
-6035.344919858519
-3262.050771049288
14.686097611410881
-1514.9480156485627
-32.05359301418096
4173.179347881281
1728.0583732639313
1310.9636719989123
2246.62236445497
-991.2685214635684
17.931781956574007
1963.8461261057953
2403.48782484547
-3137.758225258128
-314.2774526334068
999.1461849256995
292.9368283637859
299.3789949513571
-22.29384749211567
-250.2469000429243
-2046.5543099736535
-2801.8096452127966
156.20012653415367
-2601.2661573137316
-261.37399563812255
-199.42788071750928
-42.25117028074967
-163.63753084535267
1024.6645600918146
-176.62545113528418
-2518.3019982464693
850.0195448861034
1857.3289421082955
64.90175511896656
-42.46264558109111
0.036884074971379854
-0.48656136117364046
-229.3763056814995
-552.9470977458419
737.740429789974
2662.7716561631764
81.73801033007791
-480.61980734130685
-2.1096227191537684
93.4707291330144
413.5371300577235
-650.0947624293507
774.4158896482843
-1508.7516661097557
-3914.6918194698796
-1668.6172988134786
-111.88260996151253
-1578.8170377093873
-2245.1390461687047
-3347.03265924488
-4271.410474331712
2715.794817256709
4191.074099378147
1482.4824275844653
-119.95181457997005
1386.743388914978
2715.445251400083
1904.6192577481802
2794.383735625582
-342.3756711140485
2202.1641006289606
-1233.9778213932134
-58.33032835801698
-656.0615031765051
2431.50646616368
-1888.924307334778
902.1395346060546
1742.8672700513798
-776.7569135812921
-734.9562331093599
-30.876171171372665
-2045.1795082271806
-461.6465575909491
-2668.680077090734
-4155.581409963397
-1867.2397977005403
-103.86115150847124
-40.34083625499976
-7.1714995830193
-1.8127736094659948
-0.7780309039494709
226.6262889052226
600.3315582559466
287.1026559332931
-421.90002557952926
-107.31002116604559
-1499.9136302879206
8.870548802764064
493.73279856726293
1668.617616936291
2642.8653200596473
3346.034115694369
-2879.2397674558465
3094.04786345374
-211.73410181985884
115.61916990307624
2411.1017292716783
1436.5916015622358
2.3454224915957465
236.3463518240862
113.66419919595039
-775.8968414953273
-338.1266051769041
128.35680741228592
-2119.441950934604
-5143.687257716588
-3228.519274523032
-5056.833890277
1104.4393393146509
358.001562131488
1358.9889558270954
41.56127172774563
1763.7983630803537
-367.04969891932456
669.8836566405381
-868.932033024598
965.2459186737765
1221.2829644366532
739.6242659904748
183.60833061808864
2284.2669127031695
1048.9778904314214
2292.2470871329724
1755.4671593587493
-371.61915619734503
-660.3742578183289
104.33826546070883
44.88668370424136
1.1772066047943106
1.5651202641154707
-318.7083630525772
-1185.3780585171937
-573.2315090342629
624.8211741499434
371.18868621843336
3041.4367621887936
-47.969010247922405
127.92677572717871
2581.2987623792105
-2406.9269591836955
-11102.508862440007
3673.748367010833
-4495.069171374568
-2267.527312360241
51.854087797619314
2585.1590804863026
-594.0331029893597
-1162.8366012644915
4022.086054524421
841.6996704275854
-473.87401877870013
576.8728821472988
3.3932233969091112
72.65055397945326
4231.3285530518015
-6772.888279417688
3663.412272461838
6300.65975347583
4360.322385366661
-416.7070305806888
42.822578479474736
1689.0653255688574
-3464.254804047128
-1964.1072334809944
4094.908387255987
-2874.917138155545
-1964.1540753595646
50.54079189071493
-110.32763283461233
-1977.104383353206
1904.5252361258754
-2738.1615718661596
-3901.2313463857045
-2102.908535695794
-1613.1976630629242
48.18872356522802
-3.1130661644440627
-0.5622488496444596
0.6996762207954255
-161.39426001914265
-819.2774638479185
-953.0170183889016
-92.48539690238248
46.48694599695179
879.2637119040882
19.690041117268056
-29.952514765487358
-1438.9156868441205
-8377.14904515313
-12791.527728141347
-5185.693303034795
-5365.720747269864
-419.78654531003247
33.65986361512348
-213.0737736822124
-5002.174228501462
-10818.1653768791
-10337.625971411617
-5088.090183266129
-6023.75122330277
-1131.6310252781736
-50.74913851638486
-799.1790963142308
-5213.408261643275
-5589.391231708787
-7249.467135846303
-6702.979384492093
-5848.142997284604
-2568.8110268031255
-2.6874912930421537
-2927.5365996505193
-8599.302451930716
-10630.379127685821
-12100.33838526496
-9100.763539654816
-4965.892978200429
-984.3922185878324
13.24427913338847
-2823.425788862676
-591.0488141266245
-2667.8883472305015
-3308.3603688530548
-2181.4438038900703
-407.70132650524783
47.3324010140648
1.9693781851879308
-0.8695865980278799
1.3219278712804288
260.43650033785815
388.3692256903302
-1061.7220175544226
-2598.6855375289506
11.017569756582239
-1539.543109840523
-24.276046664414054
495.1809228610624
470.27529129105295
2231.827844913107
1497.6941668894226
3462.089695378331
1916.3718384076788
-863.5876779208504
79.06532941866826
951.5836318291134
-2321.637042520711
-878.7561635841424
8271.71669184551
-3975.1191433176136
-1.9839167165458833
-376.13735230417547
143.39538659753967
-800.6655874344908
-3378.3540922677007
-3446.892989998468
-4355.773432030698
-3891.301086323931
1675.6426723033842
1971.2076332315014
156.979988236762
3277.177604350096
-1231.9590284808694
2075.213943537854
-49.07530624991229
-555.697199629932
1198.2553784116374
954.0641125526666
147.43380595081757
4862.085306325267
1899.572751898819
1800.2299389154966
2988.3544482257003
1057.7481035599596
-237.06874511247653
-37.08514394688969
57.889765649498926
-0.0350025128671449
1.0419882581392028
-43.76235468837559
217.5000709829122
957.119694907552
1692.5085948119936
-31.804431543259916
-1209.9721908721558
5.67092012797917
-484.4432904130561
-3065.6650917200436
-8396.062393791044
-8338.28255560108
-7579.4224265954335
-5214.733982817982
-633.438582444152
36.815849223084555
-285.71374680226194
-2643.7147836086024
-7654.487621817211
-10853.773933336191
-6740.120097046035
-1651.3048726536856
738.1570100389846
-8.380407322967189
-564.1280515131127
-6875.7369509458085
-8549.656254405138
-4955.27041500781
-9296.339427812047
-4497.172065144558
-1173.9005613608429
-71.95074631845962
-3177.195519178118
-4470.252995455385
-6032.179395567004
-9395.031934426854
-8828.09178497906
-5565.854650200324
-1039.1904566502412
-41.110978896717285
-4320.834219986811
-1289.0140262803102
-3517.1275461279015
-3672.379301098064
-1774.8510390387737
-597.2434160343531
55.94814029918631
-24.66283949166176
0.7729829615025682
-0.6638100873286206
5.60840645523573
702.8849952099489
2153.344261554338
2005.9573928228622
170.44049544710245
-683.9108206754613
-62.7244048153878
-478.6097753807673
-907.5582650938122
-1738.1384090050672
-1212.3030869872641
-3068.317161169374
-4198.51281472488
-1493.1005617482244
97.40610507562182
1740.1602271333893
3654.7658818878667
4153.2802984301425
2167.297013200057
-2767.880727308767
940.8948472754395
1893.247934174338
63.16558086854535
240.99627963899562
1401.8714845925188
-6865.328951661172
-3164.2007814259105
1425.5846008431613
3155.631359485171
850.6078240976055
-64.45966602748204
-1001.6396289202594
-1833.8526506211324
1857.2449758716805
3295.4976428515984
-1370.3864346801852
-2136.848534511538
-318.9783799729958
-62.96153001943161
-1544.8706363410442
1900.3107500671786
258.5322477275325
-1236.9454439178742
-29.951402945117987
-398.3558360842351
66.63784264986802
5.091794858224555
-0.25540464873571295
0.5088801923301725
65.0978843881103
-448.275355981344
-2607.808127603438
-3493.605252500169
-114.73435597928145
2828.5306120279756
55.42966769869259
-194.74236557653953
-3624.751974700503
-13993.289506369762
-22699.27791754989
-6562.469343006803
-5467.427098446957
2490.0906866848063
-23.68978982635088
-1038.2549174935646
-12201.790781167336
-19812.87719616587
-17440.82950646393
-23584.13493953169
-16473.119606991906
-4212.614373041288
13.419526539112724
-3979.988419774507
-15411.298033344741
-15082.74458262737
-19193.994993880435
-17194.66785617222
-12453.779091236313
-1013.9822938635899
64.49074857368404
-2290.624813839299
-13440.113551385102
-12121.719739866892
-23819.19332530417
-20101.13857085011
-3473.8637323046523
733.6212147588176
-7.606304840530283
-236.96666826614748
-2178.1406679379475
-5726.385438395929
-5284.383696132775
-2318.1176861829763
-352.50401836705015
-11.313789912471554
-7.368153743544506
2.600762642193577
-0.46695558200096304
9.93429663412866
344.3986509734696
351.1666777868928
822.0843565586783
-161.12892022521632
256.7472999853519
-3.9571627918512124
-34.78782274423617
-113.4255851550871
-193.49348013587564
2000.5433014620583
-25.18808256431436
-1598.5875252812752
306.952511633654
-210.75062849654873
-3075.0477024275074
-1912.068594356373
1196.920906607863
-4113.852888193954
-5265.506078603632
370.80183808888654
978.4956010594135
-60.61278322809223
409.98604737011857
2888.0050787505925
346.55586184320435
-440.46039300116036
-266.0729952163007
-473.5229533705784
1288.6523614554817
-137.5060618156938
384.45320630904575
4049.8856204920644
1528.2602661777619
1101.8980511773088
896.3482805294074
3507.7026856638972
862.6367575486379
-138.4915371290646
-984.3891943406175
-2141.578063454841
-2737.446836000295
-1874.3743210578693
348.65030137247726
332.2298944620082
-83.35429074909091
-52.16777280136966
0.32837275620719003
0.2427928207971927
83.45189285416822
554.2440860215147
444.4099118353367
-90.93811679337091
51.41674020042337
989.8495933949278
16.870445810354276
-124.22646967529391
-837.4532021336408
-1325.5925090776445
-1256.1760852802306
1506.792271303978
-4055.8677618976585
896.237230692968
-90.65331276257518
-1737.343622992074
-1918.4105833307776
76.88281068319664
1064.7033585496426
-1645.6432756191414
-3145.806732857015
-489.98193596214776
-8.354667089011794
350.8174655859136
1401.0295758068983
3842.8569551091805
-306.04145336866526
-1505.9619122412075
-808.5314532616229
-325.72582897770184
68.79243027394587
-1981.411128840736
-4230.740868600493
528.4119775688655
844.3451529943864
659.8356374174359
419.3038331142596
-183.42527176000226
9.496541987719807
1123.1855651720296
358.0149613588279
-82.62559260336506
163.74415929193816
515.3165172144752
1004.0894521223673
-79.09596322585875
22.75053603147199
0.3706440460564054
1.3713609110999674
1.333412933730977
298.3202486081813
1399.1901506613037
1678.8958221910846
180.01451776004546
-3383.0830555107214
-34.103810654242025
135.93556579070483
-504.8100694023192
-126.39077496369367
3626.4885921561863
-4667.449615501255
-4913.1066151042605
-3922.163242705783
112.42288459120394
888.9978524536058
759.8920481289575
-189.093906282143
-973.2543284049289
7588.009573325019
2010.2211122707386
-554.9452210015627
29.431887149590246
206.8594709672008
-2466.842267925889
-918.416964372821
-831.0220149092688
448.5555169611449
716.7113496564923
-1239.5614385988868
53.67312936027986
-1168.185082599932
-3863.535587895193
-4539.525311533822
-1464.2575632201656
1314.246371513093
-2830.461204561419
-967.7952642885655
241.76110178566407
-80.81168533685901
1805.3569175676591
1049.2382511370856
-1452.8782848996448
-1044.4264127721242
514.0653850305249
160.31320422107524
50.5247320504003
2.1754062121106794
0.05407951002468992
152.92812296473795
1516.2377411842797
1785.1301488896759
1746.2287206761098
-28.50007701816835
1631.495829511675
25.524413319521237
-3.674259460199143
614.9174153712845
-531.0707307287829
-1148.160091289701
41.937363080726705
-3407.4674383948413
721.6471374900531
-157.671144923218
-1773.647741500406
-1925.0282903190716
-1785.0776284999213
-1878.6569270819261
-3102.217219880609
-3395.819385034229
-394.66063106264255
-6.779476150011094
-2478.0954425979808
-479.1521850075175
2499.7083606772826
1234.2220896493152
282.2058133140886
982.0331975317187
1551.7695390248966
24.164633259307834
35.069233210120885
-74.3563214910401
2900.6846340447696
2695.9106698396927
2282.702111527357
2571.329427477211
1336.914059605501
93.04804149521166
1676.828425565739
73.48052807176197
-1424.1142762601328
-1682.198473115496
-1285.7555405171188
-416.815302456534
-87.42850464711962
47.14584904756805
0.5084929294471657
0.9587749872241039
119.87617136714267
-601.6114015041767
-3043.8127758681467
-5275.44286146214
124.08298957744401
3945.0966975198357
35.914193339541285
578.7029509433102
3379.6668995162563
2486.139991019978
-8681.435920824924
4723.28295699065
3061.9224251902842
2298.6524169769523
120.12537196520505
4127.916524895215
1038.8263896217297
-1722.3267439869214
6380.427660594563
-2811.822366955469
-10269.72340235794
-4520.482646954454
176.92001790957596
-3301.0466551383715
-4695.04508199141
-5445.6980722849785
-5043.043172157353
4529.0508183908105
-962.1926484892099
1028.0948153597267
252.67743907529498
2198.003414027041
-8313.605089769399
-85.29640645308673
-2086.6617602338097
-3423.5612413674276
3213.101539726352
1852.3607564566269
57.029851946736166
3816.5289796751968
1094.9788252149501
2119.778096713519
3673.8223158821156
961.7940491220519
-476.56641635163777
60.63778039309052
37.19931555055373
1.2749718208985013
-0.3494130712727532
92.96551044034506
1119.8187715198437
1958.2503035034974
1522.0700409175029
31.84086116021001
-376.3262085719126
30.437990145055515
-668.4592193948331
-1656.3959071112001
-1816.5642970863387
1846.5325084338656
-2642.6027485107643
-4357.146741624961
1454.8480285794994
3.471456857574341
-809.8808625650158
3316.750186139178
2235.0578011037574
-2639.708267631097
699.3004269802689
-652.9131244548593
589.6549476385188
31.705466686415352
8.260828256000979
-1485.189845831817
1332.156613762821
177.41768211399057
-3497.0854314882863
-903.1233659796613
-98.95114573108789
1.6848408041669034
-4071.5587445317806
-3278.000900415316
1535.1306213396485
293.715046918269
407.53992795118336
-1654.082730487618
-813.6002078689315
-67.40580840268873
-2575.489425207032
-767.0008167997628
811.0992865519083
1183.848415488153
1021.1135357252837
376.8389211592354
-34.46537823014776
-23.959066999144806
-1.746881109929157E-4
1.238887344709061
107.57806317685883
-77.87758894280266
-1135.3872677436707
-2688.2694512907888
176.04958523974847
1177.4026929602087
13.939156646576453
950.0999822608477
8238.050463556747
21297.197138805102
21994.796543047287
12324.208823898198
5239.488383288875
997.569838283871
-12.719152877184717
2455.3349147132626
13767.585399254269
18005.862217752066
19981.643954508334
20528.40852123172
4759.6865181417925
-1720.5410791917122
86.62233089764476
962.4592568184378
10021.51554201822
16063.626581657874
10842.063575225828
17711.805485593515
9278.314782018319
1777.353177408606
214.85305234908495
2329.5144933675624
3158.839278355075
11729.917626673829
20819.138878977927
23138.024574366904
11841.473226943357
1326.58149762392
71.00046389679278
4897.24864058122
1134.2378954580672
7750.145612122088
11310.13969633451
5977.403890135995
1256.2264559021723
-76.32373115646251
13.208291659044122
-1.7429090554982223
-0.7500888664422757
73.65922374614127
834.267438735889
1522.3711647167463
1779.8255833771377
262.36704315810414
-197.3065924961977
-42.190201403278856
77.90900470375148
-350.46455044102044
-1782.0649901337083
-1215.5337800078312
-995.326686146539
-5049.845006154884
-1688.4205379054897
15.727834309601867
-212.07691537416315
-1880.1612503762994
-766.3211622936064
2762.3831773475254
-943.2145559991907
-1060.143787251872
723.804401531217
14.523756842467657
56.780280590345015
1878.038646233922
874.831527692467
-3418.457880832641
-740.9060777158294
2748.282320944088
108.56253749198488
94.03695826646955
-615.8139665684387
-3491.3416277671868
-492.378653657666
2004.4165716155544
1467.424886115865
-1793.8494752825861
-398.33157271085616
130.27097879942008
2655.5536558666217
3248.2977612916698
1420.0130739657366
-1103.5706708512205
-1249.0408034549514
-231.03975756571936
-84.65380751157488
93.45550848120706
0.8948499913278378
0.9565042272274886
153.4658754239267
1460.106414518922
1743.924113119548
1672.0416082835966
-6.0272541521458045
-407.8141982546361
21.824320499921036
-575.3716170245737
-1599.6322884409556
-554.2244877136598
1846.4284034531374
-1312.313657792695
-3476.62564304876
647.65715912407
-83.66974056508496
-1250.0219364234586
1645.5672765576628
1060.7599747889872
-1946.256117317102
-1328.9969697536565
985.8362576978178
-73.11426174467776
63.701332564631635
-851.9364687532808
-2670.14457528822
-310.0192479515144
3328.699645605584
-3089.5566767363734
-35.62591183084637
1116.5221127418706
8.3086708611579
-1622.1184837417138
410.119327895645
3296.9056321316343
1564.376920145407
504.7028766958346
236.76057477898243
432.38466344826526
-37.75097854903566
-1034.2560754207514
-1505.645035316336
-2736.4571036262973
-378.23137108465227
933.9592244871612
308.61658558812155
-77.93628854142386
-22.922885078995076
1.4169679925437115
1.3733533385351504
-47.09436949172143
-984.1527243905186
-2064.125013344125
-2591.294917182034
86.52534209927829
1038.8684929531933
-6.510612235704281
1112.5160935471167
8282.199618946592
16114.72153299576
13339.522030949298
7240.4980842245295
3410.0427785729207
-486.0410078904314
-24.329480037309462
2854.4286372499287
10986.137300999952
10888.069437260328
9854.545417184252
17003.227868186004
3500.525743035556
-2073.5056585146303
37.5129238738761
391.5737926632346
6956.423584215279
7264.106432139191
7842.386902320005
16823.247547930005
5629.028541286122
995.491778376946
112.1438235531503
2755.186504857494
2034.934348203704
3712.1928291055833
12355.951966824356
15478.444631994069
10462.160175841474
1522.6529746670324
-2.448741975706465
1376.008143454736
-672.7823171507325
3457.8228170853586
6786.369982077839
4235.519263056755
757.3380182406369
34.796557006359244
-36.919630439761285
1.229434383433867
-0.7553321608414061
75.66023355609192
-496.80286832638825
-1771.4102622078872
-2111.19458783734
65.44084010563364
-349.84356004996863
-26.580040618761508
470.42803443627986
1305.8832911618567
2084.195924603707
-569.8435045837903
1252.470540197053
407.444220584054
-1505.9199374979619
2.5353838656334564
471.20337278429514
-2384.087778310975
-3056.606369924885
2397.2543202037928
3461.2344160602743
-2604.4138686661413
-2761.3411442635675
0.37144706453927295
-708.5334745507624
-1877.1555534149206
1249.6952543638083
-2595.720067710444
1845.2881651601697
-17.57472466337514
-405.69848169288514
155.46588588542687
1760.370229890604
-3194.78029283232
-3452.4142617940374
-2558.0870123073137
992.0746334229726
1003.8378510271035
564.6638446621062
175.24190058373583
3446.6732006397688
1279.1202130692002
1186.7281799633988
820.5791934253791
-348.7369374825291
466.40282860764074
20.48263003872755
50.701639495832936
0.40535629388940464
3.341768026056428
-46.34944676295804
-804.4641257186049
-1998.6938292733798
-3258.2766979763833
193.46603106836247
3357.63360566185
60.32145407397697
728.1921861029759
8254.932045874637
20660.96919156508
20352.587284230736
12964.000402983098
4390.137891000317
3133.6160423623733
-40.66946493030893
2243.076112213823
18397.876593976063
21033.06651098497
15897.800006478774
23264.808494110854
2668.8373851908163
-2730.3290541445
53.23277278001552
1585.0007401205664
11735.519539492389
17967.76880058224
13977.059149590905
19384.80582760573
5841.467999472561
206.30866819965775
171.92638326113388
-1030.1780073533153
592.0077361960862
9864.455304175255
19845.58551782234
22769.677499396214
12422.572481664249
812.0692719107286
-99.1139885043261
731.5921970631931
-1350.413450386082
7312.318775217266
13236.68137443536
7975.055747818258
1716.0233635976747
-61.94705131238096
-75.33885108092495
-0.8226533256335945
-1.054909561791308
119.0940875604167
918.410932852004
1340.0234326614413
924.7533026493701
-51.151194143885505
101.13781317402085
13.981297430600497
-557.2619817288117
-2952.8676326002037
-4742.896183405071
-3019.458902188176
-4015.9044641062637
-2460.8355829524053
1516.683463890235
-20.03286339014095
-891.7907721979279
-1859.5408741307401
-2484.299138174412
-6311.966355800758
-10543.339817814873
-3318.78012703588
513.8222195105511
22.123776194139023
-1146.6527679031672
-3962.7066581362405
-4774.253956587937
-7293.420026164395
-6865.613661812714
-2061.8629635244115
663.1766725927731
-41.60206329228752
-1815.6054710596238
-1609.6303286251132
1101.6510595541924
-4028.1510148673265
-4074.8205624701045
-1701.0717281671186
13.724092298796807
-42.57447452616142
-475.2391262506867
-535.4170399537559
-1367.1699077750175
-1808.1586721140857
-575.1967320905528
-266.67840164942197
-48.426374969922605
0.23946762533067217
2.440284992961097
0.23252274205926562
-93.2696597139486
-39.852531362498574
747.5697740446421
2115.7624669347097
-55.61595576433954
1159.6744443622658
-5.624454034940446
152.80881037319423
993.4049774751513
-786.4178437463671
-1010.4198965709329
-1630.5427873183596
-932.348296463842
-74.65637471633356
-104.11938578000515
-607.4346539867515
-1696.8479425553187
-2343.537970903282
-2875.865214119182
-2117.8167192699507
-1310.6799214255961
1741.5241587989758
-81.05529807916118
-932.3708840392281
3432.229357211859
1811.5001420218375
-3532.978332007308
2122.8770025530225
1842.3121214974278
109.29425809371187
-113.71453920913407
96.12989159403136
1420.8642998911698
94.60258248662545
1798.7667246263265
3840.8784061275896
858.4086154038758
330.8646705062053
-7.696687486790131
-38.83782855442387
702.2563209785601
-175.64182866856487
-2582.1932115672525
-2239.796791457313
-1135.2718860649497
-73.24585336092989
44.44806204908074
-0.29198881857960707
1.0011149233775882
-73.49188625787404
-207.13581475819691
-1058.4165734035662
-325.9839956645614
-55.07035120827431
2669.566483873882
44.60327592976222
-324.08708862753747
-4419.381127995616
-15855.246901609906
-21949.48055578996
-7450.975720780886
-10788.220446022406
819.6102364674799
-198.26503243513397
-4449.104850815184
-15584.858360579392
-21561.027191156852
-22883.790409276346
-19807.035075953107
-13653.921110679317
-3329.33460099346
-134.63436624227134
-3067.452515019235
-10344.823020024096
-8494.888159518281
-11261.95789392643
-15352.186662701433
-11504.080633388761
-1736.7692901946252
-29.268169962680084
-3075.5001623525354
-9683.971596336527
-13688.275879041352
-21554.60896744304
-18113.99520811639
-3831.529177184338
406.3668715631886
-23.77631422905431
-2181.8308854347674
-3184.3729411829277
-9638.34660287001
-10351.797688588224
-4255.380290525482
-46.75084901481011
-71.37877005117637
-24.261813885026584
-2.0810814845780397
-0.1088282073453661
156.5307165056544
904.0524070539901
1053.5640687763544
1354.3676661318761
-4.867632462441978
-4191.739527594779
-93.16456171583029
848.0378559680875
2683.729721227543
1353.993634520692
-710.5178748905464
-3788.2663460655326
-3445.0695337905336
-6814.902734635703
-31.21468518290497
1116.5794695949476
-5781.154599274929
-4629.767320296306
1458.1788617894535
5766.665326661173
4299.559094311925
-1105.9994417126252
55.42143750523556
-2219.3539288479783
-5796.519619633575
-5237.100080462308
6475.787061714666
4291.335423737699
3689.1563847465122
2519.2609209805937
52.04931156329559
6071.338702358782
2565.7209842973907
-2693.924763169371
506.72721614567143
-1605.9359258633824
1674.5603976021434
1913.0933861569983
244.15157379446845
2199.2912499254335
622.3266203215783
-5647.015279051215
-6871.371692716732
-3361.9437220781224
-580.80209423733
150.80327140832875
49.61201860243758
227.43750203224207
377.47699563320504
-40.38803506652858
400.69946414238626
12.4398029576442
179.2187267301272
315.85007508067395
552.6646635807093
274.8294135959723
-704.1399314723016
2525.4147605729895
-1062.8007467906714
288.6077624205616
-1170.7373881725025
658.7864802434756
-2464.1800137247765
-259.56369277637305
-139.85355103253193
-270.52660071312647
285.5611919476539
585.45689557641
-586.3385520681792
2050.3989173415075
624.5159035054099
143.33185294594415
1312.701211893625
77.9728619689703
1829.1985799705992
-1043.6190832668765
-177.92463311324587
-2026.8119260297944
1083.577212853266
