-2.551276758376137
-0.81372260681109
1.081164588919351
-0.6960791702049537
-2.755584411905284
-3.820222262382329
-2.5045359922539405
-1.103871493681731
0.436935297921073
-2.403283639467085
7.354167214828912
0.9354300373680234
-3.444551085898994
-3.770003773970403
11.583314644390056
-2.2246889078306284
-3.4421877934653007
7.033411679392342
-7.7117382429481305
1.009863275353558
9.845601837181167
-0.11655073633898538
-2.4356683227156153
-0.7495990653944249
-0.10879534274885784
0.4554550425208789
8.338347505750974
-10.944868932880263
-18.27729799070308
-3.6621090159329643
1.6817054079163605
-0.7184870985474234
-1.2668437594420008
3.948559156402555
3.5690751312927924
10.390587085730715
4.956260823959178
5.190882256614256
-5.425327177396098
-0.2820326911285721
-1.2222364308457425
0.30294434119325964
-1.9491171928939057
1.93731430314817
10.733816562911649
2.2752343507171124
5.000829826597173
-1.4298283952507547
-3.04704823230916
1.6251356012156988
2.5981615795372544
-7.097524415694059
3.6405503930242964
-4.564299020847168
0.9089557642888446
2.199244484648523
5.816708863168562
0.43273450895608806
-1.006383869239987
0.16802871281309772
-7.070979193470144
-0.9570779278097122
10.383380195525657
-12.53304466942302
0.07997743148470876
1.4913134827241104
3.2950002769218707
-2.1420167411159596
-7.064667659288986
16.97013385554921
-12.327548699618678
-12.799581613410972
2.261848361393828
0.02484469579488257
1.19862188157157
-4.296884908139387
3.913175871409238
-0.952304065649595
-2.729060489292971
-18.91589940136361
-1.7258342417480905
3.0564465689311358
-2.276151222252363
-1.4083273491817674
0.38812217290483053
-5.273546427156457
-0.24756410822307087
-14.388845797081553
2.6442970158161576
1.2871112909275144
1.3366963091720032
0.7512635493811045
2.3782098554399353
-10.520176756018406
-5.885735774344731
0.7455160269221324
2.214926104659139
1.4774974211342422
0.9590445452297868
-3.3148354275299803
-0.40484703399419814
-4.509309226235338
-6.463585269628818
6.869594669946021
0.02678370083607034
3.8014857099253065
-2.66042788900856
-0.8005703110053168
1.4360517640127377
6.9701210010295656
4.997086809498333
-4.835014290959269
2.1837896022733494
-0.46360430751601317
-1.3666178146520485
-5.627894394857394
8.975616286119797
12.942456008424061
-2.623413403791943
-12.818842609124694
-3.913100827713856
-3.351412739442363
-1.1448488848008058
-2.911041716495956
-5.637602746008961
8.202727637189337
-3.924772576353422
-10.162237466604331
-0.9736390138972387
-6.148376171061533
-1.1823088079468291
-2.9837034090249364
17.42979785513005
-1.1338532585210992
11.094486585258434
7.617258651613979
-2.6475148258858594
-1.4828652677167846
-1.278140191925188
-4.289218554622808
-0.4784756855256186
-5.696651050072464
-0.7300526167861319
-4.728404285418042
-2.5582105684100878
-1.6487142655544342
-0.5363136413215465
2.078360032703332
2.719169639658366
-1.8445697292961616
-8.55611645081565
5.640395218724771
13.568612546656485
2.4092942604846184
-1.788281887086064
3.354209197343803
0.37606230284500064
-7.3001986636883185
-22.984267407837343
-13.937270726499671
-9.38332399185446
-13.35147304127104
4.0480941622378195
2.526780691254268
-2.8808322137442177
0.013502934976222094
2.665414375690325
0.04825028845978182
0.21943274656562478
-1.404156520100792
0.14080482984144946
2.5265041444700773
5.108456810728713
6.526255127010826
13.398671423320984
7.592181304355159
-4.992888160012065
5.633614437453863
-0.2786597213333942
0.48402163138079946
-0.5060159914929847
-3.3817646200680946
-11.350534468440161
-9.188101042067434
-4.829191977082741
1.3743097655229966
0.5104594981133357
3.003038222880049
1.6282930252793109
2.1164883166510067
-6.431334162637464
-2.540498374305193
-5.984557791586044
-1.458836100792039
1.9186775724059508
2.0397058087581192
-2.536687377068665
-1.831757509066645
-1.739028606196194
10.941754686257958
8.67586752608288
2.8720562610259988
-1.6763401840684835
-0.4876167324363771
-1.6328535163053135
-0.3323585018864728
-0.7847203251055287
11.694575561983896
-12.430696764641601
-2.4140339877592742
-12.283303540377016
-1.1155666828749993
0.2716419270085442
-0.5529605827310239
-1.8823466291387199
5.865401261886878
8.559016652143908
9.441962112291515
4.043530231332736
2.949233494360156
-1.15693096946021
-1.7895414780442016
-6.377996308555462
-5.119962093433958
5.756171086708618
-12.725285118182923
15.250797450333808
0.6040162409604164
-2.077760121851961
3.296406852370488
0.8232731111967669
-2.46873448694551
-1.2212946235486222
-3.638199373160709
2.912579112211611
-3.3228760967594058
-2.421861303753963
-1.045578950255937
0.2504557875654694
-5.080032821300415
2.578276512759418
1.3416524802199852
0.32139889964533647
0.9075627006496806
-0.6688103768934227
1.16840964403376
-0.03897015387223736
-1.3070607567478927
6.602487131633419
-7.648087270929979
0.697266680850137
0.6059799403555409
8.159263964499294
0.9532850546218015
-2.4812613987275003
-6.245917151580038
-11.321304966943163
7.374127417845569
-7.466658775418741
-17.122445352225824
0.9077706855784232
2.7571631683377906
-1.3494969734323492
-23.50622664249514
6.585978897220147
-10.574364749314919
7.10356126716663
-20.39593840620486
0.06493874174147951
-1.2487649915242531
0.6318774944304759
-13.872991237601315
5.733789411381931
8.879422318806347
-6.356987012571375
0.12190140574671929
0.46600872968026064
-1.238387236359227
-8.464668083749538
5.960395054152638
-0.5332737545220084
9.005409230313905
-3.5426192989927703
-1.9762461441335575
-1.348777309188893
-1.0938569585652134
-0.9035308243496906
-0.12946749457149737
-0.9797844835117117
-2.458007771662873
-0.31778647429556384
-0.580583061708848
0.10997213953243211
1.4834937987405736
0.33635278947363845
-0.7737762551524124
-1.928074448663717
-8.516323894933123
-4.848096173474431
0.8666027903497576
-0.8355754657471335
-6.6890663483466115
0.7944930743892674
-2.168542587170562
-15.863047849818278
-2.9271046500639186
2.4328801232701744
6.157777882509194
-2.68836148095576
-5.574920971726346
-0.45882414711759645
1.0197744152247463
-12.713443425882854
-3.2652550128602984
13.652095751234592
11.216290809228907
10.06145857524511
0.5860083011899362
-0.5434945511842985
-1.6411534493964248
-3.873009077673878
1.10971588576169
-9.79695693892069
-19.733970179651337
-2.531301386051948
-1.9233383123376495
0.3458246743613307
-3.530185706192322
-1.4326627535926664
5.356905895034073
11.719536082951082
-13.217072347388918
-3.701877125152922
-0.9288763943381046
-1.0683163361459316
2.93882650042165
1.3798017051736193
-2.495643945448646
-1.6099420523393173
0.5613025416729365
0.08123102387245881
-0.6498742161742043
0.3478180389014207
0.3363577954877271
2.02080523758558
1.7813054639592567
-5.749780623156983
-2.2986988086634743
1.5864891206107974
-1.2577547332487304
-2.070940255928945
0.5472276395488432
2.306196402795573
4.910653718519643
-0.4230960730176165
-8.74849704162491
0.7492252488764632
2.467636678443472
1.7021287228305924
2.6489194819550677
0.2351888191436622
-0.03666753213667039
-3.127848662049384
3.7131120294896283
-7.990081513393192
-8.492591872666175
2.57386229275289
0.7157742043169139
-1.1033103367601698
-10.074115143898293
-7.096931435549918
7.748551237553876
-19.30088900441571
-1.0468373988247197
-1.0608674163082397
-0.3246524079240149
-3.774661339622831
-9.097830443855566
10.579153681077733
-13.214071654626874
2.3773498088766276
-1.1024339418741347
1.137908862097979
-0.8232631243071623
0.2835233045002011
0.7990354956494055
1.3631697070719153
1.1667548317802579
2.9574401766171463
1.3981513793492135
-1.3938689171937506
0.11818382861738162
-0.019391903126088513
0.09765100665971656
-1.5436079006312846
0.8386355856342008
0.7626888383981124
-3.938990412628178
-0.11752475682852019
-1.5245280291707561
0.9526320712289537
-0.7922461566878124
-2.1026935999029996
-2.4654954885946863
3.459614193004991
3.74494710300359
-3.6450102257683388
2.4182176952997834
-0.14544613547464003
-3.8886892878821326
-5.195031939668028
-10.355143692391911
-2.413652922175268
-10.558015462990571
2.5616979625493523
0.9600365577917916
1.393083872840708
0.38719810829883333
8.25207891634111
-12.41583839209029
6.805957282138087
0.7212763772057349
7.322954983846588
-1.3067451940141739
0.6106455547566102
-3.8038900878677433
6.2978616490099295
-9.733500940321381
-6.413148210516833
-2.6646216984241526
-2.390078264095503
-0.3361137289966069
0.0990880752414051
0.7380696647143375
-0.13293692850742633
-4.195882720986712
3.50230167232559
-2.0873555942581543
2.1198518534719435
1.568072368065677
1.0431763003558014
-0.6886089184712094
-1.8768596439570315
-2.958618970138554
4.883037245339709
-6.938183017308722
0.07981844350036905
-2.596764914206103
-3.2209606219574125
-1.1790927463825336
1.4316955106628777
0.5498432173268117
6.775958563628254
-9.633950806263412
-8.544748916421689
5.214465312216969
-2.581270249511498
0.2116905925185684
4.154779936124635
17.433077429414602
-0.09743091996049612
1.66898624144281
23.475567589761177
-8.261721035768463
-2.3663204119735326
0.7754119206498442
-0.08008277261565888
5.7686554272500565
2.75132102846584
11.233693929384557
-2.3957314771716267
-12.464288528274793
-3.2992172498237693
0.7598874461751892
-8.65623308576388
-10.454850707856439
-8.861117559791042
2.10673303793997
-0.6271613770439668
-4.073395745846271
-0.9797873439518163
-1.5660689069535125
-4.901476976350037
1.565145536348485
-5.943061738255381
4.012891434187148
3.241608900713689
0.13562363621128215
-0.2934450186986245
-1.3448299528000887
-1.3323638959194064
-3.231586550460733
-2.1438364397706726
-2.424832883695963
-8.639162655015877
-6.595208260149012
-0.8101975427567588
-0.3079596624033804
-2.3794750198451453
-1.7117722726590032
9.962782617613888
19.61454916607361
6.8047326387718785
-2.3742951329628763
8.470953166125453
-3.2983535723504276
-3.131215702518693
-0.27604922748076327
-4.99257309780256
-8.940437039526277
-0.4802314095381019
1.8252388674163824
-14.447912154374643
-2.3394424040076403
-2.8067728360199915
-3.769816112651976
-25.52293393196031
4.123228068241064
8.88112352996638
-1.6580317558746354
11.04990145446252
2.8742924278640243
-1.8667748660977346
-0.5547718459869089
11.661882172543391
10.758860521456754
2.7931276114419727
4.323590064162712
-14.35099099637772
-0.40697887626069235
-2.698322600302502
-3.675392795185455
-0.08495641638384438
-0.10940279280359484
-1.0499197270600098
-0.8118081906574963
0.5702009443869176
-1.9490080006371222
-2.078039643276983
-1.25118294823821
-0.5445105684126422
-2.2010326925499424
-2.1174538164005314
-1.9846598354914475
1.7586509128786842
-2.5260025934595762
-1.777810101653422
-0.24377712729968426
-1.8698812464329375
-5.720544403689496
-9.016313236313987
8.658581637785975
-6.281187798641671
-2.4815319072931032
1.4048363517059628
0.4250640575680059
-3.2837152343447773
-4.098499520079016
-2.885033127103723
-17.30521201037116
8.157867061134025
-1.956446184702457
-0.9858243168396548
0.6004171661284025
-2.3312517031210906
15.8322714207007
6.529992931432886
12.669076258417872
3.806608952053839
-12.075512687685956
-2.473078781373801
-1.2726630164245358
-3.585115645944638
-23.20608221872656
-22.02891130106721
4.61940926511645
-1.0371247626011089
-5.336390783233992
-0.5736458594122199
-0.7446175973321029
-1.0514822570010973
-0.6992702163869379
6.158157703797969
-0.6175343927871904
-3.3557041009060677
-0.31940756961521505
0.22623393589564939
-0.3382105395515984
-0.23451067812676085
-0.3222895801434193
-0.7630947057308868
-6.395104550506905
-10.782436719460112
-2.9067284386770047
-1.0077925393472829
-3.0821565532401114
1.1957938051500203
0.7242804408781058
5.802836726324267
-8.255899609271367
0.08463275839785572
8.70286283114955
-2.103338477697057
-1.8698366933013857
0.01912530857603088
15.726210671971984
-8.216612618014414
8.820544897427693
1.5491971298284755
1.118108849355413
-1.8600249311336265
-1.6561524560402234
0.5590619109179202
3.0610654866309
-5.827143843853106
-0.26319160524820645
1.445709871886947
2.099628548852112
-4.1294576249570785
6.673180249127136
0.943117561076739
7.008866755491426
10.897632716800294
9.737571744464232
7.116012439533251
-14.86175170438287
9.449585954746402
0.27286727880693235
-0.1588848317935514
-1.8259085154686765
0.8973398473481475
1.5363635419067192
0.479261973912098
9.68028023684503
2.0107587171716332
2.7841503197076847
0.9860762359172555
-1.0802243874408506
-2.2528340951140633
3.6309355681343143
5.078912044307558
6.71895116870836
-6.144254949557965
-1.115968330876893
10.334477953465338
-0.7366038311972666
-3.9758932564445186
0.867411809880941
-1.933671851590467
3.313044416399455
6.482198923453426
0.3077892425113248
-0.760025749777928
-1.0420743301867927
-2.322885192356823
-8.743252580565926
-6.1456908712789104
13.179473034432874
-7.777777162981574
-10.806824542448153
-2.6443409052519087
-2.131403816455431
-2.460159721661554
0.47851385030457116
7.771697364806668
-3.8706649163219637
-0.7419823892127729
-2.5481502664853437
2.401086791089258
-2.757320261662283
6.790526348197277
23.0346406189427
18.34781708933954
7.01700557325012
4.97750452095908
13.953635592735008
-3.970723204412589
-0.6626079591472948
-4.398678629180668
-8.938687605639394
-12.463418008064819
4.11790956013772
6.201507597756668
-3.3123628313888718
-1.1264902131727454
-1.6217314538221663
-0.9113430601285728
0.6929463972516148
0.7764637225796621
-0.6413014378545029
-6.27305612175729
-2.880458868718405
-2.2537444173376997
-1.9705804665139148
0.038893084245990944
1.147049878795566
1.398024904998961
-8.418087014829654
-10.51123051408665
-4.593618159727527
-2.1309942010139444
-0.14207577136615648
0.17993203067300492
3.061697725902326
4.579994685507514
1.6280786832136958
4.050884363474127
3.738409210543041
-8.072755506131882
-0.7523300530577004
-0.7360435559539693
-0.4872868678005245
-4.9188948576578655
-6.5351335234608365
-2.147874581422916
6.988665766831322
15.987446118557353
-1.0078024420355995
-0.2574438626476504
-0.6932887566995194
-1.9855721341978312
8.862998664219507
-2.788307401446437
-2.915739916059905
8.91668846940766
-1.0139903461560502
-0.31488850432698573
2.42860244935071
-2.024294488079454
0.3477513853395591
-3.555491718951758
-4.261839619956665
1.3780404531383414
-0.9488390810584746
0.7645423589611993
-2.5247766939060177
-2.4397956006123676
-2.403440338132548
0.41935101901042254
-4.5327820066849185
1.9711229295836663
-2.5974810813805895
-2.485216081490166
-1.512010100281661
-1.1183722680886263
2.264426028375596
-5.283319476157333
-1.8100223172417524
-1.3712956701823156
1.3857841064703456
-2.520714237415805
-1.9958252431672596
-0.49124935649136797
13.306369457678697
8.052600239449882
11.229606828460934
-6.822678346747461
8.330126274922023
2.087372018921321
-2.521010786273678
-1.6727046087084723
6.476907585137375
-17.220151526588197
-1.8692007264276387
-2.5318513923992234
7.394490747432417
-1.4179386744521703
-0.807162234561582
7.427311801654768
4.614710932766453
4.390350221389464
7.244022444877848
2.834967123298069
0.20234487687636896
-2.9950065493819613
-1.8988312261766616
-0.4366014666968604
-1.9840716716823108
4.493017750628701
-4.519227707266476
-2.8319512315306294
-1.064196542361734
-2.59394024709592
-2.309383292224265
-0.8469310010251766
0.09559367148958897
-2.566132419492211
-2.0008889592744814
-3.5541467490383343
-1.2241885200447569
-0.4705021869805865
-3.0478324132547807
-1.9758291782348558
-0.11365996077974247
-0.2231334683744617
-0.9034019565796794
0.16532295207332554
-14.14196916078703
-9.309106528671736
-4.254331887176441
-0.6505670173584369
1.3296274146302076
5.562415634284765
5.624798464600177
11.430092737199143
2.866890633848629
-8.639681066475811
-2.6397229728869354
-0.9026370367700604
0.08569773507051084
3.4164775601203248
-0.19876434780397992
1.9221915792887676
9.396663889147453
-2.1985972519358876
0.05556797772767068
-1.338535462020677
-2.1120945318395385
-4.943548268146982
-11.505433049162328
-8.86655730779664
8.987868909892955
-3.7686753383070823
-0.09554167915146611
-0.43767200011388746
-0.7338518280266102
-1.4761114416442087
-0.6286404883030424
5.563780655392386
4.978352886904105
-0.8630888731509109
-0.20972066810884304
-1.47051877190302
0.19911407772796644
-1.70877817951919
-1.0521716775944074
-1.6778486754315827
1.248213260414826
5.1960229780300535
0.4611589010621341
-7.303308396544994
-1.196486775768353
-1.156207745813133
-16.187091598114602
-11.302362685958894
17.71993172742132
3.736513744895384
8.511922570662502
0.4928406112802513
-0.6931441883623932
3.9920629799870015
16.821259347808777
6.929024860934676
-6.023209811049375
0.21544010106282005
-0.5728965068972619
0.767335560000285
-0.3078856097512418
0.7675156165192984
-6.897045304561651
-6.933371773771244
-6.609285635571482
1.4905556437262495
-5.4595009784346304
-1.0411660950120496
-0.2352487999910705
-2.229482894625439
-9.447199516014068
0.22013864326509847
-7.990480261339253
-14.500597422973026
-6.840522296030468
-0.9026322684938931
-0.9372041911848827
0.46262545516621306
3.6231604970884264
16.670600234742217
14.76826680767779
4.944011311534461
0.2999424141385718
-0.9388064338776592
-1.998174184418339
-0.8061215458251134
-0.4451825821094903
-1.5328881272152117
-1.5584341684480263
-5.050503881552155
-2.8928313501782683
-0.07158370268067821
-2.104533448345106
2.2799400391629185
-2.7528606267743347
-7.034199268387818
18.363229006358804
-3.319286341064314
1.952052669881538
2.583098169661839
-0.6732097506189918
-0.30251635470770716
-1.3363673845616042
-5.216839355592202
3.5295067643668316
-13.263360690225989
-2.1432766353829615
-10.4259734502413
-2.7959561823191623
-0.34191186825661896
2.016447634896197
-0.3682499304920835
1.764215372743468
-6.31748482838306
7.241105516457078
-10.019286186753916
-1.3517906920954375
0.5648118526229318
-1.6251009021164324
2.572679142124761
-2.864829168696116
6.776635812265781
-0.6609543334200607
-6.1216777067463
-2.279462717446913
-2.356053468072051
-0.0030355861011399205
-0.428569329540685
-2.377402676386107
6.016384293299389
-0.6115716600182667
-1.8540181834373388
-0.46537333157615784
-1.332509642327864
-0.04901719165224725
-1.979567441296159
2.4801180740612057
5.870493373124337
0.6390035951966636
-7.701662315936191
0.04903483173217684
8.21737375429751
1.3214624939412112
-0.8801440373432261
-4.7252829323585095
-16.07286116757478
-1.8577163122096256
4.22590106485788
-6.830786377355171
4.57777058760339
-1.4768285269235217
2.42029056633986
18.37661799694553
9.956104416602793
1.1198766571341985
-0.8285486010996393
-7.781498906756286
-2.1253316203017087
-1.6307651700210817
-1.1564268534749391
-6.005225726905426
-10.433507146445177
-2.1202065126478264
-9.508964647770169
-7.961055688827398
-0.6630671082870949
-0.7079113730620731
-0.5568022769471674
-5.448062690178825
3.4425840956367515
9.276689464355291
2.6588160422417495
-2.627895908582907
0.00528440752738687
-1.0787659335069082
0.931407650584957
-0.6843169200953299
19.363695391906056
9.929244616619936
14.930587816530755
2.177909304661022
-0.23216834809961945
-0.5141468575397051
-1.5013850724185338
-1.2126459349049403
-0.2382152042142094
-1.228514200942904
-6.845593957578162
-2.5800783200529387
0.2760672239208518
5.644940735242979
-0.42926686333426745
2.3445054522313824
4.985286984829174
3.7696884472354304
0.49468733076290383
0.022021632971322425
-5.405309235801175
-1.6877249692242131
-0.3548273499422956
-3.1176478417242803
-14.618430362305679
-8.20625813363705
-5.012807812322724
-0.4622692257732746
17.29623118164954
-2.419719309924543
-1.2124855533697523
0.8700845698608419
20.125220276143157
-4.5467928680934255
-16.52690084994357
-6.0852352630708895
3.6563399564845316
-2.026588519921963
-1.460631411175763
15.204335339464395
-13.209101967219809
22.658713696642316
3.5153112911410926
17.746096649086127
11.26426202403364
-1.833027271067716
-1.6092507824102387
0.6196259256217062
-2.8726489836670788
-5.745772550463737
-2.7337296938476077
-10.771058389794995
-1.9108390671151905
-0.7199950813322462
0.4241412680783727
1.0147310118163109
1.429669236012385
1.9738132835738267
-5.330731325425614
-3.16135597270589
-10.629413994887802
-0.20612836898917136
1.2354113967076157
0.22943294519344243
-0.6849785990170459
0.21241151366151598
3.219167588262436
6.198574841060526
4.049578938586665
-0.3411543259993883
0.7409185649715643
0.39335205949649854
-1.423792248645859
-0.9439568812473929
-24.86444858374854
-10.303422323651992
-4.4726574935546735
1.6265896565870317
-1.4370921916149078
1.312269971987963
-0.24583612249770664
-8.609239299722603
-8.062766062672555
-0.7143090155965016
-13.825842663707547
2.3067455167807127
4.781200636036895
-1.0656885321410525
-3.958568691601569
5.267646069484087
2.2203699915986284
8.415361306561925
-4.338387688565495
5.91083716541113
1.1842724716832493
-1.8346512329432205
-6.08908309970165
2.3654191886816474
9.912013033740502
2.9955471579381063
-1.2044095471318979
-1.178276353115772
1.4714708651598951
0.8433021169585599
-2.045075968138983
-0.6514134832193147
-0.12352271258146265
-3.7279263525035393
-8.105767770668434
-4.220563512108518
0.3121163338318152
-4.5890867955174155
0.5379177640603113
-0.8631088648813993
-3.7289056687888475
0.606506970988384
4.551137949607356
-0.7051209092236502
4.763935983897345
-1.5577996432863979
-1.6165579335234606
-5.699505301880404
4.292411025375302
2.298701000154696
-0.2276026505040248
23.888741861586798
-14.587001957234149
-2.6368362422854994
-2.726393135674192
-3.7251199260371766
-6.998033604011144
12.72650631698968
-15.440042477565605
-7.473576125035839
4.851639905151093
-3.3927302756775752
-1.2781075053017368
1.2982724780380215
0.5640693428243102
3.9122645109337806
-7.191181514583692
5.330437264822244
2.5033026924357444
-0.9549463528881162
-0.8717211373228994
-0.5496410969891974
-2.016758911155287
-0.1690589289111038
-6.179119957603047
-5.979091761575708
-0.9249161936934309
-2.0439366042193647
-1.2184067101296412
-0.31049120878160386
0.623294541529588
-1.5267310662891191
-4.21658920811293
-12.326349626664802
10.172680912339665
3.0333965167012034
3.292589593535857
-1.2012592656359673
-2.5248867559382533
-16.79280389012767
-3.4100042945454896
5.624834163149334
4.626467033345583
-5.1918671305304755
1.0485284908211776
0.748459676872122
-4.680685245308501
10.28714799666414
34.80142555796088
-26.332050810854895
-9.862537665866755
-6.959976905178109
0.49881921628585635
0.568890594548297
-2.0439607351038176
9.307180915959533
1.8069611953754718
7.977036869627009
1.0678984469836013
7.234566616317571
-4.893898569728974
1.2285899603058024
-13.635415592530451
4.458656930529674
-2.0398276158345148
3.803446764246803
10.514359240007105
-21.77535106215347
-0.1001764131367963
-1.5704175450618645
-5.312847536386633
-0.4040980873032999
-5.110091488216204
-1.3963370092994498
-1.767794982275298
-1.4556510362315127
-1.8035733502570968
0.6509265094743654
-1.7486828137668007
-0.5958575502918192
-1.5986108579373859
7.51784934068364
16.52700213634801
9.117548445945637
-1.5810881589423247
1.8975078045322242
0.40614860279316944
-1.1766577266286313
6.672485612910895
2.018176086961361
11.18852994977161
-13.085760552344981
-28.46173088710425
-1.5531851522233069
-1.8344220461152139
-4.343720604706733
-0.9155218091262625
2.2822051981093
-12.052906399242275
5.729187690687805
1.5664347151427729
5.0329100363674355
-0.7556848311551098
-1.198823340918695
0.6572930732042275
6.928864468598695
-17.02884064257023
10.930743663230173
11.184330560645833
-0.8719358320308702
-0.8361289944603149
-1.8416405644815517
4.647704370873599
-0.4225183706588292
-0.5479932153093692
2.618694928122445
-0.6994812282167941
-2.2674408113393247
-2.115536277187051
-1.1056787864429953
-3.143814103635773
-2.0960884593090925
7.1281298308256815
2.4325459549808204
-4.430553324669281
-1.9575209006459289
-1.2711437947336863
0.8539211398563527
2.388654180476649
-1.4123090309441528
-8.530732103360563
-4.072043662383631
-6.555654822339069
1.1248009606444291
0.6503086492297102
2.0618352386775647
-3.953431356777685
9.815843989008746
-10.973866606459353
1.1078641249479884
6.806900163052147
-6.210094383291086
-0.3501250263893205
0.6094597731630873
-1.7388140637161222
12.698426680451838
-4.454032273288108
-0.2165792808544926
-3.895803653387248
-0.6583166960290608
4.2664474312718115
0.6655226181700082
2.112281388176349
-9.67623114684141
-6.020988358998832
4.711863143779529
-27.51458751300293
-1.3545444737763235
0.350711671785495
0.6005916157975408
-8.077392178905857
-4.349683991412151
8.662796614061834
4.57328599264173
-16.56781322150223
8.97837282309776
1.699429075786998
1.990969932602167
-2.270605377195241
-1.379696567662647
1.1576381933955249
-0.795557658582548
1.8742111876897183
3.1262543866494723
0.8003717969206563
2.287856988913983
-0.8240862634690878
-1.6670632141623714
3.8161317715416008
5.778157575538662
8.289013598833874
4.981751703236768
-1.7949402664657839
-2.5579847198336156
-2.3913840392970918
3.1487033381461
-3.4051335530677234
14.138213792030891
-11.239756141950137
-9.379839270906569
8.26580170719203
-1.5280289354259748
-1.495728086392832
5.249445660734927
-3.2196462144220224
-10.396577740260405
-6.429808604603625
-11.626434286990408
-13.825113907793181
-3.041017408146081
-3.3233063982762903
-1.2223836884265247
10.4302656043549
10.657770882701776
13.28733099513098
-0.9759389862913573
6.694376387980667
2.327281609475909
-3.922751252077323
-0.08403324149990066
18.435516290876038
-2.981611392774424
12.645207180126523
9.08471466716994
-8.699355410108648
-1.3117054126562557
-2.1026730588124996
0.5117571779399112
-2.169997973955953
-6.36195538829626
-4.777105500636829
-5.472432911881627
0.02704378453901653
-2.354522389196427
-0.9651587943988225
0.2975876146034839
-0.03011063928519098
-1.2514149833235335
0.010493840776263714
-11.09127831328772
-4.732777270028564
-2.302536951903097
8.7137232846415
2.1659980370730385
1.551136930929292
-0.969215988221522
-15.104336965998897
-15.873366765857002
-0.2804227112843657
3.1461444337293374
3.3519694704694754
-1.3717836205462115
-2.294866858157403
7.420000139330563
1.5228518855016278
-2.4392056244467093
-1.0851302318087803
-5.419474982002254
-2.4327278283625207
0.3177870868966429
1.4645844048480199
12.739185596541482
2.26384661350568
2.1548857915538298
2.7447686093258694
-10.01758651831472
-1.770956203854283
0.3158113979055909
-5.843331723665274
2.290858930322226
-9.237409160460604
-0.6166522142883967
0.9834485295565927
5.086196772535823
-0.09950444832375283
-0.42678828994894336
1.4008547583804494
0.09643396418542541
-0.8840831668022837
-3.9542399251055094
3.19137526204879
1.2333323027107284
-1.1183159087396795
0.14425665860700707
0.4437275678322101
0.699324620864744
2.8422184499726475
7.350080535029994
21.139733602257024
9.456356642017058
-1.3156365183153689
-3.9830958823848084
0.862676038970626
-2.2005856172800775
0.6189025743962551
-9.130246111393756
1.708173422034359
-9.322184996105062
-8.306251682270723
-0.3492210739054104
0.4755995332123955
3.3657815161196982
-19.78964295546645
-3.4445265646522873
1.4633013732136013
-0.7082918456801742
2.351202249559981
7.581672609733671
-0.7808102405129728
-0.43207545630023353
-8.270716582316004
0.6596560905618766
13.778186926390424
-0.34629305677062944
6.166498685267686
2.1488541981962754
0.4459601108261383
8.492785101315134
-2.5818029452537146
0.6821842645371373
3.162258181053188
4.354496912886976
-0.6191078407909928
-0.07434099624427694
-0.3460582387980844
1.0203810264429223
-0.7986367221993005
1.2838025272320313
3.5949219672145025
-1.9871756506709606
-0.8581283978549678
0.5338155677976613
0.30092836825407054
-0.7567805900458318
0.25684265236582593
-1.3264086103576491
1.1840646105413417
-10.365900969650092
1.477030553569068
0.5971596373509869
-4.094986302054425
0.09366497374636744
1.3658826598045837
-5.0276504072722075
5.476353216373002
4.669626882014113
0.8729873738372828
-1.51931078111186
-1.5910374391921618
0.6571877233412775
-0.2506185932921836
-11.258621486115866
-14.225918208528388
-5.879160874543126
-14.705107020217305
-7.512373980591558
3.5302969620500146
0.11456702206112963
0.5341723724132794
16.39327716410189
-9.746455319524816
-9.828197243722405
0.4866236946888497
3.261211331274226
0.6598719963670162
0.045263195047334455
5.538727711910361
4.764078262764854
-3.818305837610554
11.390736392752762
-5.556972553836382
1.2226726011995939
0.9056323692005774
1.8478897356758655
2.401738502166825
1.454833216288736
0.8327348640968334
-2.7459119953245263
-0.6107783755526587
1.0124589316686905
0.8066033297007116
-0.3073340474009747
-4.449225170149332
-0.9163336473670295
0.328291496993475
8.675358626193297
12.48197815140293
14.799598367646203
0.6991194812954175
-0.043461865890576844
0.0644131158324744
-7.921798233884959
-7.300158142517469
-10.679942968982147
-14.31517755736997
-8.32635588870517
1.3937442012662469
7.931820603360373
-1.2477339245907877
-3.436716365393322
-0.9526735723423335
-1.151279103625944
-9.161988927928244
1.9825290483038114
2.5173075093933757
-0.4626831004168135
-1.7550700379423931
-3.4519234626531112
8.231477602956105
6.8508791495157135
9.08897178768925
12.636503919054318
12.761579177059923
4.725056159781725
-0.2586583215792031
2.4042797506451477
14.989641110385705
-7.257061916662346
-4.927690237204617
-2.331515095565001
7.371638629245226
-0.3146965435834154
-0.8428325761776009
-3.1893144502533572
1.459932184735126
-8.205209669078773
-5.348619126002474
-8.040481216240696
-2.4761757968744673
-0.44234083147579395
-1.0081631681050234
-0.4292152988744124
-2.1733607870527174
-4.510854880284468
-4.896245130648981
-8.629628143030688
-1.3078676711224908
-4.723449676169712
2.714452835440221
-1.4201782216647159
-6.774662184167945
6.41579124816883
0.9687647586051419
13.476736727079446
4.564047651730378
-1.7996979829729787
-4.215086739463143
-1.9966272806983543
-9.498013451217146
-10.551677563461219
-3.924837725540072
-10.314992416618479
1.5943831709218044
2.8853257170233024
0.4503625740704818
-0.8673146165062229
-1.4107751347621817
12.747272936202654
14.309058307496308
-2.0770139217181267
-10.027915980558697
13.88919665282074
-1.974163095322056
-1.0495116497139891
-1.5582530622276336
0.4732181471462096
17.34887655322922
-12.686207742027943
10.473664653479593
13.067266547665298
-0.7641168074520146
-0.6190559289769355
-0.3393421058145845
0.1548535357006937
-8.848982744839574
-0.21657710655247894
-6.796007348364751
-1.0362955329799726
-0.8771827847425324
-1.6352122005713232
-8.91400565510618
12.201517801146553
-10.858291391601062
13.16506677364641
-11.973843170282755
3.7864125536286988
-5.599843190238101
8.279673987820507
6.903652947748602
-6.041870279973037
-18.966006159941674
-3.289281484041779
2.2494453637941216
-14.577872113575369
-1.3044234722571728
-14.239579631841721
-7.2858878200768045
-2.7143818793829473
-6.15133403949343
-7.020382292129033
-9.82861443835837
2.278404694290716
-9.743328062562504
-4.838944294260503
-10.212647552009862
5.805505718826419
-11.577779749012446
3.616849666793142
-3.4382863425216375
3.283189925156458
-5.849432584183365
-7.509380856218609
