-0.9164611775383956
-0.06092719054354518
123.75027642941069
-179.9907046004495
-2393.1040075362444
-1300.9514176862283
-81.4863492924371
468.33677027669165
41.23030059882246
-144.74506248936297
112.13078791740617
798.1560264956021
-4070.475324858097
2161.3821345890306
965.0331416462101
843.3940801323365
134.38154514906913
822.5825717740097
-1227.789496264523
-1700.3131579863564
3095.0644022762617
-7465.582109760105
-5015.36347594374
-527.3307965395867
25.306185011140194
-1201.4369177395488
-5138.633698251008
-5172.0725204384435
-4845.269041650897
-5227.227112432931
-3244.1760048888686
917.2629755776072
178.22422304230673
-379.7849458432526
-5831.253926696803
-856.1566946415805
-3750.784339238177
-4467.7851669498805
-1843.7198372040584
210.31136502135254
-3.8450918460148067
1333.8723462809553
1255.9483141521036
1655.9052731811487
631.7984751052784
970.6151286336485
160.48742131387118
13.826997363451062
-0.6180238598055835
-0.8616088480405699
-0.12844493746502125
-34.05963682408644
66.70530514742269
-236.3581539578531
373.89723281739236
-19.934750018531968
982.6886829513383
4.280040146521041
242.67415452858532
2602.6440897174834
1422.364569310486
-69.03269840525735
2064.4160008566796
1464.4899261864055
593.5910204999465
54.07377354989533
-440.8351375894076
-1471.6453456410043
-3769.598872132847
-2608.729598394422
-3588.086205667076
-928.3296150290569
1306.3097672259753
-50.818933386925785
-1563.8901026021497
971.4240567576072
1765.391523017143
-1979.016719627679
1462.168671835129
1989.6928154759614
1264.7629769654409
5.82315097638509
1335.7083419177043
2410.837465404097
3414.341294377819
304.9883400771259
2631.8803543080458
678.2467241048018
178.39145601226193
52.2548228171989
2236.758887354496
-333.3936494145666
251.60568981448588
-778.350149650395
-1512.4221744656945
-606.3009067351713
32.67983648619024
-0.039490277262378214
-0.519192392815224
-0.8654258673593348
63.87011327362968
-55.524690011162875
-497.10743862810733
-168.0915411314366
-31.603839182621172
-145.35751299568778
2.162782701914897
200.34926730885064
-142.98366095752317
-2043.6261027128894
-1877.0737279026469
-1286.4028416342471
-1421.0965858714228
-265.34584096327353
-86.16658197070194
-655.2637546257696
-2275.90199495457
-4132.675533617866
-2610.079465655132
-1441.2775393490708
-2005.4640431731007
-356.6787338568124
2.5511106566116597
113.15993919628502
-845.6673384605341
-2226.982985482131
-3106.1664624471473
-1451.3131479827402
-1873.0191388586372
-385.45416900506183
-5.7805462224917425
232.92703878267397
-761.826397750361
-3371.1763709624734
-4298.483315457498
-3172.3876339662893
-217.20449556811073
-51.419300339364824
5.194229057093652
-263.47550232097336
-679.5769331188824
-1166.4956733473045
-837.0105234701765
-750.8062312698496
167.9207361659923
-11.23034254231903
0.2875988338973691
0.15438379773291142
-1.9547157588397184
9.833732182553428
313.2940638356195
1895.101634405381
922.5682815871389
38.95171205493689
-1131.8818648728256
-58.93319398454363
166.7103427943069
-67.52456406510915
-1225.6085499089654
-885.2675346519569
-1227.737619282598
-1532.5957951616358
-1607.1108445644718
105.24111979396105
37.62349182941059
-2270.073242937666
-734.6285253730555
-2028.957885146194
-500.3982467033075
4037.8965896659274
1146.4061403978349
-33.03694588328268
180.88694509633385
2456.06627641834
308.5271041532421
1753.8169518257969
1558.341314289388
3005.4304840115315
-59.238065851669546
-64.93043738901562
1858.9877286254716
522.880139636649
-945.152272125432
1938.8828367249612
693.3212916542483
-444.9781879308658
236.47515621605518
38.48342190691983
377.02844586449356
58.618543713897225
-1651.7702922022506
-3955.4929868321833
-2279.6186063185937
-841.8817302659244
17.693755735810715
0.4369261112697045
0.6207485033817124
0.20737547342358215
257.67844729286105
96.01839621208768
-2056.614868095846
-967.5387536966219
-118.26154292598876
941.0058386062263
34.18046006019856
115.56417885548429
1941.6067537868125
1160.9329075601115
-2376.329847681179
1844.1031877012977
345.64993048036195
422.39520274631997
55.16150200305797
20.577314286368082
-2483.4823166375973
-1892.537270491551
2371.0836256094744
-6393.637367869159
-4782.814164505461
-681.5364595616617
18.388124338339072
-1541.3762467927745
-3052.749596226972
-6200.585996714773
-2940.056740232609
-3261.15140058647
-2162.3113139992333
1157.701238502613
73.5476798385541
1327.1715810306166
-54.127885053032436
197.73687992217967
-3889.36638752462
-3521.23238990302
942.6838994498587
613.1867396351904
16.817489025657736
1007.8023164776962
-415.51707606846617
-276.46578712081504
-369.3601083249498
315.8425778053571
242.76454072026988
4.587697871597945
-0.661930024060415
0.0691897546252688
-0.138663012884681
69.30990711614747
-190.66345674894924
-1384.5148706112327
-767.2340392980475
-56.195409178431674
132.63297780958484
19.459220572954035
31.36994475444518
-1113.4911092318353
-5057.750089797541
-8324.011971073742
-3005.456953862378
-1462.4936144750743
234.6142586565009
83.35683845269288
416.6183579963515
-3244.004164512556
-9114.001738720859
-5564.568794740658
-9588.483611659534
-4359.285700328768
-839.1045670428997
4.6558606048959685
-618.2220010674513
-7352.019115621011
-9695.305966320866
-6187.056291675596
-6855.555219071412
-5234.61951218724
-785.7773717283524
9.41927743483556
-1308.534476900944
-5340.63647005894
-5649.988451333332
-10264.178888895722
-8713.529101884516
-2199.914650510354
-274.12376342668364
-20.56737641451303
-1285.8257096922875
36.402815551728786
-1171.3404535270565
-1560.3816440418354
-340.35533246662027
-312.43393591328476
-3.183938709326535
1.241728460975155
0.6351332186362803
-0.7416254547938647
-43.185263789934936
298.98405652580914
1015.1575645910369
501.8592635664573
-13.341524925518554
306.9659535199048
-4.456397728128029
17.653964374208268
1136.387945407361
608.129198386672
1264.9658486685362
-1092.131883154301
-2950.441711431947
-316.1116051691226
-12.939013872882303
-514.9524093039731
-2877.7941646836784
-1353.9081479903132
-1834.7375773269955
-1772.3637763308902
-1133.6161734303246
285.0817262002077
-33.95166160069302
-1326.7931563189422
-1658.6516937148028
1885.7277161835323
3559.586302505496
-853.5470452004798
1806.8887614563132
786.8627654980171
-26.40270434803182
280.9212291380108
1052.040065108288
3296.2022551237587
1897.6652471792868
1823.2119213095705
1325.9823892330605
212.42732207153898
13.715890516500586
559.5620258543593
-1074.4410228134307
-1589.662606387026
-2324.543656389974
-777.7580450286317
-124.93840410203158
19.067711372198044
-0.1840827649824884
-0.2082924534066738
1.4552734415288995
239.28789444029428
-340.88661775681254
-3955.585999793198
-2115.728700245914
-155.27738733965253
532.173147040891
44.97409672761237
-108.9769452321137
-1214.8981884385746
-2599.0251792513054
-7288.292451599516
651.2391214963683
-877.180981088839
591.2316681284733
-13.180971494204462
-316.7185797180622
-5119.740872320614
-8468.636792272706
-270.40834407530974
-13820.519240853744
-9189.842398271327
-1325.555604832636
48.8321386599893
-1637.6436121140914
-8843.13177298298
-13331.028270729052
-11301.871134856397
-11563.797319735424
-7603.221572974533
707.4435095464372
189.3292257785224
273.4425137945925
-7112.657965018305
-5916.287740936699
-12979.07936289829
-11815.982961527725
-2949.9607984062154
104.22070401080757
14.433902111925846
799.2610023534284
398.1348047262743
92.35466690390582
159.5689813246247
673.7057665572294
575.4319209597766
-11.05410724755964
0.10994415863697271
-0.6004229174661113
0.5268695722078669
208.19479843950603
242.69604790567774
-494.7077502960968
-419.71533215532503
-61.07096802656641
139.91244512985853
-7.279345738368649
-46.357208538764986
1204.9464902788586
-380.9898391460395
-2498.7216383282175
1115.1449148465686
-2237.2960325659083
-898.7056943048467
-23.82085769890985
22.679687857627396
-2516.7530732639016
1645.9325807860398
3564.002177183365
-1454.8391251704713
-1964.1853921081452
-576.7322938692291
30.044903112373518
201.66587007748296
1033.3234707250097
-1824.5915053529127
2034.9159491466783
-1144.7607543117929
-466.34534236745543
393.99077355627594
-40.375007951025204
1085.5260480832453
204.35915484727894
-2033.8518424669683
594.5805060250807
-2024.4106309390556
2209.0753334744013
1128.8480504075476
-22.47674330496807
-629.2653368896209
-1154.7767522051795
-2760.779151211955
-3160.248900263448
-642.5120448328759
512.4044004953762
-1.1349935996542582
-0.837781285273362
-0.19038766517342223
-0.753112470432197
-126.95890298480569
-302.14627935190776
300.6550418078963
380.89759421766735
43.73022897373433
105.51872182820571
-3.4844747120529016
-53.246511895365
365.721885570105
-804.3573940320969
-941.461320568894
211.04961679451233
-691.8189801480147
-257.9017885851435
1.0136711344415033
104.72001081322682
547.5842948166521
2717.069453012351
907.3769046530203
-962.4491751023298
992.1836793243556
101.43873093994866
2.0278826521678757
574.0829804138958
2540.980284245511
-1665.9915442019847
-3813.132028678507
656.2183901187377
638.9508731310852
-18.296697807216823
-32.56518905199353
22.40082151724075
-355.80920943981164
-1048.6620181315152
676.6197103540046
-357.7143369396423
231.48550766035825
278.32852814235827
-3.430232976312029
-501.36063491070416
88.31581609549134
36.96226279169991
-814.6756136523416
-421.9830958548526
533.0896653810887
-10.79979576311329
-1.28447214066654
0.43972495091698005
-0.12646441821794868
-167.10311030348188
124.82675290770518
1066.9081110312334
508.7089251968339
30.511489280594894
-197.79995032233614
-13.107106652083612
-281.33397301648944
-1024.8080361404395
-1369.2778796787372
2242.129601505331
-2064.275978446597
-2073.8824795362357
175.72150843775958
-106.43470329751646
-606.151345013627
209.11534082118087
1662.5970579442653
-1823.1476820673
-541.7924587919259
1388.1993864089932
147.63534000988165
-9.989752644920552
-239.841631146301
-488.8570911009869
-504.82880239208953
450.46260745648755
-2264.5509808264374
513.8977313169407
212.49244366853668
-52.5718703863597
-327.13930191621716
1310.4668504789706
2042.1331302471144
969.148588261931
-22.049185797063895
72.98802441007629
-87.9891897629701
4.845960690077606
-841.8225738800035
-459.41481650103333
-1001.9087958145481
-410.65579233683496
822.7121840135338
627.6372834902626
-13.52159116758231
0.15895110979389593
-0.06591064757303096
-0.5123681959291985
-95.54051999903905
32.233257233830166
608.8940346890504
413.6251633400416
31.11780456176008
619.2144673620057
-4.908592689721463
-136.0474777562762
1433.5015270932354
-320.91264368014396
-2491.2406401980866
197.47850280237915
427.3864207957345
137.43129426062646
187.14481089354408
1084.192234459463
1155.8988539172697
1328.4391551954755
-885.8730366191487
-3522.6869013938463
1553.7645046118173
450.63990992093835
-23.918074796578562
-652.9620527271859
249.3372273939848
-2173.0600301488826
111.90612144181691
673.8167804104855
1307.8844413128083
181.0498600035301
-74.04238746411733
-606.3206691435229
608.9549128949208
1900.391717427768
1513.0925839408194
1012.8141779336668
559.398573625966
382.02117705121225
-30.138727795651942
-838.961608047442
266.8035737116308
-123.76215583922146
-1047.5666049881659
-142.8975550393132
-417.16861059359667
22.220245279173184
-0.27999081996120617
-2.6937085678069814
-0.36409441883079013
157.4695916164435
505.9568787981445
663.7836981245707
319.14710307571687
-17.446915155355505
-2194.191111478128
-51.976497083739396
90.93315725241109
278.5990975010619
659.8888246517307
1967.209529473201
-1708.9590750556895
-1463.7389082936331
-1597.4400996506442
89.19952635620713
162.09923735734588
-1373.241944167654
1255.999309584994
1782.7776087642849
740.474115817005
3223.2372307338856
-41.778265836965815
23.241937468211773
-42.77064161624989
-1135.4719211423135
-3614.64280217667
643.2635117961776
-384.5079374540608
450.2555642311589
336.82479497177036
18.86599849822306
1532.1036107392042
585.2765677177994
-685.0517753834367
565.691403675613
-867.3852936439488
-1246.5976876126963
-91.24888401956741
39.89226284775814
-73.71793711502201
580.1524423049664
-864.5420180122188
-1478.486763858649
86.73951841932808
-14.969457767201497
-10.490250711360295
0.7135231276161234
-0.33475127996935405
1.4129270753720449
343.3400577031826
64.17251916103375
-1411.1752606966381
-769.8501773476692
-116.15876885635612
-327.74720468874307
-24.19223906814758
644.7008885697195
3267.02540069544
3525.064755627938
-2363.42028202248
2530.471859038622
2104.7382098490616
-799.018636743186
147.71518083212112
747.6000247174725
-2655.2771166480857
-4412.23568887311
1730.230575331615
1334.1125300910046
-1849.2833970377421
-887.2804644441619
19.569387100105747
-294.70098138704947
-298.2684712268202
-1171.8749413115559
-157.60922536858342
3663.1096130563
-1282.154797011046
-340.72580732127904
59.46833923606987
1688.1202155012659
196.3576287559357
-2775.2932110409897
-1858.6238118526173
984.1184617884207
1883.3230282579823
399.39424829182406
28.10698058699339
1400.0058486551575
-656.6215122712126
-423.3926620941721
-453.3293912275941
-975.5689316186304
-894.0178522535198
20.448625890073057
0.7656808191768558
-0.915527286907934
-0.10646633517348404
-133.9460893049032
-322.8790756714506
-386.4967218469254
-144.89469484037448
0.0432963288963744
1244.7879199713575
39.939692745703645
-106.17061831998089
-165.18440945529625
-2340.0093257487506
-2901.5731990244967
-765.2983438609231
-2454.103390461186
639.5811315838127
-73.48695462471993
-292.8674545403709
-981.0207916163496
-1519.640273040083
-1783.5186136282173
-2947.7200165837753
-4643.389914803512
-777.984380978592
1.0715098469584832
-614.2741506235104
-1365.5381970137994
-533.530090889625
-3968.38830258816
-2150.680879983052
-1908.3295425499302
-348.9334342728848
4.892576145748429
-2026.709982397862
-3442.956243819925
-1613.8326283865315
-2551.8798848995807
-2462.484898045896
251.10706336670128
175.59780795180373
-51.65828150730485
-857.1778353042965
-572.4065916491871
-737.044509367371
-287.16643689565944
-153.38582602384247
498.4542391151269
-8.858491977929516
0.32675962091081273
1.4269156867748816
0.6087274191274158
-99.25182414900526
-786.7619412058842
-1594.6843725504798
-871.3981480454083
-31.840504572749175
2563.412674272304
57.925737042868704
-139.3688870959057
510.83237171034096
-5370.817129210116
-12612.604510191664
372.91891944612263
-2246.279789455619
877.569030133535
18.456961964147833
669.002428347259
-2402.3883931838504
-4291.165110246349
-2222.5867919085617
-9828.454030450082
-7650.6922912500295
-1283.5729516466986
11.00857409810235
-26.782553893261177
-1493.7484545520956
-5727.063976878401
-6840.789436590234
-4572.901528304768
-4240.570048314926
-986.8292256048334
-61.09085807686149
-2639.006195182348
-6524.245358696909
-6483.984392409627
-7088.3726513494785
-6587.205367575283
1718.0234335394514
989.6094768177066
-118.67897924442727
-2239.3500787370494
-879.8864798796266
-2388.5678052541602
-2967.8159930567854
-1180.971877054521
415.1296633616466
4.425021896396538
1.3571452674720594
0.4963443712925957
0.7668232529202991
82.82730701723018
-130.64053096263234
-2201.5015728238523
-1315.6085660504223
-79.7640541695672
560.2558273885676
29.620976049575443
-163.95128044267105
132.6832771827571
2158.803718277085
-2302.2353694892768
2922.7266924901146
1528.1628966389544
1015.1666707905507
55.895545037503034
321.4539958276277
-1540.871536049246
-2889.1375512740597
3164.071000763341
-5708.362732038017
-5613.1461632165265
-478.35922407341934
28.260111218270925
-1400.0243797369512
-4485.998577183104
-1969.573526184941
-4428.2925011251045
-4792.176606593973
-2634.438729994014
1000.675859002428
189.74391148994727
-347.0172671025258
-4572.077643353129
88.56829707861992
-2527.2110631831692
-2018.8253150354994
-1113.8615022949284
75.23870211035398
15.787894639200571
2087.2397118571694
730.6671855729966
1474.638176570962
1957.8231060796654
775.5688366486346
-249.35734775460648
18.715498151347465
-0.09626117421019754
0.030074272226079897
0.07672332450771857
-87.42786186642626
95.852516775708
1933.646672925879
1165.9581422817678
44.90799177810307
50.795922767249095
-30.383312365110267
208.86781347929667
1051.1680111325652
-2955.8472375488564
-1146.106977409913
-2026.0501517355558
-4102.455876550646
-861.7567219666375
-96.35295731094523
-734.0462954544751
-1979.9453248822153
-769.9438711971659
-4625.236880085135
1574.357741507619
1273.7385287689247
517.1450171252192
-29.89831183481957
305.2668215009739
3851.0482326411957
2759.902821383504
2026.9264676490486
2151.967297890259
2062.9465135051887
-540.8719053274837
-195.10396971929694
17.150362810939615
2467.9114217854963
-1349.494010472608
1691.2303614274788
750.1839279923267
2515.5384537700743
610.9403091914104
-36.65035850501334
-1693.4057062019954
-2083.7391238401497
-3454.624605059427
-4098.028619252385
-2578.9597069397437
-63.96680902655149
0.5471402827010472
-0.8247797741910731
0.7805805934064387
-1.4892904271078924
73.51293936495156
-177.30347258986868
-1153.9900614258527
-391.0433560821499
-16.1187969669683
-324.8574256865727
-4.325601380969549
111.72475592004562
880.2856785425132
1229.6568030561168
-275.67493852342625
2004.9720005470533
1779.8275237568764
-339.36999712303844
-40.81235413267968
-222.32543892339854
-384.80347742126634
-63.59289867597038
2188.895098028846
-246.3229774170807
-208.18682973312127
250.3799370830334
12.071181886313994
475.32949591662623
1898.6131044384576
-978.2135397565588
-4765.305897761875
681.9919956665524
144.77309698147855
644.9673822675807
92.28988512606735
1662.0700857668073
368.42682467070114
-1550.276550099724
-1198.7384641327167
-335.5545143087287
-408.879257338752
209.59840840216475
46.194690851776784
1791.9505915439206
410.75317395884366
797.3366832592902
234.34510068735528
-446.5486427292491
383.83657605010893
-2.3003910324995753
0.8055143976121861
0.7359225383441955
0.19108300777654524
130.364121077172
-124.33337405326499
-1785.1579649768196
-1268.6764455645396
-75.9405579611669
865.881683463873
42.87957082836145
-216.89739273638483
-241.69289736325584
-1653.425997271824
-6457.575578494013
46.39346862808727
-1747.7707760230633
389.9384357520217
93.65420564976311
948.9293300929061
-1510.8221249100388
-1224.6076447847063
2151.19174983541
-5933.699133335422
-6722.95731576134
-1880.3662161337909
49.24914226726371
-932.6473818497193
-6046.957515176992
-6764.865128378497
-2991.301972109145
-5479.974994425451
-4651.102325799337
-213.19037319721005
72.69353289085949
-2051.418870871352
-6306.0684537939
-3659.805858986897
-5462.665108994314
-6291.0907618643505
21.2061384865569
583.3440295253243
-67.68362159871877
-1202.4303977889074
158.93292163921848
-367.1066855441385
-233.00494725211718
1236.3602664802063
366.8786989235333
-1.6542127731866239
-0.013657067707748188
-1.6705142382890614
-0.40995983198442143
121.36016175884775
200.430758688609
-123.81708625483337
35.23048110992698
-30.96430523969072
-99.76668569393853
-7.280905691441467
245.60579169614923
753.5597616209752
479.7904839329571
646.9489628203929
-545.5621459155599
370.27771089581455
25.390602129554946
-9.94839655923273
-122.03545671598413
-311.67475958634225
-2403.8662098744257
-1512.7101579454595
794.1580239786716
-223.724920635252
-136.46005880701708
-3.8306798564453075
-286.53718940962654
-922.8984871628861
187.12826150188602
1482.7025366033433
1078.9713606438893
-347.08424678543764
-190.2494293449998
-21.629295629732674
212.62839550407367
2352.5377383392824
268.8829766834424
-1309.8856197804168
905.17925444822
938.7527183977357
-173.58147566241053
11.589396227251093
-232.16942469621057
-718.0532652773197
-416.1657827308731
693.5143445891903
145.96493226335522
-286.61044217445175
3.0326269132400046
2.434773586832508
0.056871857949572696
3.072277131472654
354.8983625136146
301.20998474544797
-2313.1372677655563
-1254.9151083048025
-118.42216024577884
-85.97305814319955
1.131673684943141
226.90404956466384
635.1070879628734
2300.310053970673
354.6542634903295
2190.558148183126
2948.2016805272715
476.4351990273546
-105.91362084264944
-814.9700845472727
-1258.3005709959132
-3758.6518387098117
1448.9618180939503
-1758.881913484917
-1401.4479072564554
161.6266744160786
11.12261822021537
-214.91017364525632
-1628.679091520566
-2454.5074867943563
341.71033749256867
-2796.4305667236627
-1918.374588025235
821.7748289307086
49.49194839172859
2454.0579213354335
2984.6094732905685
-110.76441284395894
-2975.801470864618
-884.2839711211095
776.568080410585
36.23649929650054
69.13272366223676
1710.3922311407107
-745.8735576698831
288.34071509218177
1973.764317288022
614.2246487387929
-164.26248226133342
3.1145452347208535
-0.7854755801485628
0.886343318612331
1.2033652102064454
81.63847604191852
-325.0596797729177
-2521.554888408111
-1494.6305419397477
-69.82789489765285
2568.559812027002
65.23462182066628
-384.143370315146
3987.7163633241394
9450.883441727254
2437.0312828321657
7706.996266846025
2659.9260850617857
1796.503952885178
17.084180941866205
1350.0005415643536
6346.944233189085
13457.867219417309
12827.907893412877
5150.447021522851
-6307.126099391626
-1955.1356394396798
76.94768711824693
-1265.9219709522172
2176.199454047699
3708.588741870209
-370.3393264659671
2654.2143715320517
159.04048855562894
1408.2438632169244
132.57931179108218
-2580.780947506243
378.6863051475083
5097.308319786195
6482.757898989302
7703.582292415717
5876.994429653321
1404.5183047857495
-113.5427302297458
274.8893428669975
-103.29337019558812
3432.1689478481753
6169.397503029871
4393.7894364076465
1565.5226248083134
6.394764148872003
-1.6512650632279398
0.09882873737656314
-0.30113115542999325
-57.49315699324026
367.52921437111706
1310.0409777930386
835.0406804411741
63.280465661332045
-2643.331212568465
-49.046416720177994
78.7177048798511
-2192.668470102165
-60.51327439372735
6790.336787201582
-2841.61040458861
-617.1504003856513
-1071.613530580178
-156.62658606184206
-1644.9140666374105
-1206.721629344068
-2092.1803568450887
-4181.934410759577
3769.3252258511798
6221.336797690291
1614.8976832180379
-22.465653657057405
402.2935908311939
1205.0018186666748
2950.247559641129
-2014.9861008830694
-1242.4013425838295
2546.446496642898
532.5036864445183
45.495327751930844
2258.3862938343123
1565.4660324289232
280.76594056515614
934.5928536722816
1668.2047247125129
-3643.2256135048415
-1120.6936941520328
107.70015996076701
1899.1360855629878
575.6054142880994
404.1299693881476
611.5626847713621
-1157.115952545914
-402.69335538337765
-12.97006956039936
-0.8041597833836451
-0.021929691422099124
-0.2804833391672645
88.54772940817818
488.1757237446556
1466.6201421781432
377.27672407011545
11.624879870672196
-1507.0126914067316
-62.646272439565365
58.61423291367146
-1626.564354276692
-1570.9217508477907
-81.03140492998754
-2059.9721882211984
-185.3147650159387
-1087.9143338209312
2.216371418539576
-69.39309700319927
-303.0607988333097
-1185.2995054566327
-3434.3415421061845
2919.0537745820266
5335.080402989478
579.8234242647749
-15.624973765623784
1244.4762225491127
387.14098367676985
-803.9834588509926
4883.120906852159
522.6784693904141
1204.353040967201
-776.0415677305125
-117.96326580688215
1229.2351950594073
2798.036297604937
-1336.1699375708852
-435.4425196555208
373.68590475016805
106.89614619662045
-155.7355382844767
27.936657622616934
-817.5941823699638
-87.21791225813995
-1431.9874441245238
-1499.129792441413
-289.86710583674244
-665.674408484554
-1.134242023916681
-1.2669183885330157
0.14221017174695388
-1.9633502699232204
29.823410435743625
-144.839859936378
-608.3482709167424
-396.26350664765545
-16.54467095371056
100.78093175655975
0.46059609571833365
-17.11135089745654
-717.0115648671026
-1908.3966349020266
-3479.533158941794
-338.8385014282656
241.55803869646388
177.7257827848351
-16.34411573412451
-19.72447607064774
-1085.707967205843
-3570.554408006295
-2051.4406660797886
-3174.9132858872094
-858.3175419548426
27.52008742062669
-0.9110268691852053
391.517453947333
-1345.3934606919645
-2294.675738793013
-1206.29189145498
-2734.3819187508057
-1576.7345171343798
-336.5366894592878
-21.851821339073016
6.893344989224821
-1010.3033430673966
-2450.4267831327616
-3687.6554939944526
-2594.04079853887
-187.55648642552453
-30.85443584594285
-9.951677621428505
-379.10198972747264
-122.70890790021443
-663.0397851006022
-563.3520260852214
-320.9529236465349
-161.66437505876397
0.4103496446967525
-1.1204079370841895
-0.5129286273450459
0.8074650418876994
133.48635495679002
-48.89101032023249
-1916.0826661063086
-945.1766465437775
-99.455242840238
393.21044414061157
35.338883866303874
10.239739798226909
-107.26745986733131
-827.4410929737762
-1063.842361968373
-181.98898462905825
-2469.4001381028124
-42.6831465850508
-137.21359022184856
-977.7720892834769
-3858.4400373999724
-3822.8856581779523
119.26387079148238
-4219.296146044321
-6804.519650263613
-1029.0326482161147
36.429341482582046
-1368.614692314871
-3924.500042166858
-4088.682176071568
-5451.640816789059
-5501.960695087116
-3619.422604429691
558.3015415169979
106.43552624137845
38.79464896682315
-3298.619970029857
-2767.382622446471
-5658.0375888519475
-5121.415439571989
-456.8597143713699
204.54460932099752
-6.415093031162036
439.0219876840528
-814.5326943615266
-693.0406891318737
248.93268018940722
-79.21106094348819
613.8545912415875
-15.612909503137391
-0.45307182640285115
0.9702428028819013
-0.43253073782020357
98.55837256499818
-313.2383159759058
-1363.978956024845
-795.8260619394176
-42.342017326174755
347.7107792957607
8.747381997645451
156.02231462763498
345.22042720967573
-288.9346826354534
-4216.751180000607
1785.6357922029804
676.0123674546733
-88.53899409073303
10.353981844507015
237.55950876639506
-1649.0565136316513
-2631.063037364658
1180.2507980992666
-1668.351910105631
-3031.885118674057
-588.7177428609382
23.09549342077899
487.2290311825019
267.5830069052536
-982.7892241278038
-3364.317616066418
-639.8385771248854
-1898.4868734513755
-361.6337323665612
57.144233619712026
170.03423192345278
-3177.504860062543
-4043.711509700007
-3381.149595338193
-1891.5853098577188
160.9349706380394
271.91088660243724
-12.610928996720308
494.5635808202882
92.54748947304772
-108.08897086113545
-302.24923413445094
-696.461090537911
-38.00292971996389
3.8372164757314526
-0.15623141582840255
0.5808284804906948
0.28501308097380834
-3.797040831010504
-4.9024476121323675
-505.9806080472952
-608.5231693995477
-30.66744737417895
1178.2444275679372
42.563915166009764
-76.70866335380819
-551.6089780493841
177.4854271534957
-86.8013485575562
592.869633872696
-1863.3577688048397
737.3701817628169
-188.5732680900612
-1120.3422353305352
-1837.0078094379876
-180.17651376056898
398.8368121156876
606.080553221373
-4285.634472684777
-529.9526722664394
8.324964668431363
-947.057768180444
-17.45253227894687
3964.3443904871283
-621.7878564410134
-2088.1699864085062
-142.62531880237069
350.90810045430516
96.19367982036299
-547.2913228702391
-2326.5572188538326
-52.83730167902881
501.2183393917901
12.219136006370183
793.2836269805075
360.3039649988172
-8.117606193275746
1130.7834743324331
-939.4346741375019
-742.448195624452
476.27789030471894
-315.10671900926116
244.06636048442496
3.092994053073204
1.2753839666784779
-0.36956956111787764
0.66349578435999
-25.589181331052213
-298.05365077629045
-1313.511482667401
-668.4739108487822
-42.78371712174953
1570.1203526518314
46.03103258759614
-94.56203231181054
435.71432672613696
-1511.549058269673
-5057.804470098625
306.405356945469
32.80429185616346
1181.7563033117576
46.18895420996836
412.48915037575773
-779.0145459375274
-3789.940568492822
-2143.5627280113667
-6563.358476903365
-4948.114438443734
-675.670367446563
-0.14499377382392636
-1059.3279763921694
-3892.4844627477505
-3710.5915359736678
-3564.527211018536
-3683.8079361114105
-2812.6334105971637
-65.88634351854222
22.81740366222786
-1675.8395314948855
-2889.6300558614557
-752.3967936569164
-4644.5335715949905
-3113.3861220449376
377.85793299658945
175.06203804380337
-40.454099992033086
-479.3401797065595
-215.0340998076765
-112.52191541129893
217.66595405874457
366.83452272111487
-17.886545191608597
9.856253995586385
1.7516850211105346
0.8681240045919631
0.21935464272693037
515.6663980487971
534.8649313259361
-2781.3703301335745
-1599.19338924819
-180.5661219497868
-461.9546716174512
24.005733008212317
476.51475726713903
3490.348462789982
6836.9748161266925
1295.060743620536
3383.588839301123
2354.8373798256216
-265.283507839095
298.1230174288539
1359.8399217023423
-2520.572040787474
-2175.1395659406426
6804.46910415001
-1024.4954826825892
-5888.711405792713
-1700.4727256770411
60.334651024352766
-2972.9972358940577
-6626.2274257645995
-3864.1714807748153
-3191.7257663162595
656.6362944000598
-2072.8766758006473
1567.4373357624468
331.6147648828389
1434.2334981096692
-4010.324115399573
1313.3620792154973
-2356.6312754502933
-430.332949679628
-1242.986727877303
39.95214550159782
91.11342305460607
3836.1855169430496
910.4491568204039
2788.3241661506454
2329.743282091553
1217.1041104355759
-673.6801730176228
25.65722401116787
-0.2064910666959002
0.12063544384170828
-0.04370771593772006
-64.62456643227206
-533.2007532573864
-790.9107537410115
-587.1182231653588
0.1252006566797271
1782.0771042995998
23.232779880410448
-92.94478977704367
623.7674396400892
-1755.856547739234
-8444.591500072846
2028.5634914954817
551.2042516412947
672.1985061478443
60.15109987624828
880.3648638929607
-489.7556781071683
-2304.8778154637175
-726.5498234972546
-4428.331789641438
-3385.3342688806133
-334.40205216216384
-4.499576336288804
472.79792204310047
851.5035622082838
91.50360677757033
-1332.6313273921096
-995.2106725265202
-1173.5966852295714
-721.4175993230967
-48.02202443256152
-1560.7725400081683
-3544.1602263795853
-3265.5079766429703
-2014.9598192405226
-951.297713061739
1979.9472991176476
706.905627202484
-77.63565016250266
-873.0316317461928
-299.29525161717703
-1037.7020823089229
-1643.6978091163392
-1052.4486348149564
-341.56611778328397
21.201951748817642
-1.267326103376071
-76.57140142987664
-169.24530147642628
-213.94352877328288
131.9646579553797
-16.627896085768427
-554.0490760243196
17.940568091544
-498.8228421604998
426.1249520942549
90.39106519605905
-76.98161118720535
75.5365894310131
127.04864068096101
76.79178249199545
-153.3607113962736
-108.14328182323386
-111.5452315663807
71.30077118130363
16.756066869416575
-15.31845716269392
-151.72971654679827
-138.03452647730052
604.8421938990319
-305.0772739475299
-29.126895494278784
-163.15042449189352
-201.3422926256142
9.516852041580213
19.327422675395663
-267.5142246721224
13.567159385950019
70.01336174990195
