0.37228081235822263
0.016637843470306026
-0.5114460385131431
-0.5402459696249318
1.2209793921536227
-2.3950014760886504
1.0922230324839743
-0.9954475375291252
-1.3944293908202752
-1.0590916995983422
-0.9038182788392274
1.794972353049101
0.02666145174591636
-0.4179046401017981
-0.49740823373257
0.8856191706105305
-0.21403041007794218
0.35166705559951805
-0.5019265930763306
3.0804537696164522
-0.9108053947648258
-0.20815685066583395
-0.90065241078261
0.7329804196605015
-0.3081394581272114
0.6241742705703724
-0.06855989041747287
-1.015155588420642
-1.4872546878386563
0.3827947712671214
-0.7791387055068091
-0.9464834713803162
0.04413203626383332
-0.7944777592142933
-0.25891936971418117
1.157458258890202
0.6157084881900486
0.061818977697368306
0.20087767520637612
-0.7429175160609593
-1.4182658203920304
-0.9970370309118759
0.3031090006962235
0.31597556837745194
0.9796643798360811
1.5577207755106597
0.9410142015704954
1.1625668974051717
0.4079600038880345
-0.5461580557311815
0.7447767167035027
-1.3650496795551486
0.38782115090274566
-1.564064613897798
-1.1966986330580822
1.1916891125678146
-0.33152248543477986
-0.834022545263631
-0.1888213682452674
0.20999326718067332
-0.6897246643520922
0.44697862424115653
0.26011822227187104
0.6906250919857239
-2.0180827551084763
0.39422022908909393
0.30619999086112465
-1.4314604895429102
0.45276851883232944
-1.5988059920099247
-0.7159573205525472
1.1989516448914466
-0.579667818423756
1.5501276521079264
-0.07717955461597156
-0.27940548039612145
-1.2074489363252532
0.8451421343027998
-1.0320961298806934
0.7087423451300323
0.8549058158695958
-1.0636076138832509
-0.16996560965117738
-2.2913336445143444
2.377716043445436
-0.16437789956522234
-0.7545026244149322
-0.2759580209009459
-0.15606058287613145
-1.3748299442147147
-0.41256266130437214
1.2796445336183893
1.0009004541853113
0.1317454954419583
0.927785756675109
-1.1837547444702794
0.3474467683716383
-1.582101527699907
-0.12044214596353793
-0.901537070460937
0.8583447159343567
0.2499387982028151
0.8620379822369747
-2.128712404035144
-0.6958348629237556
-0.3014449578341035
0.20854300654285735
0.1352589252524976
-0.9785107644055796
-0.3773625132436595
-0.8324909121298998
0.03911178886968634
-0.26697984858583146
-0.2763265912952662
-0.0014833185528763929
-0.20967605455686184
-0.7265544651628326
-0.5400814424251758
-1.361886714748934
0.4837027932655152
1.0767070237173006
-0.045313948682381526
0.0629352694669241
-0.3512515283547974
1.3565147997061875
-0.5704296467938681
1.4291621865756374
0.38268274210062414
0.7750992036554493
-1.7224034393028
-1.9202083603655131
1.4666510883601342
0.7553973615006102
0.47442944889708044
0.11208310729760632
-1.01596378760597
-0.22215464976836596
0.6126967500995579
-0.7039709485579605
0.059976631901780354
-0.2868635557599576
-0.9702144119570513
-0.09091321993217881
-0.8556630487569475
-1.2056545261991127
-0.11393608380586133
0.9710428300739955
-0.3789282461000227
-1.3572513909998625
1.1658648232750308
-0.7205528901686141
-1.0079861349898467
0.8064894518901325
2.113421355318743
-0.8264106582495967
-0.10263395283918854
-1.6446299546596288
-1.390681308663633
0.9070802468510548
0.6101127269853387
0.768835392088877
-0.08307047843356899
0.46798434942068595
0.29814026984134756
-1.487113714913344
1.7576806522056232
0.06517034887743788
0.7945337879594035
-1.7160716595111973
1.1867650272529147
0.15015851734539998
-0.5195440264648787
-0.31334423958142166
-0.6267082523703423
-0.39594164038010443
1.260216924806797
-0.1921409689452518
0.5604890576984778
-1.5093454718950567
0.10221393714450915
1.3565850072146912
0.024164155937192178
-0.7646689190808338
-0.9453399908083435
0.4416753731572805
-0.2158511207284203
0.6315644323399238
1.8715241218558465
1.1875766908842116
0.02735536627078298
-0.8219192259413194
-0.12006061295515841
0.8510344304259662
0.0742010297777906
0.8425647740005797
2.2893895009484635
-1.129311094919683
-0.3340486237276959
0.19337221901650903
-0.5063181889933354
-1.3287457722003368
-0.01880716357039619
0.5876036087437363
1.4225115590206285
0.3903401847975304
0.8122520878228001
-0.5315267966938286
-0.9184557219600998
-0.6474210426446166
-1.6258076999094528
1.0137686969444952
0.04713007119559259
-0.4694662643621985
-1.0005735419131028
-0.010319658531023004
0.9552459934513832
0.4781460841833824
0.9994484948512388
0.5517751402362119
-0.208826492093884
0.4495191997281002
1.921652046781413
0.7733140651264342
-0.6208535484675399
1.1258580603755834
-0.36901430660209056
0.1605804342625822
-0.9238488477583704
-0.6359242597823365
1.4348536989035023
-1.0321569989731503
-0.010742322117929949
0.08369474501145423
0.5935614680043867
-0.3934430644040328
-0.10602702281247221
-0.5366653836503495
0.15624416428562787
0.8405360826511022
-0.9335766007614735
0.021151799716386237
-1.096499654746831
-0.474181081369626
0.24109617690552235
-1.681937161907347
-1.3182622780620237
-0.3273540896582062
1.5049985803889179
-0.23159744289966272
0.8774497575737226
1.0784626597040339
-0.9499099949714905
-0.8125943881156716
0.7659400990861183
-0.36987894916797937
-1.8531424900474982
0.6609899120847846
-1.3685764468330748
-0.4178515982127623
0.04291554978026444
1.455578774159936
-0.1645762117341902
-0.18848557969052207
1.6867982248355413
-0.8662873791573471
-0.398801838904408
1.0453206385627218
0.7974673020078704
-0.7019617700038072
-0.7900199708591721
0.2515065484624779
0.8411474757992881
0.19131082633909616
0.45370178722925175
-0.32173707411781
0.2954808805227509
0.8513800977084962
0.21951893933005143
-1.139274367548563
0.791040267627441
0.22396313038126053
0.8136221387662054
-0.2829045754917929
0.27501529949764647
-1.1380102220836694
-0.7608908195952915
-1.9846017422501887
0.5159190709097126
-0.56081926981248
-1.0514027580150038
-0.7273835092016947
1.1649895412505262
0.31002829634204254
0.45550624787978067
-0.20313873586463704
0.40448391591181704
-1.2565828650760942
-0.28668236089443
0.6278170885391857
-1.4738695767443917
-0.1533441708398701
0.47758190665000066
-0.8135023315167311
-0.07079985537351748
-1.3003295520444378
0.3421342448324125
-0.31172561443543
-0.8822202005649175
2.1730143806424906
1.3915218427552685
0.9693863485254709
0.3222824503939581
0.05382338908374916
-0.131973840328371
0.40388696028790033
-0.08831662676739234
0.24801750809250825
-0.9820005466365335
0.30075512046945824
0.4682318121994823
-0.36198933775603487
-1.4649648401592363
-1.0163701168977095
-2.212108598875991
0.7248919048777349
0.5491038859822112
1.494567455291976
0.5413163257659938
0.4670686468923599
0.03212119583252724
0.23416655933153568
0.9785938047732559
0.8201575096087854
0.42715901331390105
0.2512929715953634
0.4018914003046492
0.9207794838376147
0.5757819598108467
-1.0427547034668514
1.7386170897006024
0.973623906179078
-0.25296901400799543
0.8792634028237782
0.08555633767893332
-1.050910683806119
-0.37513961104566684
-0.3230485039222139
1.710492872964703
0.38407736748935345
1.446217053958244
0.905110213734399
-1.3432605266732054
-0.29960946322483756
0.9296490306513701
-0.047359797663335916
0.018909490494451165
0.15977942366438633
-1.0699351171880678
-0.8132872534822676
0.6174591837805206
0.5394878475052765
-0.49932076782308477
-1.323631146047868
-0.07663429727041655
0.17007434324758247
-0.1274416168075604
1.0849752162885145
0.7111735395054394
-0.6915272364469764
0.3663309080688224
0.28806463579333424
0.3837553806157126
-0.24169224165762376
-0.48948004496958075
-0.543466693702316
-1.1632483887189227
-1.1748582447309306
0.41247038219449406
1.052315688418747
-1.0183440756465971
-0.1818947193723262
-1.1592381191453054
0.7448592133971184
-0.01390893143353009
0.6828881071399395
1.5893212895089428
1.9031105559967911
-0.7792994236384575
1.4918255681429953
0.10378895619056407
0.4919688942735392
0.753208676889079
-0.4451258459023472
0.23923515349000044
-0.2395805484787128
0.41098303869291136
-2.6924194941809754
-0.0134789777064876
-0.4793168600061534
0.28834703981770393
0.09188656944193042
1.6806660778953586
0.923010252033887
3.093439310935808
-0.5432740146603283
-0.02527956696855125
-0.17826684004763182
-0.865162055191022
0.10201377604904192
2.1439410257759004
0.4932933747299814
0.2102838973802493
-0.47275582999102284
0.27525152038900985
-0.30149238238757936
1.0161515290853353
1.3403852754811425
-2.485653973090265
1.0717854884187132
-0.8863900151877733
0.34280283234182246
0.6261519129712991
-0.3818192734580973
1.2937580803434612
1.4193874318340727
0.6310117510994473
-0.858457502652727
0.8400777041795672
-0.19170330456446205
0.0025515475537221514
1.6190047118329542
0.6262626306548364
-0.2597826198813478
0.19523651581831547
-0.5160588335756718
1.8845509448752733
1.2426890037569114
-0.651085255921633
-0.6430428286648971
-0.5397667671836263
-0.30110448545744223
1.5074502987211118
-0.8290559635046718
0.4538251684141696
0.9209010208679181
-0.14161062295569712
-1.4110313100659981
-1.1057226660198567
0.691215219499823
0.8649078460286721
0.3410438102229709
-0.6811170558075471
-1.1434936648907932
-0.066818085854775
-0.48893459152978663
0.058183577483937245
1.2068166060209229
-0.005284021883178052
-0.11252346919953986
0.9717623614849644
-0.8781456703991597
-0.28117906500176065
-1.094659973948757
0.857963638759552
0.6212604535291141
0.800268592173581
-0.6404097098369096
-0.15537040930352136
-0.18399750762673425
1.4536784727370893
-0.48673248622640597
-0.7685770391779722
-0.651708426841797
-1.0641600563227802
1.8277449128434684
1.237047153305825
-1.3083473063521511
-0.9290753576558637
-0.4016550726313078
-1.348376171236266
0.9660889952090751
-0.10502197049295325
0.01921708879217267
-0.4619521301777303
-0.8377624809440344
-0.4025824806746876
0.12270165840664071
0.528443061851736
1.6627559189200627
-0.18084514792481718
-0.6689763798419257
-2.2430974556436496
-1.9083326013346809
-0.8197331189060342
0.685918597898024
1.2525778541232822
0.499283363422233
-1.3446531861516164
1.1063656018187538
0.28177132713790276
-1.4014048537932184
-1.3448801366481942
-0.8531197790114835
-0.1499810834745446
-1.0508681654027108
-0.9070090641691495
-1.319217794944769
0.024951824510014473
-0.287175721639393
-1.4880150176147358
1.181587744812218
0.2921486269238573
0.19101503262727046
-0.04838505135749081
-0.3387201348416739
-0.08406149649512548
-0.453258266758277
0.19364120471513038
-0.14726184072377935
-0.5811043503003924
2.4979972564794664
0.9346059251480152
-0.06983045328365116
-1.214333418184005
1.0096850348089335
-1.1619776393697827
1.4403104788668928
0.331642994705937
1.633413354217811
0.7803618031833625
0.10121181835366576
0.1220935926422655
0.9946912255571583
1.4134728789644788
0.5840766615360152
0.07733383014657959
0.9997015767439474
0.07123883804545009
-0.9698868999743954
0.34134996424807806
-0.12606514053689574
0.21460175251406208
-0.28963094520932864
0.2931897745229553
-1.460342278864898
-0.7054921726949615
1.97448202991848
1.3513296897225642
-0.20662159659705565
1.9565790049053051
-0.7830931188364816
-0.7146600986432065
0.4916003518065325
-0.29373385445962075
0.7253604947084223
-0.28866235189800804
0.7067649588404746
-0.6041768738196788
-0.9473560793829898
-1.5295375879205235
-2.689587288084525
1.2645348985063132
1.1571649184645134
-1.5341999976938485
-3.7705042229482832
0.8559052404359028
0.042213854236371334
0.5172652648542055
0.2910226771707205
-0.29311209610606387
-1.9341491450070203
0.7564614300694303
1.3396437410548752
-0.104170632001255
1.7606059535403646
0.9689172798969754
0.22627404474152232
0.8124609240673044
0.16430478177524468
-0.4930600926854421
-0.5479142200553936
0.12006663399331846
0.6721385091593645
1.1229576545937179
0.3110608643651993
0.5731983947727373
-1.0778409684833337
-0.4811919746846471
0.045893252149257616
-1.285783291238611
-1.1684595395729485
0.6218557542629554
-0.6573874400312235
-0.2735321206151527
1.2084300004483783
0.8426290953569624
0.13366439955339512
0.07332875448899863
-1.2593424369753135
-0.028736014686954792
1.683085028340104
-0.07262521466836834
1.0665993561017655
0.5792701916494372
-0.23965605833772943
1.0727390901166303
0.20501071731203876
0.8843433415612029
2.034397973474436
-0.6316278907562421
0.5596330564944706
-1.056422742490417
1.2080470526351106
0.8896037833443411
-1.0820614519799827
-1.9739028915537302
-1.0256194301092174
-0.5856744440842877
-2.187630647155562
1.5145855677902005
-2.6627867234154894
-0.09706866254256562
-0.3064031713873439
-1.896480938281517
-0.16602109964228481
0.1292792145420207
-0.014746506006222874
0.9926771818590095
0.6607592005136059
0.5237275538453123
-0.8017874837067488
-0.6565341349413287
0.34568228816908614
0.7188222228065677
-0.7886830522835783
-0.7081178600309216
-1.9930691539300118
-0.8129945536106402
-0.5639835904666242
0.8387969564387634
-0.3891520583509678
-1.4527082086828425
0.5753585032376699
0.4149667113278597
-0.21268612686504257
2.735207873274821
0.2199421279886613
-2.0049479633426994
-0.8111504910819157
0.6214985102529865
-0.1931104989948322
0.26455299744384186
0.7711872285488378
1.0973661003774944
-0.3018052757785529
0.7460741731106585
-0.03526292716783845
-0.23362448767996202
0.6014695255999615
0.43062411704977993
0.2918048891391079
-0.27537771614543827
1.3330263750146965
-0.278446771656529
-0.20926864294326486
0.12625189933046585
-1.9564889952582356
-0.20946109693338194
0.5752897975262756
1.3478827926110608
1.3495436221159962
1.496004160780307
1.4225455342277746
0.10186322036982255
1.166612992411916
0.5041270971308656
0.9206008960021047
0.9734063077216991
1.928567599772558
-0.3121538040230953
1.5387068831967474
0.4455697828655826
1.4889357897173123
0.6666365174499232
-0.3692460289021061
1.0350719563811355
-0.1715455648486836
1.273364309044101
-0.8280381612502992
0.43256732939962755
-0.9280392364073613
-0.10245169964230981
-0.23717624324793285
1.0501369632361925
0.17471199334712875
1.7166583098898032
-0.1457074059294745
-1.2627534374161138
-0.15243377586106152
-0.9590894464176751
-0.006870479208117013
0.0978816375831451
-0.5548347591489622
0.5214161288095363
-0.2677583055906957
-0.620043744645449
0.8575990568379274
-1.9812234931583652
2.152007793737952
-0.6098564272571096
1.467465244923135
-1.1160750686139462
0.48132238834010616
-1.378620343399558
-2.3702113828047717
-0.9980278258457354
-1.0695432587003544
1.1754433962684163
0.713421926632019
-1.0993637600911634
-0.8583826395123879
0.2621081362287948
-0.20670762797426917
0.25854412601730425
-0.02584689607526411
0.18441262272778428
1.1440716046877966
-1.6349362755736285
-0.839238637286725
0.9783602276503377
0.16493462077926277
0.8854043745576765
-0.28912852236497777
-0.1334475617060226
-0.06156920473220973
-0.8074882628609059
-1.934906297662877
-0.1647896650412713
-1.4588537842615854
0.4827380118425238
-0.3417832718744045
1.7812277068348572
1.6046236213749423
-0.6216122976540507
0.4112430748700013
-1.8548478020538106
0.166711776245967
-0.21420010785955562
-0.020915069200113275
0.07939456619401093
1.4595685901541688
0.9936209069645364
0.8770094834883411
0.07726736161467447
-3.1095855800383614
-2.2718366199809084
-0.15779670046128744
0.9504550184572411
-1.9951106795851716
0.7113998632333447
0.1857202470960817
-0.646372304428495
0.08563148480769874
1.4078787413553373
0.4045905771972945
0.4696683167983124
0.03377271954408705
-0.5245599059718259
2.7078838500521805
-0.4389858082724366
0.18406038016730977
-0.481594668591287
-0.2635639055316231
1.0154782353707357
0.6462738007772533
-0.553482665434626
0.32610786361144406
-1.1641915075895586
-2.2448673423178356
-1.5314679849132828
-0.645993067342437
0.01674397343519556
0.17579577932206622
1.2415377069313684
0.594462567505677
1.9067573815123937
1.6184600094451151
0.4004849238730978
-1.5100600735342733
-0.4091268995007619
1.7956084357661095
1.0203617325930647
1.3359885006107322
0.33316575929701353
-2.279354714881591
-0.6722834336854674
0.4241128955951041
-1.1935307413931688
-0.37314824154276977
1.2651658265927972
-0.5134482037922715
-0.9113081991237378
1.8319107964353187
1.3618468290354935
-1.5480304341031281
0.7824911968888258
-0.623794821519139
-0.7094672422524023
0.9747323754282794
-0.6580987121325256
-0.24578280955146084
0.13662780140595351
1.8296247063726456
0.5964403270295636
-0.6204787824189754
0.37402762191482497
-3.3667412917127195
0.002417614800690654
0.5332185268811224
-0.6294045177692186
-1.4603930444289246
-0.18206164126593163
0.37190520893232293
-0.3663239965088705
-1.9382469057748422
-0.3416209816948029
-1.8063855811930019
1.3013204541766792
-1.0713002434269603
-0.16195300325146408
0.3045562097533983
-0.4938385870521819
-1.059236601532858
1.9410021603557812
-0.37076028552225393
-0.07598324185719009
-0.8688972011724757
-0.24839693127923032
-1.221799734626949
2.1984601791573932
-0.9486318201491307
1.6683395475397798
-0.5632813185944664
-0.9978621201440899
1.3231243627880458
0.5953990314908718
0.0532642569310316
-1.069990009403445
-0.27792261484443725
-0.6743011596091281
0.2481658046680456
-0.4068301704331513
-0.6376848472604139
0.51421620700489
0.6104049664833647
-0.23551539746315486
-0.3107395995604855
0.8631487652124824
-3.103705672933747
-0.11036585826125965
0.419444830678242
-1.4870176257013108
0.3604858299131761
0.19809931717090795
-1.3864212920555956
-0.022813032276455803
0.13361795530311682
0.2026319902968881
0.2562074061779273
0.11481676907065301
-1.0247111954925998
0.9533538239312801
0.2664644213526711
0.41110003133941514
0.1409082679921384
-0.661106221201614
-1.4876314478825685
0.9995207335950443
0.5059170710007265
0.9379997761327187
-0.5411988078735522
-0.7844226799895737
1.7876814644234127
0.10410500782594292
-0.45050565012643573
0.3763130569944879
1.1562069267610873
-0.5207144527511963
0.0017676465455372012
-1.6618008251357745
-0.5907087764787899
0.2260866465192414
0.26212769222200805
1.1781030103826045
1.0164812921211281
-0.6664326350210173
0.17157278865268055
-0.32372473892607107
0.5877401134077095
-1.4214669364316934
-0.9691973812263196
1.1093721756120822
1.5839373164244424
-0.5752146937066164
-0.5292502403773988
-1.0407742195320906
-1.9912762259439392
1.035314614302922
0.11236356899922269
-0.37765095032809887
-0.03909566411259881
0.8285573842669233
-1.927616096750004
-1.1945394688262603
0.3767232982653436
1.8563330550014567
-0.11788667911797951
0.6255563665178552
-0.07640121949587833
-0.24009297021113063
-0.6699027440625424
0.5650781389329592
2.385727645034341
0.35183840937356375
-0.6959582851020282
0.1776876896401486
-0.6183100548406198
-0.9254906245724156
-0.32173587617325705
-1.5600658693053562
-0.6454077977699343
-0.20335534300654076
0.8752545571030169
-0.5354365315828548
0.9694574676147293
-0.2835398726132106
-0.8301106603990809
1.3368505297447164
0.7177362462446076
-0.9628213116142652
-0.3849090192318749
-0.2682617900630144
1.619149335746402
0.17005459184031654
-1.3593378421416116
-0.4463473720301271
-0.8577102528151276
1.3067296298777142
-0.46965158008445224
0.06908714855278848
1.2145700155531525
0.3411153987844762
1.249751391825481
-0.8529580844896832
-0.5675833695722653
0.4323430093777887
-0.7570667685845168
-0.26466418338063274
-0.5865181849387414
0.3423085410564592
1.2272690993976418
0.4224097462132035
0.44600646689464213
0.9035139170836096
-1.3097028550001997
1.9770820972904801
0.31477976684976156
-0.5702146456649905
-0.5603095135677704
-0.7497369753192059
-0.36876344299557756
-0.5073031269312925
0.7513371459240326
0.685606489512077
-0.18067781141244657
0.8249585147310887
-1.0088140468566753
1.1825002662257418
0.3089808744306111
-2.424692993681957
0.15044428324661152
-1.1542863276055206
0.22640706835999713
-0.8595473346046839
0.25272982411778633
0.6624934346813179
-0.7738004399537307
-0.28178981882991005
0.13102272551558244
-2.0256205528595768
-2.0244885484800443
0.5553745286193011
-0.659357144106853
-1.3406370392218874
-0.6135616310285034
-0.3112919673376685
0.3354623964896371
-0.2534595360956124
0.9024467957494398
-1.4327426793136813
1.8128513505060921
1.7368265159485412
0.09160314507995626
-0.45312921298311937
0.6112350653657095
-0.02915888143908196
-0.5818718576595133
1.2406858824902054
-0.37878651045004624
0.6024118238862445
-0.06394551564463573
-1.8029892393809621
-0.9453584068635764
1.3413065133866566
-0.6372770839849679
0.770809223366394
1.1931558891263223
-0.40161237271340516
0.08766247178242019
-0.19550499413858247
0.08465255789858132
1.2077419609602733
-0.9616892116574327
-0.01834483376205133
-0.7835148815483611
1.6532614356164677
-1.0293783929790339
1.0834252494290157
-0.5886332674508781
0.14894897575494503
-1.8456746452708321
-1.6693214807641175
0.09136819803619242
-0.2975111064557136
0.345655312780377
-0.4853612494506211
-0.16750111032346524
-0.5084769851759123
-1.736348320391628
-1.8259536327171684
0.37964351946459596
-0.7767658064771196
0.5234656073638823
0.8804054957557826
0.3439030463841109
0.1126313410745192
-1.8180206077131806
0.20301446484820188
0.8508004401406284
0.16983160678967454
-2.0872061262965538
-1.1115236336783487
-0.6413201929370389
-0.029208864876594947
-1.6120497317911282
0.4499357889938891
-0.8364290349248215
0.8361768814705846
0.4888864786845962
-0.22856673913807057
0.4595256381242091
-1.411551751377381
0.0685489075618459
0.026326964083036336
-0.32325012699869204
0.006708769435021366
-1.3678424996186476
1.1523877026283558
0.09623859463807007
0.9794598835181468
-1.2302476260834725
1.1584981289085747
0.3214324368947243
0.2762315210034327
0.37853092419777334
0.7725128053797644
-0.3379983711944034
-1.1730494990396954
-0.07533617496120891
-1.8642462151846706
-0.6027482234060477
-0.8161679140896725
1.978274396866099
-0.5210769902146772
-1.2008611502542117
0.047355780596594024
-0.44145266868796773
-0.8504543601587033
0.14851026812980841
0.0914530798717178
-1.138331308362147
-0.6894426735529342
0.4209114745726377
-0.9346371165831256
2.0706522655668067
0.762059632059442
0.9197242586824362
-0.24929474545611535
1.0653074351803857
-0.00954037553060829
-1.1203630242050786
1.009487666319494
0.6959904082600755
0.7746214550542726
-0.764459843224805
-0.4286892557462051
-0.2490542229194813
0.30047845672105833
0.5719681652076616
-0.9710952019545698
-0.18061084947004546
1.0370180409377268
-0.06832981205660388
-1.3106974512048255
-0.9347465723825094
-0.8617973663392389
0.17318811872327586
0.21179731645845126
0.31795134644691964
-0.16936118118446009
-1.762425237319364
0.3406736397884468
0.09194963874888415
0.24948892639597245
0.5237858888205391
-0.6211015651006861
-0.02065540563095403
0.6794460499426292
-0.739112562793648
-1.7264321883115161
0.25446852839184964
0.061347854121433114
-0.08150883478387273
-0.2475679115331177
-0.3406003757929211
-0.4800641754114829
0.21088225598280302
-0.5667303291957163
-0.4774562209788388
-0.7978121583423106
0.05802787003391659
1.1405646751344236
-0.27251669593018524
0.0762780824094265
0.8479874165459651
0.45099510002788123
0.32958487529804764
-2.240087911212294
0.19693618322729234
1.631294375700201
-0.6776826146604
0.6476067487360386
0.26166408757707216
1.5361489405273014
0.661440350369467
-0.22871332140860634
0.26545388969802947
-0.27755019226817146
-2.184193868000393
0.09272662765888741
-0.9171482125754696
-1.2286116510122864
-1.485446816140065
1.5435908748181453
0.9944287365150514
0.03536119587197221
0.5115023800221327
0.5800271141697112
-0.20314582040719728
0.9960426914347262
-2.2369265525707362
-0.49762141229751206
0.41793216862542415
1.1630178066403127
-1.6182414134546517
0.07547090856655872
0.8297776615434377
0.8967480289150387
-0.49877785666575497
0.5729954568778342
0.42978036138692893
-2.394839618386947
0.9671101852747623
-0.8718838944174921
-0.31757856205556917
1.092307865348868
1.5150653241134686
0.18867622536008347
-0.7841577700382819
-0.6928320562237996
0.8675221989602232
1.1978024724111285
-0.2281994506261696
-1.2807525313563572
0.49917852106103516
0.2960391341859389
-0.8370100032251357
-0.6250148451346919
1.3988570982527297
-0.42468460098191113
-0.7827884951579412
-0.7066034361021657
-0.3178151015160487
1.7123391134594097
0.22192516639339133
-1.417963685225325
-0.9301866343616586
0.21299637542758487
-0.8437845956325858
0.3384662486582367
-1.3494834131242415
0.5572247289388818
-0.5191753899636385
-1.0315013760928833
-0.14729294194980355
-1.588492060117241
-0.7723604729440353
-0.29093226135065803
0.8072452356403982
1.2247352819541566
-1.5561443999973164
-0.4526206506346613
-1.2656543945250467
-0.6570067040651627
0.41839659388319206
-0.019370476430459395
0.9451598702696145
0.2761215768706152
-0.6896139401713804
-0.4280829064329957
2.11853546802457
0.04211731992714713
0.10750872166028737
-1.4506794541109014
0.48564143289804707
-2.1811880942660142
-0.021919805656986563
1.3923230628321766
0.2991216507301412
-1.1565990117179135
1.9950304812820896
0.38732231505598513
1.2861752123330756
-0.09485579081909667
-1.6269319216175826
-0.3664576176329373
0.45951734322114884
-0.3053267197349857
-0.6021988392766763
-0.84261008283986
0.19615262745215625
0.7890756183971136
-0.5293577356365945
1.4168894572302972
-0.4205922445501462
-0.5125397681987581
-0.132815507973586
1.6266133210234195
1.40645497260636
-0.11397322158356524
0.20851043037291173
0.05611863374432215
0.898633145629235
-1.0260858950832217
1.3830641282641143
0.5934092616271329
-0.9472744864444271
1.2618866149427372
0.22159637767932983
-0.3882738986811171
-0.5022818007525566
0.45824052873586146
0.6865625746982442
0.7375316797534351
0.8383090393971734
0.3046707792061997
1.0174438784775928
0.4760765674703077
0.6022769244033365
1.1258166611641354
-2.38163967014765
-0.9484429081388707
0.29221569793580665
-0.31177011799361815
0.6985731398475112
-0.4337002418866853
0.02238003729150651
-0.861297355338951
-0.4196643269517467
-1.0161838480715348
0.26480451443566544
1.1600129891996984
0.5050213417935262
-0.3466584209560946
0.48116513948763256
0.8922490911922489
-0.0013780154441009745
1.5723311191178295
0.964303889402952
-0.5739166497973328
1.0264266870380936
0.26147679275443536
-0.14607655181826362
-0.057631465995888455
0.8946836372261909
-0.1617691170162491
0.8384181978461732
0.9219610107277972
0.3148699613651379
-0.7389019869118029
-1.2806557001596395
0.7621346091833588
-0.024288916474477146
-1.9350046209051455
0.16903595854821457
-0.5790979424276825
-0.3611875610556152
-0.36952210778744865
0.2059682567685029
1.0675849089572826
0.3659590560430384
0.16671444514757935
0.30235878525541565
0.6415806791500922
0.3373486905292033
1.098061150049801
-1.0790705248265544
-1.631388040237014
0.47233577039917973
0.5884470297522804
-0.7399852605842112
-0.2626281165055327
1.0895694346013916
1.1309264918968422
-0.8244444621454127
-0.11540851606893611
-0.7363807557705427
-0.825738783314293
-0.006515351887825942
0.27210910716868836
-0.36453870738689864
-2.299737171393666
-0.7702659217664182
-0.13981354772693733
-0.43958288089970016
-0.9570424618071736
0.15601453345002833
-1.104363694417468
1.203954939336162
0.24009962648884248
0.11311103741608777
-3.0842893230807644
0.8250899913212104
1.394244978295552
-0.6933294736581644
-2.195375082927917
0.3932044766943348
0.7557570516710314
-0.6258864079125342
1.3820674108758686
-0.6957582780474784
-0.7910248469400357
0.312364352533375
0.7703192747354969
0.6338990384865272
1.548130335110553
-0.637381947408089
-2.142475113229617
1.143259583199046
1.3087900011043798
-0.9640496622712532
0.541675450385377
-1.3109166571486006
-1.5140244056993954
-0.07753932888117077
-1.729359697555977
-0.17024417735288294
-0.9555840690456685
-1.4648281244899055
1.1834896233704817
1.3188537147852688
0.3799314912586698
0.010130468911585588
-1.0436672862644816
0.5887476202440567
-0.07866134986968251
-0.2493252393553219
0.8316467345495232
-1.1461856365760186
0.2662713395295233
-0.9357827203874226
0.02959740634511583
-0.7531711651030212
0.18615465868762535
0.9420602234089887
-0.2949894574364365
0.33889542525557886
-0.2934596175568324
0.7303232500826572
0.7290387900461026
-0.2800788507684768
0.5661781930607591
-0.6169868966845863
-0.5960190122825569
-1.1994698615376806
-0.23757299523171052
-0.1449694186848814
2.285710715703343
-0.19031762892236506
0.4207940937617888
-0.8128769362484644
0.07922141819224002
1.5804717802861767
0.9109029630931309
0.4492893060187329
0.5365986283361376
-2.372717565339435
-0.40160575301697676
1.44788733744991
0.04050772135192083
0.07377253527510459
0.9464590927077817
-0.5896652903179259
-0.04281653168909084
1.0786697959452756
-1.1927606389800232
-0.969336234325089
-1.7446141606943808
-0.37895482815593934
-0.705639521847679
0.020697122678505844
-0.1429099492882242
-0.0643380393248855
0.733466470698505
1.412623226080257
2.307729723038134
0.8086814984319942
-1.5125857628205857
-0.539612636245925
-0.8215692033263436
-0.9337884372468254
-0.5269507898399797
0.4670114419875299
-0.12144399592444546
1.362328776989798
0.10733377589442626
-1.1570337838166416
1.676235282973087
-1.6063485093986343
-0.092615561162901
0.493757155874478
-0.30451872620325626
0.6237236691459594
-1.0467538569248585
0.5034586695290121
1.115475828981394
-0.7962275241506812
-1.0000600123379368
-1.9284180747684219
-0.9398302412935622
0.008198821798780863
0.27732829796678843
-0.05825990542433836
-0.14129829405926714
-0.15244751916640148
0.23162468414706122
0.3763686737519539
-0.9388738832885124
0.983739908893303
0.6089219766790819
1.2176463483432245
1.1929971105121666
-1.07823769062231
0.9965160018527085
1.625877187879965
1.3621372216446246
1.4716436995047122
0.37660710168298334
-1.2385946586647714
-1.5083322217902906
0.11070966700362257
1.3936992959469232
-0.8109488178995138
0.5842611316258238
-1.3013897895997506
1.1717633749901142
0.9144879494646355
0.6057349403786981
-2.305941917918338
0.6918019099266478
-0.6887427530104732
0.5953154364110954
0.4136229802194582
0.909786789853107
1.3848906247939603
0.9562501003307782
0.257187747483776
-0.030378941718081746
-0.17967429311956679
0.5417363939053127
0.5625265107359488
0.5389988001098157
-0.5175831241050558
-0.20288781902026765
0.3303794726658591
-0.8370977656241915
0.2502328439167626
1.8320845028227557
-0.4236386726839807
0.5268739169465889
-0.7526646902622075
-0.9655961019568277
-1.215900087819473
0.9234541713233843
1.4508672164738854
-0.1868594952163899
-0.6994956108407621
-1.4658414200002647
-0.5402345579496002
0.2473830716501944
0.5042791471805598
0.24556063959716268
0.34578960611474674
-1.6881684205934144
0.3396817428852898
-0.7688809563360102
1.0785676547859253
-0.25063859983248354
0.5941782850692691
1.178806143965757
1.5081796840062702
1.4110412075590695
0.2762958258604917
-0.587710745402155
-0.7328777539071142
0.8265032103942905
1.088965483981843
0.35543040159072303
-1.7670836269425851
0.7063815796926188
-0.9002263899570923
1.3375624590451825
-1.248399154883195
-0.1354409944427206
0.2643910635823155
-0.33285399103835156
-0.8431814353038775
0.28211351601060947
-0.1873892484384
-0.2011129521239651
-0.27889553044821247
-0.8493688158017173
-0.7451885405781921
2.6579140930262946
-0.28987596073168115
-1.7817771336769326
-1.441560146703276
-1.4288825303593309
-0.3603309641143914
0.12324896575990005
0.9968890412923938
-1.4520306801245544
-0.4882434633371704
1.0324311034222722
1.7180146696859024
2.478106819064899
-1.9409299582702557
-0.146272503788351
1.2419024663262597
0.40754717616012304
0.19120550353744398
1.034072324041436
-0.550809780813167
-1.2671739770966919
0.9873617224694833
-0.19690287528079026
0.2736840957412713
-1.2821798356743201
0.6734707368746335
0.2202495973690139
-0.6963817990529729
0.09995675721720283
0.9287318766840637
-0.5370291871106165
0.21547934405507385
-0.3457899171956223
-1.2857305091116678
1.4515540813826777
-0.854916387566173
-0.16296138316519942
-0.6444807127490911
0.6820709475599046
0.06729157573229953
-1.9468265185125637
-1.4840788461162644
0.23963225763645268
0.12691163699530922
0.08624838425500692
0.8620694641966432
-0.5191013878517313
0.25294857055450465
0.49998595348510166
1.0954839289225873
-0.48201943154224736
1.7673524892751658
-0.013612612222800418
-1.6493330689687928
-0.009295776239183593
-0.5892286743475562
-1.1982217281476397
0.81133536306784
0.819693578383205
-0.565898845393912
0.2510897453878222
-0.011581969604856359
0.41978735076129575
-0.7382284742749595
1.7403941694810705
0.15593663668080004
-0.752972588159636
-0.32924254724481417
1.1392202254304897
0.029035258608956425
-0.14779041199390053
0.4509167981590047
-0.4789760950683114
-0.63107374879175
0.3972042050905888
0.7000217954593787
0.7312854450240912
0.4510731631400525
-1.8394603607029831
1.5569793950808737
-0.6180843808360118
0.5592379522233302
0.47781586073499643
-0.03717407503462741
-0.36765360917984014
1.5124510019938664
0.05701424028367465
1.5402658839932388
0.15437382829528967
-0.9659214084809088
1.2164798007672812
0.683219509420918
-0.7813287872276983
1.9852686004909572
0.42148243835352334
0.4716481812737032
0.09808682215593734
2.2033885844145207
0.232877476823729
0.565896401037081
1.461821847771261
0.6406549503135632
-1.207482831485337
0.6839014514209281
-0.3953748921620998
0.393170527373685
-0.10311254732469402
0.5609307531624935
-1.1673349479688173
-0.5673617046439061
-0.3334124839138465
-0.052305093004769154
-0.8642779820491341
-0.5303801911280546
-0.6495949910863174
0.02348881610197562
-0.2314197811195105
0.991302353560716
0.3830742122571305
-0.3574391240506974
-0.2631431506137025
2.0942911357714866
-1.7438602900425892
-0.12657375658722858
-1.0376783131565308
-0.8524694924208283
0.25970303081653384
2.3604165754858077
0.07655223655545552
0.02551458209111374
-1.5732337810768224
-0.4103941665572508
0.43645781919361915
-0.9369389581250556
0.6809955419928351
-1.461359987351778
0.286138730646108
-3.181503295317986
-0.6369075967421599
1.6744406006518024
-1.2208584472616792
0.7085488615223383
-1.3348608493342276
0.39649502879508
1.1950458130412849
0.5228460923006667
-0.8105513608590835
0.3211271054322638
-1.298640161816733
-1.0281957115277212
-0.9490503127428576
0.9212467461108581
-0.11992999406330122
0.6377186199362898
0.5956165123375694
0.1631952245365137
-0.30589633938939054
0.163376607500623
0.40936302147732756
1.2362630771641707
1.7256567657650808
0.35457672506397514
0.09150502731940233
-0.48148878944749074
1.0707069966361968
0.40400809078969785
-0.2273675075160026
-0.12544520097523237
0.5302640476617305
0.7932105560454206
-0.10740616532248898
0.6305197215095304
0.07941803904654987
0.48386301306151763
0.29990347348459456
-0.1391515874345545
0.1839969178368941
0.3177917008028473
0.9182038866968035
-0.30736063455348
0.5695672622127924
-0.993116663036727
-0.852402529328819
-1.1370580917033195
0.24907136705884014
1.3333700783309557
-0.7989532966027701
-0.9259849581847014
-0.41343462904843087
0.22707624002847143
0.813123689960361
0.5453444749884729
0.7638941359486007
-0.01759160289507095
1.1821152710941805
-1.620275090808731
-0.7811210399078572
-0.17950920946659954
-2.638277812273614
-1.2345041448074996
0.6466391837187986
-0.3073230505456458
0.3162602352173823
0.3068896719190788
-0.7813955083249364
1.1489481174047516
0.38093657735516157
1.2461274408106078
0.0681994734685274
-0.09099552194077905
0.32478732590848164
0.413940291637943
-0.03700094950097835
0.8006693502474858
-0.7566431367216284
-0.12084954039073553
1.3889208184750428
-0.1355593202990404
-0.13028664388097266
0.8477647958474487
-0.455040056925609
-0.698398190711779
-2.0476513303584754
0.19795749550288122
0.10374239897270182
-0.3770210986540742
0.17383694191505636
-1.5312980599812633
-0.8821988962215698
-0.21077229802752206
1.5203183286752775
-1.4641519350104284
0.3869245755437572
-0.7760815500372208
0.3542631584695296
-0.9444567430865475
-2.865458218810892
-0.1594714759546919
-0.1607123750380048
-0.14604209156206185
-1.2617101631631706
-1.0355720485503903
-0.6131736582467849
0.6805172472582144
-0.7890709988165293
0.19441710246812077
-0.9421742665484214
-1.941745137617983
0.3715488583996823
2.331784448436502
-0.31432077217778803
-0.46412526295467693
-0.4821978593122088
0.7578713400106645
-0.20712603838473786
1.2049450071369479
1.2243226038507866
0.738247015510941
-0.06844344558652846
-0.33873583679055835
-0.02127237514549631
0.6256417567789179
-0.8043910976619643
-0.5882792213158533
1.5623268319924843
-0.6031573085981558
0.6254836364774744
-0.9964981409661915
-0.2059874509722132
0.10413712043003882
0.7889047880577176
1.3875549531910505
0.13112192387744304
-0.5497496702062497
1.5801649991280968
-0.19728231499713716
0.5738027318902235
0.3201690285583579
0.480364017559309
-0.18070214072935714
-0.1252844644846991
1.0388642199748208
0.4296476962107436
0.4229181689043973
-1.3160590495549511
0.4487096576201221
-0.25079484753754294
0.2593207137573364
-0.6769322438700168
0.4088226328951916
1.147914994024935
-0.09426543720747631
-1.0094144933277676
-0.40186769015009466
-0.5874999159580453
-0.3844257845762079
-0.201568073342481
0.7063734736440638
0.5557882373973684
-0.25580432913260803
-0.922976944934645
-0.6019393987827262
-0.10367452153660985
-0.11574046556130384
1.5586863454822621
-0.399410814149551
-1.4426263765590466
0.21717690253266025
1.3483101267608908
0.34952598858730427
-1.067870164028481
-0.3295832508957577
1.0891685942868923
1.0055167444835147
0.6092279187301192
-1.2615785725758408
-0.7489166267502799
-0.3489846743637051
0.8230508076135358
0.011196269154153752
-1.0502883056733743
0.3192267931766096
0.7961653494012394
-0.5087868619750996
-0.5951676976296253
-1.134768379660563
0.9292604531800035
-1.4530645146295957
1.1685811747412191
-0.41829196598904683
-0.5132841350834464
0.08878214473827349
0.9711755715997412
-0.9174266108997994
-1.2598724831711432
-0.6291648754563806
-0.029984719444832168
-0.20014378482146603
-1.0292136765727553
0.5560645931947055
0.979855121848724
0.47319989150121683
0.021155003789210553
-0.3633569916755014
-0.4306742781141874
-0.5008131773642656
-1.6257592121295028
-1.119778333463914
-1.1104557476033596
-1.7936924031159545
0.08410522369362285
0.43045173288827127
1.1890762466018758
0.14662770295354646
-0.6210489838790005
-0.015670510990349478
0.019835182854557317
1.421474367382419
-1.6836701332069781
0.8429821671164694
0.9364020657715393
-1.3116562251666923
-0.37001057395238895
-1.815560986231689
1.2386695948312327
0.9494864282230725
-0.6874993963669603
0.24161710130982506
0.2228369299705757
-0.18057442490057155
0.2605034625200362
0.6513049465320856
-0.459793651672655
3.061173253278564E-4
0.8524381350820361
0.18843813269216123
0.03252138983925564
0.6627468130343349
0.25292038002966705
-1.0747739790910542
0.6819155399575412
-0.2945257361714414
-0.019682571441594406
-0.0316154589869128
-1.13121607070623
-0.15666699762043293
0.4312601897944158
0.709459494059042
1.4173021256459983
0.09961501186895734
-0.02986703036522133
-1.0845511741561837
-0.3190388273308801
0.3967709445455653
3.1026794795729544
-0.34702188862130795
0.3346440520743617
-1.7619371203454632
0.3234562447515758
-1.0591654274490023
0.19393734760947343
0.38883714158207827
-0.37628053719591026
0.21681591652175183
-0.2336246211328138
-0.11859592171714244
1.4472379857024082
0.4407351280278332
0.26910407675732595
0.47967107341980086
1.7871277396622232
0.6077569613579538
0.012848848795990488
0.09593343488236135
-2.0830505555910976
1.0687488069145625
-0.03684948019201521
-1.6614550049332921
-0.38045272256866824
0.11878540956917724
0.5914625236707602
-1.9735055212749317
-0.04559312494628148
-1.3887942503781752
1.0242887878239213
1.8850393025482985
-1.655490489573395
-0.7948434212448309
-0.5969415557271119
0.3597240157583177
-0.5941154060755912
-1.9010603708730665
0.2043386993697275
1.4367429558203542
-0.024633853840262118
-0.09145115212461447
2.0996242417061795
0.2401604024530433
0.7449800635137731
0.3800761410261414
0.6482554685372883
0.3451737705177521
1.2982913040122483
-1.5344289218467801
1.6922304961448646
-0.11245205485394455
1.3337012012616547
0.696730045996004
0.19201133817317
-1.017673193970137
-1.231341472328862
-0.18739934029720118
-0.3474279450951889
-0.49077076957841087
1.7415790597521463
-0.8412377454992267
-1.6969325936500508
1.4507491530959817
-1.488791750299845
-0.9030700593589691
1.3306420167745574
1.9952473586340311
-0.4687270618447406
-0.1254499455639256
-0.020381807654202666
0.679729148760231
0.23416614108704717
0.21532087064188926
0.5108098173963684
0.8968705672724391
1.482596716709291
1.2046284042613877
-0.2632457646686373
-0.9456104562760919
-0.051409362321424686
1.3317316230405605
-1.0130371261808895
1.4056176702830425
-1.341055843711675
0.9332509682387471
1.0721275148003617
1.998651224926026
1.383882118907796
-0.7614772819779249
0.36158251310976586
-0.005198208308473846
-0.37264832838941286
-0.3496159886875347
0.8418624404614594
1.0423617933313691
-1.126073243816576
-0.006930033044034552
-1.7612653097551916
1.313701404165406
0.7812503002526291
0.597538615051832
3.034865414727643
-0.5941918677670452
-0.8221456383076324
0.5717697203013961
0.19235382419150804
0.5771812564874265
0.02055142537646092
0.7994118178315953
-0.3264721730622158
-0.7016903324092939
0.8245598806960692
0.2260566445632587
1.6329412350377135
-0.361255824218348
0.2746974620472597
-1.8360552438936646
-1.6741794537297012
0.12704168873172092
0.9515312685829864
0.4098377425137093
0.008670536659921978
1.932432381801712
0.015099789343733041
0.48217234709985435
0.53492951494883
1.9209634877980983
-1.6994871072649178
1.1228361801354307
-0.2947152818733048
-0.48635918345732226
-0.7274531536302318
-0.5468769100659867
-0.05593630916064345
-0.9528509643730446
0.6203412501583511
0.615895883183645
-1.771986934993267
0.6065099014780161
2.3220110055747263
1.0275356700530964
-0.1141107193010728
-1.0258838440752736
-0.5952033269143845
-0.28394993441353567
-1.4953110367634874
0.7024593223979112
1.7588031554833619
0.658073107245644
-1.5542991529576766
-1.0261706634694556
0.06076070884353032
-0.9681321640708019
-0.4010017439204077
1.6230581643089037
-2.123372312025664
-1.468747739042214
-0.25425911621561953
-0.09588419640306961
0.7956201741180762
0.40793338165745957
0.060676474110711386
0.9270051322381827
-1.5784000329051593
-1.8300098238903528
1.0506498399220148
1.8035048527950692
0.5101635922152853
0.676879812020762
0.35825519248654014
-2.2085662404594317
1.3535096036163867
0.23894384635453225
-0.5221908438122271
-0.9980346286626943
1.3876397574255237
0.04551674243528273
0.1976293549161493
-2.705732090028715
-0.055346793245362895
0.4174024182004511
0.9741942778877782
-0.6203106407745733
-0.10176633795335685
-1.9443095472826084
-0.7484855707066199
-2.148385040061855
1.4847463037215787
1.2839519642666226
-0.2152109733865295
-1.66538826291319
1.7757530765071734
-0.9934133316598774
0.2587192610850157
1.4115127425980116
0.5849380334793972
-1.4563748936922407
0.41064788612467473
0.14603288606440612
-0.04452132081666074
0.7113950465641444
-0.338272525669124
-1.0703620892153232
0.17628151986141832
-0.6721339279982257
1.277245276747175
0.7964062699894178
0.15411384402014375
-0.2157285571618849
-1.1492907699731119
-0.0958413526442894
0.3759530221603328
1.2391038454467282
-0.7558889478321373
-1.344634695941241
-1.0477859421277433
-0.7022709872633561
0.6191303940850413
0.2825674277258682
-1.1818129813663882
0.12772940774952554
1.2965212265282562
0.48688274975634876
1.1935277149135837
-0.7624382933372302
-2.1037968962540767
0.29871670083458024
-1.5883088475442633
-2.1245968548974856
1.829148293833815
-0.992002095622875
-0.14291900272232866
-1.408708175289531
0.8932589451426081
0.32188234678789074
0.7441737128926827
2.2369530018535237
0.08489882667658863
0.6427851110379019
1.648751891593266
-0.9111911816279071
-0.9795552366117957
-0.7233980410925444
-0.1515079555692627
0.9702411351990627
-1.2945254161475326
-0.2582448420770782
-1.5081624635274253
0.7361083908671554
-0.15055962509980123
-0.6145373564825122
-0.413732696078068
-0.325839263801738
-0.574902198445421
0.5087798316526589
1.586149968361009
0.020653416498903388
-0.07053309423890365
0.5259232642325605
0.5901728532355264
-1.3403415657799091
-0.443965350464082
-0.4528829574537537
-1.1936148437568868
-0.18862257143478148
-2.253406256494606
-1.4308592202339885
-1.1188494988380304
-0.7314739751275621
-0.4694711815295333
1.5103488955861264
-0.09455081581170124
0.017588687068184665
-0.574430563323467
-0.19502409878378443
1.1366582651774049
-0.5706715704737368
0.49232301426182085
-0.9579837349658827
1.9314267903735365
-1.2110072334131077
0.02768926692186424
-0.21017621388256558
1.1048435612209062
0.09791030308507286
-0.8727029002828784
0.4639729339318343
0.6595176802632513
-1.8879189264344796
-0.3927230799698444
-0.2674072328496842
-0.6755507427835191
0.47351639279823154
0.4841407412080746
-0.963216255545934
1.6147638532410329
-0.5065425795321674
0.24963950580796285
-1.8800934823193356
0.8473510864254061
-0.9388242683929894
-1.4147965373039948
1.5862738718055918
0.7127284294603828
0.10714219250429537
-1.3512325015264137
-0.9361648560081678
-0.34489819136311173
0.632807960301471
-0.17684547818142893
-0.7613759905801949
0.46488483030934313
-0.3942946656862686
-0.13784312882848737
-0.03922618232573519
0.4431804951037647
0.4484271942752854
-0.027104160361526918
-0.03866963628902376
1.1252528913343418
-0.39030068433246884
-0.4329466323879332
1.2708220733020041
0.4295406753274637
0.21992474930961475
0.7428916156635821
1.425287883658997
-0.27593237877846005
0.7358498720737526
0.5312719107193007
-0.95838235855618
1.431032337356994
-0.49692401356041804
0.1683073047891004
0.6903492895561443
-0.6464821399098155
-0.646107992593816
0.0688402782198643
-2.3547242794343433
-0.5191974136823269
-0.05385067701807712
-0.4376334375299075
-0.14424280873446965
1.2134392883282579
1.208664390437496
-0.5637450003974327
0.6189371972788442
0.9751083549489528
0.9444316113196363
-0.8862525985768867
0.9726451566788656
0.11690891630282027
-0.23587126470209618
1.3995324731916214
-0.17754747852171826
0.6421047071540971
0.14433453664124626
-0.7018834905858609
-0.8644159324638486
0.5179771401757245
0.5495335008403051
-1.121676018841766
-0.5301560143618963
-1.8235629899108947
2.2248339809286333
-1.8031101352515817
1.0574195904963712
0.7181989614641128
-0.17925302676595528
-0.4407963455360752
1.4609008219274537
-0.9894330042765453
-0.2920542203950396
0.6377484979839647
0.9670529704203429
-1.8607904009906162
0.297341341495722
-1.2889135272708665
-0.23399257302963272
-1.2055517871644412
0.5358188060108191
-0.8196433681899091
-1.5688296049021062
1.7524561328028927
-0.2175362638375874
-0.4889570905424444
0.2329417156922674
1.4525400977525855
0.25105036634353683
-0.41337318612426693
0.6914784673556198
1.709902866795955
0.3425485299323397
-0.15556419090179913
-0.4460331606456504
-1.2196892980593756
0.45343865055524335
0.3054274979585006
0.6943705177636655
-0.9921567795729591
-2.232516539644976
-0.22091220344819984
-0.274907767457594
0.008557859612613013
1.0012764197346116
0.9278416140119989
0.4993398410813777
1.3145665757558453
-2.0709905464659712
2.359929080458188
-1.9642555030717321
1.8641764903833302
-1.0238692082557899
-0.07859058556673366
2.119414853635498
0.11066056646018846
0.0635237145857156
-0.4682715017262666
1.059318210962817
0.16998476560145082
-0.6462039766233749
0.08393264925183844
-0.16597433379227602
-0.38758096500177186
-0.6778668029688558
2.5739207707129177
-2.2311024325650073
-0.014027795510296774
-0.873407013529843
-0.5452217141513095
0.7504084852315386
0.07954838458895856
0.7413545556621368
0.25289418190604923
1.053675592459904
0.35109539011810825
-0.623907993751159
2.1188810690418904
-1.0293628384004674
-2.0499615952921766
-0.10219349079755925
-0.06419464989704819
0.5864273325637259
0.051437401054979064
0.6810967187639768
-0.27177090319100494
-1.4899717291780301
1.2598140788747694
-1.010982971403273
-0.44264140239229965
-0.007211400356291434
1.0618339892567676
-0.5691693272501421
-0.8979342249997593
-0.08910010650180894
-0.5626685366876547
-0.9032912306727189
0.7351412931854212
1.3702046402897283
0.4596983733734286
-0.05481317661078948
1.013727251932111
-0.7976541152587328
-1.2469629924047132
0.16975768294079008
-0.5339923840977899
-0.30466502565865655
-0.865139518158205
0.30913808492766065
-0.6367395112661725
1.1064428204281522
0.45987081771892735
0.810974845278259
0.01619572959445136
0.1698216563891183
1.5155481235794956
-0.1820585951476224
1.3191883215875884
1.1763811748189419
0.5607038147227362
-1.1514115356094243
0.8302620419973687
0.5928733177491016
0.387213136124609
-2.0189175054425443
-0.3967597969000359
-0.07316046819070911
1.0528425144152194
-1.4248982128886836
-0.08917438110078232
0.8950284319961294
0.00392300353215615
0.12668670647227717
0.5921252376288364
-0.12727832850210416
-0.7108353570505342
0.8917146146667828
-0.494079958883624
2.1762180791651073
1.101903528847244
0.8307114130728549
0.5691381160003625
1.2182997087484688
0.9820729869949705
-0.5721159485535356
-0.1841713350738891
0.7127442143290803
-0.5498730108835593
0.5260867066050113
0.2855286491019915
-1.0792849124172876
-1.261386568875966
-0.5377605256647143
-0.3146920917767253
0.5873012732085494
-0.17393904432319696
-0.653859187113271
-2.0079614617978288
-0.4104630831905562
1.1219572537102087
0.6123874059376869
-1.5053417000072276
-0.5183916594019621
-0.4381319621460593
0.0968781488113464
0.5532250625026843
1.1853049830713165
0.4185877108962824
0.8611468528626021
1.695655612165936
-1.655682478635354
-1.3155816827486095
-0.5895330569449152
1.161036175052556
-0.5191894104811873
1.5855603118803112
-1.1017436773467744
-1.066527011433826
1.1944150042468666
1.0543858575039877
-1.0261258774067257
1.6805717365114903
0.9208909121630303
-0.7778218362288649
0.7119190178421931
0.09363063107238612
-0.12243377937457312
-1.138849883669871
-1.264570886848536
0.06947642530570226
-1.102597903134988
0.9436145549606073
0.6504771531297856
0.10855436964483461
0.4970762776451853
-1.1048815388893016
0.17381671377812494
-0.4973383111972658
0.611840518627222
1.2099870103713297
0.9038557987522269
1.0328762712725412
0.014020817541465698
0.923535852347044
0.8272097017535085
0.6137599926108827
0.6214726282053102
1.19044278589893
1.1662524906827674
-1.2362139524013576
0.41676140491548114
0.8627558436622982
0.43417591923641047
0.8846197983520018
-0.10532043513285086
0.4045227292264452
0.7813842548811101
-0.7685561245655287
0.4944873952474099
0.14567921815948975
-0.5988246560560182
0.23533530673667608
0.1755319019669568
0.7635569294769207
0.34907995749197146
-0.03387875970980537
-0.5544737784986682
0.06649632828478909
-0.6426046361804714
0.29005834260995655
1.0153822879153755
-0.5487639744805137
0.49341378575299677
-0.15199828638421684
-0.5408707851464578
-1.465061074252142
1.1705132133572238
-0.9842904240912916
-0.7393927948468092
-1.2242595767558968
-1.0186379263032843
-1.2783639346644986
-1.261936177607889
-0.668202373538954
2.1704331699602757
1.2643644880500804
1.0283393764084965
0.008561920138136248
-0.0019325075723777769
-0.2974726720365783
-0.3484887721948062
0.7149703623929808
0.8088081037993502
1.5747100445044167
0.3715977807443196
-1.7559197004286267
0.6341963476284134
2.0207174322170034
0.44120797137555445
-0.1827473034689772
-0.3471764942484829
1.7007678681646194
-1.0393379399570764
-0.5666660546372706
-1.8565677149430135
1.0744536946792758
-0.8394432122965829
0.22431496814630045
-0.9685576986457382
1.2326486615144412
-0.6429200933116072
-1.6442589666633234
1.7063133380148565
1.2847897528136942
-0.31027158247848524
-0.43188187371224274
-0.21770317809191642
-1.4021267913551643
1.9297366316327826
-0.616135990217453
0.21882989149598692
-0.05637941740308376
-1.22776868320334
1.5799911276234986
2.0237539860656697
0.17299475549802457
-0.6626713380357344
1.1906898347781625
-0.020999872355595948
0.9236691249884429
-0.5228152163378921
-1.7704373766391086
-0.4830199128999684
0.4562434292455798
-0.5376587055662406
-1.896990661464217
0.03491107157133677
0.28787052535244145
0.04869717761346988
-0.5745514347099882
-0.0072048668012652806
1.1585472902875125
0.38764663659776116
3.197708292510954
-0.7351975694196229
-1.7177719840906192
1.8516669023809742
-0.23618007495809756
0.38347604894552506
1.0761258350194736
-0.05428697136737477
-1.0401707776901323
1.0304512262210648
0.31281126041327795
-0.7258848213309572
-1.981115152350715
1.1980791007274274
1.392768213636314
0.39450155245528656
0.9533286925075627
-1.1732918134582058
-0.5473375482492057
-0.2893281745022674
1.9471434665688534
1.7678552639203176
-1.2974377776659145
0.402502003103805
1.0693772368889134
0.00777654646876264
-0.47776823898123544
0.8004534618819472
0.5910499925111058
1.0363946204868406
-0.6650942623442372
0.338648719791174
-0.9997037557948024
-0.662868728376502
-0.7522358671866638
-0.14733600710555034
0.540829598530999
-0.17726142865971747
-2.2167343023464725
-0.18707214168776296
-0.5449567198829972
-0.782306952295395
2.639071273677569
1.3977220169727116
0.47572243715046786
0.5299838352074071
0.8862512281075665
0.8784698135480474
-1.2460462406320387
0.6369277749577028
0.33417145565736606
-0.8436614629822047
-1.3183006395590284
0.9863792883026578
-0.5979369165135718
1.102128062794176
-0.8880115741279649
0.26108794489990644
0.7299319921323209
0.9496272084167441
-0.32820938032780134
1.382613981260616
-0.6516178307973263
-1.1340411245276376
0.9523898247956862
-0.8713136547000452
-0.6882877221940675
-1.9735546366380983
-1.157190831416057
0.6053296612855974
0.2938798484549155
-0.054973535798207164
0.2979189763036139
0.8047013010429779
1.7609252384135758
-1.6737383251036169
0.6325139338129039
-0.5426898181210427
-0.2669669351163812
-1.2411856442928688
-2.0177908320009346E-4
0.20475441435469988
-0.025518101631419716
-1.0255482872164505
-0.11809666877030438
-0.9335884780869563
-0.4752014964842785
0.7676291102654638
-1.404987388609286
-0.42683321036025956
1.0896464616247978
-1.2755496254028837
0.10968501089465828
0.18697061725554456
2.103480483263678
0.24923716469277854
-1.4592506197505213
-0.5880940659671834
-0.8159542676612951
3.550555180992613
1.8452154503245246
0.44864045974861705
1.0623204147074745
0.5498920982511432
-0.8300199776348963
-1.8386147881267023
-0.3492104728405144
1.3107813484713284
-0.14403484408946504
-0.9744841238394317
0.2857106879661087
0.1940897112814322
1.18603617029202
-0.8793303610316009
-0.4223911084726799
-0.3006432121255688
-0.9505893825684663
-0.03751893022449441
0.3071039091489406
-0.08731265809540041
-1.0519415839599229
2.4817214328491293
0.604132451012361
-0.7316529146499214
0.22582906049093282
0.7984178500509727
-1.092185507479313
-1.678465694354938
-0.2602004628955673
0.19889380074192983
0.23324479985753604
-0.17213823132970765
-0.16958412535984582
0.6227025616387124
1.1150952296035337
-2.4089457583087692
0.18098433332892078
-0.35893599760199185
-2.1582007590011827
0.11915064186272316
-1.0454164569218212
-0.32454792438955427
-0.07230763345183647
-0.14360835767594454
0.7316751323090097
-0.006499375540778968
0.16700677720331103
1.0535080905383507
-0.001063800153412429
-0.35574673911525045
-0.029590023195891203
0.7065302981181986
-1.1353788761175134
0.5381964287467773
0.4181255114110329
-0.48564080925727127
1.5197097402281843
-0.1527562252581921
-1.5320522831326668
0.2000664148470321
1.5024585257965888
0.07323951178065824
1.8763111663703198
-0.89049916998128
-0.6572765614351843
0.24367731636776221
-0.9746040794526016
-0.298158385987948
1.8672869830839278
-0.5762410891767316
0.2836134935139338
0.514899129940497
0.6157854121971517
0.5961165503598829
-0.46154680669930626
-0.4446572665634274
1.2362544943814675
-0.220383804119933
-0.9447432538746845
-1.8329082030767163
-0.8786220072712386
1.5549723525888368
-0.06945043065979371
-0.9103331033053672
-0.10462940449180617
2.0233842412205396
-1.6012444504465904
-0.6993514290111291
-1.222865982638037
0.13815436096094683
-0.5416130939683371
-0.2446885621985936
1.8295810661700893
-0.3096917842363671
1.2861650969149863
1.5217037209515263
0.5856983356141517
1.3506172754630237
-0.09400887899218101
-0.6032082783047416
1.3245606407265493
-1.6391543434414033
1.1855730573136156
0.13056118034555148
0.2062146272833211
0.6929179603040008
-0.21437351142504624
-0.9663514882115466
-0.7344115837025257
-0.4881026584993978
1.4973700807909116
-0.35001232885589245
1.1603141678591906
0.22160282952060142
-0.5880368506933438
-0.8183342027674593
0.810460565942498
1.200672634464077
-0.3350333673638212
-1.1584875931397092
-1.1926066401273825
-0.9542351721344128
-1.1178169066049068
2.027531216824637
-0.07024963016233814
-0.090661975327754
-0.9652012187191679
-1.1084555074618463
0.5850785789943899
-1.7235029253987237
0.49628782872912763
-1.1147558319203827
0.29481697845347554
0.16024822903249936
0.0058557237360172916
0.3389246736824529
-1.2844996774769284
-0.38581363006558334
1.3130153171182217
-0.41230593939934124
1.6932037678516842
0.1462834968473637
2.270459561178909
-0.8159536921263802
0.14886202640787996
-0.5471934173430586
-0.36755924491429953
0.10117657868046495
-0.1659271985803885
-0.08244489318659487
0.11924221581632512
0.4524640945068904
1.1792625500429514
0.10301496216729711
-0.12895695305259178
0.25769699142308355
1.5665108838541566
-0.15344923278844216
1.8307213488753862
-1.3326779240518016
-0.5456174277138504
-1.8073920549166274
0.4447730579079495
-0.20324441319376088
0.7328258160696225
1.6840364369521361
-1.4541898347320017
0.813414840194435
0.10155703364171843
-1.7449740953228536
-2.8285362977310062
-1.6934406301975469
0.47692881781207674
1.2352907671392195
0.09674533231991288
0.47508651565378596
-0.6714131053070282
1.133077635922424
-1.189015892018071
0.18702143325874637
0.4852193646501105
-0.5446971953121305
-0.5095525467065938
-1.2866500819030033
1.2875817352398553
-0.11975225209369596
0.8790442387520981
0.4956514200774756
-2.1295375770074254
-0.122291338139675
-1.02480357574071
0.48973560419903134
0.019145445564698767
0.7880145851713004
0.35779282608367496
-0.9325568226478752
-1.6975035792240678
-0.3278352286377473
-0.5488410907416437
1.1023430712934112
-1.0485027863922225
1.3483013634762149
1.7055207398001475
0.958406045149687
-0.7796942511434812
1.5249919775686513
0.2458615458933263
0.712519737558112
-0.7691282160874683
0.8411038739409182
0.10819783503389674
-0.34608365616906733
-0.7415371928446947
-2.2562878242483415
-1.3127591289323108
0.7352782564579925
0.15647898169263208
2.1850082746652246
0.32087419629565983
-1.366998062547235
1.0457374988032524
0.2922188402561008
-0.24257275081561622
1.226617541233282
-1.3972401491344917
-0.7839427046353229
2.0137005819878753
-1.1481611644153442
-1.1280773216501623
-0.8745485554656116
1.0799876102238433
-0.6768081484148412
-0.8650101352202398
1.0922688985399585
-0.2932713920813393
-0.8931887208453321
-0.6369286961343472
-0.5086904785239644
-1.3484354408259065
1.6180758719529416
0.2772910444976886
-1.8818892974474508
0.1603290351371314
2.311281994082684
-1.0922188587875903
0.44396840644329766
1.3046615791836007
1.3830452521226801
-0.8668662906660302
-1.0718736321209996
1.7142710539347301
-0.3925544769279314
1.3638210576096563
-1.0415892291530673
0.4152016526860094
-0.07501386546644256
-1.4416876102070333
-0.38399148597380045
0.7754904837500711
-2.316605265990508
1.0998116951980532
0.05394282617078843
0.9185931095559207
-0.7712746106392547
0.48430556835741956
-1.6083998700976263
-1.526317533300181
-0.42124092027100385
0.08577927260439559
-0.36098806736469713
-0.033803478821413574
0.4671543218365372
1.0555417873893758
-0.9858857645151226
2.5455453957387246
-1.217017009795782
0.7255483769682115
0.5985163870802352
0.5676046275768868
-1.406738851377952
1.193389404950495
0.10649631250222516
1.6873101491524989
-0.7920151839962822
-0.571760662314434
0.02063370182470832
0.5648257148417138
1.2527939069732403
0.004191699319828485
1.2528590776654984
0.017864181929857174
0.4589204691579812
0.8648753815460627
0.7658851190947937
-0.4146021234580277
0.6271447314044348
-1.621442188768003
1.0766594823375688
0.21750372423872266
1.8315446919347482
0.48248492548448874
0.6540709711785894
-0.7771664426446093
-1.0658912444781952
0.8683585568469299
-0.6718680422122933
0.4981172391623942
-1.1962724648392693
0.3463697573598931
1.2289667364233234
1.5511611497863704
-0.21991620042071877
1.255124738963692
0.5131742395183319
0.21895759127842745
-0.8456482565620509
-0.14050619558190844
2.7029105728150102
-1.9520558811097017
0.15283922254803153
-0.4265687336972492
1.1194720188954976
0.17494517927899242
-0.3048968017595608
0.7968317518207302
-0.09467946055671358
-0.7114142554521804
1.1727369872657136
-0.1080830539893397
-2.0021664026610893
0.8377625365039372
0.5248060100022126
1.0059710651560954
-0.8106587074645767
-0.09910623634868855
0.08422569478211808
0.5907394570453455
0.481727683703283
-0.027129921904537502
-1.0937771741166242
1.3017309561991701
-0.4651438742335139
-1.262027554784815
0.08007109025981496
1.4150955716662952
-0.2752477237462143
-0.4919172911358485
0.7886837355971112
0.4031141074686159
2.351070093876828
0.6200621505750175
-0.033171906119870136
0.4657872510178028
0.610091629593056
-0.8504593952936689
0.3122955470971901
-0.3232230185300707
1.5464076193255978
-0.10015948230699162
-0.158133219184154
1.143759233465582
0.6034945747003092
1.0344177621582948
-0.8838724975654881
0.9420446603293128
1.4968464058908697
0.42103795195735827
-1.2423153642829203
-2.573091731805349
0.42615471914769787
-2.2159098654853557
0.9316034227090871
0.917944401218625
-0.9493540351175073
-0.567635225620341
-1.0019055226308178
-0.054412973651813856
0.5591386598825502
0.07614508784238122
-0.25078784314784935
0.7576838705186859
0.0773524314037713
-0.6900957185625527
-0.8756503868810115
-0.7917270130816766
0.19090253174740895
0.6812646540746078
-0.4583173819355222
1.3164532997615594
0.445912447489132
1.304668910692706
0.44248607636662657
-0.08256697901187326
-1.1094226482436051
-0.08822046329018934
-0.8802597686346366
-0.12807446289241786
-1.3679902457365856
1.271711922277278
0.5329052804047961
-0.6887545050401994
-2.296452994111032
-1.2826180498870001
0.7168178475238074
1.4423682244846767
0.0892135509651249
-1.1933521607691209
0.5578874912844336
1.006538912400174
1.0532125257893443
1.0037079403824256
-0.09216794394848901
-0.04285102201216943
-1.00334729601903
0.9060855677325675
-1.087195528964781
-0.7381988638298769
-0.9871152893570285
-0.7774094009981309
0.13388138445992803
-1.0139309235360667
1.521106667130409
0.23002756529164986
-0.28607287526452463
1.491641888769753
-0.7030704505669959
0.6926114499283047
1.6115469874150583
2.607494142570438
1.9459068363964571
-1.3838629028995115
0.32130794408919533
-0.7797104497040962
-0.06820977555160428
0.3960089264030741
-0.8935895418544924
-1.8876383421109473
-0.6186647129756293
0.3028284350563155
1.0384177511363943
-0.20879925209937644
1.0160631641184352
-1.1986343180085148
-1.3569641355159379
1.6330762742516145
0.3920569221970585
0.5720644618278338
2.0993409141474397
0.13925815136372371
-0.6859994882514128
2.3607331542761574
-1.5737880315461446
-0.6411400895797609
0.7614571585799605
-0.9986642670166246
-0.34481708554709667
-0.38519225477962105
-0.02868561793597546
1.171187966870936
0.6754815462696515
0.9199202079192149
1.6532733723593394
0.7722236267578289
-0.6248367380552767
0.6268411415355298
1.5024808599239208
-0.40629434273752485
-0.1179985689505461
-1.5428894912856004
-0.4128889091020459
-0.8844087121328922
1.7590854277662522
-0.6319939473921733
0.14098405168964373
0.6443931077031296
2.3048194157697095
-0.3086713294582383
0.07017560912521312
-1.4464796854706332
0.03136610075477479
-0.20566365667402103
0.8468993464262483
-1.0654252792274614
-1.1018921922250833
-0.7077060824447453
0.5561399571947077
-0.30192931580803783
-0.57430444455275
-0.925961548523049
-1.0480712162328343
0.7624732403251746
-2.013452794166101
-0.020852351790345315
0.1501106412200934
-0.8913815435961524
1.065522637288505
-0.07614796915495221
0.1449071787801738
0.4993594298346019
-0.8420828794303212
0.7242084561830181
-0.2090711378629176
-1.4248202090038304
-1.118199026837112
-0.4975733958132631
1.5684124928725889
-0.1223507340871905
0.41766091483262
0.7977633204856782
-0.3563705983015994
-0.8024564573469949
0.11735814299108444
1.9253175676362582
0.7553053756948753
1.1305576125490333
-0.4503856373007694
0.18361887171184493
1.4086815846546803
-1.1178142804236066
-1.5244312547233023
0.9092738644688717
-2.1706244245448256
-1.2870123226260188
0.613160216514445
-0.5612797812278986
-0.2695614310224867
0.1679177550289979
-0.2214602524137372
0.27514845975707125
-0.8217169964099802
-3.4007157497085028
-0.10719928501853238
0.6708672279914867
-0.2017743330468928
-0.9068076736495884
-0.7867161470201528
1.5328919529891747
1.3415075303200508
-0.6707464858831453
0.990225006967689
0.5077027611833241
1.7944508213659751
-0.26560738202489853
0.41147887942768646
0.3876711524789806
0.12640164649288857
1.6057647008942355
1.0411275834299258
-1.0617734705617081
-0.31447788846341085
-0.7840128224492724
-0.7425964325139173
-0.08998424496353581
0.2669771325729809
0.4477069520502255
0.19030516979773945
-0.06546845977764268
0.724820449038651
0.3703196107915431
0.30177126589783676
-0.016710299938532538
-0.6994075321630235
1.0938653444752526
-0.9210525052552011
0.7045740681698284
-0.04518715496161932
1.1201369532877103
-0.7546619399466302
-0.9013129331129763
-1.0932364157384868
-0.38061978278744457
-0.4125775952671232
-0.9654397721479624
-0.2320208837953682
0.015509353591142468
-0.22691208788492553
-0.06310045676549796
-0.4295700632084086
0.4171332582395622
-1.267059782080407
0.6989552058835219
-1.5624442321299628
-0.2816880541558279
-2.0523043552083373
-0.5893577264051701
-0.5936290088351069
0.14227542291759537
0.04717742586032264
0.5292545774062496
-0.6984867218724069
-1.9023158127774527
1.4628378867987788
-0.1387482368573134
1.6378715695616148
-2.5091562746130567
0.6684453651078416
-1.1168377642639555
-0.4510007618071343
-1.7643374222371127
-1.6955829885308111
-0.974030735775515
-1.583285768161888
1.708300767301422
0.03846638014707351
0.095394216666216
-0.9888141188203399
0.5223994192538699
-1.0162968269118964
-1.0270452866792072
0.3962407046144474
1.3500213630013442
0.6653027219923029
-0.35153910040533015
-0.13140179149346884
-0.06199482563221849
0.9932197759990129
-0.009195228123967373
-1.133482050619334
-0.530302890954335
1.9013092055101382
-0.6053149700608962
-0.0884586668822412
0.5083476692603993
-1.28739263196968
-0.766809281935617
0.21656165141189748
1.3588467406186235
-0.8087215084742867
-0.6326001234371236
0.9769101977031336
1.0460995166131002
0.5759309995908798
-0.290945171798055
-0.1537689013812008
0.8433391805428341
-1.118960850405031
0.4750371593104607
-0.2856990469124276
-0.7971932380241125
-0.34242635056886944
-0.47807065151437533
-0.9424549650137437
2.248649131287069
0.3925832829206153
0.44600038674117587
-0.6734143546131515
1.1635014699956217
0.9489056290581181
0.9799391754050232
0.6231037798751913
1.188583149040214
-0.9928742335103722
2.1673620223399848
-0.5013381787417919
-0.46075723247010425
-1.0140609208619549
0.9896848358565533
-0.4417952834595293
-0.941879284413575
-1.1012413409803812
-0.9022315514375007
-1.0852610554891176
-1.079972332000683
-0.18610846463041628
-0.6429863745499245
-0.20568103568143847
-1.1216783158384618
-0.8745258824261142
0.8063897250705484
-0.9653969337578256
-1.393717016368442
-0.06494063402862668
0.7570232563165822
-0.4175379277540686
-1.0750442095536015
0.4082630414780177
0.6833145033936221
-1.6595929185487823
0.9115479433962019
-0.8727011137811088
1.8773233138844176
1.1963429262606242
-0.2623603620512421
0.29889434469043624
-0.3205677000775381
0.0693722103063908
-0.17221344127223023
1.7350029212459763
-1.1736928274516978
0.837303863234689
-0.623672859035025
0.3013970735144988
-0.6711465364925578
-1.7974177378120741
0.5995368283728288
0.1848539941053825
1.3722320550252238
-0.3343691498311609
0.6293169169121738
-0.24288144627258038
1.9908848303954751
0.4652595201720484
-0.5267824639516283
0.7450002652863561
0.22231545470124878
-0.29751295438331793
-0.3678051649501812
-0.6081358642315562
0.26622613175757287
1.6222243169475032
-0.029149429599098102
-0.7847081054905288
-1.78918215461052
1.008892177892712
0.3591814408309304
0.9536151823565578
-1.2299226008288273
-0.682517156061597
-0.4198172685721539
-0.5051865827496901
-0.08072304193753028
-0.9980586244594731
-0.15443649473246593
-0.8981339652174323
-0.8092538777767426
0.17280609163105073
0.4143512191130969
0.10046605271221526
0.280459346371467
0.10250610119956428
-0.2969701104936774
-0.5486244194743819
-0.41169423374587927
0.9070982089364116
-0.5731741339852021
1.753011140832664
0.8516116061462511
-0.4876300220136858
-0.04165622132328216
1.4076022756308255
1.1536502973097502
-0.8618998305083437
0.5356080213979366
-2.115042974048349
1.2130485119457357
0.170012846486312
-0.7847355656584967
1.0408424788852995
-0.290812195227845
0.17788976828286285
0.060404137463426655
-0.954906084464282
0.671115828472335
0.015797969280440912
0.3002267784206232
0.34117939927150703
-1.449578141885278
-1.074337290179454
-1.41300790357131
-0.6999728965743623
-1.6055247344379993
-0.6669889370682611
-2.2196379353195654
-0.14100458187626486
-0.9150855620889887
0.6524481818028222
-0.5611579885751192
1.2576021983231411
-0.7434669513966216
-1.2195707806507514
-1.0390208946924855
-1.5632747896466042
0.2155102043692139
1.488962700644321
-1.3537546065505843
-0.47951838851006595
0.23271330694794312
-1.1344818323090602
-0.3043557237673779
0.916329830391185
-0.07842892384035025
-0.03856530504134997
-1.3989681950564923
-0.49564298093725107
1.8644158525254801
1.1108112459603372
-0.7268827520961779
-0.24259887203399294
0.93283398894386
-1.0243496832748173
1.5535282656758487
1.8147140228045566
-1.1309095859121714
1.684020800912611
1.410247857093393
0.5004166232621651
-0.34652249821200165
0.8301689040595268
-0.2653520395493439
-0.9865398052914689
-1.2175299911993722
-0.7921814779605589
-0.6400786527043718
0.5302211384548994
1.764525562696228
-1.7565941201314195
-0.6772026362689175
-0.013875476464369785
0.15182809658200808
-0.44332759772717517
-0.31286109718753363
-0.2843725642018871
0.6243736260364685
0.3939028838839643
-0.7893032078379127
0.3215259667589261
-0.2938648944704915
-0.7137623164162454
-1.0277124255428611
0.4016797415802721
0.18764609349728523
-0.36869846577285287
-0.2915475435609388
1.2513429043934525
-0.624098131726807
0.47821771580559047
-0.7492168638481037
-0.5153922107566236
0.07091675771637307
0.360098423964252
0.36269711275061195
0.053668077404393166
-0.7197972640967695
-0.2059526075032337
0.5998611005633107
0.9197384502996159
-0.39271386598513874
-2.268391166000744
0.7217055698857108
0.9420451985515205
-0.12450298694321754
-0.004907421834422145
-0.561697620582751
-0.21785253384417708
1.7134538651392959
0.15588716545936343
0.6655659813793536
-0.6073581900786683
-1.540710681621404
0.10828550420669539
0.9503154194935475
-0.013480847180714914
-0.29107844543686434
0.3018398035551712
0.3351334237315109
0.6637630237937006
1.5502176975108486
0.07638793045770012
0.3411257240494057
-0.23354123121235265
0.6757508165169649
-0.7727956592906741
-1.1645861322786082
-1.710198029475007
0.47100422509031536
-1.0892431708188601
0.8310113965768243
-0.12755148758022455
-0.014196212219899062
-0.9747251029504816
-1.1984501709185251
-0.0916730918846073
0.08282883253961891
-1.5834592316034253
-0.21637373549723699
1.394412328173476
0.1743845106044009
-0.35393329631206244
-2.102525277557461
-0.4063840696335622
1.9523263463224811
-0.3065221279914344
0.15303020876319115
-1.000974551943431
0.39119767922294013
1.3144304946773469
-1.031688852128034
0.7776107265532778
-1.9379166175167477
-1.478414879101489
1.2633569642161961
0.7624107092574687
1.2636582147326005
0.7131385525936752
-0.24161037192396176
-1.5340821343113964
-0.7169737509576732
-0.1648540051900618
-1.875868555098845
-0.17045787257596567
0.4123943566818672
0.15465805608400962
0.958956109696498
0.19993032600582084
-0.052374778491094474
1.2042212418179263
-0.7030035102391103
-1.2210526355275426
-0.9355176243721177
-2.2183085034772336
2.0715007724107273
-1.6913878493395709
0.09883054290381903
-0.32802502426389474
0.3367093568417193
-1.5815035374607442
1.7357094351340376
-0.22721245198067394
-1.6804628480349415
-0.4508546629375205
-0.8395140610034635
-1.5932379656479436
-0.4353600260702311
0.2327946175033087
0.8323181935460823
-1.0654944104339112
0.8090832950166826
-0.27704943500549645
-0.8535717606509978
0.08358681081717309
-1.0572625247853364
-0.3062666505673559
2.561550925359122
-0.25606335092002885
-0.04032936609569196
0.2952725570490501
0.18958038468132882
-0.9295820491729084
1.7727311995798203
-1.2903653403703221
1.3286902973508066
-1.4380941830728426
0.4845915887864562
-0.20398082902436318
0.587017281237642
-2.3972605457208402
0.8555553486667649
0.6982694037230205
-0.5055528873072044
0.986538909560509
-0.804257974479365
2.0255237592944932
-1.3810259675962353
-0.5317317503225849
-0.9082598954531301
-2.4196975916975627
-0.5246565931311433
1.2678888239945205
-1.6877630250915947
-0.5851237958300025
0.15149982483419053
-0.6163250881862589
0.3498664649270217
-1.600917613460913
-0.7572111770563394
0.2964506171524165
0.7992347242460135
0.6766784963873551
-2.0489131480492038
0.5301082871217373
0.24152503499045588
1.387191864125697
-0.3740334897303234
1.96051114761105
0.3397634032796771
-0.45953758895158714
0.5435091458597027
-0.5653469682945972
0.09713716184277991
-0.6737489621546124
0.578906421562095
-0.7024664310742277
1.0388545579467803
-1.9220168312289665
-0.6050163535494989
-0.27546420947644795
-1.0293463128558533
-0.3224750270274508
-0.10742281985903591
1.0807751709578797
0.8191716851545807
0.5422090752152416
0.2728807455154007
-0.06088231309397607
-0.3319922869917167
-0.8935102717421611
-1.3009183255201004
-0.9343473587713979
-1.932746699401783
-1.1077497997075179
0.580166130518945
0.42586938344734987
-0.26636520970208255
0.2511564864002591
0.9823915474978494
0.6951682592138213
-0.15052566451244742
0.021403281148292312
-0.19766437615582225
0.02475523086937549
0.2103495466574715
-0.19672397920626802
0.6133410297971119
-0.6968854723329752
-0.6969894311528678
-0.4947246298333309
-0.1442958782936849
-1.63301638836601
1.1341411576014806
0.6705852174794807
-0.74889429723023
-1.3100948021496135
-0.1326612870768249
0.11967297790426146
-0.8729301700931971
0.10276865412887592
-1.5839868205220085
-0.6611052270043283
0.8429797361692283
-0.6832651138876275
-0.5500744238095769
-0.36085071623472403
0.4727806689988877
-0.7478238173158013
1.0264441890113944
-1.601006735046885
0.45418417336291195
0.4590841519525189
0.7191309770229303
-1.515409704576212
-0.15179355486026908
-0.8820994728609354
0.01599085050665108
1.172264928534563
-2.0706090282747973
-0.22893167829315492
-0.22945758713049932
0.14829607383055482
0.19365524344438417
-1.1382742763375695
0.6093631673873752
0.42985149125479927
0.016027024450708673
0.6898016238857427
1.5885912598386502
2.4740650069623915
0.30146032245661497
0.35845870681433933
0.8339120202218411
-0.7793228096612773
-0.28760038160960333
-0.6969485196410689
1.0845169095724758
0.3761264680818477
-1.3263686549187819
1.1591693394922022
0.2711315447320845
0.40523928095531786
-0.7318479027768957
-1.2125483236976415
0.6229907324004637
-0.6013794344773346
0.6172364596631595
0.3538400922188914
-0.853794726335039
0.31121513340807605
0.15878328640481623
-0.7017926006499661
2.029711334069132
1.2829570453031311
-1.5117851174234056
-0.26971899063549304
-0.4704321683965727
-0.19552558482687293
0.6007515410533507
0.642325610700647
-0.6882442612081386
0.13270686109416469
0.09300237688966216
-1.0475695703457062
2.077953705792441
0.9727459131590152
-2.7265515878573536
-0.11365886428064696
-0.7908450489951042
-1.3760207944791378
-0.5020311986068929
1.552736687799415
-0.4992439373285546
1.5812301011958414
0.5810587679058111
1.2975269479431606
-0.11938247268178605
-2.3579186693393095
-0.5747876493973709
-0.3169157753937695
-0.24983201510606265
0.34694925815747507
-1.9954234297984463
-0.8336027649832565
0.2714546894467731
-0.23995555284031753
0.3243170619611223
1.0789398995223092
-0.3142862321164711
-0.4595865721028134
0.26625504463899313
1.011775897200685
1.5536478391017816
-0.9252502052503464
-0.8307613529196648
0.6829610333062337
-0.41767169416966693
-1.1944766534052715
-0.641746028922724
0.9423540344758927
1.313946451916141
0.23619500336364463
0.08522030322327047
0.31064246013099267
0.0606531999037168
-0.5096403293981602
-0.8951538648123024
-0.5597116909409605
-0.8649266458383129
0.6205896461621817
-1.2867770408937962
0.08120178420680056
0.3848051964077012
-0.04004716353346503
0.34479813282254584
-0.5163369280939473
0.8931504117974001
1.5110948655715342
-0.09075440710056666
1.9088357127832796
-0.3038533986537591
1.2283523871912594
-1.0482849065565019
-0.16987946070477886
0.6863750610005851
-2.2266345460775323
1.588344592470521
-0.43477519630640876
0.4659337793924322
-0.7623953404141276
-0.3474586040833607
0.8062988258920356
-0.4495459340933631
-1.0738154259329382
1.9592343662117986
0.2628016152746471
0.37113145869428366
-1.731946433222826
0.007366598704490987
-1.8183457479322396
0.1490074461180921
1.0108021487030237
0.8084326156184924
-0.5023232498243922
1.03739542301533
1.381492552980242
0.6354631803109776
1.1123662056348682
2.25120139592999
-0.9040081331528005
0.6774885608630267
0.29101830033484755
0.6386176921766448
-0.46883606149192625
0.8749560344861689
-2.03956096612805
0.3331219438110177
0.860903053597397
-0.8258061510382031
-0.957802341893248
-1.869376800407775
-0.402597710640399
-0.5259265876122954
0.49029446187551373
0.13917384702602972
-0.6315039611492109
0.20618104941303247
-0.029932971638913564
-1.197223048389908
-0.5605574078720907
-0.8274071856828495
0.39449641851304756
-0.49648623997660596
1.7172861348370518
0.6316488009885157
-0.4455255096792764
-1.5144205093353014
-0.5994440109324032
0.9328989218319885
-0.3152274262651288
0.8553982896942309
1.289120963028865
0.6672836562871548
0.4431544072492253
-0.13339819718015286
0.5455459394571037
-0.5919762904052632
-0.6547217360830844
-1.5747361905509076
0.4283113309858394
-1.6225916122745325
0.43267164081169346
0.7701873721018655
-0.25116333786598616
-0.7846229839678031
-0.7106825914848942
-1.219951395989864
0.32752726039200764
-0.33695544099627267
-1.8670689200386568
-0.09134138414710216
-1.4563058856154072
0.8060738447100356
1.4137820863796309
-0.9269210474329356
0.42093874535347114
-0.34679298222783944
0.6273413531476677
-0.35519038224966565
0.21396824661829408
0.1852560339221441
0.6536580819022815
0.9060215000938722
-0.8187443305416672
-0.31601560465718775
0.5824616109933556
1.0563260190831731
-0.030506930013335005
0.4939217027804359
-0.2971620559027651
1.6308780494506825
1.045668747266551
-0.4309133474892651
-0.7892726109822943
0.2421505522010655
0.7560611970456845
-1.4777092645051586
1.640849126703631
1.2814526785495661
2.2075500274452384
-1.5675586810101165
-1.122255337387511
-0.5941302944103201
-0.5011513237542964
0.41195168945208027
1.5882163657412192
-0.9623397642766888
0.2576756089485125
0.8214636124252316
-0.5628988164200471
-0.562296583818146
0.4610792178773366
0.24917323329137522
-0.29101658718894485
-2.1341446877201187
-1.0768496871478381
-1.7394496999616635
-1.2022135959112967
0.059316303961222346
0.498362327771843
0.45440128887054065
-0.8562196099898343
1.1867395223933868
-2.70790170610648
-0.17104162281682306
-1.4509065037789184
1.7106023014729455
-0.27964580364557184
0.7940275721453542
0.1561846729784226
-0.5721638882179395
-0.7481037347115318
-1.2212005488241062
-0.9383026397354176
0.29510336276000754
-0.9369292282764875
-1.2782460676054366
0.4270824310603661
0.015210722099358424
-1.012876914371924
0.9887233113876416
0.6660807794094037
0.8683427574330108
0.3096511553182375
0.5556874126554022
-0.8398712427929301
-0.7818367143873656
2.276725590441397
-2.525851737665219
-0.7115266331058107
-1.1152142171558996
-0.13142190288624567
1.007105646169288
-0.2817542845606222
-0.7497070204197711
-0.7331078395191986
2.7263334834851176
0.943912030603892
1.0675356854720883
-0.8331655739407945
-0.7203031224649645
0.6886272402542555
0.34440670890818686
2.5779053965074716
1.2019412198357358
0.1584495044072263
-1.9800026411158262
-0.16210944914287287
0.8383384332075707
0.9458321650934484
0.5283277673318725
0.3002028195951618
-0.53938925724991
-1.0910265079180674
1.0848786446323457
0.39811467496416075
-0.975252310567378
1.192650472444152
-1.5705807330322514
0.7329494262137758
-0.22307101271799287
0.8603282299425942
-0.6159422085689648
0.16995904816249002
0.0010081619382034518
-1.268372406286049
-1.0811109622211916
0.5956935958580679
-1.89055837749418
1.2300833241713949
-0.43682924641979204
-1.0706978455900429
-1.105614603710886
-1.4172058529785214
0.4046593305151007
-0.1933346528100032
0.6948709326861991
1.0816698267601097
1.5090501694313512
-0.5876064343520221
0.42716683813381934
-0.20684426849333912
1.5133885089200958
-1.154886178526348
0.11682309481443551
0.8057622075367027
-0.7076628740142562
-1.506599180704362
-0.1421885776509807
0.8130021849756122
1.2755312318559158
-0.01158837046174705
0.21767129754468922
-0.642382370720455
-0.8749171306833755
0.931326170176738
0.4223301286385025
-1.5249547170784037
-1.0431716483793967
-1.161690522400299
1.5007096778037203
-2.228486378064575
-0.3829542083887196
-1.2242748213038346
-0.7815579402050461
-1.405749712954028
-1.3634490523546903
1.537337589004396
0.24751470785842233
-0.12274927690587678
-1.071075051162131
-0.22651908727644945
1.1187286517232968
-0.2558350035709837
-0.2918209358145418
-0.6468145053963295
1.551871554011677
0.16632087079117733
0.4529337132014246
-0.21000767189841488
0.5667465037275002
-1.8805898408408184
-0.5886360829586628
-2.095859496762042
-1.0512548155266104
0.6858512081085211
-1.0644383507978503
0.07217164196812054
-0.017261048285603816
1.3141028089867732
-1.3547719363629773
0.08365985627756134
-0.8008244312950067
0.8286929381675906
0.9529722131346957
1.5100979415427842
1.1535102526908307
0.5499540812292463
-0.17266492094024866
0.5982117175252509
-0.27512648863932904
0.6504989747864777
0.12343336140694237
-1.0214906109927944
0.9090338054805891
2.114089879273107
0.8382860281416452
1.205573671790173
-0.9440833115764202
-0.04575381150391265
-0.641061602609827
1.440886126363345
0.7827818973808227
1.3250067775631666
-0.06600949069073343
-0.4819781012898154
-1.4005325377462732
-0.5429444957404319
2.6517951189314926
-0.433442034871406
0.5367844830640048
-1.3225929068619984
0.33141472318465387
0.023272969305063708
2.1466254484232525
-0.11926651116726239
-1.6006672685411987
0.47143965519387493
0.6042710636311558
-0.3846899147112791
-0.11421524370664554
0.05302493134154393
-1.2604475202032075
0.4405277285866525
-0.18089959916820275
2.177970691384481
0.46215255437105346
-1.372872489726938
-1.2471285544339141
-0.22351673700543745
0.34343370649633786
1.80962395725858
0.04905795734222312
-0.005084510801415151
-0.05282861565916749
-0.7901571507284806
0.21940345427196656
-0.8275923351243809
0.6009001296620006
-2.321752556146539
-0.12274990545985048
0.44594381228226987
-0.5735483304682105
0.3366232661989185
0.13553773156174065
0.3943308115710349
-0.22371650251598194
1.2763009376334404
-1.2845718567379885
1.1171870837986715
-0.1016765562932969
0.4692737404524205
-0.2362028419475413
-0.7384409165692141
-0.8432555745765661
-1.5457821265426825
0.0818743322432156
0.5102599106341584
-1.131617527873376
0.0437115286169194
0.37108706668753927
0.038704760554607864
1.9810772079667835
0.5277322243089958
-0.69594008354967
-0.8688503352458975
-1.6067695349499205
0.4988823521201907
2.695045328331425
0.26655734623548316
-0.5420652581877529
0.06657417748327768
-1.0695134334545404
-0.3200250679131307
-0.30353689332517253
-1.560611965595372
1.2097358639421671
-0.6991381032790407
0.85054836859793
0.3872032339600464
0.23680519056185065
0.9755019945444506
0.18081468066942444
-1.1308307940870237
0.3407579898647471
0.6515835145439923
-0.402725125160001
-0.41401608751322344
-1.428936514497275
0.998045407176162
-1.1736530974734647
1.1948365274197672
-0.8222383674508196
-1.0896211428543086
-0.12293426599304617
-0.5459693580929419
1.4270839392137487
0.36669757373708345
0.5747033161799192
0.3841033086175855
1.0254551724229668
-0.2266427534877351
-0.2120687744723623
-0.23087236498002658
-1.2861473729967556
-0.6211035585307523
-1.459173490869106
0.8317351726827541
-0.24927168053347662
-0.33841637151198595
1.1381688309771478
0.18634131997421863
0.13276746421295038
0.10486353645731297
1.2388009783292815
-0.028828890912608814
-1.2662333433927617
1.1377606206001813
-0.16454986592217666
0.06810932859539831
-1.1596774029966705
0.33387862784239253
0.5826782300510855
-1.2896573733167749
0.999604923104949
-1.6531424323021917
-0.8519429823098409
1.0409687674655
0.3646170838861531
-0.45412351879391105
0.07454125916682605
-0.029948527658082747
0.5387791504755385
0.8138423892110724
-0.2239530639326197
-0.09179889312270076
-0.6108214510292492
0.8072092668919937
0.906811078411851
-0.6284883041747499
1.5701495173987474
0.43272182261442255
1.3464834627563675
-0.33283662817354
0.3548169734880644
0.26464469675352215
-1.4486753144177495
0.6034315747058967
-0.06443261425793119
-0.10594090007692977
-1.1000080069083702
2.278629273433554
-0.5393097341691381
-1.6748680180632585
0.41037436170818664
-0.4999569229958137
-1.1522209141694515
-1.4075155144174087
-1.456320502093551
-0.546721794485219
-2.481671447519982
-0.1565017009462436
0.35552909414346795
1.7869762859367047
-0.11297426658882134
1.522775439052087
0.9635612134258009
0.09363105248921143
0.4377760885580796
0.3226389431827899
2.3105307520343645
-0.6864949107724487
-1.164646777261203
-0.8478911406654704
-2.2796302265627104
1.1015095747892072
0.6659803846140835
0.6913086631757327
1.0240761539480052
0.0655333570274573
-0.6819624669007246
-1.26080915896896
-0.13122466815551198
0.02827297243281654
0.6749641888713701
0.3011286757385478
0.5422807303383884
-1.65782907380643
0.1779842471771124
1.1641839563018248
-1.2109561547422374
-2.2378783130049618
-0.755971212510944
0.41718783643406393
0.45977810795135565
-0.40790287445861
-1.0726815062628314
-1.1091953425433474
0.4488730076790081
-0.6313181491755918
-0.052483036339768856
-0.694784629833205
0.6709671378994452
0.8986867734555716
-0.7765660059825596
1.0289340586280193
-0.2208413494879705
-0.06122844384081654
-0.5548494945814209
-0.28869807019160276
-0.655138246907916
1.1793293907191558
0.6507304883315227
-0.46733358117390783
-0.42730583704419084
0.5104358079470352
0.8238349296735207
1.617197889997212
-1.7209213891940012
-0.4985731282012528
0.4662021149949064
0.09468839439993135
-0.7298670178702386
0.7939200159114815
-0.1298415240941631
0.0900437276387022
-1.329339109662922
-1.3354684021067855
0.9050516466091832
1.575028582726984
-0.6036962377231293
-1.3427386975137927
-0.744616754255312
0.5817394428367763
1.5207888199431674
1.4355581990704362
0.7272130258459187
-0.5758108271652879
-0.16919374832481382
-0.5155917551980579
0.7341505467028999
-0.4283934008283419
1.0519809451098237
-0.967151273034346
-0.5299362040829233
0.22379202318275884
0.6535641692260868
0.01053840795709617
0.11424031270872206
-0.07710404544713412
-0.1926707237442322
-0.462473668232672
-2.0481580346059074
0.03401162475692815
-0.9381038744735224
-0.9224369660536438
-0.7352754959979246
1.591078961629659
0.012495404284908366
0.988957480243827
-0.11751978512404718
-0.5096343048113576
0.46775238421222876
-1.1912887097043872
0.8715865950212499
-1.074203900373061
0.14989290367679917
-0.003247362584149973
-0.37753001229199196
0.9209738042682669
-0.06169910049933171
-0.4413796239182403
0.3674107223865758
-0.2551578773011955
0.17966958044444642
-0.3407254065901099
-1.4414357589791338
0.3356312244530114
-0.02290384831797346
0.3095729081388359
-1.461165610868727
-0.27996048676168195
0.1422858689733585
0.0684384681694367
0.13327457552000452
0.5416757053880727
-0.7258385414393344
1.2746276141849482
0.4915622912095546
0.4868954552835327
0.5944211220966399
0.7233624874149912
-0.5821658903286501
-0.677219252574326
0.4888585712619696
1.417719636885612
-1.0703820210875639
0.08148982941841501
0.23031378274185216
1.280197461374768
-0.03005242285726804
-0.36672552862862257
-0.870862521016659
-0.22231109606751775
-0.44899273026361824
0.5188431430747458
-0.3874904497388904
0.04231806199766731
-0.23756181555793554
0.6508863971552414
-0.9501816689127766
-0.37168421691751213
-0.6199283531803951
0.27192900556830485
-1.189834087916832
-0.5258670252794463
-0.2518823666359572
0.27234475640375727
-0.08663429208953306
0.37517832190343936
0.6522195223598254
0.6942204647518324
-0.4534725732738098
1.4068618756781086
-1.0363066077979717
-1.3839450831550228
0.3773388539317878
0.021423406576178337
0.818195245599372
0.06617520028269333
0.23254377743630092
0.5469181742850818
1.2515800776390162
-0.35676546676283927
0.6871405450816049
-1.08398351467173
1.1263285251155362
8.355601199627469E-4
0.6118695772653441
0.5189201329223364
-0.40530261769506865
0.5301231705867573
-1.2046485650431586
0.650360408479697
-0.33668918402696496
-0.19641889484155267
0.8418891820193726
-1.8959294460390481
-1.0543721030799944
-1.8581033516786731
0.7152475967969136
-0.3156612800940336
-0.5116856179516264
0.11533267359371735
-2.0787236573609675
0.9208947247374314
-1.1453016381371788
-1.3112573744075768
-0.21660530796820376
-1.9915772795338968
0.7062281566533442
-0.6776958953489316
-0.0542420112969036
0.32015055881185245
0.2784960742122195
-0.22416308724363304
0.5605489957868552
-0.8224528938218066
-2.5865101293702706
-1.6025006601864775
1.6299583814885277
-0.8703823080811882
-1.2370626093555226
0.8872629707316586
1.051097641545611
-0.8106672903647771
0.4845487617762616
1.0281295374696646
-0.16849057002185472
0.28556827342347213
0.9492628102360224
-1.7151522850189915
1.3929968892485063
-1.2042035433889338
-1.496423378173278
-0.704851297280589
0.5456684209154528
0.07342210681094084
0.3579599849009411
0.023818728965178684
-1.7007685730935573
-1.1328958899192587
-1.1563496347177094
-0.020587636073315332
-1.2401335789280108
-1.5557769316534376
0.46590162622333037
1.1938048638982606
-1.1743200512796839
-0.2933682796651333
-0.5373358312238183
-0.5696771638736313
-1.3323752657151926
-0.39538302627742444
0.37177654333654425
-0.0867374855817957
-0.648326785125402
0.223891400325
0.6919114840051996
1.4083236510513046
-0.9981987188063678
-1.5633086976932808
-1.0034297204351286
0.771845734878499
1.3134389744351906
0.4807720606203899
-0.8546482780607533
0.5803493393429444
-1.2603031848038608
0.06678401199658851
-0.5669700750259263
0.06338388938814218
-0.4918342005494075
-0.7909323806175902
0.7333542511498993
0.10354178813746373
-0.6616523270491257
0.469623029196517
1.188539849381548
0.04181620971640962
0.37498442965988676
-1.2842991649777025
1.286245337404162
0.6560210700621046
0.668557509963189
1.1751611573593586
-0.07442562737142142
-1.2488591158762086
0.22759603578055992
-1.5311963141166274
0.2955831682809583
0.25257969687619686
0.19113565030316512
-0.9054813210373072
-1.1391464527870694
1.188002066562981
0.00992857412375412
1.0458168042869884
-0.5865888614200075
-0.876950640783824
0.9177461617865922
-1.613192805074295
0.24842269563563135
-0.43375887565115073
-2.385131845325686
1.0374154581890223
0.7636796734812238
-0.3881472623626036
1.3357345436031502
1.0335823968952709
-0.01842968203813125
0.0528030248569544
-1.7110832639496196
-0.993201435829947
0.42131010266942825
1.4193628319587512
0.9608885190107993
-0.4399857645168737
1.203689287415504
-0.8737007399224856
0.4509009612912474
-0.6122046790548608
-0.3520431771217883
-2.2188516560128835
-0.056362323584195954
0.5420748555097993
-0.5560045135781408
-0.14275376481117535
1.1936703095743855
-0.3114801670332785
-1.2569799864916118
-0.7534665591779325
1.695693937527819
-1.3242348721548456
0.4451730108693232
0.49168805562116735
-0.5086876184049526
0.5592085409517592
-0.6312817552417547
-0.2487422710818673
-0.7061405078515667
-2.0483675615471015
0.6632985420053678
-0.8407935083409938
-0.6018705969435533
-0.09853233598849065
1.229321018800053
-1.2786833433013096
0.5568761779508254
-1.4920225419310789
-0.7126117684249369
-0.2235209107123297
-1.4596661205972976
-0.23189671149836524
-0.6102314319700559
0.7796505393942482
0.8682470591940876
-0.7501137970819097
0.6757894373160384
-0.31457776299136236
-0.48337587893309064
-0.48362979128173345
1.461381324245531
-0.44702757703662493
0.30730936523197333
-0.09233758978731518
0.13432993747806285
0.46336655184692177
-0.0011270874004459459
-0.5843098332834191
0.012626197179802599
0.35587829877969623
0.10180854675711926
-0.7138457304119894
-0.3731679017077364
-0.64215840563893
-0.3452716830426436
0.411479229722987
-1.1113258209520938
0.9243618365054297
1.6915370398761806
0.46601206890971286
-0.47219665875213246
-1.6196657415719449
-2.58946441588691
0.6334965036583203
-0.6478905536908274
0.3823839156799798
-1.3647357350321887
-0.26013155376237485
-0.5175883953931079
1.5171077889114812
0.36147650144585086
0.2545984791842275
-0.6230444027225529
-0.5094922377197516
-1.1103803932758505
0.38885358282135696
-0.37267543619900484
0.5721033912328597
-1.8202727002809602
-1.6697301317811644
1.0473386246129759
-1.1619723867076186
0.7352617767684663
-0.09030769645706202
0.831980967438052
0.7680262733864964
-0.3454214328187076
-0.059990764480911
0.023319448529616097
1.425502900964993
0.977694405691347
2.175077283336548
-0.3547313451911204
0.37870150689967946
0.749963200570817
-0.3067021381547896
-0.6920521949210523
0.8507151897200167
0.5943966685668665
0.766009801734698
-0.8848726568109725
-0.9090512475138001
-0.9081114186565147
0.6818149481605136
0.2228436199364693
0.6089801569115213
-1.2611950976172546
1.6082593026354364
-0.3016464084117925
1.0980716111892528
-1.556232910564892
-1.621823190694284
-0.2299027069429507
-0.28873349005994287
0.12598014365808372
0.4234625791609645
0.5894094415158954
0.9462696882407606
-0.11946248510101207
1.63039832921142
-0.21366320700089977
0.5411397921001649
-0.6023402821584973
2.089957224188683
-2.562610577491992
-1.0075889606824593
-0.4659562562911101
1.3446880408419493
-0.0990997520826487
0.014073457346917008
-0.7362095533178971
1.762361939644036
1.0282359759120743
-0.4034309709394855
0.8066641831117284
0.984866442462166
-0.014381178098251407
0.6200956562594298
-2.3222699877441326
1.0778062965746016
-0.16379542763871438
0.3179644356468241
-0.2894666181534651
-1.50907367571561
2.061883775231703
-0.18491131725644885
0.7289885190125708
-0.6828062005491347
0.29997117662169187
0.6930500909317602
2.0834567857543096
0.23641808375938797
0.14503020333697317
0.435051614892468
-1.074114861896442
-1.934306685979158
1.5834971548062071
1.2190842563364883
1.0274885550096309
-0.34165966368282347
0.8770333677101485
-0.9715705810470364
0.04191054628386076
0.19183705744777854
-0.04404013183577167
0.2805434461652797
1.5696772413128626
1.0521700167970567
2.001927846273806
-0.14414799792161356
1.2729747864323695
0.7218611875099724
-0.8830453264567185
0.7128177477972086
0.46679960933490283
-0.4307845989159564
0.5428725843033805
0.8311550904791738
1.2417541616112238
1.9109878381051446
1.4320684939861825
-1.2418189561121153
0.9765824457612401
-0.8992628302066432
0.7081529740580231
-0.08238291776574211
0.17308151997932666
0.28480566138903307
1.8962862275858197
0.3096667167317825
0.9605520263385519
0.36333215712790795
-0.7701004400484875
0.7139052983309563
-0.5103627904142214
-0.2587749732293485
1.2858609659214746
-0.31911573007916205
-1.1665768496097053
-1.3215089139630343
-1.0339206166315118
0.10035618927125359
0.002964095998488139
1.4211032927505314
-0.45609097097928664
1.3260702920172915
-1.07254434857405
1.2837375188166273
1.4756147747826316
1.4426371885198475
-1.0987737293214461
-1.3837955347180055
-0.38508246964346055
-0.978815515017341
0.5109831451876474
0.5624130224540315
-0.14860165822180713
0.6594860633968761
0.8859562603109108
1.2632243421546099
-0.3300006076255812
0.4226283199071776
0.7014942124087941
2.4333047905659
1.2422810956015549
1.6235729201008653
1.4103617602705647
0.6745363265976727
1.9200239269320032
-0.6106373670391536
-2.6147070708698417
-0.12911571810751676
-0.13683418650506762
0.1789270094478996
-0.5938834485351704
-1.263892988333482
-0.002552585945501492
-0.8277542524527716
1.451539180086757
-0.25228149885066986
-0.47370746686839493
-1.377481447737605
-0.417622967136485
-0.34466065579360455
-0.3603255129739315
1.1158035992058313
0.4950310302838576
0.38987172583066537
-0.21641475300809093
1.0611757877685166
-0.0577758932359493
-1.957325281119551
-0.4650781844102058
0.40846394409377035
1.9290252414569842
0.5911220694206365
-0.45245099662580945
-1.4410142471485419
-0.6764562587383276
1.5729043546797872
0.770006744229731
-0.5140703713845318
1.1976271653927444
-1.2828590395700514
-0.2434855588528181
-0.626730395481449
-1.1969122298851496
-0.5527271832726397
0.4654098711052888
0.5157526043391383
-1.643223899401646
-0.4059106340518504
-1.058676202648238
-0.6602936022768404
2.2565181393628704
-0.35947744530720427
1.1130901358004823
0.9326169751504653
0.9598897199004139
0.30125282322968566
-1.7839425739334318
1.374670168062613
-0.8949531194664685
0.9512988733205737
0.029771525801522307
-0.0754455643941266
1.4323224386615163
-1.4432323221188315
0.6436826632873125
1.1675685064457202
-0.39480804722789176
0.07923680836872805
0.7191060919445537
-0.18958191235744828
-0.41528474530620224
1.0924778032234344
0.946144797969774
-1.2318292168415348
0.091261712256408
-0.17951441140340121
-0.11945924347299777
-0.6786732326841086
0.8231145491736549
-0.9580515543681174
2.0886109778258923
-0.9478190932612268
-0.1367209037935646
1.1077945385150494
0.8537147172974917
-0.7700243519308001
-1.6764125081530301
0.13237877891951105
-0.48853179164349536
-0.39072775818286465
1.2647327579065735
-0.03196629039452262
-1.5836115355804508
0.9853146618762332
1.3059734939722496
-1.7001731073705855
-0.6682780310598292
-0.9695755103478806
-1.7253863934437104
0.4086410412913545
0.5011333020423038
0.46020745789360684
-0.2354375336488477
-0.5157813616824755
-1.080507326416466
0.5888549477535557
-0.6222261797218838
2.940426619018495
1.5203100588579803
1.2977631471233604
-0.1420653366389199
-1.2317428993413586
-0.31909933473877633
-1.0303838248218975
0.8219462060394906
-0.5397204413117171
-0.5713735452005109
-2.0999756960707874
-0.12424067169652979
-1.02568763849208
0.5799416014328673
0.20281493576119236
-0.3505005966609948
-0.7507496974382541
-2.0079599364467877
-0.9478952172633531
0.14761860560014947
0.5270474763633483
0.9995028101966422
1.0516799683244564
0.23830765652115957
1.1910074900498568
-0.5977937973402917
-0.43866976188836526
1.348505697526015
-0.08785026755469746
0.5076927274981226
0.37686283969945095
-0.9243148497206218
-0.053274680987923255
0.44452743615105494
-0.6218706257286216
1.5105380308146343
-1.094537743747167
-0.8905897686761377
-1.0695298603604784
-0.9369322822005819
1.1692061328837777
-0.9684478989687455
0.2748609903673502
0.10270958882907542
0.35958904671091124
1.952115769139635
1.0228450174406292
-0.5002633454659265
0.00806848915266689
0.8603184650519968
-0.18687370336374445
1.3242847165948513
0.4474596573040774
1.2543059973143043
0.3939336195032323
0.43603513861350374
0.13080335403339197
-0.9364753791936742
-1.1914155244720614
-0.2383203089573572
0.07761804353827004
0.28346170263085113
-2.0796544858123363
-0.8368636305823834
0.9595959134436466
0.2977390356322072
-0.1717511429562799
0.4498327392282437
1.0891694798130351
-0.4267018520841747
-1.3066422891743046
-2.132581496389085
-0.018969310653418225
1.9414854494565266
-0.9499395370658181
-2.9148293036936823
0.8565338887177558
-0.19498351743407497
-0.7482460299845309
-0.7987598398417238
0.023490684004823206
-0.7616384284678878
1.4342665295583372
-2.5046727158594195
0.19385280449202894
0.3808684139571225
-1.7076632639040723
-1.6273781829980227
0.9254268696468121
0.5028969655568362
0.1792165399496519
0.6809971204351658
0.611724984754532
-0.5979285351065445
-1.535933131597693
0.5754395375278891
0.4932475583513831
0.9151531163307731
1.1876414945249127
1.4623126170819953
-0.4015410016785893
0.6061621959986554
1.1158214036049472
-0.5233701079662303
0.3421908528891129
-0.8909477876863833
-0.26189558045250416
1.630285879366265
0.31584960798359496
0.2534479666997994
1.7085089858155598
0.6374254013760368
0.6510038170184103
1.3739870723557812
-1.8789165558496055
0.6536777082412718
1.9447974401074684
0.9582451759144358
0.060458428104330456
0.5818604330628961
0.04637048868106784
0.33743328702410913
0.16408099908050838
-0.02962717434959249
1.8660619554437805
0.8502401257634699
-0.34959714912639067
-1.380625159521026
-1.0217949521292244
-0.2244089279058123
-0.1616018170618437
-0.7726962943237142
-0.8051955005203528
0.5229819196075541
1.6487652071794523
1.5649832960591186
-0.13638013651909078
-0.036453263730734736
-0.7538049761947747
1.000149699575655
-0.44273066234693303
-0.28982971143913866
-0.21373357282361297
-0.7242537166516438
-0.5906963790943748
2.216954315095866
-0.40005761698658204
-0.47964762655545723
0.04104168969589483
-1.1935379741715166
-1.419082884485635
-2.031391417567364
