0.9029487812215656
-2.010410605393897
0.09404275531472826
0.056639193638952014
-0.03970640273896943
-0.5235977202853707
1.3554312240583575
0.13138272896958653
-2.828123113301618
2.3230007399322368
-0.4697762054068289
0.70102689385299
-0.658005776138173
1.357154373382465
-1.432536594094072
1.6988399124547369
0.6603841180451552
0.8461809336314864
1.6757221415121937
-1.3836892189485726
0.26908742925357404
-0.11219208851874664
0.4150779619093133
-0.1142881656823346
-0.629201643185878
0.5687272634334167
-1.5655235915254753
-0.7363849898436947
0.5546794364626751
-1.7992346793020306
-1.6061519209363535
-0.14626527680173548
1.0333903168442689
-0.1999425614300743
1.6161599614431943
1.8269576366450455
-1.0366425703467557
-1.5209460122538707
-2.148816464470141
-10.35755320827371
-10.316014133225709
-3.6264993616179506
-2.2179669866760383
-3.487159026192146
-4.2865528403163635
-0.6385986906981704
-7.552070050178432
-9.848353777901142
-5.291635297913983
-1.8743677085488584
-2.983741025792102
-0.7393095429643741
-1.4378171245075446
-0.5716553674875361
-1.0657039333681133
-0.09071066342221375
0.0564823837970553
-0.10054761063914029
0.1643889554849278
0.5663245809460179
1.8239845366708796
0.7917569213022432
0.957523256625185
0.21845761010293124
-0.07995956048844588
-1.9179764079157677
0.8900492069089329
-4.6864709742692225
-13.306634507107763
-25.396546450012334
-5.477220590235846
-10.090390215051466
-27.713381259789834
-46.948183812152
-81.28698578519625
-78.48105569572225
-63.76583715528597
-41.47569041975562
-30.23451133274214
-7.916309851326801
-4.040071793822391
-1.092090498050015
1.408697183496481
0.2323161078896721
-0.8620484322435981
-0.4311058032005188
-1.1116346877729324
0.4670569442998773
0.522517942610507
-0.3526246522218703
0.053627785004914504
0.6854394157005331
0.7240407596133089
-4.201429814103585
0.3126483005755628
4.185307458124234
-3.7555355370417907
-12.871666576921974
-12.84678296721765
-21.62842855330725
-60.779201453055826
-94.61681040499502
-110.96230292773515
-117.83307692053218
-123.01186705262491
-99.91603114235434
-83.75788806607025
-50.24475117798109
-26.304158820958868
2.481622945642253
6.218869827935605
8.058743230978187
0.4331998753252169
0.9280290938662835
-0.3147432419711688
0.19386652058073678
-1.385445685706849
-1.517468007816051
-1.0875724291935134
-1.557706634934521
0.3686743517911948
5.209627529474817
14.868900799947236
25.136561916934816
32.34443986596222
12.493239901517324
14.367902692708375
-7.405255943072898
-44.2705089581434
-63.76510740527072
-130.99807274949472
-159.36062260189703
-214.16108132031894
-252.56526432508448
-198.93685103668454
-140.85324307128377
-75.9889922125181
-53.43503595487503
-18.025359527546712
-11.394777107315775
7.94750027360592
0.8411687242467172
-0.8174764419107305
0.5859917259749926
-0.3070948288637255
0.7721112760303213
-1.377426208936409
-0.3986229306896201
-0.27052990108215447
11.654091019213674
29.965588511300492
31.828709675203346
42.65975102417991
61.26669840888773
51.26162117547823
25.923127943701914
-54.613526586651005
-151.67330723179316
-217.76003653793697
-310.54257281766627
-339.5948278841722
-400.1491713871045
-338.56484719372344
-272.5801283525137
-183.38516507020955
-109.98848553130645
-94.93517933367659
-34.532747884508886
-21.29694487921949
8.533998986988921
-2.64321223385344
-0.5830267381813485
0.7872927263899804
-1.5627514447555462
-0.09891900343150464
-0.06581497550749496
1.2511228278442492
8.929742513685438
28.24206101867247
23.549804595211107
29.76715784770942
37.406479150733894
36.91178858876778
1.9592884793420673
-45.034560988390766
-57.09204062708502
-42.650130100404745
13.750144914559593
18.395991608102705
58.111628196675646
33.3692225882474
-15.952229462497284
-40.70843749862636
-32.61178734707189
-26.67967565136726
-38.958525350805765
-61.42747700097588
0.22022319833916457
-18.699664622123333
-12.422782645019916
-1.5873308705884417
-0.7173110384775342
-1.1436309233935833
0.48602064450608506
1.6578043019279145
-0.7244579746147887
4.549404201813272
15.315970675003001
1.5141334876332524
15.317730203628216
13.058345294828872
-49.93420312093236
-55.14209261156951
-103.750583538785
-120.8161623126892
-27.185126637027192
-5.755211098912375
61.26377020495301
88.93748684513284
109.48125245476106
59.99105948711982
0.4754149173457481
-14.414173280640858
-5.394354687159212
13.712408539519524
-34.71437753113427
-3.10509075151118
-18.413448219392237
-7.042719557928487
0.0482191303554435
-1.531330403289137
-0.17369374210225214
-0.06974764865267119
0.07441458849214042
-4.20550962645684
1.1832389331887678
5.587099623400624
-39.56657022239613
-9.146026075529285
-43.66582305705459
-100.35022330979373
-135.36861788618543
-125.73719546473478
-60.646503319251515
-58.910868646987815
-41.375190974720326
-4.732371365950591
-27.08334029474242
46.85928057927464
-7.588033816126976
-44.87054870989114
35.006161104526136
13.50835785083967
-3.797789676086458
-46.65041246960489
-26.070105008814934
-43.04346566167494
-13.34342118268928
6.032216329016912
3.565062317159488
0.8142580018834803
-0.21633083349044316
0.8609171637753043
5.90495123065699
4.231328445691828
-8.819074058057181
-24.488702332640475
-35.05848463513238
-101.42179332642537
-153.74681438697712
-157.4309843875698
-102.93998762740584
-87.00515053153421
-52.87100525843233
-143.4112765101672
-128.89764462124975
-79.00053460292969
-100.05138916076339
-61.11141539810952
-25.39899229971901
44.606511543327244
-29.12322404209319
-46.57335616595602
-53.994995336671785
-49.74860768217562
-57.40081678471843
-11.134417237557248
4.159096670333471
4.844365612863337
-0.5738848476543817
0.8513752748973286
-1.2441318436195954
0.9719291027215927
-8.914628567642477
-25.636148521625042
-21.355623594033336
-67.87947408803535
-134.0394203987082
-111.13132373288998
-46.570182813854146
-186.17998937848992
-130.77138729459847
-255.22531963503468
-243.46237389336832
-219.57747440720848
-132.72438121937725
44.030333678570706
51.86713303218878
-29.86190648327854
20.56756628733442
-24.582591309827226
-135.47832403286776
-67.8691178841754
-60.69751217704449
-39.410663334291144
-6.951109994942686
1.7143606663205577
0.782029414496958
0.007470595352464333
-0.2801786438255427
0.5873795935203129
-7.552350465976157
-17.815076632170612
-0.05620072142654498
-2.692254365124638
-30.714805152146774
-87.75141263457687
-59.76503873895657
-54.59860296271847
-180.32639234224413
-192.67095057880712
-274.69767905779275
-216.06182241234634
-60.08442013328697
38.8360541290353
104.28891653321993
44.05972171226142
4.457945617705901
46.066993625628655
-49.777706712485134
-134.7934388350984
-143.6436172132747
-154.2799213726096
-42.64461087014788
11.063193944690374
-4.220750471034723
0.9784264843689043
-0.17293135322368666
-1.0158234782244233
-3.048175629515561
-7.500910196209166
-10.652607147879646
-2.4181025660817577
-6.574750795146189
-20.66772631958413
-29.455448367121097
-7.196531224100812
-84.6779877947503
-124.90636838199657
-181.81719885691814
-199.18099985438667
-40.06086433986894
45.798011503749024
134.46327255849445
97.07453248268628
37.868993298521254
-5.641408479986478
-11.270326148770016
-66.21298436593572
-101.68752473095952
-265.54291786537107
-167.78453616520284
-69.4479986326093
5.45459339372945
-1.7226147671403371
0.7709236816114864
0.017714121863742632
-1.533776208654173
-3.1590215536212956
-8.73898507257213
-0.9338640583687593
0.1491706142829268
-36.28997424889476
-13.544383882113506
-1.5224028406423413
3.461643120903259
-15.84485921918921
-83.28026590966296
-203.4684402477657
-115.49990347743001
59.6326549184723
97.4584889821749
81.31328431865226
52.449948928055015
63.04680376073813
-11.121992738828295
2.2860226552450116
-168.12983735478423
-204.34500175356288
-205.79419313789208
-200.09267659835916
-105.21064603365389
-3.4339830186478286
-3.077960217506878
-0.7066223667464393
-2.8541463070051054
0.24281229684533914
-3.386852069916837
-4.222517747900462
1.9979870270101805
0.17492896059229454
-35.63146108726342
-46.80401411286998
-88.44189970756325
-28.57189229492256
-39.973948994605806
-57.316741872559795
-17.08020706709342
61.78764908503701
39.60406442695867
50.17692004305727
28.508519075599768
21.266627634667397
120.39854055157338
33.457114622318
46.384792815356846
-131.137326289158
-204.25102355717112
-221.3566779012163
-202.7750523868397
-92.91018773868669
-11.46081520255932
2.27260322067201
2.0498391718496456
0.7487993950899337
-0.0939492713207698
0.21830017066001303
-5.204553861670555
-5.243581818956392
-12.028531326747013
-64.2241221525807
-63.527732783699705
-132.46376533806958
-60.45555658076508
-112.39763468734832
-14.273924564642636
-12.229038357021336
37.70138389662402
40.971765075850065
45.193027506431555
33.04762864364742
68.08244912685181
127.3006828332791
40.02265608397005
-63.795148374901494
-123.43768927898432
-240.31988538199013
-193.81256310928464
-175.63177098389704
-103.90617039215451
1.7800158848059673
1.6589296348213307
-0.4984204240098834
-1.96054491500511
0.5423646842607313
3.224595392764757
2.4030168745308984
6.287519351000584
13.42251678746034
-51.11664012620784
-31.28283165987476
-117.74532915556688
-162.9587519509626
-120.07997329665983
-52.736304215193165
-60.91917923425267
-43.17681789052979
-12.172997765185645
6.430522053797223
62.1078974051713
94.30569145926184
9.431840876416727
-44.804894938234064
-11.539586242311348
-163.97933500873896
-175.58205200954816
-186.90889902827894
-144.96844145900715
-67.60239009104282
2.8624117734762393
3.2686512889943575
-1.3966475980896154
1.4776038564144782
0.1599690674562516
-0.4909792186455065
4.293682307673393
16.488236838537937
28.523599583163787
-50.59775237624257
-89.75624605917204
-143.55560173055807
-207.95592787950446
-196.3979008247436
-209.71089288221884
-184.06305159710135
-73.25126041643837
19.420467571296427
-2.6560741968854433
37.169117206373876
22.1734740186078
-84.77345304390487
-59.0920873618305
-98.78723278824226
-186.7754353219334
-179.8072376515541
-131.72127168541388
-73.24643499312137
-44.46464892815419
5.769663207090692
-6.327677701316223
0.4920187470810174
1.5296773390663634
0.5004425817487754
-2.3187224474422132
1.5089938693146845
22.110953689251215
37.539831013378986
-20.657673328604325
-101.82399581597775
-232.19707106921376
-252.27248686492928
-269.85837014121205
-284.67415849181896
-264.57118221908644
-184.43045269546198
-144.27607531983656
-14.058771080249763
-64.19622030608967
-98.59331315099443
-210.45535758183223
-136.30139540557286
-70.62168807690894
-165.81941364332215
-98.58079627823072
-77.51046281991071
-24.229907745283146
-26.89826348963175
16.07094371267486
-5.670826624867793
0.9318148660248604
-1.1079654963312247
-0.3502410701805983
0.6984222307258425
-4.67874608729537
24.690544006298033
84.98693240938321
13.843217890335987
-54.43145518199127
-125.90661709192794
-219.32501593901057
-334.5293790072447
-377.5682481924216
-345.85666446905645
-303.5990974670942
-213.94551545955275
-153.25769028258142
-188.86634524045397
-157.79455055338138
-208.08702835455523
-241.89301996379072
-147.6887307446019
-93.9243592882634
-45.97309404191425
2.806227842167724
-21.332271182272063
-23.990410765946876
10.348263473560106
1.300651038216913
-2.8909910237484553
0.8963305560727812
-2.0397683414937844
0.14699350130685343
-0.17503743603400912
26.294543311886002
60.138679520622794
58.27411981664181
-19.624085123218425
-76.77135888649137
-215.6868089484767
-309.95205269731315
-350.6474693217489
-396.9166839386097
-311.59897840660733
-210.77626968553588
-200.33687391032225
-226.46868193724936
-179.27772254081086
-210.89703010504562
-185.47545670083045
-75.83746623856739
-37.25446041423872
1.3442914772539496
12.068387317639823
-16.41599742561096
7.247526680252652
-3.374443428566279
-2.6789178250739996
0.22433429321551646
-2.6661771686167977
0.17407220027807585
-0.04800556692841683
2.848632974855137
27.905408649859524
42.07231521886397
19.308368028577316
33.0042086119239
-100.24116488020235
-156.35300856819552
-221.71805768442456
-285.1845612639329
-363.7892523971897
-348.102772960559
-237.92916675603232
-242.84695697753367
-167.4045813138175
-172.24045562837244
-188.5529849349802
-127.36300020459196
-41.61046603885361
-17.946687282891187
31.184065761790293
7.5948992731214044
4.221559665909941
8.165463761253902
-0.80601919838597
-2.062352369298556
-0.32236867636381444
0.6486539147886037
-0.8731488718811752
0.2733125726127901
0.40890256628333804
15.131019358626054
39.154463889007296
7.322166878743263
-6.312373315989676
-42.31059667539951
-97.69051960133449
-135.87153400709246
-216.41597607262221
-218.53675478883903
-185.74140999252265
-153.5039096784459
-153.5011668343217
-174.29582976215212
-141.51870840463917
-116.66929149563373
-80.86467768105622
-32.461678605168544
15.79221969360747
16.626239761231812
20.30956507503659
13.577016042521
8.494316349428978
-2.973710457951577
-3.0058292979804966
-0.32146488622545116
-1.487362159694455
0.3928694273997388
-1.0021223224369304
0.3081402909188726
3.4153813277817093
43.23042966328205
22.763454758730123
-28.544282684880045
5.171946605840374
-44.36308783998593
-82.42786499846177
-89.02873651160007
-131.74342194947087
-113.9288318276399
-128.5506509626298
-109.104131753936
-115.6099104472264
-73.88983084008301
20.47240633995116
46.92711823349295
24.23821926697009
47.42037581743196
48.820595225572106
44.3243492167391
17.50213687961005
14.978848789745976
-0.4359250699157677
0.9814925293908628
0.02844593681438088
-1.3387026675380023
2.4550769731840565
0.6312498718270881
-0.39630360134987175
0.7797988639150141
16.17048055561457
28.966510928856614
1.360441709179686
29.735147087921128
17.212792191104235
-10.366234087114664
-0.5981713100458542
6.142819099699984
-81.17670486787682
-8.186565730094562
-59.24433739039877
-23.948677402430256
-5.825499720503294
6.6256395290413685
12.560036513644956
41.64188312013836
46.43826121344329
67.23622878554845
49.47471780334481
36.14647803141783
11.630302959810916
0.6686658216368009
-1.040856078224952
0.026233849394551857
-2.0269906123006347
0.43326788325589544
-1.0101649048944872
-0.1363536674708391
-0.5313141866533144
-1.5173032742877932
-3.000401179874604
3.6556969098089738
21.40375775195993
82.05747580849977
58.4716443050267
107.74233587107295
108.22473105382622
93.46523560550958
140.4794367131907
39.382518228818746
23.353163156613615
98.12881434831478
90.31830247074559
70.94377373655702
67.1812765450032
57.43338594437705
54.12780403327554
35.575150580377404
19.238714165126048
16.583107617331926
0.319599892610022
0.19423873710518455
-1.5491512347489884
3.088822706208338
-0.6495248048850847
1.9358295745684038
1.9719332682243664
-0.2680120001672614
-0.11703992647931678
3.78940930605925
-11.18060519667428
-5.145295148016394
-8.755808397533952
2.5606837094494694
-16.96180093593718
-22.329627291800247
-35.40920577198165
7.845329871463977
7.16593611544802
-1.4423783208497063
32.458282200592166
18.406059621947918
-1.7182757600980674
-9.203597233373939
3.2807611579717135
6.837183196023655
5.387508446673677
5.2692319330446695
0.3403956827554686
0.35405065656652374
-1.090275220794024
0.38669833096278045
-1.8061514614342835
-1.4353108743458358
-1.0574899046542567
2.1509674267960506
1.6766952146461696
0.31200807784994666
0.8772141652164509
-0.4013558847887341
-0.8770912537766332
-0.6859069700060851
-0.1655833097587877
0.4357711100140783
0.5196660359572719
1.1020013805678608
-1.3943456273634462
-0.14719799128300723
1.0631792579409167
-2.2847173856694694
-0.35777724198887023
1.5790780732927776
0.032189864302524566
-0.4125979988476413
2.0506804413800857
0.9593195369516158
0.49359227648151716
0.559839981079458
0.08625651280722134
1.0737759480116853
0.39124899081465453
-0.2573168818068541
-0.36289813575038776
-0.5092508181910868
0.21197171452428928
1.0112668904276185
2.000713816288415
1.2997759991765763
-0.5739989021439963
-1.277513477017754
-8.884849941594293
-9.842548817277796
-10.376891752400242
-23.205580276088455
-18.395938657359984
-10.658309136269343
-8.586547197096248
-11.92027714434273
-19.943689089833065
-8.762333215988221
-19.16170701878539
-27.349883338121632
-4.261566248154611
-2.9131182349383913
-0.1464970986692978
-0.6729147613028341
0.5920849486941899
1.4763168490505558
1.6096884106673433
0.17419320640326583
-0.9688713237533103
-1.7135929535613466
-0.7494102887876973
-0.9154048209682284
0.4596090028522807
1.2431324196700433
-0.5001463605276798
-1.0073700444176366
2.449440814424611
-9.846399382657319
-8.052372107308457
-25.184371572589388
-42.38301099681061
-67.2421763627017
-44.095552186637676
-63.641740253116104
-94.8464979496036
-141.80554831646754
-157.7863784258268
-148.50032207656
-108.88900798188378
-46.692939264839694
-37.65068492563527
-1.3752812304134636
5.143291879668568
14.59949069827246
11.32372944680066
-0.6079247171870533
-1.5380468836986783
0.4545020291122257
1.046723549620341
-0.9550823657287033
-0.6716709416998242
-0.04389514902479599
1.1473626255095883
0.2448654614467172
0.9325945804333785
-13.983207011731905
2.8610167298509697
17.249544210059042
-15.266971513902018
14.553521600853735
-29.873061040682998
-61.652711460970295
-202.20107679251902
-270.3467212317041
-207.64851870549836
-108.36362828467131
-51.433939977394964
-51.21183831604106
-42.13662420264393
-47.56158379036271
-72.37525688310097
-52.601765049164825
-35.91143544272201
-18.38633338155047
1.205056231848421
-0.9527329327124483
-0.7649897445708466
-0.3781114884432232
-0.8939704277038846
0.8181196200761228
-1.1206805799718988
-5.287090580445513
-26.224299999267362
42.78743900717134
94.7279785345735
150.26130628183415
128.15437230579326
79.50573001868791
126.36902881102714
19.320979753834116
148.82648147239559
352.7570711581467
398.9479310587787
400.6650343814802
252.1247857282099
261.0585379904531
262.27749361193867
156.4793767639587
-113.56577976682621
-191.00543950519676
-152.8592941186909
-149.54063648243846
-55.83856410918787
9.59808865741174
1.2142522189252023
0.16119172338068177
0.04048541835617365
-0.6996664004372843
0.6954755082224309
0.23346225983873273
-4.665350154748084
12.762291379253424
184.86190363131666
155.61233090309148
206.99041159654462
287.8320759778753
160.29760346802004
233.58476970990353
92.02597722851681
365.88904676486186
306.245126256396
243.0540904234873
422.4327965693225
458.24833560952646
322.8994582903753
292.65616396985376
-40.150520236481846
-122.80050965530384
-194.3873621080376
-120.95145774796605
-180.42420348324046
-150.3277841565443
-12.395247459177583
0.4674188241380451
1.1900843687882385
-0.0886353488703918
2.1584555214864647
-0.5960977550233291
0.3994573871533271
15.961277389602788
69.83704033996102
158.70283137428723
197.55633238537737
174.81160570040646
178.34450482870463
216.83915560020267
144.72264832585412
244.67354972016855
356.0952854482988
289.80554202895433
358.27373418377636
309.6429386875555
472.7284546576423
374.93840984431574
208.93843332048883
-138.07965957833667
-27.27905766421086
83.25248687403976
132.78984301255082
-330.41652264073895
-352.5797233892372
-164.22537033761748
-25.90515143494279
8.837337558555939
0.06306467755987016
-0.4662320000595627
10.107414427557847
-5.585364945679879
10.727582914867233
97.48324586435832
113.33501922693038
177.58967857416883
36.054781262396794
15.573086744185991
-9.758326255966338
-197.71661499048747
-21.140000777368044
-63.88552912915589
99.0246535163892
-72.79175859613456
256.531861047008
337.6573649890659
463.17718309081033
270.8438921904904
263.42963852203644
383.0546677367036
108.15091554367947
-116.00689083242929
-474.9072804724777
-585.4735141591528
-349.9970519940224
-10.957836297867715
-5.484432064273019
-1.260313232079504
1.5283720817431434
0.4717826121038749
-4.996163626071938
-2.3526665559287165
52.45384336129841
-9.917903972294129
48.383565007674285
-99.9728437542366
-187.61934265754354
-426.6998190965839
-217.1911540266697
-393.90275904086803
-302.20557404651987
-190.87648632326636
-166.2928007012155
-93.90960753304626
295.4332550046892
416.79658362081796
87.26623313622034
299.8468115065018
462.69814213405294
331.12970381959457
37.49787742330806
-348.1723512706637
-441.4530792490991
-435.6202502043956
-75.96479546245108
-52.2443227996569
-0.16145385322983788
-1.5869888527050364
9.464757330257054
-4.403341190722588
22.029147209949052
13.94350167298856
-38.526486024865896
-110.03706872169161
-203.72812971851624
-401.52032481899727
-494.67214645765966
-318.14779325212845
-103.80639945467637
-145.47658565963732
-230.72979010598263
-192.3103807098635
403.5858736902449
407.1520612557528
581.0885074567029
552.3590518888665
804.5311295411974
680.6137507879622
469.8532977375954
235.80058250340872
-136.3852934011156
-379.8616701075306
-333.564496598246
-65.29648606841003
-34.74064176466007
-0.021607801518156305
-0.47091652027666303
-1.3806941371245125
-17.012097181238392
-6.808629138791818
-60.199977312166546
-154.04861390496254
-247.94343858484433
-409.4415947646909
-537.3544528721742
-643.4783804104226
-393.5679312836424
-270.5868701290801
-603.0415229944173
-455.947091886208
-325.1484836877667
-174.08415467931857
143.66708348094465
442.58916100333005
429.6694954426994
780.7082399651119
892.9180411821233
606.0469953277125
595.2792051493415
229.5966899179104
-112.12728066157011
-227.11098915886652
-26.412197561981213
-1.2449581064164612
-0.18444367376731946
1.04052137166054
1.303320754615373
-18.059100111251936
-16.891896397744468
-68.41224936331557
-188.86982993908686
-241.64619052854317
-289.5051635367723
-426.2942146855395
-303.06351825334144
-262.46635281911267
-347.73927601301904
-392.8324787285709
-587.7281640680011
-466.29098394160997
-387.7640121796252
-300.1844253333179
-18.9866160150987
76.9113620942567
429.8434704811574
871.6641105952799
623.6163173400878
515.2835905921909
318.43355798684564
118.98740906888175
-58.14644122144234
12.880865876080557
0.1885210974105266
-1.1708984610350988
-0.8959923960296642
-7.159737406912302
-20.073006353746315
-31.307339395055507
-117.4507211779166
48.97602542873828
-100.62630872629205
-161.84449752739917
-95.28000276536272
-253.8534895707489
39.597422031605596
88.91925409836556
-356.9815874579864
-774.3113066688993
-974.4897082026804
-740.5415096064771
-655.6290815339196
-575.8303072101335
-333.71938677079186
184.7106101980477
544.8202889429969
579.7497322208382
474.0309137754997
261.7383431406277
153.4449178024937
-4.068019141486453
17.40290301129088
-1.6118056352623595
1.1685412839845026
0.5758418527884154
-7.605886674288376
9.065482887147395
-43.54862409197632
-105.4380699269773
211.74350794239535
129.52131115761605
206.4152564638407
-33.3569513670307
154.71807089764675
230.19531425244074
130.48902190668747
-515.3258207922128
-1049.7537571961084
-947.0417482256169
-1080.3424022890993
-1125.8928907966897
-712.4462620357218
-94.87356548099196
135.9375560667372
272.53104865858825
484.8730129321222
503.1374630290474
263.27432541901874
116.86374991181675
-5.6308606616606856
16.756452149990384
-0.10555109411690093
-0.3729444812280715
-0.18606780666578773
-6.972211999422377
-14.855806123846245
-18.800678745404618
61.461889027319366
449.4579804674318
388.48441885358415
329.872310845184
318.4454252600252
358.96845758447716
262.3674547875968
176.74887664834722
-362.02561271554686
-809.2883271588963
-755.7341893974406
-956.9897214453629
-1022.5760600306712
-465.3081207312495
-67.84646580160302
257.2506427478476
511.1300219150166
334.3215821467574
531.9488749982072
220.53428599041595
62.35648927803383
-35.90880481084891
-4.116420676286715
1.011676450118279
0.5663087327956716
0.3445354436459262
0.9096001278507281
-8.71794241379257
-45.70551654615689
79.57370957742343
612.7607202754073
768.5501130670489
784.6179315900453
791.9382074020705
503.36044196966617
429.25016965293514
95.49026271234312
-370.6685495691418
-539.5979255298809
-870.2772352963316
-804.7750362699909
-648.314168583578
160.30230060784643
226.37063524765966
308.61601605595484
547.8127386626995
448.4552976103027
330.5409454437841
147.4955742385136
50.013803481240345
-37.89351924379053
16.060040022938285
0.7350266409086523
0.3370652205577416
-1.8423113835885845
0.4290597539043789
8.50384767194265
12.369909716097409
20.80342084601989
538.6345428931161
827.4617851383812
930.3907062732624
1067.814971396246
506.0347813088371
165.3949025060706
-68.80849014908084
-505.3771199680965
-939.4769113697133
-820.5125864586794
-585.1445315707189
-174.1668131380387
180.16959495793387
518.7045392207373
548.6780123380365
551.7556358442238
306.6261302795741
430.47200742084135
181.65694638061734
54.43056975222236
-4.913208149976153
15.961563322743398
0.7309351116920818
0.28173460550689305
1.6058529040262401
-0.1039230927950362
4.155417503556444
6.031353679138462
179.05586147771655
585.3236778436328
595.010388005357
915.9681244969674
758.8505851775102
636.9212208290563
42.86359919118014
-104.86096642590067
-534.5955766710998
-943.3214325982985
-816.9729460833049
-486.25043051602006
-3.6542493673877456
435.24945206291073
538.8638336464556
631.298721064572
296.0499545532357
297.36299609384855
339.1556358549995
138.70372423368346
168.40562873918086
-0.07331175627820762
10.315893661488179
0.2402009855627628
-0.35545149351985184
-0.7491056731062641
0.11685902709904199
-3.5176775492898775
66.44666311015143
157.40305162971976
459.34455419649674
652.3498776519422
530.2505515029079
577.8897663465201
248.2397220188574
51.91035843025113
-238.80512465631153
-265.305552024884
-539.1375095870725
-627.3106671897924
9.34242141819363
233.65043747880614
267.7520897906912
285.688020394331
555.4465696487243
150.67797755454808
268.29087977923507
177.41632027853314
84.51427782625827
194.0782828184629
48.936160174089515
1.614272460490175
-21.8334615929617
-1.6154791973879135
-0.09600630398921489
-0.4677898936522397
-28.678217576736138
35.57000703737846
242.2934195097501
310.76193080012683
565.8159098550764
287.17569184008744
159.61399954590578
-196.99545980860745
-152.61389909289446
-312.98933240714496
-152.73092359799745
-184.5418840607228
-139.8030068397341
30.018922200746207
274.1475839107963
322.6244812113719
125.15050452594576
334.1951777554694
132.84520791274582
4.540366799641614
190.19883724299675
99.14665190731947
165.64783354499258
64.55641236526357
27.368583973121535
-22.216138680456353
-1.28889098658655
-0.6765762620376617
-0.3394751868602345
-7.600139390116462
18.47289937264941
230.5553808773203
618.9932907997515
78.91007174528696
27.81529527387574
125.90341387442278
-112.15570544169995
93.74299831149632
56.45902154193496
-7.958486854379933
139.2493314252836
88.45475129370291
143.47854187734558
317.1788771215422
494.5719900036666
190.75558549427012
125.11098876844504
140.31297611392836
129.70568472180986
143.5200760554833
112.90095934610393
129.2576697538073
75.37442799142683
50.97807587496094
0.6767671884202539
-0.5459924583267828
0.2327089192717416
-0.8505224510325309
5.134191530856406
12.033485449717192
285.14635611780204
336.35922669504293
315.6685228378453
160.62981734748925
216.75354924216217
-4.058491063673623
-2.759066962300475
-96.66632921972254
-195.81608704764082
-127.24905616923468
7.672474885707438
99.91799375036483
282.36729950714533
162.11749082795984
78.11202166759674
172.4237134920887
-93.0642291201859
45.67573383469456
137.4517304398521
69.49674088913888
81.49720509312539
79.70585819259607
56.67269684736882
-0.2327678591572426
0.7872541522377479
-0.12551083379892247
-2.0252690971302147
-1.0260781306860582
19.940667591849323
283.4636986281442
163.71904322356488
344.51118675647734
230.15214492542717
276.17229696046473
406.5710284726161
63.30051202358177
118.16056254964766
148.7668871657813
30.494979471145744
-64.2460686165951
335.4947247046815
254.44128051992416
50.98685502322922
-167.2613182497836
-234.2721254168627
36.70857460184283
53.81743437096204
7.828257248811611
70.13870995137802
1.3188883833491145
35.98626746489597
41.88508480950188
-0.06724396479452295
1.2935417093680521
-1.062334707048829
1.468679338720229
-1.9130420802093226
16.799111780182404
120.8196758883823
65.37885909107345
99.62803396116068
118.7507143910123
341.92963025552535
502.9077433125165
388.61887823938105
295.4460969293164
206.09206704357658
49.203703027527496
21.992874154466946
-134.14977371513382
-117.29262655841686
-267.19649839932094
-66.93385974112462
-128.3386339542263
-99.21759746129686
-104.05715020379614
7.185732061522235
46.58223502685343
-2.5388310969964234
11.636498781406603
9.97829981314979
1.0217656432533317
0.7152744532154097
-0.12837134552452628
1.0357647764900435
-0.22765886135425714
4.100089631416899
-12.035995349335696
41.32707158522257
-48.9126534046051
-20.940762799868764
-69.40036994936088
-313.0034984022892
-216.47804266452454
-150.5701547236917
-310.15701678144376
-315.66152400085105
-276.2436429055687
-164.71403732927124
-188.74224816192506
-274.53228602521983
-234.84230051442572
-108.19635876916917
-115.1111152179421
-58.62558712815218
26.903933481160283
18.963794630128582
6.387559149200858
0.40123143671904576
1.053707348838912
-0.042039887830144035
-1.8589435288896756
0.6643915341226899
-0.23676212177464342
-0.2775819485755566
-1.3090906108031828
8.501038344209434
4.211390619147595
3.6596003319818142
33.39756430968575
-1.6686658876162905
-143.50627124705267
-138.1935277713825
-186.75682505465605
-53.94390027368286
-72.84325727913651
-134.6483487722223
-147.95347710888706
-108.19823698654747
-121.28861692966241
-102.9036945885575
-98.66671174231
-107.16311721909508
-69.18713798101442
-36.991719751799714
-29.57376439712049
-4.634025412495367
3.2640840778091507
-0.3345725117808701
0.3912100165067824
-0.7019529648655037
0.0470035362424614
0.16101362949121747
0.15649670082293562
-2.1222887751842032
7.839712102490698
10.24282903762561
-10.145079950918195
-21.008762007257257
-28.812809460830994
-17.664545447450053
-47.06648524764463
-55.53635183797108
-61.095250976841875
-68.78702151868688
-25.432756614246387
-28.31665164390262
-4.668976565930879
-23.765984333795526
-45.96824471415487
-28.20092569767559
-35.36741249934028
-29.830840502578827
-30.112015000229043
-29.73210502394725
-0.8293976930376465
-0.515472032656827
-0.4662324000141005
0.9828523460432488
-1.7045338142369602
0.6001915246502058
0.07269261840570479
1.9134870767403076
0.3087098344762207
0.20109924088219194
-0.5682860706243797
-1.1370061091089139
-0.8566205468934076
-0.6919837367901052
-0.3524678783318532
0.6194299299059007
-1.1977306952253681
-0.5977419819079804
1.3168074125959879
-0.10460187869518142
-2.242952984828209
-0.5353708035916978
-0.8823577642649375
0.6668432654023049
1.2626668034534725
1.3919575135302305
0.01766320656733394
0.6313874704020247
-0.28220526454846295
0.05299902723371889
1.3814361785068694
-0.7265228161896174
0.09258186790173649
0.4135928635394646
-0.46991871604942365
-0.6707969233655675
1.2079019221124667
-0.47126066426174135
-0.03211257257923386
-0.4038105309049934
-1.3315929406519424
-0.5227838626097236
-4.651223862844269
-5.212488253346584
-5.496295982026245
-3.1815080039643395
3.2435769832775527
10.876273263578337
-23.155477576161964
-25.99301409181235
16.65517386981483
42.32910989764134
9.150681379577318
-7.637163810818516
-15.875462262696692
-5.432123312936416
-2.3652049786871623
0.9037239947990231
-0.283145623028347
-1.0402913603505233
0.33976724281895704
-0.0885031744305785
0.6252490880052207
0.5030163205457439
-0.500757701346526
0.46746396897590126
-0.13306736919123807
1.0853027089828777
1.5469783610380767
-1.5138987157312533
-0.7201587424344449
-2.8882790006060057
-5.053760868265301
-25.516766598306134
-16.832454598872
-21.415248422756537
5.838475082557958
-26.076378195275204
-98.92643720969323
-93.12257458351789
-223.01806385274256
-180.33644123635904
-161.33392618698016
-53.92390476758006
-52.58398238490597
-35.241703172881074
-18.42913956422648
17.629116821573813
19.4688870154079
0.03160465819719671
1.5816628266417503
0.03250718861869098
-0.9125863154071594
0.2845002754136744
0.9219847801745111
-0.5467270460299118
0.18334463601692275
0.7376361770579261
-1.1992180868302298
-13.308188974561181
-32.429207514215754
-23.50994376427853
-29.275729561980405
47.445971094155546
46.15149251655859
4.128680096260711
-45.75606185824436
-56.157288304893285
-104.53491095765439
-188.69300065374057
-187.8240986288297
-230.11748211058242
-163.18249166435498
-99.45478558746665
-29.778964688071312
-18.29353409334616
-8.531836442954244
4.5205189772406476
0.012972913128735556
-0.37345873727258044
0.48734143922646384
-0.9921239213215112
1.9760652164886046
1.4663324222423106
2.0981464256261724
-5.469363332495591
-6.713873172252761
7.647091884944332
-6.962144822810486
12.665435391102875
71.09838657991585
31.644691394270275
67.05792850816496
41.40430153674797
209.33279692390823
493.86174449736313
469.7281285217729
439.00230605814204
160.88454350409322
115.67132134142551
227.16069790817005
129.17129796119443
-184.7324958809607
-137.9364263224157
-65.76913283544253
-70.2580916404043
21.015451851887963
35.66387107058754
2.370952329657714
2.1367108408163924
0.980885487581882
-0.8955624096863499
0.9753483963356784
0.06983240746948444
-2.2914775793128355
-21.189547663872663
50.229712768156034
-95.46607653216974
-153.82131117981098
-72.06008034219056
-125.2556896510518
-41.82272904910064
-39.30169353622441
268.89178743211517
217.43036865510874
354.7590394335261
501.675752149154
252.24853481005786
82.1281156369315
89.05337728681445
83.63187022484665
-66.40126577209463
-145.15901735932155
-235.91167776743077
-182.01455390404897
-104.90578132278343
-1.4221440142571997
12.464623421723774
-1.465867228794352
1.5562905479915785
-0.4538295040856004
1.2095362970135228
0.20539217683378475
6.867437918621925
-7.555255151044771
-50.14524534917308
-78.99474687021824
-39.887901261773564
-112.79005565324529
-209.27335458069712
-117.10640393254658
103.98027417802533
97.65923409030212
252.15985474176733
428.06653512485326
362.7630347401691
320.2381908095631
435.12086318593185
129.73747039461725
-222.37765190386494
-180.2630950262033
-179.33137567784524
-182.48531388358947
-502.63780649460364
-305.328066114341
-44.69786787391446
7.118112798324528
20.85781967151252
0.017606450225257794
-0.4797050731210601
-5.5987787181769315
-4.967818453974899
-10.55001407725336
52.24276012553982
75.45469328024109
98.95455220611493
41.54317942385696
4.120368930012925
-20.988576583914007
45.1693448975513
344.68782042084933
336.92611938360704
594.9144626886564
348.45739336706856
740.428943125867
754.5424933901187
999.9630636510536
549.8837585286915
338.70974102278853
285.1641041240636
-262.9598775733971
-301.52065662164193
-370.63648846037864
-360.0754860235714
-86.93567819199576
-36.81351992363244
4.446655270368807
1.0001538824021663
0.06366509148303572
-1.438169946484017
-6.774025550595598
22.055129008124204
18.69846427744171
61.668165437352535
145.84361820505916
228.69940277861164
224.73979242621408
1.3566653662739396
52.4546156398471
110.30294750294892
348.5125089870212
480.08511439105837
628.4466504168993
597.2856789679283
845.0825519496582
685.7171250788915
626.876984373512
280.7688327891459
385.16724284901795
144.16099815205172
24.961936504347495
-248.5972987694178
-208.87947265588602
-126.38081053443887
-56.297467820114406
-47.827423182238874
-1.42874225690181
0.7992459201956257
29.911430520363997
49.159049253929666
47.53617349983454
-29.948550752857866
-36.59617802723779
-38.46350152463206
216.56528277827306
-67.03635535511204
58.4694062980419
278.00484289014537
273.6303241543325
408.10396355393436
578.5831312809476
612.8007098894634
777.2760507457614
660.9557669113229
769.6285407824703
931.3431434745745
455.2494504865385
653.4938715755889
308.5826207098591
193.85038210827008
25.940514947071943
-76.93588973430862
-59.59643579486157
-21.932343732604554
-36.544131626694615
-0.21786608097661703
-0.004093587695175567
2.016555041282381
46.529240884707846
57.972248413982044
106.54237001154179
-28.103423589986235
-110.3865356105473
105.20084383037553
-70.81852347575045
-449.26741957129036
-106.92368051315304
45.88636629856508
61.37414246543323
283.764673519315
406.1383727275085
104.47498649933499
154.84109512513413
314.93433518835917
451.47106940038736
562.7885640382502
607.2506095545767
630.8174610968326
415.5351652582743
280.20940524592424
81.3175442350474
3.9438737267610136
29.722070345537414
0.3316582006172016
0.656896974530791
0.9013893517821784
2.388581939343839
32.13332002293489
50.16783131577077
20.935477769290003
-243.01741844144863
-50.213606967563926
-65.64325298254238
-242.07330743246516
-523.3561680819173
-231.6195699395777
-398.07336636372884
-189.7702391412605
-191.17022228544852
26.43839711169753
-224.2404218257323
-161.73221108930107
-272.81529411810834
-133.8592853088307
115.65861909616451
710.6259570725301
632.3151548343408
639.1226022812517
528.2973567682883
306.04488673038617
45.46881140276188
41.9757251752538
-0.20608619092748473
-0.13920491904503993
0.04000425117617456
-6.041444853023376
39.10042864667402
76.78185934407676
-87.50651636890723
-185.8743568630694
-221.88264214719945
-232.013213600875
-178.70560386158664
-355.23931744438096
-500.4528642714571
-345.24134166544906
-496.9187088956788
-807.4483958473437
-805.2699548339416
-936.4309387007523
-1062.8687538589488
-843.9186603252866
-607.4945289433069
-161.4377490307038
439.4370512697828
576.0088188934925
616.2119482769501
489.5291809013669
296.78242081012377
111.96293807572295
46.55625386077722
0.47592593618592344
0.4161828393871825
-0.7403015151086441
-6.081595279449975
63.780104352765285
19.18063767980848
-152.85778549664604
114.46743057126666
-256.0561756490068
-332.1806542950628
-255.59382914647057
-413.3988508796676
-532.4680259844298
-504.98110445816883
-777.7997793779723
-1240.5360199581196
-1141.1957157668649
-1177.7930973744174
-1479.77679759267
-1157.443368204545
-600.9819661755619
-321.5228826355289
55.49878728582305
418.18663249043016
536.0604551726782
340.0705863935583
247.40631327198216
19.568898323735937
44.68798059153698
-0.2453649297210453
2.44594797259731
-0.16038686172607935
-6.615703095166274
29.271468353333805
-42.11418225710849
3.8059445863072687
146.12995030041537
-237.2431408337946
-43.66245182166317
22.31334601366035
-228.9988828643558
-461.5856762984299
-751.0251689026096
-940.4968870119419
-1069.223699527559
-983.8753243176419
-1334.0061651621384
-1569.924340739147
-1143.7731598963107
-600.0014099521861
-168.53459499922394
73.69369942860354
67.66008950100128
371.16692126979797
291.5573959127869
247.82795346558868
-12.80315333981434
18.28994809974432
-0.9492705327897281
-0.4743538819315201
-0.37742909204178227
-0.10898898324185462
-5.821053272524499
-14.818672881427728
0.8071985999940089
319.84724334403256
202.66702050991788
300.06010019778523
285.36388291250006
-44.1418486162929
-349.0682036942706
-759.1559959759695
-1080.4282341896783
-1077.1027628178754
-1140.6702013351496
-1403.7854666940793
-1150.860767762542
-778.12317365806
-229.25697603525307
-128.4897000157203
142.07306977320215
432.16358037823096
323.35786064422615
284.2672234112584
311.3695491738991
0.10797814517796965
48.72288689448221
0.6379898864330484
0.574275741750659
-1.6586978109389694
-0.8099253795440373
1.5418018847090873
38.39454315204964
-101.54511996480616
130.83184862595067
344.4559817354762
273.1351775242143
535.3430418385038
-105.56959910840521
-524.2968504483409
-883.5224771439505
-975.7860795061265
-1333.020703121214
-1159.0899679694098
-1075.3062988259667
-963.1159370053688
-457.8991206450095
84.75431554540616
154.16743850229525
244.78798814454865
297.201808838382
410.6524769959499
379.57965790020137
164.8600024805286
75.31770317030558
48.96971656668011
0.1999225021481005
-1.7246989658449896
-0.7168845168302989
-1.0448408396774842
-2.2208486138747596
-15.291693030904634
149.27144508237598
355.8496149300241
394.7945429264361
495.32890527432085
273.77799244951706
-88.54733237133574
-359.86512445235024
-672.2112982702531
-887.268180503299
-1175.5019854387206
-1044.3184148551006
-965.1925141005461
-492.20658141817336
-108.54923367356827
210.85742230717898
319.37237771291944
187.3986450902072
300.70896946599925
533.9471408610377
318.52325452844184
306.97807426048854
43.759187166984724
19.392735213198456
-1.7771012340576013
0.040890909879939846
0.06193467434066046
1.621721570919169
27.40144338643014
66.0092526518903
107.26644282282562
320.1435192022912
663.7630892775924
609.7989399151604
540.2252858891275
-147.6823831162892
-165.19224354656217
-343.8870081189988
-497.430371900458
-611.4972121681459
-502.0870127752804
-185.22495050337838
34.80489906208003
55.75032425462113
424.110373262952
462.29266734117726
275.24998176122205
289.52578548015157
390.2294443556759
227.02454201073056
281.4291050584181
39.25769049518539
12.493513179927684
-10.002429051617158
-1.5612888315931124
-0.8140843118644242
1.600174782309012
4.803428568345005
0.5094329564881188
186.71290045369693
310.7307690510442
824.7695504854742
652.8169986345382
567.402342308551
392.9803960908347
377.9598939752605
84.95963481463295
273.77457430976636
175.50172536757293
65.7913494908134
169.03211622420844
147.432416460963
-109.40637722146415
380.9894795837565
283.564770793792
204.79219256512252
79.34691993992776
253.5298473414279
153.17897673532264
117.30949672939904
44.906605561890835
13.67184776589235
-9.220880100802797
-1.432751315402342
-0.6167050840482753
-0.3154996744752372
-9.397248075852232
-51.793669561593696
108.01955388020812
582.0755249879005
329.51213640670727
461.5083976191143
660.2262428739268
526.3794780167029
641.0558076252449
561.6376998096787
489.98949746018855
300.06144324176284
-9.692650175088604
64.89779344153968
-18.564437507280473
93.46306439450449
205.01479965102234
-13.134117407008453
74.1352959037847
193.73919110430847
-36.28393029261794
103.20379394214042
51.04526617543319
45.35938350939484
38.06786540603552
-0.3174163361862389
1.7978767711521357
-0.6525494225934556
-2.3787606029366875
1.9385063494478547
-24.62667538288651
181.39634356529567
278.7055532219771
334.9029531184704
391.43015482619694
595.0584586309354
512.2541510707014
502.809460274453
468.1322191120691
89.7434386359854
-120.51926370956039
-172.19987308941683
-76.77579256194218
-76.49352596982989
206.01530333309938
12.288216766386139
-112.10964137395152
-257.54514645994914
-172.95115838176704
13.026773810797264
29.392057984273226
42.66277478038899
48.215671124672866
40.89165452324605
0.03137927355139887
0.33902480477376346
-0.7723224824386308
0.8333601372678779
-0.039829569266896514
-19.102402959703078
179.93550806355958
145.20675520137814
309.6910618739427
361.8080898260545
464.19037695710205
706.8238851069557
603.5392559969805
415.3623419661017
334.18697529784816
215.9323785692372
193.40966927187915
348.7333914153408
233.09466059540955
13.523166653171906
-336.9417208882823
-411.43251636167616
-51.428785516580255
-49.737663416834046
-121.64579518624566
-58.06782119403008
-37.50216406772681
27.78937791719616
31.3976908365137
-0.4615939592562762
-0.9862279581576697
0.2521888713782901
0.31354888458614744
-0.5827650734463816
10.92158785174673
34.302678910926254
66.16918049142141
110.52282646348756
129.32505687207228
364.77235179952345
610.8042242234367
605.2229435139471
491.92466880271365
490.28139872239154
372.7379941530566
367.31650534366844
215.32485985429236
60.826534690976324
-255.3415659049899
-193.03884107283204
-356.6571525800489
-316.8256409363874
-314.9938906918398
-165.85993310256404
-53.52382503630531
-41.23056114452901
7.076382020938468
5.1381885003046595
0.6752325726809858
-0.2340749515593532
0.6392938729630419
2.1443379650040786
0.5948318137698508
-8.62008688995693
-11.576361968754682
56.91017417046094
47.53044969001665
100.58217038966217
-4.54513926825477
-143.19006738595735
36.95920975288121
-61.067339206422474
-49.9248596047028
-214.31596433705135
-60.02090291241064
150.108464231325
0.4651717510988011
-172.26619265907104
-232.58416834271918
-379.3745058258526
-276.5795345493884
-269.21665019232347
-173.69501076133207
-114.1115705386093
-63.50034968143775
1.616021386440029
-1.4185169976585092
1.1652988330714595
-0.05021995873642012
-1.1295171510798363
-0.07132214463863956
-1.019367282071673
-1.3868931339725998
35.076421909365635
64.31407974688332
161.62676301511615
233.67373660939913
126.22610690221292
225.5026905824777
169.40772854076468
243.25576053403432
233.10508104596403
96.2163643806082
217.29653080575088
127.26468137651771
113.60313355770397
90.67848849863142
114.39015694169981
-122.22914345473163
-139.61741426446022
-153.70692460622473
-97.93234181620777
-64.47672791006657
-47.054944982064065
1.9444132185203242
0.08820171342611069
1.6543433222078268
-2.2946423920345844
1.0378302953567053
-1.163487270834974
-0.04841576549035028
-1.164148561725986
3.213001031967817
-4.258174768664809
44.080931998237745
18.698187193042745
86.68757461342643
177.88278578979603
201.19565718073272
163.3402379637785
179.4205073922878
163.510087958727
134.7387396219755
77.71082494755996
53.37142073198839
122.3700310852516
80.48026356144234
39.53533562429521
-0.4165408933854333
-20.901906324788133
-20.840459613931237
-19.689000276538913
-0.3343382040546635
0.3070549634715199
-0.6275878346061469
0.048608111885751565
-0.5119702844452954
1.4571184418660719
1.4334515164532964
0.190694990090047
-0.32990263266467656
-0.8552735555331442
-0.7001680186942005
0.34097176975999266
1.0423885070581707
0.7708641123992144
-0.7074395750321232
-0.4376955633586423
0.6461461567577105
1.8773514607095882
0.9127137765871722
0.1214248279911104
-0.20359210076816792
0.18528911020550176
-0.42148227572060754
-0.9360486630656767
-0.326832967256008
1.3478618946246073
-1.0575518676554776
0.3315085030225738
1.4105163448891243
1.1652922637020802
1.4123647654909592
0.5930961413508499
0.9394044808536297
-0.5860876309753545
-1.4085007634969873
1.3009239902155572
-0.6842058285511234
-0.2956130218650922
0.6993186329976959
0.13571575709524006
-0.24798395951764954
2.0180764680831205
-3.699467447574893
-2.799408347805932
-3.0977342207591083
1.0486570987455066
5.477113842197831
3.754531753692076
16.906226606516345
16.607021574258457
30.53355272903882
13.452231304100284
3.479241548640158
-3.523848098347075
-7.417556481495336
-0.7377670459406153
-0.608953501695074
0.6930238986334093
-0.9055299873230419
0.8587823024518997
-0.7120937223958121
-0.3070242441856813
0.2905029322437139
-0.16622444570170847
1.4171825843781527
0.8411047160407384
-0.7416226732300787
-2.0526119172800947
0.8286851717874151
1.0274436443151695
0.7795234267647686
-2.3055545368849883
-4.048826962617466
-9.19222893022132
-2.592204289774949
-19.35188510271791
14.670546464039065
32.18683742581149
5.4967520045265825
-17.528482686923976
31.02352417652237
37.9864118232951
66.19125309281748
15.20846711493571
2.8308211003340094
13.746363720224949
15.383964594470731
8.050144137526308
8.156341853466422
0.21328730279115096
-0.2601474089605267
-0.12635958100893638
0.9436451575535525
1.4996646287138637
-1.6086043468479785
0.5669187446114303
0.6289093418735882
0.5783909105360036
4.064431215421605
7.681476439055321
21.04437575303338
9.683934601769725
43.967240573
85.67999795152053
114.00728752864441
187.44357484216627
121.02609040758642
139.67035645442044
210.26298577122128
243.79517905426871
223.8797928777722
253.66006205049823
192.69252982569924
81.06124831316134
9.243199124669738
36.34233157836008
28.2417455683792
32.4656252372833
0.4223036593475534
-0.2997356459630434
0.17977366834991623
0.19260696750404618
0.2687221886624582
0.9298098431377682
0.159271627295452
1.275692825921436
9.781596795189177
51.35321428408156
101.3415959520176
122.15255094154416
138.2151601117118
196.5026154414355
203.72542587061153
291.6842850995409
217.3730883484484
191.427564243513
166.54370595352802
24.529395459629495
14.385243455684286
-221.46218194455554
-104.25799809131959
-87.69161281260756
-34.118062897440254
-37.686636394776954
-8.557032811035011
-4.889072415019986
11.640523441887629
-2.072467139786905
-0.8078986695326088
-0.901503157313978
-0.1252238577100589
-0.4256896773679894
1.417848693896366
0.026475257852539954
0.44738477615242545
38.59393412647242
112.25587984994047
63.39727698847596
105.84179499087483
150.92561170694134
139.75127324699216
117.32348468202999
101.27163569942316
-122.87090804460458
-192.55135032467413
-307.7879415937368
-358.99559237603023
-466.3411551851162
-315.69149937772687
-348.9261361011015
-142.9394983800742
-193.55430486574002
-186.11721259329835
-129.94769591969208
-142.7565478981673
-55.81609634231768
-28.96849002595882
-1.3347079282399499
-0.1538688633877682
-1.4342002478083546
0.19629732898274108
-0.3202161265365783
-0.9799931776730627
-20.43203483522755
32.94507977499767
1.1999544214116014
2.5910544068910633
123.35558124622148
55.060795887160516
-36.39294942067702
-196.01753541912694
-167.33702004486065
0.3307684490849442
221.22070439734668
389.94369886215685
449.86184665127007
132.62660848498243
118.17214006384792
-7.77226113205809
-61.076265434358874
-332.04962778090754
-334.97961453553256
-430.90635675097144
-234.54876431043436
-227.91298392608329
-141.57193279071336
4.295852165246796
19.417348342537476
1.7240472630593147
2.1068242914256006
-13.811071286588428
2.350290489521377
-18.70576030449504
64.81417404740824
41.654246481635674
60.04402668158745
93.70339803719256
-159.35456863997157
22.25687765216031
-196.65727935210032
-109.33810426003537
9.963951386114354
47.03118860892116
155.08170604913877
71.11917221084893
82.57248403274224
-213.60349933760943
-191.14128887694858
-186.51898461952962
-229.81954549519085
-233.49329162648417
-378.96516663646446
-354.0873454642152
-443.745965087531
-285.8181241223491
-40.456401612726644
-5.584313987667872
-2.1731917120397384
-0.9644156168499274
-0.37742159386021684
2.292874245574155
37.67259770015363
75.82763352751883
41.41844717069987
88.01735878645982
127.49439358484133
28.33371003947931
-25.458153960909232
-117.14611290229738
-23.634646695447923
-158.72243971149652
-4.528651605487029
31.808657510304585
-154.48775218771817
-182.1441692874361
-317.3213320659892
-379.51453393415164
-140.93368079659493
-49.85946345646534
-94.57644069222493
-358.54040265549463
-366.70272027671757
-414.89554728152683
-264.37399653522345
-18.931031079623974
-3.1888403086300476
-0.943868681102826
0.11747607321940544
25.452758337952837
12.96481375556824
30.443970758413183
62.73324972386574
105.27435148288552
15.800352938194443
28.40293226642463
-134.99600363687554
-43.89755446281599
-123.07712239724871
-10.996059234845003
-100.68040968944405
-69.69124365980649
-80.61264797530805
-16.359477610977876
-218.72110921246556
-407.54742758292616
-328.69163397135503
-18.621653016542542
-126.88863030975531
-181.37387274401254
-226.5333364705878
-411.24352114485947
-458.89588557412736
-239.7513594895283
-5.5943240640461545
16.308701143680118
0.822900448848519
-0.19058985577140042
2.8656593433468394
6.3551726573421
37.71958027735068
183.57064440897594
141.29800312515866
-20.2107022614397
-58.2882425024902
-221.94887947076666
172.40872437221194
-445.4358581151084
-306.7824689922998
-553.9675046722422
-508.1014457253511
-269.48175490858836
194.99275481290354
227.55180530181502
225.8704006102686
132.372937046428
30.47266273419486
110.98451433434063
-317.8132428779162
-210.04619334921284
-334.8017913449127
-245.08944301316842
-96.24855258022448
-19.41686973144153
0.3070241489820133
1.0335036113291751
-0.9374045174979966
2.190850044376931
12.672664292689497
14.143289439169626
244.5054155652528
127.28899874209577
-135.11592365683975
-214.8580207430014
-100.3899120197481
-100.14781811925519
-475.66632221735676
-565.6703154791749
-740.5684864214269
-286.3553480321655
85.50663721347019
366.4809833508688
272.2111975907257
412.9625145783832
426.3193025174508
532.8151185331042
114.65643451807715
-10.69220505763548
-339.7204677358471
-478.9135105437582
-155.1052251460552
-9.637276560956177
-23.56818597653919
0.30942581568245314
-1.861232963253522
0.873204925320216
4.7071432474483474
14.198712581886957
84.16482294816639
209.57825432930835
-77.97020405129926
-64.049865107959
-195.75146071715753
-99.75939315397817
-257.4298721317439
-400.9429273193239
-674.5812896550369
-762.6244752738809
27.403231651712527
391.35335212644
829.2206553059664
735.3617419927469
589.5499094247098
502.14672305340815
417.6484543259766
192.52805209151776
190.51929202887757
-336.69774757503393
-383.03546447007267
-228.25816462348226
14.045615784901193
-11.054587184959107
-1.000408942757437
-0.986033608722343
-0.3891730898421672
2.6930772725237153
-9.841801440390414
83.93267147414697
138.14200450850393
-277.8936976414208
-250.16911520284708
-166.017688583772
-112.7421507958375
-158.64035691308507
-472.114689882404
-855.5340603083666
-515.5460525999259
52.48005385661872
466.95181966717695
617.0312346333483
504.3551223928942
446.7298972198344
446.2827729830848
669.7527726498156
221.4178093569623
-27.148405760335176
-264.50202686381
-390.3076901215381
-272.9680291864242
15.673323590174363
-9.800343067086402
0.30082151726682305
1.759225845723658
0.3344011773503718
3.7367206596175704
18.38330326702769
25.833317221934994
71.9871082118183
-304.54407652535144
-193.76374749167405
-253.78614990579499
-134.37866912008442
-301.1261219763725
-433.73548579038544
-437.98790371759225
46.82963263818596
257.13011002230286
612.4910284780773
780.1551610023209
579.0177728427118
719.8397374454285
387.037610956933
520.4337424050141
68.94198231269552
27.34303486216744
-303.71368552829216
-279.4498935377808
-243.752177443563
10.215617402172866
6.761416189956429
-0.685272334098321
-0.03976215180442026
0.4150991952061706
0.7022760718343245
2.8711238498854965
0.09692154536016176
-64.10343942553764
-271.15577278175914
-157.62249566441616
-251.16760542221903
6.5399261410749485
-172.26297462847967
-58.099938646044116
-158.32426406230374
166.25793113371645
568.6812569256231
619.3004554782684
709.1789842490542
745.2696471550264
760.5482655749631
372.8699279053551
70.81433485617745
156.35858399223036
-264.0497237275482
-129.19796221527227
-76.62059161432742
-294.67144214060744
15.193056844483943
-0.3254827824655528
-0.897354420795385
-1.163018183763664
-1.6929901186603622
-0.43752762007200613
27.057979725608366
63.984134053680094
83.02228495231192
-197.42108752807385
-31.768855271347018
-30.969130525086925
-127.84783089805819
73.47787360810759
129.27979257916184
280.6512176306778
415.9396344069405
776.7028676215804
690.4241818079723
771.709386364495
663.8365775565793
93.59012688700832
-163.58145104067162
139.5726760318741
-51.23671139237123
-51.84202579584969
-219.51152220818713
-190.6927554825716
-208.44078547273205
50.45988187820368
0.520601961195232
-0.014373259341392731
0.20645691770583444
0.6584071015302407
-0.4803991836472987
18.378930837562116
22.827204188592255
103.37325192736255
-240.05328007972233
-212.45200542180842
-113.08329353522792
-8.344991960000144
132.51626345979102
319.80900743819626
495.3465124053471
655.5359637899016
1012.7939289109873
878.7395710260922
619.0228476831878
476.8465440569546
-94.62928927597358
-71.84152244474907
-59.70231198577032
-127.62599237349714
-72.75909995655284
-173.83134366234532
-164.18791725623024
-117.7937081432467
57.617474016744886
-17.24762223422389
0.3320013437494414
-0.690109726195291
-0.14305281320538332
-1.9419922718212763
31.958619107751566
84.06456170616433
123.24283075477888
-42.979919108486925
-265.65377516609453
-462.5376469458682
-213.20528515167592
122.87142509599302
170.7956650665431
286.8782592753159
559.3516715269332
714.1221147144598
688.1950088651822
229.10152781552728
-31.175894002522675
-364.94519104734354
-194.33265525805385
4.44637244902625
-274.1191852364812
-13.194798267010581
-61.3572119521327
82.51379167949865
-8.38274391436413
72.38528570792833
-20.236228514192746
1.762147232207208
-0.568907195600945
1.9962032324326235
0.14821055764115013
2.0577300825429616
123.67886406109713
201.8074511786148
64.27718238476112
-380.2389969445637
-345.27349082487797
-243.7371423882885
-176.92444289236593
-133.42486541371414
-105.82043162554976
40.406237705744616
5.607228102124109
106.7402514293263
-35.92508911176946
-16.407354444630116
-280.2559089990212
-381.8046158942393
-194.56339534914204
11.193330934424596
107.89797814803926
20.26510842332813
27.74857888127575
30.869987060867516
58.544929575472885
13.026854175297924
-0.31896097907724685
2.1170276482645933
1.296555542015806
0.2747163698502784
-8.958525102392445
35.7998630337574
99.00052701760973
-21.065590445804503
-283.99858996454583
-350.7524732706768
-401.3681360622421
-326.46095562887086
-240.83091460505378
-291.78893233253166
-193.01975900479064
75.10732385999808
45.22948247278079
-169.15715782828835
-117.3408179191293
-301.9895821938135
-255.36516774030284
20.072675074836276
149.21905490538938
14.194002158644567
156.38268894124454
51.15137643972568
95.4684721502186
-0.9842204073237332
1.884913570734267
1.595078050762892
-1.2763445599994814
-0.288671374752526
-0.36835423614487556
-7.823648013078365
34.34055721819077
17.8103897682414
-13.669230133682987
-31.404486767069052
-419.92611451546065
-310.61134928773413
-268.7329264680054
-279.51586385289727
-571.672858919697
-591.7271329986703
-55.53138458970531
-102.3682069767363
-188.964122006705
-262.50895112007476
-569.1441651766534
-237.50709024144714
16.608028106697333
36.446859888284614
213.88294192978188
1.807163605863889
24.437355855728633
34.23387985468355
-3.6083658577522204
2.5908886481679776
1.487479843580288
0.5750794992102336
-1.2038725499211513
-0.750251129713489
-3.758230347461997
34.454481482247154
20.12514671917446
28.914971754264357
-54.56443647554221
-200.79193044119813
-303.0598493927643
-426.33853477180674
-418.3473463846302
-574.1536871108083
-453.2654681485736
-376.70025774047866
-370.6395031424216
-450.2177927153294
-617.569812809923
-437.26165745777945
-188.98808280110785
-53.50604935334144
-70.11425247835909
-75.75162466615485
36.930216672314955
24.74304987741619
17.056212067286125
-14.628939377535113
-18.268299091280344
-0.3323279136298439
-1.6252919687067064
0.18783892380673012
-0.2208147021633668
-5.197537262956487
-7.032076481031584
27.106276930986887
-28.179252577345373
-3.4644645367527964
15.975571771010292
-253.8917804515657
-440.44801788017224
-525.0062656625819
-700.5791536010529
-747.6762433440218
-843.3815102160777
-686.721989787378
-610.9931578839844
-554.7592468693947
-221.44312687661386
14.312022504686714
-104.72042846654841
5.535110874788891
84.62879129874418
81.52915394934247
10.20880154935516
28.659014970355333
-6.985572119066987
-5.647367321500098
-0.17495318796930628
0.5029561035638082
1.2148425761102382
-1.8724219413977652
0.4494234668104794
-15.897272739907127
7.902487536372341
14.769290780064187
-87.35450910067365
9.668831854550767
-47.77138604921868
-156.8395637619257
-115.19462386539172
-166.1195588953554
-309.6847865087799
-120.45840594376783
-146.63973306821532
-181.4177974286405
-3.5393622798043616
-30.35360736449346
-105.19689955230963
-80.00290086176335
68.97215632327338
104.82565889193542
69.98811533286741
39.99121020355237
0.10526671370325025
-0.6661790852200388
-2.1109027089477626
-1.8126260746074527
-0.6586751906697618
-0.05441816734491878
-0.7746426354250521
-0.9106662583176679
-0.49934626781157265
-16.70341973453776
2.60291323921139
43.596223287133796
73.87387399655404
193.32732117303783
96.26607147461982
256.1492558209781
310.18068647048347
256.86522817608966
366.15851399359127
243.42008884448967
125.57779028373814
356.4731763894033
244.92617579603404
177.81709366299378
153.8212077913106
152.40889580014678
119.98303781756097
82.58842678081328
52.168128575005504
31.93073071283363
2.147076604482021
1.0234903192300202
-1.21223119583914
-0.2769347970374684
-0.16263195018346505
0.9308508406974562
-0.5861594731514379
-1.1425494854430471
6.361630581465494
9.571815563528627
-7.516835165536388
-0.6179672879401933
9.400605642654904
89.28644260861839
39.84895806370038
52.08348608389545
101.88445833383177
210.74068990693124
239.70304556920405
157.25597133795443
199.92472173976245
161.52039342185427
57.59805563939232
13.388410820154808
64.60641766833943
36.53977829638173
36.21137654728072
34.369055052807916
0.41402440996946416
0.3104381026059954
-0.43256187226769793
0.03939743481391648
0.17964357336610973
1.0176840042523652
0.7405459352890328
1.1760407165989928
-1.2818889808329337
-0.04776703008986376
-0.021394518650039853
-0.006014857876439356
1.542793055887454
1.1053295862691626
-1.2366134729170128
0.21811119269341644
0.21424897766670667
-0.5266728253049594
0.7337975544976182
-2.2780832840049827
-1.16781598099208
-0.8630513418941943
-0.190782360814562
-0.41824115534684675
1.3186152316327449
0.02517288225261112
1.4394506892741645
1.9842105913069223
-0.999525695690317
0.35360510011097473
1.709775719845135
0.10448476480316836
0.1853660353532198
-0.9597473778270632
0.5556303502919555
-1.2100243160619133
2.5246388475038466
0.6653395563656269
0.7761761100494
-1.8784614683205851
-0.7462183138143299
1.3930427530388316
-5.398679722352859
-5.266203126212103
-4.631585245902866
-14.598506614322552
-8.123245696351725
1.2013003887554554
-25.909052175117306
-28.503371229351064
14.933954057200703
43.22535760779645
-3.5836858782238994
-14.206071265179572
-26.494670281767057
-5.753661211590605
-3.8428772070232284
-1.8114451569280885
0.6610033097492143
1.3527704528147995
1.4048179120059303
-1.258180073930203
0.174363893393585
0.39402682766753644
-0.5740472340605104
0.5421851290091843
2.941670745695284
-0.9301514964304234
-1.758058105251842
0.31296908971605114
-2.71829229125437
-4.657825942197415
-5.656378767707858
-5.173681626676358
-8.521663118296736
-56.984008290623585
8.77016119509027
-34.40661967758138
-127.60767843770302
-150.44546543080068
-332.9499876403005
-299.1140212244269
-235.23328793064496
-131.6372021720515
-91.62679387331009
-46.478761165143695
-26.731590844804217
16.610516858229374
14.376324845119743
1.4254994565444747
0.5594353697360367
-1.5161514158870013
0.8574203712329195
-0.46686368919920196
-0.8017048424704123
-2.0131688969681996
0.310668986356799
-0.31562954651970804
-5.96519117586828
-23.487458336280028
-16.249972629939503
4.469645036475304
-23.25803613019664
11.598988065859826
32.34975413276891
-24.16058661721746
-105.22347308501557
-199.67462457906248
-332.7388583402995
-504.67428461348436
-520.3618022667141
-449.68438996647257
-318.86598336330644
-154.4913107908296
-42.204162613866515
-2.418782875776868
15.316652975629658
27.497840542343255
-0.1733181424474536
1.4507156306624007
0.15039751264469994
0.11230524606444973
0.8027832437970519
-1.3717439712664332
0.09722178566484473
-2.9361502767426377
8.5205095205658
-10.675225647094772
-3.034119345598984
42.36850396917854
119.2752650722406
82.1548386413313
109.01584829626468
130.40419664746955
169.92415314325038
225.51761491132373
13.868023785813447
-50.57442396763451
-289.27050240736446
-367.8725638750156
-274.7773486433277
-130.95762481369624
-128.94429403051492
-39.289259610009616
31.09308865147535
-18.068408288572893
58.47546309288394
20.744985065089296
-1.1143114928106947
-0.5294089135928708
0.9390807175583107
0.6183471312418957
2.1697117468817524
-1.0088494768897194
-4.5308436298281425
11.008498351457058
57.39711109309226
49.04079917051031
56.49193988334656
177.89345435440814
196.9670635702626
254.00664847559128
92.1242490143486
54.899043344089705
234.21168454631163
66.42436092224345
-68.81862277582248
-270.96581700382865
-175.8311502250675
-6.6655097385168025
191.27541831618655
118.6398635805477
-33.941364053755656
36.15026651671733
72.62922419802237
96.49933849451703
20.891323492459115
-2.393511369860177
-1.0394198775529306
0.7426524669268346
1.279104991590729
0.11450451031699949
0.2598933214007106
40.794832623388274
88.26214304839094
32.695063452448345
134.3912829547573
138.01887148743887
158.23188690323923
100.04630861260212
212.03231156131758
446.5259922172167
288.47788996494955
252.94002239543636
277.0604832743648
223.22797733627726
130.44107257389774
289.77700355977424
228.9474723111464
391.24197712936717
435.621779717331
286.1616883530277
136.42583519933027
66.88092277729619
37.69179057350569
97.4740991105226
26.645774255051013
15.122468166474556
0.7330547670455747
-0.6378317347580141
26.577430162450053
-10.463818339378859
1.3352518271345597
76.0883845243958
42.94079050684477
88.96651058669194
104.93281691522432
-11.445874995641129
-50.34158628110304
38.908748279375956
-53.475799157214986
156.76461135772064
278.5729119566133
291.5655658476831
486.1356030832549
594.5001143994034
786.3440886163291
615.5790834721062
411.4493082847011
469.9777902429295
78.57312677486452
70.03974012742243
109.09630726260882
89.05399562025002
161.30859365977366
4.473352511725059
18.395235329166255
0.9991718200588575
-1.055678243908109
-0.42429679563146083
-16.48135375631541
-17.516042369558175
63.835622828597884
-112.80751563776057
-71.08735434794437
26.29632540371724
-216.0518624419836
-343.12721312177115
-367.16451007561596
-31.254687245789913
101.69556497589511
56.17889975177867
198.21129655722783
345.78859783745906
591.0510706494664
458.4357893344807
437.51641402466976
396.0559753059734
190.40784259450527
-92.54750881336734
8.74434091376468
40.572915186492956
46.09569845956433
162.43375839407673
46.20688673084271
13.983901749033606
-1.9905917114293128
0.1965590762086243
-18.87776730176554
17.156856660771467
30.801122897884337
-42.02733728381859
-112.90412024577573
-158.89658815423903
-94.76869448901392
-411.3451009540387
-501.3685163193424
-188.26582319053827
-240.21996438901573
-149.99831578054915
-203.58937415334265
174.694751830997
349.1127407843345
69.67108408036599
414.34142730111336
559.7670075963963
247.0137794887716
125.60224662246799
-90.39718899872382
-158.29091296178115
-79.26773588085092
77.47322209210968
134.10737125456728
42.26346128365607
3.6355266741321417
0.6029358593686174
1.2940286780685806
-2.215213142437837
13.452776516247406
-10.666383096596235
-109.34417724332934
-212.68224491349355
-219.12156499293826
-321.049584410816
-265.6410308621138
-502.3826254575265
-523.70598186213
-291.8392880757643
-476.7312086612878
-74.66709819297117
200.83537638135803
89.6028506083073
360.3534837242754
236.81383840386883
123.11738792895916
137.2543818317413
-183.8650275186764
-276.8673854347141
-180.9470985310968
39.31411053776512
85.06975523290123
140.55408089403846
38.49998892938067
-1.0809469394026008
0.7918677348188567
-0.08193345349255342
-1.0740247774982117
-14.407686498096487
-35.017991693083275
-128.78585962015882
-225.28217569630948
-110.50570388156494
-251.73234869965052
-312.61068781876736
-565.2662605849741
-353.3610788102562
-505.70330466621124
-448.4572866696756
-92.36250706595106
553.2210166348247
483.8008132342403
470.6546096096884
-20.568896981970408
-76.78683874475934
-200.43740016989517
-177.95764005561026
-418.78923374270556
-301.3912339621854
-68.61995163026958
110.60999851624607
97.57207314209879
19.081811578225658
0.11892439996231968
-1.7424006555478722
0.9068031255329485
-18.07587717225261
-9.996045258953503
-63.36328547210508
-146.53543979000443
-253.23542730564495
-264.6780321527643
-224.5698279730521
-131.9468578249193
-282.9607577686733
-314.10624559212573
-314.98439547091846
34.25319348538457
221.95480465573735
464.99888986906643
182.9823759442287
-56.72334760366303
-323.33795281091534
-194.3099877506689
-297.9752795877881
-259.745186972646
-459.31525004924106
-476.4276884916347
-109.91957899849763
33.43833528354406
109.34898416991375
29.424457920616167
0.6604959361661756
-0.8771946716073599
0.5655520051928039
-16.55107466415199
-7.22658799649259
-54.302635248193106
-107.77428673246003
-115.56158105666618
-149.2400653018891
-87.50868590018624
108.762141577641
-159.0841721184562
-72.92768677655944
-191.4541095581077
119.1074949526071
472.5343684209879
402.2620073695369
112.99556558150532
-391.5124098932475
-219.52393436752845
-383.0852333929342
-303.56999340553546
-554.0274921099754
-543.8246815573709
-261.79545620754595
-250.16451760788667
-74.37270845720614
-3.3492317535566047
29.470382237884174
0.9033591484952448
1.0684603114436717
-1.1868124433052731
-16.256945325418084
-9.837153557026452
-38.15176262590495
-39.951505650245
-27.378222519124826
-270.2087828086683
-91.29680501984535
195.22596091393072
111.21780165498407
-58.736439153283065
72.615909296606
441.700945904104
440.4848874915595
175.2596166442308
-278.68241479277907
-475.1262018076967
-194.19522842043645
-228.35205766762698
-31.344122117344458
-367.3545745374293
-564.8496855035285
-334.8239192969056
-216.70864341839538
25.951772225030798
-12.088463909586784
26.73832558053794
-0.11003214111041494
-0.5436745646692114
0.1107057201345874
-0.866929180505783
-16.30588511182385
-22.897318901806322
3.670258286102491
-24.372548798854854
-123.41279510774501
-123.40825821886958
209.9988199440861
38.31632070777564
-1.4616534259520977
-21.212058025625172
125.18482182687565
231.69653517709756
60.96960218043175
-386.12968630861286
-279.11270270651295
-429.81340312840234
-94.81663048519663
-118.35408243252405
-257.38088159490815
-155.52365876670885
-200.4343596949918
-196.0839495681192
18.612566030704546
53.6204554968729
59.85128597970344
-0.90299599972424
-0.7563796535040826
-0.30672497448937125
-2.7878548343489498
-5.321249625654565
55.642706871467084
27.457627526276024
-92.52856594991728
81.99916233111853
-203.70404634988003
-25.2647966110546
-178.19453950779237
-211.04457289408472
-459.7792320951756
-226.96225350097774
-298.9764127832759
-121.96301961658156
-18.831116043807672
-486.7380883879903
-253.73565172819343
107.43895129230981
180.99362708961138
-99.40925434770311
-152.53217972632024
-109.68411196446777
-69.94536779707262
7.282029093667845
120.44670843207172
61.75053445955937
0.23734521109538453
-0.2943201399066409
1.3560266555215987
-0.7005195136683774
-0.7876829041077232
76.08487698056834
202.69743790144946
215.54606949940475
83.90274132210861
-32.880552664259255
-357.75184936013295
-751.5247217680987
-781.0518491475614
-1071.8908978663985
-670.2972928963419
-509.6699938837719
-450.0377291469622
-348.3005371397395
-245.40264677237093
-120.87214420961374
250.06407225647052
281.1056348455423
-70.67978373808822
-128.46483855599777
171.40811198796536
137.21731383456734
100.09848417069732
79.01409165496092
11.838526324497181
-0.0563472732459773
-0.2291226717536126
-1.1048571162980712
1.3656922446210151
-0.2195036411617394
105.59580598661792
248.53244394439236
239.38004071621515
306.5358674922426
76.50550600600475
-236.5051011410091
-946.014556555764
-1035.0188022730192
-1042.1431241204111
-808.351846080526
-700.5615280789268
-200.55351224016704
-143.2651341024097
-84.15615949603531
-121.15237456135979
178.0771170456551
300.71585078366866
166.8576838558969
45.29990803920771
196.2829840810848
128.0964848767373
108.09333999316735
81.53674154067532
13.341180023403156
23.71722238672509
-0.5740179766330957
0.8423659144710502
-0.0486841887330626
-6.50662203454436
104.0298119807783
434.0726593382937
441.1624012407126
688.7351605157352
522.4347819698775
151.56199995612297
-370.7071111687878
-600.0525610439375
-579.8667207148892
-444.9680950748247
-27.79474329787767
-15.79136387638054
-123.40278559038003
-85.05129101206077
-253.19769306457192
34.0097956327307
207.33537121789135
257.2581188515745
97.177397824692
195.18460687850495
98.36167942388761
37.92986487189217
61.921523988223186
8.859633699052866
23.35706994124143
-2.771214428113729
0.016494407111726825
1.4834890614341918
-4.59431260622925
107.01436252713437
369.65043004563415
707.1307377286774
691.9458711694776
728.0706105462688
399.9826626107766
-50.69333097348686
-164.98424741800733
-413.5877690456631
-222.5947386326434
-202.68554736299916
-386.4580215804654
-245.35968291446747
-104.08654583690762
-223.16622301685908
151.0580447535737
245.23435571816384
220.0526789396617
297.9619420784489
-3.9952130232829277
36.148815577689724
55.50006589199036
27.70177795792956
9.373333644945335
0.19799474635516892
-1.4924603682848927
-0.580574437280316
0.35018219984168597
18.24158289290431
102.22374627558355
346.03572447369993
392.16056223826223
689.0349920629266
511.78173138174213
429.6918295702771
301.65780365124544
37.192177649578916
-274.36054664484396
-338.54953597765626
-494.8450106421666
-498.58815132790414
-47.41843945774183
-145.27509959747968
185.1044970956164
193.79863018635902
128.42584376339545
20.796825544686424
61.71152137062521
-30.862224315453904
51.99289642826095
69.67617743992237
35.31826228733316
21.043555997555924
1.0887965444249792
-2.0891167371346837
-1.00072363553072
-1.4876128391676307
3.7556237301517474
54.671908671465786
278.5787264629893
229.16185563604682
416.9514943650217
442.61057623905015
456.0222063041044
458.4246544630788
202.11660223477853
132.31611773795365
64.61928468694471
-88.06894516511275
-27.14690916226145
83.88543656965963
215.11394685936295
223.5110278239995
87.23104562152407
-45.33773970142276
196.81569023138022
119.4542353552537
-7.072297378932944
43.75950514588404
26.57270224342646
29.224918047322493
22.396852156907578
-0.5871041524699856
-0.8971022308555996
-0.4075164017595628
0.10699136473631096
2.5999095407513315
40.21192366175613
249.08523536100034
199.73622462029311
220.9072808181916
215.59689239610253
280.04898181228685
307.81142374553065
206.37899470711233
161.46775022426485
170.09843357275136
265.0042771532555
309.04212097952774
326.0459873295806
315.57724197481076
244.46423884841337
187.3129255496772
65.85043486164699
38.116169001730746
-28.6378385243838
32.56589912908508
55.35013830908016
11.622657612224176
11.23062526075129
10.739327462189793
0.48591597859741587
-0.28780209618294
0.8418622562987536
0.9909473460140042
-1.5798898930059655
29.119844032022673
62.00876618725321
124.18898475994024
176.09663384179603
130.08344281357114
55.57044042599896
-121.33858379087484
-86.45547939330714
-55.00914210151868
-172.93996740633526
11.74383544237877
-102.27971077443836
207.59040409215862
48.85376765338327
-95.74168183487873
1.1827382571132485
16.871312765959107
30.348054535122525
12.887312772066199
43.170735087200676
24.510893896928035
-19.571118271890928
0.3270503781977903
1.3458137943340998
-1.7036595473922003
-0.772162532259063
-0.017522891069048353
-1.2349969365123383
0.8441941635928357
0.02529241244930334
25.87203255948564
-1.8859957423868439
5.882719710080905
32.570845970507726
21.181076678899085
121.66955619980507
14.305337215453473
24.557338390134586
-46.59669464352204
-34.36027750471644
-174.0446961026605
-18.36225794324388
-17.85298496841677
62.495939660228615
165.85106016871174
64.85126599041018
22.601002834532782
-2.8770903065226263
12.694995987755402
15.880804871004337
-13.941445125258221
-1.1522535440455972
-0.9251012051751366
0.3457806821412669
-0.6160163667286597
-0.6523837944859159
0.3373300768928613
0.8918076466475962
-0.3422726727600803
-4.984905144177097
-10.567111511377998
-14.641945250271277
-18.334016965085286
15.743889275210497
-19.824894743812177
-34.2782022376052
-92.93374645812935
-156.19779190739334
-87.2398312597873
-140.83756783749882
-112.6587350052712
-97.85370199544295
-68.67773295118587
-22.247308187812436
0.6365320674205207
10.097056982648791
13.387446883049472
15.04397296348213
15.104388266487486
-0.08745525310278945
-0.7980543595637775
0.10112376731415583
-0.22220085950497656
0.7853186087177348
-1.861184357436144
0.39290272938722864
-1.3227779902292667
0.21367030308192103
-0.8959280776676752
0.7437721635352427
-1.0053737662803959
1.5278195195368403
-0.715887119530477
-0.1697410468123639
1.7626767393172054
1.4265969620482755
0.8701560914481331
-0.06224827220934554
1.3534655294759934
1.9534906566751695
-0.6640933154199974
0.9224737485149335
0.6306035623649855
1.2504464685262828
0.9338949810399023
0.9053644537607791
-1.3047748253106768
0.17463286657844035
-1.8017538459483664
-0.3230384900774115
0.6643140946188332
-0.5819778501596954
0.6348158249849636
2.172617215941876
0.15446411062831306
0.8949112134345574
-0.3690324611072318
1.9442379145499404
-0.44610619620698994
0.3960565230402025
-0.9284989442507519
7.164991659875379
8.182018025601218
6.454551563939096
15.550047797077962
8.856714332672185
2.668487748832845
16.769753974607326
16.58708413397557
-14.331580829593399
-29.353597381265278
13.802777310507635
27.523357252007514
26.948894596639605
11.233479376377902
6.187040061383047
-0.2221544005912557
0.496080394999547
-0.18418378984635705
1.49441169907093
0.38802838863669376
-1.7478215078944628
-0.027108242108238974
1.32887932089701
0.22635183203076256
1.5546597606697772
-0.25264145183032594
-0.30936426034850123
0.7615633899859298
0.15088913170607865
6.08188781918757
10.735383864339461
6.91327427208888
10.450901446960433
71.46978265507941
3.796087899784011
28.22260562411696
127.11621356202639
180.39971740464478
330.0946184350997
298.96338063130116
233.07879344511608
172.7891061946485
118.54155577211264
43.14206261635449
19.60047640769868
10.87615797589681
10.871065704991896
-0.7421471465583027
0.2768601892215281
-0.565186581079888
0.5420794589236602
-1.054958957364559
-0.2751996548051399
-0.11755585217267868
0.8722697693099989
1.1068119642576912
-0.06693695443705794
5.12189818534454
-14.855861594175824
-36.36307487990589
-35.95151036098759
-89.68261207031664
-104.71151535173118
-99.9657060291369
55.16543609398012
180.0313603307709
233.81581020091005
330.5241019776876
413.73003701221825
368.2120006722423
332.0688524896396
176.00834940209532
74.92639842666843
-14.671882917300684
-14.617775205549568
-18.73200834241989
-1.4008815999421524
-1.1754213820672021
-0.4853442973335414
-0.7897770561991095
1.7276028472789637
1.5935847119865756
0.14776127520453977
5.0352866079317895
3.136944298803986
-17.36743218633478
-42.83583945111202
-39.87805567253131
-100.2758981224822
-117.04215012780254
-43.999508539219164
-45.86219094656413
-114.59804308909723
-21.409192002245078
189.5262699712444
387.9004677977841
556.7059368070398
742.6408813157874
577.4852818285993
448.52338964849014
224.2719336007976
69.11305099553908
2.7096803557833167
21.799565268298377
-42.19000009914241
6.292476625561937
-0.529580144377093
0.5874650277272082
0.7196185454756435
1.6585768999825155
-1.7689215696388767
1.2070820084969707
5.523718897900785
2.246072764940775
-28.863372186569872
16.72671906034972
33.316851825447294
41.86606878622969
-95.00616820865156
-54.56477380864993
-72.33578827865666
173.55540763758881
104.275878314813
205.20428646398105
246.6653097465329
684.189732893735
586.0090082212317
604.927320937426
282.5229914820705
189.94421524792494
16.56674166186963
125.18931682818538
55.02543881416424
-38.16521801082224
16.558298961829042
-9.85840040814847
-2.29354229042797
-0.36882483389280774
-0.3572170828882552
-1.057330555211959
0.5695307195841754
20.689921647521594
-28.948296859857077
85.53444162337998
118.78635544479135
47.0656325131394
-30.984975177895183
-10.925906707758713
25.279662633808893
-296.97145997431994
-250.32344152558017
-548.8641677688656
-826.4310348726427
-878.8889478511063
-571.2458868654712
-647.5003879144954
-381.1315066016189
-374.76891949500424
-161.97989793779016
-28.608421455090355
220.25807425051283
-86.77153601071913
-5.65486940972259
24.77769179562639
-5.189365669467778
5.1396647148462735
-0.6567801186754304
-2.991579389749719
-5.6476871362221
2.2255628501844402
38.757590904192135
13.576226846099015
47.3722736109316
153.57331933014302
-50.65659657018738
243.1314013944774
142.4837090962974
-60.67781298941048
-54.89921909513734
-469.2890171564978
-540.0710711053338
-866.6112927484104
-844.4537500788296
-800.7794602106785
-692.5331203606918
-556.8990571726114
-342.1942178483263
-228.7865664463539
-47.79365066914508
13.722028391588157
-68.16703722378502
13.014792688694422
57.19939411251374
10.166375848799538
4.620983111058599
2.202473840579607
1.2431570340523928
0.3054130861999243
2.620021167868808
35.67263164617826
28.311544822396954
146.72672286067555
131.70552421899086
46.120275212634496
82.32879059067784
77.51767881551903
-50.70763970678764
-273.80886453464825
-528.4894584714643
-439.8579078274794
-619.1255553068914
-358.06956893254545
-426.01805105448153
-353.3235634176468
-517.5747821278258
-527.9272660312521
-292.1315798363607
-146.05009581109178
-39.24918948274259
-24.034391875147662
-35.247747755934576
24.020589788219294
15.122393758547966
-12.696931490010478
-0.4886053593558187
-0.44334164463578263
12.160872648384169
13.306105848093324
27.9761832695621
46.37712993728714
51.298289254960615
125.88870656717567
106.8821687004091
81.62534142619637
68.30776855486106
-492.38108916236024
-143.48405227460904
-213.64146037317184
20.188936956634276
-49.73529132788368
171.99097063479329
222.0340090115599
-106.91888642333782
-353.66650632113755
-491.6861110176436
-279.5437029695069
-51.841437255398034
-24.26005152494371
-57.074102255851855
-19.46513968199546
42.316537453770714
24.204858331016656
-8.31240666672507
0.9401256249205384
-0.5701557677126223
0.5563817936927996
25.558497321436477
38.45339262382463
39.62812682344563
-39.96158276447583
40.73436345574658
11.618148389517945
-34.92660178124431
-425.30180963862784
-15.014180757316305
-75.141868318022
322.5311665993703
440.16857810809745
292.5572442545065
193.0309455051926
-149.1699387114452
-60.96216273512214
-176.4484165566417
-400.17669558259314
-338.7929308590048
21.24082406093368
-95.47949128911083
94.2206929286257
8.91371483697103
3.758646140824685
1.3805986424657108
0.4740456362172564
-0.2749128504676832
-1.1763015210967542
0.2915746353668279
8.099064843824886
63.92620509307359
-22.823072917318996
-188.49563879485044
-185.5208644293048
88.12921518271887
-52.00350141308577
-159.86502441549774
132.7912476056293
245.59745717341391
535.4170474150496
406.73184520788243
-56.05129088373832
-141.46812085044792
-343.275578690955
-404.6436621917674
-390.5368715063049
-571.3207683437856
-178.4012547714504
-2.220021829919449
158.15312698956427
274.1774049578668
88.30570185445713
-70.48278857002268
27.36557023525933
0.8907201995374694
-1.3473110179184387
-0.40165111634227163
2.0338927770319337
5.242558199080448
26.565984937483837
-24.886524193356184
-54.183004125792216
-2.3450739076948763
7.334203576070198
-166.01226826551078
100.09026709022345
195.8800235403809
560.5403253265555
416.9673493836625
-330.1705790056408
-552.8221633571618
-754.5502078903311
-601.9525041545525
-312.4020494912068
-257.959259500507
-257.21343526763104
-176.48006177077158
17.91992466317119
629.6842993028777
377.61767556478947
130.18244289437303
-70.9308417980592
-15.5930162329957
-0.6326320506176635
0.07235178610339901
0.21407885480622396
2.1889400911068573
1.6363302456516433
17.037251429220067
30.6984671564855
113.91079582859932
77.54124682478091
6.909642388240017
-183.9218859465892
109.60862333467875
229.5754804487303
466.38419237098674
-287.15464910050866
-782.9532067976262
-781.9804076456171
-800.2177712771968
-586.7198539628384
-296.9165441105179
141.63010949227493
42.08441526862032
324.9410294393819
603.5929111198252
587.1684330088958
553.7573890446206
194.04249633250186
-16.0326214749454
-16.155161291410327
0.6520251379738372
1.3380718932296987
-1.6089421935905253
2.428317244889424
-1.9196368217201323
-2.97393334004338
33.550325718177696
145.7518953937673
299.22686315483577
322.92820344231603
40.107482101270286
162.97673116359533
105.43532805343635
-208.7501603378624
-698.199001238053
-831.5365348180142
-692.3872129807007
-471.4381414747903
-220.26216366213404
-387.97870537604933
46.71705250573842
25.965763335384867
604.9600040723305
692.6339878819493
806.9119395296896
538.9319220897227
156.69908490343423
37.327790065198975
-18.316627139547975
0.500650515925433
-1.4026603370730943
-0.24687643126125886
-0.3506831451703134
4.22146241254787
-13.9304695745534
38.88608250534037
251.5524192273584
331.52485951500216
530.4026410592419
248.38786215737468
219.86874734922756
-108.85398089986005
-534.5770964295571
-554.4075306686613
-678.5001814455183
-421.7893716173455
-301.3776036095984
-110.63132859521474
38.249367065277305
171.2136951009595
528.3928674281397
466.16907466247005
778.2160495306041
657.4665358107759
484.3372137139662
190.79134776749163
-19.909772041785015
-14.87519095067293
1.1738639859553415
0.25754218474179724
-0.3984748574485474
0.10855878983169814
-0.9578108730876794
-69.4491347377098
-77.05643746782366
288.16501589283223
202.36831883882402
463.3366073139094
741.5315189708059
172.69169159004173
-299.50152034207383
-582.6780259589257
-769.3720546347012
-763.655638759195
-512.7904569251403
-484.7573187466219
-227.28569358499868
376.92350440692985
535.1559162815544
359.0107154516381
630.1401084163197
516.8070016054846
609.9491217933722
356.2910995021444
188.5969716577684
-87.09536425020401
-14.835925838900735
0.830518536722133
0.7824206425209842
-1.589587467327627
-0.7509048182550827
7.656543664493222
-54.467969920011576
-110.72587634770402
187.75790570882248
219.02712130059479
508.4603546661078
543.4512030403044
116.6658596116464
-220.10697361242492
-363.90376299837044
-604.8395825180586
-734.8387912259411
-533.796747891691
-221.70397924307048
-95.41529527806952
335.41042407511554
332.0631338067938
350.01689177379797
445.89757467649963
441.2781568662331
298.75855972824377
93.00205086957318
81.37398714311627
-77.91637034171548
41.17359003466148
0.7058345067964472
1.344011693758669
-0.7067260784546233
-0.7443132717490185
0.5593695910801156
-36.71877301695149
-73.28068713601358
53.71910629009124
174.27357987179502
412.77403093759386
177.2016652456657
276.32910617581507
76.92903574066948
-81.49124435739769
-121.11060320115823
-4.342592605729939
-330.4752595295518
-131.48324269683795
226.11228984183535
388.90467995605036
357.57676136998145
228.7429426155469
360.3009631078665
110.73394311421217
-31.112844834090282
-126.48988668568812
-4.480137524534698
-103.49945289341932
31.15217608606663
-12.697839111886548
0.12127945725601763
0.294550959938564
0.8176322555441435
10.0843769104221
-65.03175651119703
-92.39760239158063
9.640277302948993
-3.6346156935559755
-49.41267068511206
62.78964044717339
208.6273194276924
142.82933253193104
163.61526609300182
496.103327052401
302.3077929628362
67.50274607014795
272.86271538403685
248.8304728563951
551.523648566079
416.5915041745898
398.4338764071152
70.27500797409135
-129.94880009714888
-325.76092712720595
-86.90069140783471
-13.04306561175851
-58.10505258659813
-12.89071761188189
-15.087632393334637
1.7121248448434563
0.6145848100599371
0.16651206688060977
11.447896880619277
10.12497149702834
8.639907542090222
-17.440115937562343
-71.39465923751088
-135.88922563764544
211.7334143863019
254.4179848172781
403.6346503245657
702.0515155475476
454.7687069638417
459.46162947091995
467.40978741481035
534.9121419750186
505.27677087689784
415.02371972186313
220.55361606476473
71.91676238858717
8.836401520617784
-192.49930843740455
-173.19419779079317
-104.15113794529223
-76.96836262503203
-8.942188825562154
0.8285885196503202
-1.2663873839402502
2.7457200806792628
1.9108301258883436
-0.42564668153978447
2.3852394801565557
-1.4878728105682413
40.78097684393043
-124.77237608119081
-50.02849747036929
37.36890260189063
5.825294115862955
62.875478699184264
174.21981190238017
565.9041053583136
635.9455645072088
463.77834350362565
542.2269174624737
347.2832501520967
389.60562142152673
300.91495017201333
206.4523586333973
64.07375265803137
-127.99339174657902
-233.20964788403037
-61.712313367392284
-93.94397415790661
-41.56890316699679
-7.177521125075354
-6.461007780398448
1.186082354286887
0.36353821774303824
-1.838028577332715
0.8330721572024675
10.198061604691034
8.565809704502929
48.16892147554314
-78.79945373284865
3.597625872430494
27.145928768075333
-40.179241399744136
99.35742558873245
-7.859466101618406
-60.835309069993905
-33.63871134766034
-83.66906771793055
19.278150610610464
221.04842728539396
295.9971630561839
202.16101988546777
-60.46689297489034
-171.92030177124082
-66.63351292591344
-88.66907911706903
-111.55839176609673
-82.77349084099508
-25.611070137051154
-0.20213925640676228
-1.8050309737205763
-1.113168386723248
0.9896028972595268
1.8333995983441296
1.085043073557546
5.9660309682071215
49.798888273988126
27.69284073046336
-4.187223431469768
96.02193354671762
20.621090483709413
285.31007527072074
348.0731125965321
71.26807527911215
-45.1471456699011
-189.40404687082076
-216.71168339293789
-170.51908078082093
-103.09918885716206
15.852831711577636
-188.80692839858477
-250.76831561883563
-87.39385192971851
-81.06419788787333
-156.11929423046593
-176.12649669457824
-58.7808779197951
-35.94553275856034
-8.666334010863562
-5.582382121981834
0.9089165549804156
-0.03988261297726766
0.26193357955040236
0.1299910267494043
-0.4621422395037102
12.848499194440855
26.43703014618157
66.37164081035687
92.64293219702645
17.16604324393113
46.136024584259346
-32.968611144258205
-71.76926978777225
-284.7654432231427
-181.63910840101127
-509.14471884524517
-300.3035960225673
-327.0453005832667
-409.7284057113238
-322.3725475984328
-295.5936312259078
-209.80562723770393
-194.8926139081968
-253.89392561984081
-168.16757848809877
-124.01378126084441
-18.09162963856486
-1.1999696639695738
0.16751219807474646
0.5168651026992581
-1.6230453168649468
0.48394634279660703
-0.20031109487552526
0.5549574930774527
-1.5346617056392808
13.389117399529214
57.10930815610468
75.81680155121583
59.51991622529849
-140.36657169142913
-107.4976844812235
-320.76377188196886
-343.75488417967335
-290.93066402326247
-471.24197202949443
-147.63689376568954
-188.9932156428458
-403.11379205185415
-350.28168906789375
-322.20711633170475
-306.5118115175877
-220.09857372919254
-178.12856586941552
-140.70268835973187
-82.48073493519577
-44.056184508020806
-1.1418994542357868
1.3695629729351542
1.2735354101366008
0.5445809956782207
-0.9149896892471885
-1.3848006602655452
0.16451090068366406
-0.17598059533029395
1.0903930425225337
-6.094302210799705
51.840176504761246
30.578770969959002
23.361229024405333
-8.755075192571114
84.57019954882558
96.09781120426466
114.80239126418823
-57.580779032170156
-46.30014700712761
9.861233684887724
-100.22913626815318
-61.237959280319906
-19.11020538424323
8.638656905088547
-34.40910190226148
-48.500174545298734
-48.52756689631422
-47.94974869230341
-0.10470466492165369
0.6488890435144986
1.4911619257184057
2.816263647006924
2.0378283953952394
0.06831884770901944
1.5816712402071877
0.9670238519744152
-0.020953131557958245
0.14251182420371605
2.439083383308695
0.051746958495058754
0.5280128675407618
-0.2948692639906797
-0.2557969645940205
0.997864908620004
-0.5369580850236945
0.056450265028084576
1.155649189119728
0.3582885267639015
-0.43358153831235685
-0.5793286007169377
-1.9568415476570904
0.44051294903354593
0.29743743437317954
-0.9807093918168712
-0.005873580548118864
-0.9597145454355711
1.522759007028181
-0.054190160778361536
0.4374997916027919
-0.9066485130120248
0.08405838338562967
0.36099067431580384
-0.3404957605857679
-0.04743387750135696
-0.6428912304305255
2.546047968521981
-1.5757151900662405
-1.0048587673227793
-0.35637952804346223
2.4840673006903824
-4.402685470057508
-4.212532096446784
-4.673909965631646
-7.225641795091659
-6.194410835387508
-0.1450476786160222
-6.422452805833159
-6.8087335867659755
-13.35074807021259
-10.161645427074278
-14.782230635289526
-18.002656614715907
-5.864922481961371
0.22326143069394863
0.05177136361544326
-0.2328104240113416
-0.47844912598543404
-0.8751337882371351
-0.17442581401725363
-0.07575191545390506
0.9779495277532444
-1.5198586783270849
-3.0202695345798825
0.1103685253176485
0.47408217171580935
-0.3817298924657666
0.0562442504840106
-1.93421992751574
-0.36633747407911976
-5.092703847238335
-3.4563259024192727
-7.665993672342956
-13.582765640221165
-27.32017335910719
-21.97039125133757
-35.66326287002611
-74.4656347386743
-98.3921607554668
-134.253928507106
-117.79834593773325
-65.89363388977797
-42.04386669720623
-8.049586774249999
10.861494687870456
8.391946728693624
-9.446084141994733
-9.11255927689131
-1.959112517989801
-0.07078936728850485
-1.2212273225952
1.3819564903937724
0.2453777281387336
1.447387726397222
1.593533388845028
0.4950236357956467
1.0895292144437612
2.028704758031484
-13.216224887234928
-19.930114394271094
-1.3155842270825406
-32.23274905233143
-14.628521053680865
-60.24871366479876
-92.22387124155189
-160.3823290754157
-215.19160762135502
-187.7484661182507
-228.7113382698599
-260.1980944374632
-136.9235508657444
-129.59707081955642
-49.868353091819955
-31.43222142834954
-62.38580630791294
-66.47380546269767
-48.45730128315283
-0.40882518724249545
-0.16692316087180853
0.45701005353947366
0.9624988975406655
1.9125406165715422
2.125962204232687
-0.8349581797055617
-4.139833968660655
-0.5080352839300046
-12.928282923717592
-39.89584888608285
-17.55275762012091
-52.118685986932654
-83.50555490060299
-149.69085591903533
-212.02227520335381
0.2358693440462203
165.90652974330405
362.80992979686613
252.649843391244
230.30397019755472
216.1741268644998
193.31400512605902
148.73269257855847
37.245527384124756
19.094090052283512
-40.25299090056093
-116.57283630303613
-50.2180586927165
-13.430059257452637
0.1235453397139836
-0.8584988738966518
-0.1628982207468428
0.6441887660782344
0.564019827109434
-0.2731152161366642
-2.3281474056983362
-16.4339950387099
-20.989736820711027
-130.66846299406959
-173.6240901257554
-312.06623288333185
-344.5479151519109
-211.78770497389195
-54.54503263916857
373.15933142628313
750.2057683750544
784.4066086387987
851.5399927637922
943.3006806317982
745.4095199689447
602.2817425908697
308.23504324344486
106.31452165244423
157.78864146440915
-44.57450533136561
-158.30010452605634
-181.88311921869652
-67.71018445002014
-6.904345636361407
1.539319790610539
0.3364187766231415
-1.419031872769544
-0.12369567537326528
-0.41045803420982735
-22.247936472577287
-47.114634373088194
-15.246768716497542
-133.49534897501167
-170.96384088651754
-241.58985584519084
-229.82935366533027
-222.22812624260305
-10.955499663301946
-34.86840143459137
40.94163766512903
-55.05611597846376
-216.81513987221572
-190.06348368715882
271.9228280473246
407.1803614308314
120.1733437512296
135.61162147281843
113.93823780365534
143.71128302453764
-286.3370850506736
-271.9823278553204
-168.34045917665077
-27.729162483807023
-8.198484217338802
0.832050712368873
0.09874989003862893
-21.225863735131924
3.0333636143587466
-4.799553691169111
43.25366048587515
26.761081440432378
-16.944692006214083
-36.907415205977706
-18.82911614648656
-38.33771777105567
25.870116439261146
139.83987163662698
-48.02022699696258
-40.27042699080471
-276.40636820712416
-221.718267297113
-180.33928029710953
241.6824946486954
495.47507552364135
610.2251659265673
518.2290578392839
113.99009946841743
-34.117864256765046
-406.85599481888977
-572.9163151632592
-401.55038570749497
-44.80967565530209
-33.78480915058126
1.2262207495955975
0.5874445369319707
-1.175508179334236
5.5435362828594315
28.545442058037924
33.37249974853052
148.6698266521078
207.12585628304905
249.0189243820714
297.78685769460435
205.94109747304688
239.6132194740513
-223.6402629369961
50.85029677449734
-133.20535753023802
41.94569279703064
32.883954452186515
140.03365539385993
297.1860673109064
731.193115044904
616.5132293299953
832.2761552776386
758.5120598334181
343.1597889960483
-86.1815941598609
-270.3891473044537
-409.32546187725706
-116.87410919371855
-57.896630115950316
-2.0697727757170017
-1.4395378048486318
18.442673878659548
8.368391238972704
28.304821096522055
57.793831469791
144.34650132745904
170.95122479781958
343.2905957732492
310.4022545064126
309.52800771695604
283.7072699501621
139.6986683222241
127.46256161108941
381.3965758398994
557.4494066809976
619.0013498684979
815.1500486595694
943.1495716607328
1090.6608993194016
966.4636410800073
1255.03632636698
1010.7666953621338
687.107508890298
339.43341039424496
-130.78211395935566
-300.908875651352
-71.45974991255731
-31.805358968575003
-0.879169936600682
1.6439204642539038
1.3159549724086193
18.960982888084796
56.629454057099785
191.18409863939755
218.87253419500527
178.98628091115103
461.2925068885195
183.99543349054173
-135.11410797758845
70.4837779864868
69.40055368854888
289.9457825304859
333.5893196992366
553.4235973544559
535.951040993996
257.61690455270457
430.6148544359465
917.2795610047831
1023.0775405118081
1299.4030177398665
1408.4734226095088
1004.2084683846454
542.8073392772728
67.69339100747536
-205.88481624001597
-40.95447971555982
1.2716442410920554
-0.726707301205529
2.0757720483519226
2.2062685260841035
33.91586599429971
68.0141722242703
119.87142486794775
57.967015068060206
133.06406094519355
373.12295149538335
35.56966871835085
-107.57849233332693
-119.16293026910854
-144.16824995651245
189.9153382728774
166.8687525378359
-111.3908232842777
-253.16013696684175
-408.1246290982593
-156.8684848288741
290.378229554531
713.2507218857443
1266.823665903112
1381.4769014403655
1131.32364136374
795.9698093080472
186.26947415375412
-62.93798379518355
-3.5840347635282357
0.07700336321853812
-1.9834362288371699
1.648743185557617
3.6982494180237664
31.346638486550063
93.2831396409454
60.607022610202904
154.84084045843184
163.22800263451387
64.45391267379664
-71.91001612877781
-287.45696851166065
-340.28887594289716
-319.2421952755797
-333.2450413833144
-554.6359532002018
-750.298158940395
-758.0410858367937
-768.649367497666
-723.5448450693214
-258.583835995716
177.07441386522882
782.1411275469582
1170.0737587758997
1159.7624595866434
681.8165827510876
270.44435212668
-0.7457059442289394
21.497432137846697
1.2007781944585867
-0.027004125847553063
-1.0741538795350398
2.7434691969208425
38.60715470630521
46.06380882616421
8.094662446292434
278.3872910372424
214.53368433117078
-75.85915071936631
-421.13143789704407
-571.3603279395694
-580.6210523685303
-353.29127003910116
-390.8816814798136
-1048.5567945518142
-1082.4767464818622
-1167.1784343466243
-1033.2444337050026
-1161.733214087983
-659.1121886894662
-114.87396414911942
512.7178774404673
1016.9673215447187
881.415374924321
631.4495709607581
287.5979352982493
3.851479784849615
19.704517493477404
0.3673244066702134
-1.1149162901575203
-0.39865047353769056
3.239825053977287
18.292530120358506
-2.2787834905656035
85.61926651595965
453.8036559825582
354.84823627317763
36.59935496063341
-195.56613221382446
-656.942127673004
-660.2369925811018
-757.9698789944638
-917.8427902173568
-990.8953321532726
-1044.1946138550013
-980.302776618261
-1134.344855756554
-1211.450612879245
-768.1019808339888
-333.13944704546043
526.7131812979425
723.9562985801498
802.8590250213142
598.9922306945264
301.4523492341637
-3.3781402253974964
7.06583946890933
-0.23382375805759112
-1.3971340562409533
0.08357700294195722
-0.49789927853252164
1.1262092685178045
-11.201960707786746
124.69562081990186
643.6705029863402
657.4984215186702
548.3958913341236
154.8391037410162
-127.90173809073127
-542.8035547689253
-509.1411952995022
-738.6000142158009
-873.0414119240329
-1024.3707683666032
-996.8278247333012
-985.3755244489643
-932.4861467419989
-561.2403235807719
-105.4568133502398
512.0769009308092
703.3982509375716
598.1191652329236
453.7655903534905
327.44424294860966
-4.8563058898408435
17.786488337340465
0.4144481684939462
-1.081417691707279
0.05896348085604563
0.04719367325745978
-2.7063170676889423
-30.951339567975868
23.61364371816198
554.6601431819847
658.4350492301949
762.626694482531
636.3505871381595
154.42640198665393
-139.4125685281474
-313.82241519236715
-419.4457793320612
-634.5519708851756
-778.432465337868
-794.1412215728362
-720.0026450620757
-555.8129052570434
-192.02237563723173
-9.89884890200121
490.41883767456267
532.9847008449422
507.3452963597007
349.2962525703822
203.80127578793298
39.87921760018005
17.672899039054524
0.7530140239026107
-0.5622251236751604
-0.4396805886142859
0.292396208873076
-4.846904006536854
-83.48654612734396
51.13507943857077
541.5130721876483
576.9619423533476
813.0273074935529
926.6710207647438
913.9489968978185
646.9897328316631
445.20063478165775
-132.21788249617572
-475.47832056465825
-444.2518165922832
-781.2849871293621
-577.6688772140456
-36.967149407566474
-233.77527140357503
174.87104224321746
324.24430455548816
346.9569273186051
325.1030999892463
209.59882432118894
218.10700875786833
20.062950794955842
4.083092442646566
0.3381252190914522
0.2996894456595908
0.9258148903936815
0.3628232640875648
13.10272557794445
-46.91975123179584
-84.42914595699912
241.08464844959815
504.91396833549794
639.6715471323051
1107.9414402556404
848.1881926163496
712.0142645700442
520.8119847178068
297.77116268039697
-81.8131733283028
-328.4379619895598
-206.68604472397124
-287.1265836408228
182.67986008488688
-155.1857978143361
147.9753415697483
168.786905621406
262.45372617627294
117.16176440348872
69.19007751851163
