-0.14911389351554594
-0.6497919860208687
1.7356578181730196
-0.4660920607328971
1.1575554713921095
-0.5881983621115179
1.7181035968960814
1.0649755860856087
0.15036429728032819
-0.14705809964370142
0.313058323873909
-0.3080628578146589
-0.08149740279292284
1.846144153721082
-0.08299550423845081
0.08488160967119684
-0.19871493445655486
0.25697338229047884
-0.7986750191956595
-0.7226314450532227
-1.6459299740672282
-0.38431157825482387
-1.323988083019337
0.7913582189188579
-0.41436644756147334
0.4222950795158845
-0.2886160180262486
1.6274639026911915
-1.6363002972632674
-0.31234389941087826
0.5571154786630454
-1.1294387273877586
-0.9496982505281513
0.05199538092360548
0.35027773808170737
1.0709838005582257
-1.388385523311346
0.017571272168865983
-0.7499562802291824
-0.1681199202300776
-0.2521396449427078
-0.8931233316336926
0.5486260363410824
0.7249309543865108
-0.8304686617913933
-0.7849254874843516
1.3557796228383008
-1.6559931442617446
0.9455885280412759
1.2146322151565045
-0.7000809103060743
-0.9329523282256049
0.7509283559587665
1.1429878301836613
-0.9499434676054779
2.071078463842003
0.2898306297126422
0.9037524126575354
-0.38881363188604967
-0.7718393410400572
-0.2510354607173282
-1.1675739589345409
1.9515550255525367
1.067480738774649
-0.8026730796568307
1.740692951538835
0.11932570648356042
0.5017382418604814
-0.20637592287866635
0.1918244553498547
-1.737306560131772
1.027314862918265
0.3586450716380191
0.9730354763187553
-0.6113757337622753
-0.2024912645060696
-0.6068161447740115
0.24523253267553488
-0.9088646956339818
-2.0994520193181647
-0.43458733302938013
0.8666929937842669
-0.3331267026114486
0.8817709656401556
-1.5271645454935368
-0.4126254880330861
-0.26923663900535977
-1.1759678653330952
0.799788163074274
-0.8293009103952951
0.07049667380667052
0.9563246109897658
-0.49865880169235877
-0.3981118011021273
2.952846430445475
0.06906014231312566
-1.340018462414162
0.9310147996886463
0.05810445947345154
1.4339284256060068
1.8201046248255708
1.0483597146262646
0.12567959532543552
0.5193074647199536
1.6291403418153176
0.5435741401304343
-0.8464736399086648
0.2153747988712109
-1.1770806190038472
1.193044806692912
2.3719365388157745
-0.8493083908051813
0.3591485106836382
-1.2890801047345735
-0.5843081335693152
0.6061417322198863
0.6645932646802104
1.6278230016163666
-0.6622772539790238
0.037627673600791764
0.17576055448786193
-0.309379012456172
0.2963511763412808
-0.22364719892698282
-0.16945625509528664
0.6612800463779888
1.1975317027283436
-0.2969087989472319
-1.3805517883586347
-1.383647045791618
-2.372916359652189
-0.30723550131578614
-0.3632114753619898
0.29148213094273184
0.5134320466383699
-0.36049420453829834
-0.19345087406539013
-1.3328028590175653
-0.35162289646379036
-0.3807933918298573
0.472906226559892
-1.0572269319563523
-0.8630604335172656
0.7668216088738915
0.27465845697153524
-1.3915583362666155
-1.008863748330653
0.21462573450411315
0.16322366700575194
-0.3909424137636634
-1.3725409008084855
0.6347298757540019
-0.12741237053110516
-0.07073776161742285
-1.0168385954857504
1.7519668681397085
-1.3624295929292392
-0.6769985252070742
-0.3248115711216852
-1.3573292110977628
-1.671038527266964
-1.1886067053261262
-0.0840653376213496
-0.3510120827486503
-2.2964257416067384
1.1725771448141282
-1.3209995436083601
-1.4915190703210919
-2.494708714036244
-0.5315407370163376
0.34321171510637377
-1.0757975077429554
0.541797756019023
0.1370190677388191
-0.7768039183273532
0.2962535392746515
-1.0857811909755413
-0.03619480151011127
-0.8756598847375231
-0.24175550673148669
-0.21861265518536213
0.4440416857800869
-1.6357052619680978
-1.6678517944147413
1.1930535787006726
0.43289744478166164
0.010975840873462624
-0.7888877131915883
0.9436751189872548
0.6949588252683984
-0.36761986496655147
-0.9505878095157042
-0.08808538270070651
-0.8306329982001546
-1.6685653063896364
-1.0532295467200692
-1.0383291911002563
0.2772967949088645
-0.07018302584957013
-0.5171288321003545
0.6675737389129923
0.832789495368314
0.9075194079094393
0.7679682323206511
-0.6665281928532716
-1.0285625054198424
0.4743563025699201
-1.064482747404878
1.285297652539311
0.13891032292999483
-2.580919463920137
-2.263120181584503
-0.14805565974818524
0.2422612869039353
-1.6830351894695654
3.175260506491211
1.337207259022592
1.5832370946714913
1.067861821953925
0.9031878752158172
1.472983053486041
-2.0568318641281556
-0.2142138874724946
-0.6970173553297905
0.4939095317169318
-1.075060067746631
-2.270569578016613
1.1606697639474886
-0.6589072144181867
0.656560573642004
1.0434999250031278
-1.0581165197987683
0.5311071455900258
-0.7327010386415685
-0.8875658563587219
0.5817572568256921
-2.7440856001063993
1.6613194207772306
0.23725863882623552
0.8629330869956732
1.9084882580075953
-0.05150690207787385
2.070475468577742
1.0361102727456435
0.3863227797749639
1.0112796222116147
0.01972281081798046
1.3778447286895568
1.4415803535126601
2.3829467636601143
0.4692469014080595
1.064681473939874
1.6819502511347875
-0.19087336978946928
-0.21786318568770646
2.5529864425494995
-0.9420124104366374
0.3354126028557644
-0.5485530519125499
-0.9583403623166091
-0.49570334061648835
0.4065744716330873
-0.24115583354166026
1.7983233495983069
-2.0224562619235624
-0.5147915958529641
-2.1368561212436705
2.4655855365595496
0.5900106619533215
0.31474503496051776
-0.43822057135897885
1.8274574031489292
2.1510619136066795
0.8369876621806803
-0.04297368260342059
2.783903115997047
0.710539631286919
-0.32222446161202795
-0.6696877322936018
-1.4622419039249497
0.14882781991333327
-1.424598423438992
-0.3576893176085435
0.1072085369268112
-0.2549379487385796
0.3812765626326673
0.9307562695611675
-0.42474724233758754
-0.5725862816134979
-0.6860042251849554
0.5664503313091134
-0.522126146147977
-0.8874958852684812
0.18918920396246242
3.235536067651568
1.0991005847246034
-0.3144160946440443
2.0341066705204125
-0.5906193310454487
1.8415985939936583
0.9407541532769205
-0.30997274069598724
-0.9940272710081717
2.3990980554332464
0.5842929194075516
0.40320971312512466
-0.2736859166315806
-0.22206360550052606
3.0072097244158393
2.942413027092321
3.3879393057400917
2.161561514426683
1.4781986426605325
0.2454909373097922
-1.2215766291234313
1.5796546101733095
0.4083575828400457
-0.9978813028880353
-0.1679547362463264
-1.0493714095023934
-0.8258522248553726
1.0593311977677446
-0.5992645808809345
-1.1824265910818477
1.6166851680868906
0.7543316754095633
0.5944054178219641
0.4133275719649151
1.1304095638806368
0.8743232755701497
-0.8744211674088377
2.347156071480365
0.8923343393038602
-0.6866839302936082
-1.3489013087451214
0.08220143196676262
-0.4798323093292137
0.7352314129576791
-0.7347015681787963
-0.42098809920024777
-1.2470589614494307
1.4306497385160446
-0.21890830964912295
-1.5034742485180743
-0.9754707303758696
0.2905418354387232
-0.6460174823126452
-0.27693504276746717
-1.4142919773271598
-1.7257784328388532
-1.1353088909102818
0.37700696980587023
0.18929980682784633
0.20266374255785466
1.219404938347154
-1.3040089638664532
-1.0562769762852562
-0.5316266197335618
0.8083177455448092
-0.7588957098154109
1.7033275225787146
-1.709704343490966
-1.685239216395932
0.6666873948062382
-0.29101801573520086
0.7753771272310692
2.8027365351574534
2.1716582159738946
1.9598033965715982
0.03676721107355589
-0.41047213238760033
0.24005644252101982
-0.6934601592135664
-0.6970181192468875
-0.4014957158850233
-1.4536136904524983
-0.021544181582472108
-0.32893014906088835
1.1304947885171202
0.7359922010902884
0.23724083150734285
-0.4088351515262811
1.1275119318223488
0.08863553866073721
-2.396857782087621
-0.9023398400734922
0.8076815592069438
-1.1750482757727998
-1.988808528488661
1.1265423994066568
-1.0248527439254864
0.4795211703443443
-0.5141460755406569
0.9862804241233408
0.0993715857132752
1.4356525964534361
2.2621075589320756
-0.18763024116360558
0.1800378295144608
0.9980213602322643
1.2736946543825411
0.1458270287753588
1.0762285641139302
-2.142436047225799
-0.3943417509346795
-0.4616960402088698
-1.7317772920936958
-0.24540562802970106
0.6064810008986623
0.1294446237677123
-0.8681662949454894
-0.07597605593441543
-1.166552435990355
-1.2174138091473286
-1.4695863691390965
0.08736182049368738
-0.03415988632026419
0.9019670231406818
-2.3206892506064962
-0.8633456605362473
-0.8669409577234245
-2.15991383763087
-0.543199143011083
-1.3410226579356523
-0.6991283101200826
0.49592399246276975
0.16130211381934106
0.8411444238405981
2.640146661087129
0.18629050365164243
-0.2538773105982088
-1.1385038527953848
-1.6385195234712697
0.9217437552703556
0.2021058274212687
1.277509154819881
-1.4469156032940302
-0.6558294662099933
-0.1377645358059021
-0.46263477665612723
0.13521881801906296
-1.3379900757152812
-0.40513138161277606
-2.18413923726326
0.002833830998697683
-0.4081018657001556
-0.8659396728663014
0.4032551748046959
-1.2838555558516969
-0.9329140607434455
-0.29343809256079706
0.9396211524931254
1.475774371176697
-0.536598814190118
0.03376903506701063
-0.8642853866985919
-0.0013294491417174216
0.3112338905037199
1.145843574128005
-0.998741295825182
-0.7002109409034658
0.5643177935575536
0.5402145874848681
0.17548296304932842
-0.365427066640992
-1.0392771749345984
0.40122802836630855
-0.2815128447974441
-0.05088702026329479
-0.1638247063366712
-0.4370637912414119
-0.4707847303794539
-1.0012043636189922
1.3252395122559786
2.7833503626807614
-0.09370642077754678
-1.2684029930949663
-0.38744443273619383
0.7065418043457425
0.10550775202648953
-1.2418238724773556
-2.6369164849174958
-0.5374474868129976
-1.8390843714630374
0.7073054832972725
-1.1340337914172525
2.346359218777986
0.854520029040602
0.9104748244855646
1.1784137468956417
0.730417119465116
1.2548725199995914
-0.08732941043956521
0.07422974650303973
-1.153615202616656
-0.9011483179244562
-0.6514434098714625
0.2853199964924276
1.3892966466200463
-0.5116586611863115
0.31088634843025664
-0.7505726845062614
1.801636698968809
-0.11844035277676213
-0.07391740264820641
-1.5230581803783787
-0.07586953091714087
-1.0181573854333084
-0.07504301671760549
0.2513727959712579
-0.19999871995921678
0.39527044252225296
-0.7668353077394162
-2.5144541206444146
0.1416573233244777
2.82671290753404
-0.15276105752025176
-1.1000120524404682
0.9271703177476367
-0.4125959284132137
-1.078826485334285
0.019010870765611414
-0.15274543423386971
-0.4015407888841338
0.6228600455632699
-0.38149890759398253
-0.5325024609708
-0.8591678787654157
-0.6854703378507072
0.5436896408776618
0.1875675963434993
0.5202538187053434
0.13005691527514607
-0.8926376927689579
-1.5913298681761974
-2.4319557644979857
-0.5160325274917784
0.09762030327054133
0.3601077979526288
-0.07693201563697973
0.6260483280844529
-0.7825270801647003
-1.3964546380337464
1.0225371641608547
0.38042857152278026
-0.084235034391256
0.6982985750845031
-1.309487784029764
-0.5106411105460803
0.13572347264483367
-1.1512201309044314
0.8822496646780706
2.0948889116501865
0.9861294731749537
-0.8473652377570853
-1.3046281361215601
-1.1969181730341736
-0.08113486760616131
-0.5222783299636758
1.058688649746994
0.7569026248490568
1.1565826929514422
-0.21228908969765312
0.8002043536219806
-2.2196238089829423
-0.5641232588397482
0.0021149759003006134
0.13421749094846483
0.406184015680597
0.12508618356963638
0.5815029113642441
1.0843590093511533
1.7432316793957607
0.851802819630853
0.5143887634601926
-0.5132303228038281
0.73528589293432
-0.18596154359337574
-0.7320520981352392
-0.014995640544232781
-0.06895635394459596
0.374109233466148
-1.2866376602568848
-0.6663921132799597
0.6787362859304782
0.4232539317081835
1.1864762666021729
-0.8871311204410859
2.692276487679313
-0.12418400136284807
1.8977247649749427
-0.06873152854417834
-0.6601739326222554
-0.02440247609724354
2.585815937673264
-0.2946437813913276
0.5860983559317196
1.4616061166341723
1.6854883174538045
0.2713339164943918
0.7774782880010463
-0.13429978767761663
1.7828396519225467
2.2951726752717074
-0.6783758120720416
-2.389484580432336
-0.9640698714764195
-0.4190941673544124
-0.587082381969511
0.47934828677954366
-0.9580274352964393
0.5026494667752226
-0.20550810959972354
-0.23657083052249664
1.1940682188271505
-1.1700460550017984
0.13690625107015125
-0.2268899528907754
1.9176807308869348
1.2177557746885679
1.840299717640697
1.0499736327867317
1.6942991239595602
0.5840171875946022
0.10116060433687654
-0.9938644148681811
1.4701531269314232
0.7757622116306376
2.2570436277015746
1.428913244049414
0.04888776088300129
-1.0904238573059508
-1.2977931357978052
-1.4327894074053342
1.1994399481400415
-0.6405816546129329
0.8547309040940232
-0.06263819556684692
-0.21340535550078954
-1.1257275101155326
-0.02399786879539713
0.22278444746098128
-0.37468244641282356
-0.2954907823173806
-0.6326735407457368
0.8676579299801098
1.0312606923671566
1.1510404270220338
1.4317945768807907
0.8085245979082429
-0.5074542461839461
0.03016315652998155
-1.6748231630005381
-0.2745485685773263
-0.5880378333112488
-1.2209530479655417
-0.13518319286550332
-0.2467672121654915
-0.1173171854609703
-2.4819003674038935
-1.2286675490639969
-2.3971306356053965
0.8358647655185882
-2.764229756825808
0.023175002553112493
1.2423887276172485
0.9795798490325065
-1.2033390807020663
0.1247249163272021
0.6136953827998171
-0.7343247436239928
-0.2667965411772014
-0.5612243794396773
-0.4147382942434606
-1.352620291473733
-0.10812498155928778
-0.3160889246405459
-1.2822945451418089
-0.1012257983896942
1.7116459930932455
-1.7640919882380164
-1.425452376196986
-3.082182246863266
-0.2923053360946085
-0.3140199962473894
-1.7321989719487718
-0.8367941324768697
-1.0736470686011295
0.7941436502030452
-0.6437972638791762
0.10051838234354081
-0.5915618986250731
-0.5801705842470746
0.47071332190376713
-1.3962409968055642
-1.1479653294994427
-0.027768140478300264
0.006870318113732884
-1.5108122035845113
0.08034922315783483
0.24918091749345883
-0.9365121324303954
1.2950218365986075
-1.358283122693866
0.6779585113551464
-1.512085403546881
-0.21656821063722984
0.10273173390850963
-0.8016643435249575
-0.4759157824954817
0.17926383408820815
0.6196072567446994
-0.3094090757769768
-0.22376413797126113
-1.0560804705291207
2.7444738199736034
-0.19192211782388416
-0.09051888295598738
-0.11880881403526108
-1.4705505437835478
-1.1485593030294308
-2.281621490988683
-1.0397879551461597
-0.8860788823048604
0.6137275225997363
-0.05676412009381045
1.4879531372808825
1.9193125681870897
-1.6242708701823008
-1.4342810231789767
-0.3622684468382525
-0.35582232154935195
2.161773817994651
-1.2024821760711013
-0.8394879977011832
1.577956389011969
-0.6622087296578603
1.1290338596296976
0.08821151564030434
-0.6149107000366779
0.698985834504087
-0.4013574673553512
0.03754589607623375
0.6408807139125148
0.9191280764934862
1.4638918866725021
0.19262408319979057
0.3898714534262489
-0.3975568442973953
-1.76669832017289
-0.3377539919724991
-0.7043961279251563
-0.15613652243270298
0.42043481571206687
-0.6867840565763259
-2.3889628967620222
0.4446380204513555
0.24698690506685
-1.1633553525463327
-0.9589142951292399
-0.4679405678037719
-0.9593215741943152
-0.7991522744025931
-0.7400705206675066
-1.1890215677782825
-1.313767488955463
-0.14937173749514
-0.31398336392659487
0.4010148297874704
-1.0227344979131194
0.6017720344404885
0.5097850676979341
0.43555486868699694
-0.41495527090847933
0.7541402954709386
0.4719018307911286
-0.5954845440965139
0.4038408585055413
-0.37272139962772766
0.6678473393094289
0.5604494203580186
-0.11317645150695299
0.09995914761941271
-1.12887754367348
-1.2558847849254646
-0.28297021891718654
1.937600239628635
-0.7662976693959404
-0.8244085204252128
-0.3860694360525334
0.620933476939386
1.2558999184785642
-0.27874001269807447
0.22106739790204094
-0.3134330076040688
0.16440406852942202
-0.6606116845438236
-1.4877749331666705
-1.5373025668917153
-1.7653021564779903
0.44345049540188475
0.6506000954812773
-0.09461675635171848
-0.5953183725704344
0.4791969544808864
1.5696432906540947
2.1326547383835757
-0.14711392570355353
0.11768249757821739
0.1258679010807876
-2.247369499794559
-0.8892553980205163
-0.47632766269909077
-0.48139568849643366
-1.2015898181384488
-2.167221795317418
0.3844549521522994
0.9014398028157254
-0.8741634907546595
0.7023960808947013
-0.4311174107980701
1.675271791420231
1.6711227525441656
1.1433949305890616
-0.5245235344576082
1.6505702782031972
-0.10677925419798717
-0.6502719136970853
1.148037950338579
0.0662637851936724
-1.5663196467799332
0.509183391614077
0.47205704677625804
-0.8725343303106445
1.7348298423837962
-1.0019119191810792
-0.02924358647839024
-0.7448743490017758
-0.9231544875511196
1.7344163598155156
-0.34988774772353926
-1.1491382812373017
-1.0760781802453745
2.029677358307271
1.5055550404045484
2.07636360148722
0.7440329427138136
1.1200528880338672
0.5653890597020509
1.3523922877170538
-1.0532561967448746
1.2072200199761935
0.743729704614835
2.17761659171828
0.04034859731666128
0.016944593897920152
0.9388211300580931
1.8914442012823478
0.23347487746695533
0.8695239976191169
-0.06544337739583465
0.646342962821511
0.6453713060786568
-0.2955881107754155
0.26574001098524397
0.12797510588311795
0.7391829117350034
-0.20171769887230645
-0.39791511428526394
0.25575048780178444
0.4649688734466412
-0.06481593856638729
-0.39093300574518663
-1.761147063740807
1.6881494181050454
-0.5119174561047549
-0.13722441201323843
-0.1219328381024943
-2.1081828995902017
-2.096915440449597
0.21239719485023065
0.29689986092061166
1.1593920072972492
-0.10938053841471083
1.0321463833604487
1.660914973133806
0.4415910360805218
0.5061178013619261
2.152198854076501
1.00250970151101
-0.9784180547563899
0.06928014208520973
-0.8233689452645407
1.3702890171605355
-0.507415746343508
-0.17415111364383526
-0.07503902851394581
1.0407922148616489
-0.5528909645035675
2.2573041868823265
-1.02147958473893
-2.84290698335334
0.17451998314742656
1.0243663498663684
1.1481960811483973
-0.25990585694830376
1.1466460291321288
0.6591608106310703
0.5176907960345121
-0.3381708975965623
-0.1007952923810791
-3.7117941844347455
-0.6059483809625583
-1.7407538263263007
0.2532531492541914
-0.2275645401192488
0.44306273663674617
2.58127839206661
-0.12976470144885408
2.9842826696192604
-0.3558548046464721
-0.9869358951502148
-0.22786652620910147
-0.7515479910825017
-0.06194037332883638
-0.41857396181692935
0.2327368318236282
1.1058154790791908
-2.362176780877738
-0.16687222221965597
0.055649939691824725
-0.5065375008716463
-0.25523809026827404
0.5369613491235644
0.2882679427478315
1.0490185121140863
-1.1825965265254894
1.830025047429185
-1.0231651393870844
-1.1034466076595304
-0.32844737275691005
-0.2009498954298075
-0.737833072109147
-1.8555702757560664
0.5980909449402663
0.33284565945908806
0.39967837903047193
0.1656823291782059
-0.39904306758248725
0.10285884622133701
-0.6508228213192536
0.12317917147190313
-1.407211845550826
0.7496964146074758
-0.24412817116046748
-0.7276492253058741
1.3660893114294894
-0.5158975905119972
1.0238606678924853
0.7139347821369034
-0.09074955779068641
-0.020226237030636956
0.3135925366148521
0.014397330889615848
-0.7863498521625573
2.157344220686047
0.6682778113430693
-1.1954553217549946
-1.955034488128511
-1.2278844193168346
-1.9685127145238588
0.5494877806714311
1.726367668143205
-1.258500881046484
-2.215517734301078
-0.8768445688847312
0.018387216059668813
-1.313935332722199
-1.3260460864478139
0.3387728531059516
-1.673821385669328
0.11094622485480755
0.3169738907367689
0.2789692733491153
-1.0495217347621184
0.13152644754726833
-0.39534003739410617
0.989425689128707
0.3561713401494256
0.7276833524513358
0.8355331195738651
0.3878787334027172
-0.2569782487114442
-0.4854622845540474
1.653204440671537
-1.0257798634091886
-0.14334189741666137
-0.9260680927976779
0.18064002216101002
-0.216714464471461
-0.10906170079950896
-0.5863319910866194
-0.1714026688448817
-0.14803692522520062
-1.150475486166577
-1.0154699582811966
-0.706808837396215
-1.3899406004057913
-0.3610420566887698
0.212356000309159
-0.923085195489198
-1.783701178562505
-0.2283353793971511
0.18365052170872845
-1.5648707679794311
-2.4089439062104447
1.5986531666153276
-0.12429429886739693
0.8635741883160479
-2.494497396386993
0.03462780750998494
-1.612506898047121
1.2167405599127874
-1.6339673356899074
0.9992846429616071
-0.9373412903778264
-1.4379800198512342
-0.07662342586051019
-0.862681441997561
1.7234563893280763
0.9834795779176252
-0.2496719979158811
0.013647118008933775
1.45763449822695
0.6844821453000464
1.0183101884200723
-0.8190969791388267
-2.207521679099777
1.239478682938554
-0.9490024772301261
-0.8226257294007533
-0.4077839769887805
-0.6424786655263375
-0.23444638129180917
1.5882787539994974
0.8501535540098446
0.9877282385604491
0.12247340040784598
0.12654415262092103
-0.1368273053749416
-0.7187757186652031
1.2935613857683745
-0.47355718658666096
1.5507294604014576
-0.9024769697809042
2.3657614043576607
1.7724585132871173
-0.28921138937861773
1.044420816457645
3.3531259382723624
1.104642960953284
0.4067656470477905
0.0617846363910074
0.9495160226806909
0.1732239209931229
0.09272656130598922
-0.9642584999148479
-0.24613009317100945
-1.0005736388938158
-0.7991094056405259
-0.2868388132084723
-0.6465230652787709
1.663439886896442
-0.025183259749852305
-0.8511844747236487
-0.5547560524384936
-1.5223472763268822
1.4696759468732452
0.1444458850012404
1.035287454116196
1.9367978152994165
1.2767607708476356
0.5244414514310428
-0.8213521047147241
-1.6252069397830964
0.3595528148501801
1.4413718352204763
0.24893986398742063
0.535238835296254
1.0200048402111117
0.3711360502690659
-0.9800041820131248
0.12597505058984065
-1.2989750638915583
-1.5198161691771626
-1.5578065631204434
-0.4705166589088437
-0.738201009418743
0.5365923465288566
-0.2625404241307524
1.21760896497481
0.4109550229510024
1.15850459825843
0.6983761676198647
-0.19939912576590488
-1.8142063860382278
1.1443356348564615
-1.8537369452369121
1.2287827251316201
0.4507543505968916
0.7820789302232489
0.4373801180466054
-0.804038793055631
-0.8849396944783087
-0.7020410968157528
-1.3971543528919979
1.6012027604356984
1.0747097043902343
1.8354939921776996
-0.06836262628642668
0.13737417042869457
0.017950064832278827
-1.3033873527472206
-1.0734044895793275
-1.0711305445337607
0.2545150055972277
-1.2643354392142192
0.3010769415528955
1.5366948106681486
-0.40982304071360065
1.605091818822705
0.10091886957730761
-0.04448570961150875
-0.9970523518591045
-1.0250662000569835
1.4736792742616998
0.8288065801579432
-1.0410923102880614
-0.9230463466805205
0.19982993521315998
-0.9087315578408637
0.18849534546185717
0.13419645302688435
1.0006327099090122
1.1235792337241042
-2.1934954139778493
0.3969536994315513
0.8613060622752922
-0.0031384796882797353
-0.31287485408641774
-1.5293814546532318
0.020921097052178008
-0.8474107389218908
-0.044293545361716376
-2.1842630619498465E-4
0.5276767067810967
0.36098234976728916
1.4060676003356927
-0.6475261341330408
1.1389075469260352
-1.8917550581556601
0.7577169137214593
0.7992328015791775
-0.2162707558063677
0.8589398964145817
-0.07630302115244283
1.0421327549651218
-0.25470732533375773
-1.1668564307544012
1.2434987716335046
-1.6444781640178514
-2.644341677161197
-2.4826737146405997
-0.35610389985066876
-2.3717599046726483
-1.2178642650663705
0.4241678651094206
0.06530067926434008
0.5130816687734381
0.8113941405860351
1.0013343460286201
1.8498121023919882
-0.8032751119472958
-0.5264107334619964
0.03522731455671493
-0.5250109953230075
0.16979855553552314
-1.8302998480886274
1.3203303394754613
-0.26758601901007195
-0.053705806766191515
0.6023842652843716
0.002729680484997213
-1.0316695258120978
2.018136778590495
-0.18758924238227687
-0.3755018513014981
-1.2433092430416883
-2.517212817202818
-2.416509276740841
-2.0970476238735283
-0.21858245157090656
-1.0335090684429276
-0.9684254879451879
1.0083225052129354
0.9301238957555729
-1.8108405794719973
-1.866132862898088
0.2806964373147248
2.125872993931422
0.9252845973632571
0.029664152593894447
0.8944971247320663
0.5558810230878128
-0.9596778812881513
0.17066807500127418
0.6503702004494939
-0.10779568983166724
0.7313304629818919
1.7304533396897543
-1.878505356967148
0.8251369454337885
0.8301389553612244
-0.11546326788467737
0.3490811965010809
-0.7804023496109113
-0.5291119493870894
-1.6880157916704632
-0.15448095228303074
-1.8816725374627286
7.390374017733881E-5
-0.6216654234535024
0.19795004228532523
-1.660504623313627
-0.5280896741073928
0.50788470310996
2.557542630655936
1.9106617268776256
1.1415672572632583
2.0806889102869306
1.2503413138552877
1.102674678388373
0.14024954332438822
-0.029781991185100706
1.4577145257584652
-0.5208876982839671
0.26761686054009487
2.4243054201511804
-0.114282076849862
-1.022630407206567
0.05932011645749651
-0.2293753209037723
0.8849086680374605
-0.6692968892918564
-0.6111097022135564
-1.1246877253151897
0.6593829690386133
0.5834965419058707
-2.331677740677699
-0.6336760358384963
-0.6707655312373947
-0.13735872812651712
-0.511189437387986
-0.023751464148739458
0.8414206153460541
-0.08075825790674791
1.0078399642366593
1.4461392833556455
-0.10628715601286147
-2.2259784819200235
-0.21070749570006947
-1.0636083167364907
-0.35644602056287067
-0.7976924738434547
1.4452094518162746
0.49417205654684476
0.9592879241077629
1.0178705616759434
-0.4740468739981064
0.024188580929250712
0.5387350945612153
-0.27083287305766185
-0.4246022708149914
-0.42098363842243514
-1.0997871690760792
-0.47906480423788683
1.6291627416797971
-1.6402167045634122
0.38652322129713046
-1.0142359373078946
0.2941167050995744
-0.5827829868491515
-1.7642579222208503
-2.119394440216024
-0.6631288793909843
0.9720618490326743
0.27984703075042267
1.0202240751241338
-1.2091572120991976
-0.6373803456270788
0.255755273356389
-0.8244171393293034
-0.8510110322659313
0.6990057777402893
-0.2547897621715133
-1.0185061430083118
-0.30340419637457594
-0.5049916554061472
1.161018589576806
0.0863877774477695
1.575179262913459
-1.705978015125112
0.03435401055993883
0.6839586644193527
-0.5239294517374646
0.6319002974060693
2.1278597256856093
0.9625957611146644
0.8998027484489642
0.8011623694556318
-0.727260366625471
-1.004489907165625
0.08580531707619148
0.5993738617088074
0.2040708068916722
0.7900834619885245
0.7950213942567274
0.18856151836541907
0.2896288649226892
-0.6211857321044554
-0.7015347006922666
0.015698426845842443
-0.39757607565011616
-1.2291689692602468
-0.47134749690092115
-2.035048241496065
-0.31646601225606286
-0.21105470205470817
0.45429655951492864
0.40006107026422394
-0.042598119146376186
1.3694948348652738
-1.5042588599877171
-1.9288964910231425
0.511868107517747
1.2019128123962701
1.462060548988536
-1.0260722002174187
1.0346977728823488
0.4079427604430352
-0.3503501933535658
-1.1409731317751075
0.7557229914547012
-0.27499125770334876
2.3191486923163542
-0.1838698488970309
-0.3205370768882958
-0.6845507531775509
-0.9192342668641474
0.9011946492948918
1.440063466946225
-0.07409916608499581
0.11327997410768953
-0.45828288050850396
0.8649505085662937
-0.0957747008496386
-1.9934462453020807
2.1145500024684836
-1.5792466042064794
-1.0410780914563706
-0.5362729474766611
0.2934398267648453
-0.4712528286407853
1.0450116626488828
0.12621345494887465
1.4698676757763625
2.5394623586476164
0.8879051381634516
0.040079709297737985
0.7953273031209189
-0.43216294191469456
0.7204377602992128
-0.39906712378700243
-0.5596397422590511
-1.4856343704842245
-0.6592691138259508
-0.5086056882066583
-0.8846485367883894
-1.3280344598300042
-0.5399574576607415
-1.89237217411613
1.7084948570124476
2.976219559128801
-1.567107438820516
-0.9772112644884877
-1.3710890514410068
-1.1392428937893622
-0.34006399184060493
1.685509989844716
-1.4927557259460866
-0.5224142679502484
-1.1869088485202515
-0.9366827791702435
0.9063297358837257
1.8079894560780612
0.04766204004420029
1.134236436402169
1.0451826965096058
-0.05559496550064292
0.5155899655651158
-1.4979977516039422
-1.3312364545229018
-0.8863101151048524
-1.6701723298217075
-1.7147922152971544
0.5802965904563115
-0.6483422485934865
-1.04252435035122
1.0388750704813305
1.2016748917555071
-1.8907634965397304
0.32822315912133626
0.05599955677898418
1.118084785654573
0.058047798197885754
1.400752894316719
-0.6147672324444187
0.42884953793103614
-0.6521471950761684
-0.352106698229234
0.9991246196806914
0.31980629218199697
-1.9003100337942858
1.5450529835450892
0.9213115840114874
-0.6761769933492008
-1.7585173385268746
2.4270892381351126
0.3811872895819608
-0.3749688839450049
-0.564599629382293
0.04757950494649523
-0.6784408092965143
0.7584258346269973
-0.42247677241936643
-0.6504294901764176
-0.7242291808217807
1.2133224065211206
1.6375697417260588
-0.7151676323709241
0.7390621757899632
0.2551027131266232
-0.16188888205874208
0.793408273391086
-0.13511361429418428
0.2275275288896294
-0.6518092746823178
0.9399433069116476
-1.6926971043750463
1.981848556750141
-0.49986648730130234
1.7361040347496097
-0.9733963746363812
-0.9013294205998268
-0.7357429610045777
0.46010754556806904
-0.9513701638462702
0.045287436716039416
0.12365458371282523
-1.8402329804450133
-0.428505258752851
0.11512964539172699
0.2008709992520791
0.7068293302122999
2.053710060464629
-0.675310955540972
-0.2543100007181294
0.8541034975815903
-2.004480454822038
-0.49117515734733624
-0.9448618340532383
-0.7193799271151046
-0.23696352520122388
-0.2546336184192191
1.2742282225992847
0.24081791100573027
0.6480939510836718
-0.1992593984992774
1.3844395550132944
-0.8710615867727083
-1.3579430498329317
-0.3336142495532032
1.932946900261147
0.5630236074658452
-1.5022769274050702
0.045548029428431995
0.9445451558504844
0.60772735451778
-0.6200022960426621
-0.22623440332560968
-0.9340779084345076
-0.10209651472589981
0.05271373870977447
-0.4838012506215499
-1.2216314632171938
-0.6587855979521068
1.3288079941929696
0.5841897504329295
-1.4852152436726191
-0.6941116973955329
-1.1391057152150736
0.3690890091677016
2.41460019773254
0.417716823022075
-0.2886259045419552
0.36150542907857475
1.1284011319182201
1.9179393913103053
2.136517482827941
1.6472047382308692
2.310855471651821
0.5918618326933643
-0.98228934138781
0.2054109030572809
1.6533773332735069
-1.4911552546854703
-0.545338352472987
-0.36428869504430283
0.5133325058117812
-0.8635938628924158
1.349633861806875
1.9788585957214797
-0.019697380852208776
0.2000644681792447
-1.8205611295510153
-0.2979311558238681
0.5382458814657874
-0.13209460020120095
-1.3270925352532874
0.417636772048812
1.2012327004350452
-0.6963074329133904
0.8660511087078556
0.10477185963432306
-0.46894845549571623
-0.4075342712361533
0.2513521023416812
-0.7404549592620231
-0.7114906265359864
-1.4530802106931626
0.3492285548789124
1.3039477372931059
0.09558589771448338
-0.5530832382346446
-0.6935675527890287
1.988435228150854
-0.38348886457661907
-0.21630761138500304
0.4031589745391061
-0.10619428514104733
0.2668513322980855
-0.247566504350654
1.740628864679394
-0.03794148554291412
-0.39126496572833314
-0.4358213048398759
0.5073520607527561
-1.194132396322697
-0.45368253160404703
-0.9129389479838073
-2.3842283693643678
-0.45321065547461603
-0.38371622914499626
-0.9174405429880652
-2.5419186251612844
-0.03616592517711363
-1.6208637056901825
0.22893083966625968
-1.4445975747875226
-0.21405293897870045
2.0059883165602375
1.3026198050538025
0.9535515509400192
-0.5235405279041863
-1.5876292375117507
0.014469991020282985
0.6205158629442848
-0.022488011104678636
0.3313106368973794
-0.04997584078927536
-0.505244298925185
-1.9142278964762431
-2.2329049610132863
0.7184098220551711
-0.17487220194183103
-0.26983599885654685
-1.5406242017411456
0.2319064598753924
-1.9399811321451488
-0.1479221576883802
0.6660603214861391
0.9139852897681211
0.0381358932445878
-1.130770155044176
0.2690139363384346
-1.0196242965548745
-1.5502576952083167
-0.28301094114673964
-0.6854697266256503
1.3253807097260981
-1.2025516857855623
0.3015534545566331
0.5559842816117534
0.1809378728643776
-0.904152236840239
-0.43733159632356466
0.2836257036389665
-0.17024879287793274
0.2964331202363015
0.8574070696198222
-0.22105269748557502
-1.5046621626210424
0.12716376720618935
-1.6502105452642122
0.6238040274084515
1.0589185145848916
-0.9967590359964356
-0.12875993740457287
0.0895730593773047
-0.25727308735584153
0.5730207574594468
-0.09650138417637824
0.4442778236339915
1.1588735358937845
1.5982899228631904
-1.7610431734848069
-1.2227769353938842
-1.3864585838541166
1.2045193691908003
-0.46038278194733256
0.8726793832754852
0.20811326814465778
-0.9300934272851668
-1.547349671683761
0.16876992963805051
0.08745273451531094
-1.753602647496999
-1.658024705501121
1.3223254674544869
-1.0067429303344817
0.4763574682796914
0.8078618522797707
0.07565966735824464
-0.7183032128553524
-0.7175438137112813
0.15277790611539707
0.33919414207898746
-1.4282935047048426
-1.9436859157695536
0.8084891319787144
0.14450542746168868
-1.6414336763828585
-0.8384299357195742
-1.2012289522193027
-0.3497219030689214
0.06753446838291348
-0.5216627242620122
-0.8675289671474649
-1.3169820763444564
-0.5369993568123868
-0.8279305137712671
-1.846975281349538
-0.23682359768841343
-0.8153211334225728
-1.2168185180701658
1.3441844678506858
-0.41404755041919233
-0.664109536740844
-0.17322267654049428
-1.0289986692493442
0.5620944622353283
1.0519953538776117
-3.221126018616121
0.2420961054746699
-2.1415005545132066
1.2999639546275217
0.5881057014520086
-0.6502373270360899
0.29443629017609063
-0.3137149692050441
-1.229198107763049
-0.7575454160184517
0.012166127225900488
-1.8607883311562627
-0.5528827138438595
1.0144724653598223
-2.676853987443564
-0.33210897051159344
-2.730010268179302
-0.6231841659843244
-2.0735099647206083
-0.568497725421509
-0.19172292659451362
-0.9589455552701941
-0.7972630239460684
-2.7360355998128147
-0.7256057520682864
-2.1238040200587496
-1.2212802817278527
-1.54509382394012
-1.2869467669517014
0.8664432920781744
-1.1262610664264858
2.01278574595545
-0.09727781371906413
0.5088018743830122
-0.24272964859386406
-1.7850672080707228
2.0127565510325502
-0.5659617170035888
-0.17946944718259833
-0.3908972855602637
-0.7283481570646658
-0.7225530313582565
-0.22932743031515987
-2.1085066667508965
-1.610876396740299
-0.3184723758736621
-0.4418920568056345
-0.5052913036312865
1.486979446263134
-1.2154653543213332
-0.40632076494980635
-0.2749947851767468
0.2129517220193949
0.8135147422771045
0.08954737767380073
1.4044671969024567
-0.16768104229744965
-0.4881296531744185
-0.764103550915245
1.27722012865031
-0.09939499972564092
-0.7511527521058645
-1.4441742823347952
-0.47608150836758517
-0.30677797470742113
-0.5027807739187509
0.2931829424975975
-0.8643255376889889
-1.1685574602655302
1.635515918415463
-0.8683668808380308
3.3516268710730683
-0.33635417082695185
1.0103107707670413
1.4989355685792873
-0.9430100849274651
1.4926811993443567
0.2707617781773034
-2.284820826308653
-1.2979697589023342
0.3055462912830625
-1.2186061836930329
0.5643066003675482
-0.7589857982933528
-0.9727078020161252
0.8724320659005201
0.017489758337800216
-0.44098501696591574
-0.022165944687468672
-0.352581055123597
1.3163155765905372
-0.25881208011704
1.036439279581088
-1.6576476700795775
-1.6651103877541946
2.516913730070479
-0.08347261078363306
-0.3488465960822391
1.0010461263172068
-0.38815864030837355
0.9746001241106375
1.7936373756591522
2.0535988996675014
3.2169554272181227
3.9406248695215766
0.88797117791219
1.6494427035925372
0.2685558397239375
0.23757825502567617
-0.8655506091093323
-2.5160484212210834
-0.44435241299519607
0.7336733039460309
2.236853000280397
-1.0662032763949374
0.5186838745396888
0.5822705295314305
-0.13228530801222008
-1.3805941347308257
0.07416923731127324
-0.629187165829595
0.5015870612411711
-2.1653160002018152
0.4674809043476244
-0.1487291205196095
-0.3498523134937718
0.6389204040643588
0.7046397309416035
0.8002377269568305
3.041945234539712
2.2729591154092414
1.6982704224520415
1.3955151610204783
1.1601573561069807
2.2454949410729608
2.1587714372836095
1.617259258840106
1.3158550076854676
1.2898752542354093
1.729679027607419
0.04747046524368628
-0.08194159860963947
1.0281086787439564
-0.34804989902810995
-0.41963919706021363
0.3734423010657689
-2.284967854535741
-0.8314769569540374
-0.43042542800455946
0.5935433276060069
-0.11022952420273742
1.5010065513340647
-1.4027595557817951
-0.03643085425053606
2.7517311518287064
0.6822528083788691
1.2883450655236655
1.719489812633299
1.182468358527412
1.5866878506009223
0.3258198358752301
1.7517820839949592
1.7143915545458535
1.1651473583774477
2.613627169047838
1.283826507299636
1.288604120484495
-0.8093486059744491
1.803859580513335
1.5926287111052104
0.21968540282803806
-0.9227245614101285
-0.28240848060733853
1.427305469768309
0.2932181504511394
-0.7741474905709684
-1.5375577701229164
-0.7363417031594213
-1.7240545924845163
-0.7653408576196572
2.191381160984368
3.577889113347413
1.5594602744329846
2.7591773478304655
1.745545068396685
1.6212814349252016
0.49780857761211816
1.449570893658773
1.372497057312232
-0.21531240151524855
-1.3511300654153962
-1.4624666581571042
0.47339724506579706
0.8886292508417609
0.9397448233264667
1.28075349768188
0.3991607504018626
-0.9789306008287916
1.6948723993369725
1.1616521861437528
-0.874223987737041
0.5899676082574582
2.2110624796182896
0.6635830560862503
-0.554862112930343
-2.266672241221264
-0.2746021697115424
-0.6424772622317503
-0.19713933344224221
0.0397684916178029
1.518196878629861
2.8457673129530336
1.5414392824602101
-1.4849007192753076
-0.644996658273771
1.1426209592758745
0.6297204074996581
0.12358140384851853
2.3770570526720247
-0.2683579476398462
-1.2254157178785023
0.22954574428391147
1.4656302800014225
0.6191566677122162
1.6616222320092187
2.617528130629365
-0.23449733973502893
-0.7818563039199363
-0.4821562464731219
0.7888474720647984
-0.6612251665820902
-0.35314592955698665
0.3622758490100967
-0.02660024765626426
0.24269669607892777
2.114395875019762
-0.5930591832404333
-0.9170363613221044
0.8207312085506291
-1.0926300389743226
1.3853390029871857
-1.5111282588409471
0.5384053919637647
1.4472554221446923
0.9926490457278682
1.4306141864818676
2.2654068757436177
2.0566479359557954
-0.6305228201150056
-0.3882896482024909
1.699392689316317
-1.3921305370702715
0.5704846311020637
0.1945438488796502
1.724988971800055
0.6840605216276568
0.8621971996953018
-0.4334217173752254
-0.5583798787943024
-0.2808448953753731
-0.32483818132940745
0.1501641420318132
-0.13406547742015862
-0.24156023580101363
1.1695925523098005
-0.32166549937849626
-0.613445058722492
-1.842548730899209
0.42354510559741976
2.746607404660752
-0.9152667022026044
-1.5065174284929503
1.8758569926288635
-1.0384411805715072
0.012977797796200547
-0.019798473718005978
0.21835332681087674
0.2912363589849452
-0.0267264805316825
0.6348257215173011
-0.3682767239127286
-1.6205815211718262
-1.5399574438913137
1.5632982559199904
0.11346412840375171
0.09891786354530564
-0.7920240817323212
-1.2699113369910824
-1.12601841673458
-0.32064328833073674
-0.13464340258155633
1.8115360892407442
-1.1926353872312203
-2.716351043524177
0.22656775673697288
-0.4282398035850693
-1.3838148836650872
-1.1269685597320351
-1.3937046678728833
-2.0105253030830346
-0.7711555585976139
-1.73461718878307
0.0014234333848373315
-1.5249096531910844
-1.321690100118991
-0.9109190196082758
-1.1939879548783197
-0.557460732456271
0.010241028480837824
-1.8674549176443844
0.10785374513928243
1.5767211028433723
0.7859323783494149
1.2216375536197512
-0.06359263594660781
0.5943885471586972
-0.04458046711634546
0.1294394787633381
-1.2898434731559807
-0.5280602727113218
-0.5762122958252873
0.2391594315536921
-0.1339588746472421
-1.1210471944704425
-0.03598500024863463
0.6075719823303646
-1.1731741534134994
0.32628672094344136
1.2602238023035988
-0.5096047312114247
-1.233460373892705
-0.46149927341520813
-0.234474226820494
-1.5232641122551822
-0.13631323290050648
-1.282549220767354
-1.324848352297685
0.6107126405545668
-2.0636587409051774
0.6215375580456509
1.133302949719686
-0.31712085360438347
-0.3090808240498691
-0.09274942810414276
-0.44450861060513813
-1.8817019261816468
-1.670394879276874
1.224308977745798
-2.108646362702233
0.5197884409814515
-0.14537466619016895
-0.3590670987746314
-0.36608288072974404
-0.19550348430826325
0.2474628857117733
-0.29471776400153393
-1.9791326190831864
-1.417567919579368
-1.8252972482214338
-0.5493133057194124
-0.07438809740945744
-2.4113345053244015
-1.521901992844131
-0.31342400611200677
-1.933169298160718
-0.9183831175099105
-1.6033583498634436
-1.2609267041474503
0.6070771054601249
0.23467727034784153
-1.6124877666504616
-1.6298863884745554
0.6524697483212994
-1.0702665321797553
1.044451712980651
-1.7802447717195817
-0.503561213713007
0.8939961526434588
0.13862482838522353
-0.6134834050325959
-0.9124107597937252
0.3276876645861032
2.458627818712864
0.5353953283081482
-0.9403923022660632
-0.1284519371684454
0.34086946707855453
1.1874598718776581
-0.2975948360797275
-1.65494576724226
0.9676677859354993
-3.2677371987085126
-1.335203803840777
-2.053309941299767
-1.3663856269834698
1.9776540911123879
0.803262597467746
0.18729226186409015
0.30484662589072914
0.17190330504159496
-0.43606846755931944
-1.4689476335354423
-0.7452227779548726
-0.5395987269390541
-0.42198967267977855
-1.6344873862015963
2.1676379931059624
-0.6282153236544903
-0.9080926408638468
0.9541104424748863
-1.4004139042539683
-0.8752309669520174
0.16937669061047514
-2.4514757680773873
-0.08642149914559694
-1.1509831842427398
-1.8548716639649807
-0.922400148574213
0.4652002381185526
0.20054127193610466
-2.2468506467761764
-2.2397356622615634
-3.29769234834781
2.376785553332339
-1.0461670522364306
0.5490958799745221
0.43322715613706275
-0.9944245055698292
-1.7723591965938863
-1.0112367537693556
-0.28554638220891954
-1.2341940084564877
0.08780739362697289
0.8797656333778073
0.5730151229700187
-0.915980977918671
-0.3928385916232484
-0.6578077529936845
-0.08710416676383417
-0.48105375210764434
0.7412670037517912
-2.544437621773785
1.3541859926836077
0.713169557236378
0.9884004663886226
0.886656118071219
-0.13066118403845517
-0.43688719911568613
1.6441713238379572
-0.6934758265158439
-2.5142820361680456
-2.3635424586859197
-0.09104749575998619
-0.05686078333056699
0.11863033585806547
-1.1049175907188329
1.3293138577450967
1.7648222666928284
0.9251118319585419
0.22569881116485138
-0.7382179082258441
-1.046552758830413
0.06084032363841356
0.2501729017018405
3.090856740333788E-4
1.0523852750134968
-0.6950815490646136
-2.004911252561993
-1.165086471916944
0.9350012017396168
-1.0032990067940768
-0.13511027007709614
-1.1188179926972304
1.039834647534681
0.3710471608794876
0.9411854711195144
-0.2525348744573155
-0.22401684136710284
-0.7978519531211128
-1.6635966461241845
-1.916849306380222
-1.3325222519167
1.6589451140070033
-0.801986243892185
1.818533767743209
1.249289340448604
0.9981870666274203
-1.048517969341143
-0.9436070941762482
-1.5779533775274333
0.5099488219682274
0.21549346882727582
-2.0016878886088905
0.05799126967651402
-1.2646254618288724
-1.6311949999802964
-1.2978014362030315
-0.9901052496810979
0.8522707813055599
-1.3230507922503065
-0.5063110513524324
0.47065906722881484
0.41862027103219307
0.2777116140833049
1.569170614611489
-1.6422512867372356
-0.41222586181614135
0.2905870129427301
1.059991875801337
0.32111346505243255
-0.1640409175117399
0.05299992207619785
-0.04508106319552603
0.9562463091959434
-1.8469249668063892
-1.055303072380544
1.5446043811771857
0.5665296023358558
-1.6843740794877269
-0.25852973854965194
-0.8753190523956755
0.5664195890534844
-0.7083177639245244
-0.34822296615398407
-0.2531371555749967
-0.9736048689720505
1.491519371229827
0.6283051472389184
-0.22737644357586423
-0.9602553800130816
-0.23223568916048362
2.020694418860068
2.1848647835350667
-0.6509765257904477
1.7330186251300101
1.4864152146395602
1.4355641930711318
1.1096639363503065
2.0496527058510106
-1.313287155366454
-0.5871376673854107
0.04800201484070448
0.43412411787342536
0.1200410305160828
-1.919351348668783
-0.2332652954401232
-0.7835777952236022
0.6479557343471667
1.6940317174958477
-0.6912589080664754
-1.8676170343735918
0.36584407977387756
-0.4397748971487567
-2.383647437321584
-0.47030376873851276
-0.45736719379315527
0.40146473020592854
0.6185611890114123
0.5862125151330636
-4.493506709254246
0.08943127752472901
2.077481732664558
0.30491626013917933
-0.24840290566591636
0.8849298776488668
1.9510209991471663
0.3339854821189911
0.6719972326130431
0.018741548635949783
1.1878045142559017
-0.9897909827819347
0.7024642212049169
0.7550033374732504
0.02487422513349524
0.14888824414054047
-1.113639786594133
-0.5558361216249977
1.004430782241622
-0.1562280131657298
-0.8024267843490176
1.1450774960077343
-0.0991045625404218
0.6129253779959549
-0.1643922813744815
-3.457273594637602
-0.12564603258480478
0.4504334312234592
0.44828328614281
-1.3464728002561668
0.35098266282854973
-0.36513753883276173
0.5403649876030384
0.18324117151475675
2.1961830382773417
0.9122046063473593
1.9170142545256106
0.05125655801793338
0.6274097153912207
0.8116616298309756
-1.2038721230783305
-0.8182948282864756
-1.8712580484460124
-0.18541431442373982
1.5434451056966076
-1.2134963591932024
-0.8897009863779574
-0.2516927137169209
-0.673743867028693
0.8421174570139096
0.9956614127807049
-0.09274064422418885
1.9156652344913383
-0.15547006475619998
1.2227346992533306
0.7799182811081096
1.0037454398838923
0.8997013798583787
0.007153840741336944
1.0435196802618
-1.1720354170398326
-0.9766594520563314
0.5724931592130552
0.0969386369899135
1.9134495787357857
0.5040978921863715
0.9146631046634354
0.4295135016806467
-2.9784755505290277
-1.193899570874143
0.4781842698338852
-0.5589160201414908
1.7078804910501848
0.8068959318750231
0.32395812832821036
-0.589144725067934
-0.04467164371615612
0.0826710778578642
-0.936399186995944
-0.044716166184110104
-1.8365715796617248
-0.691675989216642
-0.26819967566020286
0.9098347106408313
-2.0219939155725424
-0.6897670160902095
-0.6636012845048702
-1.031116172953832
-0.922638018831683
-0.14111310504516586
0.6397998899168907
0.20570147375524217
-1.3825754974122137
0.43860266770949646
0.8511792879398304
2.200173325445547
0.6480001183524877
2.578649940398054
-0.027590006575941614
0.06690099840072344
0.3730762811700956
0.5398535554748063
-0.15409531243812538
0.05121145547085694
-1.4601489891124537
0.4107350973627203
-0.31786075058330254
-1.0759899381346079
0.8715739324969365
-0.7044453015944365
0.47225430437246874
0.18127070495398717
0.2848809479942963
-0.5960361695832843
-1.2833423334167686
-0.26293039755740677
-0.6245972162806019
1.3891675809426065
-0.5658591669555812
0.25104567774315373
-0.13663793627799325
-1.2826704127861261
-0.20115203352367922
-2.587930243330373
-0.7057059160665573
-2.4295598424743865
-0.5831232738044756
-1.1153003525918086
1.8386395359675372
-2.8796805441887177
-0.44084077362449714
0.5703181321769417
0.3543467840560568
-1.1941986915804539
-1.488487746624494
-0.9172474703825297
-0.5519477191882707
0.8215765554456611
0.1748049900065018
-1.0725491344230123
0.11292305232044472
0.8323916919029097
-0.19689179616855396
0.8090914543566419
-0.2709627473486039
0.22533301608680378
-0.3963959002544831
0.018019577972781635
0.21918978388120625
0.0917622967031464
-1.9858533550869721
-0.2850623515617067
1.0850586863403284
1.4297742245149685
0.09318091988876351
2.732701958419511
-0.7307447692092255
-0.4836927980022069
0.6216377354777733
-1.112042316577
1.4036494520659792
1.5760634895698327
0.3821676084912483
1.0148799478028567
-2.315296187280257
-0.0014443221884428421
1.1317218918721328
1.0857974895230589
-0.686209034737052
-0.6024811717222758
-0.24636304641375012
-0.8970010824975865
-2.6440886004059108
-0.7801672976465432
-1.4311473149198002
0.17467673551572338
1.7446393880927735
0.0015447090691790481
0.6923408247526506
0.27929611101715546
-1.3267903532704906
0.8492117456895337
-0.1344002114409834
0.19533474101827256
2.1322004367999687
1.0095327571895887
0.7220355989977638
-0.4948694342216969
0.8882078727225089
0.4060958779586453
-2.129855677089685
-0.7447796804010159
-0.7133041806870533
-0.02968484481765346
-0.3536093728754027
-0.6242635029488857
0.06751443559914636
1.0584745534945825
0.4816426643487358
1.8185333215295914
-0.03049558689699547
0.9272956449670764
-0.500775760139937
2.102703559290296
0.8665035215608641
0.30214771275958197
1.7551227191907979
-0.03335108977048446
-0.4463742348127173
-0.48249511554315727
0.16052348662648686
1.1116896332247974
-0.0785146223233397
0.2766022145328777
-1.5841158815314809
-0.7253907946968909
1.5718355803405928
0.2638293153372158
0.5841754186287104
-1.1140998189637235
-0.12777486874728042
-0.35311782858610935
0.561259682651363
0.4270350553877381
-0.2101675976114432
-0.22400140165378968
0.5456839485433469
0.7283294480435989
1.3263507793491418
-0.24531609226976914
0.11895546027441628
0.4160507036168365
0.35215458224280727
0.11713779892259911
-0.6766831231670922
0.9636816045763588
-0.4597593373287164
-0.40901666111976154
-1.090736127946502
-1.3813649542487845
-2.245604951062131
-0.08442222263055511
0.5102873761979436
-0.34857315855992826
0.9148322721644248
-1.1294310247186767
-0.04107029475190064
-0.5385644969585937
-1.535101644080726
-0.02453148672793629
-0.5238833470906565
-0.2950558356055905
0.19744008198930507
1.0489838700973553
0.22541949143196371
0.29209895107776096
0.48112968282240454
1.4167392759521777
-1.067834512877757
0.7496378018358059
1.4232542412865747
-0.6896000799057049
0.08166929969168531
-0.21719634697145293
-2.599417493398065
-0.4762526223701534
0.8604722244867531
-2.604326989562934
0.13615714771431978
2.7260083171342004
1.0625095063441394
2.043657949814128
1.3161426491096069
1.8500355582114334
-2.0766639707328034
1.6520664429677097
0.11558102040374349
-0.3284059473537858
0.10352596663478675
1.5999455847777675
-0.5778324088987288
-1.9974461383733586
-0.4848632275192854
0.04321491228858617
-0.27296472955788975
-0.5221570324848084
0.7552869437040548
0.9740808485919328
-0.5707143166723951
-0.571609778003471
-0.34357510680590475
-1.8528227435021993
0.19466976999234686
-0.7686068464882623
0.47424151639770834
-1.5851773640666091
-1.2712387617119256
-0.6176585770684399
0.4017426658396393
-0.14807996214278527
-1.3568039783685788
-1.1651256679287818
0.5552543620645214
0.1624379200635054
-0.3159166626603925
-0.22920768664453106
-0.13091215962550118
0.7157472156251818
0.6583837827323306
0.8973630209144131
-0.1645570086724284
0.8645109092510034
-1.0251397620193987
-0.07647291337947709
-0.9017137672219648
0.9871089888069047
-0.40432740424493496
1.3767625338891762
-1.2593602295426005
-0.13054787517997316
0.6388752724166675
-1.4191170240903528
-1.7241697232503013
1.917676551557751
-0.6759110173331515
0.8710989213061608
1.0477751643842703
-0.24839385416199564
-0.6262156562723216
-1.9792268633349888
1.2594018138001306
-1.3560664077587687
-1.1565094054198568
-2.063924189073285
-1.5032907500921426
-0.07829893270065898
-0.594965611771786
-0.15649004736558628
1.1259646539859685
-0.7206511675771278
-0.6693479658483239
1.3781965694044351
-0.8294116966727916
-0.7209993855622225
-1.265801509300563
-0.17724275822175503
1.1161821211146237
-0.9386595864729513
0.44405610516075955
0.5222285038319745
-0.7034626477884611
-0.948638334710346
2.5229889894807167
-0.6032629039666921
2.6485919846106047
-0.739798924500674
-2.2820070792090283
-1.608741057553996
-1.4425401970038914
-1.6169842589201378
-1.6279205476040661
-1.2223670110342746
-0.521713648420222
-2.4586576724031515
-0.23256159426129666
0.9905131585071594
-0.7728024640907403
-2.366978478475784
-1.4191977628906678
0.3293388699757675
-0.6988786249802938
-0.7700144014486838
-0.45417484194695534
0.3773968115610226
2.441625097764814
1.459476028978599
-1.5308527456628753
-0.3764058352945813
0.1506656927792436
-0.05773953622757177
2.0675564972227334
1.1875253123460923
0.06599285744314407
-0.6635010254921162
2.0993297712584225
0.3078384473202796
0.47253210837311227
-2.882753812003019
0.13385482110703215
-0.5954258722150283
-1.2345512363947473
-0.9713591417466317
-0.21439037514547507
-0.48328387955019625
0.27903122140549247
0.3701446389582328
0.056829406773725784
-1.0777536091301805
-1.2890049345652377
0.29976479745360884
-0.6921744605728006
-1.6459503907972257
-1.4890810502615361
-0.8623028479633239
1.2865084521176557
-1.4862504584560177
-0.1073594108806741
-0.5727656743005178
0.3351649053628378
0.26466167911827515
-0.271250065202013
-0.7199780933139979
-1.0741469385469988
0.794237811214317
0.044331722364552816
0.39262440231075146
-0.48189091479056667
-0.46209356864821327
-0.1803635724159584
-0.3413431519290082
0.6898100230409675
0.9506808217072471
1.0384795371954572
-0.02967998818605694
-0.8557083085258769
-0.35338498695732184
-0.9342651911865446
-0.46841959003526196
-0.8108131127455711
-1.4556122131439193
1.6281153321347421
-0.6077058234221145
0.4299097193104409
0.42841838918576036
-0.17217139666437514
-0.7898992984507366
-0.5484799836551745
1.5160159554274415
-1.566850237018894
-1.6270869397269665
-0.23601922495105046
0.04823439762716458
1.4576424088715514
0.8656007769899812
-0.6939888945089923
1.0267482996210984
2.250210349823141
-0.4939826857732048
0.8206431497298106
-0.43084407257698454
0.7755582440573056
0.4350113539011298
0.4713274598032473
-1.0482618110568866
1.0440801578333812
1.0641930640528823
-0.08089770333377591
0.6083472905750464
-0.12098724693170876
2.153570294748972
-0.04463584821269933
-0.028445912666756383
0.8054782059571391
-0.24150792821283232
0.15574144195762654
-1.2807805331889097
-1.0086385542079803
-2.139848041442216
-0.08957041747351108
0.7605402551911575
1.1525876156437938
1.0857202444300282
-0.06421954038741497
0.28565426010929346
1.4348612716254794
1.424142938192866
-0.5909417031016273
-0.5800761270100884
0.14915103133681193
0.20472621198087906
0.3698448579037773
1.0981540081035512
0.07593814280703544
-0.22466019695109185
-0.566106489369862
0.5635682725843296
1.3946062126619339
-0.9345471917965589
-1.5558462874027827
0.009699451317645318
-0.6847548249858827
0.9159739626767608
0.3942197945203753
0.1572622864061246
0.7252748602095797
-1.144911535512539
-2.023450661294717
-2.19438159113587
-1.5128306465132912
1.098737327982379
-0.03226503243514306
1.0510400831781894
0.7408806017269559
-0.6674726647821965
-0.08641395945057434
-0.33097368428489193
0.7511712597751277
0.444570254253385
0.3074616853732054
0.28939335528322724
-0.6759854608625101
-1.789602762055851
-1.1438294963777533
-0.3445780918730346
-0.7964579526769355
-0.0421029694793039
1.2723557615131993
-0.7575745963399263
0.2566946714168988
0.8576804630541693
-0.5923147580156441
-0.47193792703759624
-0.7708781832951855
0.2517912793751152
-0.23858072333233815
0.8388868117578546
0.8530694394724867
0.014579009209372672
-0.5847801935170078
-0.40353962521759146
0.9022974208251278
4.736311933217301
1.6701856795238992
2.671745729463065
0.4872531546031892
0.7533328602053997
-0.6321785441134837
-2.0550263208300215
-0.596228197667712
-0.5283960056598145
0.36016369584302577
0.20887074287677784
-0.24463358583764008
0.2374919710057043
-1.6794788785764316
1.8623603746548203
0.5191370245172073
-0.922294066121963
-2.563319367235534
0.3014014515657689
-0.9215844884671264
0.028011331374102905
-0.175545140142529
0.520333886143344
-2.5063979618594705
-0.34783878063165563
-0.6489884442166889
1.887782157366978
0.461279674174725
1.1554610227376463
1.2094526256323141
1.8540216048133211
0.7582586787477457
-0.3326831172123772
0.1411821910733573
-0.5324842902225327
-2.4218671705546924
-2.489247865750505
-1.4471187976349973
-0.4279902228887193
0.3619342117023437
-0.16915325725957164
-1.9507408780538906
0.8815980524546037
0.959895510425399
0.23262910184686608
-0.6554553350628873
1.3010312372925643
-0.2979423903567664
-1.3722912871101642
0.9211201610248448
-0.9096580271184095
0.5845620739575171
0.37134739748296897
-0.6443449415904821
0.7608768655924779
-0.8068935657125715
2.1451314610058687
2.2225383437874173
3.613558737864145
2.3132591667842033
-1.1351920581212098
-3.196357469049121
-0.9442107205449201
0.7823805564226137
-3.101680862317832
1.9710301964691452
0.39793642547052416
1.2882775915257694
0.2597445855958249
-2.1117715593818396
-0.5361022429288671
-0.4996039175264381
-2.391839841914848
0.22029118173642392
1.2557534814522473
0.3031670984322288
1.2473771222908172
-0.374606995127129
-0.6648860053316282
-1.4683571517431158
0.8332020573057989
1.2417565600358706
1.4452758380289978
0.7365144446188957
2.4904449666361392
3.0508597813392098
5.036680748877678
2.883582759443653
-0.43358671403021465
-2.1012842982569158
-2.3590143454569774
0.3176195128619347
-2.025946158151432
-2.2599406636055726
0.07878320358258999
0.4944781799034797
0.5971727192895663
1.206276006925842
1.1135478846890803
-0.7862321192291486
-0.7190518852927674
-1.033682343920374
0.25321603666203035
-0.6387009987060592
0.8946434840807591
0.2805673291963067
0.17640176332885424
-1.548414980428546
-0.2446813251539265
0.4092230772518085
2.6966019272347803
2.3118316345315826
1.087177328159797
1.78686113527346
3.8178376853200517
1.8482225955263016
-0.5394840838859789
0.3123580476988836
-0.668977630120712
-1.5472422802427708
-0.13394662390844317
-0.39602857816114195
0.4725485742733493
1.175992224112539
-0.3777401247628444
-1.4152795748438642
-1.6264774648218254
0.46249043835799336
1.218429238289147
-0.9237272079605074
0.39705149385605654
-0.6046822177106739
-1.2442084854205189
-0.12999687559245773
-0.2249326898152983
0.1639523718131561
-0.722936199266917
0.4124062551827595
-0.9097016293433533
1.107081506507825
1.542441832854147
2.4756821958541595
-0.8217789543751391
1.5367005570265866
1.2313825245077765
0.6124527997654914
-1.5754698907635538
-2.480282451828192
-4.3310193998251866E-4
-0.8919316635479045
-0.3330070278671532
-0.3683732461382464
0.7369672070566827
-0.3518219271887638
2.494613225245806
-0.7177040767989209
-0.34203411411902884
0.005965348003266004
-0.6737763154908099
-0.18340384019655392
0.7248761473864762
-0.019876459045313807
1.9210019934555043
-0.13721717934295993
-1.1070146234937
0.8275245445779933
-1.168411669351544
-1.4231230619750834
1.3379105094945472
2.4347588596376517
1.6161799160560282
3.2142619411214626
1.288346136710832
-0.25501664537060026
0.22716314171800298
-0.24187830077813957
-0.8219036814174088
-0.9366636832019721
0.9861308493817731
-0.8435433512415139
1.4178932327685723
0.24396283204123836
0.7359114565516527
0.7063957263802543
-1.0980616544430237
1.1029361341518564
-0.4322163415747443
-0.4225456957679873
-0.20461681338165766
-1.9177467057476485
-1.3477997302466749
0.9769053320711861
-1.476462352509864
-0.24246997737664136
2.3010391287200553
-1.1770958688121769
-0.536116084205457
0.05537270258715989
-0.041032966468046106
-0.3787154390981536
-0.7034463526490847
-1.1452572941507848
-0.5249918441827055
-1.3988917212543812
-0.40029523046984694
1.8145707842466738
-0.08469879458526877
1.0354569074791666
-0.19006042136896512
0.4701850610335933
-0.44925369608807747
0.16873936044858223
1.3437500425767837
-0.3784164695141348
-0.5539491346175779
-0.654970253018523
-0.07226196082327938
-0.06530616229217007
-2.0646589868542806
0.13030356889774825
-0.3192897791904945
-0.49010435100788324
-0.3063421550041488
0.9168971538733849
-0.11547445542791954
-0.7884691559969772
-0.422382723361607
-0.5900014676814129
-1.24106919689582
-1.2154214656410325
-0.7989645907075398
-0.2559228388993891
-1.4312764592765919
-1.1007302746284355
-0.45259668824073024
-0.5007791138693509
0.6393948941202119
0.04024026524591171
-0.08987949993677039
3.323190897515862
0.6104328935493597
0.08968118439011948
0.35947945382324875
-1.9670117663470519
0.054802398476965865
1.2523050786953904
1.3867246484970992
0.4738492589661861
-1.584317024970681
-0.6492177235002556
1.0501641210659136
-1.2304475111823252
0.7434590247380309
0.04153751349172174
-0.11848382796849848
1.133009258796533
-0.36598963271055684
-0.7392770270988469
-0.9480705839926808
1.4299361391419427
-1.933994802173006
-0.17864932226408942
-0.2334130075360511
0.40947528957846746
-1.1661307353616668
0.4215753301763877
-0.30506836044491425
-0.8160850133893387
0.9519854944268529
-0.8903762667411369
0.5517796862432686
-0.3784727289229187
-0.9673189546849226
0.3288226153669064
0.17609841299711004
-1.312253183368104
-0.6071709389732505
-0.7762363216209582
-1.0358836674118428
-1.5396138647214346
-0.6453855305795331
0.8862160498357653
-2.215609626405244
0.701994265263195
-0.46938758044470213
-0.9297455877167854
-1.4818155751425488
-0.7698378682975315
0.1603490186060752
0.3076640455814942
0.4501337278012261
1.6517119977577237
0.03297378163455759
-0.7288047340705625
-1.280646679722465
0.1856484482108073
0.8683448134327288
-1.1386113507547053
-0.06224017487012883
-2.6276016450702593
0.892934220472333
-2.2638217595520125
-0.06485222812427271
-0.521679723208043
-0.03130591906544549
-1.6069021350431854
1.2301962283471046
1.8225544247762104
-1.2845801827667747
0.10567924673999426
0.1100364327450286
-1.0098394164403444
-0.347783703485065
0.7554690871517545
-3.3581775936111438
-0.9727773462471676
-1.2116920868453684
-2.9330667935410553
-1.4416041662157952
-1.0070566928356548
-1.079268626041684
0.030013041959720675
-0.10227263080957434
-0.4696619720814776
-0.4985626734185061
0.6467502088382815
-1.46119956798233
1.150680920422034
0.06680736147666384
0.27437429232916766
1.046875454693915
1.1037791884965973
0.5938847572160599
-1.066591910480648
-2.239489911741451
0.6198573798383846
-0.317253368439224
0.6597285517874031
-0.9255366592012759
0.5897109142704515
-1.6719113740645266
-1.5368409441214568
-1.300858476072055
-0.6631114730849685
-1.0436020882397736
-0.44322315249098315
-0.5848475890813872
-0.6457921746385679
-0.14431589637922532
-0.49398047145202356
-0.4921555331318028
1.5469192392714475
1.3709332049676295
-0.8574481999556423
-0.6569597578519757
-1.115315176175354
-0.5067813126731038
-0.05107020202187295
1.5680571037253253
-0.13177084657499843
-0.6284816665340096
0.24736317065186864
0.8551460930954917
0.22391113391444728
0.553549534243546
-0.3878635950663026
-0.2654746422578768
2.098537302963277
0.2678986210072338
1.3111641089582706
1.2460694450521737
-0.9449277568596699
0.5038707737389876
-1.0226774886196492
-0.7435749407065744
-0.5159542885071713
-0.9706472083618258
-1.4731750066488498
0.26019780364149553
0.5634796659751082
-1.1715144345356792
1.134097489518337
1.25329528058584
0.05887494438738759
-0.26258940528859215
-0.46874328683424576
-0.22130383067007456
1.5328826395768522
-1.1271396201507247
-0.14085801796382103
-1.6737261433041222
-0.180291909320926
-0.675274031283944
-0.3177982848777799
0.8760561922758241
0.9118521710815941
0.26713887256331886
-0.9469882110707553
1.4825649938601653
1.0482459405814666
0.6150715587478606
0.5182694712533717
0.46663924211184066
1.949433118856557
-0.49020593990191363
0.1654525322967741
-0.18805299844496973
0.5338091442082977
-1.6113854730861545
-0.3352967226482317
-0.4330081060096213
0.7914225645605057
-0.42598271454929787
1.323477264549592
-1.3725722460234868
0.13694008495487947
0.46358821793598676
1.229237852222612
2.7712447636215805
0.6277226205492112
-2.1092152103792703
-0.012308768006710566
0.0014363790533290979
-0.5433394348414868
-0.4829727266468475
-0.7190334032578589
-1.6732849939232413
0.3233915670702285
-0.17992984432401185
-1.2644674768105721
-0.25960226951942417
0.6150242699825439
1.4031295924674698
0.823237962861781
-1.118032846470407
-1.859638499155845
1.189405891527656
0.11789820920194852
-0.35745678845190676
-1.3719200360554218
-0.24630950782444558
0.15606733737609993
-0.6769411123340763
0.9183053040513358
-0.9884306437473086
0.6750599951331075
0.4425529796580672
-0.42578122575189675
-1.905868624347895
0.7744975689625073
-0.6507846683175178
0.6083831139618991
1.5377016108640698
1.036585532123692
0.6277501771173251
0.34459316787742106
-0.6997280946106457
0.781497394601028
-0.4753270186999332
0.12166252694647865
-0.3340789415439877
0.031625547454564036
1.9554198798068323
1.8235737000695902
-0.3459420393807679
1.4020326053204082
-1.7722067796954686
0.9719985994558377
0.8344139071198787
0.6634124153038562
-0.7915627386489021
0.08449632319808771
2.5570945098650317
1.0210911366324493
0.5024568331683114
-0.18803973978899297
-0.01570076811701423
-0.24436324759705516
-0.9660330504413533
1.260783099647051
-0.5176981736574453
-0.38310157165223163
-1.628489831719948
1.0205455703570117
0.9068339463410131
0.28750149346763443
1.7596666542039776
-0.43856562479563144
0.352887597531189
-1.218878384397268
-0.48537715659089603
2.2228453910434895
2.1615974730479928
0.8856295918515068
2.192857607219391
0.9099056271183144
1.7628228381169422
0.9455219748835667
1.773966782016261
0.8975163499986122
0.6090474100336318
1.95641111570565
-0.14664148221097542
0.9412480145892925
-0.3905265185904494
-0.40692899229669155
-0.47408779156479725
1.1468131637310743
0.34556981963055283
-0.8683910699140627
-0.0031409312896675512
-1.2006330226198036
-0.9767846027462707
0.19421851550969896
-0.08935299932546233
0.4411540483458423
-0.5263069089223384
2.1195366706955157
2.0065705174564226
2.0740040135794042
1.0339855243165665
-0.6370154043687957
1.7239182392102066
1.4031468924258963
-0.1499316934680845
0.1618352687297354
0.7854476832818583
-1.3482016046240628
0.5502081179844736
0.435120412931986
-2.246610888165151
0.7119154938708508
-0.5662829989797654
-0.2821161659303135
0.07675354272030652
-1.7466484336326908
0.7631289061090705
0.31855987589398166
0.28675374227470757
0.6850743788385807
0.05401691822501481
-1.8356424844623769
-0.9199489407495954
0.032262049306505225
-0.0034943259473518814
2.13386307601283
-1.600492015250052
-0.21594868029748032
-0.18256236478190957
0.7646876683496892
-0.2387950009517189
1.0407809825391363
-0.4459561909037074
-1.1482506820937017
-1.4659110789410321
-1.4309438833142976
-1.9462176811650755
-0.8681349317705118
-0.5447941796190745
-0.2785213660310742
-1.3819554880157099
-0.29372066631596644
-2.0055304319437295
-0.20684565592790186
1.3104633141863984
0.5480370971722365
0.42488107745530884
-0.3285484443270629
-0.45005737054673006
0.2202167501028168
-0.4206744833674977
0.26168043511689393
1.383144418710601
1.1012566098453107
0.6834559388310729
-0.22633874294372505
-0.37218533208856625
-1.4323082766512794
1.033600802392023
1.765394122671471
-0.45938548241539756
-1.2560624747704752
0.7201065391453174
-4.207917562339881
-1.9787044148877524
0.6094452049186293
-0.11019174172032628
-1.1848952934485095
-0.003432636503462555
0.232765855827282
-0.20490352229061254
-1.1747190416569233
1.034209888736143
-0.18016998117529576
1.3096188440970986
-1.5094724080305766
-2.3494155032097304
1.9988912890136872
0.6460283781469854
0.6347457952054968
-0.18280232509114705
0.8376104467127724
2.5876376491814765
0.45730733996012357
0.6577624689590975
2.615274834129691
0.9956917062273282
0.896824017090651
0.45284845292563164
-0.136457010258395
2.652140288845048
1.504514408169716
1.653950292434194
0.05929724248537042
0.8884357635607089
2.003308273864285
0.6449366275937064
-1.9903983027316672
0.390705928179027
-0.19832135154807745
-0.3541335796060958
-0.005533743251441924
-0.10832530666642792
-0.34080837536906833
-0.6024607050001627
-1.5183520910283697
0.18160750947382953
-0.9550847406376494
-1.4264977581941252
1.8980928668854058
2.461231014019492
0.8818025183604897
1.7925943704343699
-0.0689606939771289
0.8691636524463479
1.4480635777025335
0.08853016711720159
1.7038398947956759
0.6622142061385106
-0.6706372964852677
1.1211735924346913
3.1590477503445253
2.397543494607686
2.0721331584568596
2.475095694323771
1.6631084563392673
1.4146508774588535
-2.4778778242680017
-1.1216050739816399
0.7609185078598321
0.1857174449026715
0.5441078128756169
0.2886454457041994
1.6593290695575962
-0.6630980251121119
-0.3522933422177431
-0.7199765571887076
0.16819410520381245
0.7900355700644924
1.1917234722838137
0.09690448851743874
1.6572705964964571
0.0893007657375652
0.3890542646702462
-0.9278078712081941
-2.5620620763184365
-0.3840165350992359
-0.5522318631992279
2.435096679507499
3.762765742226995
1.7870343555636117
3.526920029514025
0.42139904520515514
0.23725878100633965
-0.3864396115914608
-1.6802949652723718
-1.7852383041046795
-1.3600499483150301
-0.616588829050347
0.13375187055144924
-0.3475738373070888
-0.004738137181184823
0.6622147200023853
1.3566169599007822
-0.0371885182970704
0.5594475326631955
-0.6181605441993608
1.9282345481294334
0.507442434915069
1.0244813083458995
-0.8807472485307729
-1.7660797184720471
0.4271637319323656
-5.088686118179278
-2.300395967723242
-1.116183686117877
-2.8462472366022062
1.4588673501339853
3.1092727134706175
1.7793406676098227
0.1734806932492111
0.12734798337379435
-0.6813671870928338
0.6345608943310161
0.7019871094375603
-1.8359972958745345
-1.0775577550238151
-1.129345867508447
-2.0762222491552325
0.24616112098147938
-0.8305446083297998
0.6534778059828232
0.4468844861623325
-0.7174768200901332
1.2772767543109604
0.06002179763529856
0.38000145569800525
-0.06645169523469283
-0.6936592816762482
-2.2219403602841417
-1.774674579705891
-2.729151978956452
-2.3335332957112285
-1.8263088226074116
-4.521123383435393
-0.6368048638397628
-1.3368672576373841
1.7149783184795089
-1.0634949120145003
-1.9247189630273973
-0.849113937940318
-2.627250344160951
0.18697774807189596
-0.632521512018057
0.9944841048836564
-0.5752845859129595
-1.8263172483339283
0.11734777531310206
2.7779803913519947
0.5048484310327017
1.9781248362900754
-0.6267637777889452
-0.7150445265550995
-1.2448906068383097
2.6927942842060095
0.7334367421154312
-0.21529154230822506
-2.2381574243939917
-0.9148649584662066
-1.8408361703595462
-2.019995373604017
-4.356481218061261
-2.9234160401748372
-2.1636368565895503
-3.5903949411832192
-0.9480296298461224
-0.8513574964225022
0.6664346067218413
-1.725884003997735
0.3740649336120946
0.40738667301598075
-0.10531035857992042
-1.4823392601692493
-0.7784975969230942
-0.4949138291324532
-0.8203938621642105
0.16054220318315146
-0.4335837858212774
-0.19944990227982926
-0.26571016016465726
-1.5456753293693168
-1.2755877228538575
0.5401283640035088
1.2319765585413687
0.355548543776919
1.4435527191563033
-3.3019246078828757
-2.9108361834117376
-2.2573774943048717
-2.546207247032687
-5.199717929362851
-3.0447051903650086
-0.7389070488981906
-2.907711025943484
-1.0837615395836233
-0.8477764267464719
-1.061847266958809
1.1583384057261426
2.238139573899929
1.212749043298242
-0.076415506312185
1.2840659292447933
-1.012837423381575
-1.1927337096646746
-0.11287178896873462
-1.2361653877250436
-1.9480397126723727
0.04455783179299408
2.5170048514817083
-0.9049137364556137
0.1493442139183689
-0.711815469479648
-0.1659372588349347
0.514567688783088
-1.4744589621408044
-2.096496638396615
-2.906255770849362
-2.67268160813214
-0.3176020281078869
-1.3265461998414845
-1.6083944775374523
-2.9323316374842396
-1.0190458140257252
-2.0061744074004144
0.3499926266289118
-0.8380764047034314
-0.4212767987629756
0.600051075296875
1.0565736551537848
0.38000830710860634
-0.11542232125428092
-1.1194091264144108
0.12878095554644753
-1.0653077592252354
0.42903146337919834
-1.6002421961558038
-0.7858080969382173
-1.1569368073333708
1.7790146665173712
0.3500712701333682
-0.06517702709965409
0.8101624162309202
-0.06533364969331579
-0.5823268213219118
-1.9031760198796301
-1.0629780719597681
-1.3357809761257866
-2.3534325366819817
-0.3953601634977903
-0.48231717197845775
0.6509816395721355
0.1478954017773724
-1.4561541574706445
1.1130790495465117
1.0952396784243876
2.25398948029201
0.34249884023370625
0.4951360857305571
-1.9767456803614643
-0.6783362567418043
-0.7002236619788111
0.11817643509689678
-0.15328016897586821
-0.8236171778179063
1.0073935847849973
-0.9360401065273396
1.1337133750796773
0.6245123170251119
0.8247483845256844
1.0476164269265422
-1.6939049130347166
0.9914345431142735
-1.6417490094151383
-1.7062049334338767
0.5145650634464244
-0.23463079138637757
0.8255557679124954
-0.22996501209900494
-1.6288759648313855
-0.9096588548068377
2.520570290234774
2.640193314823081
2.115143412815742
0.16546885004885395
-1.6552691323144926
-1.5318969821378616
-0.3734905921196545
-0.5139908954641516
-1.2064034387308347
1.5666175899737815
0.3328613431153628
-0.6529487151400789
-0.3742216834292112
-0.5505638623042006
1.7945930222538005
1.0006047239835256
1.6658259449101616
-2.2321485893680393
-0.6742142886570306
-0.1570377681922466
-0.9849607570782305
0.2964664235415157
0.2097855596184837
0.2986114474039689
-1.0284181552917462
0.6391791344618115
-1.386390509307693
-1.6013417823199148
1.6618075020847376
1.8752339529804134
-0.44419398227703216
1.5805506131137113
-1.5766431891479833
-0.2636370999880775
-1.9813996979860562
-0.6668523774007401
0.6957095642128798
1.3907478600685794
1.3494247478101296
-0.2591942840141561
0.884154450653971
1.7691355827055792
1.1129688233930601
-1.7450992444600648
2.0413633498642354
-0.08555747969783925
-0.4386432672041603
0.4318461790492281
-0.48392251653799045
1.7614553033686402
1.1101781636473984
0.18120676163987198
1.1011825790219352
0.7678544863832863
-0.837863183475801
-0.3127699169800409
1.1147743732706261
2.091133980814459
0.5992443572556169
2.374406567081234
0.4720551395473486
0.17889182705887344
0.04419816362718859
-0.8524170725741093
-0.9920921552515626
1.1591482022334543
0.5553839472150399
0.8707559931767176
1.1309745075410675
0.09287742123723976
1.0802668573753316
0.32972592049480526
-0.3252468134440604
1.6344714001719942
-1.1267268718997103
-0.6569790368836155
-0.4658942497710202
-1.096536737445405
0.4026919398927191
0.3008874463296142
0.8162735299881801
0.8688814732231209
1.0829419152757565
-0.8260281767635896
0.1239630266697923
2.4605727344174304
-0.7369824362236079
-1.124087356089478
1.0911818991739957
-0.34694622398106
-0.033662202148992654
-0.9523441959431886
1.4070177394850822
0.16768584119371482
-0.7939440062300781
-0.7973652291853954
-0.09569260469869711
0.9709261227683584
0.4844815165294975
0.25698838925874035
-0.4100593754560588
-0.5494664794665745
-0.9365150668588247
0.11274576515844655
-0.9716126346112148
0.838011103517187
1.2764505949600176
-0.5616212290606469
0.12152148005456229
1.8058077106189794
2.7894283696397215
0.002964116529368672
1.7648993019417585
0.2395849204169664
1.014738376076747
0.5090478432430867
-2.0959510830186487
0.26931763433701766
-0.07673760243071619
-0.5774155121979909
-0.36768263665445533
-2.7847501387213627
0.1686522196596291
-1.1410140522017596
-0.9742994004069144
1.0975610545874033
-0.9074774559702439
-0.8297395271671284
0.5054714599265803
2.557320507080626
-0.7598444913533517
-0.7136692265547804
-0.06570463163512537
0.07350283881139973
1.242071823469475
-0.09685896244238838
-0.3100299813507979
1.0710758991089344
1.382682172794555
0.9898078839168696
1.355236834042469
0.07606676007184539
-0.31646874928195745
1.0684993110498517
0.12866537752033855
0.20696950877580828
1.2869976996595833
-1.0067875499538785
0.3261435485988506
-2.328791076160479
-0.9864164902905052
-0.1704354468035177
1.0213097178468649
1.1622060681050121
2.3476619192430586
-0.6674997221809144
-1.7571551443400626
-1.8735989142958844
-0.32299750576569003
-0.22543505541816952
-0.2808760923154677
0.527562394314425
1.9972715993397352
-0.6827257363534147
-0.1902939063666686
1.8200216332428214
0.2543664875218452
-0.30608092169043233
0.30438004383757933
1.5534574030834603
-1.56954842246105
0.0016945987115587725
-0.017185755144623473
-0.7822416362790334
-0.8119831729777292
-0.7634915614605259
-0.8463275128757599
-2.2067555935313217
-0.5493418943528419
-2.5431414824744767
-0.034335979488356316
-0.16981838516230638
0.32766413269431344
-1.194371955700547
-0.6705073432735513
0.9754598549394118
-1.5740900577985184
1.088231517177587
0.6967818343940084
0.4681012084581026
0.6183258584599631
-0.406815930752154
1.5287438028811087
-0.2918624515690258
0.23359076961109024
0.09963070943126873
-0.7195956129990873
0.4821774323419131
-0.48900853409096134
-0.43763803181700456
-0.02593924721565446
0.8562027788283721
1.193615618982029
1.2522465459341106
0.5584862457892383
0.6795733724431577
-0.905560769185123
-0.5961628647991197
0.10520532577494743
-0.2344418560480171
-0.4961012645053267
0.09472417738157822
-0.5530396285844436
-0.2075368449025033
1.000598933262029
0.1154297844783249
0.28844725148659917
-1.9712475381305388
0.8729055466512863
0.31458625485261066
-0.3577214770936003
-1.1591454787511815
-0.6491562222546052
-1.3074811715846943
0.26390183454657723
0.5970111007103505
-0.252268988392665
1.3055653643788607
-0.16590006379623495
1.9638827522043427
1.6639538379336583
0.3942561598055663
1.4632039133133736
2.34597139630273
1.1926925466098068
1.8392171041324135
1.2451125056568122
0.3363795685794586
0.5240765551903905
-1.0141069008391168
-0.07774840939796981
1.715575185278259
-0.2465707088219524
-0.1297686082937002
0.5596856480510976
0.7307633138246616
0.5601364309488833
0.05114910972690122
-1.3489765783763792
-1.539025740419242
-0.3448502799223662
0.7108666586514216
0.09371566860171943
-0.8458355404971233
0.67613179253464
0.34371851293827177
-0.3971853720207374
0.27439979829515143
0.8712919414354388
-0.6852417881948303
0.5033780227841972
-1.5973658821342696
0.49256581071541916
0.49492664608096065
1.3688279116650184
0.7571029753332816
0.9409864017797859
0.3640932833002247
1.1832262645449962
1.8390931503137777
-1.5548906093443124
0.551335445309491
0.46422254242092004
-2.7703601601691563
-0.5669355511863128
1.3206080631323727
-0.3027379806400487
-0.29330446816849004
0.30829523227805067
-0.0882036862360957
-1.0011089753623907
1.8893656021094045
-2.0273668823808983
0.12625445439618835
-1.2740900518584921
-0.33103387653010874
1.978504719891699
-0.4017566558295621
1.1565576583749466
-1.7991625720168158
0.6433279992349517
-0.209288385350763
0.9327307475530986
-2.7025890319694565
-1.234394036948072
-0.03783459001935383
1.3484671860551443
-1.317026202978253
0.34387491120928215
0.13395476980178875
-1.059064287871111
-2.399093970104438
0.46715876365212505
1.986525100876915
-0.8911668887757715
-0.9685364600197528
-0.9846856540551429
-0.6682184971402017
0.3390096787173775
1.4064194797664473
-0.01809615101025045
0.07196329913549898
0.025306252959346562
0.6735573053849004
1.4859887689333415
-0.939080680955054
-1.5622144084457446
0.5970919140827594
-0.005818868081581926
0.927882703701313
-0.17790601219772623
0.8795495520143202
0.7784872907568505
-0.5466421731211879
0.744964897788601
-1.7002386908851823
0.09285829699221558
-1.2926624081965077
-2.343098295486115
1.64992148842337
1.2361245289732066
-0.09564721840754031
-1.1457874369084367
2.004478523923124
0.5475459270840066
1.6300599771249498
-0.4315034660731911
-1.3068173088714772
-2.0129465161074385
-0.5133908501150307
0.6007770599777356
1.302956187473242
-0.5372014690801976
0.7219205477122215
0.8164673856917827
-0.4765496146251024
-0.04941628295263597
-0.4005033671185291
-1.2765828771085823
-0.3187470887583318
-0.8704919353654089
0.45702026854193706
-1.3299667406642401
0.9154690341060173
1.6354950868770308
1.5372771000891905
0.5571195277535306
0.9075948877319101
0.739570134657014
-0.11508065065029419
-0.3058426985902284
-1.5932141871542729
-1.210346309380465
1.5918766109972318
-0.5253218962727129
0.736262552143572
-0.2672639439976669
-0.25127755180562444
0.9703774573014319
0.21772037700331953
1.510184428823811
0.5487516020030416
-0.48117227979840277
-1.375830140786663
1.6215489842185518
-0.2231352916742015
-0.9481487497147777
-0.3407411260980147
1.6198492422195314
-0.4023823162364882
-0.8414136007798204
0.2811692410332531
-1.7470128581649418
-0.03171397195716356
-1.6238697640380766
0.7043551630367753
-1.0359967493165936
1.0995904401077774
0.9473412958381111
1.4751576207146566
-0.34636197229676846
0.9085745641166032
-0.3070119166624674
0.5166382774842766
-0.4849249199890565
-1.6052205194874676
1.385127031463793
0.9915584673795798
-1.5018344350629824
0.5258280074553053
1.6874716531637692
0.36048679137419454
-0.8391366997153901
-1.2808453133149316
1.0467843995906654
-0.5527309410404517
2.4188570621182577
-1.3393032535361737
0.05038829246240393
-2.3326103490668544
-0.10112556133659166
-0.6574993991336622
0.3358734982063246
0.5744650263913761
0.699097700316575
0.313913015270384
-0.6164498397811501
-0.12648708183579405
0.9779741398308411
0.8324364893890295
0.4492353197094189
0.505441953716679
-1.062894076780146
-0.3555120468087981
0.9132858115885054
0.8082278080466372
0.20837924083249595
0.10312668190176032
1.9211277703450462
0.7019651172938373
0.42636816650051884
-0.5744723299723511
-0.527555527570814
2.124845552291015
0.7619259948613541
-2.222807652061116
-0.7293816298241659
0.8616452165877102
1.2336799274082122
-1.9972406703785472
1.5484133368324755
-0.6847197771933249
0.4976765530633489
1.473184853315998
0.37538179729037674
0.28314216762960526
-0.7401813214175038
-0.1546656873604953
2.3642816378108873
1.1697043198867574
-0.1783010617552273
-0.19876053092371582
1.2210919235836484
0.41043449176032376
-0.5001837735736562
1.0504986205847198
-0.38332218391427775
-1.8370242293857126
-1.0463016937924081
-0.7106308710648201
-0.1702962701368234
0.22536588472317942
-0.1691041028554859
-1.3734135202161513
0.3937438665297028
1.5340221842444963
1.2560717643630748
1.1733934699613788
-1.9309979754440045
0.7851049131182288
1.9188491096007636
-1.1877516339632415
-0.039580289927382606
-1.0815276130008618
0.2021579067528475
-1.126816201978762
0.19363261608424648
1.3435631088358426
0.008698948422630252
1.4130941367444265
0.3802647662852816
-0.14727912663332215
0.31352332913369524
-0.8257630642439505
-0.8588855289013806
-2.4735701320063743
1.4618779479540374
-0.7145581835474405
-0.06822204463631548
0.5496320145573603
0.7038187090503231
0.7232888963099154
1.186811057477921
2.1448393513225708
1.3073955040514371
-1.3898913700881348
-1.0286693030416048
-0.7886998542233417
0.2919596136860426
0.6187102882045583
-0.37659220121452797
-0.6263447277566904
-0.23151780808526584
0.9323598328596536
-0.5981678494137008
0.055977045883613866
1.482877266199936
-1.5937509156030278
-1.004220709201418
-1.3924914763673757
-0.24027591513143662
0.12337004796218375
0.5127318784192935
0.27147849443354816
-1.9758047033266999
0.017501355469319274
-0.46485912252211525
-0.32092345281055296
-0.585254595429582
-0.06246625380392762
0.9075745444411275
-0.8451008169121643
-0.7104889269315766
-0.16700419181383822
-1.2366267483368845
0.34777663072363646
-2.0316192658758796
0.32445977968176454
-0.7326906735122566
-1.1251204527912637
0.16258677414460865
1.819507976820066
0.9019069994024602
-2.6190666111274292
0.5387538231448264
-1.0845809490488898
-1.4183300419904887
0.06248364410239177
-0.8965096179097574
-0.1367886871458605
-0.43707773631950736
-0.7438208761226776
0.35827008432177365
0.8302002401923866
0.8877765367341919
-0.3193943346323873
-0.21839887373372446
1.1672587971135377
1.3107269482725652
-0.0017104568958177947
1.390501356009276
1.481695911498574
0.6151500390350387
0.1373666198658973
1.8543637702322815
0.36512174594066316
2.111506575904587
-0.3679089461660327
0.8067381735655689
0.7891980678711245
-1.462974271507246
0.2679257191695618
0.056837656305828106
1.6898334326761615
-0.18375208002213364
0.14888515029496105
-0.7590852872231411
0.7556231731872922
0.3689067624879102
1.5758289902903442
-0.299496908389765
0.13910085305861736
-1.0360981680864603
1.2167917358519498
0.25242369460894687
-1.0012123969355466
0.15064164387439613
0.5339928869427337
-0.3238984611149758
1.5593214691238966
-1.764751952683252
-3.0007739641295674
-1.131468075571476
1.159882527749949
0.7693934504276879
1.8062240284446713
-0.47358280137991876
1.4034122988801232
-0.18777426706618155
0.10157989741638454
0.8366602386640923
1.1601863859530739
1.5841808499961172
0.9645351398624635
0.13909557137471745
-0.4949791597591528
-0.5142105105719149
0.05110082804021732
-0.6260031290033975
1.1866454538440223
1.0543753846964274
0.47260111900068247
-1.2964998571123594
0.48593696371447304
2.003685064975491
0.2853476068697661
-0.0626120202044765
0.7378192397998422
0.8684756042107646
-0.7843582905626343
-0.33273847094392106
-0.26910536163937254
0.07576510005825518
0.9147117659345543
-2.5440131483370965
-0.5791679882208968
0.29044235302344773
0.0906876349317562
-0.10213984197279002
-0.22795323445036136
-0.2568875277988258
-0.634043406043411
-1.3206331594359342
-1.2741822234881304
-1.3478326576858757
0.6535691042857332
-1.0350723695914128
0.14215480223618385
-0.7212082744188688
1.8841796830921487
-1.1975406462308593
1.097154846066042
-0.6415440688133135
-0.965165512552321
-0.311408862993114
-0.5566105610255425
2.033019046366999
1.8972272186721832
-1.4347302309894985
0.8763884644073044
-1.6749213470642728
0.9935628239925074
-1.0708794930033023
-1.1798333666779288
-0.3866201966986887
-0.006380804655654102
1.0214011114447408
1.4683453788991239
1.0044458986067437
-0.4000588329694541
0.10307111105723772
-2.2930237693852917
-0.4942815813408728
0.4293722445590492
0.7603230832269456
-0.85916066127445
-1.2729043839069392
-0.4891577937731827
0.21820231534201015
-1.8381010151712487
0.5470721171868047
1.4353124271105802
-1.157830061361182
3.1183745962833074
0.4200936545941277
-0.21318880528308765
2.099566177682906
-0.0023569754306385906
0.2170948401842557
-1.481138892481853
-0.6439950427463388
-1.1900667365859545
1.528975619735933
-0.7822188084892893
0.0411959048801652
-0.1989515835158884
-1.9185909649078747
-1.7710989491569316
0.17755211199993917
0.3629355633477523
-0.1968092308926896
0.06534771322668181
-1.130410608326479
0.19773570096750825
1.7275947649040975
-0.23800091755478264
-0.1479124362104501
0.614405413636382
-0.3190487282282874
-0.6271196584695399
-1.6002328018146434
1.3614332256605344
-1.204858263425898
0.9115983457501369
0.5430881622323103
0.249760267652808
1.9931644294109485
-0.5686371704656228
0.18430539207240104
2.211750548722848
1.0343226309202453
1.171285945943813
-0.5197690573871444
0.16669918361287903
1.049210779534285
0.0037788942010011845
-0.22156272459082588
1.1028083946120464
-0.5023620057254907
0.10816412193173232
-0.28641397491729637
-1.2439459083222169
-0.978944448121672
-0.27177548706761656
-1.3685888702238176
-0.5526770128195572
-0.37025637900934977
-0.8054939338548733
-0.8267014406230538
0.39413482018239654
0.6648897193855188
0.2656195031360315
0.6850156245756752
0.3484225292681692
0.5502080424835329
0.9329434266493969
0.9900843469399514
0.3818713429981219
-0.7473842168749119
2.7687843250078985
0.10162157613350147
-0.2620728364018171
-1.1121937183909496
0.8825945991673939
0.9714729916087236
-0.37768798404984516
1.0691894737953822
-0.3318336978022052
-1.605264387779188
0.7886739096280935
-0.5786838422900087
0.5607478061099416
0.445073901002928
0.4946970960561541
0.48510009301090273
-0.38435596900877567
-0.14759716255328076
-0.5050938298328694
-1.8405747510451949
0.013366874170462745
-0.09512350565399277
0.49757855227276404
0.041154522447340636
2.6406488649066113
0.6765190064634627
-1.447756436031772
0.9929285243484727
-0.8614294251312241
-0.526850598619002
0.4968105272199893
0.9582873777950303
0.35072304436924523
1.24696629002236
0.8850790252057437
0.8382991326810724
0.9178656192654747
-1.168521522970294
0.6669341154567365
0.6522169316732498
0.3548286923821188
0.2523559393291482
0.7410910442263892
0.7904456278775458
-0.10384844813453195
0.184575344327629
-0.0666284914020999
0.7630788350386568
0.46629923977515325
-1.2816442869218057
1.1060227933525335
0.6628480988454024
-0.16601422754176162
0.6830128448606354
1.9930392694572168
1.693009776219629
-0.3388598265949693
-1.1117035989150732
0.8243081049884444
-1.0040455701186075
1.4897051484742303
0.1874284673544612
-0.506646795815617
0.7947248070783902
-0.5410995272217913
0.2976576810619168
1.3400792848800671
-0.27610611206191815
0.5636220998613042
-0.2502054351014609
0.5820901211415173
-0.6522275625683365
0.19867587719623658
1.0611447082367786
-0.5696318172412849
-1.1729297542411203
-0.07707354986992482
0.8504938354494999
1.1173125018383596
1.3975365561784716
1.093580987885695
-1.4407586580565623
-0.7233455338765913
0.4261230254697102
0.7776907408301579
-0.7420946088503836
-1.2621132753428677
-1.556125115834797
-0.21830333568047514
-0.2755876878035948
0.9362987025848976
-0.3179547244913082
1.3673805973828668
-0.27744069678027433
-0.3449926039458702
0.31264049272039074
-1.2892852395957866
-0.8812958784391208
-0.07808926104700896
-1.2368213561261403
0.8703632564647577
0.456806428929349
0.27725198461364436
-0.07428001759281816
-0.22615087957867402
-0.9745112928216629
-0.3005999498373831
-0.7416669371233972
-0.24039535508237267
-1.4258134366730486
-2.6791082939041795
-0.3541557120655543
0.3181109845466678
0.7706044378735857
0.35286660351116467
0.5515787785937024
0.6559438858954517
1.434525437845642
1.4010872366890261
0.4040321918082636
-0.9460585485160871
-0.06224364073661635
-0.5034308609675685
0.7256860618307781
-0.2303734710136228
-0.29384675629669865
-1.2525973928009837
1.2632218854735935
-0.34022365241853947
2.4988345357138875
0.6489101817473861
1.2665982802542435
0.7268246972577177
1.305345839452883
-1.1707676423292608
0.38093578330458033
-1.6478782426023253
-0.40146908443894497
-1.9162811532028745
-1.3397336810952207
0.1638833048472127
1.4073453308191266
-0.18858836824405956
0.14374118874386824
0.4966527572749836
0.28263112587046363
0.9130878749457021
-1.0862612518201888
0.3025893403645674
1.4833371947093785
1.2882277768757613
-0.31898612003939114
2.155801533319861
-0.15356251357541253
-0.06143170494558613
0.5519382325311106
2.02193773984597
-1.4575946056982334
0.09510740537460402
0.4746024929532766
-1.4553455818726397
-0.5766031139367267
-0.6153996211129799
0.6405076816552606
1.1275756065754075
-0.5838770584371394
-0.6505653535523994
-0.7680324945512471
1.0843891755003672
0.17956903583301786
-0.9402152320469906
-1.7155389011371351
0.25131670378681875
2.037567579722612
-0.039866650405374356
-0.4076211439960278
0.13811649020665687
0.914518572402772
-0.7516990278093739
1.1823543158234737
-1.6652954595676572
-0.15767909760066082
1.081422094243216
-1.9687387777883565
-0.2641043364081928
-0.5065420194189761
-0.9834224264272218
-0.7916875419538958
-1.5768125599266176
1.2692493808193566
1.467290280609944
1.3711217569975405
-0.7412731631820008
0.8468231411075894
0.17710413525370708
0.6091434059851125
1.8289308498233985
0.30100965984830164
-0.4582461534572255
-0.17626858255663624
-0.013609202405548085
0.39312050170543156
0.1512970823130683
0.15486584737000925
1.8123156452955522
0.6193129459034876
0.15604833692801368
1.092017493574797
0.9016261048473306
0.9363239670000933
-0.5406389512107375
-0.1352756494639012
2.046268582433059
-1.4949233821294305
-1.7018822087303567
0.78913867344899
-1.4849757783298576
-0.22138271394769715
1.1739864981312416
-0.14967305449276094
-0.11895412457357081
0.35529811219175456
0.8027855387547345
0.6310544409633433
-1.3026025485000488
-1.1882323235876877
-0.4653928270637336
-2.7557220672562335
-1.9025440992412899
0.4220638809295025
1.4406516847472233
1.210050642752575
-0.08852347788329784
-0.011565635338399929
-0.15650104487894445
0.8970671753255305
1.1955692388489558
0.6619016464893319
-0.9872289375501622
-0.5021869007702869
-0.2811989583897736
-0.11922855025360285
1.7665646710610667
-1.6888707514474095
0.848739681141935
0.5530990391885082
1.775334477536197
2.1475877034252586
0.5477285302760925
-0.5865244238025986
0.28357462638117975
0.966029323713315
-0.9024484140301553
0.7069887365642283
1.337073850406139
0.9361532290546887
0.3903248394787454
-1.2357401716096668
-0.03803279488475087
0.03491395999803606
0.5171524284250236
-1.901992664610037
-0.24416636398105845
1.2327000193015207
2.0509973866094247
-1.5974611800379936
0.6643720186664963
2.9576581597617375
-0.18794028191341938
-0.10868517670377313
2.126273604140629
-0.7360043654455248
1.0112774702179361
-1.6457727516019391
0.8586173911113266
1.2908499534844065
-0.6873391507431608
0.7311293808826409
0.8931504839799723
-0.2359501488905928
-0.29158294932171214
0.05645150722530939
-0.8097918592129834
0.11870325065807898
0.13401261896984845
-0.40465544596186465
1.2564626004090103
1.0124748916361235
0.2473803157988298
1.143076079134748
-0.06164959339725987
0.2752215645385394
-0.16286526405099253
-1.275642490318793
0.4103192150240326
-0.81462829565497
2.1051049600606713
0.915588819277869
-1.193037553999962
2.120588000570079
-1.317021402559331
0.031748739521112034
-0.01561871452048857
0.899013721827602
-1.7512419836703261
0.47635874717523297
-0.4300253504892424
0.3778934191072977
-1.0928022541505888
1.350393106541366
-0.4053237903289318
-1.4411642939165323
-1.2260370065697395
-1.0726259922618195
1.0155336511674444
-0.5346260995565315
0.10643956182483055
-1.0484543318010808
0.44262937188355456
-0.1739658010959526
0.5992484694861653
0.4691964416743505
-0.07863757296398079
0.48245847373738826
-0.3283150462553422
-0.2601799946896132
-0.09785372082224668
1.3112802433342374
0.992920476050709
0.433885949069858
-0.7069214210793422
-2.260933654080826
-0.286696347453833
0.5811724270603246
0.7045296299221259
-1.5709774986451517
0.3216811374320722
-0.9822419980907412
0.40438773615435847
0.268479442609118
-0.46296251453067355
-1.5604430555055473
0.2692620472076254
-0.8320832897128817
-1.5844792374624606
0.6783101084457163
-0.9452301828229882
-0.6175400282684061
0.7202658821015183
0.17881932511472584
0.7775713709214406
-1.050087950333315
-1.7196242297656623
-1.3728159179188368
0.5007870033414349
-2.628261790361745
-0.4585098718593427
0.8421623422313204
-1.1110434176859323
-1.0824579611029608
-0.5060558577989825
-0.5970072444203877
-0.35956535529531436
1.4207841091415079
-0.5474974306560275
-2.2327342498960716
0.544697722832573
2.582596161052754
-1.0152870927573727
1.2958636936993215
2.76495249875237
-0.0391928253546155
0.1695923162755422
0.5330119174940333
0.9782009213124081
-0.4444210503630981
0.19053794184482495
-1.0042465483367216
0.5139170576124853
-1.0215975312647765
-1.4522658987046888
-1.3877390713418987
-0.3331045134487906
1.1165832974474676
0.582390229330101
0.5699599497102722
0.19004710510799736
1.1822182615404875
-0.8857823375339405
-1.7758568299586852
-0.8110502126696774
0.5699437534461061
0.2860911162029662
1.2365367001424594
-1.0407610196302652
0.43330315890584475
-1.2638314652453337
-0.9724051341298919
2.518763879932173
1.010932845515701
0.8171117827213233
1.0960587241868773
-1.052080394162929
0.501013602712974
-1.1449297855250153
0.3754019496612537
0.2048653644426151
-1.2811629168965522
-0.10021561780561379
-1.6286708607999398
0.01925473065457587
-1.7659542731679592
0.0037624150850280717
1.142261794272093
0.891439030320139
0.7507014951742389
-0.6871321896728214
-0.30527882641778387
0.9144398461859568
0.45094093348176284
-1.2702346099750208
0.2588644968242793
-0.509094079613234
-1.42934905053184
0.8521105358167459
-0.4014582338121013
1.1483182509682213
0.9871525973229178
-0.21688536937448985
0.8676108347193862
-0.6392333283624005
-0.06748943419203775
1.1233484047817663
0.25464282724340065
0.2871238903995634
0.7660817442818819
-0.43851779734477897
0.7667892375964253
0.16499295124354235
-1.901464203148231
-0.926835270091269
-0.09371995154335712
-0.2724552254398494
-0.39670923219804666
-1.1057194376912014
0.8046679451206883
-0.4425670221841283
-0.8444184734212431
1.2919281844761825
0.01891467503107174
0.2595360337900315
-1.157554357941884
-0.7673704324018403
0.6340099961050168
-0.9292572097131673
-0.0170988834877815
-2.3004471196146845
0.22852834810745984
-0.8700654932705362
-1.4201764106282622
0.4025961677872518
-0.263339154996511
-1.290582670875375
-0.2386421901629219
-0.31990723946906985
0.9810538760166136
-0.7784998760446089
0.9538075364925822
0.7200812706380803
2.2063396887877147
-0.8923809727024165
0.8712647451203549
-0.26583311549965816
0.8208045947814899
-0.3074332296372648
0.20428831703982456
0.2213628098400728
0.4467035617811345
-0.436636409382054
0.907403978546271
0.7537588514043355
-0.21289767110762312
0.8963377365465178
-1.4991197946962798
0.505765958170578
0.024694379088368135
-1.2860136643170264
-0.8993911007211054
0.060288451441627644
0.7717233159433884
0.19049576669523816
0.32268234052367784
2.1358175159821267
2.586781913242988
0.6250832548226178
1.0903012594454113
1.3278557556360242
0.9522055755392534
1.3343791749330323
-1.1640575351883653
2.034512383803131
2.1958298621230044
0.2082674448171258
0.4490246346814067
-0.18530672732664646
-0.6568282526520762
-0.5801779892326843
-0.02570914870756822
0.007952072288832287
-0.9113142088126626
-1.2615253390427825
-0.5492587950628118
0.2946604577435494
0.6969872109700171
-1.044900991584471
-0.34186410733530403
-0.890477257388584
0.03261745298958249
1.0100047059397883
0.1175114398035007
2.043735018781133
-0.44751849080583084
-0.1253509375514543
-0.7547652164152548
1.6415851695886172
1.9826917581159857
1.033873658695831
1.4331147117414553
-0.07413674172347716
-1.2247320046573213
0.2721244408747188
1.7464713374578893
1.7783427764207007
-1.3327449472095858
-0.5454744371652027
-0.7048439071565881
-0.9423037573088918
-0.05542778473884316
2.174194326654161
-2.167896037269776
0.4795881067128996
2.6954732472448057
-1.0284674329526542
1.4899882015401782
0.9459785894640304
0.38089081550767534
2.0922092532846244
-0.018838960067974402
1.1803402950882211
-0.10498371681980256
0.01256417684769613
0.9262713593544611
1.6143233117749591
0.27758389552641843
2.654426055031232
-0.4624005606302525
0.07135620189020868
-1.142450393612325
0.570860539846952
0.41948908098283877
-0.7162724227502119
1.17884984317854
0.8435635235250731
-0.7525419150145634
0.30865776231961045
-0.08683966397770523
-0.5415868343552434
1.0003008385451067
0.370001198659008
0.06650580985883363
-0.12198034194075744
-0.15815016279372276
-0.4471402662926628
2.2861676239352757
1.5803055843499307
0.21183363903046779
-0.13161782322602317
1.3504682734532443
-0.7475354232116584
-1.3147857146590596
-1.6695008433679062
1.627611518400589
-0.26643017987599926
1.5237352561964848
0.663615479915372
1.0846605867816643
1.3315052390658995
2.4625839641362166
0.18454643938230703
0.2638837889416028
3.4701182274053015
-0.09397858215111754
-0.3169174470111789
0.3294488314453809
2.368935696089784
-0.7207191851486178
-0.19551770331964036
-0.3512517217628575
0.30312441839605525
0.5964123459448104
-0.8859508085111936
-0.10461012994212004
0.07966114581200542
-0.5927882640472232
-2.833739127015715
0.5669439145291731
-0.5771174835882013
-0.9160252047317269
1.0549614250604913
1.5121049907078896
0.9256560881392483
0.30673937640643056
1.5722855306768988
-0.2527784313461046
1.157705449418758
0.06383811986960834
1.029234063029944
1.957476437977171
0.6065130171149811
0.05768783276664798
-1.3477878787376454
-0.03533775810432787
0.6562284774588617
0.8899331745409779
0.1277896345702735
1.0691542003119399
0.2884769816838039
0.2676473042175861
0.1139708236988883
-0.2348343005192192
0.7502754720696223
-2.5609414277299076
-0.6509577109456275
0.5173522511829447
0.858069779717569
0.20778099785910728
0.34635370607506927
-0.19109111756206304
-2.440328273307189
-0.6327569024245747
-0.2242667636688769
0.6785475632762094
-0.5708851498488948
-0.15158130353517477
0.45323883025077705
0.9511599346718184
2.7317488343994576
-0.05189764450268749
-0.5936163632605624
0.08498118890254787
-0.35898774984141063
0.657839669109774
-0.3042836039120546
1.0507816036970565
-0.5820092625819113
0.7087475745530364
-0.5179431639480958
-0.6723491106527889
-1.200766963462999
-0.6969119051503736
-1.0208256442362242
-2.02409999763277
-0.9157056843131401
-0.24901699495595156
0.516048869015106
0.9738232364310923
-0.16582271842109242
-1.0124190196028984
-1.2213870244862741
-1.608342892670787
-0.5036521755449043
-1.88971933116454
-0.6334346829586955
0.6683660315143048
1.0911576484992538
1.165171273925794
-0.7950959057215798
-0.013397357615307985
0.6887633393102482
-1.0993816837186212
1.0179820679472071
0.04527008043915675
0.6596351708365364
-1.0052578338030373
-0.2501069767957708
-0.9985849119507535
-0.04054715565910379
0.09325310300360776
-0.2667591057355289
-0.8881962845746344
-0.895952115515875
1.58040027360552
1.162452982764869
1.248432203946246
-1.0252672672881755
1.0882749107383376
0.37495610148052644
0.24175158255161525
-1.2356504926263328
-1.9668471204689837
-1.5099293184809022
-1.2138547741025596
1.0751807884677627
0.6218396539632647
2.2010680334294572
0.015638248374118584
-1.6824622652471133
-0.4658271871334933
0.774241810226436
-0.1436527291148416
-0.7510312259013813
-1.8560611903107966
-0.3849473470203499
-0.4666841628941725
-3.9502161743284354
-0.6162596600500055
-1.711990688271083
-0.2951575192094499
0.011926315125338474
-0.3634460578530008
-0.9660590436212877
1.4787635011678937
1.3768280240301
2.919077160417458
1.7715249140472626
-1.0601762785370055
-2.7624263669853852
-2.249728003015344
